<?xml version="1.0"?>
<opencv_storage>
<opencv_ml_svm>
  <format>3</format>
  <svmType>C_SVC</svmType>
  <kernel>
    <type>RBF</type>
    <gamma>5.0625000000000009e-01</gamma></kernel>
  <C>1.0000000000000001e-01</C>
  <term_criteria><iterations>100</iterations></term_criteria>
  <var_count>36</var_count>
  <class_count>2</class_count>
  <class_labels type_id="opencv-matrix">
    <rows>2</rows>
    <cols>1</cols>
    <dt>i</dt>
    <data>
      0 1</data></class_labels>
  <sv_total>200</sv_total>
  <support_vectors>
    <_>
      -4.55582052e-01 1.35132229e+00 -2.24215984e-01 4.97628778e-01
      -1.06186020e+00 -2.21894979e-02 4.11716521e-01 4.02064055e-01
      1.88154295e-01 -3.62259358e-01 2.95282066e-01 -8.12036991e-02
      -4.81363624e-01 -2.63494134e-01 -2.76250504e-02 8.09865370e-02
      -5.48024029e-02 -3.27406414e-02 -3.11520081e-02 -2.94317514e-01
      -2.01014444e-01 -1.29053041e-01 -3.93482149e-01 7.97710121e-02
      -1.52782992e-01 -3.21401805e-02 -6.09908067e-02 -8.44708011e-02
      2.04439759e-01 1.63274091e-02 4.38207053e-02 1.19302854e-01
      2.72892445e-01 -4.55203623e-01 1.60390854e-01 -4.18355405e-01</_>
    <_>
      5.96181870e+00 1.64893615e+00 -1.66413319e+00 5.78840852e-01
      -1.07813370e+00 4.60079342e-01 -1.23896134e+00 3.12543988e-01
      1.43028840e-01 -6.22645169e-02 3.04568350e-01 8.89522910e-01
      1.09765492e-03 -7.99818635e-01 -7.39217252e-02 -1.86834242e-02
      6.40634894e-02 5.64540252e-02 1.71278492e-02 4.02748674e-01
      6.11439394e-03 2.17032924e-01 -1.38572320e-01 -5.21880165e-02
      3.04401249e-01 1.76435277e-01 1.60861596e-01 1.65121973e-01
      -2.61024147e-01 -1.88717768e-01 1.07921727e-01 -3.36957306e-01
      8.06527957e-02 -7.57503882e-02 1.33217737e-01 -2.60130674e-01</_>
    <_>
      6.52198970e-01 6.48536563e-01 -8.83069396e-01 6.92983866e-01
      -1.64612019e+00 -5.01123548e-01 -2.01149255e-01 6.78350925e-01
      3.92046660e-01 -5.75543940e-01 3.13371539e-01 -7.47469673e-03
      1.94472477e-01 -1.04049727e-01 5.79432249e-01 -3.67738038e-01
      3.34841572e-02 3.68052572e-01 1.68644115e-01 3.58745635e-01
      -5.28128982e-01 9.05038044e-02 -1.57455236e-01 -7.05227554e-01
      2.54641920e-01 -3.23117107e-01 -1.10331282e-01 5.21964669e-01
      2.09874883e-02 -4.55361009e-01 2.96977371e-01 3.33101213e-01
      2.33735919e-01 -2.02717587e-01 2.27624878e-01 -7.81252086e-02</_>
    <_>
      5.95816672e-01 1.17610946e-01 6.88132569e-02 9.93697196e-02
      -2.69324124e-01 -1.07395038e-01 8.80221894e-04 8.77835322e-03
      -1.47679746e-01 -4.21637967e-02 -1.69947416e-01 3.21948171e-01
      -9.67789590e-02 -4.27885214e-03 3.94116677e-02 7.41875246e-02
      1.52842373e-01 -1.72567274e-02 2.27060840e-02 -8.89400169e-02
      -2.16160845e-02 1.32691279e-01 -1.13305986e-01 -1.00684725e-02
      -6.57574311e-02 -9.30505842e-02 6.28070673e-03 3.41397747e-02
      -3.53482701e-02 5.96053563e-02 -3.99576239e-02 -1.19472034e-01
      1.16519064e-01 -3.12428717e-02 2.94171106e-02 4.57006693e-02</_>
    <_>
      8.57983530e-01 1.73453927e-01 -4.90604460e-01 1.19081207e-01
      -2.44759575e-01 -1.09846726e-01 4.22851071e-02 3.70244496e-02
      -8.26994926e-02 -2.55142391e-01 -4.66339260e-01 1.98656917e-01
      -3.60834479e-01 6.81669861e-02 -1.95205584e-01 -8.22279751e-02
      7.10375011e-02 -1.60343125e-01 1.00728214e-01 -1.90914631e-01
      -1.49780810e-01 2.54341066e-01 -1.92611903e-01 1.56109296e-02
      1.37915403e-01 -2.23437041e-01 2.04525411e-01 8.06524232e-02
      -1.25466093e-01 1.41004577e-01 -1.49380580e-01 -1.52156830e-01
      -1.80934928e-02 1.93808749e-02 -2.35912740e-01 -1.14729360e-01</_>
    <_>
      -1.27304330e-01 7.90945470e-01 -6.11152425e-02 3.33448350e-01
      -4.46628451e-01 9.69719328e-03 2.02509180e-01 1.08430758e-01
      -3.44693512e-02 -1.21166453e-01 -3.71679366e-02 2.68452376e-01
      -8.08463059e-03 5.98935410e-03 4.71120290e-02 -7.94450268e-02
      2.14290470e-02 7.24682584e-03 -1.87482666e-02 -1.93415463e-01
      9.13726166e-02 4.01069364e-03 -4.15751815e-01 1.55852422e-01
      -2.86017269e-01 -1.59134969e-01 8.12945664e-02 8.00737813e-02
      1.01208715e-02 -9.07516107e-02 -8.48420188e-02 -1.29084110e-01
      -7.65375141e-03 2.87066549e-02 -1.42661771e-02 3.12051810e-02</_>
    <_>
      7.21057773e-01 9.00496185e-01 7.58668259e-02 8.16620529e-01
      -5.71851730e-01 -1.67717129e-01 2.35382095e-01 -6.09858669e-02
      3.58850896e-01 -3.07809412e-01 1.14103988e-01 1.21361457e-01
      -1.38858736e-01 -6.01519719e-02 -6.64820150e-02 -1.77954674e-01
      -7.03108832e-02 -7.16021359e-02 -4.12520804e-02 -1.19722649e-01
      1.04092814e-01 1.48797616e-01 -2.35026609e-02 -2.82760453e-03
      -1.94432572e-01 -9.99944955e-02 2.59658277e-01 1.77723289e-01
      -3.29674512e-01 7.89663289e-03 -2.00369254e-01 -7.06928596e-02
      -4.34149802e-03 1.53475955e-01 1.24407649e-01 1.52899638e-01</_>
    <_>
      4.13119984e+00 2.58305049e+00 -8.97080660e-01 2.16754317e+00
      4.66974705e-01 -5.63593984e-01 5.22768199e-01 -7.08797753e-01
      4.30531837e-02 -4.03959334e-01 3.69544238e-01 2.88845807e-01
      -1.27838039e+00 -3.58225584e-01 3.60769808e-01 -3.00751954e-01
      -3.54514085e-02 7.78692901e-01 -3.13553922e-02 -6.35950208e-01
      2.82240391e-01 1.82032704e-01 2.34025002e-01 -8.05538118e-01
      -2.03323051e-01 -4.72903289e-02 -3.66361216e-02 2.22483985e-02
      -3.18243414e-01 5.67357898e-01 1.30106553e-01 -5.19869745e-01
      1.41201764e-01 -1.07901059e-02 8.82909119e-01 -1.37149215e-01</_>
    <_>
      -3.55435789e-01 1.06104028e+00 -5.49549460e-01 3.65091711e-01
      -8.52906525e-01 1.22564156e-02 3.29502344e-01 1.93179801e-01
      -1.62301555e-01 -1.22612722e-01 1.12908967e-01 1.91539675e-01
      -1.44130915e-01 1.46297500e-01 3.46253291e-02 -2.70201653e-01
      4.38351244e-01 5.53300679e-02 -1.35889091e-02 -1.24488614e-01
      3.62284817e-02 7.57550374e-02 -5.75750172e-01 6.77083358e-02
      -3.06642484e-02 -5.39031401e-02 -3.30793895e-02 2.52338201e-01
      2.54347231e-02 -7.68197924e-02 -1.87336020e-02 1.03600174e-01
      2.72024274e-01 -1.94087196e-02 -3.10413718e-01 4.48646396e-02</_>
    <_>
      9.33775485e-01 -1.18677473e+00 -3.31820041e-01 2.90021801e+00
      -1.14764190e+00 -4.62825656e-01 2.99429536e-01 -6.33004382e-02
      -9.20463979e-01 2.93863297e-01 -5.00707150e-01 5.48064828e-01
      -6.83095753e-01 5.62614560e-01 5.58770835e-01 -2.52970576e-01
      5.38084954e-02 4.89200145e-01 8.40645075e-01 1.16369343e+00
      -7.26724565e-01 1.82496086e-01 -8.89379438e-03 -1.53854385e-01
      -1.57385719e+00 3.84107620e-01 1.18265367e+00 -2.39804104e-01
      -1.99153498e-01 4.21215773e-01 -6.70007095e-02 9.90632772e-02
      7.88967237e-02 6.51162788e-02 6.80520609e-02 -5.91104507e-01</_>
    <_>
      2.76673102e+00 2.39417219e+00 8.10763717e-01 7.92153299e-01
      -3.48518193e-01 -3.38688523e-01 -1.57117999e+00 1.22483231e-01
      9.62691382e-03 2.81359404e-01 6.43640384e-02 4.13792491e-01
      5.21547273e-02 -1.76031977e-01 4.91699010e-01 -3.22479963e-01
      2.53931969e-01 -5.97878039e-01 -5.85459232e-01 -4.72503453e-01
      1.25267198e-02 7.34044194e-01 -2.45502368e-01 -1.99721918e-01
      -5.15864670e-01 -2.42961720e-01 -9.39599574e-02 1.86656162e-01
      -2.53067046e-01 -2.79814988e-01 1.12742640e-01 2.05516722e-02
      1.64290041e-01 -9.19909924e-02 2.81654954e-01 3.89634490e-01</_>
    <_>
      -3.79368722e-01 1.52909267e+00 -1.60529345e-01 6.68330967e-01
      -8.28762710e-01 5.14791720e-02 1.93064749e-01 5.38392738e-02
      1.21800683e-01 -1.85736790e-01 6.03448078e-02 2.82646626e-01
      -2.83104032e-01 -1.84190989e-01 -5.82701527e-03 -5.91940954e-02
      8.88507888e-02 -2.55987532e-02 -4.58578467e-02 -4.84225340e-02
      5.41463718e-02 3.41857336e-02 -8.50132480e-02 2.06865743e-01
      -9.51599255e-02 -7.96909481e-02 4.74237837e-02 3.53426486e-02
      8.35681558e-02 -6.99016601e-02 5.41000664e-02 3.03678475e-02
      4.04580906e-02 -1.90560460e-01 -3.37507054e-02 -9.22575220e-02</_>
    <_>
      5.41250849e+00 1.31835818e+00 4.32547368e-02 9.25883204e-02
      -1.09162891e+00 -5.13381302e-01 -9.09536257e-02 -1.87424757e-02
      -5.49588799e-01 -1.24548304e+00 1.90540388e-01 -2.58844551e-02
      -8.53293180e-01 4.78639305e-01 -4.76767898e-01 5.96049070e-01
      7.38331199e-01 1.33655930e+00 -3.10967684e-01 -2.69566476e-02
      -4.73434508e-01 5.61893582e-01 1.94924939e-02 6.01549409e-02
      2.03116477e-01 -4.20670718e-01 -1.20124936e-01 -3.52358103e-01
      -2.84794271e-01 -4.80605572e-01 3.32394511e-01 -2.69000560e-01
      5.47090888e-01 -3.53925675e-02 -1.15485474e-01 2.65073508e-01</_>
    <_>
      2.30607343e+00 3.30787182e-01 2.93518305e-01 8.81519556e-01
      1.41438628e-02 1.66600153e-01 8.05782080e-01 3.91694605e-01
      4.78105009e-01 -4.90803242e-01 -1.57529995e-01 6.02788210e-01
      6.30795240e-01 -9.58116073e-03 -3.19671072e-03 -2.56284952e-01
      2.43604720e-01 -3.00473332e-01 1.70663550e-01 2.73416098e-02
      -4.48329598e-01 8.06270242e-02 -1.06235310e-01 6.88104689e-01
      3.29723358e-01 -3.10975730e-01 -2.43388349e-03 3.47160637e-01
      -3.44327837e-01 3.71694624e-01 2.05785707e-02 2.16199458e-01
      5.02978742e-01 -8.10871199e-02 2.52934426e-01 4.52420026e-01</_>
    <_>
      5.54747725e+00 1.73131955e+00 1.87005341e+00 -3.30187343e-02
      -1.76198924e+00 -6.42495811e-01 1.18760502e+00 -2.22101156e-02
      -5.36932610e-02 9.18302298e-01 -4.60860521e-01 2.32761383e-01
      -1.25758536e-02 2.48251557e-01 1.09386933e+00 5.56239009e-01
      6.94344580e-01 3.44722599e-01 -2.46921077e-01 -4.35378522e-01
      2.36894622e-01 6.45038784e-02 -2.08495349e-01 -1.34771839e-01
      3.46109480e-01 -3.72264497e-02 6.95554793e-01 3.47276926e-01
      -1.31694198e-01 -8.53398058e-04 -1.73052564e-01 5.98011389e-02
      -9.20065641e-02 -2.23809838e-01 1.93780705e-01 -1.44302592e-01</_>
    <_>
      5.82112558e-02 8.74688566e-01 9.38667431e-02 1.85585052e-01
      -9.41269636e-01 -7.57955611e-01 4.08578455e-01 2.16358274e-01
      -3.06718022e-01 -2.41050720e-01 1.35296106e-01 -2.46410817e-01
      5.41845299e-02 5.64732254e-01 -3.62558335e-01 3.80360842e-01
      6.38836026e-01 -2.74207473e-01 5.71843795e-02 -3.14168304e-01
      -5.38516082e-02 1.36010662e-01 -1.18050389e-01 2.28016734e-01
      -1.67734921e-01 3.18067491e-01 3.58787835e-01 -2.19081208e-01
      8.42440352e-02 3.19383353e-01 -2.52453685e-01 -9.31364149e-02
      -4.80913483e-02 5.29220216e-02 7.15020820e-02 -8.26523826e-02</_>
    <_>
      3.55450940e+00 9.45239007e-01 -3.21492267e+00 3.11316192e-01
      -6.39735997e-01 -4.06790286e-01 -1.25125080e-01 7.60935724e-01
      5.48927903e-01 5.68939745e-01 -1.23428142e+00 5.32265663e-01
      -3.85560542e-01 3.50774556e-01 -7.20936716e-01 1.48631871e-01
      5.20073511e-02 4.73482281e-01 2.47055337e-01 -5.35504997e-01
      3.64833534e-01 -5.91035783e-01 -1.86182827e-01 5.84020503e-02
      -2.61881258e-02 -1.43793732e-01 -2.97112316e-02 1.23293191e-01
      -3.88893455e-01 1.49649054e-01 1.88765917e-02 1.99168071e-01
      6.21470287e-02 -3.78322214e-01 1.55417576e-01 1.31952772e-02</_>
    <_>
      5.26373148e-01 1.79026395e-01 4.95231673e-02 2.18173042e-01
      -1.92203015e-01 -1.88777849e-01 -6.56080479e-03 -6.53476045e-02
      -1.23792492e-01 -6.33431152e-02 -3.44454758e-02 3.62116754e-01
      -6.88141808e-02 -1.56703979e-01 1.13516308e-01 6.85334355e-02
      1.71023145e-01 5.28428927e-02 3.24459597e-02 -8.45944360e-02
      4.58463766e-02 1.04168780e-01 1.28785729e-01 1.60143733e-01
      -1.03500940e-01 -1.94820076e-01 1.32708810e-02 2.81979050e-02
      -1.46356568e-01 -4.26304787e-02 -5.41084968e-02 -1.65273592e-01
      3.25918605e-04 -1.27170468e-02 1.65673509e-01 2.52536935e-04</_>
    <_>
      4.70718861e+00 6.95260823e-01 -2.70774627e+00 -5.01035333e-01
      -1.63498151e+00 -8.07496607e-01 -4.52427119e-01 -9.36355770e-01
      -3.91857088e-01 7.61028826e-01 3.65177006e-01 8.90466332e-01
      -3.65970284e-01 5.57034492e-01 2.23001510e-01 -5.85701108e-01
      -1.52504429e-01 2.95260847e-01 -5.77935696e-01 9.20890421e-02
      3.92373279e-02 1.86674237e-01 -4.90386337e-01 2.37546951e-01
      -3.48218292e-01 -4.24321443e-01 -1.83575869e-01 -9.66670588e-02
      3.42663913e-03 2.15258494e-01 -1.10019319e-01 -2.97923572e-02
      5.24034835e-02 -1.08038098e-01 -3.12749207e-01 1.35324582e-01</_>
    <_>
      2.68868256e+00 2.17451096e+00 2.68498540e+00 8.80044997e-01
      -4.29272473e-01 1.78693771e+00 3.90535086e-01 5.22562563e-01
      2.61762828e-01 -9.91434932e-01 -7.03515232e-01 9.26201403e-01
      -7.39425540e-01 -7.55496398e-02 -3.48024756e-01 8.73577356e-01
      -2.74904549e-01 1.20388590e-01 3.52699488e-01 1.08217552e-01
      -1.35603212e-02 2.09076852e-01 -4.57311302e-01 -1.21389657e-01
      6.76518232e-02 5.08707762e-02 1.12931184e-01 1.11426814e-02
      -8.37980136e-02 -1.68147683e-01 -1.24694826e-02 -1.98492870e-01
      3.97378653e-01 -5.93536198e-02 -1.49324447e-01 8.74590129e-03</_>
    <_>
      -1.03891909e+00 2.07981730e+00 -3.91326457e-01 7.22885013e-01
      -7.40274131e-01 -3.39155905e-02 1.45249888e-01 2.83692647e-02
      -3.17988157e-01 -1.88814610e-01 -1.45290852e-01 8.48889887e-01
      -1.40984237e-01 -2.09083054e-02 1.68391734e-01 -2.97055393e-02
      2.83849835e-01 4.36532646e-02 2.68298443e-02 -1.32756025e-01
      9.32951197e-02 5.36278971e-02 -3.67266056e-03 6.70229550e-03
      1.74155179e-02 -2.37644643e-01 7.62461349e-02 1.84311002e-01
      1.01608537e-01 -1.15662785e-02 8.30597579e-02 -6.89416751e-02
      1.02974154e-01 -1.88010097e-01 9.56838503e-02 3.80300432e-02</_>
    <_>
      6.53862298e-01 -1.87987342e-01 1.57425925e-01 3.45891230e-02
      -1.64904311e-01 -1.17572933e-01 1.35860339e-01 -6.67420700e-02
      -1.83303639e-01 3.31531116e-03 -1.38658389e-01 3.18653762e-01
      3.01054399e-02 5.13016693e-02 8.62999167e-03 4.05960828e-02
      1.73223659e-01 5.04746512e-02 -4.14693430e-02 -1.33697122e-01
      -5.28523102e-02 1.30849272e-01 -5.94728626e-02 1.15746193e-01
      -1.16573803e-01 -1.02056578e-01 2.26529445e-02 9.29526240e-02
      -1.43928990e-01 -7.54025653e-02 -6.31782487e-02 -1.41532749e-01
      6.89986423e-02 4.90471721e-02 4.31481414e-02 2.05537118e-02</_>
    <_>
      7.92670608e-01 4.51258183e-01 -1.75233975e-01 5.43068528e-01
      -3.77016127e-01 1.83136865e-01 2.31585860e-01 8.15753937e-02
      3.22120577e-01 -6.64294288e-02 2.57403590e-02 2.21054211e-01
      -6.70361742e-02 -2.31815830e-01 -1.15549430e-01 -2.05722049e-01
      3.01005065e-01 6.17651083e-02 8.86480212e-02 3.17289010e-02
      1.65453881e-01 -1.19468041e-01 -1.14168383e-01 1.23783872e-01
      -2.25139651e-02 -2.13970780e-01 -8.94646794e-02 -1.65546797e-02
      6.82355762e-02 1.17194787e-01 1.44548099e-02 -1.69132903e-01
      3.28219086e-01 -5.37273996e-02 9.47769955e-02 3.42412628e-02</_>
    <_>
      4.95498419e-01 2.78498717e-02 -1.14199497e-01 1.56006306e-01
      -3.98701966e-01 -2.40536481e-02 -4.16590758e-02 5.57201505e-02
      -6.46943972e-02 -1.91301126e-02 6.15675561e-02 2.04671785e-01
      -1.07604519e-01 -2.27270853e-02 1.10319391e-01 3.95690911e-02
      2.59938270e-01 3.74069251e-02 1.15715273e-01 3.25041264e-02
      8.47727656e-02 1.16714045e-01 1.01595901e-01 1.59872472e-01
      -6.58721924e-02 2.30512731e-02 -2.72461232e-02 6.58537596e-02
      -9.44145024e-02 -1.89188868e-02 4.92260344e-02 -1.16307840e-01
      1.63449287e-01 -1.66132316e-01 1.25635527e-02 -1.63085070e-02</_>
    <_>
      2.75974512e-01 1.55215800e-01 -1.05940895e-02 9.21662897e-02
      -2.36248598e-01 2.81410851e-02 9.00633484e-02 9.74479467e-02
      -1.22515187e-01 4.92158765e-03 -1.55802727e-01 3.65667075e-01
      -2.77336091e-02 7.21521676e-02 3.65221165e-02 5.39528998e-03
      2.81115681e-01 4.22791988e-02 4.06639352e-02 -1.24894910e-01
      1.12502426e-01 1.47696510e-01 -1.98973387e-01 1.02885902e-01
      -7.70876184e-02 -8.86112601e-02 5.26919663e-02 -1.59445163e-02
      2.81603113e-02 6.19905517e-02 -7.29964301e-02 -1.99214086e-01
      9.71500129e-02 4.18829396e-02 2.65557878e-02 -3.90911661e-02</_>
    <_>
      5.84255838e+00 1.46201360e+00 1.95676416e-01 1.07104039e+00
      -6.11236632e-01 1.38910007e+00 1.44660676e+00 -1.69936404e-01
      -3.14244241e-01 1.72541171e-01 -8.15314472e-01 4.14896607e-01
      -2.88282305e-01 -6.18494272e-01 1.11861801e+00 -4.58487958e-01
      -1.02366909e-01 -3.21198910e-01 3.24978083e-01 -3.62989366e-01
      -5.13387203e-01 1.15498401e-01 1.60117850e-01 4.28124666e-01
      9.60396603e-02 2.55917430e-01 -4.10323977e-01 -6.23829544e-01
      -1.54057041e-01 -7.84114301e-02 -1.10217713e-01 -1.02652617e-01
      -5.41424751e-02 9.39793065e-02 -8.45130906e-02 -1.00230956e-02</_>
    <_>
      4.17466879e-01 1.21771947e-01 -2.22380529e-03 6.41110539e-02
      -2.76183009e-01 -1.31863996e-01 6.93697780e-02 -9.33941640e-03
      -1.68364227e-01 -1.02730088e-01 -3.31102870e-02 3.77516448e-01
      6.19193213e-03 2.06727232e-03 4.68593910e-02 -2.09026970e-02
      2.23448321e-01 7.08746463e-02 4.78666015e-02 -5.68880737e-02
      4.92446832e-02 8.60479772e-02 -6.82947636e-02 1.05696365e-01
      -7.59634823e-02 -1.09913275e-01 -1.05890045e-02 1.17261566e-01
      -8.08958486e-02 -9.17502958e-03 4.40270603e-02 -4.52953391e-02
      1.15227938e-01 3.24652046e-02 1.07919879e-01 4.89074402e-02</_>
    <_>
      -2.76335835e-01 1.03506410e+00 -2.56235212e-01 5.85316360e-01
      -6.64870322e-01 5.71157932e-02 3.00969750e-01 1.13177508e-01
      9.63862836e-02 -3.74482619e-03 2.42396817e-02 1.08445711e-01
      -1.41166508e-01 2.71844715e-02 -1.90592315e-02 -9.23840404e-02
      1.36466712e-01 1.16698211e-02 -2.00732425e-02 -3.16324309e-02
      1.21808603e-01 7.91683570e-02 -2.34788492e-01 5.84559254e-02
      -3.95540297e-02 -8.70962813e-02 8.05945043e-03 4.32186387e-02
      -4.09207903e-02 4.09290008e-02 -3.44632268e-02 -1.99694723e-01
      6.93774596e-02 4.67663519e-02 4.63103084e-03 1.42607257e-01</_>
    <_>
      1.30113766e-01 3.79535735e-01 -1.04584202e-01 2.58496374e-01
      -2.08118975e-01 -2.48719640e-02 4.79625203e-02 1.11314125e-01
      -8.94356146e-02 -6.45503700e-02 2.51953267e-02 2.44348601e-01
      -3.87575254e-02 6.67084828e-02 5.83191626e-02 -1.18858792e-01
      1.99655280e-01 3.68936956e-02 1.38008699e-01 -1.30359918e-01
      5.48055395e-02 8.00039433e-03 -1.96731716e-01 1.06772795e-01
      -1.25887573e-01 -4.45170328e-02 2.84440257e-02 7.99618214e-02
      -1.30038723e-01 -1.37405833e-02 -2.99856756e-02 -2.62877554e-01
      2.88286023e-02 -5.34930639e-02 3.24966833e-02 -1.24762673e-02</_>
    <_>
      3.08498645e+00 2.48381793e-01 1.43872190e+00 -1.54012334e+00
      -3.15082717e+00 4.02220160e-01 1.74404407e+00 -3.38771343e-01
      -2.88343728e-01 -1.00845671e+00 -2.20086873e-01 6.35618329e-01
      -6.16056472e-02 2.72892594e-01 -1.19433038e-01 -8.70482206e-01
      3.01739369e-02 -2.88430601e-01 6.28810287e-01 1.00690886e-01
      -5.01718998e-01 6.52142987e-03 2.93619990e-01 5.19543588e-02
      -2.29312390e-01 -2.86092490e-01 -2.12041572e-01 4.37138170e-01
      -4.05929089e-02 1.96348637e-01 1.81766987e-01 -6.84758782e-01
      5.86851537e-02 -1.02741107e-01 2.90542483e-01 6.85105100e-04</_>
    <_>
      2.71964431e+00 1.29799640e+00 1.49223018e+00 5.72700143e-01
      -5.77036500e-01 -3.60793352e-01 3.59498441e-01 -3.57408315e-01
      1.60943151e-01 -7.23112747e-02 2.87637144e-01 3.64101768e-01
      -5.82441866e-01 6.47371784e-02 2.02071577e-01 -6.86580420e-01
      -1.17078416e-01 1.73545003e-01 -8.39893818e-02 -3.31177920e-01
      7.54182860e-02 -1.73750028e-01 -1.26617506e-01 7.99691141e-01
      -5.57063110e-02 -2.79674232e-01 4.57955360e-01 2.14742035e-01
      -4.49582756e-01 1.49102822e-01 8.05240154e-01 1.44129589e-01
      3.66542190e-01 2.42669061e-01 -5.62654614e-01 9.70556885e-02</_>
    <_>
      -6.27069235e-01 1.69985485e+00 -2.63451159e-01 7.00590193e-01
      -8.26295912e-01 -1.52390912e-01 2.82992274e-01 2.01733097e-01
      -1.47946160e-02 -2.30327696e-01 8.85930005e-03 4.78656262e-01
      -3.55664134e-01 3.44250305e-03 5.83964176e-02 1.07886449e-01
      2.68619180e-01 -8.06389600e-02 -2.33743582e-02 -6.30959198e-02
      3.23790833e-02 1.65926546e-01 1.98978409e-02 1.17353588e-01
      -1.14077874e-01 -1.80889055e-01 -7.08748922e-02 2.36459225e-02
      -7.78923929e-03 9.93446261e-02 4.05500270e-02 2.76967399e-02
      1.41975015e-01 -8.26972276e-02 -3.81204952e-03 -3.43312137e-02</_>
    <_>
      5.82118034e+00 1.98621929e+00 -1.39205113e-01 8.50226104e-01
      5.96549273e-01 -1.85338879e+00 -1.18318819e-01 4.97185558e-01
      -4.41582173e-01 -3.00702155e-01 2.92197734e-01 2.99434811e-01
      4.51297253e-01 -5.21850765e-01 -3.45708251e-01 5.40789843e-01
      7.70917177e-01 -2.74837762e-01 6.51991293e-02 -5.95786562e-03
      1.27601787e-01 4.35880460e-02 2.78480183e-02 3.23686063e-01
      -5.37710249e-01 -1.76674556e-02 8.03787485e-02 1.25832826e-01
      1.89647451e-01 2.80754566e-01 3.21067512e-01 2.58463435e-02
      3.97463471e-01 5.30915707e-02 -2.08526704e-04 -6.80320710e-02</_>
    <_>
      -4.12235826e-01 1.18289924e+00 -2.87174106e-01 4.22774673e-01
      -1.11567605e+00 -1.38671860e-01 3.69214341e-02 4.04796213e-01
      -2.46759921e-01 -1.23383977e-01 -1.76626965e-01 1.60502627e-01
      -9.23224986e-02 -1.21936686e-01 1.75314486e-01 2.07872823e-01
      5.40395491e-02 -1.20208561e-01 4.34990302e-02 1.69858932e-01
      6.40698522e-03 -4.62375544e-02 -1.54931530e-01 1.28758132e-01
      1.80362225e-01 -5.38802981e-01 -3.35064560e-01 1.11577608e-01
      6.03295565e-02 2.84278959e-01 4.44367491e-02 1.43206492e-01
      2.17206851e-01 1.74890459e-02 -6.11412749e-02 -3.81361783e-01</_>
    <_>
      5.81667900e-01 1.69748023e-01 8.82901624e-02 1.36265859e-01
      -2.69973338e-01 -9.88394395e-02 1.29333825e-03 -3.08834314e-02
      -1.66304097e-01 -8.90162215e-02 -1.70344129e-01 2.88667858e-01
      -1.00825399e-01 -7.62943132e-03 1.65817831e-02 3.02200131e-02
      1.57572225e-01 1.07734753e-02 3.99211161e-02 -1.21684738e-01
      -3.29518579e-02 1.40663728e-01 -1.13189973e-01 1.64803900e-02
      -7.19527602e-02 -9.92310792e-02 5.17154038e-02 6.60088956e-02
      -2.54523139e-02 3.13440226e-02 -6.77228048e-02 -1.60848990e-01
      6.02850541e-02 -3.20584923e-02 3.58823128e-02 1.98112857e-02</_>
    <_>
      4.00775000e-02 1.03480542e+00 -5.03601246e-02 9.09451842e-01
      -8.28880191e-01 1.09438244e-02 3.24966252e-01 -1.44850433e-01
      5.00572145e-01 -1.65129066e-01 -1.21551313e-01 3.25166732e-01
      -3.11453879e-01 -1.90381959e-01 -6.09823689e-02 -1.20306291e-01
      2.20465705e-01 -1.00705050e-01 -2.07492784e-01 -1.01955473e-01
      3.84328604e-01 4.28080186e-02 1.88959062e-01 2.06792280e-01
      9.77542996e-02 -3.00764382e-01 7.88430199e-02 -5.92420548e-02
      2.04442129e-01 -8.43694434e-02 9.98061970e-02 -1.70459062e-01
      1.50081620e-01 1.43906742e-01 1.74331620e-01 4.58644405e-02</_>
    <_>
      4.63809967e+00 1.85147548e+00 9.52193201e-01 1.42489779e+00
      -5.93992230e-03 1.37345123e+00 2.51797199e-01 2.98695683e-01
      -1.58875855e-03 5.59373975e-01 -7.91709065e-01 2.07212344e-01
      4.03928906e-01 -4.14726913e-01 -3.16190332e-01 -2.30089843e-01
      5.58558285e-01 -3.19606751e-01 1.76304027e-01 -5.13693877e-02
      -2.75420427e-01 4.66161191e-01 2.18480751e-01 -6.80799335e-02
      -5.02986431e-01 -3.09126109e-01 -4.61715698e-01 6.32228196e-01
      -1.46992669e-01 -7.26101398e-02 1.46677345e-01 3.51283066e-02
      -1.58916906e-01 -4.77984548e-01 5.58050536e-03 -5.31318039e-02</_>
    <_>
      -1.06745034e-01 7.69480705e-01 -1.03039347e-01 2.81930208e-01
      -4.34765965e-01 -1.71023840e-03 1.29087165e-01 1.48483887e-01
      -5.02597652e-02 -8.51658508e-02 -3.17749530e-02 2.59333014e-01
      -2.91762240e-02 5.66019453e-02 5.73292524e-02 -1.15714572e-01
      1.31564448e-02 3.64017896e-02 4.18500928e-03 -1.68167040e-01
      1.39852017e-01 3.11385617e-02 -3.96069765e-01 1.44677281e-01
      -2.04404384e-01 -1.55499399e-01 1.40849352e-01 2.63150372e-02
      1.20035764e-02 -3.55842412e-02 -5.85266948e-02 -7.93489814e-02
      1.74316093e-02 3.84388193e-02 -4.26977919e-03 4.11184430e-02</_>
    <_>
      1.08220744e+00 1.11823249e+00 3.10462624e-01 8.07755888e-01
      2.99478233e-01 6.61890090e-01 -4.73362923e-01 5.95851183e-01
      -1.46653846e-01 -7.87388206e-01 4.39646930e-01 1.32200792e-01
      -4.30992961e-01 3.12014371e-01 5.02404928e-01 7.49261007e-02
      5.40333152e-01 5.56314111e-01 2.02056482e-01 -3.26787710e-01
      2.52901703e-01 -2.42126971e-01 -3.27884182e-02 2.88921356e-01
      -2.75316447e-01 3.21279503e-02 -9.77182537e-02 4.47818875e-01
      3.14613362e-03 -1.21922478e-01 -1.92636475e-01 -5.48995333e-03
      -2.31186807e-01 5.45158274e-02 -1.76573262e-01 -1.67342126e-01</_>
    <_>
      2.89757442e+00 2.17022467e+00 -1.90744805e+00 1.99976122e+00
      3.46694201e-01 -3.88522297e-01 1.62603152e+00 -8.56518924e-01
      1.04921922e-01 -5.17655730e-01 5.02676904e-01 2.24664167e-01
      -6.60973787e-01 4.53986317e-01 -4.70502585e-01 7.47366190e-01
      3.36352408e-01 3.17535728e-01 1.81359589e-01 -1.73082143e-01
      1.58588961e-02 7.91033328e-01 5.61882615e-01 -4.09035653e-01
      -6.93078190e-02 3.36215824e-01 -3.67973655e-01 -4.77777749e-01
      -4.16167021e-01 -6.66185021e-01 4.07294542e-01 -4.77210969e-01
      2.09097788e-01 9.20514693e-04 3.25158477e-01 1.80412933e-01</_>
    <_>
      4.83548307e+00 2.71756577e+00 -6.21670067e-01 2.01581407e+00
      1.31384000e-01 3.81308347e-01 -7.65473783e-01 -7.55452096e-01
      2.57624388e-01 6.38333440e-01 3.99872929e-01 7.86043048e-01
      5.77475548e-01 -2.09647849e-01 -5.61363459e-01 -4.42610085e-01
      4.70408916e-01 7.39778638e-01 -4.42382932e-01 1.66172683e-01
      -6.20507002e-01 -5.04196107e-01 4.75060493e-02 2.51732677e-01
      1.13103695e-01 3.61953303e-02 -1.08632699e-01 -2.20327660e-01
      2.55077370e-02 -1.11505158e-01 -1.39075160e-01 -3.38992447e-01
      1.52774855e-01 1.82095006e-01 2.07610741e-01 -3.00355822e-01</_>
    <_>
      7.80983448e+00 1.39743841e+00 -5.75171471e-01 -8.27948868e-01
      -2.33203959e+00 -4.62633610e-01 1.83160320e-01 1.17835775e-01
      -4.14140105e-01 -1.00144839e+00 6.88862726e-02 7.47929335e-01
      -3.28106619e-02 1.41658172e-01 -6.08332813e-01 4.95304577e-02
      2.20430583e-01 1.36032537e-01 3.03417563e-01 8.79453961e-03
      -1.55441418e-01 1.42411962e-01 -1.07524373e-01 1.31500438e-01
      -1.20328300e-01 -2.06347182e-01 -1.14178583e-02 1.15643583e-01
      9.33630243e-02 6.67677447e-02 -1.76783151e-03 -3.09495836e-01
      4.63086776e-02 -3.37645225e-02 1.20980516e-01 4.00435388e-01</_>
    <_>
      -2.06675351e-01 1.30149841e+00 -2.01340243e-01 6.41990721e-01
      -7.09116817e-01 4.43302281e-03 1.27450362e-01 4.95987423e-02
      1.32821307e-01 -2.17071459e-01 7.54091889e-02 1.64180890e-01
      -1.90557718e-01 -1.02578297e-01 1.00707129e-01 -5.33991233e-02
      7.84755573e-02 -2.19288021e-02 -3.20727788e-02 -7.95684755e-02
      1.42946988e-01 -7.06695244e-02 -1.00889891e-01 1.49073750e-01
      -1.19640738e-01 -1.48480237e-01 6.62336797e-02 -5.94624504e-02
      -6.29707277e-02 -1.18429281e-01 1.06196932e-01 -5.30969985e-02
      7.89648816e-02 -7.15420991e-02 2.11231917e-01 1.28542185e-02</_>
    <_>
      4.52855301e+00 1.11427832e+00 9.77367043e-01 -5.97940564e-01
      -2.18347001e+00 2.55059808e-01 1.79825589e-01 -5.36520004e-01
      9.55898874e-03 2.18023747e-01 -4.03650552e-01 2.27562651e-01
      -1.02965581e+00 9.87561405e-01 6.73474297e-02 -1.88644052e-01
      3.63816500e-01 1.39622927e+00 5.47812209e-02 4.32641022e-02
      2.46153101e-01 7.45399773e-01 3.85018528e-01 2.39615113e-01
      -5.57611883e-01 -2.07443491e-01 -7.84855843e-01 1.02501512e-01
      1.11805208e-01 -7.72174727e-03 -1.58219486e-01 2.80133367e-01
      2.85562545e-01 1.38142370e-02 5.63237846e-01 5.34108654e-02</_>
    <_>
      3.42139554e+00 1.20877171e+00 -1.19418299e+00 1.24142098e+00
      8.96699786e-01 3.77382129e-01 7.82483578e-01 1.33906806e+00
      5.22396088e-01 -8.17516521e-02 -1.47142351e-01 5.38782179e-01
      7.08818555e-01 7.51126707e-01 5.96196771e-01 3.79118770e-01
      4.60858881e-01 4.46411073e-01 -5.46602130e-01 1.89120337e-01
      3.22417706e-01 1.70231014e-01 -8.04896057e-02 1.62523225e-01
      -3.46077979e-01 -1.05895855e-01 -1.98134556e-01 -2.09068790e-01
      1.98033258e-01 3.35872024e-01 1.85647503e-01 -3.40137213e-01
      7.01073185e-02 8.45407918e-02 -1.85097292e-01 -5.85507378e-02</_>
    <_>
      6.38384247e+00 1.49654305e+00 -1.81532168e+00 3.28768432e-01
      -1.13806105e+00 1.15121937e+00 -5.35702050e-01 2.78676122e-01
      -3.51471975e-02 -1.57183647e-01 -2.16532052e-02 9.54871416e-01
      -7.88813531e-02 -7.81477153e-01 -2.55764246e-01 -2.32364073e-01
      -1.42300963e-01 -6.31952882e-02 3.60105604e-01 3.51105154e-01
      2.36134097e-01 1.52929202e-01 -2.32315898e-01 2.08340049e-01
      -9.42662954e-02 2.03394771e-01 5.33128195e-02 1.36351153e-01
      -6.93585500e-02 1.62813455e-01 -1.41938776e-01 1.29999846e-01
      1.54052913e-01 -2.72388309e-01 2.26421624e-01 1.75098687e-01</_>
    <_>
      6.55614614e-01 -1.44604191e-01 -1.12543678e+00 1.74804783e+00
      -9.65083003e-01 -2.58820474e-01 -4.16935235e-01 -1.37378621e+00
      -4.62202191e-01 -1.48946059e+00 -1.69218695e+00 -1.52334511e-01
      -3.57409418e-01 2.22789332e-01 1.31804824e-01 9.77365002e-02
      9.20442522e-01 -3.73215497e-01 -5.46423554e-01 4.12831545e-01
      4.08306241e-01 -8.56300294e-02 -6.00908846e-02 1.58737063e-01
      1.15728669e-01 -3.07963826e-02 -1.31812483e-01 4.15189303e-02
      9.67916567e-03 -2.12177977e-01 -8.16784278e-02 1.62729323e-01
      -3.18430737e-02 -3.67782563e-02 -8.11566785e-02 3.60236387e-03</_>
    <_>
      2.18424782e-01 1.02423549e+00 -1.37927568e+00 4.30474341e-01
      -9.70304906e-01 4.35840428e-01 -1.54191330e-01 -5.68281710e-01
      -5.23876429e-01 -1.27060294e-01 2.38509439e-02 1.00488449e-02
      4.29999232e-01 2.05095112e-01 -5.44682622e-01 3.41462702e-01
      4.77359712e-01 1.28940865e-01 -2.42677480e-02 -6.22981548e-01
      -1.37774467e-01 1.59783572e-01 -1.85007706e-01 8.40144306e-02
      2.03238297e-02 -2.93514580e-01 1.50195450e-01 -2.63243705e-01
      -8.93266946e-02 1.36669770e-01 1.26812132e-02 -7.53281340e-02
      1.51257679e-01 1.03581309e-01 -3.08920648e-02 -1.49425408e-02</_>
    <_>
      -6.24102950e-01 1.31264591e+00 -4.41307873e-01 5.42714357e-01
      -6.49961233e-01 1.85178425e-02 3.09898138e-01 2.22699672e-01
      -9.33218226e-02 -9.54890773e-02 1.42401546e-01 5.87164283e-01
      -2.96837032e-01 -7.71695971e-02 8.18769261e-02 -1.07724480e-01
      6.54797256e-01 5.44497035e-02 1.21415086e-01 -8.86659697e-02
      4.19949330e-02 7.58392289e-02 -1.43083278e-02 2.15699479e-01
      1.65584031e-02 1.50576338e-01 7.23473430e-02 3.12810540e-02
      -1.20378613e-01 6.93848133e-02 3.42086591e-02 -1.37153223e-01
      3.79739851e-02 -1.20333768e-03 -5.12011349e-02 1.16845310e-01</_>
    <_>
      5.32063723e-01 2.75895566e-01 6.77828044e-02 3.34083557e-01
      1.79862250e-02 1.44589812e-01 -3.46316062e-02 2.03474984e-01
      1.03702828e-01 -3.95489216e-01 2.41413206e-01 1.99838594e-01
      -1.93328500e-01 2.02701673e-01 1.40932456e-01 1.04907136e-02
      1.58851638e-01 3.52818705e-02 5.13886474e-02 -1.45271108e-01
      1.17157198e-01 6.12436198e-02 1.02073394e-01 1.00981846e-01
      -7.30023533e-02 -9.84581932e-02 6.73353449e-02 7.64073133e-02
      -1.12155743e-01 -1.79807544e-01 1.64248087e-02 -8.91389102e-02
      -8.51834193e-02 3.39742601e-02 1.36728853e-01 -4.41309158e-03</_>
    <_>
      1.37145424e+00 3.01923013e+00 -1.95235625e-01 1.37861884e+00
      3.09909701e-01 -1.89650226e+00 -9.00420308e-01 -4.68881607e-01
      2.87590325e-01 -1.29206091e-01 1.89937815e-01 1.03704762e+00
      -7.78649449e-01 1.13014138e+00 6.74457848e-01 -1.06884688e-01
      -2.19196454e-01 -5.58542132e-01 3.83075476e-01 3.50190210e-03
      -3.08464408e-01 2.10288987e-01 1.48107682e-03 1.05802126e-01
      2.57177711e-01 -1.70907080e-01 -3.15198630e-01 2.89353937e-01
      2.16849834e-01 -6.73041344e-02 -4.30726409e-01 -3.53191495e-01
      1.02756061e-01 -1.71862170e-02 3.59686054e-02 2.26155937e-01</_>
    <_>
      -6.99086308e-01 1.47287405e+00 -3.70014310e-01 5.89429438e-01
      -7.09723413e-01 -4.22616117e-02 1.79541320e-01 2.22955391e-01
      -2.11971894e-01 -4.31768522e-02 -1.26254693e-01 6.33756757e-01
      -1.52431890e-01 -1.11832827e-01 4.26984616e-02 -7.43852789e-03
      4.72665608e-01 -8.30584764e-03 6.77326247e-02 2.86712833e-02
      -8.93801823e-03 9.17266905e-02 6.58208458e-03 3.73660512e-02
      -2.58507822e-02 -2.22188786e-01 -5.65497167e-02 4.66682799e-02
      -2.05035895e-01 1.33074269e-01 4.52299882e-03 -6.51127324e-02
      2.62106024e-02 4.29199971e-02 2.64893640e-02 -1.39678985e-01</_>
    <_>
      2.95294642e-01 7.92042494e-01 -5.75167034e-03 5.53029060e-01
      -7.36826062e-01 1.82795167e-01 8.30385759e-02 1.04748130e-01
      6.39786899e-01 8.01504031e-02 6.60940632e-02 3.89264897e-02
      -2.59586245e-01 -2.98643976e-01 -8.29575360e-02 -1.40635952e-01
      3.64725173e-01 -1.20209835e-01 1.56872749e-01 1.36527061e-01
      3.82553697e-01 2.39555702e-01 3.02350521e-01 4.58469838e-01
      1.36379287e-01 -2.73507148e-01 2.01882035e-01 1.82942852e-01
      -1.01540856e-01 3.21214139e-01 -8.46005976e-02 -4.48218793e-01
      6.72066584e-02 -1.34318292e-01 -6.69771135e-02 -1.04224402e-02</_>
    <_>
      4.08349419e+00 1.32068217e+00 -1.61991537e+00 1.47628701e+00
      -4.08691287e-01 4.41796303e-01 1.39758587e-01 -4.96759087e-01
      2.37667158e-01 2.56505936e-01 6.59123957e-02 3.46011966e-02
      -3.35380077e-01 -5.50439835e-01 -6.22924924e-01 5.05270422e-01
      -7.87671432e-02 1.02032712e-02 2.83012182e-01 -1.84864793e-02
      4.33817267e-01 1.05376028e-01 2.90161341e-01 -3.26326340e-01
      -2.46425588e-02 1.48055900e-03 2.27636561e-01 1.31747359e-03
      -1.22432135e-01 4.01798576e-01 1.04110032e-01 -5.27615547e-02
      5.38933933e-01 3.46543074e-01 -2.04021074e-02 3.91976982e-01</_>
    <_>
      5.07245207e+00 3.51836085e-01 -2.38979626e+00 2.43847325e-01
      -4.97654170e-01 -6.30795509e-02 1.86060107e+00 1.19870186e+00
      1.17876947e-01 -1.65856540e+00 -2.57918417e-01 1.08595777e+00
      1.90185934e-01 2.04576209e-01 -1.24178126e-01 -4.26596105e-01
      6.98916689e-02 3.19705904e-01 -1.94065154e-01 1.59596816e-01
      -2.56136835e-01 3.42759430e-01 1.10274255e-01 -1.02927640e-01
      2.00179979e-01 -3.21770668e-01 9.25841779e-02 -3.00411992e-02
      -1.29505798e-01 1.27718830e-02 -1.66323930e-01 -3.08393896e-01
      4.12301272e-02 -1.57557473e-01 1.77083954e-01 2.49783583e-02</_>
    <_>
      8.95038188e-01 -2.34357977e+00 2.19119743e-01 3.30113602e+00
      -1.80299652e+00 -5.79955161e-01 -3.23898941e-01 8.51969600e-01
      3.79219204e-01 6.66750908e-01 1.22341108e+00 1.20252633e+00
      -1.14240758e-01 -4.51594234e-01 -8.12584162e-01 2.66152978e-01
      1.73454463e-01 7.42314041e-01 3.34063500e-01 -1.98220742e+00
      6.79874480e-01 1.78426862e+00 -2.58168846e-01 8.56076062e-01
      9.36160743e-01 -6.51146352e-01 -4.63104457e-01 -2.56686628e-01
      3.14143121e-01 -4.94303048e-01 -4.47424322e-01 -1.35964617e-01
      -3.95059556e-01 2.26357773e-01 -3.18259031e-01 -5.48784971e-01</_>
    <_>
      -2.75746305e-02 6.94758773e-01 -2.93693811e-01 3.45466197e-01
      -4.82056886e-01 1.78248622e-02 1.83570728e-01 6.07625097e-02
      -1.03388168e-01 8.12098198e-03 -5.30988276e-02 2.69606739e-01
      -1.24318618e-02 2.14168783e-02 -1.08746544e-01 -1.10935412e-01
      2.23199323e-01 3.76744047e-02 1.00065760e-01 -8.89460444e-02
      1.79744005e-01 1.54978380e-01 -2.91291416e-01 1.41618088e-01
      -1.09515004e-01 -8.42365921e-02 6.60429597e-02 8.81870613e-02
      -4.71230522e-02 -3.62464488e-02 3.43388207e-02 -1.08395532e-01
      1.11739658e-01 -1.50288343e-02 6.70857960e-03 1.60826743e-01</_>
    <_>
      4.34098333e-01 1.09737843e-01 -7.41905486e-03 7.00683221e-02
      -2.97382444e-01 -1.06049746e-01 5.53983897e-02 -6.07203168e-04
      -1.99433431e-01 -2.92866193e-02 4.52011339e-02 3.53699684e-01
      -2.29010656e-02 -1.49409613e-02 3.35470587e-02 2.60019246e-02
      1.96693793e-01 4.18973248e-03 5.94955981e-02 -1.23301327e-01
      5.29710911e-02 7.79570267e-02 -6.87143430e-02 9.96102244e-02
      -4.21811938e-02 -1.08441018e-01 -8.97685532e-03 9.18068811e-02
      -6.50541857e-02 3.24196555e-02 -2.97393780e-02 -9.30933952e-02
      1.05890021e-01 -4.39706109e-02 3.60824913e-02 1.13654220e-02</_>
    <_>
      -2.79646218e-01 1.55260491e+00 -5.98404892e-02 9.38889384e-01
      -1.26108479e+00 -1.13667570e-01 3.83532286e-01 2.01387838e-01
      4.25790042e-01 -1.73177019e-01 4.32237446e-01 -9.31925625e-02
      -4.10473913e-01 -2.67343998e-01 3.88983488e-02 1.75800219e-01
      1.63791999e-01 -2.11438879e-01 -2.46717453e-01 2.52719909e-01
      2.59608366e-02 6.81505501e-02 2.68665582e-01 2.99712181e-01
      -4.89381747e-03 -1.98644921e-01 1.37390167e-01 -4.51898435e-03
      -2.57249326e-01 3.42148580e-02 1.79191470e-01 -1.50352895e-01
      -2.19364762e-01 -2.94156969e-01 -2.15585120e-02 -1.13368496e-01</_>
    <_>
      7.30081201e-02 8.92955005e-01 -4.34496313e-01 5.07674336e-01
      -2.02882349e-01 7.15534389e-02 5.78802049e-01 -8.82406831e-02
      -1.28644049e-01 -8.67405757e-02 -3.66972350e-02 2.70035446e-01
      -3.38728666e-01 9.43755507e-02 2.00135529e-01 -2.84845382e-01
      1.28912985e-01 1.81199998e-01 7.77194425e-02 -8.20954293e-02
      1.65418744e-01 1.82199195e-01 -3.00749004e-01 3.01780909e-01
      -1.82883054e-01 8.82649198e-02 1.39096916e-01 -4.80848886e-02
      6.76016137e-02 -6.79191202e-02 1.98967084e-02 3.37372646e-02
      9.58923250e-03 1.59584105e-01 1.96270868e-01 -3.27869207e-02</_>
    <_>
      6.64048970e-01 1.40645683e+00 -6.58006549e-01 1.01179814e+00
      -1.90258875e-01 6.54293358e-01 -5.51800787e-01 -1.62457049e-01
      -6.70508444e-01 -9.12539721e-01 -9.47596058e-02 -4.39220220e-01
      -3.83812964e-01 -1.67767674e-01 -4.31057438e-02 -1.79352716e-01
      6.68572724e-01 1.48843437e-01 6.91636652e-03 -7.95421362e-01
      -5.10940254e-01 2.26575509e-01 -1.00311704e-01 -1.96762636e-01
      -1.82964623e-01 -4.44573402e-01 2.80582458e-01 1.48681819e-01
      1.43422503e-02 5.50383329e-01 -6.28100559e-02 -1.88314617e-01
      6.94204569e-02 -1.99636996e-01 -1.76288947e-01 -1.05493359e-01</_>
    <_>
      1.99426487e-01 3.30045789e-01 -1.39220832e-02 3.34089071e-01
      -2.47706398e-01 -1.58882156e-01 -5.66140339e-02 5.12571484e-02
      -1.47921979e-01 -7.23158121e-02 -4.08049114e-02 3.99845779e-01
      1.57698065e-01 -2.89451480e-02 7.89997950e-02 -7.19577894e-02
      2.04757348e-01 2.25830883e-01 2.18286157e-01 -1.23204678e-01
      -2.58297231e-02 -4.20615934e-02 -9.27127227e-02 9.51068103e-02
      5.42635918e-02 -6.83642104e-02 1.76706761e-02 7.38668218e-02
      -1.02198683e-01 7.67952651e-02 -5.73305264e-02 -2.01215357e-01
      -5.93270026e-02 -1.03130788e-01 -8.45178366e-02 7.75260776e-02</_>
    <_>
      4.34098333e-01 1.09737843e-01 -7.41905486e-03 7.00683221e-02
      -2.97382444e-01 -1.06049746e-01 5.53983897e-02 -6.07203168e-04
      -1.99433431e-01 -2.92866193e-02 4.52011339e-02 3.53699684e-01
      -2.29010656e-02 -1.49409613e-02 3.35470587e-02 2.60019246e-02
      1.96693793e-01 4.18973248e-03 5.94955981e-02 -1.23301327e-01
      5.29710911e-02 7.79570267e-02 -6.87143430e-02 9.96102244e-02
      -4.21811938e-02 -1.08441018e-01 -8.97685532e-03 9.18068811e-02
      -6.50541857e-02 3.24196555e-02 -2.97393780e-02 -9.30933952e-02
      1.05890021e-01 -4.39706109e-02 3.60824913e-02 1.13654220e-02</_>
    <_>
      6.64900839e-01 1.81910276e-01 -2.16306180e-01 1.17647216e-01
      -4.33363974e-01 -1.89291500e-02 1.79027915e-01 -1.28362685e-01
      -1.45944282e-01 7.50809582e-03 7.43338885e-03 3.64412874e-01
      -1.00918002e-01 1.15574084e-01 -1.00744013e-02 -4.78702597e-02
      2.96424448e-01 -7.24938437e-02 -1.64985329e-01 -4.97714914e-02
      -7.04180226e-02 2.52635658e-01 -1.25471756e-01 2.71282215e-02
      -9.32906121e-02 -1.27652526e-01 4.28751260e-02 9.91023779e-02
      -1.25016123e-01 -1.01103798e-01 2.13684544e-01 -1.63023964e-01
      3.02750111e-01 -7.95237347e-02 5.78705966e-02 -1.02753133e-01</_>
    <_>
      1.39190897e-01 4.03947711e-01 -1.05325684e-01 2.31727436e-01
      -1.96125269e-01 -1.87125746e-02 6.14401288e-02 1.08804166e-01
      -1.26007661e-01 -4.68744002e-02 2.74332315e-02 2.35667065e-01
      -4.59829867e-02 -2.00749896e-02 4.22600992e-02 -1.32984683e-01
      2.49994278e-01 2.80541386e-02 1.54131070e-01 -1.64388329e-01
      6.41661212e-02 1.18567459e-02 -1.54274374e-01 1.41109779e-01
      -1.37082681e-01 -3.72730866e-02 -2.10446119e-02 7.53405243e-02
      -1.39941394e-01 -3.15869576e-03 -4.04485129e-03 -2.02298254e-01
      3.06633282e-02 -4.17777896e-02 7.33136088e-02 3.86684909e-02</_>
    <_>
      6.19655323e+00 1.65147948e+00 -1.41483712e+00 7.74859861e-02
      -1.41194081e+00 4.56842601e-01 -1.61419690e+00 -2.70770162e-01
      -3.51056337e-01 -8.88263062e-02 6.44883990e-01 7.33157694e-01
      -1.07657507e-01 -3.61462146e-01 2.13559479e-01 1.09916367e-01
      2.52607837e-02 -4.94570076e-01 1.09605305e-01 2.23857313e-01
      1.64364412e-01 4.31325346e-01 -3.55561167e-01 3.35944384e-01
      -5.09756170e-02 2.61887491e-01 5.05387008e-01 -7.20496550e-02
      -8.14998150e-03 1.38446346e-01 1.47900015e-01 1.33835012e-02
      1.42882317e-01 1.45469204e-01 1.45754650e-01 6.16146140e-02</_>
    <_>
      1.54450879e-01 1.63777101e+00 1.41039565e-01 1.00163627e+00
      -7.12530673e-01 -5.62674224e-01 -2.24911168e-01 -4.73069787e-01
      5.31245708e-01 1.84091702e-01 -8.51328969e-02 8.33533168e-01
      -8.93604085e-02 -1.31765515e-01 -1.15642540e-01 -3.81407440e-01
      -1.69690773e-02 1.36781976e-01 -3.92349660e-01 -2.34433070e-01
      2.75375307e-01 -5.53085983e-01 4.56775986e-02 -1.27397925e-01
      3.61988753e-01 -4.24611092e-01 1.10947832e-01 2.57451683e-01
      -2.04362199e-01 9.51588806e-03 2.07103387e-01 -1.51855752e-01
      2.08256692e-01 5.24619073e-02 -1.73671365e-01 -5.15769981e-03</_>
    <_>
      -5.46683192e-01 1.33924043e+00 -2.47283772e-01 5.53158879e-01
      -6.47609651e-01 -4.07072864e-02 1.60561338e-01 2.82475185e-02
      -3.69670421e-01 -2.73822725e-01 -1.53437331e-01 7.14485526e-01
      -2.38937095e-01 -1.32608175e-01 -4.95842546e-02 1.52080834e-01
      1.23013265e-01 -5.72659783e-02 -2.47306228e-01 -2.41426811e-01
      -8.95698890e-02 7.99913704e-02 -3.72337103e-02 1.46841004e-01
      -2.11503372e-01 -3.33552897e-01 1.04964435e-01 1.06677346e-01
      -2.11574316e-01 3.70169282e-02 -6.73733652e-02 1.21267669e-01
      1.34688932e-02 7.28067709e-03 4.15130518e-03 2.87680700e-02</_>
    <_>
      1.30113766e-01 3.79535735e-01 -1.04584202e-01 2.58496374e-01
      -2.08118975e-01 -2.48719640e-02 4.79625203e-02 1.11314125e-01
      -8.94356146e-02 -6.45503700e-02 2.51953267e-02 2.44348601e-01
      -3.87575254e-02 6.67084828e-02 5.83191626e-02 -1.18858792e-01
      1.99655280e-01 3.68936956e-02 1.38008699e-01 -1.30359918e-01
      5.48055395e-02 8.00039433e-03 -1.96731716e-01 1.06772795e-01
      -1.25887573e-01 -4.45170328e-02 2.84440257e-02 7.99618214e-02
      -1.30038723e-01 -1.37405833e-02 -2.99856756e-02 -2.62877554e-01
      2.88286023e-02 -5.34930639e-02 3.24966833e-02 -1.24762673e-02</_>
    <_>
      -4.61587638e-01 1.16129231e+00 -1.77719489e-01 4.66749191e-01
      -4.36093092e-01 -2.09658265e-01 2.63050765e-01 1.21865027e-01
      -2.85180688e-01 -1.59201533e-01 -2.63744351e-02 4.57618684e-01
      -1.31671965e-01 6.95063695e-02 -4.59518880e-02 7.75796548e-02
      2.56669998e-01 -7.66011849e-02 8.23327452e-02 -2.20556855e-01
      -2.27274131e-02 1.75379708e-01 -2.41282657e-01 1.54951960e-01
      -2.26731867e-01 -6.06155060e-02 -1.68667138e-02 1.16578937e-01
      -4.85976823e-02 6.15550168e-02 8.41395091e-03 -1.32117167e-01
      -3.71617898e-02 -5.53568900e-02 6.53148964e-02 1.24099791e-01</_>
    <_>
      -3.90317678e-01 7.93154180e-01 -2.52706707e-01 3.02018642e-01
      -3.85554224e-01 6.56804889e-02 2.78064281e-01 1.90603435e-01
      -1.25057042e-01 -1.51436720e-02 2.53972951e-02 2.91602433e-01
      -6.68190122e-02 -3.36305774e-03 -3.34973335e-02 -5.53867444e-02
      3.03460836e-01 4.32175472e-02 1.23747885e-01 -1.21545732e-01
      1.11137517e-01 1.11286685e-01 -2.72389919e-01 1.83412284e-01
      -1.08816452e-01 -5.89915924e-02 6.56977668e-02 -9.28965677e-03
      -1.16375923e-01 -8.43583271e-02 -7.21918195e-02 -1.87346101e-01
      6.07954748e-02 5.41575765e-03 3.77385132e-02 5.68328835e-02</_>
    <_>
      2.42073369e+00 5.60160160e-01 -2.01601386e+00 -7.58804560e-01
      -9.92974579e-01 -1.17593181e+00 -1.57033950e-01 1.68673670e+00
      4.60624695e-01 -3.35844070e-01 -1.35248637e+00 5.79609334e-01
      -4.58280653e-01 4.56977412e-02 -2.59596288e-01 -1.09014416e+00
      -6.56448081e-02 -3.17948312e-01 1.11921124e-01 -5.06462455e-01
      -2.16629580e-01 1.66474909e-01 1.58142462e-01 2.57993013e-01
      -2.66734630e-01 5.20742945e-02 1.37285829e-01 1.13739997e-01
      1.87969044e-01 -1.53521657e-01 -6.56341165e-02 -2.50747889e-01
      -2.73344908e-02 3.12033623e-01 4.33743373e-02 -1.91328734e-01</_>
    <_>
      5.88163853e-01 -2.04707794e-02 -2.99229939e-02 2.68102080e-01
      -2.10572928e-01 1.82578489e-01 1.83733672e-01 -8.28514248e-02
      3.34538035e-02 2.31041014e-02 9.20488983e-02 5.17525017e-01
      -4.94005941e-02 -4.72882278e-02 -4.45488319e-02 -1.83836713e-01
      3.09113652e-01 1.10042453e-01 -2.91111898e-02 -3.84392738e-02
      -2.93399915e-02 3.74601362e-03 -7.85907060e-02 1.67458281e-01
      -3.68242785e-02 7.91014135e-02 1.00350529e-01 8.11073110e-02
      5.95990196e-02 -2.62292437e-02 -5.02743293e-03 9.56237223e-03
      1.13937080e-01 -1.15379296e-01 1.66427493e-01 8.09941292e-02</_>
    <_>
      4.17466879e-01 1.21771947e-01 -2.22380529e-03 6.41110539e-02
      -2.76183009e-01 -1.31863996e-01 6.93697780e-02 -9.33941640e-03
      -1.68364227e-01 -1.02730088e-01 -3.31102870e-02 3.77516448e-01
      6.19193213e-03 2.06727232e-03 4.68593910e-02 -2.09026970e-02
      2.23448321e-01 7.08746463e-02 4.78666015e-02 -5.68880737e-02
      4.92446832e-02 8.60479772e-02 -6.82947636e-02 1.05696365e-01
      -7.59634823e-02 -1.09913275e-01 -1.05890045e-02 1.17261566e-01
      -8.08958486e-02 -9.17502958e-03 4.40270603e-02 -4.52953391e-02
      1.15227938e-01 3.24652046e-02 1.07919879e-01 4.89074402e-02</_>
    <_>
      3.17076951e-01 4.96187896e-01 -2.39404097e-01 1.44882166e+00
      -1.31064129e+00 -2.67665833e-01 -5.90093955e-02 4.98716474e-01
      5.23779631e-01 2.26776868e-01 3.86702299e-01 -4.38666157e-02
      7.18507171e-02 1.78524870e-02 2.98650831e-01 -1.07369132e-01
      5.79260767e-01 2.38837168e-01 9.87388134e-01 1.89277202e-01
      -2.01834157e-01 -5.13849780e-02 2.17813134e-01 -4.16474700e-01
      -2.79374897e-01 -7.41431415e-01 3.43015939e-01 -5.55649221e-01
      1.83958352e-01 -3.38736892e-01 -2.16277912e-01 3.40624392e-01
      7.18981549e-02 -1.71373989e-02 -2.18956500e-01 1.73580483e-01</_>
    <_>
      -7.21881568e-01 1.38646626e+00 -2.33491361e-01 5.03233910e-01
      -6.54974997e-01 2.33000685e-02 2.44996205e-01 2.14990810e-01
      -1.95626691e-01 9.63289943e-03 -8.44406113e-02 6.14469051e-01
      -2.98406541e-01 -1.34540852e-02 1.47249643e-02 3.19548361e-02
      2.97696888e-01 -1.35229573e-01 -4.29811031e-02 4.92287874e-02
      1.21970624e-01 8.44862312e-02 -3.52245867e-01 1.11780152e-01
      -2.35637054e-02 -3.02870095e-01 -1.00681908e-01 1.70880705e-02
      -1.19364960e-02 4.05986793e-03 -8.11934546e-02 -1.59144312e-01
      7.32320026e-02 6.67126328e-02 -3.14543188e-01 3.97057943e-02</_>
    <_>
      4.92107689e-01 1.29276514e+00 9.22071338e-02 8.20372999e-01
      -6.45333052e-01 -1.29796550e-01 -3.25848728e-01 1.89163849e-01
      6.84118643e-02 -1.98714435e-01 2.20916688e-01 3.59168053e-01
      -2.93053240e-01 -3.92027020e-01 1.77385673e-01 -1.44981563e-01
      3.74251008e-01 -1.52106993e-02 8.45185947e-04 5.67438314e-03
      1.65744364e-01 -2.46357471e-01 4.95181352e-01 2.20650867e-01
      -4.54605460e-01 -4.15711850e-01 1.06126862e-02 1.41389459e-01
      -1.45955071e-01 -4.96687591e-02 -2.18744457e-01 -5.31596690e-02
      -7.15935007e-02 -9.88989025e-02 1.01873077e-01 -2.07823813e-01</_>
    <_>
      7.34061897e-02 1.08119011e+00 -5.11219144e-01 4.25680786e-01
      -7.24077940e-01 -2.47620535e-03 3.02837819e-01 4.28927302e-01
      1.96211666e-01 -3.27019364e-01 2.08084330e-01 1.08044930e-01
      -7.52003118e-02 -5.91106489e-02 -1.44912869e-01 -1.64273456e-01
      2.47092098e-01 1.97644144e-01 -1.18692731e-02 -1.35111094e-01
      -1.75426632e-01 1.14871666e-01 -3.14001054e-01 1.25815868e-01
      -1.45608068e-01 1.62409395e-01 7.38274455e-02 9.75466818e-02
      2.83507220e-02 -1.55357257e-01 -4.28491794e-02 1.92775894e-02
      -2.34801620e-02 -1.49572492e-01 -5.06088976e-03 1.47056401e-01</_>
    <_>
      5.39756835e-01 1.80397898e-01 2.61089392e-02 1.40856087e-01
      -3.00207376e-01 -1.22841544e-01 2.45920792e-02 -2.91985888e-02
      -1.29765689e-01 -1.07419364e-01 -1.59560472e-01 3.58468473e-01
      -6.78206757e-02 8.29420518e-03 2.32699215e-02 5.45332544e-02
      2.00353920e-01 1.20058865e-03 1.78527515e-02 -5.73028736e-02
      5.17684333e-02 1.66700646e-01 -1.02987103e-01 2.17679720e-02
      -5.73309176e-02 -7.36639276e-02 5.12449853e-02 8.16731751e-02
      -6.02217019e-02 8.74560922e-02 -3.83367650e-02 -1.69628173e-01
      7.14205727e-02 -1.11029679e-02 7.24625662e-02 -2.54123384e-04</_>
    <_>
      2.00624049e-01 1.03444612e+00 -8.33156891e-03 9.48306382e-01
      -8.32505286e-01 6.47215098e-02 4.28286850e-01 -5.91895655e-02
      4.69696254e-01 -2.09498912e-01 -1.06912768e-02 3.39302361e-01
      -3.84048820e-01 -6.94184825e-02 -7.16611296e-02 -1.15627959e-01
      2.38412395e-01 -2.42617890e-01 -1.69852987e-01 -1.23637117e-01
      5.35801768e-01 -9.56372470e-02 2.60668576e-01 2.63664097e-01
      1.85995489e-01 -4.11215156e-01 1.45957589e-01 1.02272458e-01
      3.61973017e-01 -2.60141820e-01 3.22053939e-01 -4.10062075e-02
      2.52566785e-01 1.77611262e-01 -5.03178872e-02 -9.74192992e-02</_>
    <_>
      -2.78581262e-01 1.35856378e+00 -8.18394497e-02 9.34085011e-01
      -6.74908817e-01 -2.01537922e-01 1.78742766e-01 -7.43739083e-02
      4.12796050e-01 -2.44985864e-01 4.34944779e-03 6.97739482e-01
      -3.51421922e-01 1.83044404e-01 -1.07825935e-01 -1.80682495e-01
      2.05016956e-01 -6.49200007e-02 -1.63170502e-01 -1.18857041e-01
      3.57219934e-01 -2.59407550e-01 1.72543705e-01 2.07833424e-01
      -2.08890855e-01 4.85174693e-02 1.04875103e-01 2.54178971e-01
      -1.95450515e-01 -3.68829519e-01 8.97556767e-02 -1.57248378e-02
      7.51558393e-02 -1.06987342e-01 -7.43376091e-02 2.13255376e-01</_>
    <_>
      -1.97415367e-01 7.84168124e-01 -1.04048528e-01 3.52032810e-01
      -4.67505455e-01 -5.05410507e-02 1.98272705e-01 1.82617888e-01
      -2.71126330e-02 -6.70677200e-02 -3.72084714e-02 2.64645308e-01
      -6.32611960e-02 7.43109675e-04 5.07438667e-02 -8.59715864e-02
      3.27188037e-02 7.06138136e-03 -2.98168790e-02 -1.52612016e-01
      1.49640650e-01 2.97241448e-03 -4.67467189e-01 1.24563575e-01
      -2.85340011e-01 -2.19194442e-01 2.87272017e-02 8.13503563e-02
      -3.26246419e-03 -1.25123844e-01 -1.17383122e-01 -8.13547298e-02
      -1.76754482e-02 6.10753819e-02 -1.43357422e-02 4.33439650e-02</_>
    <_>
      -8.25082183e-01 1.71337819e+00 -3.18074524e-01 5.57239890e-01
      -4.94801432e-01 -5.82343116e-02 1.92468569e-01 1.44556314e-01
      -2.26340249e-01 -1.73777476e-01 -2.00748160e-01 8.04798961e-01
      -1.70113549e-01 -1.17847271e-01 1.12139545e-01 4.25403640e-02
      2.78036118e-01 6.13198802e-02 8.42916295e-02 -8.24075416e-02
      1.98036227e-02 7.93322995e-02 -1.61301509e-01 -2.51797400e-02
      -4.72686589e-02 -3.24874163e-01 8.45396444e-02 5.50076775e-02
      -5.54519258e-02 1.24770753e-01 -7.90209770e-02 -1.99591920e-01
      -1.04481494e-02 3.84751102e-03 8.09499472e-02 -2.60847267e-02</_>
    <_>
      -3.91675174e-01 -2.67933875e-01 2.88728565e-01 2.19484425e+00
      -1.47902691e+00 -1.03637826e+00 -3.25346649e-01 -2.01020479e+00
      3.19928694e+00 -1.72650397e+00 -6.69263721e-01 1.59780884e+00
      1.00108290e+00 -5.69828808e-01 6.13560319e-01 -2.04314679e-01
      9.29786325e-01 4.43759322e-01 8.14211905e-01 -7.79859245e-01
      2.63348788e-01 4.55830067e-01 -6.04575574e-01 2.00481400e-01
      -4.93881524e-01 3.19967180e-01 2.11708210e-02 2.22811718e-02
      -3.91342431e-01 3.66861224e-01 1.28628582e-01 -1.26542211e-01
      3.76460850e-02 -9.65914652e-02 -1.39543903e-03 -9.59806815e-02</_>
    <_>
      4.87812090e+00 1.06987560e+00 8.29658985e-01 -6.27847910e-02
      -1.34392357e+00 -2.26215795e-01 7.97968686e-01 2.26801872e-01
      -5.68954945e-01 -1.12168491e+00 6.70431435e-01 7.07943738e-01
      3.25779706e-01 6.39860809e-01 -1.31850630e-01 -1.05924630e+00
      6.11967981e-01 -7.24793077e-01 1.63547680e-01 -4.84171778e-01
      7.53412247e-01 -5.84915221e-01 4.27184314e-01 -5.70943952e-01
      -2.01568276e-01 -9.26675126e-02 -3.71759757e-02 4.52475026e-02
      -2.69668818e-01 -2.13159755e-01 -2.64911026e-01 -3.89372051e-01
      5.23845375e-01 4.92268145e-01 -1.62422620e-02 -4.28868562e-01</_>
    <_>
      5.52060962e-01 3.67976911e-02 -2.45531928e-03 1.44339129e-01
      -3.34305108e-01 -1.12059630e-01 1.22161895e-01 -1.90679640e-01
      -1.60970971e-01 -9.73421484e-02 -7.45219588e-02 4.64163005e-01
      -8.18073973e-02 -6.30113184e-02 3.41474614e-03 -4.69552539e-02
      2.00526118e-01 2.88094711e-02 7.72074163e-02 -1.93784773e-01
      6.90358058e-02 1.41367495e-01 -1.29747823e-01 1.35341644e-01
      -4.43596300e-03 1.61577128e-02 2.21107118e-02 1.21524327e-01
      -1.33500561e-01 8.80277976e-02 2.40248758e-02 -1.31878197e-01
      1.18901551e-01 3.88407335e-02 3.01930662e-02 -4.31366125e-03</_>
    <_>
      -1.31221294e-01 7.28763700e-01 1.46810124e-02 3.43098879e-01
      -2.05252364e-01 2.64497280e-01 1.64197206e-01 1.64609198e-02
      -4.86015491e-02 -1.45892560e-01 -2.52135452e-02 4.74231929e-01
      -1.13915764e-01 -5.43301590e-02 -1.18001355e-02 -2.43181929e-01
      2.05382258e-01 8.76216143e-02 1.76853314e-02 -2.87555277e-01
      2.25876123e-01 8.25604051e-02 -4.06848818e-01 1.59146801e-01
      -1.62327006e-01 -5.10066748e-02 1.12681411e-01 5.84649406e-02
      3.25163424e-01 -1.27247900e-01 1.04536816e-01 -2.04981849e-01
      1.08061299e-01 -1.74746498e-01 1.29176199e-01 1.05732903e-01</_>
    <_>
      1.65455532e+00 2.59989619e-01 5.57238162e-02 9.64632750e-01
      1.20237380e-01 -1.93805158e-01 9.88580227e-01 9.16137546e-02
      5.78989744e-01 -2.65140861e-01 -5.20717949e-02 5.69960654e-01
      1.08106010e-01 -3.05196946e-03 -7.56866112e-02 -1.40225008e-01
      -2.85414848e-02 6.99954852e-02 6.00392148e-02 -1.38602387e-02
      1.99591607e-01 1.99727744e-01 2.17907093e-02 6.21103823e-01
      1.05068028e-01 -4.52834070e-01 -7.86146820e-02 2.86631316e-01
      -1.59423515e-01 3.92775178e-01 -2.24946037e-01 1.95255399e-01
      2.27030680e-01 4.21521626e-02 1.81552202e-01 6.68223202e-02</_>
    <_>
      -5.67019641e-01 1.33779967e+00 -3.81417513e-01 5.86360812e-01
      -7.24499166e-01 -1.10545628e-01 8.48280936e-02 1.32347107e-01
      -1.62991926e-01 2.30751932e-02 -9.70978141e-02 3.77597123e-01
      -1.82792634e-01 -6.22994453e-02 6.74192607e-02 -2.92117987e-03
      5.07658780e-01 -5.90166226e-02 3.66815925e-02 1.21053614e-01
      1.00041129e-01 1.25327721e-01 9.40723568e-02 1.79327071e-01
      3.48671079e-02 -1.64221525e-01 1.68324145e-03 8.00305754e-02
      -1.84900165e-01 1.23071656e-01 1.64135769e-02 -1.46203503e-01
      1.46147534e-01 -2.14510523e-02 -1.44868135e-01 -8.72912910e-03</_>
    <_>
      -3.37076068e-01 1.49103737e+00 -9.56777558e-02 8.38065326e-01
      -9.67954099e-01 -1.84700787e-01 4.46936607e-01 2.32462183e-01
      3.78273219e-01 -1.98480308e-01 -1.21074162e-01 3.06376398e-01
      -5.97270966e-01 -3.71210910e-02 3.60046956e-03 2.01646268e-01
      1.84572905e-01 -1.67475030e-01 -2.81329036e-01 -2.28400957e-02
      1.27885282e-01 1.16579272e-01 3.11297804e-01 8.47522467e-02
      -1.57175899e-01 -4.61430222e-01 1.63098872e-01 -8.06677863e-02
      -2.92981327e-01 3.53963226e-01 -5.66915691e-01 -8.17155018e-02
      -2.97722220e-03 1.20840371e-01 1.01187982e-01 -1.54127944e-02</_>
    <_>
      2.41585016e+00 1.76953411e+00 1.45007217e+00 6.34457290e-01
      -7.81736597e-02 -1.65286887e+00 -9.85107720e-01 7.28929043e-02
      -1.55872524e-01 -4.36636299e-01 9.89547014e-01 7.00179517e-01
      -3.16349447e-01 1.01067543e+00 -3.51420224e-01 -3.76116037e-01
      2.76002944e-01 -7.95055568e-01 -8.63180310e-02 -4.30596471e-01
      4.85746056e-01 2.59456970e-02 3.56359407e-02 4.54276800e-02
      -1.58817600e-02 1.15154132e-01 2.17590019e-01 -3.89104724e-01
      -2.36000508e-01 3.60391149e-03 1.79225728e-01 3.11536551e-01
      -7.84331933e-02 1.63123421e-02 4.61809158e-01 1.62859145e-03</_>
    <_>
      1.99974215e+00 4.74264860e-01 2.82239258e-01 1.43692648e+00
      -1.60062242e+00 -5.00675082e-01 8.81021395e-02 1.11609057e-01
      9.78806674e-01 1.79536775e-01 6.42783046e-01 -2.29423821e-01
      3.37319613e-01 4.08348352e-01 -4.17777598e-01 -7.63442600e-03
      -4.82220739e-01 -5.27132094e-01 5.58072850e-02 1.85107604e-01
      -6.44987762e-01 4.97951955e-01 -1.66491479e-01 -6.44376934e-01
      9.64304805e-01 4.49733347e-01 2.76996583e-01 4.96268898e-01
      1.13099962e-01 3.17163616e-01 6.76026821e-01 -3.11354995e-01
      -1.96825042e-01 1.92778543e-01 -1.53109893e-01 -1.51219904e+00</_>
    <_>
      -3.27725112e-01 1.06572342e+00 -5.13518572e-01 5.97759485e-01
      -1.02899992e+00 -1.50350004e-01 3.66558731e-01 2.58606412e-02
      -1.06898643e-01 -1.73263803e-01 2.96413064e-01 1.59301311e-01
      -2.81114280e-01 -3.75658125e-02 3.28496695e-01 -1.58360034e-01
      2.01814353e-01 -3.80781814e-02 9.86815840e-02 9.53429714e-02
      9.88557041e-02 3.97426099e-01 1.09257691e-01 9.54066813e-02
      1.76723167e-01 1.56434655e-01 -1.20404631e-01 1.35990709e-01
      -1.06283799e-01 5.23771822e-01 1.69133767e-01 8.49036798e-02
      2.76211500e-02 2.10067376e-01 1.93048045e-02 -1.91665009e-01</_>
    <_>
      -4.79847193e-01 1.31680441e+00 -1.74714312e-01 5.67702830e-01
      -6.13174915e-01 -9.78317484e-03 3.18087995e-01 -2.93798726e-02
      7.88726211e-02 -1.18290439e-01 -6.96929246e-02 4.94052738e-01
      -2.28875071e-01 -1.40547261e-01 -1.75634190e-01 -1.17364407e-01
      1.95630029e-01 -9.93576460e-03 5.38788736e-02 -3.58523875e-01
      -3.36221345e-02 1.59541801e-01 -4.20589000e-02 5.18661402e-02
      -1.87871382e-01 1.12173229e-01 5.84806055e-02 1.55124059e-02
      1.54379740e-01 4.36616428e-02 7.86241218e-02 -1.43083245e-01
      -1.27120137e-01 -1.97289442e-03 2.15737894e-01 1.07686192e-01</_>
    <_>
      -6.72250092e-01 1.38472295e+00 -2.48902962e-01 5.30165434e-01
      -6.29550874e-01 -1.40411695e-02 1.72821864e-01 1.62917048e-01
      -1.67299777e-01 -1.44188881e-01 -1.30322173e-01 3.89752090e-01
      -1.87137589e-01 -1.82872359e-02 8.13596249e-02 -3.22524533e-02
      9.64833423e-02 -3.66123840e-02 7.79809803e-02 -9.84736755e-02
      1.23382740e-01 6.24696836e-02 -3.93816292e-01 2.50116978e-02
      -1.31760255e-01 -1.93252146e-01 -1.00627042e-01 6.82662651e-02
      9.50473361e-03 6.28208145e-02 3.31218503e-02 -7.15228319e-02
      6.75727576e-02 1.43277854e-01 2.56538857e-02 3.45581421e-03</_>
    <_>
      8.06898102e-02 8.53172541e-01 -4.34728205e-01 5.19689620e-01
      -2.03468725e-01 3.00127733e-03 6.62779331e-01 -1.13348879e-01
      -1.20799847e-01 -4.24809977e-02 -4.07275297e-02 3.01099032e-01
      -4.16400880e-01 8.79990011e-02 1.88475043e-01 -3.37665290e-01
      1.07512951e-01 2.61414856e-01 3.05916723e-02 -5.05157523e-02
      1.67605266e-01 2.21580073e-01 -2.96281219e-01 3.50087076e-01
      -2.47222021e-01 8.67995620e-02 1.88618198e-01 -2.30808686e-02
      1.44697949e-01 -1.79404877e-02 2.96551734e-02 5.62616140e-02
      1.68163143e-02 1.19169913e-01 1.89961374e-01 -5.12007400e-02</_>
    <_>
      3.97551447e-01 1.51322365e-01 -9.97140352e-03 7.16390461e-02
      -3.06989282e-01 -1.21544451e-01 7.13372156e-02 5.84769482e-03
      -2.01386407e-01 -1.07731558e-01 -5.47343027e-03 3.70737433e-01
      -4.88023460e-02 -2.82111056e-02 1.81983877e-02 -9.21794493e-03
      1.72995448e-01 9.22004431e-02 1.21089560e-03 -8.66322294e-02
      1.78450122e-02 9.98186022e-02 -5.51708899e-02 1.26729816e-01
      -1.01430215e-01 -1.06248595e-01 -2.09531188e-02 1.66798338e-01
      -7.62984380e-02 1.57542918e-02 3.45627889e-02 -9.26180854e-02
      1.13312289e-01 -6.51504323e-02 6.02732003e-02 1.10021336e-02</_>
    <_>
      4.94837046e+00 1.14442647e+00 -1.38905549e+00 -1.17666319e-01
      -1.41518080e+00 1.43764365e+00 -1.79106784e+00 5.05197465e-01
      6.25687391e-02 -6.33646190e-01 7.09733868e-04 6.06068254e-01
      -2.05963984e-01 1.53313473e-01 -6.83346212e-01 -2.36798942e-01
      4.14513677e-01 2.03444809e-01 -7.74302613e-03 1.76483616e-01
      9.80510414e-02 4.79083747e-01 1.83705725e-02 2.27001645e-02
      -3.70786607e-01 -1.71170816e-01 4.77118976e-02 2.89518565e-01
      -3.15468848e-01 -1.11658402e-01 6.42298907e-02 6.26108274e-02
      -2.01759368e-01 -2.96661496e-01 -1.25922963e-01 -7.71772861e-02</_>
    <_>
      -1.19894338e+00 2.62739658e+00 -7.35610068e-01 8.67495477e-01
      -1.36785197e+00 -2.40339622e-01 8.06810319e-01 4.25876349e-01
      3.51319343e-01 -4.40961152e-01 3.32019985e-01 6.83687806e-01
      -1.03354967e+00 -2.81450242e-01 3.87834497e-02 5.76776505e-01
      2.26076186e-01 -5.65030158e-01 -1.14046730e-01 1.22701466e-01
      -6.37190491e-02 -1.91205010e-01 2.63936877e-01 8.54859650e-02
      -1.48530245e-01 -2.06870705e-01 -1.32522821e-01 -2.66842574e-01
      -6.79116324e-02 8.64022970e-01 -2.15928450e-01 2.21237168e-01
      -2.32742831e-01 -2.99863160e-01 3.78290951e-01 -2.53776580e-01</_>
    <_>
      1.40390635e-01 4.19797659e-01 -1.27836838e-01 2.15996817e-01
      -1.76305756e-01 -1.91747304e-02 9.56129655e-02 1.80280194e-01
      -1.18305467e-01 -5.20153083e-02 5.98381758e-02 2.12408721e-01
      -8.29832256e-02 2.03902759e-02 4.37775813e-02 -1.09525084e-01
      2.56780893e-01 5.34574352e-02 1.54404178e-01 -1.04059078e-01
      6.91209808e-02 4.97078337e-02 -2.01767325e-01 1.38358146e-01
      -1.24355197e-01 -3.18803452e-02 8.43839534e-03 4.15355153e-02
      -1.40755683e-01 -7.24815205e-03 -6.49111420e-02 -2.65147805e-01
      -1.00793270e-02 -3.67901474e-02 5.77250533e-02 1.35334162e-02</_>
    <_>
      -1.01573682e+00 2.23907852e+00 -6.69055402e-01 7.23424792e-01
      -8.13490391e-01 -5.60000092e-02 4.26444441e-01 2.02479944e-01
      -8.75823945e-02 -3.96383516e-02 -4.97127436e-02 5.28618515e-01
      -2.39445806e-01 -2.59620119e-02 1.44413474e-03 -9.40155089e-02
      4.85119820e-01 -1.50992265e-02 1.46661624e-01 -5.16079627e-02
      2.19059456e-02 9.78119299e-02 -1.01393446e-01 1.48612246e-01
      -4.63366359e-02 2.20548026e-02 6.75762072e-02 1.55169293e-01
      6.14900999e-02 4.52175643e-03 2.23091245e-02 2.62364112e-02
      1.10276327e-01 -6.19486049e-02 9.37705338e-02 -3.94120812e-02</_>
    <_>
      3.36819363e+00 5.29658854e-01 -3.04023242e+00 7.57266641e-01
      -3.20017546e-01 8.22384879e-02 1.95666754e+00 -1.05557156e+00
      -5.05963147e-01 1.65035620e-01 4.66591954e-01 7.11366236e-01
      1.24179870e-01 -2.03593317e-02 2.28296623e-01 6.99231327e-01
      -2.65337788e-02 -3.63630652e-01 5.84290385e-01 -2.25391343e-01
      4.07468706e-01 -2.10498214e-01 -1.04272038e-01 7.36329257e-02
      -3.18767130e-01 -2.97080457e-01 1.35307014e-01 3.83808970e-01
      1.38324887e-01 -2.30434060e-01 1.18944198e-01 -1.72644332e-01
      -1.46641284e-01 1.29942130e-02 -1.47596866e-01 -8.47474709e-02</_>
    <_>
      4.53872967e+00 2.88439536e+00 3.31582761e+00 6.88476145e-01
      -2.36345917e-01 -7.04910517e-01 -1.26155734e-03 -1.15794562e-01
      -4.43050176e-01 -3.38472016e-02 -3.22149545e-01 3.56164664e-01
      1.92769438e-01 3.18799198e-01 -9.52969134e-01 2.79291719e-02
      4.27777499e-01 -8.65453258e-02 4.07638133e-01 -1.59831628e-01
      1.37624204e-01 -6.83003366e-02 -2.62428701e-01 2.47143403e-01
      -2.34234184e-01 6.50279177e-03 1.90452281e-02 -2.04143748e-01
      1.78820059e-01 1.98086336e-01 -1.45651475e-01 7.45317265e-02
      -3.04791927e-01 5.60726300e-02 8.71602744e-02 5.25000505e-02</_>
    <_>
      -5.85205317e-01 1.41127992e+00 -1.66180924e-01 5.23188889e-01
      -4.38016266e-01 -1.17243595e-01 2.71994174e-02 7.38197491e-02
      -1.57873496e-01 -2.42406324e-01 -2.36204892e-01 5.85216463e-01
      -1.47049148e-02 -7.20271319e-02 1.33128420e-01 2.33081565e-03
      -2.08792061e-01 8.42661262e-02 4.96742167e-02 -1.15254954e-01
      1.80125967e-01 4.32737581e-02 -2.29147494e-01 -7.32523575e-02
      -2.16024667e-01 -2.67901570e-01 3.20487805e-02 8.49402025e-02
      -8.75692368e-02 -1.14409206e-02 -7.88092092e-02 -1.60500139e-01
      -1.25368475e-03 -1.53493240e-01 1.58971194e-02 -2.02670973e-03</_>
    <_>
      4.45749664e+00 9.41779256e-01 -1.40804660e+00 7.57275701e-01
      -8.73239860e-02 -1.50044024e+00 1.22787833e+00 -1.69492948e+00
      -1.02429712e+00 4.83594865e-01 5.25763750e-01 3.92619252e-01
      -2.81678021e-01 -6.49474980e-03 -4.78013426e-01 -4.19952005e-01
      -1.67903051e-01 -2.97115222e-02 1.14475772e-01 -7.69624338e-02
      6.27816245e-02 -5.30069955e-02 -2.84145534e-01 -9.21160541e-03
      -1.11075804e-01 -5.62597692e-01 -4.00148481e-01 -2.03457534e-01
      -1.27200678e-01 -3.16515677e-02 -1.66439608e-01 -7.95898288e-02
      -1.09337397e-01 -4.58957076e-01 -4.72222626e-01 -1.24657452e-01</_>
    <_>
      2.78516412e-01 6.89354911e-02 -2.95221657e-02 8.47448185e-02
      -2.74290919e-01 -8.30649808e-02 6.10254556e-02 1.40486345e-01
      -2.68344849e-01 -1.17478356e-01 -1.26338497e-01 3.98609042e-01
      -1.00811005e-01 -3.54297906e-02 4.40939292e-02 -1.45981284e-02
      2.86092013e-01 -2.72498913e-02 5.16151190e-02 -9.22509581e-02
      6.21145368e-02 1.24110065e-01 -7.74426535e-02 7.32883960e-02
      -2.17625551e-04 -2.17819348e-01 -7.10648745e-02 -3.96485860e-03
      -1.09182648e-01 1.96420345e-02 3.00282035e-02 -4.50470820e-02
      9.41266492e-02 -7.29097277e-02 -7.66136572e-02 -5.87615510e-03</_>
    <_>
      -8.78504217e-01 1.93805277e+00 -2.80176759e-01 7.22815812e-01
      -7.27569580e-01 -1.05634309e-01 4.86762524e-02 -9.44963843e-02
      -3.58047396e-01 -2.31700405e-01 -2.62244910e-01 7.12106049e-01
      1.31320521e-01 6.06111214e-02 3.60705554e-02 8.42531323e-02
      8.37940201e-02 1.19863890e-01 5.51069528e-02 -2.42833778e-01
      1.31450310e-01 1.57928213e-01 1.82947338e-01 2.05137134e-01
      -8.58104005e-02 1.54894032e-02 1.24613851e-01 1.88329920e-01
      2.78941914e-02 -2.58452725e-02 -2.93899234e-03 7.08806701e-03
      2.31852159e-01 3.03673875e-02 3.93822007e-02 -4.79861461e-02</_>
    <_>
      5.91391802e-01 1.54336065e-01 8.30783397e-02 1.13025106e-01
      -2.60271341e-01 -1.51936367e-01 -1.48801282e-02 2.82028131e-02
      -1.72857851e-01 -9.46536213e-02 -1.33549646e-01 2.76513040e-01
      -9.81316715e-02 -3.41074727e-02 1.00777727e-02 3.96349356e-02
      1.14953339e-01 3.49743292e-02 4.48156660e-03 -1.00894563e-01
      1.95714291e-02 1.64032385e-01 -1.00549430e-01 5.66906743e-02
      -7.93778151e-02 -8.80361274e-02 3.27190850e-03 6.62718043e-02
      -2.32326910e-02 4.13660072e-02 -3.68717313e-02 -1.33718118e-01
      7.03264773e-02 -1.16210729e-02 6.82295160e-03 2.64792219e-02</_>
    <_>
      -1.97415367e-01 7.84168124e-01 -1.04048528e-01 3.52032810e-01
      -4.67505455e-01 -5.05410507e-02 1.98272705e-01 1.82617888e-01
      -2.71126330e-02 -6.70677200e-02 -3.72084714e-02 2.64645308e-01
      -6.32611960e-02 7.43109675e-04 5.07438667e-02 -8.59715864e-02
      3.27188037e-02 7.06138136e-03 -2.98168790e-02 -1.52612016e-01
      1.49640650e-01 2.97241448e-03 -4.67467189e-01 1.24563575e-01
      -2.85340011e-01 -2.19194442e-01 2.87272017e-02 8.13503563e-02
      -3.26246419e-03 -1.25123844e-01 -1.17383122e-01 -8.13547298e-02
      -1.76754482e-02 6.10753819e-02 -1.43357422e-02 4.33439650e-02</_>
    <_>
      -5.21948993e-01 1.25651598e+00 -1.68607697e-01 5.43110847e-01
      -6.48519099e-01 -4.96119857e-02 1.37590587e-01 1.28952071e-01
      -1.35491446e-01 -8.69532749e-02 -2.14843433e-02 5.86889923e-01
      -1.45133272e-01 -2.87802760e-02 -7.68196657e-02 -1.72134899e-02
      3.20008487e-01 -3.41645181e-02 9.47135675e-04 -2.19040200e-01
      3.43589634e-02 7.65725449e-02 6.34233281e-02 1.05317146e-01
      -1.25951022e-01 -3.49166384e-03 1.38079328e-02 1.59826383e-01
      -1.45835772e-01 4.95900065e-02 3.09100579e-02 -4.18913364e-03
      7.40865916e-02 -5.74989654e-02 -4.31291386e-02 -2.70568784e-02</_>
    <_>
      9.48098004e-01 5.56730211e-01 -4.64733660e-01 5.01296937e-01
      -4.77654159e-01 -2.32694432e-01 -3.22812974e-01 8.10278058e-02
      8.94932747e-02 -2.39082370e-02 7.48786181e-02 2.83593297e-01
      -2.35102698e-01 -1.27938673e-01 1.16727024e-01 3.40395838e-01
      1.20831378e-01 4.04783756e-01 2.34988764e-01 2.09871501e-01
      5.90791702e-02 -2.93349624e-01 1.81857333e-01 4.16973472e-01
      -1.17109403e-01 8.75863805e-02 9.80913490e-02 1.57787383e-01
      2.32412279e-01 4.25584346e-01 -1.66769356e-01 1.85042486e-01
      1.35271713e-01 -4.57859151e-02 -2.18075439e-01 -6.69139298e-03</_>
    <_>
      3.22449058e-01 3.35894555e-01 -4.90540676e-02 1.76410094e-01
      -3.02686602e-01 -4.77107540e-02 3.36680189e-02 1.09240897e-01
      3.46927829e-02 1.09060057e-01 -2.18467310e-01 2.86642581e-01
      -7.98013732e-02 4.16006409e-02 -5.57699502e-02 -1.41695049e-02
      1.17909908e-01 2.15663761e-02 8.74312297e-02 1.67686902e-02
      9.33321863e-02 3.24159972e-02 -1.69879913e-01 -2.45779324e-02
      1.27887338e-01 -3.80997658e-02 -4.74639833e-02 -8.61591287e-03
      1.36418536e-01 2.15179950e-01 -4.28551696e-02 -1.95609286e-01
      8.67264271e-02 1.80201251e-02 6.80849031e-02 -7.16324197e-03</_>
    <_>
      1.90600467e+00 8.00261378e-01 -3.93268585e-01 -1.13896601e-01
      -5.94897389e-01 -6.55381083e-01 -9.99559641e-01 2.16236934e-01
      -1.20320894e-01 1.17600179e+00 -3.48143578e-01 2.66120523e-01
      -2.11422548e-01 -6.84915006e-01 3.55383903e-01 2.84232199e-02
      2.49044076e-01 -2.56813288e-01 -6.06648671e-03 -4.70332354e-01
      2.94431746e-01 -1.84560582e-01 -9.46606621e-02 -1.09183379e-02
      -3.79807830e-01 -1.38759062e-01 -7.26070821e-01 9.92863700e-02
      -3.59444529e-01 1.01558477e-01 4.51647229e-02 -1.74235389e-01
      1.62682205e-01 -1.58177480e-01 1.44640684e-01 5.60228974e-02</_>
    <_>
      -3.46373647e-01 1.26328897e+00 -6.57539964e-01 3.98106426e-01
      -5.85292637e-01 6.87459111e-02 1.60752416e-01 2.78642207e-01
      -3.04169565e-01 5.15262522e-02 -1.85188316e-02 8.18351686e-01
      8.49831328e-02 -1.28526613e-01 3.67576431e-04 -6.90336376e-02
      7.03532398e-01 4.17478174e-01 3.13305020e-01 -2.01237053e-02
      1.72497079e-01 -1.57099944e-02 8.20882767e-02 1.89730674e-01
      2.56086141e-01 1.05356667e-02 2.55506247e-01 -2.78139055e-01
      9.59301665e-02 -6.34672642e-02 -1.06122717e-02 -1.55188888e-01
      1.95768058e-01 1.60378069e-01 1.75087318e-01 -6.52626529e-02</_>
    <_>
      1.52233684e+00 4.75862324e-01 -1.94102660e-01 1.25350547e+00
      -4.88707036e-01 -3.13327789e-01 5.19560575e-01 -2.62349606e-01
      4.58424807e-01 -3.46222699e-01 5.95558703e-01 1.29369244e-01
      -1.40002146e-01 5.68437837e-02 -2.78378397e-01 5.36212921e-01
      -2.34639272e-01 -4.37054783e-02 -1.40366286e-01 -2.62540996e-01
      2.00594559e-01 3.84367675e-01 9.89899635e-02 1.86802000e-01
      4.51228209e-02 -4.97852981e-01 -1.96338266e-01 -8.52313563e-02
      -1.56239048e-01 9.14983675e-02 -2.73214549e-01 1.09549239e-01
      4.05006140e-01 -1.69369340e-01 5.64069390e-01 -5.49372256e-01</_>
    <_>
      1.43457675e+00 2.99622059e-01 1.25581354e-01 9.52408910e-01
      -1.97825062e+00 1.36466369e-01 6.74514174e-02 8.84640098e-01
      8.06618571e-01 -2.73726702e-01 6.69071198e-01 2.77498603e-01
      -2.83903599e-01 8.01986158e-02 -1.49368837e-01 -3.01357776e-01
      -1.80674240e-01 -1.91184714e-01 -7.59248793e-01 -2.18784139e-01
      3.73029619e-01 1.47372380e-01 5.85551225e-02 5.97871840e-01
      -1.39732033e-01 1.96882948e-01 -2.61979580e-01 -3.69808197e-01
      1.89345896e-01 2.93666482e-01 -2.04414636e-01 1.52749315e-01
      -2.22687513e-01 -8.18583369e-01 -4.39982504e-01 2.66379714e-01</_>
    <_>
      5.35053551e-01 5.87514900e-02 1.86931148e-01 1.29947513e-01
      -2.69944489e-01 -1.45562619e-01 2.83020921e-03 -6.49642870e-02
      -8.39786530e-02 2.38704914e-03 -1.70690268e-01 3.77850682e-01
      6.46233209e-04 1.58673637e-02 5.84595203e-02 -1.36302607e-02
      1.02422424e-01 7.36397877e-02 5.36137633e-02 -1.12589911e-01
      2.80133542e-02 8.60361196e-03 -1.07891252e-02 5.47379591e-02
      -7.68577904e-02 -8.96489844e-02 1.17654189e-01 1.80881307e-01
      -5.46620153e-02 3.65868136e-02 -1.03197120e-01 -1.48749694e-01
      1.16477236e-01 -1.80299394e-03 4.57653813e-02 9.56264324e-03</_>
    <_>
      2.59402847e+00 6.20348513e-01 -1.51969051e+00 8.37290108e-01
      1.02583148e-01 5.79636633e-01 5.00681214e-02 -3.61847699e-01
      -3.55313540e-01 1.98289310e-03 -1.81458250e-01 -2.44228899e-01
      -6.67788029e-01 -4.67658788e-02 4.58652899e-02 3.50081712e-01
      4.83232021e-01 2.93880075e-01 2.20477775e-01 -5.41115880e-01
      1.43319070e-01 2.54602373e-01 1.10548362e-02 2.20144644e-01
      -4.64928120e-01 -7.02251196e-02 1.28738862e-02 4.29145306e-01
      2.04709932e-01 1.50305927e-01 -1.29842713e-01 2.50718325e-01
      -1.49013074e-02 -1.07948951e-01 1.14509098e-01 -1.17690027e-01</_>
    <_>
      1.12288736e-01 1.01025546e+00 -1.72995791e-01 7.01761305e-01
      -2.08599105e-01 5.26077375e-02 2.70748228e-01 2.62124717e-01
      1.34736016e-01 -2.92691112e-01 2.34818205e-01 4.28283185e-01
      -2.49335300e-02 3.01350564e-01 -1.21972978e-01 -1.36398360e-01
      1.96376979e-01 9.11283419e-02 1.38654202e-01 2.30962262e-02
      1.85702115e-01 2.26639062e-01 -2.94551879e-01 -1.39699073e-03
      -4.03398238e-02 -2.52493620e-01 -3.36287171e-02 1.90675810e-01
      -1.72611520e-01 -2.21695863e-02 -1.09133027e-01 6.80969208e-02
      4.45873961e-02 2.27940276e-01 -1.13255195e-01 -2.89083272e-02</_>
    <_>
      -1.78841427e-01 5.38529515e-01 -4.43213135e-01 1.81008890e-01
      -7.61015952e-01 -2.20335260e-01 5.93569219e-01 3.83653015e-01
      -3.60546172e-01 -3.97974066e-02 2.98394442e-01 5.72213270e-02
      -2.92896897e-01 1.70085415e-01 1.45804957e-02 3.41676734e-02
      7.11432934e-01 -1.45733058e-01 -2.19591130e-02 4.91880588e-02
      -5.27227931e-02 2.53417164e-01 -4.79688495e-03 4.99920547e-01
      -2.22320929e-01 6.75326660e-02 8.95172805e-02 -3.46271656e-02
      -4.40461785e-01 1.42159790e-01 -2.89666802e-01 2.63966527e-02
      9.37019959e-02 -1.00143356e-02 4.04584222e-02 -5.82166426e-02</_>
    <_>
      6.91762567e-02 5.12959480e-01 6.73440993e-02 2.22144499e-01
      -4.64272469e-01 -2.17951044e-01 8.09524506e-02 1.56476423e-01
      -2.41683260e-01 -2.21279830e-01 -8.55252296e-02 1.89274952e-01
      -1.17529869e-01 3.18640172e-02 7.91727379e-03 6.45769611e-02
      7.64239803e-02 -1.01616299e-02 2.00887565e-02 -2.05539420e-01
      1.13236427e-01 1.53563768e-01 -4.24602255e-02 1.15734734e-01
      -2.27298453e-01 -1.08422056e-01 -4.85303923e-02 -5.94745353e-02
      -1.56544611e-01 4.27060574e-02 -1.22293197e-01 -4.16068770e-02
      2.53028125e-02 -2.79620918e-03 -9.19577386e-03 -1.11043006e-02</_>
    <_>
      4.17466879e-01 1.21771947e-01 -2.22380529e-03 6.41110539e-02
      -2.76183009e-01 -1.31863996e-01 6.93697780e-02 -9.33941640e-03
      -1.68364227e-01 -1.02730088e-01 -3.31102870e-02 3.77516448e-01
      6.19193213e-03 2.06727232e-03 4.68593910e-02 -2.09026970e-02
      2.23448321e-01 7.08746463e-02 4.78666015e-02 -5.68880737e-02
      4.92446832e-02 8.60479772e-02 -6.82947636e-02 1.05696365e-01
      -7.59634823e-02 -1.09913275e-01 -1.05890045e-02 1.17261566e-01
      -8.08958486e-02 -9.17502958e-03 4.40270603e-02 -4.52953391e-02
      1.15227938e-01 3.24652046e-02 1.07919879e-01 4.89074402e-02</_>
    <_>
      1.40390635e-01 4.19797659e-01 -1.27836838e-01 2.15996817e-01
      -1.76305756e-01 -1.91747304e-02 9.56129655e-02 1.80280194e-01
      -1.18305467e-01 -5.20153083e-02 5.98381758e-02 2.12408721e-01
      -8.29832256e-02 2.03902759e-02 4.37775813e-02 -1.09525084e-01
      2.56780893e-01 5.34574352e-02 1.54404178e-01 -1.04059078e-01
      6.91209808e-02 4.97078337e-02 -2.01767325e-01 1.38358146e-01
      -1.24355197e-01 -3.18803452e-02 8.43839534e-03 4.15355153e-02
      -1.40755683e-01 -7.24815205e-03 -6.49111420e-02 -2.65147805e-01
      -1.00793270e-02 -3.67901474e-02 5.77250533e-02 1.35334162e-02</_>
    <_>
      -5.21228790e-01 1.53695977e+00 -7.19373003e-02 6.02867007e-01
      -5.99222541e-01 -9.41074938e-02 2.76659839e-02 6.55309185e-02
      -3.06361467e-01 -2.78427631e-01 -2.79473484e-01 3.07615578e-01
      1.44546509e-01 -1.02129735e-01 7.59306997e-02 1.34660169e-01
      -1.19573832e-01 3.07709835e-02 -8.69332179e-02 -2.39410728e-01
      5.07283583e-02 3.66489217e-02 -3.80660221e-02 2.28317916e-01
      -1.81383297e-01 -3.63381237e-01 -5.37983468e-03 -3.49166356e-02
      -4.86605614e-02 2.84049138e-02 1.03686996e-01 -8.18757489e-02
      -8.03568363e-02 2.93721408e-02 1.10604810e-02 -1.36699062e-02</_>
    <_>
      2.17945606e-01 -2.36549973e-01 3.98951083e-01 1.20652187e+00
      -7.65278757e-01 -3.22083145e-01 -4.51411828e-02 -4.39910948e-01
      9.61052254e-02 -9.14079309e-01 -1.00730145e+00 7.55353451e-01
      7.63978288e-02 6.95131198e-02 1.49089038e-01 3.86525720e-01
      9.84542817e-03 -6.53969198e-02 -5.12859225e-01 4.12778050e-01
      3.00398439e-01 -4.14372891e-01 -1.91923067e-01 1.38847500e-01
      -7.82500029e-01 3.95360410e-01 -5.41215055e-02 6.27624333e-01
      -2.73872256e-01 -3.68039422e-02 7.99662992e-02 -6.15608357e-02
      2.01389585e-02 -1.56836703e-01 7.12486729e-02 -3.14265519e-01</_>
    <_>
      1.91743806e-01 3.28065455e-01 -7.68599212e-02 2.64889240e-01
      -4.20981139e-01 -8.00838545e-02 1.28948912e-01 9.06139836e-02
      -2.90470175e-03 -3.12808976e-02 -5.02217598e-02 1.52923420e-01
      -7.10481554e-02 -5.31725399e-02 -3.59186990e-04 -7.62474313e-02
      1.45652980e-01 -5.25708357e-03 1.43296793e-01 -1.39189780e-01
      1.42938957e-01 5.04742712e-02 -1.79713011e-01 1.62026376e-01
      -1.44053757e-01 -1.30230799e-01 4.51161787e-02 1.29843950e-01
      -6.05207793e-02 -1.94441844e-02 5.28190732e-02 -1.51777193e-01
      -1.21873140e-03 -1.11768860e-02 7.37460330e-02 1.09147795e-01</_>
    <_>
      -6.45145297e-01 1.74975038e+00 -2.68200189e-01 7.49997735e-01
      -8.01922202e-01 -9.12993699e-02 3.34910125e-01 1.64078057e-01
      1.96299151e-01 -6.23297356e-02 -2.89630052e-02 5.59524238e-01
      -4.99250084e-01 -1.34571224e-01 -2.13027559e-02 -2.41457694e-03
      3.11134011e-01 -9.87145752e-02 -4.93324474e-02 6.18007174e-03
      4.42198589e-02 1.19428709e-01 -6.32222295e-02 1.21759206e-01
      -2.56902099e-01 -2.70445883e-01 7.65242651e-02 1.35253733e-02
      6.21064454e-02 4.48023155e-02 -6.70747161e-02 -1.34512320e-01
      4.35166024e-02 4.36702967e-02 1.63711235e-02 -2.55019367e-02</_>
    <_>
      -7.45942175e-01 1.48027968e+00 -4.21302080e-01 5.75506091e-01
      -7.66646385e-01 -2.16070358e-02 2.35430226e-01 2.20972702e-01
      -2.37364605e-01 4.12210897e-02 -7.68946633e-02 6.09260380e-01
      -1.84675843e-01 -7.44680762e-02 6.76262751e-02 -1.77830104e-02
      5.32572091e-01 3.53148840e-02 1.10339284e-01 -3.47287841e-02
      2.90890746e-02 1.58095643e-01 -3.81864756e-02 1.00245945e-01
      4.30575162e-02 -1.22588739e-01 -1.18605860e-01 4.62333970e-02
      -1.07115664e-01 1.37537822e-01 2.85023302e-02 -5.84164374e-02
      8.08923990e-02 -7.24937469e-02 -3.44885401e-02 -7.67061338e-02</_>
    <_>
      -6.48967326e-01 1.79440820e+00 -6.39369726e-01 7.82493412e-01
      -7.27616966e-01 -5.76337636e-01 5.24483085e-01 7.02536851e-02
      -4.15378600e-01 -2.79640883e-01 1.38282865e-01 4.92694914e-01
      -1.79771394e-01 -8.63683224e-02 -8.12670290e-02 3.47739071e-01
      4.66326356e-01 1.41456768e-01 1.44531399e-01 -6.42899796e-02
      -4.17154640e-01 8.23085383e-02 -5.76688051e-02 4.35009211e-01
      -2.50866920e-01 1.09790236e-01 -1.66103452e-01 -1.09075606e-01
      -2.35747412e-01 9.48630944e-02 9.07749385e-02 -1.85513739e-02
      -1.58093542e-01 9.71445963e-02 1.27644941e-01 -1.34797350e-01</_>
    <_>
      1.29868138e+00 -3.29756331e+00 5.97655892e-01 5.93085146e+00
      -2.39719391e+00 -4.16499883e-01 -1.40169412e-01 1.17599845e+00
      -1.47736871e+00 1.34787604e-01 -1.02747947e-01 7.67174244e-01
      -2.55367547e-01 1.10076286e-01 3.28374258e-03 -3.44592258e-02
      1.07049599e-01 4.68940213e-02 1.89445342e-03 -1.50815904e-01
      5.67817055e-02 -1.18499070e-01 -1.65815726e-01 1.79930598e-01
      -1.02255851e-01 -4.19827513e-02 4.64479439e-03 2.70399600e-01
      -7.69338524e-03 6.77516162e-02 6.64292946e-02 -2.94138849e-01
      1.35160640e-01 -1.80139113e-02 1.87535137e-01 2.11279571e-01</_>
    <_>
      -1.13269225e-01 8.24083447e-01 -1.24052465e-01 4.13886905e-01
      -5.38732708e-01 -9.23994258e-02 1.72978327e-01 1.61030993e-01
      -8.13879520e-02 -1.13716654e-01 -6.41696602e-02 1.79508731e-01
      -5.83178587e-02 9.28445999e-03 -9.62671451e-03 -8.77946094e-02
      7.26568997e-02 4.21763621e-02 5.53645268e-02 -1.35073662e-01
      2.30623156e-01 -2.65897177e-02 -2.05340877e-01 1.08898453e-01
      -1.30496576e-01 -1.98955610e-01 -4.84041460e-02 6.11363053e-02
      -1.15251131e-01 4.95726019e-02 -5.21179251e-02 -1.14866912e-01
      -1.73828956e-02 6.09864620e-03 -3.11679859e-02 4.38669473e-02</_>
    <_>
      -7.13022411e-01 1.48629940e+00 -3.24740469e-01 6.53703451e-01
      -6.50973737e-01 -2.38855124e-01 2.07677126e-01 1.94304958e-01
      -2.44068921e-01 -1.67008042e-01 -1.57940030e-01 9.01206732e-01
      -2.72733301e-01 -7.46085495e-02 3.92904952e-02 6.93415031e-02
      2.82462567e-01 5.54219186e-02 7.36974850e-02 -1.18843645e-01
      5.60286343e-02 6.88810199e-02 -1.15183212e-01 -2.11479161e-02
      -1.40363872e-01 -2.17142701e-01 3.47599760e-02 -2.47863540e-03
      -1.43979922e-01 7.35648721e-02 -6.67754486e-02 1.60078164e-02
      -3.36486287e-02 7.59949759e-02 1.56116793e-02 -1.11462966e-01</_>
    <_>
      2.32459569e+00 5.75681508e-01 -9.58518684e-01 7.13421345e-01
      2.39942074e-01 -1.46285617e+00 3.97113740e-01 -5.20884454e-01
      1.02878362e-02 -5.11450879e-03 -1.91237554e-01 7.21193328e-02
      -6.48612857e-01 2.82871008e-01 -6.30838126e-02 8.94214928e-01
      1.67840704e-01 2.18149513e-01 2.01205201e-02 -1.22536577e-01
      -7.11729765e-01 2.16123134e-01 -1.32460505e-01 5.43350637e-01
      2.13535592e-01 -3.25995833e-01 1.64092898e-01 -1.44200996e-01
      8.25743154e-02 3.58326994e-02 8.18661451e-01 -1.13288499e-01
      2.10041299e-01 8.55054408e-02 -6.76547512e-02 7.80822933e-02</_>
    <_>
      -7.75309503e-01 1.85215557e+00 -2.90282935e-01 7.07260907e-01
      -8.65636230e-01 -3.37060094e-02 3.01943868e-01 1.50574267e-01
      1.14896320e-01 -9.74171683e-02 4.84195491e-03 4.55166221e-01
      -3.08558375e-01 -1.38555482e-01 -5.99030778e-02 -4.29054871e-02
      2.76888758e-01 -1.76269393e-02 -1.18470110e-01 -1.40779033e-01
      5.66746630e-02 -2.18239371e-02 4.21554521e-02 3.41581143e-02
      -1.32136434e-01 -1.65484756e-01 1.09348483e-01 2.58318409e-02
      -1.24555893e-01 5.56966197e-03 1.77855715e-02 -5.48203960e-02
      1.03278480e-01 -1.51139364e-01 5.68597345e-03 -3.92659605e-02</_>
    <_>
      -6.98308289e-01 1.72228527e+00 -1.98236823e-01 6.39726162e-01
      -6.34688020e-01 -5.62591739e-02 2.87121022e-03 8.45244676e-02
      -3.91999185e-01 -3.17011833e-01 -1.81898698e-01 3.72501284e-01
      1.97726384e-01 5.67531623e-02 4.25769314e-02 2.00597849e-02
      -1.21275581e-01 9.64902267e-02 9.99163091e-03 -3.45355481e-01
      8.80229250e-02 1.62398040e-01 8.48885626e-02 1.92044035e-01
      -1.05946422e-01 1.97396358e-03 1.33233160e-01 6.71777176e-03
      -4.84248251e-02 1.66637786e-02 1.20685741e-01 -1.43903755e-02
      1.15498647e-01 -1.42517492e-01 4.50590886e-02 4.43343595e-02</_>
    <_>
      7.60676682e-01 6.85782194e-01 -7.80882657e-01 4.06348765e-01
      -1.39969265e+00 2.04082027e-01 3.02902222e-01 3.22280765e-01
      7.18466461e-01 2.50036031e-01 7.98791125e-02 -1.80518404e-01
      1.32771758e-02 -5.67154996e-02 -8.58773738e-02 2.02953592e-01
      2.96503186e-01 -9.95714515e-02 -5.53115547e-01 -4.23401445e-01
      -4.99909252e-01 -2.18975380e-01 -9.73636433e-02 -8.71226937e-02
      -1.68481052e-01 4.24966633e-01 -1.65564805e-01 -1.78637043e-01
      1.01794612e+00 -3.83329630e-01 -7.47238934e-01 3.48901927e-01
      1.10401642e+00 -2.38035634e-01 2.13402599e-01 -7.51052618e-01</_>
    <_>
      3.25658798e-01 6.63990140e-01 -7.80832231e-01 3.95023882e-01
      -4.58024591e-01 1.50471181e-01 3.89944389e-02 -4.98660743e-01
      -4.18960989e-01 -4.51108992e-01 -1.63424313e-01 3.90470028e-01
      -3.18947971e-01 9.03863162e-02 -2.24734262e-01 -1.88814864e-01
      3.06542963e-01 -6.47240877e-02 2.62470633e-01 -4.33729351e-01
      -2.87931293e-01 2.17514738e-01 -1.06802523e-01 1.63092129e-02
      1.64442584e-01 -6.88436106e-02 1.22006841e-01 -2.69195484e-03
      1.49479264e-03 2.61423439e-01 -1.33911222e-01 -7.42700770e-02
      2.19763637e-01 -9.12384167e-02 -1.91105098e-01 -5.83187602e-02</_>
    <_>
      -1.48124248e-01 1.49857104e+00 -5.99440336e-01 7.58994877e-01
      -2.48606846e-01 1.91041872e-01 9.82547641e-01 6.55271590e-01
      5.42217195e-01 3.12824138e-02 5.08223712e-01 9.27676618e-01
      -1.15669501e+00 7.01294243e-01 -3.53939682e-01 3.44186947e-02
      1.19295418e+00 -3.99727464e-01 3.67732614e-01 -2.50306904e-01
      7.49088675e-02 1.97252363e-01 3.61278713e-01 5.32524168e-01
      -9.71391723e-02 5.32394290e-01 3.24847698e-01 1.72677130e-01
      -4.67408508e-01 -4.77277994e-01 -2.54498929e-01 -8.21180120e-02
      4.95808944e-02 -3.30615014e-01 -4.01166111e-01 -1.57862231e-01</_>
    <_>
      -6.26714766e-01 2.23738933e+00 -4.12328213e-01 6.25533164e-01
      -1.04724073e+00 3.22923660e-01 4.39223617e-01 -7.66861588e-02
      -8.69593918e-02 -2.84562558e-01 4.11120713e-01 1.33545005e+00
      -3.75822783e-01 9.17254686e-02 -3.69028389e-01 -7.19743073e-01
      9.00926769e-01 -2.86018163e-01 -4.07265037e-01 -6.35836899e-01
      -9.45836976e-02 -1.47805922e-02 3.02908272e-01 1.01372227e-02
      -4.38622534e-02 4.65533316e-01 5.83247662e-01 5.73378265e-01
      6.86022460e-01 5.13190739e-02 3.95988435e-01 4.86964174e-02
      5.59733510e-01 -6.00796461e-01 -9.28623155e-02 6.09732032e-01</_>
    <_>
      3.02038383e+00 1.03509939e+00 -1.10356998e+00 1.33767557e+00
      5.52923560e-01 -3.72505188e-01 -3.05924296e-01 -1.25618381e-02
      2.83493370e-01 2.71651894e-01 -1.90065339e-01 2.93267280e-01
      -6.47235274e-01 7.39390552e-01 4.66000855e-01 3.10286790e-01
      3.06327790e-01 2.15782747e-01 5.82185648e-02 -5.56447327e-01
      -3.29849452e-01 -1.73533842e-01 1.20075062e-01 1.59305006e-01
      -8.42995942e-02 -4.00863826e-01 -3.91661197e-01 1.21027388e-01
      -2.31496155e-01 4.43350337e-02 5.25556087e-01 3.96532156e-02
      1.85946196e-01 1.11822464e-01 1.13108903e-01 -7.85459019e-03</_>
    <_>
      3.70589018e-01 5.78711212e-01 -5.02382636e-01 4.12843943e-01
      -9.24894094e-01 -2.33948708e-01 6.45500645e-02 5.80879927e-01
      2.62418449e-01 -2.19320551e-01 9.79905576e-02 3.17840755e-01
      1.60645872e-01 -1.26112521e-01 1.64929703e-01 9.47685316e-02
      4.50434461e-02 1.61770340e-02 2.73458697e-02 -1.39310971e-01
      -1.62641764e-01 -4.55140620e-02 -2.92259395e-01 -2.51564264e-01
      -1.48686767e-01 6.00703945e-03 -3.81882727e-01 2.16727033e-01
      -5.60551547e-02 -2.17140421e-01 -1.31322026e-01 4.60989326e-02
      2.96334714e-01 6.86131045e-02 -2.70148814e-01 -1.01054400e-01</_>
    <_>
      -9.56924260e-02 7.52000153e-01 8.06707516e-02 3.26953232e-01
      -2.35907331e-01 -6.20396696e-02 7.78373405e-02 3.44031602e-02
      -6.19566850e-02 -2.34756500e-01 -1.55998887e-02 2.87807703e-01
      -1.00295231e-01 2.63951439e-02 1.27906650e-01 -5.72511144e-02
      -1.45520583e-01 -4.21809207e-04 -8.93571600e-03 -1.04458183e-01
      1.60420984e-01 8.57428536e-02 -3.38019133e-01 1.12145185e-01
      -2.19950080e-01 -1.58635855e-01 3.62097993e-02 3.74876745e-02
      -2.84167137e-02 -1.03934944e-01 -1.46845564e-01 -2.20512509e-01
      -1.81927122e-02 2.24700700e-02 8.95808712e-02 3.40332054e-02</_>
    <_>
      2.78407276e-01 8.59388411e-01 -3.05272877e-01 6.93818331e-01
      -5.75925410e-01 -3.26102734e-01 1.20988056e-01 1.81898177e-01
      2.40782574e-01 -1.17697418e-01 2.07374915e-01 5.57127059e-01
      -3.68974470e-02 -1.35276869e-01 -1.03669427e-01 1.32151932e-01
      5.37384599e-02 4.57795709e-01 -2.52553016e-01 5.89979708e-01
      -6.07849099e-02 4.06710543e-02 6.33811116e-01 -6.98772371e-01
      9.32302952e-01 3.73793691e-01 -2.37109475e-02 2.88321078e-01
      4.22723800e-01 4.32147592e-01 -1.43123537e-01 7.86861122e-01
      -1.59627628e+00 9.41742182e-01 1.71280667e-01 6.39571607e-01</_>
    <_>
      2.93431950e+00 7.13494837e-01 -7.08097637e-01 6.39517784e-01
      1.92295745e-01 -1.67805481e+00 -1.43622935e-01 -4.96007383e-01
      -2.14382961e-01 4.51829582e-01 -2.42663637e-01 2.12452978e-01
      -9.25594509e-01 -3.81182492e-01 -2.07065362e-02 2.24854305e-01
      -4.62148413e-02 5.62291205e-01 3.11184824e-01 -9.68734846e-02
      -1.37933493e-01 -3.80234212e-01 -2.15833187e-01 3.67237002e-01
      1.21849298e-01 -2.31500864e-01 -2.70708166e-02 -2.82241881e-01
      6.12449227e-03 5.65469623e-01 3.61419804e-02 -1.81530982e-01
      4.61253077e-01 -1.44146249e-01 -3.00334245e-02 -1.07794687e-01</_>
    <_>
      -6.72261775e-01 1.47995174e+00 -3.78553897e-01 6.06882036e-01
      -6.97768867e-01 -4.85341027e-02 2.60706425e-01 1.64842397e-01
      -1.43939152e-01 3.87354195e-03 -7.23444000e-02 4.95507360e-01
      -1.45801395e-01 -2.64433865e-02 4.07918170e-02 9.08089057e-03
      4.92000222e-01 -5.34244291e-02 2.20651040e-03 1.08138090e-02
      -1.79666895e-02 1.47989005e-01 -8.76702294e-02 8.39807913e-02
      2.92056967e-02 -1.77537695e-01 -7.08412975e-02 9.38902944e-02
      -1.58667177e-01 5.54401688e-02 -3.46075445e-02 -1.49798572e-01
      7.47639462e-02 2.28747278e-02 6.27891123e-02 1.75297644e-03</_>
    <_>
      1.94364917e+00 1.90873194e+00 3.38694334e-01 4.09521013e-01
      -7.31694341e-01 -5.89530289e-01 -1.57472110e+00 4.29677427e-01
      -1.85941622e-01 7.92332530e-01 -3.75424832e-01 6.06640577e-01
      -4.07988638e-01 -1.37953866e+00 7.79132783e-01 -2.25312516e-01
      2.26352647e-01 1.49260655e-01 5.32290898e-02 -6.49318248e-02
      2.64164299e-01 -1.48120105e-01 -1.77297350e-02 -3.22740018e-01
      -2.78982490e-01 -1.95419788e-01 -5.39843380e-01 -3.10830362e-02
      -7.50269592e-02 1.26635032e-02 1.53989002e-01 -2.57835329e-01
      7.93489292e-02 -3.38967480e-02 1.04310783e-02 -2.35980242e-01</_>
    <_>
      -2.91856110e-01 1.22341359e+00 -2.16114119e-01 5.80061436e-01
      -5.55839539e-01 -4.53234427e-02 2.48688519e-01 1.71056557e-02
      8.17729533e-02 -3.12346444e-02 -2.26542708e-02 3.53885472e-01
      -2.45592475e-01 9.52346623e-02 -4.94620614e-02 -3.33923399e-02
      3.85196745e-01 -1.15052098e-02 9.55559164e-02 -3.02920397e-02
      1.24159180e-01 1.03454046e-01 1.96021944e-02 6.67649359e-02
      2.69561801e-02 3.99353802e-02 -1.18266620e-01 5.21184579e-02
      -1.04234263e-01 1.54802293e-01 6.94949254e-02 -2.35455155e-01
      4.29278575e-02 1.87407676e-02 -4.19708900e-03 1.55814946e-01</_>
    <_>
      1.59136212e+00 3.01533014e-01 7.69485593e-01 1.89069048e-01
      -1.58487618e+00 -3.15422237e-01 1.75496757e+00 -2.77193189e-01
      -2.23660097e-01 -3.13311458e-01 -2.58284777e-01 1.84029058e-01
      1.67842343e-01 3.23711634e-01 -2.96203107e-01 -1.18336774e-01
      2.04795018e-01 -6.56641796e-02 3.66111882e-02 -2.22583815e-01
      -2.30867356e-01 2.26906359e-01 2.95890301e-01 6.67471588e-02
      -2.38671169e-01 2.29298562e-01 -1.44592240e-01 2.70974517e-01
      2.29325652e-01 6.38266265e-01 -1.01044022e-01 -3.49956095e-01
      -4.29417491e-02 2.36072406e-01 6.49474710e-02 2.58978099e-01</_>
    <_>
      1.05987668e-01 -1.31069794e-01 1.16486892e-01 6.01890981e-01
      -5.64821303e-01 -3.11442763e-01 6.18939996e-02 -3.82933170e-01
      9.27234769e-01 -1.48928314e-01 3.34331632e-01 5.07048786e-01
      3.60010415e-01 -1.75249755e-01 9.23221856e-02 -2.85451025e-01
      3.71911675e-01 5.01248598e-01 4.91435260e-01 -8.06269109e-01
      4.60656323e-02 6.40770793e-01 -3.29509258e-01 5.69565654e-01
      5.87790878e-03 1.88859794e-02 -1.35169486e-02 2.81196386e-01
      -4.80258167e-01 2.63205111e-01 -5.03425188e-02 3.16467464e-01
      1.07959360e-01 1.86955616e-01 -3.26056778e-01 8.96198675e-02</_>
    <_>
      -1.27375269e+00 2.68144798e+00 -6.43383324e-01 8.44540417e-01
      -1.00491905e+00 -1.05325520e-01 2.85191894e-01 1.05094813e-01
      -2.76696771e-01 -2.85064280e-01 -1.15985766e-01 8.05796504e-01
      -2.43019447e-01 1.64380204e-02 1.43908672e-02 -5.76272905e-02
      4.25824493e-01 1.13681946e-02 -7.29114413e-02 -2.11914063e-01
      -4.91363788e-03 1.05175696e-01 6.29464388e-02 -1.10302695e-04
      1.68196544e-01 2.96437025e-01 2.44842410e-01 -5.89702353e-02
      2.39145696e-01 1.09886818e-01 -1.61502242e-01 2.84178238e-02
      1.81695506e-01 -1.47981092e-01 -1.89456671e-01 -1.59469500e-01</_>
    <_>
      4.53708982e+00 -3.72540839e-02 -3.24792624e+00 -3.54224175e-01
      -1.71466970e+00 4.35529888e-01 9.58248496e-01 5.80498159e-01
      -1.30841658e-01 -1.62604642e+00 5.78912079e-01 7.45649397e-01
      2.17993036e-01 1.23640604e-01 4.63754773e-01 1.17029831e-01
      1.89610600e-01 7.45856047e-01 -3.98084700e-01 -8.77065808e-02
      4.94099595e-02 2.78375655e-01 9.02199298e-02 -1.49228320e-01
      -4.17580575e-01 -5.20919204e-01 -3.75185348e-02 4.37486142e-01
      1.96506187e-01 3.14969599e-01 -1.80505767e-01 -2.68474877e-01
      -2.09106617e-02 -4.62708063e-02 7.97953829e-02 7.60328844e-02</_>
    <_>
      -4.23226506e-02 5.60311019e-01 -9.24197659e-02 2.78047055e-01
      -3.12960356e-01 9.42837745e-02 1.96286246e-01 -7.53739523e-03
      -2.46657114e-02 -6.43704161e-02 1.88459195e-02 3.02164882e-01
      -8.27007592e-02 -1.28964767e-01 -5.72058000e-02 -1.64851367e-01
      1.80088326e-01 1.09952219e-01 -3.10386159e-02 -2.44046301e-01
      4.02331054e-02 4.98711951e-02 -2.17939466e-01 1.63311154e-01
      -1.83079958e-01 -8.46474022e-02 9.48735923e-02 1.25917017e-01
      1.11815453e-01 -8.11332464e-02 9.82135683e-02 -7.04874545e-02
      -5.32500213e-03 -4.30666208e-02 8.56441483e-02 1.17483422e-01</_>
    <_>
      5.37882209e-01 1.21218618e-02 6.15083501e-02 1.21040896e-01
      -1.24240041e-01 -2.59281367e-01 -4.88592833e-02 -1.02312729e-01
      -1.16304629e-01 -1.26011610e-01 -4.12038527e-02 3.27743500e-01
      5.60385063e-02 5.40621728e-02 1.30015269e-01 -4.43355776e-02
      8.46266448e-02 2.42746305e-02 1.35391310e-01 -7.77117461e-02
      4.55476763e-03 1.02203779e-01 8.17947313e-02 -5.10627218e-02
      -9.47655067e-02 -2.25472413e-02 1.00218162e-01 5.72840869e-02
      -1.59340233e-01 1.44000992e-01 -1.14755556e-01 -1.90469787e-01
      8.00804496e-02 -2.66253315e-02 7.50014931e-02 -2.25387812e-02</_>
    <_>
      3.09662580e-01 1.76218367e+00 5.04705548e-01 1.18806672e+00
      -1.01604545e+00 9.48482677e-02 1.19874036e+00 -8.70289877e-02
      9.58661795e-01 -2.46823281e-01 2.01914832e-01 6.28445685e-01
      -3.08363616e-01 -4.60583121e-01 1.13862686e-01 8.36393237e-02
      -1.21123001e-01 6.42638206e-02 -8.34202111e-01 -4.32760656e-01
      -2.45052189e-01 -3.94631699e-02 -3.36815208e-01 1.16046451e-01
      -2.11722076e-01 -5.98810196e-01 -6.44822046e-03 8.80385935e-02
      4.42695506e-02 -8.51288959e-02 -1.06463498e-02 1.89703301e-01
      -1.73732154e-02 3.09761703e-01 1.37176767e-01 4.51761298e-02</_>
    <_>
      2.77491003e-01 9.40714180e-01 -2.81353623e-01 3.62395018e-01
      -1.79596698e+00 -6.74420819e-02 8.72749567e-01 -2.84874022e-01
      -5.62096119e-01 -3.20036113e-01 5.98336518e-01 6.93670064e-02
      -4.51016754e-01 6.35502756e-01 -3.22559997e-02 2.44288936e-01
      4.36765283e-01 1.88801154e-01 -6.76642805e-02 -9.02805448e-01
      -4.06403780e-01 -1.48611650e-01 -2.98281908e-01 -1.59367278e-01
      6.48764968e-02 1.98429063e-01 -4.18013155e-01 1.53343737e-01
      -1.76377386e-01 -9.39376727e-02 3.15084964e-01 -1.44867077e-01
      7.01558292e-02 -5.73221445e-01 -7.50824690e-01 2.18076512e-01</_>
    <_>
      4.25506085e-01 -1.11906230e-03 -8.42311159e-02 -9.74654593e-03
      -2.51648873e-01 -7.09375516e-02 2.04078764e-01 8.43192264e-02
      -1.23193212e-01 -7.97670856e-02 -4.62645106e-02 2.21495003e-01
      -1.13323644e-01 -3.36050503e-02 1.29904076e-01 -4.60651889e-02
      3.07568461e-01 1.09387361e-01 3.97226661e-02 -2.55101062e-02
      7.69131556e-02 1.05743036e-01 -9.95427072e-02 1.00966409e-01
      -3.93313989e-02 -1.46702796e-01 9.15754586e-03 3.38321440e-02
      -1.63681298e-01 7.80854374e-02 -1.08637631e-01 -1.65870771e-01
      7.09599331e-02 1.24885812e-02 1.41419545e-01 -2.35941429e-02</_>
    <_>
      4.79178619e+00 1.40462649e+00 5.77967525e-01 -2.27177572e+00
      -4.05430698e+00 -1.38213301e+00 -5.28046548e-01 9.99843121e-01
      1.26223192e-02 -3.38989347e-01 -8.68778169e-01 3.51740301e-01
      4.39506546e-02 -3.17666560e-01 2.04105765e-01 5.55804968e-01
      2.85228223e-01 2.21336529e-01 4.04565483e-01 -8.30521155e-03
      -1.65145889e-01 -1.15418009e-01 2.38754764e-01 6.99226737e-01
      -3.81998062e-01 -3.43956500e-01 -1.76787496e-01 6.84315383e-01
      5.53814948e-01 2.10535601e-01 4.21190374e-02 -7.00815096e-02
      4.53426801e-02 6.24759793e-01 -1.77344874e-01 -3.12099963e-01</_>
    <_>
