<?xml version="1.0"?>
<opencv_storage>
<opencv_ml_svm>
  <format>3</format>
  <svmType>C_SVC</svmType>
  <kernel>
    <type>RBF</type>
    <gamma>5.0625000000000009e-01</gamma></kernel>
  <C>1.0000000000000001e-01</C>
  <term_criteria><iterations>100</iterations></term_criteria>
  <var_count>36</var_count>
  <class_count>2</class_count>
  <class_labels type_id="opencv-matrix">
    <rows>2</rows>
    <cols>1</cols>
    <dt>i</dt>
    <data>
      0 1</data></class_labels>
  <sv_total>200</sv_total>
  <support_vectors>
    <_>
      2.11411372e-01 2.57518310e-02 -1.46743044e-01 -5.35626523e-02
      6.48408458e-02 -1.35473367e-02 3.82768475e-02 1.60416830e-02
      1.57350376e-02 6.37414753e-02 -8.81429762e-02 -1.74296662e-01
      -7.54237100e-02 -6.37069866e-02 -4.59039323e-02 -1.85575169e-02
      1.15386378e-02 -4.10742406e-03 -3.64501216e-02 -7.00641074e-04
      -7.28934109e-02 -4.88938391e-02 -1.49259018e-02 4.59566601e-02
      5.78379110e-02 -1.72444880e-02 -3.25381458e-02 -3.97648886e-02
      -1.40916342e-02 8.81329030e-02 -5.30592315e-02 -4.03161021e-03
      1.28969108e-03 -4.87758107e-02 -1.40842260e-03 4.91555370e-02</_>
    <_>
      -5.30199945e-01 6.78464711e-01 -1.16999783e-01 -2.25804523e-02
      3.80407423e-02 -1.06020831e-02 5.17333113e-02 5.37535595e-03
      5.00026857e-03 6.03653900e-02 -8.61462578e-02 -1.66901916e-01
      -7.14455247e-02 -9.18380767e-02 -6.13765372e-03 -6.32122904e-02
      1.33563615e-02 1.24766201e-01 -2.48268731e-02 -2.68465676e-03
      -8.08808431e-02 2.83824001e-02 -7.89158940e-02 8.10170546e-02
      2.71731913e-02 6.54240921e-02 -3.54960412e-02 -1.45748407e-01
      5.67706153e-02 8.27149600e-02 1.89679454e-03 4.44188341e-03
      -3.64094675e-02 -1.31761461e-01 -4.47716415e-02 2.52493229e-02</_>
    <_>
      -7.74305046e-01 9.92637753e-01 -5.91549911e-02 -5.66041470e-02
      4.96100448e-02 1.07797265e-01 -6.31678924e-02 3.85608859e-02
      1.42496914e-01 -9.54687372e-02 -2.42604032e-01 -1.26252368e-01
      -2.31181651e-01 -5.72773404e-02 -1.37827635e-01 -1.30817384e-01
      -2.09072307e-02 -3.86133343e-02 1.15344018e-01 6.62523322e-03
      -5.42562567e-02 -1.37527168e-01 -8.39166716e-02 9.57762972e-02
      8.33092909e-03 -2.48447573e-03 -6.56665266e-02 -6.48690835e-02
      -4.93422560e-02 1.44169539e-01 -1.10683426e-01 -6.24855096e-03
      3.89562398e-02 2.96229403e-02 4.42023389e-02 7.05704186e-03</_>
    <_>
      -6.70416534e-01 9.10724461e-01 4.58989814e-02 -1.53011963e-01
      -7.21747503e-02 1.73051029e-01 1.11523688e-01 2.32633859e-01
      2.37347379e-01 -1.63797677e-01 -1.44367039e-01 -1.66759044e-01
      -1.46424890e-01 -1.50685282e-02 5.68775870e-02 -3.57212760e-02
      -9.93054826e-03 -8.78521055e-03 -8.05054232e-02 -1.47227766e-02
      -1.29193187e-01 7.66526982e-02 -3.45892720e-02 -2.92178039e-02
      1.56541973e-01 7.89847150e-02 -6.71098530e-02 -1.18510194e-01
      -7.99202546e-02 6.26469180e-02 -9.18738469e-02 1.42322257e-02
      -9.30998921e-02 -3.24482024e-02 4.76396754e-02 4.79490571e-02</_>
    <_>
      -7.99648404e-01 1.08276176e+00 8.62433761e-02 -1.25573426e-01
      -7.43161589e-02 9.21189934e-02 5.63689396e-02 2.69180566e-01
      1.52344912e-01 -3.70510072e-01 -4.32806574e-02 -2.03471124e-01
      -1.94933623e-01 -3.51762138e-02 -6.86382502e-02 -3.37699726e-02
      -1.91678433e-03 -1.29846204e-02 -2.72820182e-02 7.01355115e-02
      -3.19308750e-02 -5.33417426e-02 4.08752747e-02 6.26319870e-02
      3.56956013e-02 -2.56568473e-02 -9.55521390e-02 -2.52833236e-02
      -3.82730290e-02 1.02189586e-01 -1.25725001e-01 -4.69081812e-02
      2.37395056e-03 -4.76098210e-02 2.81296074e-02 7.96180144e-02</_>
    <_>
      8.42763722e-01 7.84231722e-01 -9.51062189e-04 1.14121281e-01
      2.82628238e-01 -3.30547750e-01 -1.29241765e-01 4.25825939e-02
      1.36589170e-01 -4.70685214e-02 3.18836778e-01 -1.22321874e-01
      -7.77707174e-02 -3.14835221e-01 2.42772102e-01 -8.01600963e-02
      2.35056892e-01 -1.07521631e-01 -3.77395228e-02 -6.92793876e-02
      -7.71727040e-02 4.74963663e-03 -2.22976459e-03 3.92647199e-02
      1.18780434e-01 -6.38751984e-02 -4.31887545e-02 -7.10980594e-02
      2.67863646e-03 7.71543756e-02 -1.66561842e-01 -1.20079732e-02
      -3.44701633e-02 -1.10094413e-01 4.43844311e-03 -4.57031652e-02</_>
    <_>
      -4.27493483e-01 5.92319846e-01 -4.12453227e-02 -9.10580754e-02
      2.74261776e-02 -1.53079173e-02 9.69130546e-03 1.92004740e-01
      -4.48233075e-02 -5.00158519e-02 2.13733967e-02 -2.22811073e-01
      -9.21464413e-02 -3.23184393e-02 -1.67776167e-01 -8.08182880e-02
      2.03341222e-03 -5.61420843e-02 2.96443738e-02 1.39897848e-02
      1.15601219e-01 -3.79989259e-02 -1.64346502e-03 6.85103312e-02
      -3.84821445e-02 8.08193237e-02 6.10573450e-04 -1.54514462e-01
      -2.49663554e-02 2.16290243e-02 -1.18995622e-01 2.62333192e-02
      2.58007459e-02 -1.11416578e-01 -2.50078496e-02 2.88220234e-02</_>
    <_>
      -9.57362413e-01 1.19711196e+00 -1.28609380e-02 2.63368641e-03
      2.77236439e-02 -1.33604899e-01 6.33191615e-02 -1.36154462e-02
      3.68715078e-02 -3.26413572e-01 -1.39292449e-01 -2.42404357e-01
      -1.29795343e-01 -8.87355767e-04 -9.43143815e-02 -3.39667685e-02
      5.29788472e-02 2.69992836e-02 3.16773057e-02 9.98105705e-02
      7.29561085e-03 -4.95032854e-02 9.65280011e-02 -2.92719658e-02
      5.82365543e-02 -7.94969276e-02 5.40778264e-02 -1.05263755e-01
      9.40944925e-02 2.17457950e-01 8.81455019e-02 -2.31855903e-02
      -2.09966907e-03 -5.49518913e-02 -7.82409962e-03 2.28288203e-01</_>
    <_>
      -7.36466050e-01 9.25531566e-01 -4.63384055e-02 -7.45809153e-02
      4.74080890e-02 1.61349654e-01 7.91100785e-02 9.74321812e-02
      8.35990980e-02 -5.80596887e-02 -2.32369035e-01 -4.24279943e-02
      -2.88140684e-01 -1.14803739e-01 -8.19165111e-02 -1.21206436e-02
      -1.14140563e-01 2.35955920e-02 -1.11181244e-01 2.94128098e-02
      -8.10439140e-02 -1.18457772e-01 1.82228107e-02 -7.21708685e-03
      2.71186586e-02 -1.75174158e-02 -1.44599110e-01 3.44938561e-02
      -7.47665688e-02 -2.11043563e-03 -7.64815360e-02 1.20586576e-02
      -1.15808532e-01 6.00794214e-04 1.27961356e-02 2.11941842e-02</_>
    <_>
      1.68972701e-01 -5.46403490e-02 -1.51573211e-01 -6.76952004e-02
      -1.26738930e-02 3.82554159e-02 -1.30483806e-02 7.07924366e-02
      2.21685693e-02 6.66920021e-02 -4.68737409e-02 -2.25479901e-01
      -9.58044529e-02 -3.31583843e-02 -4.27475385e-02 -7.71794543e-02
      1.00422231e-02 4.48380485e-02 -1.82967968e-04 2.62406226e-02
      -1.29421595e-02 -4.35268506e-02 5.23890033e-02 -9.44852922e-03
      4.00224440e-02 -4.69615906e-02 -5.49440384e-02 -5.55403531e-02
      2.98698340e-02 1.21557854e-01 -5.52515760e-02 -5.97610138e-03
      -3.55756916e-02 -6.72351792e-02 4.45922138e-03 3.29634212e-02</_>
    <_>
      1.99941859e-01 -5.00629172e-02 -1.41595393e-01 -7.45372027e-02
      -2.70073116e-02 5.77267371e-02 1.35189313e-02 4.13947105e-02
      -1.45532722e-02 4.32250053e-02 -1.70460436e-02 -2.18774691e-01
      -1.08033337e-01 -3.93184498e-02 -4.36076187e-02 -1.04172528e-01
      -2.31617838e-02 8.96477997e-02 -4.78532575e-02 2.42595859e-02
      3.41910822e-03 -3.49017605e-02 2.15758029e-02 2.46051373e-03
      1.70576088e-02 -2.07401272e-02 -2.54001189e-02 -3.97455916e-02
      3.81115749e-02 9.99487191e-02 -4.20272350e-02 -2.15522945e-02
      -2.04643402e-02 -3.31184268e-02 -7.50023406e-03 3.55777293e-02</_>
    <_>
      -4.34876084e-01 8.23753953e-01 5.55722974e-02 -2.84481704e-01
      1.37487799e-01 -5.64160943e-02 -7.39599317e-02 3.03597599e-01
      -8.06456506e-02 8.14070087e-03 -5.98962381e-02 -6.61071092e-02
      -1.53920591e-01 -1.36442453e-01 -1.32453948e-01 1.61584750e-01
      -6.25309497e-02 -2.46613771e-01 -2.08377670e-02 -3.45727825e-03
      -5.05434126e-02 -1.81733519e-01 8.76235515e-02 3.73619758e-02
      2.01156475e-02 -8.19153711e-02 -1.07155725e-01 -1.34966373e-02
      2.78694276e-02 7.23390281e-02 -5.74626811e-02 1.66020915e-02
      -3.02044842e-02 -3.22687924e-02 2.82840859e-02 -3.71082500e-02</_>
    <_>
      -8.61491859e-02 1.65316299e-01 -1.45354584e-01 -6.71450794e-02
      1.02916518e-02 2.86657531e-02 3.23927467e-04 4.41836305e-02
      1.18625844e-02 5.78178205e-02 -5.03256358e-02 -2.19845861e-01
      -7.78106898e-02 -5.96615225e-02 -4.69866283e-02 -7.38096759e-02
      -2.07553301e-02 4.46362467e-03 -4.05088179e-02 2.04152055e-02
      -4.37082127e-02 -4.57386561e-02 2.27193423e-02 1.89265218e-02
      3.45384143e-02 -4.45614979e-02 -5.76415025e-02 -5.55324368e-02
      7.39730522e-02 9.52814966e-02 -5.87367862e-02 -1.71386600e-02
      2.60508945e-03 -3.67179438e-02 -9.83023457e-03 6.84706643e-02</_>
    <_>
      -3.53759199e-01 6.48180604e-01 -2.10323989e-01 1.84477806e-01
      5.74648753e-02 -5.40300785e-03 2.01572310e-02 -1.18973956e-01
      1.24157071e-01 2.39539146e-02 -8.25644135e-02 -1.97144687e-01
      9.79468226e-03 -1.38639003e-01 2.38829339e-03 -1.09867632e-01
      1.06604965e-02 -1.13954321e-01 -8.00186768e-02 8.12688023e-02
      -3.10320035e-02 -9.62775350e-02 -4.59735375e-03 1.58421118e-02
      5.90305999e-02 -5.05829491e-02 -9.31150317e-02 -1.23180106e-01
      8.92082900e-02 1.32165300e-02 -3.17187198e-02 -1.27100740e-02
      -3.39490063e-02 -8.19281265e-02 8.64698514e-02 4.12665121e-02</_>
    <_>
      -1.21730743e-02 1.33922949e-01 -1.31831214e-01 -5.97479269e-02
      2.60847509e-02 3.35831232e-02 -2.33465675e-02 7.69727007e-02
      -3.51617970e-02 5.74321561e-02 3.89770139e-03 -2.25533187e-01
      -7.76808038e-02 -6.14308752e-02 -7.16713443e-02 -1.21029548e-01
      -4.83800918e-02 6.85285777e-02 3.14997807e-02 -6.57293154e-03
      -8.18431191e-03 2.08225679e-02 4.45436761e-02 -4.06901762e-02
      1.31356502e-02 3.69066931e-03 -6.11030273e-02 -7.33737573e-02
      7.32559990e-03 9.44185108e-02 -6.51814789e-02 -1.49536310e-02
      -5.42210974e-03 -6.23830743e-02 1.00166036e-03 5.91533966e-02</_>
    <_>
      2.20827669e-01 -1.27564594e-01 -1.28655821e-01 -1.00157119e-01
      -1.24535924e-02 3.28386687e-02 2.55712848e-02 8.41078013e-02
      -1.76489272e-03 -1.37151554e-02 -5.66707179e-02 -2.02509448e-01
      -1.13600783e-01 -5.32331355e-02 -5.23823872e-02 -5.68129346e-02
      1.80082619e-02 4.95923497e-02 -2.56146491e-03 2.33959630e-02
      -3.62719968e-03 -4.80954200e-02 5.48687018e-03 -1.00936564e-02
      3.49653997e-02 -3.70406546e-02 -5.77045940e-02 -8.41775984e-02
      4.66619134e-02 1.30071521e-01 -5.82325533e-02 -2.29896400e-02
      -2.51176804e-02 -3.48868035e-02 1.81844179e-02 7.43665546e-02</_>
    <_>
      -2.61918545e-01 3.97948116e-01 -6.27724975e-02 -8.27252492e-02
      -8.20524618e-02 4.14204150e-02 6.68976232e-02 1.21732116e-01
      9.36609209e-02 -6.73462152e-02 -6.92637498e-03 -2.35026345e-01
      -8.19782019e-02 -4.62321937e-02 7.44956434e-02 -9.07890275e-02
      -6.03490472e-02 9.49596688e-02 -1.18986316e-01 3.52692790e-02
      -6.68749735e-02 -7.24488199e-02 2.16143597e-02 -3.35217603e-02
      3.31000723e-02 -6.00376241e-02 -1.02585837e-01 -5.92282508e-03
      6.68810979e-02 5.37485220e-02 -6.54687509e-02 -4.36999574e-02
      -7.89102688e-02 -4.03815620e-02 -1.07651632e-02 3.94231230e-02</_>
    <_>
      -2.93819129e-01 4.13577080e-01 -8.40006247e-02 -5.98764308e-02
      -4.62270603e-02 -2.89478041e-02 2.70929318e-02 9.71113369e-02
      1.12956427e-02 -6.17921948e-02 9.15757264e-04 -2.48078287e-01
      -8.48591402e-02 4.24955320e-03 -3.50331180e-02 -4.19110619e-02
      4.66657244e-02 -3.73825915e-02 -7.12008700e-02 7.28200525e-02
      4.69405577e-02 -2.04526279e-02 9.98805016e-02 -2.45896969e-02
      5.76981753e-02 -6.22524619e-02 -5.72401732e-02 -4.87587560e-04
      7.56091923e-02 1.19485363e-01 -1.40597567e-01 -5.42243533e-02
      2.76822317e-02 1.56818908e-02 8.19418877e-02 1.01687431e-01</_>
    <_>
      -2.02093154e-01 3.57954949e-01 -1.10002257e-01 4.83981147e-03
      1.00029580e-01 -1.46931345e-02 1.72258995e-03 9.83724650e-03
      -1.40052186e-02 6.52144179e-02 4.96059470e-03 -1.47599071e-01
      -6.42048866e-02 -1.54284149e-01 -6.32920256e-03 4.00783028e-03
      -1.42611135e-02 -4.32343930e-02 -1.25564868e-02 -1.52946534e-02
      -2.69217957e-02 -3.56834978e-02 3.95173915e-02 -3.27369645e-02
      1.79302264e-02 -4.37785946e-02 -5.51749161e-03 -5.27899154e-02
      5.94227090e-02 9.26822945e-02 -7.01489160e-03 -2.07977151e-04
      -7.05819130e-02 -3.79410274e-02 -1.83372516e-02 5.24440408e-02</_>
    <_>
      -4.49400783e-01 6.62323534e-01 -4.02558595e-02 -5.65819107e-02
      -2.51266006e-02 6.46132883e-03 5.11614531e-02 1.19864807e-01
      4.44918685e-02 -6.37109876e-02 -3.72418063e-03 -1.99816421e-01
      -1.31717131e-01 -2.93491092e-02 -6.85754872e-04 -9.34253931e-02
      1.26525044e-01 -7.46702775e-02 -6.54742941e-02 -1.75333489e-02
      1.16497010e-01 -8.14004242e-02 2.07987782e-02 7.20342994e-03
      -9.91559867e-03 -6.61880821e-02 -1.00930311e-01 -1.29742876e-01
      7.27482513e-02 3.14451172e-03 -2.20064476e-01 -3.74143049e-02
      1.03271985e-02 1.20551456e-02 7.32046887e-02 7.33945742e-02</_>
    <_>
      -1.83131024e-01 6.12463355e-01 3.35955657e-02 -1.61907375e-01
      2.02427097e-02 1.26285911e-01 -1.61866114e-01 1.29571082e-02
      1.46824598e-01 -7.11677643e-03 1.80744957e-02 -2.55434543e-01
      1.01146363e-01 -1.32976457e-01 -6.84917793e-02 -8.78116786e-02
      8.73872936e-02 3.04970965e-02 -1.96186025e-02 -9.04182997e-03
      -7.24879876e-02 -7.15163276e-02 -5.32189980e-02 1.20914854e-01
      1.27934981e-02 6.99358135e-02 -3.79945040e-02 -1.69766128e-01
      -2.38829441e-02 5.17838188e-02 -1.17810011e-01 -4.38597286e-03
      1.62597168e-02 -1.00422829e-01 -5.94776645e-02 4.71135825e-02</_>
    <_>
      -6.97618127e-01 9.28162754e-01 -8.81723836e-02 1.35539593e-02
      -9.48760379e-03 -7.70393163e-02 6.59845099e-02 -7.25415349e-02
      -1.34123527e-02 -1.44659415e-01 -1.08539648e-01 -2.28313237e-01
      -1.26978651e-01 4.28272039e-03 -1.55374585e-02 -1.28620878e-01
      -1.92495547e-02 -1.45421792e-02 -1.60048783e-01 1.15127012e-01
      -5.85923158e-02 -9.62974578e-02 1.41631305e-01 3.15118693e-02
      -2.41724961e-02 5.16031422e-02 -4.31498624e-02 -1.09235562e-01
      4.22795974e-02 9.46619436e-02 -8.09749402e-03 1.03993062e-02
      -1.34717062e-01 -5.40432939e-03 6.85124472e-02 5.23489937e-02</_>
    <_>
      -8.10413480e-01 1.04307747e+00 -8.86956453e-02 6.67512722e-05
      1.36886835e-01 -3.93849313e-02 6.92464933e-02 -4.71002348e-02
      2.62390394e-02 -9.57419574e-02 -1.48712918e-01 -4.92823347e-02
      -1.41922042e-01 -2.46845275e-01 1.18402950e-01 -7.19943270e-02
      8.20042714e-02 4.14563566e-02 -3.82207055e-03 -7.25619271e-02
      -6.60391375e-02 2.72120312e-02 9.79948863e-02 6.30434137e-04
      -2.98403832e-03 -9.30822864e-02 -1.48362562e-01 -7.02932701e-02
      2.60911565e-02 1.86698139e-01 -1.24037556e-01 -6.85597491e-03
      -8.63159373e-02 -8.34640414e-02 -1.14030903e-03 2.65505910e-02</_>
    <_>
      -7.85378635e-01 1.01491332e+00 -4.51299548e-02 -2.10462417e-02
      -2.57598069e-02 3.37889642e-02 6.63097799e-02 6.59406334e-02
      9.27376822e-02 -2.06116527e-01 -1.43316209e-01 -2.09891438e-01
      -1.67319924e-01 1.41405100e-02 -6.86658770e-02 -8.39131549e-02
      -5.20779230e-02 1.57136898e-02 -4.01050672e-02 4.57067452e-02
      -5.20360433e-02 -3.47067900e-02 1.19856201e-01 -1.91317704e-02
      -2.89841066e-03 -6.79986998e-02 -9.66937840e-02 4.39790450e-02
      9.05140024e-03 9.99258757e-02 -5.80675974e-02 -1.32985627e-02
      -5.00472598e-02 -1.70528865e-03 -4.44310345e-03 5.63366376e-02</_>
    <_>
      4.67472434e-01 2.70744324e-01 -1.40283212e-01 1.09437659e-01
      -3.55220437e-01 -7.78320059e-02 2.31469125e-01 3.26609947e-02
      8.04699212e-02 1.36406317e-01 9.56231821e-03 -1.04826629e-01
      -1.59045398e-01 -1.70985013e-01 -7.36972690e-02 -1.25182820e-02
      5.89435995e-02 5.42064458e-02 9.08683017e-02 7.67179132e-02
      1.62230320e-02 3.37321758e-02 5.15805818e-02 5.06542297e-03
      -8.08343962e-02 1.57797290e-03 -1.11086242e-01 -1.11213222e-01
      4.33522724e-02 2.38537206e-03 6.74071014e-02 1.72266904e-02
      4.14218344e-02 1.15352345e-03 2.35139746e-02 1.51891768e-01</_>
    <_>
      2.25142539e-01 1.23673819e-01 -1.83099240e-01 1.58133179e-01
      -9.66364890e-02 2.83886287e-02 1.42983105e-02 5.87082841e-02
      1.59408078e-01 6.26940727e-02 -7.74284527e-02 -1.60846189e-01
      -3.96229737e-02 -1.50883317e-01 -3.35960202e-02 -2.06063148e-02
      -1.64368507e-02 -1.64139345e-02 -1.02643706e-01 1.04597241e-01
      -7.57383257e-02 -3.39607671e-02 8.17138404e-02 7.42717087e-02
      -4.36349437e-02 -2.88735088e-02 -4.79336344e-02 -1.48829654e-01
      -8.37521511e-04 1.20696714e-02 1.37938317e-02 2.20968369e-02
      6.68044090e-02 -4.66276333e-02 6.17116429e-02 1.47170937e-02</_>
    <_>
      -7.15501428e-01 9.36748743e-01 -1.50538877e-01 -1.07962005e-02
      1.86143607e-01 -7.69568309e-02 1.46595165e-01 -1.47007912e-01
      -7.54014105e-02 -3.13536115e-02 -3.50688219e-01 -4.38302718e-02
      -2.69768715e-01 -7.94766694e-02 -2.56421193e-02 3.13006677e-02
      1.70879543e-01 -3.62771191e-02 -3.56200859e-02 5.08977026e-02
      -3.04106455e-02 2.40555741e-02 1.18813165e-01 1.28851935e-01
      -6.68920502e-02 4.39349143e-03 6.61727339e-02 -1.80184230e-01
      1.89707577e-01 3.08155864e-01 4.09705825e-02 5.97232254e-03
      -5.33508621e-02 -3.16232815e-02 2.11865883e-02 8.03740472e-02</_>
    <_>
      1.03661753e-01 -1.45665864e-02 -1.46001458e-01 -8.55343193e-02
      7.60573074e-02 7.47693256e-02 -3.07341609e-02 3.48908491e-02
      -2.61935946e-02 8.88297483e-02 -3.63238230e-02 -1.83647484e-01
      -1.22279041e-01 -6.93647712e-02 -8.31759125e-02 -6.10237345e-02
      6.12315536e-03 -1.36992102e-02 3.12808529e-03 1.56328660e-02
      -2.40488704e-02 -3.83614115e-02 6.17973506e-02 -1.55966608e-02
      5.90667501e-03 -2.42256448e-02 -3.92020941e-02 -5.31501509e-02
      1.88033804e-02 1.01449102e-01 -4.40525077e-02 9.31447546e-04
      -6.40819268e-03 -5.72964735e-02 9.59659740e-03 7.73654655e-02</_>
    <_>
      -2.05145240e-01 2.90576726e-01 -9.17596593e-02 -9.58788097e-02
      -5.59560470e-02 6.97325468e-02 5.39472103e-02 1.42266214e-01
      5.41762933e-02 4.84096631e-02 1.00723039e-02 -2.30650008e-01
      -7.15174079e-02 -2.68203467e-02 1.05597667e-01 -5.45779131e-02
      1.93990823e-02 4.12360132e-02 5.69286407e-04 8.73318389e-02
      -4.78263684e-02 5.42276120e-03 3.74322608e-02 -4.32788469e-02
      4.81847189e-02 -2.10216828e-02 8.95923749e-03 -3.87015007e-02
      4.08252887e-02 1.05563812e-01 -1.08641945e-01 -9.14271642e-03
      -6.44279318e-03 -8.90849009e-02 -6.46509975e-03 7.26610497e-02</_>
    <_>
      -1.83331862e-01 3.19569409e-01 -2.67994851e-01 1.10705689e-01
      1.66296735e-01 -1.35811135e-01 1.53514761e-02 -2.18217209e-01
      -6.34612367e-02 1.34022340e-01 -2.17020288e-01 -1.30252242e-01
      -9.46722627e-02 -1.01729535e-01 -4.39838320e-02 -4.49761450e-02
      7.73619786e-02 -6.70424011e-03 -5.78330234e-02 9.68429670e-02
      -2.71394253e-02 -9.62220356e-02 1.78354736e-02 -2.72150766e-02
      4.24833521e-02 -6.79901848e-03 -2.90712547e-02 -1.10606685e-01
      -7.47978538e-02 2.72776615e-02 -6.91981837e-02 2.29628421e-02
      -3.06393150e-02 -8.16647708e-02 2.05355268e-02 1.02648571e-01</_>
    <_>
      -9.95706990e-02 1.74325004e-01 -1.37866452e-01 -8.28972980e-02
      4.97646816e-02 5.81213534e-02 -4.27988693e-02 5.91016486e-02
      1.36584900e-02 7.10624084e-02 -3.67975198e-02 -1.82343557e-01
      -1.31442726e-01 -8.59978870e-02 -7.69550577e-02 -8.94954503e-02
      -3.24698351e-02 -2.02451404e-02 4.43232618e-02 5.99564612e-02
      -2.85917819e-02 -9.11346823e-02 2.81086508e-02 1.43790739e-02
      8.81640799e-03 -5.25094010e-02 -3.54753435e-02 -4.27119881e-02
      6.91906810e-02 1.10808328e-01 -7.35945404e-02 3.12719047e-02
      2.60176859e-03 -1.23342751e-02 4.43073213e-02 7.46524185e-02</_>
    <_>
      -6.78951979e-01 8.86873782e-01 -1.02566980e-01 -1.19434297e-03
      6.97988942e-02 -1.92129854e-02 7.35901147e-02 -7.33094215e-02
      8.77603963e-02 -9.88885313e-02 -2.53423423e-01 -1.56582072e-01
      -8.26128870e-02 -9.21711102e-02 4.65634502e-02 -9.16722342e-02
      6.76667467e-02 3.79062407e-02 -1.17533142e-02 -7.75774568e-02
      -7.60709271e-02 9.06680338e-03 2.80976370e-02 -1.97227523e-02
      6.44614100e-02 -2.01082360e-02 -1.49765223e-01 -9.25716981e-02
      -5.84721118e-02 1.29853591e-01 -1.24736741e-01 -5.80657758e-02
      4.37193364e-03 -6.72187954e-02 4.01667245e-02 9.19491202e-02</_>
    <_>
      -5.75930715e-01 7.79902816e-01 -1.25149414e-01 -1.54649969e-02
      3.18865217e-02 -3.41881886e-02 7.83308893e-02 -1.50615405e-02
      2.20090877e-02 1.52261844e-02 -2.19968989e-01 -1.68188423e-01
      -1.40979856e-01 -3.24394531e-03 -7.31439739e-02 -3.70884500e-02
      1.03249913e-02 -3.73630375e-02 -9.00997743e-02 4.13905941e-02
      -7.03798980e-02 5.46319038e-02 9.61736776e-03 6.19877838e-02
      3.58742140e-02 2.89970059e-02 -3.30313928e-02 -8.61052871e-02
      3.70824970e-02 1.31284520e-01 -6.89513758e-02 -4.64168228e-02
      7.66365007e-02 3.43246721e-02 -3.53540294e-02 4.22164612e-02</_>
    <_>
      -3.62695664e-01 5.96110463e-01 -9.99760181e-02 -6.58481866e-02
      1.59826204e-02 6.89768717e-02 1.93637293e-02 -2.19633728e-02
      1.08686974e-02 -3.45921516e-03 -1.69021726e-01 -1.65442139e-01
      -1.38582483e-01 -7.08127543e-02 -7.62351975e-02 -4.68692370e-02
      -1.64820198e-02 4.18768674e-02 -5.60050607e-02 1.39698526e-02
      -1.12827113e-02 -6.02869242e-02 5.75463325e-02 -4.29021902e-02
      -1.44433249e-02 -1.14165470e-01 -7.26834610e-02 1.44903380e-02
      1.23562634e-01 8.63277465e-02 -9.79247242e-02 -8.70628166e-04
      -1.67381167e-02 1.86058804e-02 -5.25519543e-04 1.83845777e-03</_>
    <_>
      -2.75703162e-01 4.90650982e-01 -9.09437910e-02 -1.06517665e-01
      2.83583310e-02 3.21322009e-02 -1.03092697e-02 6.01230599e-02
      2.58506997e-03 2.21629147e-04 -7.77205974e-02 -1.80159211e-01
      -1.09559648e-01 -9.79959592e-02 -2.47509051e-02 -7.07949921e-02
      2.73511056e-02 8.21876526e-03 1.06389873e-01 -1.33859525e-02
      1.56278163e-02 -7.49823302e-02 -1.10100908e-02 5.28727658e-02
      6.73964322e-02 1.00859303e-04 -3.66361216e-02 -8.15045908e-02
      -8.09912980e-02 1.19746484e-01 -1.99947581e-02 -9.08249710e-03
      6.91872090e-02 -5.48615195e-02 2.54202839e-02 4.77385260e-02</_>
    <_>
      -4.79414135e-01 6.65073216e-01 -9.20663700e-02 -6.59691915e-02
      5.65073341e-02 -2.13489821e-03 6.80413842e-02 8.37442651e-02
      -4.52531278e-02 -1.38234243e-01 -2.54777849e-01 -1.48286805e-01
      -2.23585978e-01 -5.27086966e-02 -1.38817489e-01 -4.29265238e-02
      -5.80412745e-02 1.09551800e-02 2.33192625e-03 4.94940169e-02
      1.16289426e-02 -5.19290864e-02 2.42454577e-02 -1.38413755e-03
      -5.73460292e-03 -2.39796042e-02 -5.36215566e-02 -7.00831488e-02
      2.79988367e-02 7.88601860e-02 -2.14235801e-02 -1.47538269e-02
      -6.24203905e-02 -3.97724062e-02 -4.16418724e-02 2.73220483e-02</_>
    <_>
      -5.21674871e-01 7.39698589e-01 -5.40564917e-02 -2.39191726e-02
      -3.86074707e-02 -2.08681040e-02 7.55594373e-02 -1.31702181e-02
      6.93223253e-02 -2.01129898e-01 -1.01884462e-01 -2.27176741e-01
      -1.55962527e-01 -3.81610612e-03 -1.11512495e-02 -1.08099557e-01
      7.36307353e-02 3.38477790e-02 -1.41115054e-01 -1.70900170e-02
      -6.92135245e-02 -1.79314427e-02 5.92034757e-02 2.60370076e-02
      -5.56122931e-03 -2.53734086e-02 -9.12019685e-02 -4.26090173e-02
      4.77531143e-02 1.20633982e-01 -6.56197295e-02 -6.57775253e-02
      -1.28427753e-02 -3.83293182e-02 8.25173594e-03 4.22760546e-02</_>
    <_>
      -2.99640328e-01 4.53150868e-01 -1.50649294e-01 -5.57052381e-02
      1.43519804e-01 7.52405599e-02 -2.37175889e-04 5.75573780e-02
      1.94722263e-03 8.97425190e-02 -2.08404168e-01 -1.37541056e-01
      -1.36817515e-01 -5.07185869e-02 -8.39039832e-02 -7.83225242e-03
      8.85136891e-03 -5.63517623e-02 1.55461043e-01 -7.63571635e-02
      -3.33439261e-02 2.66474597e-02 1.68655999e-02 -1.31763350e-02
      3.34936613e-03 -3.68925668e-02 -5.91909401e-02 -3.35078314e-02
      1.34580091e-01 3.97263989e-02 -7.71034583e-02 4.75862585e-02
      -4.44311053e-02 -8.68195295e-02 1.95372440e-02 -7.16384361e-03</_>
    <_>
      1.75949886e-01 4.26150262e-01 -2.68399566e-01 1.78866938e-01
      3.01871449e-01 1.77313790e-01 2.52810836e-01 -4.29638661e-02
      -1.26519859e-01 2.20475011e-02 2.65638120e-02 -2.53460407e-01
      -1.08935140e-01 7.71045759e-02 1.89088210e-02 -4.08497714e-02
      -4.51386422e-02 -1.16797909e-02 -1.42315309e-02 -3.61395776e-02
      -5.99461980e-02 -1.43052787e-01 -4.05284800e-02 5.11609465e-02
      3.43199857e-02 -2.93401838e-03 4.98623762e-04 3.44896689e-02
      9.12859756e-03 1.11890391e-01 -7.56828487e-02 9.74248396e-04
      -3.83773372e-02 -1.34285972e-01 8.42600688e-02 2.85745449e-02</_>
    <_>
      -3.27871501e-01 5.16703486e-01 -1.50253177e-01 -7.11107114e-03
      1.33656245e-02 -6.25716522e-02 6.74776882e-02 -6.85828563e-04
      -1.41178919e-02 -9.86472443e-02 -2.91089952e-01 -2.30519816e-01
      -1.08363196e-01 2.10768674e-02 -1.21681780e-01 -6.95494190e-02
      -3.31311636e-02 6.24567568e-02 5.83378300e-02 -6.13518246e-02
      8.35761875e-02 2.21382249e-02 5.38765043e-02 -8.01842436e-02
      4.52895276e-02 -4.08725664e-02 -1.96839478e-02 -5.42585887e-02
      -1.28413001e-02 9.14765820e-02 -8.47404599e-02 -3.25662568e-02
      7.97537044e-02 6.06458634e-02 6.71117380e-02 7.29795173e-03</_>
    <_>
      -4.77544934e-01 6.02074087e-01 -1.95757434e-01 4.29126881e-02
      5.09694181e-02 -1.78158566e-01 4.06498760e-02 -1.38735250e-01
      -3.67840976e-02 -3.28155197e-02 -2.38264188e-01 -2.29291856e-01
      -8.47837776e-02 2.41799280e-02 -2.04072259e-02 -4.91674244e-02
      6.41374663e-02 -5.21946475e-02 7.17608491e-03 1.37892619e-01
      -6.67819455e-02 -5.18258289e-03 5.31470105e-02 2.17439048e-02
      9.38926116e-02 1.03126857e-02 -1.71063133e-02 -6.97984770e-02
      6.34258613e-02 1.58654481e-01 -8.71945471e-02 -2.51376554e-02
      -1.58182811e-02 -9.24196187e-03 4.14181054e-02 6.23173863e-02</_>
    <_>
      -8.04590583e-02 2.74794728e-01 -2.04249114e-01 4.03176062e-02
      4.98297475e-02 -2.97183450e-02 4.31529358e-02 1.77186839e-02
      4.31378782e-02 7.85182565e-02 -1.00874409e-01 -1.98241323e-01
      -8.49029049e-02 -6.62848726e-02 -1.14736762e-02 -8.75705630e-02
      2.22710520e-02 6.42145425e-02 -8.47726017e-02 5.53521514e-02
      -5.00884000e-03 -8.91731877e-04 7.84526467e-02 5.94492182e-02
      4.70526144e-02 -1.83152489e-03 -5.91343790e-02 -9.35315192e-02
      -9.22120456e-03 1.16580434e-01 -4.06743698e-02 -1.46754021e-02
      -7.94011576e-04 -7.05925077e-02 -4.24180040e-03 4.95943204e-02</_>
    <_>
      1.67995965e+00 8.71593177e-01 2.33723491e-01 -5.90554476e-01
      3.62615168e-01 -5.86199880e-01 -7.32900202e-02 5.53912818e-02
      3.14112067e-01 1.02363952e-01 -1.39531329e-01 -3.31137255e-02
      -6.15868606e-02 -2.40754187e-01 3.72797698e-02 -2.16494128e-01
      -2.35994011e-01 7.20803514e-02 -1.28971994e-01 -1.93420965e-02
      -8.58729035e-02 9.64688659e-02 2.22163454e-01 2.42297098e-01
      1.55881464e-01 -1.48964643e-01 2.07060203e-01 -1.17797084e-01
      2.45832931e-02 -1.67434644e-02 -9.49014872e-02 9.12418514e-02
      8.42262730e-02 -4.97676469e-02 -1.11449018e-01 8.97712354e-03</_>
    <_>
      -5.15400529e-01 6.81929886e-01 -1.50216386e-01 -6.21459484e-02
      1.84558272e-01 4.46100580e-03 1.06048770e-01 1.91628430e-02
      -7.53363594e-02 9.89812389e-02 -2.79836446e-01 -4.83188331e-02
      -1.60596430e-01 -1.26146898e-01 -2.83382926e-02 6.23721071e-02
      2.63209883e-02 -3.21627073e-02 -2.59450208e-02 -6.17647134e-02
      1.38506785e-01 -1.53580561e-01 -8.47487617e-03 1.62876602e-02
      -2.82754339e-02 -7.82245621e-02 -4.70691957e-02 -7.65284747e-02
      2.87945028e-02 7.07501695e-02 -5.06053865e-02 7.08900345e-03
      -4.11450155e-02 3.97742316e-02 8.96223783e-02 6.25569895e-02</_>
    <_>
      1.30081221e-01 -2.30730250e-01 1.60510674e-01 -1.11041861e-02
      -1.09017426e-02 -9.89566222e-02 -1.32821769e-01 -1.85094327e-01
      1.07850797e-01 -4.69578832e-01 3.18787515e-01 2.30910254e+00
      8.64147663e-01 1.21220553e+00 -1.85119614e-01 -3.42139542e-01
      -8.51626545e-02 1.76129878e-01 -6.07541879e-04 4.09123600e-02
      2.25522984e-02 -9.13049057e-02 4.69117165e-02 3.88809070e-02
      2.37488672e-02 -3.84620018e-02 -3.57112475e-02 -4.65231799e-02
      4.76894788e-02 9.06314105e-02 -4.89725098e-02 -5.99776162e-03
      8.47458281e-03 -7.27810562e-02 -4.16554837e-03 8.42936859e-02</_>
    <_>
      -7.40268752e-02 2.94866711e-01 -9.16490033e-02 -9.41895917e-02
      -9.92367715e-02 -6.99042380e-02 -2.22639702e-02 1.20383747e-01
      -1.06100887e-01 -1.72215942e-02 -5.41036613e-02 -2.24043339e-01
      -1.43217832e-01 1.92238763e-02 6.04701303e-02 -5.86972944e-02
      -9.39045567e-03 -2.57377774e-02 6.71463534e-02 1.05953075e-01
      1.63588524e-02 -7.49318227e-02 1.82596408e-02 -1.07840383e-02
      5.38541079e-02 -2.64953207e-02 -5.90836518e-02 -9.61176492e-03
      5.46622975e-03 1.24048069e-02 -4.05877009e-02 -5.00986213e-03
      2.74239071e-02 -4.94237654e-02 2.65470166e-02 1.53741971e-01</_>
    <_>
      -2.82128900e-01 4.22004610e-01 -1.56679258e-01 -1.71549376e-02
      8.62141699e-02 6.09319136e-02 2.58327518e-02 4.58142720e-02
      -6.36922121e-02 6.74822778e-02 -1.07918285e-01 -1.33458719e-01
      -1.87532648e-01 -7.96777084e-02 -7.93607980e-02 -9.29553360e-02
      -4.66646329e-02 -4.10029925e-02 2.85137314e-02 5.41013293e-02
      -7.22761499e-03 -2.62041148e-02 2.84364875e-02 2.67642667e-03
      -4.25885245e-02 -1.61150144e-03 -4.26391773e-02 5.52706607e-03
      1.01386368e-01 2.76542250e-02 -1.10241488e-01 3.30516919e-02
      -1.08212270e-02 -4.44847383e-02 2.25161668e-02 1.41707407e-02</_>
    <_>
      -3.53659928e-01 5.38618147e-01 -1.24512888e-01 -4.99188639e-02
      4.05629240e-02 4.30705436e-02 1.06997892e-01 -2.19732076e-02
      6.51617125e-02 -7.41970614e-02 -2.62982905e-01 -1.79556131e-01
      -2.02445865e-01 2.12559383e-02 3.50600332e-02 -1.00718282e-01
      7.47769922e-02 -9.43121314e-03 -1.20614301e-02 3.92485633e-02
      -5.59573360e-02 7.11147673e-03 1.03999279e-01 -5.75403124e-02
      -1.29003655e-02 -3.11311688e-02 5.45855016e-02 -1.10667609e-01
      8.73259604e-02 7.78865665e-02 -9.60052200e-03 2.57704463e-02
      -4.86870483e-02 -5.16954847e-02 3.50789204e-02 6.05911650e-02</_>
    <_>
      -3.09074104e-01 5.64292669e-01 -6.03793636e-02 3.73772322e-03
      -8.08002427e-03 1.17810465e-04 -1.33553043e-01 1.42510403e-02
      1.17267214e-01 -1.58775955e-01 -4.28113006e-02 -2.54314005e-01
      -8.95502046e-02 -7.79314339e-02 -1.23045035e-01 -2.03322649e-01
      1.56345125e-02 -7.04139769e-02 7.99353644e-02 -4.50283177e-02
      -1.05570316e-01 -3.97805050e-02 8.20674822e-02 1.81270409e-02
      -3.15759815e-02 -2.07136963e-02 -1.84029434e-02 -1.16644964e-01
      1.90905798e-02 1.55928761e-01 1.04677424e-01 4.87951562e-02
      -9.22197849e-02 -3.79414074e-02 7.31140152e-02 7.66059980e-02</_>
    <_>
      -2.62160003e-01 5.88488936e-01 2.40619909e-02 -1.30154163e-01
      -5.03449515e-03 1.16586290e-01 -6.06780797e-02 1.14302211e-01
      3.68526094e-02 -1.24245673e-01 5.15496433e-02 -1.97103038e-01
      -1.65262505e-01 -7.78817609e-02 -2.36890554e-01 3.42278630e-02
      1.08772136e-01 1.20477110e-01 -5.01473285e-02 1.31005034e-01
      2.43216455e-02 -9.71700698e-02 5.28537370e-02 5.55703938e-02
      1.22864388e-01 -3.75108644e-02 6.02177270e-02 -1.00304529e-01
      -4.06679586e-02 5.44479527e-02 -7.99712390e-02 7.19959214e-02
      2.28988379e-03 -7.90129155e-02 7.34104663e-02 7.90918767e-02</_>
    <_>
      1.69692621e-01 6.68106019e-01 -3.13643701e-02 7.52491429e-02
      -3.11607152e-01 -4.09366749e-02 1.75170228e-01 -4.03380916e-02
      1.26683086e-01 -1.95472285e-01 8.82464498e-02 -1.20931640e-01
      -1.05187848e-01 -2.97473282e-01 9.13889706e-02 -1.54495882e-02
      1.85072780e-01 2.58212853e-02 1.99294519e-02 1.34973153e-01
      -1.26492441e-01 -7.35744759e-02 -3.52612250e-02 8.01797807e-02
      -6.79455921e-02 2.99246460e-02 -1.50695384e-01 -1.55199528e-01
      -3.52391005e-02 3.87219489e-02 -3.46198824e-04 -5.87997474e-02
      2.14928873e-02 -7.21860602e-02 -3.90407145e-02 9.33122933e-02</_>
    <_>
      -3.92936736e-01 6.36870861e-01 -4.44985973e-03 -1.30957127e-01
      -2.08471064e-02 9.88931209e-02 8.78619254e-02 1.78639069e-01
      4.36696373e-02 -1.31633237e-01 -1.08208708e-01 -1.61587805e-01
      -1.65239021e-01 -4.06485312e-02 -4.47599031e-02 4.82641570e-02
      6.24929704e-02 -5.30326664e-02 -1.68086011e-02 1.96034163e-02
      -6.96679344e-03 -1.37653318e-03 7.43233189e-02 4.39867266e-02
      1.78249124e-02 3.48735452e-02 -4.73891161e-02 -3.43651846e-02
      -2.31176373e-02 3.39272209e-02 1.63583308e-02 4.76701930e-02
      -4.06337343e-02 -6.68850243e-02 3.36818956e-02 8.76462460e-02</_>
    <_>
      -6.38473213e-01 8.29361975e-01 -5.63782230e-02 -5.21267988e-02
      -5.58657348e-02 5.22137657e-02 6.64777681e-02 1.26041144e-01
      9.48909372e-02 -1.26340657e-01 -1.46558687e-01 -2.38705382e-01
      -1.36520296e-01 8.23778808e-02 -6.96113482e-02 -2.17860588e-03
      2.82622166e-02 1.09853121e-02 -4.51556742e-02 6.56969845e-02
      -7.91639462e-02 4.14202549e-02 1.04233973e-01 -4.87845242e-02
      6.74428195e-02 -4.47957925e-02 -5.08655794e-02 2.74889600e-02
      3.57073988e-03 8.01069289e-02 -6.91250190e-02 -2.98535377e-02
      -4.09651063e-02 -5.17220870e-02 -7.73251280e-02 3.55894677e-02</_>
    <_>
      -6.68122470e-01 8.71535718e-01 -6.81784302e-02 -6.06923066e-02
      -1.22019155e-02 9.44742486e-02 5.34201711e-02 8.13965574e-02
      6.53042421e-02 -1.31141394e-01 -2.08492473e-01 -1.72273889e-01
      -2.07335934e-01 -1.81411486e-02 -1.01522235e-02 -1.34624928e-01
      -8.54711086e-02 5.25221005e-02 -3.99697125e-02 3.45270857e-02
      4.63593053e-03 -7.62679204e-02 -2.51709949e-03 -1.79494787e-02
      9.91339236e-03 -3.26845124e-02 -3.75575088e-02 -6.80172667e-02
      4.85872217e-02 3.39167267e-02 -8.59584138e-02 -1.17766196e-02
      -2.47841924e-02 1.27491215e-02 4.98105958e-02 1.05320632e-01</_>
    <_>
      -1.12198703e-01 2.11162671e-01 -1.60470501e-01 -8.52511004e-02
      -4.56207944e-03 4.74270023e-02 3.28285173e-02 7.47510269e-02
      3.19217960e-03 9.34615806e-02 -3.70673500e-02 -2.38148510e-01
      -8.13367218e-02 -2.25948840e-02 -1.91489439e-02 -6.86199665e-02
      -3.21526825e-02 6.70861453e-02 -2.96417791e-02 5.51086329e-02
      -4.54367623e-02 -1.32633140e-02 1.98281109e-02 6.23587891e-03
      4.05460447e-02 1.04768435e-02 -3.27894390e-02 -2.74970606e-02
      5.06300293e-02 6.99533299e-02 -7.05830678e-02 -4.68352810e-03
      -1.15563571e-02 -7.67880306e-02 -1.78761091e-02 8.52601379e-02</_>
    <_>
      -8.47027972e-02 1.95351958e-01 -1.66960955e-01 -7.72006586e-02
      -6.52611675e-03 3.58386114e-02 1.77516658e-02 4.06640321e-02
      -1.48964897e-02 9.73593444e-02 -2.60004867e-02 -2.25317299e-01
      -6.82610273e-02 -7.06317946e-02 -4.43542749e-02 -7.56667778e-02
      -5.42415604e-02 3.23253423e-02 -8.05613101e-02 2.24452130e-02
      3.18048312e-03 -6.77732676e-02 4.09367727e-04 4.46056463e-02
      6.96405917e-02 -3.04229110e-02 -9.07275155e-02 -5.37216701e-02
      5.90106323e-02 6.18153214e-02 -5.07602841e-02 -4.84052859e-03
      -2.01473664e-02 -3.43239754e-02 2.75010765e-02 1.12997115e-01</_>
    <_>
      -1.27509739e-02 1.14487894e-01 -1.59916207e-01 -9.63688344e-02
      -6.53429050e-03 4.45900224e-02 1.98000716e-03 6.30145669e-02
      1.76706929e-02 1.06507361e-01 -6.38565272e-02 -2.30452731e-01
      -8.23902413e-02 -5.00990003e-02 -5.20686656e-02 -6.67090863e-02
      3.70601512e-04 4.57779765e-02 -4.47255000e-02 -1.57056702e-03
      -3.15370597e-02 -4.54379730e-02 2.23603044e-02 9.10637900e-03
      4.05464619e-02 -2.94012073e-02 -4.50005084e-02 -4.46085632e-02
      3.62441391e-02 8.05017650e-02 -8.36928487e-02 -2.36568078e-02
      2.31758389e-03 -7.93345273e-02 -9.67088807e-03 8.29022229e-02</_>
    <_>
      -2.51284353e-02 1.51402295e-01 -1.56217024e-01 -7.62610510e-02
      -3.31792720e-02 4.98366691e-02 8.05026013e-03 4.54402119e-02
      -3.58821787e-02 6.41225576e-02 -3.78510170e-03 -2.50792891e-01
      -8.51272494e-02 -4.12148125e-02 -5.17465807e-02 -1.00917675e-01
      -1.83183253e-02 7.53977001e-02 -7.55882785e-02 -4.81314445e-03
      -4.55785915e-03 -3.95248123e-02 2.77337171e-02 5.67642935e-02
      4.06678841e-02 -1.82967447e-02 -4.90673743e-02 -7.60584325e-02
      4.86754552e-02 8.15098807e-02 -6.39433563e-02 -9.79650673e-03
      -7.13275140e-03 -8.41142833e-02 -1.14464639e-02 6.76317587e-02</_>
    <_>
      -7.17444867e-02 1.74107581e-01 -1.80629969e-01 -6.36809394e-02
      -1.35629671e-02 -3.97220952e-03 -1.94087140e-02 5.97138591e-02
      9.35262709e-04 1.36905223e-01 -2.96875034e-02 -2.43489504e-01
      -5.70874698e-02 -2.92626396e-02 -1.47364587e-02 -6.87018037e-02
      3.29750739e-02 3.39069143e-02 2.85664052e-02 3.26458141e-02
      -4.04441841e-02 -3.19104344e-02 4.88599427e-02 6.02898002e-03
      1.74707714e-02 -5.45319095e-02 -6.14198856e-02 -3.08987740e-02
      4.69076782e-02 8.68525356e-02 -7.75568411e-02 1.62085416e-04
      -2.72782929e-02 -9.47185084e-02 5.03421575e-03 7.45288134e-02</_>
    <_>
      -2.89835602e-01 4.55025911e-01 -5.18466011e-02 -1.57819480e-01
      -4.08954807e-02 -6.65937876e-03 9.97918621e-02 2.18641564e-01
      -5.24269044e-02 -5.41097000e-02 -5.68796769e-02 -2.39971042e-01
      -7.66796023e-02 2.29536332e-02 7.14676604e-02 -4.36813291e-03
      -6.82045519e-02 1.71439033e-02 4.32805493e-02 5.76713271e-02
      1.29606696e-02 -3.74892280e-02 3.59012745e-02 9.01836902e-02
      -5.74069023e-02 1.07067041e-01 -1.32861631e-02 -6.74814060e-02
      2.72664893e-02 1.55343547e-01 -1.87490173e-02 -2.24089418e-02
      3.77180353e-02 -9.42561999e-02 -1.72662027e-02 7.92625993e-02</_>
    <_>
      4.03437495e-01 8.88047278e-01 -6.58489168e-01 1.13864326e+00
      5.79935730e-01 -4.88424823e-02 -1.16921254e-01 -6.15027547e-02
      -6.97011203e-02 -1.08472049e-01 -1.84983969e-01 -1.41263068e-01
      -8.98482352e-02 -4.40220311e-02 -2.33454313e-02 1.37831017e-01
      3.80401880e-01 -1.31519914e-01 -1.13714263e-01 -7.68360868e-02
      -1.46648839e-01 -1.44957736e-01 -1.26426086e-01 -9.44991037e-02
      -3.55485827e-02 1.28553346e-01 -1.92481667e-01 6.15830384e-02
      2.72800066e-02 2.10502118e-01 -7.14693442e-02 -1.11614831e-01
      -2.72629876e-02 -1.78644106e-01 1.16381973e-01 -2.07999535e-02</_>
    <_>
      -6.72160387e-02 2.31551677e-01 -1.17914163e-01 -9.15849954e-02
      1.23494687e-02 1.70753337e-02 7.29441317e-03 1.29679158e-01
      -2.83017801e-03 4.41216119e-02 5.43862348e-03 -2.45081902e-01
      -4.76572961e-02 -3.71809006e-02 -4.67242263e-02 -5.13536111e-02
      -1.75253861e-02 2.26551052e-02 1.95682701e-02 3.10545228e-02
      4.64128703e-03 -2.31551901e-02 -1.28464829e-02 1.33317374e-02
      7.05204532e-02 -1.87248606e-02 -5.77040240e-02 -4.49108593e-02
      5.40957265e-02 1.09808534e-01 -5.73006272e-02 -2.81049088e-02
      2.43737493e-02 -2.01984141e-02 -2.07793172e-02 5.51813282e-02</_>
    <_>
      -1.95914768e-02 1.53716594e-01 -1.52068108e-01 -1.14182666e-01
      7.03096529e-03 1.18548132e-01 3.23648490e-02 7.34534413e-02
      2.29944456e-02 1.40098527e-01 -2.64191367e-02 -2.10482925e-01
      -6.81174248e-02 -3.66053097e-02 -4.17409494e-04 -8.39146152e-02
      -2.07216479e-02 6.23538345e-03 -9.37497839e-02 -2.03748494e-02
      -1.82777401e-02 -2.68295612e-02 8.19814429e-02 -3.85230370e-02
      2.09036153e-02 -3.85796241e-02 -5.17894439e-02 -7.56888762e-02
      4.35700500e-03 1.00394644e-01 -2.85367835e-02 1.10179847e-02
      -5.02849892e-02 -7.50972554e-02 -2.79557705e-02 7.81173930e-02</_>
    <_>
      -5.11838555e-01 7.59633362e-01 -1.96814463e-01 8.98840576e-02
      4.49899770e-02 -1.89920172e-01 2.36941949e-01 -2.08055437e-01
      1.31348938e-01 -2.34943442e-02 -4.27827537e-01 -1.54422417e-01
      -1.71007626e-02 -5.12347110e-02 1.49043769e-01 -6.15981631e-02
      4.56214286e-02 1.64749816e-01 5.83799696e-03 -1.27111748e-01
      -1.55371919e-01 7.83922449e-02 -9.61470753e-02 -4.06242535e-02
      1.04677558e-01 1.86843555e-02 -3.89071032e-02 -7.76490271e-02
      -9.73311737e-02 1.30559236e-01 1.06680682e-02 -2.61480678e-02
      -9.05775465e-03 -4.66995500e-02 -4.94259549e-03 3.87897789e-02</_>
    <_>
      -1.11848496e-01 4.33258265e-01 -2.63343528e-02 -1.32626876e-01
      4.80305701e-02 -7.12426901e-02 -4.00401726e-02 6.34928644e-02
      2.46704165e-02 3.06488592e-02 6.33104518e-02 -1.94754988e-01
      -8.09816271e-02 -1.27243608e-01 -3.63300256e-02 -5.87284230e-02
      1.42138042e-02 -6.08121268e-02 -9.80500504e-02 3.76432315e-02
      -3.05910129e-02 -1.41317517e-01 -1.10785221e-03 2.57299524e-02
      -3.57785635e-02 -4.37777750e-02 -4.74087857e-02 -7.22204223e-02
      1.19587317e-01 -2.42421869e-02 -6.97131231e-02 1.86149962e-02
      -1.94284227e-02 -4.10882533e-02 3.05188075e-02 9.61543247e-02</_>
    <_>
      -1.57652795e-02 5.84275842e-01 1.00026429e-01 -2.02869341e-01
      -1.04679257e-01 1.50640756e-01 -1.37308210e-01 6.55395538e-02
      4.00662012e-02 -1.64704427e-01 1.24947868e-01 -2.69586027e-01
      -1.55594256e-02 -9.61193591e-02 -1.97339028e-01 -1.63617991e-02
      9.30258036e-02 9.79387835e-02 -1.46437019e-01 2.70271190e-02
      -9.80369076e-02 -5.11189662e-02 2.84451041e-02 4.19716761e-02
      3.67799588e-02 -1.61929186e-02 -2.66543832e-02 -1.22634120e-01
      4.50652689e-02 7.10172206e-02 -5.70145920e-02 2.23004892e-02
      2.77967621e-02 -9.74847972e-02 -3.12490370e-02 9.86674353e-02</_>
    <_>
      6.17383569e-02 2.96455860e-01 -7.71611631e-02 -2.96241734e-02
      6.50109127e-02 -9.09152552e-02 2.54904665e-02 6.15529828e-02
      6.30619898e-02 7.24924579e-02 2.99924687e-02 -1.68383911e-01
      -2.17349152e-03 -1.37346759e-01 3.15708145e-02 -2.10713912e-02
      9.66619886e-03 3.74084990e-03 -2.86176130e-02 -2.08415575e-02
      -5.42954020e-02 -3.74523848e-02 6.86496645e-02 -3.06025129e-02
      -2.60682590e-02 -7.55910436e-03 3.35528329e-02 -4.49590050e-02
      2.80990899e-02 5.28956205e-02 1.48874091e-03 2.87661180e-02
      1.20602557e-02 -6.89218119e-02 2.48036198e-02 7.43095428e-02</_>
    <_>
      -1.94008425e-01 4.04249460e-01 -1.59323916e-01 2.54641045e-02
      1.33036286e-01 2.39045098e-02 1.71687978e-03 -1.18176088e-01
      2.30115373e-03 1.11109473e-01 -1.15968306e-02 -1.68017358e-01
      -3.04901004e-02 -1.45935193e-01 4.85945083e-02 -9.69147757e-02
      9.01345536e-02 2.80813836e-02 -2.24355189e-03 1.41254896e-02
      -1.16644409e-02 -6.93950951e-02 -1.70287415e-02 1.05432216e-02
      -1.31444139e-02 -4.82426956e-02 -4.77391332e-02 -7.76444450e-02
      -5.74666401e-03 3.93836349e-02 -9.16827023e-02 -9.68870893e-03
      -5.75030074e-02 -4.28117029e-02 -5.48727401e-02 1.47409812e-02</_>
    <_>
      -3.42638910e-01 4.42895502e-01 -1.02136672e-01 -2.39146277e-02
      2.72810590e-02 8.85900632e-02 -3.80924828e-02 -3.96202579e-02
      1.58924144e-02 4.41284990e-03 -5.33301607e-02 -1.93067163e-01
      -7.10571632e-02 -9.45490599e-02 -1.26410862e-02 -1.45130843e-01
      2.37704720e-03 9.71371531e-02 2.68492829e-02 -6.50359839e-02
      -2.96195596e-02 2.53895484e-02 3.85568216e-02 -1.18743069e-01
      -1.75837539e-02 -8.79135057e-02 -2.52673533e-02 -4.13600802e-02
      1.62868127e-02 3.02335452e-02 -1.76636074e-02 -4.30318201e-03
      -6.46940544e-02 -8.91193673e-02 -2.43914090e-02 4.75122631e-02</_>
    <_>
      -3.20247829e-01 5.02603590e-01 -2.36799687e-01 8.79630148e-02
      8.11654925e-02 -2.16586247e-01 1.25810012e-01 -1.96686655e-01
      -7.02893808e-02 9.87459570e-02 -2.22378701e-01 -1.90759882e-01
      -2.78428532e-02 -2.51374431e-02 -7.69330049e-03 9.96197853e-03
      9.72949117e-02 -2.42343377e-02 -1.34147018e-01 1.60783138e-02
      -9.07354814e-04 -4.05074358e-02 4.63150516e-02 -1.16085149e-02
      4.31706831e-02 -3.26489955e-02 -4.06192504e-02 -7.77768716e-02
      7.28254989e-02 9.61766243e-02 -8.67407843e-02 -2.30215564e-02
      3.53419175e-03 -3.10517084e-02 -8.60995147e-03 6.01503737e-02</_>
    <_>
      -3.26783568e-01 4.88241136e-01 -9.88556296e-02 -4.53539081e-02
      8.49631950e-02 8.44552889e-02 1.88215077e-01 6.77839741e-02
      -8.00092816e-02 1.77940242e-02 -4.53891745e-03 -1.04815729e-01
      -1.48070529e-01 -1.43806994e-01 -3.70293520e-02 6.36585802e-02
      -4.61996011e-02 1.52581856e-01 -1.42619982e-01 5.36379777e-03
      -5.75497076e-02 1.08852230e-01 8.32480788e-02 -6.62148232e-03
      7.67587647e-02 2.51397006e-02 -9.39796716e-02 5.11393650e-03
      1.02474522e-02 3.54891568e-02 -7.45598972e-03 1.70544907e-02
      -1.01698138e-01 -1.32080242e-01 -2.20116135e-02 1.06470250e-02</_>
    <_>
      -2.03786910e-01 3.66589010e-01 -8.28244016e-02 -1.30723476e-01
      8.17796737e-02 -1.10568935e-02 3.84485386e-02 1.57381877e-01
      -5.41249197e-03 8.15376639e-02 -7.08862692e-02 -1.54707745e-01
      -8.87318254e-02 -5.46983294e-02 1.94509942e-02 2.67766211e-02
      9.52631421e-03 -3.76253426e-02 7.02855140e-02 1.12464353e-02
      6.48087263e-02 -1.46779895e-01 1.00902922e-01 -1.79471429e-02
      -4.24412489e-02 -1.31544039e-01 -4.66315672e-02 2.48874426e-02
      2.85106781e-03 9.13927779e-02 -2.55066920e-02 2.48857122e-02
      -3.19132879e-02 -3.37509327e-02 2.48186458e-02 8.43536481e-02</_>
    <_>
      -7.08492577e-01 8.76867235e-01 -8.41724947e-02 3.19658965e-02
      -2.79439036e-02 -1.29216015e-01 8.40276703e-02 -1.05360575e-01
      3.76637802e-02 -1.47861630e-01 -7.79150799e-02 -2.51666695e-01
      -4.86272313e-02 -3.64987589e-02 8.31867382e-02 -1.41904190e-01
      8.71539414e-02 1.12440169e-01 -7.46785030e-02 5.97180761e-02
      -9.59459394e-02 2.46416312e-02 2.14999374e-02 5.67756407e-02
      -3.18970531e-02 2.56615188e-02 -7.38907084e-02 -3.37007418e-02
      1.33244589e-01 2.04884842e-01 -8.39738101e-02 -1.14900462e-01
      -2.43814606e-02 -6.35215566e-02 -7.84284901e-03 -2.47888025e-02</_>
    <_>
      -6.80404067e-01 8.64963830e-01 -1.33442208e-01 6.43684193e-02
      2.66508292e-02 -6.30417466e-02 2.44969148e-02 -1.46497577e-01
      -2.19844319e-02 -1.28295779e-01 -1.27475128e-01 -2.37746373e-01
      -1.56806111e-01 8.85088928e-03 -1.45891935e-01 -1.22401580e-01
      1.22573793e-01 1.70698136e-01 -2.36008856e-02 5.05681932e-02
      2.44033560e-02 -5.21941148e-02 1.80030372e-02 4.32324149e-02
      -3.32139130e-03 -1.01894535e-01 1.20025706e-02 -8.44969004e-02
      5.82725108e-02 2.47244269e-01 -7.67605891e-03 -7.41016567e-02
      2.19556205e-02 -1.21805053e-02 -5.42086549e-02 2.26094797e-02</_>
    <_>
      2.31600150e-01 1.09169908e-01 -2.21130833e-01 9.25091505e-02
      2.56224312e-02 5.26863411e-02 -5.88255585e-04 8.66266787e-02
      8.95068701e-03 6.77109286e-02 -4.34765592e-02 -1.97530016e-01
      -8.64055827e-02 -5.21742366e-02 -6.48974553e-02 -5.67151513e-03
      9.64859873e-03 3.33150178e-02 1.72614660e-02 5.31785600e-02
      -8.90903026e-02 -6.54281899e-02 2.19443757e-02 -6.23076931e-02
      -6.49823481e-03 -1.27464626e-02 -1.00140899e-01 -1.38636023e-01
      8.83419439e-03 7.11281896e-02 -6.94976002e-02 -5.22977896e-02
      2.60872254e-03 -8.54854658e-02 6.45612553e-02 2.21104715e-02</_>
    <_>
      -2.65297771e-01 3.60904396e-01 -1.07324608e-01 1.42724086e-02
      1.74510069e-02 6.39391085e-03 -3.01798116e-02 2.37552333e-03
      -4.04392481e-02 -5.27854115e-02 -9.68591310e-03 -2.37840995e-01
      -9.85952169e-02 -2.18762383e-02 -1.67516425e-01 -7.99364746e-02
      -1.21993013e-02 8.79702121e-02 -4.71840315e-02 -4.56833057e-02
      -3.69542949e-02 -1.72168147e-02 6.75692782e-02 2.77768243e-02
      3.03816441e-02 -1.67929530e-02 -4.24044058e-02 7.78559037e-03
      -5.24167530e-02 4.70965430e-02 5.76307587e-02 1.41658168e-02
      -4.56599072e-02 -6.78116921e-03 -1.53262522e-02 2.67100185e-02</_>
    <_>
      -5.22844568e-02 1.41966000e-01 -1.71397001e-01 -1.60027202e-02
      1.73897371e-02 -3.79561596e-02 2.47986522e-02 -1.72114652e-02
      -7.21733943e-02 8.90270546e-02 -5.14612161e-02 -2.14745596e-01
      -8.03580359e-02 -3.54118682e-02 6.78133732e-03 -6.24187030e-02
      1.80895925e-02 1.05393112e-01 -4.88912351e-02 6.01873593e-03
      2.25847270e-02 -2.32205819e-02 2.10698098e-02 -2.69002616e-02
      2.56700185e-03 -5.13666347e-02 -1.40493056e-02 -2.49161795e-02
      6.56146705e-02 6.59473315e-02 -6.68059289e-02 -6.22618385e-03
      -4.23733406e-02 -7.17027038e-02 -1.33802546e-02 3.66076753e-02</_>
    <_>
      1.91312596e-01 -5.31269535e-02 -1.48134634e-01 -5.44000864e-02
      1.48706539e-02 4.17762110e-03 1.23408027e-02 4.77764234e-02
      -2.17247773e-02 4.19608839e-02 -5.27674481e-02 -2.00992629e-01
      -7.19507784e-02 -7.36620575e-02 -2.54584998e-02 -5.81543222e-02
      4.69552819e-03 4.15121168e-02 -1.39215551e-02 2.11308375e-02
      -1.99054014e-02 -1.72607247e-02 3.56415100e-02 5.83854504e-03
      3.28853242e-02 -1.20685417e-02 -5.86946793e-02 -8.15413520e-02
      2.69993450e-02 1.14162177e-01 -6.44628257e-02 -1.89110115e-02
      -1.66094806e-02 -7.73644820e-02 1.81202367e-02 7.48045817e-02</_>
    <_>
      1.39844432e-01 3.51884253e-02 -1.28423706e-01 -6.25353605e-02
      -1.12247318e-02 2.25041118e-02 7.66881229e-03 4.42400724e-02
      1.01104910e-02 1.97570268e-02 -5.01047373e-02 -2.24413961e-01
      -8.03544745e-02 -6.51528984e-02 -1.60967372e-02 -6.50686547e-02
      1.93664767e-02 5.39356731e-02 -2.84977965e-02 2.74904016e-02
      -5.80773735e-03 -5.84120676e-02 -1.60988508e-04 -4.62478539e-03
      4.97413054e-02 -2.66674310e-02 -4.40402888e-02 -5.09838685e-02
      2.82132290e-02 8.57176855e-02 -7.77021572e-02 -3.60155925e-02
      7.93876778e-03 -4.70772721e-02 9.58790164e-03 6.22403845e-02</_>
    <_>
      -1.32791087e-01 4.37552184e-01 -4.99067008e-02 -7.16762245e-02
      4.59658094e-02 -1.37378529e-01 -1.32981436e-02 2.76834238e-02
      1.45953773e-02 -6.61069602e-02 -8.28282908e-02 -2.45631397e-01
      -4.99797501e-02 -3.64276022e-02 -1.22075796e-01 -3.06646116e-02
      8.02115351e-03 5.88467084e-02 6.87376829e-03 5.14859185e-02
      -3.97338681e-02 -8.48127827e-02 3.19803171e-02 1.94298085e-02
      4.99689430e-02 -3.64984237e-02 -4.24576476e-02 1.13409637e-02
      5.09514026e-02 2.53039431e-02 -6.48153052e-02 6.37242123e-02
      6.14930056e-02 -1.48703381e-01 2.70667542e-02 1.44353196e-01</_>
    <_>
      -5.48181459e-02 2.50869930e-01 -1.81524709e-01 8.74448195e-02
      4.45100386e-03 -7.15794936e-02 -3.26374695e-02 -1.61344945e-01
      -7.79599473e-02 8.90973862e-03 -9.62994155e-03 -1.90817535e-01
      -1.26010656e-01 -1.16487622e-01 -2.19775978e-02 -1.40305683e-01
      5.28850630e-02 1.41736463e-01 -3.81583232e-05 1.06751807e-01
      -2.82051004e-02 -1.15232311e-01 -1.81693360e-02 3.57782282e-02
      3.10953930e-02 -8.92589800e-03 -3.69786434e-02 9.57953930e-03
      -1.77227352e-02 4.03421596e-02 -4.45689522e-02 -1.34826349e-02
      3.48088033e-02 -5.65684848e-02 2.32234001e-02 7.31514469e-02</_>
    <_>
      2.01043200e+00 1.18013048e+00 -2.30173737e-01 3.30942273e-01
      -2.21154485e-02 1.33632213e-01 -5.67305803e-01 1.99393988e-01
      -6.00261055e-02 -9.74821001e-02 -3.34854364e-01 -2.21024618e-01
      2.54514590e-02 -7.04790950e-02 8.59644860e-02 -5.27801067e-02
      4.06740159e-02 1.21008426e-01 -8.48523527e-02 5.88107295e-02
      8.49408954e-02 6.62924573e-02 7.48211592e-02 1.85976952e-01
      2.08763462e-02 2.53064316e-02 -3.97334024e-02 -7.23331347e-02
      9.26893130e-02 3.22723091e-02 -9.68672335e-02 8.21035579e-02
      -1.16760038e-01 2.88512595e-02 -8.53752270e-02 1.02680542e-01</_>
    <_>
      2.65432477e-01 2.09763497e-01 -1.94774230e-03 -4.68436331e-02
      -1.61817014e-01 -4.93344180e-02 1.28925577e-01 7.73641095e-02
      -5.77577949e-02 7.24339159e-03 2.39686538e-02 -1.27290532e-01
      -1.81149989e-01 -3.43481340e-02 3.31259444e-02 -1.19099699e-01
      3.72540653e-02 3.51215303e-02 -3.27217132e-02 -3.47216171e-03
      -5.02169244e-02 -4.25171852e-02 -9.87780187e-03 -5.35822436e-02
      1.43557750e-02 -2.46977340e-02 -1.50489613e-01 -6.80669248e-02
      3.58303101e-03 8.63815099e-02 2.41393410e-02 7.34512582e-02
      -2.52252421e-03 -9.89605859e-03 -2.16241777e-02 1.45058811e-01</_>
    <_>
      -1.04730077e-01 2.16148540e-01 -1.71693087e-01 -3.37925437e-03
      8.16860050e-02 -1.59711223e-02 -3.28279547e-02 -4.36966009e-02
      -6.44761175e-02 5.40387407e-02 -8.71521533e-02 -1.93244293e-01
      -7.38695562e-02 -8.13650489e-02 -1.24060951e-01 -4.53494899e-02
      -2.73477063e-02 3.24802808e-02 -1.94905640e-03 -2.42415275e-02
      -8.25401954e-03 -1.12777753e-02 2.34978925e-02 -8.43096001e-04
      5.46326637e-02 -4.79497127e-02 -5.12782373e-02 -1.48326242e-02
      2.80885883e-02 3.86853255e-02 -2.29953304e-02 3.32024763e-03
      -2.85581481e-02 -6.24093562e-02 -1.11798113e-02 3.92242000e-02</_>
    <_>
      3.71054709e-01 5.34058988e-01 8.13268349e-02 -2.51385003e-01
      2.60291904e-01 1.80011671e-02 -1.47821322e-01 5.43217640e-03
      -2.06728831e-01 -1.83705419e-01 -1.17314294e-01 -7.88748264e-02
      -2.63571054e-01 -1.65570989e-01 -8.74305516e-02 2.25356910e-02
      -5.40646538e-02 1.65741891e-01 -1.45457402e-01 -1.20219514e-01
      -3.10959995e-01 -1.86409354e-02 1.45870838e-02 -8.26636180e-02
      3.88301983e-02 1.59392655e-02 3.90287377e-02 -2.22664803e-01
      4.14303243e-02 -8.68891999e-02 -1.13725811e-01 -2.33042124e-03
      4.85275649e-02 -5.40589429e-02 5.14022410e-02 3.57136354e-02</_>
    <_>
      -1.92095637e-01 3.55758548e-01 -1.03273802e-01 -4.71742488e-02
      5.22593549e-03 5.12413401e-03 4.65762382e-03 8.34213421e-02
      5.81259727e-02 6.48157224e-02 -1.81004368e-02 -2.22521111e-01
      -8.10689181e-02 -6.26772782e-03 -1.68675985e-02 -3.82308662e-02
      9.04022381e-02 6.63060695e-03 -9.86222550e-03 1.96472518e-02
      -4.99754027e-02 -1.27082886e-02 -2.40985379e-02 2.53628790e-02
      9.17054862e-02 -1.62682254e-02 -4.19890285e-02 -1.20538967e-02
      3.07896808e-02 4.41937856e-02 -9.82458368e-02 8.05640034e-03
      -4.31686938e-02 -7.08904341e-02 -1.11649446e-02 7.39116296e-02</_>
    <_>
      -1.21475689e-01 3.15834939e-01 -6.01717122e-02 -2.42670588e-02
      4.11531851e-02 -4.25388515e-02 -9.40072089e-02 -3.50770168e-02
      -2.84108557e-02 -3.15872021e-02 4.46463525e-02 -1.92136705e-01
      -1.23319253e-01 -1.17430203e-01 -1.28865808e-01 -1.51114091e-01
      6.52702004e-02 7.11767077e-02 -1.25072589e-02 6.87141716e-02
      -4.56019938e-02 -1.21581897e-01 5.66127039e-02 2.83684079e-02
      -4.13386226e-02 -3.20188180e-02 -9.36693028e-02 2.30558013e-04
      5.37911523e-03 8.73838440e-02 -8.42688009e-02 -1.19405743e-02
      2.10414622e-02 -9.47963148e-02 1.95000432e-02 5.81645146e-02</_>
    <_>
      6.30314708e-01 5.47955394e-01 -2.38934606e-01 2.81636715e-01
      -8.14462483e-01 -1.36933371e-01 3.03581297e-01 1.11443609e-01
      2.62886226e-01 2.46382818e-01 -7.30528682e-02 -6.37326986e-02
      -1.54037610e-01 -1.87380001e-01 -1.33012548e-01 2.71815546e-02
      1.01541027e-01 9.26996619e-02 1.97894111e-01 2.78594494e-01
      -4.24320176e-02 1.43698212e-02 7.18508735e-02 -2.42822487e-02
      -1.12197004e-01 -5.66409081e-02 -1.78697184e-01 -1.47010446e-01
      7.59927258e-02 -3.97324115e-02 1.90814547e-02 -5.29844128e-02
      1.39040733e-02 -5.26394369e-03 3.95327173e-02 6.07533194e-02</_>
    <_>
      -3.00618678e-01 4.44145232e-01 -1.16516754e-01 -3.78079303e-02
      -2.84490958e-02 3.81430946e-02 1.65488590e-02 1.64119527e-02
      6.04688786e-02 -8.54477435e-02 -1.42765492e-01 -2.50736386e-01
      -9.74975750e-02 -3.17404084e-02 -7.29658753e-02 -1.38827100e-01
      -8.88885409e-02 1.55514374e-01 -2.29169894e-03 -1.16452137e-02
      -3.95885333e-02 -4.27340567e-02 -1.49880936e-02 -4.14439663e-02
      9.01447386e-02 -4.83230203e-02 -6.88671917e-02 -2.50441618e-02
      2.59440430e-02 6.29781783e-02 -1.96273774e-02 -1.87462848e-02
      -1.51237138e-02 -5.71037419e-02 5.01436442e-02 7.38296285e-02</_>
    <_>
      -2.19617754e-01 3.61960024e-01 -1.26330540e-01 -2.80372743e-02
      -1.86857060e-02 -3.54786329e-02 8.47520493e-03 7.82178249e-03
      -5.62633760e-03 1.19352639e-02 -3.77153456e-02 -2.47349635e-01
      -5.41439392e-02 -4.47086953e-02 -1.21568441e-01 -1.22913882e-01
      -3.10145952e-02 -2.00033444e-03 -7.73846954e-02 5.93454111e-03
      -2.36792546e-02 -8.83144327e-03 -1.02146226e-03 -7.96559150e-04
      4.42606546e-02 -3.27185914e-02 -8.04667771e-02 -6.46891743e-02
      1.00143798e-01 3.76877859e-02 -7.60455355e-02 -4.17481456e-03
      -4.00263704e-02 -6.13013692e-02 -1.60224736e-02 2.96876933e-02</_>
    <_>
      -1.27792671e-01 3.19292575e-01 -5.86645342e-02 -1.14908211e-01
      6.89466344e-03 7.15094358e-02 -1.03191845e-03 8.66376981e-02
      5.14490828e-02 3.68360840e-02 -7.94653669e-02 -1.47395223e-01
      -6.20624386e-02 -7.34116435e-02 4.30876389e-02 -8.31398815e-02
      -2.64794957e-02 1.62974000e-02 -3.86938103e-03 -5.71096689e-02
      -5.61310016e-02 -4.42663357e-02 6.31142631e-02 -1.65351816e-02
      3.79914977e-02 -1.70977730e-02 -1.27208307e-01 -3.80407125e-02
      -2.65262276e-02 7.46954158e-02 -3.23365889e-02 -4.32580188e-02
      5.29871369e-03 -2.92697474e-02 -4.44558412e-02 8.66158903e-02</_>
    <_>
      -1.85425624e-01 4.10205930e-01 -5.53737544e-02 -9.68974158e-02
      -2.07918044e-02 -2.48548295e-02 -1.02716014e-02 1.15647294e-01
      -2.57998947e-02 -2.51863953e-02 -3.03382669e-02 -2.43132904e-01
      -1.66437924e-02 -5.76618910e-02 -2.09256671e-02 -6.17412366e-02
      -8.33383948e-03 7.49108717e-02 4.01847437e-03 -1.10005029e-02
      1.43784396e-02 -1.21143498e-02 1.19293164e-02 2.82330671e-03
      4.27220948e-02 -2.19657645e-02 -3.83293182e-02 -6.46213368e-02
      4.14531454e-02 4.52979431e-02 -1.99068487e-02 -3.92889464e-03
      3.05842236e-02 -7.94971809e-02 4.91364338e-02 6.40403256e-02</_>
    <_>
      1.89611927e-01 -4.38304916e-02 -1.52347669e-01 -4.88676913e-02
      2.04657931e-02 8.94487277e-03 1.81733184e-02 4.04875502e-02
      -2.08604001e-02 2.95201428e-02 -6.76750094e-02 -1.93220943e-01
      -8.78306478e-02 -8.24729502e-02 -3.33652385e-02 -5.71411215e-02
      -7.84792285e-03 4.48881239e-02 -1.82981603e-02 3.34344469e-02
      -1.40042258e-02 -1.58965345e-02 5.05714118e-02 2.77099181e-02
      4.98532392e-02 -1.52967665e-02 -5.82723096e-02 -6.17146268e-02
      9.46398824e-03 1.15246795e-01 -5.35577685e-02 -1.16151953e-02
      -2.08621696e-02 -6.30776137e-02 6.75224699e-03 7.91333020e-02</_>
    <_>
      1.68252873e+00 9.06044662e-01 1.98647842e-01 -6.97883070e-01
      1.90739870e-01 -3.08656424e-01 2.79850271e-02 -7.14912191e-02
      9.29173008e-02 5.39194755e-02 -1.32538199e-01 -2.35332489e-01
      -2.88516115e-02 -1.02561399e-01 -1.80216029e-01 -6.14817664e-02
      4.91765738e-02 7.97090977e-02 -8.78735185e-02 -1.36735842e-01
      -5.15464731e-02 -1.04994938e-01 3.58950347e-03 -5.65261394e-03
      -1.05325744e-01 9.68946144e-02 5.41815236e-02 1.45534068e-01
      -2.78219748e-02 1.33407623e-01 -8.55867267e-02 3.76098566e-02
      -9.97379795e-02 -1.73005927e-02 -1.12956576e-02 1.12494722e-01</_>
    <_>
      -5.70286363e-02 2.25429252e-01 -1.02715015e-01 -1.17616318e-01
      1.36752911e-02 1.57773182e-01 -1.25368014e-02 6.43022507e-02
      9.83453915e-02 7.55279064e-02 -1.49118870e-01 -1.93002209e-01
      -1.37105659e-01 -1.43099157e-02 -1.27518913e-02 -8.54673684e-02
      3.07951923e-02 3.60503197e-02 6.83278069e-02 -5.05073881e-03
      -4.12162356e-02 -1.91333964e-02 -3.73663343e-02 4.34682257e-02
      4.78794007e-03 7.47839408e-03 3.00228111e-02 -6.49498627e-02
      2.64110286e-02 9.71974581e-02 -3.36568952e-02 8.60722177e-03
      8.73965025e-03 -8.24707747e-02 -3.03825028e-02 4.64140326e-02</_>
    <_>
      1.49434820e-01 4.63543646e-02 -1.17319450e-01 -7.84836784e-02
      -1.62343439e-02 3.36760432e-02 1.64999552e-02 3.78207080e-02
      7.18723284e-03 3.09367552e-02 -3.98059636e-02 -2.14420989e-01
      -7.38741383e-02 -6.80683926e-02 -1.07259266e-02 -4.86223921e-02
      1.70261394e-02 3.22028808e-02 -3.43210213e-02 2.71904059e-02
      -1.27827423e-02 -6.89629093e-02 1.64743159e-02 -4.71778540e-03
      4.86877188e-02 -3.99070531e-02 -3.99145335e-02 -5.16986810e-02
      5.20209149e-02 1.05137043e-01 -6.01667538e-02 -2.71022879e-02
      -1.82682294e-02 -5.18660322e-02 5.22567816e-02 6.57212511e-02</_>
    <_>
      -1.32791087e-01 4.37552184e-01 -4.99067008e-02 -7.16762245e-02
      4.59658094e-02 -1.37378529e-01 -1.32981436e-02 2.76834238e-02
      1.45953773e-02 -6.61069602e-02 -8.28282908e-02 -2.45631397e-01
      -4.99797501e-02 -3.64276022e-02 -1.22075796e-01 -3.06646116e-02
      8.02115351e-03 5.88467084e-02 6.87376829e-03 5.14859185e-02
      -3.97338681e-02 -8.48127827e-02 3.19803171e-02 1.94298085e-02
      4.99689430e-02 -3.64984237e-02 -4.24576476e-02 1.13409637e-02
      5.09514026e-02 2.53039431e-02 -6.48153052e-02 6.37242123e-02
      6.14930056e-02 -1.48703381e-01 2.70667542e-02 1.44353196e-01</_>
    <_>
      1.37111887e-01 1.23019263e-01 -1.09018877e-01 -6.23092987e-02
      3.10252905e-02 6.53119758e-03 -4.11799476e-02 6.25929981e-02
      -7.24355318e-03 6.42226115e-02 -1.93179678e-02 -2.04371735e-01
      -7.45319724e-02 -8.21438357e-02 -1.04081593e-02 -7.32738599e-02
      5.81922345e-02 1.26736704e-03 3.06451600e-02 6.04737457e-03
      -5.94443046e-02 -4.94425371e-03 4.00430970e-02 3.77510898e-02
      2.17903126e-02 -1.10876113e-02 -7.12653026e-02 -9.00050683e-04
      5.22742048e-02 6.66252747e-02 -2.66464818e-02 3.40131484e-02
      2.31810492e-02 -1.04689181e-01 -8.16358346e-03 1.03711680e-01</_>
    <_>
      2.65432477e-01 2.09763497e-01 -1.94774230e-03 -4.68436331e-02
      -1.61817014e-01 -4.93344180e-02 1.28925577e-01 7.73641095e-02
      -5.77577949e-02 7.24339159e-03 2.39686538e-02 -1.27290532e-01
      -1.81149989e-01 -3.43481340e-02 3.31259444e-02 -1.19099699e-01
      3.72540653e-02 3.51215303e-02 -3.27217132e-02 -3.47216171e-03
      -5.02169244e-02 -4.25171852e-02 -9.87780187e-03 -5.35822436e-02
      1.43557750e-02 -2.46977340e-02 -1.50489613e-01 -6.80669248e-02
      3.58303101e-03 8.63815099e-02 2.41393410e-02 7.34512582e-02
      -2.52252421e-03 -9.89605859e-03 -2.16241777e-02 1.45058811e-01</_>
    <_>
      4.43511084e-02 -1.52676001e-01 1.57534778e+00 7.63340354e-01
      7.63288885e-02 -1.28100812e-01 -6.49117678e-02 -3.71795893e-01
      2.15631574e-01 1.57262519e-01 -6.61015138e-02 -1.94129750e-01
      -3.48765522e-01 -6.69835955e-02 -1.27989069e-01 1.76165521e-01
      -2.79447228e-01 -4.40449007e-02 9.17722508e-02 -6.67978898e-02
      1.52619958e-01 1.55769020e-01 1.20790891e-01 3.50507706e-01
      -1.09861773e-02 -1.83231309e-02 2.01209441e-01 3.87366069e-03
      -8.93059466e-03 -1.37450516e-01 -1.01619765e-01 -6.26090646e-01
      -2.40977436e-01 -8.12633485e-02 8.43514875e-02 9.90147814e-02</_>
    <_>
      1.54282823e-01 -4.18226756e-02 -1.81307599e-01 -3.02076787e-02
      3.18249837e-02 -4.40055085e-03 1.56364869e-02 -1.07953530e-02
      -4.72887829e-02 7.58838141e-04 -9.90852416e-02 -1.89540282e-01
      -1.01891778e-01 -8.55901465e-02 -2.47444343e-02 -8.73676091e-02
      -5.92257641e-02 4.90698032e-02 -6.81672543e-02 5.07536717e-02
      -2.92004962e-02 -2.67288405e-02 3.67078818e-02 -1.60832945e-02
      8.77626147e-03 -4.78278706e-03 -5.15236333e-02 -7.68592358e-02
      -5.56160184e-03 9.22839493e-02 -4.34345081e-02 -3.46390605e-02
      -2.54671741e-02 -6.82698339e-02 -3.47906277e-02 2.13073026e-02</_>
    <_>
      1.96440384e-01 9.33313593e-02 -1.89548194e-01 6.03688061e-02
      3.26995812e-02 6.79861754e-02 -8.66031460e-03 8.48400518e-02
      3.47971660e-03 7.25570917e-02 -4.70899120e-02 -2.03332037e-01
      -7.68109336e-02 -6.16506003e-02 -6.31300882e-02 -3.55423652e-02
      1.84555014e-03 4.04638164e-02 -1.91487581e-03 4.96975072e-02
      -5.61193936e-02 -5.32342270e-02 2.35696398e-02 -5.02600335e-02
      -1.23788528e-02 -2.82381233e-02 -9.22071263e-02 -1.36132017e-01
      1.87683441e-02 6.93840459e-02 -6.73249662e-02 -4.36462872e-02
      5.71297202e-03 -9.76647660e-02 4.95052934e-02 2.49797124e-02</_>
    <_>
      1.74416029e+00 1.04309690e+00 -7.07322657e-02 -1.27576187e-01
      1.27196699e-01 1.61175147e-01 3.63769941e-02 -4.87123802e-02
      -4.49499413e-02 8.10324550e-02 -9.76840854e-02 -1.94540948e-01
      -1.58906087e-01 2.75136605e-02 1.07490070e-01 -9.22139287e-02
      -2.24072542e-02 1.32373441e-02 6.42131194e-02 3.45315218e-01
      -1.81045532e-01 -7.06237555e-02 1.18199140e-01 8.12074170e-02
      7.04657510e-02 -1.55575082e-01 -1.31984040e-01 -2.30475247e-01
      3.06730741e-03 -1.16974972e-01 7.00643733e-02 -1.04220845e-01
      1.10984072e-01 -1.35755107e-01 1.06683016e-01 -1.47037208e-01</_>
    <_>
      -5.81833422e-01 7.48318017e-01 -9.67779532e-02 -1.35895992e-02
      1.96039781e-01 -4.32617217e-02 1.39984548e-01 -5.68502322e-02
      -9.53528807e-02 -1.08704336e-01 -1.79374725e-01 -2.99458541e-02
      -2.41645023e-01 -2.02410907e-01 -8.87434855e-02 1.06521033e-01
      1.54599905e-01 9.09169167e-02 -9.50506926e-02 -5.92586957e-03
      1.12985987e-02 -9.60961431e-02 1.56458765e-02 1.64331660e-01
      -3.64982709e-02 -7.46688247e-02 -1.94108665e-01 -2.05787161e-04
      2.87873615e-02 4.82429452e-02 -3.75637189e-02 2.60441490e-02
      -1.36240395e-02 -2.33045071e-01 -3.56191248e-02 1.37439638e-01</_>
    <_>
      5.32176971e-01 6.17414951e-01 1.71877250e-01 -5.10028481e-01
      -9.76213664e-02 3.58151317e-01 2.86250915e-02 -2.05092221e-01
      -1.47103876e-01 -9.70283300e-02 -2.53836036e-01 -2.50319958e-01
      1.08338214e-01 -7.99749568e-02 1.65712178e-01 -4.11876440e-02
      2.80036181e-01 1.57610215e-02 2.48765558e-01 1.18917473e-01
      2.18243599e-01 2.36754734e-02 7.42510185e-02 1.17600381e-01
      -1.78290024e-01 5.14598750e-02 -2.84649938e-01 -1.99575396e-03
      -4.53545377e-02 -7.38029629e-02 2.40905192e-02 1.27073796e-02
      -1.96868524e-01 -1.90431904e-02 -8.47931728e-02 1.72955528e-01</_>
    <_>
      4.50514793e-01 5.36731541e-01 -1.32488981e-01 -3.23621593e-02
      -3.22572677e-03 3.64999175e-01 -2.47172996e-01 -5.15584759e-02
      1.90595254e-01 1.16790555e-01 -3.19849908e-01 -2.04397231e-01
      2.79714853e-01 -2.38917619e-01 -1.71031505e-01 1.68990254e-01
      2.74281912e-02 1.42797068e-01 -3.07762623e-02 1.61969274e-01
      -9.01940167e-02 -2.69464701e-02 1.78503975e-01 -4.86642234e-02
      -9.23977718e-02 -9.54408124e-02 -5.99891283e-02 -1.19851954e-01
      2.55684201e-02 1.15761971e-02 1.11073405e-02 -4.81054708e-02
      6.17892891e-02 -5.78974262e-02 8.04560781e-02 3.18123177e-02</_>
    <_>
      -1.21241279e-01 3.24524194e-01 -6.30362034e-02 -2.89327167e-02
      3.90155725e-02 -5.51356561e-02 -8.52917805e-02 -3.27132754e-02
      -1.06153050e-02 -3.20792757e-02 4.05364707e-02 -1.95990413e-01
      -8.16428140e-02 -1.15542181e-01 -1.46852642e-01 -1.37711674e-01
      6.16050139e-02 3.83571796e-02 -2.77402680e-02 6.04966618e-02
      -5.18509261e-02 -1.05363384e-01 7.17864037e-02 3.44093367e-02
      -6.70401156e-02 -3.45106088e-02 -9.22307894e-02 1.02409841e-02
      2.84471959e-02 9.41591039e-02 -7.53369778e-02 -2.29324661e-02
      9.02032852e-03 -9.82250199e-02 1.46572338e-02 8.00403506e-02</_>
    <_>
      -6.03622980e-02 -1.69075839e-02 1.50082052e+00 7.03579068e-01
      8.98957103e-02 -1.48469687e-01 -1.86576799e-01 -3.41749281e-01
      1.40864491e-01 1.37005016e-01 6.32481426e-02 -3.20830137e-01
      -2.72478849e-01 4.12421823e-02 -9.33196172e-02 1.27603427e-01
      -1.91037431e-01 -4.46859328e-03 -3.69600616e-02 -7.22611994e-02
      8.00158903e-02 3.47403437e-02 -3.17146443e-02 2.43204590e-02
      -9.57531761e-03 -4.17313911e-02 -7.64213502e-02 -6.44443631e-02
      7.18938410e-02 1.05448760e-01 -8.35870653e-02 -1.09773919e-01
      -4.53730412e-02 -7.95685053e-02 -2.96683190e-03 6.18855320e-02</_>
    <_>
      -2.33622659e-02 3.04467767e-01 -1.70568660e-01 2.90475730e-02
      -1.37961671e-01 -1.24648154e-01 7.62823075e-02 5.01929484e-02
      1.02690533e-01 5.16231693e-02 -7.21877068e-02 -2.24246442e-01
      -1.67443659e-02 -8.67853612e-02 -1.25106238e-02 -9.10591036e-02
      -6.38642907e-02 4.33773287e-02 3.61685059e-03 4.01870199e-02
      -3.49468663e-02 -1.86670665e-02 4.64863628e-02 4.91693467e-02
      4.13308926e-02 7.59536447e-03 -7.77053162e-02 -6.26276731e-02
      3.92602235e-02 8.66258219e-02 -1.01594545e-01 2.21209619e-02
      -3.70207541e-02 1.09526739e-02 3.82180996e-02 7.92896152e-02</_>
    <_>
      1.91312596e-01 -5.31269535e-02 -1.48134634e-01 -5.44000864e-02
      1.48706539e-02 4.17762110e-03 1.23408027e-02 4.77764234e-02
      -2.17247773e-02 4.19608839e-02 -5.27674481e-02 -2.00992629e-01
      -7.19507784e-02 -7.36620575e-02 -2.54584998e-02 -5.81543222e-02
      4.69552819e-03 4.15121168e-02 -1.39215551e-02 2.11308375e-02
      -1.99054014e-02 -1.72607247e-02 3.56415100e-02 5.83854504e-03
      3.28853242e-02 -1.20685417e-02 -5.86946793e-02 -8.15413520e-02
      2.69993450e-02 1.14162177e-01 -6.44628257e-02 -1.89110115e-02
      -1.66094806e-02 -7.73644820e-02 1.81202367e-02 7.48045817e-02</_>
    <_>
      4.97544855e-02 5.21193266e-01 -5.10768518e-02 -2.20345277e-02
      1.72332466e-01 2.27262229e-01 -1.53537229e-01 -1.07283548e-01
      3.04647652e-03 -1.23630203e-01 1.40740890e-02 -1.73382267e-01
      -1.24836890e-02 -2.89443135e-01 3.08520813e-02 -1.24555856e-01
      -7.56857395e-02 1.27467975e-01 4.38290536e-02 -7.66509995e-02
      -1.02535345e-01 7.15850741e-02 7.35809356e-02 -4.50685732e-02
      1.13809938e-02 -1.20414402e-02 6.93775341e-02 -4.10950780e-02
      1.06329329e-01 1.03989363e-01 2.27040332e-02 5.68849556e-02
      4.25151847e-02 -5.16182557e-03 -2.09731632e-03 1.24142282e-01</_>
    <_>
      -2.51490057e-01 3.23775411e-01 -1.83630437e-01 -2.07950640e-02
      8.96915048e-02 5.84365800e-02 -2.26787804e-03 -7.60334805e-02
      -6.86049229e-03 2.60769557e-02 -1.63091272e-01 -1.37819067e-01
      -1.69698283e-01 -1.36052027e-01 -1.62469089e-01 -5.39012924e-02
      3.42610255e-02 4.08917218e-02 -2.73027550e-03 -2.16017831e-02
      -5.45122623e-02 -1.51173130e-03 5.04682176e-02 -5.76259196e-03
      5.14638126e-02 -6.38944432e-02 -3.04060448e-02 -8.33671018e-02
      -2.13200282e-02 6.05081320e-02 -1.77854393e-02 4.95724194e-02
      -6.06964678e-02 -3.98891792e-02 -5.48849963e-02 5.13465293e-02</_>
    <_>
      1.56656921e-01 9.78067145e-02 2.70443738e-01 1.43811196e-01
      -9.96831711e-03 3.18697989e-02 1.69294432e-01 1.03281707e-01
      -9.97354686e-02 4.72808294e-02 -6.37066215e-02 -1.42388657e-01
      -6.35233372e-02 -6.38480261e-02 -1.18113784e-02 -1.38035655e-01
      7.36550391e-02 4.08592746e-02 -8.91082734e-02 6.89533278e-02
      -9.34685469e-02 -6.10701665e-02 1.14391996e-02 -6.10901490e-02
      -2.69632675e-02 -9.34232548e-02 -1.19261295e-01 -8.16679746e-02
      -1.53726367e-02 1.49020404e-01 -1.39991511e-02 1.27097756e-01
      8.58609080e-02 3.84082533e-02 2.29675863e-02 1.13092966e-01</_>
    <_>
      -3.65597695e-01 4.91303504e-01 -1.49176970e-01 -3.08695715e-02
      7.97023699e-02 -5.91897368e-02 1.51453055e-02 -4.00740877e-02
      -1.09132692e-01 7.13313580e-04 -1.56741709e-01 -1.45231694e-01
      -1.74999952e-01 -8.44702721e-02 -1.30560458e-01 -3.44393477e-02
      -5.74295782e-02 -3.40313017e-02 -1.20276339e-01 1.08974807e-01
      -8.37258995e-03 -1.03032142e-01 2.36092750e-02 -4.27070335e-02
      2.34072246e-02 2.97675766e-02 -1.37096550e-03 -1.09853856e-01
      -1.18747903e-02 3.26280519e-02 -8.76572914e-03 9.32513678e-04
      -1.64063349e-02 4.91760205e-03 -2.12063850e-03 1.10861793e-01</_>
    <_>
      -1.64796248e-01 3.12563956e-01 -1.60886496e-01 5.96280769e-02
      -1.93459019e-02 3.38963270e-02 5.28258309e-02 -1.59903064e-01
      -1.32770417e-02 -5.81106078e-03 -1.67602867e-01 -2.12189481e-01
      -1.13815725e-01 -9.19224042e-03 -3.11267078e-02 -1.84719205e-01
      2.05953345e-02 9.44450647e-02 -1.31912202e-01 4.51669917e-02
      -5.54317236e-02 -7.12657254e-03 6.78810850e-02 -6.32122234e-02
      -3.23788896e-02 2.97588054e-02 -3.79884057e-02 -6.02778830e-02
      -5.98386973e-02 9.48456873e-04 -3.36819999e-02 1.84855722e-02
      -6.00897484e-02 -6.91459700e-02 -1.32329846e-02 5.39038107e-02</_>
    <_>
      -8.18976641e-01 1.13838673e+00 9.17082466e-03 -6.22048555e-03
      4.77764718e-02 1.28481230e-02 1.26712963e-01 2.79158875e-02
      5.26313707e-02 -4.45759326e-01 -2.14000732e-01 -8.50438029e-02
      -2.41463169e-01 -1.95496157e-01 -8.96422565e-02 4.06834707e-02
      6.49635270e-02 3.91014367e-02 -1.98821068e-01 -1.89577322e-02
      7.63289956e-03 -1.39849514e-01 7.54856765e-02 9.62137356e-02
      3.64616811e-02 -1.34189889e-01 -3.04179460e-01 -1.53636197e-02
      -1.29073739e-01 -1.85653269e-02 -2.82748014e-01 -9.26164389e-02
      -5.16950451e-02 -7.17902631e-02 -7.00321719e-02 8.45704451e-02</_>
    <_>
      -2.41649628e-01 3.55473906e-01 -1.79805964e-01 -2.65542567e-02
      9.11239460e-02 5.88442385e-02 2.93610431e-02 -3.59837860e-02
      1.24226906e-03 3.90617475e-02 -1.88875213e-01 -1.43124968e-01
      -1.53874055e-01 -1.07146308e-01 -1.51780576e-01 -5.44357151e-02
      4.96555259e-03 4.60874140e-02 -1.58546884e-02 -4.81577441e-02
      -5.77287003e-02 3.05435304e-02 4.90313508e-02 -3.36152166e-02
      5.96540831e-02 -5.12226038e-02 -6.30322993e-02 -5.92695288e-02
      -1.31115159e-02 6.78174347e-02 -5.16374186e-02 1.68664176e-02
      6.33722870e-03 -5.28924242e-02 -4.12930138e-02 4.43015695e-02</_>
    <_>
      -2.35298723e-01 3.22973520e-01 -1.80257171e-01 -2.61598453e-02
      9.49927717e-02 -2.37940270e-02 4.60029300e-03 -6.63105398e-02
      -9.82844830e-02 8.59399606e-03 -1.24596789e-01 -1.97077110e-01
      -1.22364610e-01 -6.31922632e-02 -1.13320768e-01 -6.13982305e-02
      5.84362308e-03 1.22320512e-02 -3.63243222e-02 3.29533145e-02
      -2.86672544e-02 -1.79038886e-02 6.99176341e-02 -1.04450928e-02
      -1.61460731e-02 -2.32662484e-02 2.78084772e-04 -5.75250909e-02
      3.89344022e-02 7.81771019e-02 -2.65867524e-02 1.01740221e-02
      -2.51901243e-02 -8.09310842e-03 -2.36942675e-02 3.63359265e-02</_>
    <_>
      2.37555310e-01 -5.19254059e-02 -1.12253107e-01 -1.15646943e-01
      8.96192272e-04 2.12634690e-02 3.40736508e-02 8.35764259e-02
      8.36248510e-03 3.97133231e-02 -7.44190440e-02 -2.09428072e-01
      -8.62196386e-02 -1.71282180e-02 -2.43036635e-02 -6.26917034e-02
      3.93268839e-03 7.46578560e-04 2.63001062e-02 7.90574029e-02
      -1.46542480e-02 -2.65239086e-02 4.18514572e-02 -1.63569022e-02
      3.29190604e-02 -2.79541276e-02 -2.63524055e-02 -6.63711950e-02
      3.95630151e-02 1.15668677e-01 -6.42320737e-02 5.65317646e-03
      -3.56035866e-02 -8.04109722e-02 1.33884372e-02 5.34852669e-02</_>
    <_>
      9.48335603e-03 1.21398859e-01 -5.79252467e-02 -1.79132119e-01
      -2.74606925e-02 2.33215630e-01 6.08589686e-02 1.27614290e-01
      3.48234586e-02 2.04352848e-02 -9.32794884e-02 -1.43203884e-01
      -2.04322249e-01 -9.43903998e-02 9.34595082e-05 -1.15480527e-01
      -7.60970563e-02 1.37591511e-01 -7.16830119e-02 2.57283822e-02
      -1.96387377e-02 1.28259342e-02 3.22236679e-02 2.36823447e-02
      6.31893461e-04 4.81061079e-02 -2.84012910e-02 -5.93714304e-02
      4.45912853e-02 9.66311023e-02 -1.64828803e-02 -1.73845440e-02
      -2.12733671e-02 -6.33936077e-02 -3.99573892e-03 4.76327352e-02</_>
    <_>
      -4.20942083e-02 2.26195306e-01 -1.07998490e-01 -1.15498565e-01
      9.86191183e-02 2.57660402e-03 1.08123250e-01 1.02957591e-01
      -1.26326963e-01 -4.95324433e-02 -1.37124121e-01 -1.61828369e-01
      -6.55540749e-02 -1.26286790e-01 3.43745872e-02 -1.32527594e-02
      -1.31435648e-01 6.13401569e-02 -7.92335346e-02 -5.64879477e-02
      5.01432195e-02 -4.48974594e-02 -7.97139853e-03 1.02711812e-01
      -3.43589075e-02 1.13573439e-01 -2.50728559e-02 -1.19683474e-01
      5.08103408e-02 7.83623233e-02 3.09728291e-02 1.87632795e-02
      -7.55338520e-02 -8.06737170e-02 6.88802600e-02 3.68486010e-02</_>
    <_>
      -1.97375670e-01 3.23710293e-01 -1.48261905e-01 -6.14596345e-02
      2.73049269e-02 5.42590097e-02 7.50028715e-02 -1.96853280e-02
      5.80197051e-02 3.77557725e-02 -1.32417768e-01 -2.33438388e-01
      -7.13737234e-02 -3.18937451e-02 -5.55058159e-02 -1.07337445e-01
      4.71905582e-02 -5.16742617e-02 -9.47391912e-02 6.07881974e-03
      1.99005175e-02 -3.38413082e-02 6.15470484e-02 -3.14798541e-02
      -5.24443947e-02 1.78537483e-03 -4.20021005e-02 -1.09594889e-01
      2.38230843e-02 1.56790055e-02 3.70306969e-02 -5.84546337e-03
      1.25186769e-02 -8.78662467e-02 -1.90687142e-02 6.79231957e-02</_>
    <_>
      4.84455153e-02 7.64938593e-02 -1.28052309e-01 -6.88081235e-02
      9.41101369e-03 2.69988142e-02 2.75651384e-02 4.36141826e-02
      9.80231166e-03 7.31253549e-02 -1.18499454e-02 -2.13440567e-01
      -8.08629617e-02 -6.88592046e-02 -3.44856754e-02 -6.12098798e-02
      -5.42130368e-03 7.78024197e-02 -3.35935354e-02 2.10507382e-02
      -3.41131985e-02 -2.71715317e-02 4.76834439e-02 -2.27646325e-02
      5.08736297e-02 -2.13993341e-02 -2.70519033e-02 -3.66969705e-02
      1.44482600e-02 8.48424658e-02 -2.76003405e-02 3.80130229e-03
      -3.11054606e-02 -5.52696474e-02 1.51605615e-02 6.63531944e-02</_>
    <_>
      -1.38391539e-01 2.59138554e-01 -1.04231700e-01 -9.96005535e-02
      5.46961266e-04 1.09543197e-01 5.91254719e-02 9.38403457e-02
      -5.65722864e-03 1.76529996e-02 -2.46457756e-02 -1.87657207e-01
      -1.45427838e-01 -6.11358732e-02 -1.03263989e-01 -4.45868969e-02
      1.56852566e-02 5.63340075e-02 -1.21483495e-02 9.68518481e-03
      7.18393736e-03 2.92200074e-02 6.40753135e-02 4.28798012e-02
      2.75098812e-02 3.45000513e-02 -3.06865294e-02 -4.13456075e-02
      -3.02980226e-02 8.96862224e-02 -3.06332316e-02 2.41403598e-02
      6.78911060e-03 -5.40741868e-02 6.42885454e-03 5.36399968e-02</_>
    <_>
      -3.08943272e-01 3.54285300e-01 -2.49791384e-01 5.54432683e-02
      1.31390154e-01 -1.74035400e-01 -1.93463452e-02 -1.14293955e-01
      -1.91775188e-01 6.77296072e-02 -1.79811612e-01 -1.73874110e-01
      -3.48561332e-02 -9.83594880e-02 -1.67354733e-01 2.92815547e-02
      -1.57143891e-01 -1.14315361e-01 -3.42827030e-02 1.38927892e-01
      -6.60634041e-02 -1.08953707e-01 -1.68862299e-03 -1.68404513e-04
      5.45348302e-02 1.84493829e-02 -4.37119119e-02 -7.79921338e-02
      5.53851686e-02 6.57675192e-02 -1.33770322e-02 -9.65713616e-03
      -8.24521035e-02 2.45350618e-02 -4.85170484e-02 6.76121265e-02</_>
    <_>
      2.26054918e-02 1.72404885e-01 -8.33898708e-02 -1.49925038e-01
      3.34549099e-02 1.81322321e-01 -2.17050202e-02 1.27096161e-01
      1.03737630e-01 9.96746123e-02 -1.40960455e-01 -1.75783262e-01
      -1.40512422e-01 9.93406586e-03 3.69627327e-02 -8.00552592e-02
      5.40646911e-03 -8.12829062e-02 2.56698150e-02 7.61319175e-02
      -1.00412503e-01 -1.33727351e-02 -1.62835827e-03 1.12935761e-03
      1.70854072e-03 2.43637189e-02 -1.99367143e-02 -1.76889356e-02
      7.66811371e-02 1.14668451e-01 -8.37714672e-02 -1.81813985e-02
      7.39999255e-03 -7.76881278e-02 -3.28147449e-02 3.54704820e-02</_>
    <_>
      -1.88211009e-01 2.73641258e-01 -1.79229513e-01 -3.93987000e-02
      6.64294660e-02 4.56501171e-02 3.46074738e-02 -5.67360744e-02
      1.21293217e-02 4.69961092e-02 -1.69184476e-01 -1.51015803e-01
      -1.47416264e-01 -1.02881052e-01 -1.14669718e-01 -5.11781015e-02
      8.26282203e-02 1.58216320e-02 -4.67806775e-03 -6.91586360e-02
      -1.95504948e-02 2.26505492e-02 8.47724602e-02 -2.51931846e-02
      3.92580815e-02 -6.60066381e-02 -3.05360928e-02 -3.56126055e-02
      2.87761097e-03 7.51267076e-02 -3.52396742e-02 3.00213601e-02
      3.74025712e-03 -2.14896463e-02 -2.07334347e-02 4.41142470e-02</_>
    <_>
      -1.19853102e-01 3.82753670e-01 -1.46784708e-01 -5.92964143e-02
      1.58422351e-01 -1.32148918e-02 1.48276865e-01 -1.22752473e-01
      -9.72024724e-03 1.00815438e-01 -1.71306003e-02 -1.76341459e-01
      -1.14434205e-01 -6.22577630e-02 -5.54610267e-02 -4.04913025e-03
      1.18402548e-01 -1.60483539e-01 -1.65563479e-01 3.03541511e-01
      -2.99721770e-02 -1.20599806e-01 4.79787625e-02 1.23052485e-02
      4.56138561e-03 8.02176297e-02 -3.92821943e-03 -1.00928061e-01
      6.09200597e-02 4.34271321e-02 -2.39377636e-02 -2.70793121e-02
      -6.62036017e-02 -6.23270944e-02 3.06271911e-02 4.32462692e-02</_>
    <_>
      4.32549976e-02 1.70205057e-01 -3.57864089e-02 -1.40001237e-01
      -3.68485227e-02 1.79668501e-01 1.35396747e-02 1.18527859e-01
      9.42538753e-02 2.78194472e-02 -1.23433635e-01 -1.58369482e-01
      -1.71825677e-01 -7.81208789e-03 5.87037168e-02 -1.08943842e-01
      -2.64179725e-02 -6.24057949e-02 -3.20881195e-02 5.37835285e-02
      -1.03097312e-01 -2.91994866e-02 7.44459778e-02 -3.40264663e-02
      -1.64832585e-02 -1.27618862e-02 -3.36679704e-02 -1.20423120e-02
      9.24002677e-02 7.45310709e-02 -4.40065712e-02 -2.42408384e-02
      -2.66284458e-02 -4.61214297e-02 4.14823778e-02 8.09698850e-02</_>
    <_>
      -3.49867016e-01 4.49782252e-01 -2.99824864e-01 1.16255105e-01
      2.01939061e-01 -1.56236798e-01 1.12407662e-01 -3.19425642e-01
      -8.53477791e-02 1.36957169e-01 -3.39009762e-01 -6.75583109e-02
      -1.22719780e-01 -1.04073599e-01 5.78765906e-02 2.68264767e-02
      1.13155134e-01 2.68243682e-02 -5.50774857e-02 3.18900645e-02
      -1.02593586e-01 -5.43495677e-02 -4.01772484e-02 1.20447420e-01
      1.57556944e-02 3.04635242e-02 -2.64706854e-02 -8.89306441e-02
      1.94964390e-02 1.45398170e-01 -7.69881085e-02 -7.31365103e-03
      -2.51182243e-02 -4.97018769e-02 -1.26723172e-02 1.11960858e-01</_>
    <_>
      4.06583667e-01 -1.68380186e-01 -1.23132892e-01 -8.17457065e-02
      4.29436974e-02 -4.02924092e-03 3.77526470e-02 2.03838870e-02
      8.49859230e-03 -2.50669066e-02 -8.14929083e-02 -1.85535207e-01
      -1.11999698e-01 -5.70771210e-02 -5.34084477e-02 -6.26455396e-02
      9.33371112e-03 3.82177792e-02 -1.56113645e-02 2.02676766e-02
      -7.69667514e-03 -4.00891043e-02 2.96926536e-02 2.23840796e-03
      3.61304022e-02 -1.93984136e-02 -8.07723403e-02 -7.40375593e-02
      2.94067152e-02 1.31699443e-01 -6.89847320e-02 -2.69919615e-02
      -3.07199806e-02 -5.36806434e-02 2.35844310e-02 6.41092360e-02</_>
    <_>
      -4.20923918e-01 5.41911483e-01 -2.05815062e-01 2.50634514e-02
      1.28631577e-01 -4.89962175e-02 7.33191967e-02 -1.16821148e-01
      -1.39143392e-02 1.24225415e-01 -2.29344353e-01 -1.45145953e-01
      -6.55415654e-02 -2.88170073e-02 -5.92875779e-02 6.89412057e-02
      5.52279204e-02 -4.03237119e-02 -1.00174621e-02 -2.24925689e-02
      -1.09751873e-01 7.12792668e-03 6.48315102e-02 -7.60245090e-03
      7.62826800e-02 -8.71933326e-02 -8.77661556e-02 1.17872236e-02
      -2.54143719e-02 6.93732128e-02 -5.18017970e-02 5.96908154e-03
      -6.89008608e-02 -2.82940851e-03 -4.20963168e-02 2.19413787e-02</_>
    <_>
      -2.07867667e-01 3.09052527e-01 -7.16808885e-02 -7.80485868e-02
      -8.82036891e-03 1.06540248e-01 4.64326777e-02 4.90987226e-02
      8.67920220e-02 2.43831724e-02 -5.13694398e-02 -1.74355701e-01
      -1.87569380e-01 -4.71252054e-02 -2.62755174e-02 -1.01914406e-01
      1.47590423e-02 5.62375970e-02 -3.84000801e-02 9.01271254e-02
      -2.80169994e-02 -5.96905090e-02 4.56132330e-02 1.72457471e-02
      1.86475168e-03 1.51313199e-02 -5.04404726e-03 -1.49849541e-02
      1.82956774e-02 3.42362933e-02 -1.04945645e-01 2.78304797e-02
      -3.74735892e-03 -6.47816993e-03 -1.05325796e-03 4.90150452e-02</_>
    <_>
      -5.36783576e-01 9.02347207e-01 -5.58728985e-02 -4.48497869e-02
      3.53033319e-02 -1.43478066e-01 -1.38097137e-01 1.27270505e-01
      1.96477607e-01 -2.49409989e-01 -3.74654144e-01 -3.04631799e-01
      -1.19764253e-01 1.71985760e-01 -6.37334585e-02 -1.88431427e-01
      -4.13194746e-02 -1.70968086e-01 2.34838933e-01 4.48275022e-02
      -7.67272934e-02 -6.59095719e-02 1.59006529e-02 -1.11510456e-01
      1.21730417e-02 -1.79869551e-02 8.46203009e-04 9.18893740e-02
      -1.17365122e-01 7.97281712e-02 -1.96856782e-01 -1.99769475e-02
      7.94299506e-03 -1.51100248e-01 -2.80095022e-02 7.22474903e-02</_>
    <_>
      3.14835296e-03 2.89246347e-02 4.66909826e-01 2.25920916e-01
      -9.19886213e-03 -3.59030180e-02 -5.28325476e-02 -1.01190090e-01
      1.57994419e-01 -2.28695832e-02 -1.42072393e-02 -2.44416609e-01
      -2.01027602e-01 3.33116278e-02 -7.72609515e-03 1.06443793e-01
      -3.40896510e-02 1.14223965e-01 -3.61421891e-03 -1.43930549e-02
      5.97681962e-02 -1.37231961e-01 1.00749359e-01 2.69440152e-02
      3.35248373e-02 3.01824361e-02 -9.04511362e-02 -5.01532704e-02
      4.23127599e-02 1.45378277e-01 -7.67198205e-02 7.64256269e-02
      1.14873767e-01 -6.10196926e-02 -5.85374609e-02 1.15151834e-02</_>
    <_>
      -3.46624702e-01 4.62681562e-01 -1.64553449e-01 -2.92099547e-02
      8.89999494e-02 -5.62908910e-02 1.34274261e-02 -1.31879160e-02
      -1.00608841e-01 4.03249152e-02 -1.21826671e-01 -1.51973397e-01
      -1.26920685e-01 -9.71976072e-02 -1.52598426e-01 -6.87597413e-03
      -5.20767979e-02 -7.01813102e-02 -7.93118924e-02 4.53058630e-02
      -1.13175707e-02 -7.70986751e-02 4.64105755e-02 2.54746377e-02
      2.50580553e-02 3.37802395e-02 -7.80286491e-02 -7.33000189e-02
      -6.93332497e-03 2.70219110e-02 9.24411975e-03 2.24172138e-02
      -6.54986948e-02 -1.74313653e-02 -3.27042281e-03 1.13222241e-01</_>
    <_>
      -4.21064705e-01 6.42001033e-01 -1.35043800e-01 2.80909408e-02
      4.61655781e-02 -1.14297457e-01 1.02005370e-01 -7.32284635e-02
      7.25693181e-02 -1.94497511e-01 -4.17708188e-01 -2.38562763e-01
      -8.76329020e-02 3.67564820e-02 -1.73978286e-03 -7.77723938e-02
      4.70452290e-03 6.64627254e-02 1.16367610e-02 -5.51537611e-02
      -6.68840110e-02 -1.04353195e-02 -3.12624909e-02 8.01372752e-02
      4.40245643e-02 4.11723815e-02 -4.06018905e-02 -1.50395989e-01
      -9.88251492e-02 1.23123482e-01 3.34468833e-03 -4.68458161e-02
      1.92229953e-02 -7.96241537e-02 4.73009758e-02 1.33724064e-01</_>
    <_>
      -4.49935526e-01 6.46497011e-01 -7.30256364e-02 -4.78729121e-02
      8.87078941e-02 -1.96232915e-01 1.49895936e-01 1.11867145e-01
      -9.44916531e-02 -9.54925045e-02 -6.67582601e-02 -1.34606227e-01
      -1.74809210e-02 -1.39779463e-01 7.56149590e-02 1.53643563e-01
      5.99206835e-02 -3.41126621e-02 -4.03407514e-02 9.94788930e-02
      -3.97288688e-02 -9.17124227e-02 1.83163881e-02 5.96479215e-02
      2.14133989e-02 2.21407358e-02 -1.52684569e-01 4.53011459e-03
      7.51453564e-02 1.38067231e-02 -1.94525108e-01 -5.38047636e-03
      3.32905911e-02 -1.39578477e-01 1.53597528e-02 8.54861215e-02</_>
    <_>
      4.35640574e-01 5.95874488e-01 1.95792578e-02 -2.76454389e-01
      -4.63427184e-03 4.29891497e-01 -3.50125492e-01 -1.02362864e-01
      -1.41301587e-01 -2.21488401e-01 -2.04814211e-01 -3.38541359e-01
      2.11162642e-01 -8.02695528e-02 -2.04531759e-01 9.01755244e-02
      -1.46391511e-01 1.69377938e-01 -1.68151200e-01 -1.63786560e-01
      -8.59355181e-02 -2.15629172e-02 -1.42147848e-02 5.46143390e-02
      1.05264463e-01 -6.49945214e-02 9.12092701e-02 -3.06000374e-03
      1.00570023e-01 1.24940082e-01 -1.35263816e-01 9.74275265e-03
      1.47207201e-01 3.49363722e-02 -6.11637421e-02 9.86272544e-02</_>
    <_>
      5.50253689e-01 3.73996571e-02 -1.84349582e-01 9.22633857e-02
      -1.88404664e-01 -6.94220960e-02 6.52540028e-02 1.30162179e-01
      1.20157748e-01 7.07247406e-02 -8.17139149e-02 -7.60577396e-02
      -1.46012112e-01 -2.03812107e-01 -7.68516660e-02 -1.59697402e-02
      3.42623889e-02 -4.51602079e-02 6.08404204e-02 1.20952107e-01
      -2.35944986e-02 2.89615095e-02 3.49405259e-02 -5.58871031e-02
      -4.87694480e-02 7.15980353e-03 -9.75528732e-02 -1.25803545e-01
      3.93226147e-02 4.16635238e-02 5.28842472e-02 -5.55761904e-02
      6.37004822e-02 -1.26760647e-01 4.01080400e-02 1.35230079e-01</_>
    <_>
      -6.16803765e-01 8.22028637e-01 -9.26702842e-02 -9.58177168e-03
      1.59729477e-02 6.96342513e-02 -1.57218073e-02 -9.57682030e-04
      7.73449317e-02 -8.19185451e-02 -1.98914006e-01 -2.07105860e-01
      -2.07275227e-01 6.11935407e-02 -1.78423077e-01 -6.82020634e-02
      4.39479426e-02 -2.92000398e-02 -1.66791293e-03 -2.45722453e-03
      -1.46977141e-01 -9.39667895e-02 3.97720560e-02 2.36376688e-01
      -2.97190659e-02 1.25190262e-02 -1.00584164e-01 3.12100607e-03
      -3.49458680e-02 1.28584370e-01 -6.56369776e-02 3.56649123e-02
      -4.50414568e-02 -1.19247556e-01 -5.65322861e-02 -4.34510689e-03</_>
    <_>
      1.31242454e+00 6.82296574e-01 -5.10737538e-01 1.06806636e+00
      4.00930941e-01 -3.13596465e-02 5.42983226e-02 3.87254596e-01
      1.36020258e-01 -9.50476453e-02 2.81991605e-02 -1.74624711e-01
      -2.73347110e-01 -4.93547413e-04 1.40022308e-01 -1.83020502e-01
      2.84823440e-02 -7.89418519e-02 -3.59629691e-02 2.02309527e-02
      -3.17491814e-02 -4.64243293e-02 4.06332761e-02 2.15954289e-01
      6.89970627e-02 -7.78416768e-02 2.63311770e-02 -1.18128568e-01
      1.93057414e-02 3.38770933e-02 6.39597476e-02 3.10585126e-02
      9.55453962e-02 -1.23461504e-02 -8.44572932e-02 6.69515282e-02</_>
    <_>
      1.60925031e+00 1.08008301e+00 3.02070212e-02 -2.68126667e-01
      1.44346488e+00 2.03041941e-01 -9.20223668e-02 1.23130411e-01
      -1.43945053e-01 -1.13616660e-01 -2.07638051e-02 -2.00442687e-01
      -2.37760320e-01 2.63534952e-02 -2.81484500e-02 -4.17418145e-02
      -7.19873905e-02 7.05887526e-02 -5.75566515e-02 -1.16127364e-01
      -1.25235990e-01 -1.02925599e-01 -1.85912941e-02 2.25683916e-02
      1.32102177e-01 -4.52276804e-02 9.62756574e-03 -8.32661539e-02
      2.13156343e-02 1.04883738e-01 -1.18861780e-01 -5.11116860e-03
      5.50954603e-02 8.71742261e-04 9.50733721e-02 4.66783606e-02</_>
    <_>
      -2.26062730e-01 3.97692204e-01 -3.85830328e-02 -1.39965072e-01
      -6.49787411e-02 1.08527958e-01 1.03861474e-01 1.10688284e-01
      6.40104339e-02 -1.13190636e-02 -7.12515935e-02 -1.94064438e-01
      -2.45598793e-01 6.55049905e-02 -1.48498699e-01 -2.85062697e-02
      9.98269469e-02 -2.89600771e-02 -1.58546939e-01 1.17848508e-01
      1.89361088e-02 7.64145851e-02 8.67621601e-02 5.15975133e-02
      9.39264819e-02 -5.09833568e-04 -2.92087384e-02 1.54043203e-02
      9.22964737e-02 1.19852990e-01 -7.32454136e-02 -2.31461506e-02
      2.97406106e-03 7.05823377e-02 5.60886711e-02 8.52120370e-02</_>
    <_>
      7.92791769e-02 4.41740043e-02 -1.23462871e-01 -6.45634085e-02
      -6.54687127e-03 5.30856699e-02 1.70633011e-02 1.67073682e-02
      2.05789637e-02 2.49452218e-02 -6.09806441e-02 -2.05441639e-01
      -1.38521701e-01 -4.29844894e-02 -3.57298590e-02 -9.87915620e-02
      1.87096209e-03 9.66176018e-02 -5.37451431e-02 6.88412264e-02
      -3.62077542e-02 -7.15414509e-02 2.90936716e-02 3.56716290e-02
      8.02520849e-03 4.41580405e-03 -1.51444562e-02 -5.68801649e-02
      -2.00757775e-02 1.24821976e-01 -2.40471065e-02 -1.88020635e-02
      -1.36080077e-02 -2.66603343e-02 8.51915218e-03 4.33783904e-02</_>
    <_>
      -1.78267449e-01 2.60339886e-01 -1.46242827e-01 -3.36084701e-02
      4.71034199e-02 -4.87184944e-03 3.87242734e-02 -4.48889285e-02
      -3.41755487e-02 -4.37530912e-02 -8.59462619e-02 -2.11174816e-01
      -1.61891192e-01 -7.48324618e-02 -1.21920437e-01 -1.13435835e-01
      5.65621816e-02 1.06456563e-01 -2.87009422e-02 2.05123331e-03
      1.03487652e-02 -1.69873461e-02 4.27020974e-02 4.24430147e-02
      -5.82041685e-03 -2.82514933e-02 1.03808462e-03 -3.02027855e-02
      1.18315341e-02 8.93237144e-02 -1.92977618e-02 2.33666599e-02
      3.80868390e-02 -6.07710779e-02 -1.70532595e-02 5.39629832e-02</_>
    <_>
      2.58806050e-01 2.54849970e-01 -2.38445058e-01 3.17728370e-01
      -1.40396599e-02 -1.30185232e-01 -1.00594729e-01 1.50674731e-01
      1.70835376e-01 2.37902179e-02 -1.48232281e-01 -1.89777493e-01
      -2.24490906e-03 -7.50418529e-02 -5.22598997e-03 -3.72431055e-02
      2.45337516e-01 -1.21906519e-01 -1.92681521e-01 1.56933218e-01
      1.35055125e-01 -6.63753692e-03 1.43016400e-02 -8.44551697e-02
      9.42210201e-03 2.53561884e-02 -1.17953673e-01 -7.96280131e-02
      3.27214636e-02 2.65695415e-02 1.05318666e-01 -4.99552339e-02
      1.38000529e-02 -1.06436446e-01 5.22949174e-02 1.93240047e-02</_>
    <_>
      4.92377952e-02 1.39325783e-01 -1.11643158e-01 -8.53758529e-02
      1.71271898e-02 1.77144051e-01 -2.34497804e-02 3.09034251e-02
      1.18683465e-01 7.69838020e-02 -1.29814655e-01 -1.72237933e-01
      -1.26335546e-01 -3.12422812e-02 9.55213979e-03 -1.10030130e-01
      -7.89121911e-03 -2.31202245e-02 -4.79118191e-02 4.46963720e-02
      -1.21119589e-01 2.95199919e-02 2.02734787e-02 4.05742712e-02
      2.58015674e-02 2.59591527e-02 -4.72944640e-02 -5.03240786e-02
      3.71359140e-02 1.15162231e-01 -6.56081364e-02 -3.70662026e-02
      3.03660147e-02 -5.88626191e-02 -2.78060287e-02 8.11668262e-02</_>
    <_>
      -4.77098674e-03 3.34384926e-02 3.71973485e-01 1.49543896e-01
      3.32258232e-02 -2.23636746e-01 -1.78811789e-01 -2.97089815e-01
      1.83171153e-01 -7.22034872e-02 1.63158014e-01 -2.40016192e-01
      -2.43121833e-01 1.70020461e-01 7.82044008e-02 3.52446675e-01
      -2.98258930e-01 -1.03837661e-01 6.53649271e-02 1.72008380e-01
      8.46878737e-02 2.85118163e-01 -2.15871677e-01 -6.68450026e-03
      -2.24099502e-01 -5.23862094e-02 -5.62783405e-02 -7.15900362e-02
      -8.01117569e-02 2.27399945e-01 -1.02425620e-01 2.80349731e-01
      -2.38227807e-02 -1.44662112e-01 5.22379428e-02 -4.02956596e-03</_>
    <_>
      1.51608753e+00 8.26384425e-01 -4.23145354e-01 7.17222691e-01
      3.39348584e-01 2.40921304e-01 -1.14827298e-01 2.65573859e-01
      2.89581925e-01 -3.91037427e-02 -2.48557433e-01 -3.05298418e-01
      2.44080991e-01 -6.46771491e-02 -5.64284101e-02 1.53525826e-02
      1.37312971e-02 2.32903883e-01 2.02321671e-02 1.83954641e-01
      1.39219105e-01 1.28996402e-01 1.49048731e-01 1.45854726e-01
      -1.11138828e-01 6.27923012e-02 -9.54696015e-02 -1.40913934e-01
      3.52194682e-02 8.18546191e-02 -1.54208392e-01 5.18537015e-02
      -1.40772894e-01 1.59065202e-01 -1.29293919e-01 1.66920185e-01</_>
    <_>
      -7.11840689e-01 8.74236882e-01 -1.08844310e-01 -3.55747454e-02
      5.24239540e-02 7.01169372e-02 4.27703708e-02 -2.62611173e-02
      1.34945989e-01 -6.53817281e-02 -3.13448399e-01 -1.20789573e-01
      -2.44804487e-01 -3.02900486e-02 2.20771916e-02 -1.11682400e-01
      -5.35045192e-03 2.72210687e-02 6.65631220e-02 9.87092927e-02
      -8.06610137e-02 -9.46289152e-02 -1.26974601e-02 3.67022455e-02
      -2.71052811e-02 8.07761867e-03 -1.34790204e-02 2.09008548e-02
      3.87954488e-02 1.33971348e-01 -1.06053710e-01 9.69456322e-03
      -1.77667271e-02 2.13791803e-02 8.92122686e-02 8.42526034e-02</_>
    <_>
      2.78443992e-01 2.74645716e-01 -3.10847402e-01 4.20335174e-01
      1.63224846e-01 1.08828165e-01 5.32568730e-02 4.21511494e-02
      8.09920579e-03 9.01754014e-03 -1.29239047e-02 -2.05569953e-01
      -1.08677484e-01 1.41084837e-02 4.47666198e-02 -7.51983076e-02
      1.34445548e-01 7.33742118e-02 -6.40707090e-02 -1.14113383e-01
      -2.51976680e-02 -3.00413906e-03 -2.67027132e-03 -1.71688031e-02
      1.97378881e-02 6.25833422e-02 -2.49105431e-02 -8.26397538e-02
      3.48451063e-02 1.02863394e-01 -9.07855108e-02 4.39753011e-02
      -1.04487747e-01 -8.85545984e-02 6.03195354e-02 4.32998277e-02</_>
    <_>
      4.53136452e-02 1.33182108e-01 -7.27326795e-02 -1.50432289e-01
      5.12691252e-02 1.58702686e-01 4.28062165e-04 9.52313244e-02
      8.11439008e-02 5.27964011e-02 -1.19662590e-01 -1.53079420e-01
      -1.42192915e-01 -3.97382416e-02 1.55996019e-02 -9.18638632e-02
      -5.25942221e-02 -6.72817379e-02 -6.44610450e-02 1.92764681e-02
      -9.47477743e-02 -3.28419618e-02 1.03430390e-01 -4.78479080e-02
      -1.52751617e-02 3.28249880e-03 -5.17373197e-02 -2.69245878e-02
      5.67838661e-02 7.93206021e-02 -3.97100784e-02 -2.04822998e-02
      -3.99425700e-02 -3.92923728e-02 1.58439092e-02 1.02757610e-01</_>
    <_>
      -1.63462520e-01 2.25111768e-01 -1.58026263e-01 -2.05667876e-02
      5.64539954e-02 3.04678138e-02 1.01774826e-03 -7.40671605e-02
      -2.58346219e-02 -2.93486044e-02 -1.09930560e-01 -1.81782007e-01
      -1.52445570e-01 -1.16980627e-01 -1.67539433e-01 -5.18984646e-02
      5.55979647e-02 7.22065195e-02 2.24326942e-02 -3.24928151e-05
      3.21028791e-02 -4.31541800e-02 4.27350402e-02 6.15077734e-04
      3.03618773e-03 -7.06405565e-02 1.21761095e-02 -3.11497245e-02
      2.51881201e-02 7.12614059e-02 -2.23160386e-02 2.09246352e-02
      3.92371640e-02 -1.35756386e-02 -2.29850393e-02 4.76841554e-02</_>
    <_>
      2.80861735e-01 1.24725744e-01 -1.81411937e-01 1.11721650e-01
      9.09879729e-02 1.63299993e-01 1.10423490e-01 -6.21486343e-02
      -2.16463581e-02 -1.11765765e-01 -2.25666687e-02 -2.11273730e-01
      -1.20220512e-01 -4.85131480e-02 -2.30854601e-02 -1.62692547e-01
      -7.53162876e-02 -3.73858511e-02 -1.08920939e-01 -1.71114564e-01
      -1.00531373e-02 -1.61598697e-01 -1.38017675e-03 -2.64853276e-02
      -4.99684736e-03 -3.45609826e-03 5.48462421e-02 -2.05216650e-02
      2.55676592e-03 1.11079492e-01 -5.92371114e-02 2.97129583e-02
      -6.31205663e-02 -7.22498521e-02 6.07497804e-02 6.14350848e-02</_>
    <_>
      -5.73525906e-01 8.05803299e-01 -6.01901971e-02 4.54777107e-02
      5.44050187e-02 -1.24697603e-01 2.93284678e-03 -6.97110221e-02
      1.22683436e-01 -1.53529420e-01 8.76845941e-02 -1.31849170e-01
      6.30363030e-03 -3.34949017e-01 1.77619934e-01 -1.05321027e-01
      1.78779185e-01 -1.35219306e-01 6.55769035e-02 4.28776629e-02
      -1.04036242e-01 3.06192990e-02 -2.01571602e-02 6.14453964e-02
      2.87911408e-02 -7.52666816e-02 -1.84995502e-01 -4.04241905e-02
      2.29808569e-01 1.66221514e-01 -2.12941051e-01 -3.09372004e-02
      3.27103282e-03 -6.45045042e-02 6.14670329e-02 1.11432604e-01</_>
    <_>
      -3.42111677e-01 4.54310894e-01 -1.45607337e-01 -1.24963168e-02
      3.40999253e-02 -6.08502217e-02 3.28048542e-02 -3.51527892e-02
