<?xml version="1.0"?>
<opencv_storage>
<opencv_ml_svm>
  <format>3</format>
  <svmType>C_SVC</svmType>
  <kernel>
    <type>RBF</type>
    <gamma>5.0625000000000009e-01</gamma></kernel>
  <C>1.0000000000000001e-01</C>
  <term_criteria><iterations>100</iterations></term_criteria>
  <var_count>36</var_count>
  <class_count>2</class_count>
  <class_labels type_id="opencv-matrix">
    <rows>2</rows>
    <cols>1</cols>
    <dt>i</dt>
    <data>
      0 1</data></class_labels>
  <sv_total>200</sv_total>
  <support_vectors>
    <_>
      -2.26348951e-01 7.01554298e-01 -1.09164655e-01 -3.18869203e-01
      4.57952887e-01 -1.54786929e-01 1.76691696e-01 -2.05563501e-01
      -7.86089525e-02 -7.08986372e-02 -1.80974379e-01 -6.68479726e-02
      -2.75535911e-01 9.00793541e-03 -8.13576132e-02 2.89956201e-02
      -5.98217100e-02 9.02788341e-03 9.58240330e-02 -1.09305859e-01
      2.51158308e-02 1.82410687e-01 6.80757314e-02 8.29466246e-03
      -4.69239354e-02 4.88662645e-02 -5.43989576e-02 -6.93523288e-02
      3.07002544e-01 1.13491140e-01 4.79175486e-02 -1.84586078e-01
      1.08814090e-01 6.74402565e-02 -5.20263705e-03 -1.49538994e-01</_>
    <_>
      3.19519609e-01 3.42851132e-01 -4.32393074e-01 -4.03143376e-01
      8.07744026e-01 5.35793491e-02 -8.26021060e-02 -3.60708505e-01
      -1.93057925e-01 -2.23966420e-01 -2.20726952e-01 -5.79841137e-02
      2.31286921e-02 2.18940809e-01 2.04138681e-01 -1.47707000e-01
      -1.88879222e-01 -1.59963593e-01 -6.48700818e-02 8.61718804e-02
      2.86374837e-01 3.72953527e-02 -1.68217525e-01 -4.83671203e-02
      6.95781335e-02 3.91579926e-01 -4.08182526e-03 1.67032003e-01
      -2.83282120e-02 3.70256118e-02 1.18151776e-01 -1.48621663e-01
      -2.71545649e-01 -7.10039511e-02 -2.07602710e-01 -1.52917936e-01</_>
    <_>
      2.95475769e+00 8.18978429e-01 -7.71422684e-01 -3.67706716e-01
      3.55810732e-01 -2.16757864e-01 -5.99223256e-01 -2.10009664e-01
      -3.63624282e-02 2.14162108e-04 1.21959016e-01 -3.78840953e-01
      -7.77235255e-02 2.52353221e-01 7.21933022e-02 1.92813903e-01
      3.90638923e-03 8.41598511e-02 4.19532545e-02 9.74840671e-02
      4.69690077e-02 2.59240828e-02 5.52154854e-02 6.42106012e-02
      9.79456678e-02 -7.76548088e-02 7.12026581e-02 -1.64630730e-02
      -6.71356693e-02 -2.97129285e-02 6.96363375e-02 -5.30066974e-02
      -1.62250958e-02 4.10964247e-03 -6.26370609e-02 -8.24568793e-02</_>
    <_>
      3.56020689e-01 4.54987526e-01 5.11461981e-02 -4.30381387e-01
      2.60429949e-01 -1.67434365e-02 1.35032073e-01 2.39697061e-02
      -1.80565566e-01 -6.67235106e-02 -3.77800167e-02 -9.21890512e-02
      -5.40672615e-02 -1.05938334e-02 -1.09730586e-02 -5.60539775e-03
      -7.03106895e-02 3.21393870e-02 8.76284093e-02 5.96631952e-02
      -6.15739860e-02 9.10611358e-03 -3.72807793e-02 2.49230284e-02
      -1.38695836e-01 -2.91239587e-03 2.10082367e-01 1.30448610e-01
      -5.66701815e-02 -1.23946294e-01 -8.93182866e-03 7.29251504e-02
      -6.13863170e-02 -5.36673777e-02 -4.39173840e-02 -1.45715281e-01</_>
    <_>
      2.99544960e-01 5.57061732e-02 2.94376668e-02 -5.31963035e-02
      1.38235122e-01 1.72720347e-02 -9.87303723e-03 6.65806187e-03
      8.90253335e-02 -7.40717873e-02 1.00831732e-01 -1.39026284e-01
      -6.12839758e-02 -2.03604400e-02 5.16946912e-02 1.65669955e-02
      4.03708033e-02 -8.75567645e-03 9.02664587e-02 -1.18360948e-02
      -2.74066962e-02 8.00788030e-02 -3.29008289e-02 -1.16350576e-02
      -4.38220054e-02 2.02846266e-02 2.78478451e-02 4.90478911e-02
      2.30377745e-02 -3.48452665e-02 4.31298278e-02 1.01717841e-02
      -1.13588450e-02 1.20603703e-02 -3.12832743e-02 -1.54977411e-01</_>
    <_>
      5.50481789e-02 5.55750430e-01 -5.79984533e-03 -5.19744635e-01
      3.21512610e-01 -1.22651465e-01 1.55704081e-01 4.07656580e-02
      -2.55795181e-01 -2.92928591e-02 1.24155700e-01 -2.57868260e-01
      -8.47152621e-02 -1.01340972e-01 6.37306646e-02 4.03970480e-02
      -1.18513103e-03 8.50120559e-02 6.13873638e-02 3.52969095e-02
      -2.58708388e-01 -5.70450649e-02 1.21441267e-01 -1.77703246e-01
      2.16074027e-02 5.39505370e-02 -1.23289600e-02 1.00014105e-01
      6.76388480e-03 -1.00934282e-01 9.69815329e-02 -2.20418926e-02
      2.52542067e-02 5.82054816e-02 -5.31265698e-02 -6.89534768e-02</_>
    <_>
      4.28869814e-01 9.81738046e-02 -2.36748323e-01 -8.85236934e-02
      1.19616397e-01 -3.99323786e-03 3.40946838e-02 8.55755620e-03
      6.85625374e-02 -1.71775281e-01 1.69388488e-01 -4.81598563e-02
      -1.02341376e-01 -1.52876824e-01 8.54305401e-02 7.85171911e-02
      -5.92129454e-02 -9.82012600e-03 1.48311585e-01 -2.66258083e-02
      -1.00535909e-02 1.89585704e-02 -1.13533527e-01 -9.43803713e-02
      -4.95889001e-02 -1.03357469e-03 5.47608659e-02 -2.78827269e-03
      1.89066716e-02 8.39237962e-03 6.96043596e-02 4.27667350e-02
      -7.26745883e-03 3.70027758e-02 -5.76149151e-02 -1.27023235e-01</_>
    <_>
      -6.26805648e-02 3.99668157e-01 -3.38016041e-02 -1.89881295e-01
      1.86264172e-01 -7.85522982e-02 8.39250386e-02 -4.05500494e-02
      4.14213240e-02 -6.84602335e-02 3.23006436e-02 -1.14210799e-01
      -9.39887855e-03 2.44429316e-02 2.03606822e-02 -3.91579568e-02
      -8.13116953e-02 1.91006809e-02 7.99518973e-02 -9.56183746e-02
      -8.47500935e-02 1.80811003e-01 6.02884367e-02 -3.56554128e-02
      -1.19570188e-01 2.05502831e-04 7.68537000e-02 5.68477921e-02
      4.21179533e-02 -6.91367779e-03 3.35779674e-02 9.03641619e-03
      -1.03806453e-02 -3.04090921e-02 -2.49253009e-02 -1.30261928e-01</_>
    <_>
      -1.76007196e-01 5.51218927e-01 -2.72897452e-01 -2.37155229e-01
      3.72291028e-01 -1.51405022e-01 1.17978729e-01 -7.04674646e-02
      1.23948105e-01 -4.06898819e-02 -5.72195798e-02 -1.29659817e-01
      8.48344155e-03 -5.51015325e-02 2.24465325e-01 -2.42639557e-02
      -6.93269074e-02 2.10017562e-02 1.10011600e-01 -1.48653507e-01
      -4.12257463e-02 1.79703712e-01 1.41737368e-02 -4.54700701e-02
      3.28153968e-02 1.40188336e-01 9.07049701e-02 4.89463173e-02
      1.25722885e-01 -3.18085849e-02 1.71655551e-01 6.32347539e-02
      1.38215804e-02 -6.85530975e-02 -7.15272576e-02 -8.36309269e-02</_>
    <_>
      4.68744606e-01 -6.04759276e-01 -1.26360476e-01 -1.53883207e+00
      4.89705116e-01 1.86172333e-02 1.48232713e-01 1.15689471e-01
      6.52777731e-01 -1.19960643e-01 1.82329759e-01 -1.68460667e-01
      -1.83669589e-02 -1.45287320e-01 3.30332577e-01 -3.50479424e-01
      4.95865978e-02 -4.60597426e-01 -4.88841772e-01 2.81538546e-01
      3.59226704e-01 3.04355919e-01 -1.49131924e-01 2.08459675e-01
      -7.44459450e-01 -2.18775794e-01 -2.72367857e-02 -1.93453729e-01
      5.23751788e-03 -5.94172366e-02 9.07756686e-02 -5.01987524e-02
      3.61035645e-01 -3.70270431e-01 -3.21585834e-02 -1.93651855e-01</_>
    <_>
      -1.92962259e-01 7.68428326e-01 -5.96799701e-02 -3.65021974e-01
      3.45868587e-01 -1.33982420e-01 9.73336399e-02 -3.73104699e-02
      -4.65728939e-02 -5.21674566e-02 7.29720155e-03 -1.80352107e-01
      -1.43879160e-01 -1.25090564e-02 3.27688679e-02 -3.81590873e-02
      -3.00423279e-02 4.53573233e-03 3.58300507e-02 -6.88549355e-02
      -9.80549902e-02 5.72459884e-02 -3.91427912e-02 -2.41078925e-03
      -4.83274721e-02 -1.54679297e-02 1.78560801e-02 6.45304546e-02
      9.07825679e-02 4.80783824e-03 1.04897551e-01 -3.76098007e-02
      -4.03294154e-02 -4.72098328e-02 -5.35448752e-02 -8.32238570e-02</_>
    <_>
      1.13706470e+00 1.49654940e-01 1.31558076e-01 -4.10596460e-01
      -1.27211353e-02 -1.60625890e-01 3.67087245e-01 -1.90342203e-01
      -2.25335211e-01 -2.99427152e-01 6.60025105e-02 -2.56547958e-01
      2.16453746e-01 1.81273907e-01 2.11950392e-01 4.43734117e-02
      2.13412177e-02 2.26103649e-01 2.12097093e-01 3.43451761e-02
      7.64673650e-02 1.42438961e-02 -1.83670312e-01 -1.38637856e-01
      8.11964422e-02 -1.04528807e-01 1.98643893e-01 8.35876614e-02
      4.55629565e-02 1.06331788e-01 3.10603958e-02 -1.03152871e-01
      1.66045770e-01 -1.01531848e-01 5.00799306e-02 -3.01300019e-01</_>
    <_>
      -5.20145237e-01 1.04592335e+00 -1.78036869e-01 -3.92381698e-01
      2.95642912e-01 -6.98625445e-02 2.16774829e-02 1.33040911e-02
      1.86847195e-01 -1.89693391e-01 1.31254986e-01 -3.90900284e-01
      -4.40913886e-02 8.86746496e-03 1.06136084e-01 -6.04076423e-02
      2.02281959e-02 2.50173942e-03 8.80074352e-02 -7.05049606e-03
      -6.34497702e-02 1.43176010e-02 -1.43938065e-02 -7.56377354e-02
      -6.11448735e-02 1.07112147e-01 -4.52408232e-02 6.92958385e-02
      -2.57275477e-02 6.98744655e-02 9.55641642e-02 -7.93108121e-02
      -2.51808699e-04 -3.04091498e-02 -7.02856109e-02 -1.18861988e-01</_>
    <_>
      3.01047415e-02 4.40018147e-01 8.27500969e-03 -1.42173722e-01
      5.30575633e-01 1.84549302e-01 2.13015392e-01 -8.42120647e-02
      1.54489800e-01 -1.03785522e-01 -1.87130839e-01 4.18348387e-02
      9.35435668e-02 -2.70132512e-01 1.55914128e-01 1.76370367e-01
      2.66692221e-01 7.84614496e-03 1.13035098e-01 -1.44547760e-01
      -5.68035170e-02 1.13658383e-01 -2.98158210e-02 7.74514079e-02
      -9.48866010e-02 -9.51724872e-02 -4.00049612e-02 -6.21144883e-02
      4.36216071e-02 -5.39322570e-02 1.90805714e-03 1.04859419e-01
      1.71672657e-01 7.30097145e-02 8.90951306e-02 -1.54934451e-01</_>
    <_>
      2.51151562e-01 2.00319290e-02 -5.31366542e-02 -1.05220452e-01
      1.79108039e-01 -4.68452610e-02 -4.83276583e-02 -1.75147206e-02
      4.71927710e-02 -1.00975065e-02 -8.49894341e-03 -1.33027822e-01
      -3.44853923e-02 1.76932719e-02 1.21204950e-01 -1.45836473e-02
      1.03161983e-01 -6.13503670e-03 2.18457766e-02 6.92313761e-02
      -8.38339552e-02 -1.26183452e-02 1.72923617e-02 3.12859006e-02
      2.09603887e-02 -1.83346346e-02 -1.51729025e-02 1.14019755e-02
      3.37841883e-02 6.23283945e-02 5.86955436e-02 -4.03021500e-02
      -7.95818307e-03 -7.30452267e-03 -4.92229015e-02 -1.12830438e-01</_>
    <_>
      4.41017777e-01 -1.00452900e-01 1.23358667e-01 -4.13305312e-02
      7.38603920e-02 2.61694164e-04 -4.87054624e-02 9.16919857e-03
      3.64073925e-02 -6.40581474e-02 9.88323987e-02 -1.83462366e-01
      1.59557920e-03 2.03412306e-02 2.99895238e-02 8.84942431e-03
      -9.86055657e-03 -6.43484434e-03 2.13693734e-02 2.37412751e-02
      2.08918215e-03 4.63091768e-02 -7.34574422e-02 2.17122631e-03
      -2.04520430e-02 3.46282832e-02 -6.18772022e-02 4.26586978e-02
      -2.42935251e-02 -1.93444733e-02 2.43716929e-02 5.29884314e-03
      3.42957824e-02 3.26392204e-02 -1.03997365e-02 -1.75335154e-01</_>
    <_>
      1.42054573e-01 7.71687403e-02 -2.25520451e-02 -6.13794476e-02
      9.15183574e-02 -4.50796410e-02 1.49850436e-02 -3.82655635e-02
      9.39470977e-02 -3.75722460e-02 1.14353716e-01 -1.54074028e-01
      1.71273649e-02 -1.06887976e-02 1.21160485e-01 -7.12155737e-03
      3.40521447e-02 -6.99423254e-03 7.97043070e-02 -1.42107429e-02
      -8.94055367e-02 9.14809927e-02 -8.44867714e-03 -3.56863812e-02
      -4.95237336e-02 -1.88201722e-02 -2.10272986e-02 2.35258415e-02
      -5.50402328e-03 -3.54357287e-02 4.35053594e-02 4.16896380e-02
      1.83805246e-02 8.95417705e-02 -6.07128209e-03 -1.78685933e-01</_>
    <_>
      3.57137710e-01 1.45391211e-01 -2.29873344e-01 -1.16722032e-01
      1.08499929e-01 -4.89767408e-03 1.67295393e-02 3.39207724e-02
      8.63920599e-02 -1.92679420e-01 1.54469118e-01 -3.90080996e-02
      -1.18288755e-01 -1.45780727e-01 1.11750267e-01 9.63566750e-02
      -3.83944511e-02 -1.69312302e-02 1.48473278e-01 -3.95659953e-02
      1.38295209e-02 2.65878253e-02 -1.25185311e-01 -1.54788688e-01
      -6.38804212e-02 1.79250315e-02 4.88111489e-02 1.75477304e-02
      -3.82699296e-02 7.03467801e-03 5.09866811e-02 1.29607376e-02
      2.43511479e-02 2.29885057e-02 -5.22170216e-02 -1.31445691e-01</_>
    <_>
      1.76672828e+00 4.93697792e-01 -1.48380244e+00 -2.34938085e-01
      3.07816982e-01 1.22002997e-01 -8.77125412e-02 -3.06126356e-01
      -8.18105638e-02 1.27445713e-01 5.85525632e-01 -1.84449613e-01
      6.16360828e-02 -3.06505769e-01 1.48202269e-03 3.87233682e-02
      -3.32332142e-02 -1.42959923e-01 8.69213045e-02 -3.17964368e-02
      -4.38194460e-04 4.65057157e-02 2.01152787e-01 -9.21139643e-02
      1.68606564e-02 7.78979622e-04 1.14709936e-01 -7.66609237e-02
      5.81789650e-02 7.94735625e-02 1.10820413e-01 -7.04613030e-02
      2.41145701e-03 -1.77057665e-02 -1.02665640e-01 -1.20739914e-01</_>
    <_>
      2.36395621e+00 3.75715017e-01 -1.32351398e+00 1.32390931e-01
      8.56373310e-01 1.99945927e-01 -2.46826798e-01 4.89581436e-01
      2.63537139e-01 2.92446792e-01 3.87799479e-02 -4.75388616e-01
      3.45988013e-02 -1.09162383e-01 -1.02958288e-02 -2.53312141e-01
      -3.08072686e-01 7.74552673e-02 -1.11026838e-01 -1.91342384e-01
      -1.75032541e-01 1.82709917e-01 -1.97941706e-01 -1.09627075e-01
      -1.03997901e-01 2.26948578e-02 6.84623495e-02 8.60501267e-03
      8.65291357e-02 1.42775342e-01 -1.02961296e-02 7.96386227e-02
      5.98306954e-02 -6.85614422e-02 -4.50248197e-02 -1.60360754e-01</_>
    <_>
      -1.37004271e-01 5.19028783e-01 -1.27043471e-01 -3.22775066e-01
      2.75958061e-01 -1.32217482e-01 1.10409357e-01 -6.40622824e-02
      -1.84159651e-02 1.73872430e-02 4.66859527e-02 -5.18884547e-02
      -2.69868430e-02 -6.44073412e-02 7.80952647e-02 -2.71068458e-02
      -2.86832470e-02 1.38143674e-02 7.41895139e-02 -1.96008757e-02
      -7.59279355e-02 1.19913429e-01 4.07435335e-02 -4.68491837e-02
      -5.02220057e-02 1.46860760e-02 3.53302211e-02 2.95036901e-02
      -2.09349822e-02 -3.02698128e-02 3.42118926e-02 7.38703534e-02
      -2.18326878e-02 -1.66497678e-02 2.58219894e-02 -1.47878006e-01</_>
    <_>
      3.95273149e-01 2.29221344e-01 -7.53230229e-02 -2.84311116e-01
      1.46348849e-01 -1.61552370e-01 6.42671064e-02 -2.61121523e-02
      -1.39880598e-01 1.44223478e-02 5.32085188e-02 -1.43226638e-01
      -6.31833449e-02 4.40990478e-02 1.62682667e-01 5.58093898e-02
      -4.90908287e-02 6.41877949e-02 1.10612987e-02 7.57133737e-02
      -8.83803368e-02 9.94637385e-02 6.12161197e-02 -8.44065398e-02
      3.91620547e-02 -2.38466868e-03 2.35259458e-02 2.13966370e-02
      4.13850285e-02 -6.32657781e-02 1.43205404e-01 -3.49859037e-02
      1.00288633e-03 -1.78555958e-02 -9.54329669e-02 -1.27489045e-01</_>
    <_>
      2.11142048e-01 6.19541816e-02 -5.48409112e-03 -4.27887328e-02
      1.42251372e-01 2.02928204e-02 1.97819117e-02 8.81533511e-03
      9.13297683e-02 -8.61447155e-02 3.90442871e-02 -1.82987258e-01
      -8.02387018e-03 1.56448968e-02 1.10066526e-01 5.18172374e-03
      1.41123403e-02 -1.94457043e-02 5.82075007e-02 -1.07503645e-02
      -6.59131855e-02 5.65560348e-02 9.94963106e-03 -2.98292320e-02
      -2.88199428e-02 2.31408980e-02 7.45384619e-02 4.05251160e-02
      -1.72140170e-02 2.17936784e-02 4.88833226e-02 -1.81881580e-04
      -8.27714894e-03 2.30359323e-02 -2.97780288e-03 -1.79418027e-01</_>
    <_>
      6.53437078e-02 1.90565228e-01 -3.96091454e-02 -1.39226720e-01
      9.26913396e-02 -2.76390202e-02 1.37420772e-02 -4.38307412e-02
      7.07316622e-02 -4.89833616e-02 8.48597288e-03 -1.34103298e-01
      1.40430005e-02 -2.91367061e-02 1.18026309e-01 -4.04087976e-02
      8.60365853e-03 -4.92421398e-03 8.91847163e-02 -2.80263685e-02
      -3.52181904e-02 1.10613041e-01 5.85922748e-02 -1.23558035e-02
      -5.01463078e-02 -3.75929624e-02 5.95443621e-02 3.11335512e-02
      -4.86504659e-02 3.45442034e-02 5.03396690e-02 5.88793727e-03
      9.98947676e-03 1.85179617e-02 -4.86797690e-02 -1.48300841e-01</_>
    <_>
      1.82781792e+00 1.22287703e+00 3.68773311e-01 -3.26625347e-01
      9.30650234e-02 1.68654606e-01 -9.58244503e-01 -1.71816707e-01
      -1.34694353e-02 1.45504639e-01 1.26002908e-01 -2.24074781e-01
      -8.02865252e-02 -1.33935690e-01 4.29589674e-02 -1.78077340e-01
      5.48718572e-02 1.78235322e-01 2.61118770e-01 -6.03533871e-02
      -1.04938336e-01 1.71347007e-01 -6.06463179e-02 1.02802888e-01
      -1.82536185e-01 1.84342608e-01 3.98129225e-02 -7.44323479e-03
      -7.42584765e-02 2.52382495e-02 8.33144188e-02 -1.17874354e-01
      -1.11937515e-01 5.98736927e-02 -7.96065107e-02 -1.09274112e-01</_>
    <_>
      2.24336863e+00 1.44670439e+00 1.68522918e+00 -2.96564281e-01
      2.35881269e-01 2.70483285e-01 1.27320334e-01 1.16996802e-01
      2.26516813e-01 -1.14794411e-01 9.76272970e-02 -1.85620144e-01
      1.67388648e-01 -1.46280557e-01 7.81178027e-02 2.00710699e-01
      1.01014925e-02 8.63062404e-03 1.07625812e-01 2.85627153e-02
      -7.06590563e-02 1.63194954e-01 5.35193831e-03 2.19294410e-02
      -9.23878029e-02 -1.77539214e-02 1.37054343e-02 -2.72822808e-02
      3.63957211e-02 -9.72375199e-02 -3.48732471e-02 2.28294190e-02
      -6.95341602e-02 2.22850796e-02 9.39499214e-02 -8.49269852e-02</_>
    <_>
      1.36201334e+00 6.32721961e-01 7.66562402e-01 -3.36300284e-01
      3.18081051e-01 3.81817552e-03 1.91049829e-01 1.58677652e-01
      1.04026508e-03 -2.76958738e-02 -1.68816879e-01 -2.97539055e-01
      -1.04300760e-01 5.82266562e-02 1.33363292e-01 -1.93881422e-01
      -2.59265065e-01 1.42913014e-01 1.35325223e-01 -1.75916538e-01
      -2.17878938e-01 -6.47452027e-02 4.24102359e-02 -1.45370200e-01
      7.87136238e-03 -1.42795667e-01 1.50494203e-01 -1.05205923e-01
      -3.18214074e-02 3.48717459e-02 -1.45859374e-02 6.52353317e-02
      6.53989986e-02 7.20605347e-03 -4.25719470e-02 -1.73255831e-01</_>
    <_>
      6.88949823e-01 7.28273451e-01 2.91901648e-01 -4.55898970e-01
      -3.94862384e-01 -3.06019157e-01 -2.00170681e-01 -4.43251282e-01
      -7.83688426e-02 -2.91672856e-01 -2.71240324e-01 -3.57075155e-01
      9.87586752e-03 -6.25369474e-02 1.87143669e-01 -1.52789891e-01
      7.20875263e-02 -5.88156804e-02 5.07624336e-02 -2.86838841e-02
      -1.91975909e-03 -5.86337270e-03 1.76419303e-01 -9.39895585e-02
      2.95567811e-02 8.91514719e-02 9.54101980e-02 -9.15995836e-02
      -4.90655005e-02 7.52929412e-03 -6.77792542e-03 -1.41558023e-02
      -1.05811246e-02 1.43225119e-02 2.78099324e-03 -1.33291572e-01</_>
    <_>
      1.36208129e+00 2.79531896e-01 -1.06716657e+00 1.49446815e-01
      5.04796505e-01 4.63390261e-01 1.09908246e-01 -6.87745273e-01
      -4.15053852e-02 -3.45101446e-01 4.96867716e-01 -1.15953073e-01
      -1.26506865e-01 -2.54928142e-01 1.30282968e-01 -4.78202701e-02
      -2.69565821e-01 -2.22479068e-02 2.79095173e-01 -4.54404764e-02
      2.60077827e-02 -3.58774066e-02 4.94193621e-02 -3.54609340e-02
      -6.04594946e-02 -1.01682872e-01 5.58780283e-02 6.73364997e-02
      -3.30104157e-02 -1.50614217e-01 4.22538929e-02 -4.72668149e-02
      -1.10893250e-02 -1.58089772e-02 2.05482412e-02 -1.08189896e-01</_>
    <_>
      1.16778754e-01 2.19611853e-01 -8.85101110e-02 -7.71954000e-01
      6.31249011e-01 -8.70122947e-03 -5.00064828e-02 -1.80158436e-01
      -2.73672700e-01 1.43790990e-01 -9.74929035e-02 -9.03141201e-02
      7.70804211e-02 2.30487004e-01 4.00113910e-01 -8.85705575e-02
      1.43865228e-01 -2.60089725e-01 9.53413472e-02 3.53914678e-01
      2.25959033e-01 -1.73241049e-02 -9.79414731e-02 -2.76768565e-01
      -3.57240975e-01 1.90401566e-04 -6.64398745e-02 -3.42749692e-02
      2.25663885e-01 -7.76581168e-02 1.92013785e-01 -3.57028097e-02
      -8.96939784e-02 -2.44958289e-02 1.40040159e-01 -1.38702154e-01</_>
    <_>
      -3.11692327e-01 8.50375116e-01 -1.10268936e-01 -3.88276875e-01
      3.72886002e-01 -6.07156493e-02 1.04473509e-01 -1.09506823e-01
      5.07865846e-02 -1.14071622e-01 2.03578603e-02 -2.61861145e-01
      -1.32999614e-01 -6.24404699e-02 5.16388528e-02 1.75786540e-02
      8.49614814e-02 8.95296782e-03 7.24630952e-02 -9.13604535e-03
      -1.05046734e-01 2.39492068e-03 -5.17663360e-02 -3.36100161e-02
      -5.63016310e-02 7.32121617e-02 1.41818114e-02 -2.70607732e-02
      7.81182200e-02 2.49953456e-02 4.64685299e-02 -2.13317499e-02
      5.70962206e-02 -2.87564788e-02 3.86681892e-02 -1.55391037e-01</_>
    <_>
      2.88872266e+00 9.75641370e-01 -2.10621748e-02 -3.78935158e-01
      -1.81238111e-02 9.15724218e-01 4.09099944e-02 -2.01098457e-01
      1.90711841e-01 -1.23263724e-01 -1.29830271e-01 -2.15330034e-01
      1.45956436e-02 1.59136772e-01 1.15732521e-01 3.68658751e-01
      3.09367537e-01 7.83427730e-02 4.87478897e-02 6.13626055e-02
      -2.04198644e-01 1.03402428e-01 1.38588086e-01 8.42679366e-02
      -1.00621849e-01 9.07515660e-02 1.45958690e-02 -5.90380840e-02
      3.65720540e-02 -7.40073472e-02 1.25683740e-01 -1.65752210e-02
      8.64874423e-02 -1.56505797e-02 -5.56064881e-02 -2.65892774e-01</_>
    <_>
      -1.08594500e-01 5.39048553e-01 -1.49787337e-01 -2.95984387e-01
      1.56231970e-01 -8.00396055e-02 1.54952511e-01 1.16200699e-02
      1.10437065e-01 -5.51324114e-02 3.47358398e-02 -3.28731894e-01
      -3.18473727e-02 -5.24711311e-02 1.87158480e-01 2.66934559e-02
      1.51877347e-02 -3.51953655e-02 1.60715997e-01 -1.36392498e-02
      -9.07139182e-02 8.78379121e-02 -4.34029549e-02 6.03371747e-02
      -5.51893935e-03 2.43309345e-02 7.87861422e-02 1.40673071e-01
      -8.85988101e-02 -5.68369590e-02 1.39641976e-02 8.95399973e-03
      -1.13573028e-02 5.16285747e-02 8.84492788e-03 -8.68990570e-02</_>
    <_>
      2.91915685e-01 8.41894522e-02 4.27048765e-02 -7.54036978e-02
      1.36175916e-01 6.63607195e-03 -1.03707295e-02 2.99155116e-02
      9.45157558e-02 -8.73045251e-02 9.02010798e-02 -1.20649323e-01
      -5.16150706e-02 -2.86339298e-02 5.82801849e-02 2.16036011e-02
      2.41757277e-02 -4.00755219e-02 8.80746692e-02 -2.86167432e-02
      -3.00996043e-02 6.38844818e-02 -3.83931473e-02 -1.94879230e-02
      -6.25429302e-02 -2.77981884e-03 2.79231425e-02 7.21971244e-02
      -1.45732230e-02 1.88503216e-03 3.50003950e-02 -1.10765314e-02
      -6.67469436e-03 8.77653435e-03 -4.45434675e-02 -1.52928397e-01</_>
    <_>
      1.79234110e-02 5.10224938e-01 -1.99430399e-02 -4.88473147e-01
      3.52448881e-01 -1.32072017e-01 1.33812889e-01 4.42211181e-02
      -2.37172022e-01 -5.79549782e-02 1.28593892e-01 -2.05231667e-01
      -1.51488796e-01 -7.77551979e-02 8.13027397e-02 6.95233466e-03
      -1.14847692e-02 9.45946276e-02 1.63708292e-02 8.80606472e-03
      -2.28256479e-01 -4.38026153e-02 8.47485214e-02 -1.35518596e-01
      -2.35976521e-02 2.78542563e-02 -2.36546621e-02 1.10288858e-01
      -7.46930093e-02 -1.24908313e-01 7.03557059e-02 -2.76045799e-02
      7.66139776e-02 3.49545851e-02 -4.17772904e-02 -8.45364928e-02</_>
    <_>
      1.55258358e+00 1.49683893e-01 6.41140997e-01 6.80145621e-01
      1.57807946e+00 -8.76224637e-01 7.70068645e-01 1.97446704e-01
      2.12032214e-01 -5.55556476e-01 2.31225491e-02 -2.03470275e-01
      -4.12657298e-02 -3.42999771e-02 2.78617680e-01 -9.68168974e-02
      -2.29002550e-01 5.25500514e-02 3.10705245e-01 3.02814692e-01
      1.97777376e-01 -6.17161915e-02 1.12811983e-01 1.06706351e-01
      -1.35089681e-01 1.38857393e-02 1.75903141e-02 2.49991775e-01
      -1.76560301e-02 -3.10116112e-02 -1.99924439e-01 -9.05032828e-02
      -1.49821835e-02 -1.47883373e-03 -3.35858483e-03 -2.11828649e-01</_>
    <_>
      -2.01951653e-01 5.86922467e-01 -1.28943801e-01 -2.55150437e-01
      5.19004464e-01 -8.43784139e-02 -2.12457161e-02 -1.89764157e-01
      1.70526177e-01 -1.00414373e-01 6.61525503e-02 -3.14802043e-02
      -9.25968289e-02 6.03786111e-02 -1.06741861e-02 -2.51285173e-02
      7.09408298e-02 9.52345058e-02 2.46955231e-02 7.07919076e-02
      -4.99266163e-02 4.38200086e-02 -1.25023484e-01 -2.21377671e-01
      9.59999487e-02 2.72837639e-01 5.28229326e-02 -1.43759161e-01
      1.48776934e-01 -1.32733006e-02 7.10962117e-02 -1.27920091e-01
      2.15968028e-01 -5.78227416e-02 4.42096628e-02 -1.11779638e-01</_>
    <_>
      -5.42209297e-02 3.87910485e-01 -5.23006991e-02 -1.62351593e-01
      1.82681158e-01 -5.87199144e-02 5.42598926e-02 -5.28974682e-02
      4.54283841e-02 -5.69789000e-02 2.59156842e-02 -1.15523562e-01
      4.32429044e-03 1.34856850e-02 3.25697996e-02 -6.42913654e-02
      -8.80225077e-02 -4.52186534e-04 7.67970607e-02 -5.91469444e-02
      -1.06155746e-01 1.64666176e-01 2.47606114e-02 -3.51754986e-02
      -1.05769113e-01 -1.96702667e-02 5.76062985e-02 1.82336066e-02
      2.30624843e-02 -1.09814648e-02 4.20772918e-02 9.17459000e-03
      -3.56721394e-02 -3.34075615e-02 -3.68258283e-02 -1.32438824e-01</_>
    <_>
      5.45488596e-01 5.62038958e-01 2.07999095e-01 -3.87307793e-01
      -2.66190559e-01 -2.50028342e-01 -2.77971089e-01 -3.05359036e-01
      -4.00438160e-03 -2.76735127e-01 -3.34533244e-01 -2.27877066e-01
      -8.02770257e-02 -1.26543362e-02 2.49423042e-01 -2.34650001e-01
      1.27185732e-01 -1.90917835e-01 -2.95637660e-02 -1.28092900e-01
      -1.45193964e-01 3.25326808e-02 1.18018970e-01 4.34098840e-02
      -1.52778793e-02 9.12888348e-02 1.20706722e-01 5.07520325e-02
      -1.99498199e-02 3.40616293e-02 8.82252399e-03 2.41606943e-02
      -4.50085551e-02 1.99361574e-02 5.56622678e-03 -1.46554679e-01</_>
    <_>
      3.91164970e+00 7.26240456e-01 -3.85050625e-01 2.82836795e-01
      1.18365610e+00 -1.46203309e-01 -2.39325259e-02 -6.29737526e-02
      1.59801066e-01 -4.78400290e-01 -1.09571986e-01 -3.87908369e-01
      -3.56117118e-04 -6.54556751e-02 7.95267448e-02 2.12226853e-01
      -8.41224045e-02 -8.54793265e-02 1.20025717e-01 2.05156386e-01
      -2.98596974e-02 1.54461578e-01 5.10360161e-03 -3.24650258e-02
      5.71011379e-03 -6.45498335e-02 -3.95044452e-03 1.27574772e-01
      -1.21883363e-01 1.82723757e-02 6.12176098e-02 -5.30178137e-02
      -9.21805203e-02 -6.28503086e-03 -4.13964950e-02 -1.36876136e-01</_>
    <_>
      1.44980299e+00 1.08613527e+00 -9.06048596e-01 -9.70108330e-01
      -1.62937760e-01 2.19115645e-01 7.26916194e-01 2.75719076e-01
      -1.02978744e-01 -1.45771369e-01 -2.56706804e-01 -2.81274796e-01
      -1.42782971e-01 -3.67417067e-01 2.38391403e-02 1.61525652e-01
      3.22728902e-01 -3.58076155e-01 1.77217588e-01 6.63583428e-02
      3.65211954e-03 -4.40217033e-02 1.81932539e-01 9.12324339e-02
      -1.38317673e-02 -6.65159971e-02 -2.12122947e-02 8.53902847e-02
      1.80713516e-02 -1.32036150e-01 -6.15989752e-02 5.02652153e-02
      4.88924421e-02 -1.54889852e-01 -6.02635704e-02 -2.77913064e-01</_>
    <_>
      -1.05023459e-01 6.53609931e-01 -8.92617181e-02 -3.51493597e-01
      3.01271945e-01 -7.70988315e-02 5.47077172e-02 -2.69419719e-02
      -5.29917143e-02 -6.59489483e-02 -2.67949402e-02 -1.07916154e-01
      -1.16004646e-01 5.84519694e-05 3.06643434e-02 -8.04649666e-02
      -1.34414677e-02 3.06169651e-02 2.42508892e-02 -5.20033240e-02
      -9.40395445e-02 2.68346313e-02 3.78522277e-02 -5.71328625e-02
      -7.11625740e-02 -4.97385859e-02 6.95455298e-02 5.42260930e-02
      9.47655272e-03 -2.03923620e-02 1.22195140e-01 -1.14289135e-01
      -3.86093818e-02 4.54000011e-02 9.39191505e-03 -1.36973828e-01</_>
    <_>
      -3.09459090e-01 6.67544007e-01 -2.10181758e-01 -3.00940424e-01
      2.52947301e-01 -1.07955389e-01 1.18023410e-01 -1.04659803e-01
      9.01752040e-02 -2.80005746e-02 1.20760696e-02 -3.55195701e-01
      -1.15414239e-01 4.29460034e-03 2.86064863e-01 -1.53852608e-02
      7.57626817e-02 3.08139939e-02 1.14836887e-01 -2.14825142e-02
      -6.96851388e-02 5.92646003e-03 -1.17818136e-02 6.72627315e-02
      -4.91394624e-02 -5.40488288e-02 3.81064564e-02 -2.62236601e-04
      -3.49195376e-02 -3.34732123e-02 6.02448545e-02 4.67019491e-02
      -5.02752587e-02 -6.95015490e-02 -1.18395291e-01 -1.27027214e-01</_>
    <_>
      2.71212071e-01 1.37106776e-01 4.92107756e-02 -1.74745008e-01
      -4.68047708e-02 -7.40320161e-02 -3.03227287e-02 -1.30223393e-01
      -6.88407272e-02 -1.36059061e-01 -1.47967145e-01 -1.72166854e-01
      -1.08403489e-02 -6.80406168e-02 7.54866451e-02 -1.08661167e-01
      5.70938960e-02 -3.73030715e-02 5.89697063e-02 -1.40420231e-03
      -6.59249574e-02 -1.09404773e-02 4.05337363e-02 -5.04937433e-02
      -8.13977718e-02 -1.30425626e-02 6.37527406e-02 3.65389436e-02
      -5.44571690e-02 3.21867280e-02 2.73221079e-02 -2.21969653e-02
      -3.72182811e-03 -2.11722739e-02 1.85210630e-02 -1.30490452e-01</_>
    <_>
      3.17037487e+00 7.69723654e-01 -8.63944173e-01 -2.80477762e-01
      2.84276366e-01 -6.35812163e-01 -3.91993672e-01 -9.72848982e-02
      2.98638754e-02 -7.67653957e-02 1.73881918e-01 -4.13695365e-01
      -5.65683916e-02 2.17107639e-01 1.97817683e-02 1.37509778e-01
      -1.07492514e-01 9.11805704e-02 4.73244525e-02 3.28471482e-01
      -7.79239535e-02 1.63719028e-01 -7.75964884e-03 1.31865948e-01
      7.08994716e-02 -1.16541155e-01 6.14725612e-02 4.32167463e-02
      1.55991036e-02 -1.84345022e-02 4.91085649e-02 -4.23995517e-02
      -9.38097201e-03 -4.87159658e-03 4.36502136e-03 -1.22698694e-01</_>
    <_>
      3.34633172e-01 -5.23584448e-02 -5.19344449e-01 -9.13652122e-01
      3.96157384e-01 6.65770397e-02 -2.33849213e-01 6.13107622e-01
      3.18228714e-02 -8.41135561e-01 3.44941050e-01 1.53156385e-01
      -1.83551326e-01 -3.23684156e-01 3.22725862e-01 1.48261022e-02
      2.06742316e-01 2.60188818e-01 -1.69507340e-01 -1.22143835e-01
      -1.58798844e-01 3.73380072e-02 2.65741367e-02 -3.70639563e-02
      6.11082390e-02 7.48567954e-02 5.10092303e-02 2.09216457e-02
      4.43452410e-02 -3.26583930e-03 1.78667847e-02 -3.38516384e-02
      -1.09265827e-01 2.43377499e-02 -1.91437814e-03 -1.50518626e-01</_>
    <_>
      1.06189668e-01 5.29901624e-01 -6.82228208e-01 -2.69978940e-01
      3.54642183e-01 -2.44995221e-01 -1.80909678e-01 2.88607150e-01
      1.90484300e-01 -1.01974756e-01 -5.55527471e-02 -4.82556224e-02
      2.30794430e-01 -5.46759479e-02 5.53366393e-02 3.14556092e-01
      1.47079825e-01 -1.04987949e-01 1.96940437e-01 -1.78912580e-01
      -6.16781935e-02 5.28807938e-02 -6.98801642e-03 -1.98781997e-01
      -8.29684585e-02 -5.17245084e-02 3.36560011e-02 -1.12875752e-01
      1.05388798e-02 -4.16629761e-02 1.83510423e-01 -2.48982292e-02
      6.80553392e-02 6.07906319e-02 1.08992361e-01 -1.72622114e-01</_>
    <_>
      6.75266147e-01 1.41357768e+00 1.34091489e-02 -6.65388107e-01
      1.00330897e-01 8.82736742e-01 -2.04474181e-01 1.60253972e-01
      -6.28425106e-02 -1.47553205e-01 -1.55052170e-02 -4.93439019e-01
      -8.33623519e-04 -3.42064142e-01 -2.95957718e-02 -4.12176579e-01
      9.41261873e-02 -8.26839637e-03 1.35787278e-01 3.52343284e-02
      1.08326010e-01 4.44892161e-02 -8.56820196e-02 -1.00064054e-01
      4.22717109e-02 5.27841449e-02 1.01603596e-02 1.65044710e-01
      -1.46014700e-02 9.64001864e-02 -4.32716915e-03 -3.03730983e-02
      -1.46134133e-02 8.75168759e-03 2.46445574e-02 -1.17841400e-01</_>
    <_>
      -3.49617809e-01 7.35402942e-01 -1.71193287e-01 -3.18388581e-01
      3.02262634e-01 -7.60487765e-02 6.65475652e-02 -9.42400917e-02
      1.70120925e-01 -7.25411996e-02 1.22405082e-01 -3.04170519e-01
      -7.18890503e-02 1.24375857e-02 1.87850267e-01 1.94053408e-02
      9.61671174e-02 1.77655201e-02 2.84637492e-02 4.71092239e-02
      -3.51458713e-02 2.84539144e-02 -3.69898565e-02 -6.29714653e-02
      -2.59518456e-02 7.52181932e-02 7.91456848e-02 -6.19682670e-02
      -7.56665645e-03 -6.12373231e-03 -3.89282592e-02 2.55429745e-02
      8.65027029e-03 2.54724268e-02 -1.93550959e-02 -1.83860943e-01</_>
    <_>
      4.28869814e-01 9.81738046e-02 -2.36748323e-01 -8.85236934e-02
      1.19616397e-01 -3.99323786e-03 3.40946838e-02 8.55755620e-03
      6.85625374e-02 -1.71775281e-01 1.69388488e-01 -4.81598563e-02
      -1.02341376e-01 -1.52876824e-01 8.54305401e-02 7.85171911e-02
      -5.92129454e-02 -9.82012600e-03 1.48311585e-01 -2.66258083e-02
      -1.00535909e-02 1.89585704e-02 -1.13533527e-01 -9.43803713e-02
      -4.95889001e-02 -1.03357469e-03 5.47608659e-02 -2.78827269e-03
      1.89066716e-02 8.39237962e-03 6.96043596e-02 4.27667350e-02
      -7.26745883e-03 3.70027758e-02 -5.76149151e-02 -1.27023235e-01</_>
    <_>
      -1.38531208e-01 7.85677969e-01 -1.83071662e-02 -5.22231460e-01
      5.68448544e-01 -1.32078603e-01 1.91548780e-01 -1.31573886e-01
      -1.96183816e-01 6.71077445e-02 -1.61064282e-01 -8.04552734e-02
      -2.49359563e-01 -2.99781989e-02 1.74501371e-02 3.58039513e-02
      1.33331224e-01 6.12845197e-02 -1.47449926e-01 4.90553565e-02
      -1.29736438e-01 -1.17822364e-01 -9.38293263e-02 -7.54696801e-02
      -7.13212118e-02 -4.86019701e-02 -5.31365769e-03 -8.59049410e-02
      -1.18593104e-01 1.59106702e-01 4.67451811e-02 -5.09687923e-02
      -7.80156776e-02 -4.87125628e-02 -6.82191029e-02 -2.03334674e-01</_>
    <_>
      2.03029418e+00 6.57881856e-01 -7.70107925e-01 -7.92196631e-01
      4.67146598e-02 -1.99449658e-01 1.14646675e-02 1.65599361e-01
      -9.73925367e-02 2.00314552e-01 9.97222140e-02 -8.06147307e-02
      -1.73061863e-01 3.85088585e-02 -8.34772810e-02 2.22991288e-01
      1.02624573e-01 -3.03160716e-02 1.19142547e-01 1.45878986e-01
      -8.97999778e-02 -1.03471443e-01 1.07104294e-01 2.69607436e-02
      -1.02719106e-01 1.78478193e-02 -2.99717882e-03 -5.40780043e-03
      1.81618091e-02 -1.67471126e-01 1.80918612e-02 -2.11493997e-03
      -9.98816043e-02 1.79048870e-02 -1.16654001e-01 -2.35468581e-01</_>
    <_>
      2.53041291e+00 2.31067076e-01 -1.19054532e+00 -1.54535562e-01
      2.42974848e-01 -2.05044001e-01 8.08791637e-01 -6.73937619e-01
      -3.36033702e-02 -8.13673437e-01 1.39635533e-01 -3.84005904e-01
      1.04488142e-01 1.70517266e-02 1.73639342e-01 5.81489541e-02
      -2.23442107e-01 -1.15147908e-03 -2.78825946e-02 -2.15683449e-02
      2.29201443e-03 -9.02390480e-02 -1.33048594e-01 -6.32028505e-02
      -1.13220051e-01 1.23780947e-02 2.76389234e-02 1.03967384e-01
      -3.08760144e-02 6.45236298e-02 -1.45720728e-02 -3.72952744e-02
      -5.71261067e-03 5.61067788e-03 1.29461512e-01 -1.83320597e-01</_>
    <_>
      4.41891462e-01 -1.16492987e+00 1.10840030e-01 -1.74702954e+00
      7.57628322e-01 1.20153397e-01 -1.16729133e-01 -4.57526445e-01
      -1.77193244e-04 4.72977370e-01 -1.26486376e-01 -7.04326689e-01
      1.73214823e-02 6.46824762e-02 -6.43776148e-04 3.30454797e-01
      -1.99323311e-01 -5.34657359e-01 8.35991442e-01 -1.88205644e-01
      -7.60820270e-01 3.59098203e-02 -2.35142395e-01 -3.69951993e-01
      1.39856473e-01 -3.40199880e-02 -1.00579606e-02 -2.22599357e-02
      1.05521142e-01 4.08773348e-02 -1.57554418e-01 -1.16484381e-01
      -1.98896185e-01 5.71768312e-03 -9.34306383e-02 -2.12608814e-01</_>
    <_>
      -1.37201855e-02 3.53868276e-01 -1.53370485e-01 -2.05126122e-01
      1.92013830e-01 -7.82305226e-02 5.76507971e-02 -2.21377350e-02
      8.32370222e-02 -2.22636815e-02 4.93463129e-02 -1.33451596e-01
      3.25169675e-02 -2.18733605e-02 1.23727217e-01 1.20771034e-02
      -3.20106298e-02 1.36470990e-02 1.19434401e-01 -4.44618007e-03
      -1.02745585e-01 1.40904412e-01 3.33448835e-02 -1.13743925e-02
      -5.91119714e-02 -2.55672503e-02 5.00086173e-02 4.74610999e-02
      -3.93844815e-03 1.44985449e-02 9.01451856e-02 2.17796024e-02
      -5.30972471e-03 -5.35625219e-02 3.06946021e-02 -1.71028644e-01</_>
    <_>
      2.19353676e-01 5.95698655e-02 -8.84426385e-03 -5.25962636e-02
      1.31918803e-01 7.40821799e-03 2.14633550e-02 9.07053053e-03
      1.05686635e-01 -4.08007875e-02 1.11889336e-02 -1.84165657e-01
      -1.83899198e-02 2.24845912e-02 7.02758878e-02 7.05148466e-03
      3.98516692e-02 -1.07921334e-02 7.29859397e-02 -1.41172844e-03
      -5.85669130e-02 4.94766533e-02 -3.18345148e-03 -3.40124816e-02
      -3.14964950e-02 2.46813260e-02 5.67672215e-02 2.51135267e-02
      -4.83383983e-03 2.65860874e-02 5.71670122e-02 2.28524255e-03
      -3.45845856e-02 2.52335072e-02 -1.44351088e-02 -1.51396975e-01</_>
    <_>
      -1.27804741e-01 6.82878435e-01 -1.92368731e-01 -3.55279386e-01
      2.37224668e-01 -2.17511028e-01 -4.70568649e-02 -1.25106480e-02
      5.91863245e-02 -1.67851627e-01 -5.44655025e-02 -3.40912223e-01
      -1.07261613e-01 6.71239570e-02 1.43617228e-01 -5.04949782e-03
      -1.16452985e-02 -4.16213740e-03 8.55114460e-02 -6.02870546e-02
      -1.40686914e-01 2.96229832e-02 -2.22890154e-02 1.47328740e-02
      -5.13331741e-02 9.35700312e-02 -4.77921627e-02 8.15047324e-02
      2.91393027e-02 -7.50094056e-02 7.58275613e-02 1.61362402e-02
      -4.60868329e-02 4.05473858e-02 4.62693535e-03 -1.67148516e-01</_>
    <_>
      2.19353676e-01 5.95698655e-02 -8.84426385e-03 -5.25962636e-02
      1.31918803e-01 7.40821799e-03 2.14633550e-02 9.07053053e-03
      1.05686635e-01 -4.08007875e-02 1.11889336e-02 -1.84165657e-01
      -1.83899198e-02 2.24845912e-02 7.02758878e-02 7.05148466e-03
      3.98516692e-02 -1.07921334e-02 7.29859397e-02 -1.41172844e-03
      -5.85669130e-02 4.94766533e-02 -3.18345148e-03 -3.40124816e-02
      -3.14964950e-02 2.46813260e-02 5.67672215e-02 2.51135267e-02
      -4.83383983e-03 2.65860874e-02 5.71670122e-02 2.28524255e-03
      -3.45845856e-02 2.52335072e-02 -1.44351088e-02 -1.51396975e-01</_>
    <_>
      7.53885657e-02 8.12781572e-01 8.83362591e-02 -5.16384780e-01
      3.67519468e-01 2.11212918e-01 -6.95748553e-02 2.08491653e-01
      -2.47027755e-01 8.98686796e-02 2.36803114e-01 -4.59712893e-01
      1.37389533e-03 -7.26749003e-03 9.96905938e-03 -5.48381507e-02
      -2.07644299e-01 1.62489906e-01 5.59782190e-03 -5.24121486e-02
      6.03834726e-02 -8.86892676e-02 1.57685563e-01 -2.63071150e-01
      4.64024805e-02 6.95916489e-02 8.12892467e-02 2.62324922e-02
      -7.11944401e-02 -5.73702455e-02 3.03212591e-02 1.53990775e-01
      1.78266037e-02 -6.03401922e-02 -4.03924426e-03 -8.92042518e-02</_>
    <_>
      6.84099197e-02 2.05231398e-01 -4.01892215e-02 -1.21666230e-01
      8.53553712e-02 -2.32188161e-02 1.00022098e-02 -4.01578844e-02
      7.98168853e-02 -3.26738469e-02 5.86306956e-03 -1.30624533e-01
      -2.13655271e-03 -1.30988937e-03 1.38580590e-01 -2.36130320e-02
      6.95465598e-03 -1.92776707e-03 1.03790633e-01 -1.49100991e-02
      -4.06853072e-02 1.00962237e-01 6.04158118e-02 -1.80106214e-03
      -5.05025350e-02 -3.94228548e-02 7.28057995e-02 3.68698388e-02
      -6.08899817e-02 1.64502580e-02 4.71536666e-02 1.93833765e-02
      2.38510408e-02 9.77104716e-03 -4.68998589e-02 -1.23012796e-01</_>
    <_>
      3.07123303e+00 8.21557641e-01 -6.64899826e-01 -1.51119262e-01
      5.18052995e-01 -2.34244958e-01 -7.52941966e-01 1.68799087e-01
      1.47607416e-01 -1.67239234e-02 -1.21460766e-01 -3.85271728e-01
      -6.66907802e-02 1.25738755e-01 -2.76334435e-02 -1.53847532e-02
      1.30030096e-01 1.59048989e-01 9.12007019e-02 1.07651912e-01
      -1.30654722e-01 1.79492652e-01 -1.86353698e-01 7.99133256e-02
      -2.45465003e-02 -1.18022554e-01 -1.86337531e-02 3.65528278e-02
      -8.56942236e-02 -1.34884357e-01 1.35377616e-01 1.59960762e-02
      -3.72529738e-02 -4.76994701e-02 3.23673561e-02 -1.51206687e-01</_>
    <_>
      1.62135199e-01 8.04678142e-01 1.76660076e-01 -4.66693699e-01
      2.41696239e-01 -9.72572118e-02 -2.02288970e-01 -8.20685849e-02
      -1.68583423e-01 -5.28498134e-03 1.00832887e-01 -3.06009859e-01
      -3.11784774e-01 8.49758461e-02 6.31558225e-02 -9.41155851e-02
      -2.16730032e-02 -4.86440323e-02 -3.96620706e-02 3.55260633e-02
      -6.07464314e-02 -9.22322646e-02 1.27702951e-01 4.25541475e-02
      -1.22119740e-01 9.37487930e-02 -1.74040552e-02 -1.76064298e-02
      6.06449768e-02 8.10168684e-02 8.89575761e-03 4.91285026e-02
      -3.17653045e-02 -4.49482836e-02 -2.22539753e-02 -1.17500469e-01</_>
    <_>
      -1.95978433e-01 4.05458748e-01 -1.30676925e-01 -1.74513862e-01
      1.46369681e-01 -1.03522003e-01 9.84027386e-02 -8.97946805e-02
      1.02164656e-01 -8.33629631e-03 2.38217395e-02 -1.53739855e-01
      3.21879168e-03 -8.44809227e-03 1.61619276e-01 1.14990091e-02
      1.51662054e-02 4.79707168e-03 1.03085406e-01 -2.68946551e-02
      -9.26826596e-02 1.51624754e-01 5.36109358e-02 -3.48649025e-02
      -4.99852821e-02 -1.00856163e-01 4.08375822e-02 3.38074639e-02
      -1.88188218e-02 -2.54736259e-03 8.15314241e-03 1.75764645e-03
      8.84443428e-03 -2.80174892e-02 -6.64331242e-02 -1.00749418e-01</_>
    <_>
      -3.73222083e-01 8.66802514e-01 -1.62231132e-01 -3.16006005e-01
      3.27563554e-01 -1.03961982e-01 5.64942174e-02 -1.01786472e-01
      9.96980369e-02 -1.60767987e-01 9.68805403e-02 -4.18461829e-01
      -1.58984601e-01 -1.15791326e-02 5.79985455e-02 -1.06896520e-01
      -3.69728096e-02 7.87605066e-03 4.75858264e-02 -1.19214365e-02
      -7.65807331e-02 1.16360769e-01 -3.46734449e-02 -1.70874055e-02
      -5.07663377e-02 1.36447981e-01 -5.30533642e-02 -6.02303892e-02
      -2.22176071e-02 -4.75465767e-02 1.31371189e-02 6.34042965e-03
      -8.01079720e-02 -6.03867695e-02 -6.20326512e-02 -1.83292001e-01</_>
    <_>
      6.53437078e-02 1.90565228e-01 -3.96091454e-02 -1.39226720e-01
      9.26913396e-02 -2.76390202e-02 1.37420772e-02 -4.38307412e-02
      7.07316622e-02 -4.89833616e-02 8.48597288e-03 -1.34103298e-01
      1.40430005e-02 -2.91367061e-02 1.18026309e-01 -4.04087976e-02
      8.60365853e-03 -4.92421398e-03 8.91847163e-02 -2.80263685e-02
      -3.52181904e-02 1.10613041e-01 5.85922748e-02 -1.23558035e-02
      -5.01463078e-02 -3.75929624e-02 5.95443621e-02 3.11335512e-02
      -4.86504659e-02 3.45442034e-02 5.03396690e-02 5.88793727e-03
      9.98947676e-03 1.85179617e-02 -4.86797690e-02 -1.48300841e-01</_>
    <_>
      -4.10512209e-01 9.21202481e-01 -4.41073060e-01 -4.47992623e-01
      3.29327404e-01 -1.93772554e-01 1.39351919e-01 9.42621902e-02
      2.07673788e-01 -4.54075783e-02 -5.69215715e-02 -3.46887678e-01
      -1.08652316e-01 1.32795358e-02 2.54971683e-01 1.67502925e-01
      9.08278897e-02 -6.57133535e-02 1.71769857e-01 -1.33310378e-01
      3.30375731e-02 1.53528139e-01 -4.02739234e-02 2.64918637e-02
      5.38896620e-02 4.76445965e-02 2.47914761e-01 -1.67692304e-02
      5.50099947e-02 -1.89369142e-01 3.26674394e-02 2.40128278e-03
      -5.78380711e-02 7.19462335e-03 3.48831154e-02 -1.43182486e-01</_>
    <_>
      -3.62328738e-01 6.89131737e-01 -1.16386876e-01 -2.78056562e-01
      2.79989719e-01 -1.19153455e-01 8.90311375e-02 -9.46803838e-02
      1.84668884e-01 -3.60129066e-02 1.16544507e-01 -2.62776256e-01
      -8.89504105e-02 -5.73541522e-02 8.20364654e-02 2.34199539e-02
      3.83157171e-02 7.83379897e-02 4.87139747e-02 -3.84224532e-03
      -1.22963838e-01 1.44986913e-01 1.35544864e-02 -1.19708762e-01
      -8.82420409e-03 5.52411117e-02 6.38930872e-02 2.84804706e-03
      4.97583672e-02 4.27700356e-02 7.58051574e-02 3.81066613e-02
      -4.68208976e-02 -4.92860526e-02 -5.26623754e-03 -1.67113036e-01</_>
    <_>
      2.11142048e-01 6.19541816e-02 -5.48409112e-03 -4.27887328e-02
      1.42251372e-01 2.02928204e-02 1.97819117e-02 8.81533511e-03
      9.13297683e-02 -8.61447155e-02 3.90442871e-02 -1.82987258e-01
      -8.02387018e-03 1.56448968e-02 1.10066526e-01 5.18172374e-03
      1.41123403e-02 -1.94457043e-02 5.82075007e-02 -1.07503645e-02
      -6.59131855e-02 5.65560348e-02 9.94963106e-03 -2.98292320e-02
      -2.88199428e-02 2.31408980e-02 7.45384619e-02 4.05251160e-02
      -1.72140170e-02 2.17936784e-02 4.88833226e-02 -1.81881580e-04
      -8.27714894e-03 2.30359323e-02 -2.97780288e-03 -1.79418027e-01</_>
    <_>
      3.87254134e-02 5.63157201e-01 -2.62996495e-01 -2.81795621e-01
      3.02513361e-01 -1.11396812e-01 1.24414228e-01 -2.06544146e-01
      -1.06265098e-01 -5.99131882e-02 -1.16160490e-01 -1.28557459e-01
      -3.26336804e-03 -1.00781200e-02 1.44939914e-01 8.99683163e-02
      -1.05299823e-01 -9.34022218e-02 4.05944958e-02 -1.01644665e-01
      -1.43882213e-02 1.41848385e-01 -4.06844961e-03 1.02349579e-01
      -3.25431339e-02 -4.14619409e-02 1.19348103e-02 5.54412715e-02
      3.73030640e-02 4.27035950e-02 4.24615815e-02 -5.35936542e-02
      -1.05063707e-01 7.40547180e-02 6.22122064e-02 -1.88615277e-01</_>
    <_>
      2.69859582e-01 8.73868391e-02 1.03977695e-02 -8.02002251e-02
      1.49297684e-01 1.91939510e-02 8.89076944e-03 2.16617938e-02
      7.87900165e-02 -1.08680464e-01 9.89986882e-02 -1.53371528e-01
      -4.21188250e-02 -2.67667677e-02 8.65985453e-02 3.14369379e-03
      5.50829656e-02 -1.30889229e-02 7.84465447e-02 -9.47747286e-03
      -5.34358770e-02 7.22155496e-02 -4.83465269e-02 2.98009277e-03
      -7.33725578e-02 9.64169577e-03 2.49692239e-02 5.52588701e-02
      -1.75586361e-02 -1.09941680e-02 3.27440239e-02 3.49590043e-03
      -3.73105519e-03 3.31510976e-02 -5.64288907e-02 -1.57476142e-01</_>
    <_>
      9.97911915e-02 5.30895770e-01 1.22595495e-02 -5.15757024e-01
      3.41776282e-01 -1.64080501e-01 1.80125117e-01 3.05186608e-03
      -2.10339367e-01 -4.57799286e-02 5.43479845e-02 -2.43840128e-01
      -1.33947179e-01 -9.40619260e-02 1.07164055e-01 -7.08289305e-03
      4.72161919e-03 1.16164915e-01 3.03729437e-02 9.05007776e-03
      -2.14436069e-01 -9.93456990e-02 1.08977340e-01 -1.82290241e-01
      3.37665863e-02 7.92665780e-02 -6.74921880e-03 1.52733907e-01
      -2.60482170e-02 -1.05413124e-01 1.08213156e-01 2.79157683e-02
      5.91717288e-02 5.58391251e-02 -2.86646909e-03 -3.81009541e-02</_>
    <_>
      4.21630055e-01 2.36599132e-01 1.14298381e-01 -1.96677774e-01
      -1.04712909e-02 -3.10013406e-02 7.73575678e-02 -2.97293782e-01
      -3.73573638e-02 -1.80093452e-01 7.67078474e-02 -2.63763934e-01
      5.48730232e-02 -1.00080147e-01 -1.76765360e-02 -7.65788718e-04
      1.05851017e-01 3.38884667e-02 3.83279026e-02 1.75791264e-01
      -5.37600517e-02 4.16715182e-02 -9.70916525e-02 -1.90353647e-01
      2.48008482e-02 4.28583734e-02 9.01461318e-02 -7.27919638e-02
      5.86262420e-02 1.83437783e-02 9.41403732e-02 1.33839585e-02
      -4.14489992e-02 6.05789796e-02 -8.38633105e-02 -1.85589656e-01</_>
    <_>
      -4.15177077e-01 8.60887051e-01 -1.47502452e-01 -3.03560525e-01
      1.95401743e-01 -3.04589476e-02 5.26173413e-02 -5.57516292e-02
      1.60084978e-01 -1.71882197e-01 1.91891238e-01 -3.62973720e-01
      -6.04767203e-02 2.67236158e-02 1.05210580e-01 -2.46002246e-03
      1.91001613e-02 -2.21909378e-02 6.15173876e-02 4.08407338e-02
      -2.56934632e-02 9.47690830e-02 -1.92587115e-02 -1.40240088e-01
      -1.05285168e-01 2.22002417e-02 8.31409637e-03 3.76468226e-02
      -6.56241849e-02 -1.10453321e-02 -5.58574162e-02 8.81150141e-02
      2.61619780e-02 4.03171703e-02 -5.56847118e-02 -1.42453700e-01</_>
    <_>
      -7.97156394e-02 3.23241174e-01 -1.74701184e-01 -1.03821792e-01
      2.15253055e-01 -6.19639568e-02 7.79534131e-02 -6.96603805e-02
      1.99980423e-01 -3.92442197e-02 8.75440985e-02 -2.15248615e-01
      -6.77816719e-02 2.30618715e-02 2.16962785e-01 5.59030510e-02
      5.70281632e-02 6.31933147e-03 7.46574951e-03 -6.45065233e-02
      -9.91571024e-02 1.25832215e-01 3.30558680e-02 -1.20559141e-01
      1.03313215e-02 1.84886288e-02 6.87695295e-02 -3.24054323e-02
      1.77439824e-02 1.67240389e-02 7.40469620e-02 -7.21919537e-02
      -8.21039174e-03 1.29033094e-02 5.28764240e-02 -2.01167390e-01</_>
    <_>
      -9.77361500e-02 4.01171148e-01 -5.06729931e-02 -2.03198344e-01
      2.03801408e-01 -4.64326069e-02 8.27730522e-02 -6.85301274e-02
      3.98831926e-02 -3.98838371e-02 4.60316092e-02 -1.13324828e-01
      -1.31110651e-02 1.51423505e-02 2.18108222e-02 -5.93213215e-02
      -7.98420012e-02 1.94151315e-03 4.27301861e-02 -8.28759447e-02
      -1.02905616e-01 1.90934777e-01 5.22165261e-02 -4.93432060e-02
      -1.10815689e-01 1.76982488e-02 8.04992318e-02 3.79142836e-02
      5.93030602e-02 -1.55013921e-02 -6.76193228e-03 -1.24988006e-02
      -3.51841971e-02 -3.86595838e-02 -2.68239584e-02 -1.19304828e-01</_>
    <_>
      -2.04774529e-01 -1.58083975e-01 1.84961528e-01 -1.13463092e+00
      8.06074560e-01 3.40333432e-01 1.08085563e-02 7.21615791e-01
      -1.61707795e+00 -7.39129722e-01 4.94492769e-01 -6.77934110e-01
      2.15357259e-01 4.59040701e-01 5.33000410e-01 -1.19658232e-01
      1.57112822e-01 -1.71577126e-01 3.79658878e-01 -5.35374917e-02
      -1.37304127e-01 3.04697454e-01 2.67092362e-02 1.33672342e-01
      -6.96941763e-02 -9.47758183e-02 1.25733048e-01 -1.81907579e-01
      4.73508686e-02 7.08278343e-02 7.02661425e-02 5.00309467e-03
      7.29603618e-02 8.24362133e-03 -7.14776963e-02 -2.14045897e-01</_>
    <_>
      2.42737126e+00 5.88063419e-01 3.74765515e-01 9.30792186e-04
      6.59511983e-01 -2.06715360e-01 2.63548136e-01 -4.19271353e-04
      1.34118706e-01 -3.74028087e-01 -3.31494600e-01 -4.10040408e-01
      2.45228469e-01 -2.85090774e-01 2.76079535e-01 -1.71893239e-01
      -1.25637755e-01 2.76035726e-01 1.59078091e-01 7.86796138e-02
      3.77836339e-02 -1.76303968e-01 3.19823265e-01 -4.16412093e-02
      -1.31528676e-01 7.05938488e-02 8.61392170e-02 -5.73407300e-02
      1.29061550e-01 -1.37296036e-01 -1.02923776e-04 -4.97719310e-02
      5.62990494e-02 8.87107551e-02 -1.41470417e-01 -2.48304337e-01</_>
    <_>
      2.78321773e-01 2.54512969e-02 7.16684619e-03 -8.79629105e-02
      1.61941245e-01 5.29686571e-04 4.19480875e-02 8.80355686e-02
      1.06736846e-01 -9.52590853e-02 7.56414235e-02 -2.07646966e-01
      -2.53806021e-02 -1.39530124e-02 9.29990038e-02 -5.95939718e-03
      5.00339270e-03 2.81038741e-03 1.47586331e-01 -4.02329825e-02
      -7.28857517e-02 5.18765077e-02 -9.07576643e-03 3.78628820e-02
      -1.77244842e-02 8.46303534e-03 7.17425644e-02 1.94051545e-02
      -2.18300931e-02 -1.72381802e-03 3.28297727e-02 -1.90788899e-02
      -3.19718532e-02 -1.93170365e-02 -7.45174512e-02 -1.56353965e-01</_>
    <_>
      8.22128594e-01 1.29650518e-01 3.76605168e-02 -4.58539218e-01
      -1.49499131e-02 2.21982365e-03 4.95258600e-01 -5.14395609e-02
      -2.38959938e-01 -1.14892051e-01 1.11516401e-01 -2.67062068e-01
      5.29686064e-02 2.94993203e-02 7.22358897e-02 -8.24280679e-02
      -4.31006365e-02 1.33335835e-03 9.74595547e-02 4.89055924e-02
      -2.58327603e-01 -7.72984372e-03 -1.64355353e-01 -1.10419095e-01
      2.64257360e-02 2.16455031e-02 1.80843189e-01 4.27392796e-02
      1.10545056e-02 3.75422500e-02 -1.43220962e-03 -9.29036662e-02
      9.69774053e-02 -1.02420326e-03 -3.98124568e-02 -2.23541424e-01</_>
    <_>
      -6.80344179e-02 3.68782490e-01 7.65274279e-03 -1.86270952e-01
      3.07051484e-02 -1.58517823e-01 5.41803911e-02 5.51454723e-03
      3.44320945e-02 -7.06811994e-02 6.75434247e-02 -2.49266610e-01
      -2.46913601e-02 8.19027075e-04 1.34640232e-01 -1.53301880e-02
      -1.18977316e-01 -1.83286853e-02 1.39519840e-01 -1.12787701e-01
      -1.47607550e-01 2.23533303e-01 1.32581979e-01 -3.53637226e-02
      -6.78039491e-02 4.21021180e-03 -1.29669636e-01 1.01603746e-01
      -4.18752106e-03 1.14974761e-02 3.76774445e-02 -1.20769916e-02
      1.40007706e-02 -7.68754333e-02 -3.20463590e-02 -1.11177504e-01</_>
    <_>
      -1.44886881e-01 5.09043992e-01 -1.98644832e-01 -2.50507146e-01
      2.57797271e-01 -1.01837121e-01 8.19203183e-02 -1.09477118e-01
      5.41260913e-02 1.10949704e-03 2.81609781e-02 -3.44494283e-01
      -1.31220549e-01 -5.73407821e-02 3.17773968e-01 9.96916369e-02
      6.96943849e-02 1.71438139e-02 2.97044516e-02 1.93642396e-02
      -7.96844885e-02 -2.17331666e-02 1.20803341e-02 -5.62005714e-02
      -2.88001690e-02 2.55676284e-02 6.65620863e-02 6.57648891e-02
      4.19268794e-02 1.18634580e-02 6.44714832e-02 1.10655755e-01
      -8.56306329e-02 -8.61862153e-02 -1.68504175e-02 -9.75734070e-02</_>
    <_>
      -1.68919504e-01 7.54058242e-01 -5.31908721e-02 -4.64414507e-01
      4.23864216e-01 -4.99223359e-02 2.00469837e-01 -1.36479527e-01
      -1.37223095e-01 -6.62437826e-02 1.30790457e-01 -1.98112637e-01
      -2.81806886e-01 -2.02814490e-01 -2.60615461e-02 -1.85298882e-02
      9.34180543e-02 1.50174983e-02 -5.88332824e-02 5.79089969e-02
      -1.19050361e-01 -9.81169865e-02 -1.73199192e-01 -1.33129537e-01
      -1.97256401e-01 -5.23932874e-02 1.87930927e-01 6.27862364e-02
      -1.00176530e-02 -7.31571764e-02 7.31314868e-02 6.62228465e-02
      1.79671962e-02 1.19477011e-01 7.25941509e-02 -2.40867957e-01</_>
    <_>
      1.19144797e+00 8.62507582e-01 7.74839640e-01 -3.01289231e-01
      2.44657084e-01 8.17979276e-01 -2.83379674e-01 -1.57706123e-02
      3.86925265e-02 -6.36248440e-02 -4.20366853e-01 -5.27063906e-01
      1.78192079e-01 -5.16258299e-01 7.81820808e-03 -1.02945961e-01
      -1.71802752e-02 2.64156789e-01 2.04227820e-01 7.65322288e-03
      -1.10882260e-01 -4.98642474e-02 4.89106923e-02 4.89505678e-02
      -1.74857929e-01 -1.40585443e-02 6.09221384e-02 -1.33868352e-01
      2.42557563e-03 -1.08169138e-01 9.08412412e-02 -1.31544247e-01
      -3.65509503e-02 -4.14900631e-02 1.00635275e-01 -8.75628665e-02</_>
    <_>
      3.33286464e-01 -1.58040509e-01 6.64575621e-02 -6.02565743e-02
      6.51735514e-02 5.72062396e-02 -1.93720926e-02 1.98774323e-01
      9.92049724e-02 -1.31914109e-01 3.30376183e-03 -7.50501007e-02
      -4.20575999e-02 -1.21034786e-01 2.33731735e-02 7.77995735e-02
      7.82294851e-03 -5.08664511e-02 1.36425450e-01 -1.11883573e-01
      4.86894287e-02 5.73620833e-02 -1.34221151e-01 -9.87472944e-04
      -2.61426996e-02 1.43877661e-03 1.76690981e-01 6.44347146e-02
      8.14885199e-02 3.21208611e-02 1.36729674e-02 5.24294004e-02
      -3.87225151e-02 3.36522460e-02 2.57291198e-02 -1.97058856e-01</_>
    <_>
      3.57137710e-01 1.45391211e-01 -2.29873344e-01 -1.16722032e-01
      1.08499929e-01 -4.89767408e-03 1.67295393e-02 3.39207724e-02
      8.63920599e-02 -1.92679420e-01 1.54469118e-01 -3.90080996e-02
      -1.18288755e-01 -1.45780727e-01 1.11750267e-01 9.63566750e-02
      -3.83944511e-02 -1.69312302e-02 1.48473278e-01 -3.95659953e-02
      1.38295209e-02 2.65878253e-02 -1.25185311e-01 -1.54788688e-01
      -6.38804212e-02 1.79250315e-02 4.88111489e-02 1.75477304e-02
      -3.82699296e-02 7.03467801e-03 5.09866811e-02 1.29607376e-02
      2.43511479e-02 2.29885057e-02 -5.22170216e-02 -1.31445691e-01</_>
    <_>
      -1.64150372e-01 5.37324786e-01 -2.48388574e-01 -3.46809775e-01
      4.55493122e-01 -8.01828876e-02 1.63392827e-01 -1.11876791e-02
      6.30944595e-02 -6.28044978e-02 -1.24595910e-01 -1.44255757e-01
      -1.58789963e-01 -4.41925367e-04 1.57612175e-01 -1.25807539e-01
      6.51525259e-02 2.99832062e-03 6.95609897e-02 2.24552080e-02
      -1.16931558e-01 -6.21446408e-02 -2.53490657e-01 1.28775537e-01
      9.72680375e-02 1.27479270e-01 1.04433559e-01 -1.86443657e-01
      -1.33489758e-01 -1.19174547e-01 1.37755275e-01 -5.91421984e-02
      6.43140674e-02 6.30486533e-02 -2.38996744e-02 -2.97851503e-01</_>
    <_>
      -4.55765158e-01 1.06592798e+00 -1.18385620e-01 -4.01053667e-01
      2.99722254e-01 -9.30427387e-03 2.81117186e-02 5.53823262e-03
      1.49219260e-01 -2.67658681e-01 1.29029557e-01 -1.88876361e-01
      2.68970281e-02 3.74704450e-02 -7.00489953e-02 2.26744600e-02
      5.32848462e-02 -1.07150882e-01 9.64213610e-02 -1.26412418e-02
      -6.89216778e-02 -7.09177852e-02 -2.62952019e-02 -6.47778511e-02
      -1.06173329e-01 -2.10824851e-02 4.23486345e-02 7.33326823e-02
      2.13453099e-02 6.32585362e-02 -3.49620394e-02 2.40156036e-02
      7.81813934e-02 6.74443506e-03 -5.75983077e-02 -1.39767349e-01</_>
    <_>
      -3.36253703e-01 6.96819246e-01 -1.16737105e-01 -2.89310604e-01
      2.62683898e-01 -7.49748424e-02 5.60315959e-02 -6.65881485e-02
      1.22186139e-01 -9.98042673e-02 8.41298625e-02 -1.68643177e-01
      -6.46034852e-02 1.58922770e-03 4.26106602e-02 -7.58018345e-02
      -2.71529313e-02 3.49798333e-03 9.61434990e-02 -1.78038087e-02
      -7.58235678e-02 1.79087684e-01 5.72863873e-03 -4.18278277e-02
      -4.97354642e-02 8.44426751e-02 7.16838166e-02 9.77808144e-03
      -6.70255115e-03 -6.83234707e-02 3.75644043e-02 2.24615168e-02
      -2.86354925e-02 -1.17061650e-02 -2.10577678e-02 -1.33645937e-01</_>
    <_>
      -7.30467290e-02 6.47846341e-01 -2.15894639e-01 -4.18867528e-01
      2.41577998e-01 -6.32779822e-02 1.61332458e-01 -5.44385659e-03
      4.88988757e-02 -9.42017213e-02 -7.76026165e-03 -2.61954337e-01
      -2.60001291e-02 -8.49366561e-02 9.73417312e-02 2.05362705e-03
      1.92683954e-02 -1.05568521e-01 1.17896654e-01 -5.04420437e-02
      -1.48523189e-02 3.98832373e-02 -1.05596229e-01 -1.60449594e-02
      -1.78331397e-02 1.00066058e-01 1.85461015e-01 6.61992729e-02
      -3.04716509e-02 -1.17041938e-01 6.13336898e-02 6.22729473e-02
      5.82835488e-02 1.08225942e-02 -1.67529080e-02 -1.23238020e-01</_>
    <_>
      4.62244675e-02 4.29895431e-01 -2.05977052e-01 -2.87213117e-01
      5.45493998e-02 -7.32372701e-02 2.96094745e-01 7.38873631e-02
      9.21727717e-02 -6.57079145e-02 3.45305949e-02 -1.54812425e-01
      -1.01381980e-01 -6.98484108e-02 1.86732247e-01 -1.37229949e-01
      -1.36042014e-01 -1.03437699e-01 1.05685797e-02 -1.00733444e-01
      -1.90267906e-01 1.59957737e-01 -4.24366146e-02 3.65742855e-02
      -7.99238756e-02 -4.54127230e-02 -2.63271686e-02 2.58089136e-02
      -6.43040705e-03 -4.72174101e-02 5.15049249e-02 -4.36578281e-02
      -8.98339227e-03 -2.78682727e-02 -2.83408212e-03 -1.72048390e-01</_>
    <_>
      2.01858640e-01 7.65987709e-02 -7.49086263e-03 -5.00406586e-02
      1.54288992e-01 7.49439560e-03 2.21352819e-02 -6.51932904e-04
      1.07475318e-01 -8.26165974e-02 2.68432964e-02 -1.84507579e-01
      -3.78524326e-02 1.13567272e-02 8.87549371e-02 1.60903540e-02
      -3.56924185e-03 -2.84845456e-02 5.16988449e-02 -1.59959868e-02
      -7.14371502e-02 5.53826205e-02 1.34336785e-03 -1.62836164e-02
      -3.81021686e-02 3.50994952e-02 7.62749016e-02 5.28062470e-02
      -5.49389608e-03 5.52361384e-02 6.04143888e-02 -2.42065247e-02
      -2.82135513e-03 2.12902203e-02 -3.48768421e-02 -1.55486673e-01</_>
    <_>
      7.08466545e-02 2.16551602e-01 -5.57946786e-02 -1.20770268e-01
      7.20060766e-02 -2.10722014e-02 3.67979258e-02 -7.54713193e-02
      8.42059478e-02 -2.38888059e-02 -4.07018419e-03 -1.16315402e-01
      1.64050853e-03 -1.09487539e-02 1.47654429e-01 -2.43752450e-02
      8.06555245e-03 -1.04649011e-02 8.98584649e-02 -1.48224169e-02
      -4.38880809e-02 1.17907405e-01 4.89973687e-02 -1.76629592e-02
      -5.51106147e-02 -5.07306196e-02 6.46828189e-02 2.37631742e-02
      -6.41848519e-02 1.52962394e-02 2.96737123e-02 2.73546167e-02
      1.28240287e-02 2.06593610e-02 -6.67783767e-02 -1.02168307e-01</_>
    <_>
      -5.93970776e-01 1.32207549e+00 -3.57547313e-01 -5.08778334e-01
      6.35333002e-01 -1.36583120e-01 3.36418092e-01 -2.29750738e-01
      -1.29889086e-01 -7.80854672e-02 -8.71166140e-02 -4.60967749e-01
      -5.59338570e-01 -9.83160287e-02 -1.16648443e-01 -6.23249188e-02
      2.64281571e-01 1.57422990e-01 -9.82786044e-02 1.57638013e-01
      -1.46069825e-02 1.68718118e-02 -2.71776468e-01 3.69183645e-02
      -9.68618020e-02 -5.56009542e-03 -3.27034947e-03 -1.87246010e-01
      -1.20324679e-01 7.32088462e-02 5.74704818e-02 -2.62224495e-01
      9.55553353e-02 1.80260375e-01 -1.81776673e-01 -2.31029510e-01</_>
    <_>
      -2.94463873e-01 7.12581038e-01 -7.17777386e-02 -2.81301916e-01
      1.84313834e-01 1.20171551e-02 -1.99523922e-02 -5.04808314e-03
      9.21243951e-02 -2.07750171e-01 1.65587619e-01 -2.12260365e-01
      3.71648464e-03 6.26518503e-02 -8.63859951e-02 -8.68182406e-02
      -7.70252272e-02 -4.53437530e-02 6.00239597e-02 4.78777178e-02
      -6.45492747e-02 1.26771703e-01 2.59571951e-02 -5.77525981e-02
      -1.20843999e-01 6.59174770e-02 3.79943848e-02 1.57567132e-02
      2.49603507e-03 6.19479269e-02 -2.48210728e-02 3.58378440e-02
      -3.16472352e-02 2.74480525e-02 -9.40665901e-02 -1.57225206e-01</_>
    <_>
      -5.08894563e-01 1.12495971e+00 -3.08156431e-01 -4.02984262e-01
      3.34584922e-01 -1.02165818e-01 1.78560063e-01 -6.52917400e-02
      1.11177966e-01 -3.72129008e-02 7.65691996e-02 -2.79989541e-01
      -5.05925231e-02 -4.00858633e-02 2.20754221e-01 2.77971067e-02
      4.68842760e-02 -1.93787515e-02 7.58373812e-02 -2.24624816e-02
      -3.74464616e-02 8.66458938e-02 -2.99827941e-02 1.98007431e-02
      8.69471766e-03 4.69703637e-02 1.09230643e-02 3.56667265e-02
      -3.81888385e-04 1.57537162e-02 6.24978589e-03 -2.05836666e-04
      2.40707193e-02 3.35946982e-03 -3.41023467e-02 -1.35115162e-01</_>
    <_>
      -8.21804702e-02 3.97917330e-01 -2.38678187e-01 -1.35103062e-01
      3.87355924e-01 -3.86124030e-02 9.75979641e-02 -1.03019729e-01
      2.30761945e-01 -9.99468863e-02 -4.61831428e-02 -8.83467570e-02
      3.26522104e-02 -6.47376776e-02 1.78921983e-01 -2.83760279e-02
      1.16518855e-01 -5.11903279e-02 1.66756555e-01 -7.94766769e-02
      -4.51023951e-02 1.23285383e-01 -2.83698663e-02 1.00235075e-01
      1.07536606e-01 -7.11740479e-02 1.28622308e-01 -9.54205543e-02
      6.40626848e-02 3.56867313e-02 7.03657195e-02 -4.09880430e-02
      -4.84411232e-02 5.49346842e-05 -4.99989428e-02 -1.91076115e-01</_>
    <_>
      2.23239446e+00 4.94346529e-01 -6.43384278e-01 -3.74142915e-01
      2.04943210e-01 5.96378744e-01 6.57448232e-01 8.68316948e-01
      4.71859157e-01 1.72847688e-01 -1.99921429e-01 -2.47923270e-01
      -7.10635483e-02 -1.61604024e-02 -5.12826853e-02 7.48718455e-02
      -2.33713523e-01 1.02344036e-01 5.82826883e-02 1.42634034e-01
      -6.40830770e-02 1.12913996e-01 5.83781153e-02 -1.62641898e-01
      -7.01338798e-03 6.02058880e-02 6.69752657e-02 -1.32299587e-01
      2.24276662e-01 1.55354708e-01 7.71722421e-02 1.97107643e-01
      -1.09445937e-01 1.07799329e-01 -3.45642567e-02 -2.98750196e-02</_>
    <_>
      -2.17083424e-01 6.38373971e-01 -1.51228815e-01 -2.92753130e-01
      2.90077627e-01 -5.67242615e-02 5.71714938e-02 -3.56963351e-02
      1.00977227e-01 -9.41950455e-02 3.90027761e-02 -3.21388245e-01
      -7.98889846e-02 4.49774638e-02 1.36378273e-01 4.34124097e-02
      5.58699295e-02 -2.42343266e-02 3.67145240e-02 2.04220191e-02
      -9.61091518e-02 -4.05659042e-02 2.80488562e-02 -5.02224453e-02
      -3.37921865e-02 5.64806908e-02 3.41471843e-02 -7.83368498e-02
      -6.65061921e-02 2.46824250e-02 9.86765102e-02 -4.63432036e-02
      -5.84587716e-02 -6.66271970e-02 -2.14862116e-02 -1.10070653e-01</_>
    <_>
      2.97411203e-01 7.43332133e-02 3.72309089e-02 -6.68078139e-02
      1.40236363e-01 3.20670344e-02 -1.62635539e-02 5.42389089e-03
      9.27986428e-02 -8.96441862e-02 6.91166446e-02 -1.21713564e-01
      -6.11022227e-02 -1.25863813e-02 5.07914573e-02 1.34257954e-02
      1.17343916e-02 -3.11830081e-02 8.08600336e-02 -2.97029261e-02
      -7.15529248e-02 5.96396402e-02 -2.96558812e-02 -8.39242060e-03
      -4.70340624e-02 8.34639464e-03 1.96137410e-02 4.72004488e-02
      4.22143703e-03 2.75800168e-03 2.37873234e-02 6.99626328e-03
      -1.76233202e-02 3.27349529e-02 -3.95093746e-02 -1.61456004e-01</_>
    <_>
      9.97911915e-02 5.30895770e-01 1.22595495e-02 -5.15757024e-01
      3.41776282e-01 -1.64080501e-01 1.80125117e-01 3.05186608e-03
      -2.10339367e-01 -4.57799286e-02 5.43479845e-02 -2.43840128e-01
      -1.33947179e-01 -9.40619260e-02 1.07164055e-01 -7.08289305e-03
      4.72161919e-03 1.16164915e-01 3.03729437e-02 9.05007776e-03
      -2.14436069e-01 -9.93456990e-02 1.08977340e-01 -1.82290241e-01
      3.37665863e-02 7.92665780e-02 -6.74921880e-03 1.52733907e-01
      -2.60482170e-02 -1.05413124e-01 1.08213156e-01 2.79157683e-02
      5.91717288e-02 5.58391251e-02 -2.86646909e-03 -3.81009541e-02</_>
    <_>
      -9.77361500e-02 4.01171148e-01 -5.06729931e-02 -2.03198344e-01
      2.03801408e-01 -4.64326069e-02 8.27730522e-02 -6.85301274e-02
      3.98831926e-02 -3.98838371e-02 4.60316092e-02 -1.13324828e-01
      -1.31110651e-02 1.51423505e-02 2.18108222e-02 -5.93213215e-02
      -7.98420012e-02 1.94151315e-03 4.27301861e-02 -8.28759447e-02
      -1.02905616e-01 1.90934777e-01 5.22165261e-02 -4.93432060e-02
      -1.10815689e-01 1.76982488e-02 8.04992318e-02 3.79142836e-02
      5.93030602e-02 -1.55013921e-02 -6.76193228e-03 -1.24988006e-02
      -3.51841971e-02 -3.86595838e-02 -2.68239584e-02 -1.19304828e-01</_>
    <_>
      -1.73653722e-01 6.46029472e-01 -3.18424851e-01 -2.39403635e-01
      2.10778892e-01 -7.38404170e-02 3.92141677e-02 -1.04150891e-01
      2.24176273e-01 -3.92750800e-02 1.26750559e-01 -4.01549399e-01
      7.46100768e-02 1.04326233e-01 3.55930150e-01 3.29399258e-02
      8.67614448e-02 -6.65388927e-02 3.44840251e-02 -4.34245989e-02
      -1.01400070e-01 -2.19161063e-02 5.69506586e-02 -1.07941717e-01
      -3.40372324e-02 -9.96646658e-02 -7.52542838e-02 3.59118432e-02
      -1.10714845e-02 -1.91749379e-01 -4.55856398e-02 6.79069106e-03
      2.83244308e-02 -2.77077090e-02 -9.62511674e-02 -1.26190707e-01</_>
    <_>
      -2.45833859e-01 5.51555991e-01 -1.06511824e-01 -2.40464702e-01
      1.13852315e-01 -5.39495610e-02 3.14215422e-02 2.12763753e-02
      4.33415212e-02 -8.37003440e-02 1.20955929e-01 -2.42644638e-01
      -1.09051205e-02 4.09113057e-02 9.84907523e-02 -6.58969255e-03
      -8.75299200e-02 -1.54096261e-02 8.03229138e-02 -3.40265371e-02
      -1.03523031e-01 1.04277715e-01 6.06766902e-02 -3.91042829e-02
      -4.28073592e-02 1.48376962e-02 -1.78381745e-02 4.60060649e-02
      -7.37664551e-02 2.63723964e-03 5.45150116e-02 2.08670702e-02
      -2.76443604e-02 9.00007493e-04 -1.27606671e-02 -1.45232663e-01</_>
    <_>
      7.54032016e-01 2.46192738e-01 -7.68960416e-02 -6.25546455e-01
      2.50777543e-01 8.25387985e-02 2.85194904e-01 4.95579839e-02
      -2.38529071e-01 -2.36116704e-02 -1.82264432e-01 -1.77452341e-01
      -6.06488995e-02 -7.76580125e-02 -2.00513288e-01 1.34181693e-01
      1.05273820e-01 -7.66183287e-02 9.26866010e-02 7.94256404e-02
      -2.17502668e-01 2.02153474e-02 -5.58852255e-02 -1.44115850e-01
      4.80652638e-02 7.96322674e-02 8.60606432e-02 5.81247024e-02
      1.10473864e-01 -2.30438728e-02 -5.28079122e-02 -2.58108824e-01
      2.21111000e-01 6.75467327e-02 -1.15477629e-01 2.47152299e-02</_>
    <_>
      -4.46655661e-01 1.01352704e+00 -1.61373809e-01 -4.00249004e-01
      2.85678297e-01 -2.68091578e-02 -1.13344062e-02 1.23231567e-03
      1.80380717e-01 -1.96053535e-01 7.09095076e-02 -2.68145621e-01
      7.60999396e-02 4.76825908e-02 3.43930833e-02 -4.12691720e-02
      -2.49497276e-02 -2.33491603e-02 7.78109431e-02 -2.47814879e-02
      -5.05048893e-02 -7.49364495e-02 -1.08419554e-02 -6.17817801e-04
      -3.30541730e-02 3.74862403e-02 4.63760905e-02 1.46048129e-01
      5.87581024e-02 -2.67343540e-02 6.00711815e-02 -2.85179727e-03
      4.10351297e-03 -1.12215653e-01 -9.84396860e-02 -5.99803701e-02</_>
    <_>
      9.43482876e-01 3.97079229e-01 -1.85822651e-01 5.22659682e-02
      3.67958426e-01 3.51831853e-01 -5.09253383e-01 -2.85540391e-02
      1.45766020e-01 5.05109012e-01 4.30628896e-01 -1.17873892e-01
      -3.42203259e-01 1.74869850e-01 9.73383151e-03 -1.43196926e-01
      8.50721449e-02 1.20325632e-01 1.93890363e-01 2.05565263e-02
      -3.45433354e-02 1.06811315e-01 2.33693913e-01 4.63343002e-02
      5.93893752e-02 -1.96791776e-02 2.51699537e-01 4.48493613e-03
      4.88402918e-02 8.44351128e-02 5.26258312e-02 -2.43344847e-02
      1.35829613e-01 3.60259302e-02 7.80194849e-02 -2.01419920e-01</_>
    <_>
      8.22128594e-01 1.29650518e-01 3.76605168e-02 -4.58539218e-01
      -1.49499131e-02 2.21982365e-03 4.95258600e-01 -5.14395609e-02
      -2.38959938e-01 -1.14892051e-01 1.11516401e-01 -2.67062068e-01
      5.29686064e-02 2.94993203e-02 7.22358897e-02 -8.24280679e-02
      -4.31006365e-02 1.33335835e-03 9.74595547e-02 4.89055924e-02
      -2.58327603e-01 -7.72984372e-03 -1.64355353e-01 -1.10419095e-01
      2.64257360e-02 2.16455031e-02 1.80843189e-01 4.27392796e-02
      1.10545056e-02 3.75422500e-02 -1.43220962e-03 -9.29036662e-02
      9.69774053e-02 -1.02420326e-03 -3.98124568e-02 -2.23541424e-01</_>
    <_>
      5.97020388e-02 5.08320987e-01 -7.72676468e-02 -3.68197322e-01
      5.27908057e-02 -6.92512766e-02 1.51790306e-01 -1.18515357e-01
      -3.88624556e-02 -9.25951973e-02 -3.49229835e-02 -2.28192523e-01
      1.17702991e-01 -1.04156993e-01 9.77063552e-02 -1.71511918e-02
      -3.15591767e-02 -5.14950827e-02 3.72094959e-02 3.86904143e-02
      -1.11515023e-01 1.40461147e-01 -4.56166267e-02 -1.19416855e-01
      -3.11822747e-03 1.50043756e-01 2.04953983e-01 2.98251826e-02
      -6.49555214e-03 -3.27715836e-02 1.05606452e-01 1.10337935e-01
      3.03269699e-02 1.79306255e-03 -1.58658922e-02 -9.19080749e-02</_>
    <_>
      3.57137710e-01 1.45391211e-01 -2.29873344e-01 -1.16722032e-01
      1.08499929e-01 -4.89767408e-03 1.67295393e-02 3.39207724e-02
      8.63920599e-02 -1.92679420e-01 1.54469118e-01 -3.90080996e-02
      -1.18288755e-01 -1.45780727e-01 1.11750267e-01 9.63566750e-02
      -3.83944511e-02 -1.69312302e-02 1.48473278e-01 -3.95659953e-02
      1.38295209e-02 2.65878253e-02 -1.25185311e-01 -1.54788688e-01
      -6.38804212e-02 1.79250315e-02 4.88111489e-02 1.75477304e-02
      -3.82699296e-02 7.03467801e-03 5.09866811e-02 1.29607376e-02
      2.43511479e-02 2.29885057e-02 -5.22170216e-02 -1.31445691e-01</_>
    <_>
      -8.31383169e-02 2.90588528e-01 -2.38992110e-01 -1.35467529e-01
      3.69543523e-01 -5.11365719e-02 2.53166467e-01 -1.57025486e-01
      2.33805254e-01 3.61707360e-02 -1.69597700e-01 -1.09320410e-01
      -9.90577415e-02 -1.14886358e-01 2.78084487e-01 1.15376078e-02
      2.01108336e-01 6.76278099e-02 1.86654478e-02 -2.98033468e-02
      -1.61664605e-01 3.68165299e-02 -1.44849584e-01 8.67202953e-02
      -9.47797969e-02 -1.33018330e-01 2.28907719e-01 4.18234468e-02
      6.58089444e-02 2.08625048e-02 9.50139463e-02 -1.00398183e-01
      -6.13814108e-02 9.40977260e-02 -3.93463820e-02 -1.46653727e-01</_>
    <_>
      3.79641056e-02 2.60654241e-01 2.84760483e-02 -1.35290354e-01
      2.41508514e-01 2.35614907e-02 1.22048445e-02 -6.15990497e-02
      1.22293666e-01 -1.29830495e-01 2.28187535e-02 -8.58961195e-02
      -6.69678599e-02 -3.04206181e-02 1.38097163e-02 -3.01411580e-02
      4.80276980e-02 -4.42482792e-02 8.06460604e-02 2.10914784e-03
      -1.21625081e-01 6.18527867e-02 1.27530033e-02 -2.72654742e-02
      -8.20637420e-02 -6.47082459e-03 7.86068067e-02 -2.26391219e-02
      5.03844917e-02 1.22458786e-02 2.60230266e-02 -6.08460838e-03
      -3.58332694e-02 1.18929276e-03 -1.54135311e-02 -1.36468679e-01</_>
    <_>
      1.55612528e-01 4.09171879e-01 6.78694248e-02 -3.09834838e-01
      3.61421227e-01 -1.83545381e-01 3.10405102e-02 -1.58113316e-02
      -2.92570889e-01 1.21904016e-01 1.02312423e-01 -2.83637103e-02
      -9.33539793e-02 -1.89029891e-02 2.20417649e-01 8.21439177e-02
      1.36302382e-01 8.98260549e-02 1.27622098e-01 1.81593448e-01
      -3.17396373e-01 -8.67168456e-02 -7.77943805e-02 -7.88572282e-02
      -5.39306551e-02 -1.77717730e-02 -3.56864408e-02 7.70166144e-02
      -1.31069735e-01 -2.22525261e-02 4.18465864e-03 6.48358613e-02
      -1.52329262e-02 -5.86411916e-02 -6.93746582e-02 -1.54697552e-01</_>
    <_>
      1.29072046e+00 3.22511405e-01 -7.02449620e-01 -4.28327441e-01
      -1.92786738e-01 -2.41365865e-01 -5.02413474e-02 2.24448636e-01
      1.41954020e-01 -7.39466073e-03 -2.43168529e-02 1.23449229e-02
      -2.95308530e-01 -1.07518315e-01 9.64061469e-02 -2.37055365e-02
      2.46016622e-01 -2.60727704e-01 1.90976366e-01 -6.59623221e-02
      -1.92527711e-01 8.80259797e-02 2.36973707e-02 6.52338043e-02
      -1.28243357e-01 1.65670067e-01 6.76759854e-02 7.92470351e-02
      4.05339897e-02 6.88503757e-02 -2.75047477e-02 1.77738313e-02
      1.00228094e-01 -2.28532150e-01 8.69384930e-02 -2.83959150e-01</_>
    <_>
      8.20257962e-02 4.65467721e-01 -2.25472957e-01 -3.21589738e-01
      1.89479273e-02 -8.15673470e-02 3.27811688e-01 5.17148934e-02
      1.28508568e-01 -4.13040817e-02 4.32969145e-02 -1.66744381e-01
      -9.65472609e-02 -5.88085316e-02 1.70996681e-01 -1.31596684e-01
      -1.30587190e-01 -9.44263935e-02 6.85934396e-03 -1.07524440e-01
      -2.02593610e-01 1.38674498e-01 -5.46807125e-02 7.06739947e-02
      -8.87264684e-02 6.30684057e-03 -7.37218186e-03 7.24227075e-03
      -2.72427164e-02 -4.24962677e-02 4.55349386e-02 -6.77503273e-02
      -2.89452635e-03 -2.33299434e-02 -1.60695538e-02 -1.86079070e-01</_>
    <_>
      2.92280048e-01 -7.55236670e-02 1.18577806e-02 4.20002732e-03
      6.66030943e-02 1.69338398e-02 6.69795694e-03 -5.36220800e-03
      6.67819902e-02 -3.98926996e-02 4.46877480e-02 -1.49625570e-01
      -3.30877639e-02 3.02125122e-02 1.12888277e-01 -5.05081937e-02
      5.59273548e-03 -2.20740698e-02 1.29570756e-02 7.03063980e-03
      -3.04407980e-02 2.69287396e-02 1.52680762e-02 -5.26443720e-02
      -2.47961339e-02 3.08646485e-02 4.56478074e-02 3.07317805e-02
      -3.74433747e-03 3.27598490e-02 7.62585327e-02 -1.43198697e-02
      2.12356187e-02 4.14920337e-02 -4.61089686e-02 -1.89274520e-01</_>
    <_>
      2.11142048e-01 6.19541816e-02 -5.48409112e-03 -4.27887328e-02
      1.42251372e-01 2.02928204e-02 1.97819117e-02 8.81533511e-03
      9.13297683e-02 -8.61447155e-02 3.90442871e-02 -1.82987258e-01
      -8.02387018e-03 1.56448968e-02 1.10066526e-01 5.18172374e-03
      1.41123403e-02 -1.94457043e-02 5.82075007e-02 -1.07503645e-02
      -6.59131855e-02 5.65560348e-02 9.94963106e-03 -2.98292320e-02
      -2.88199428e-02 2.31408980e-02 7.45384619e-02 4.05251160e-02
      -1.72140170e-02 2.17936784e-02 4.88833226e-02 -1.81881580e-04
      -8.27714894e-03 2.30359323e-02 -2.97780288e-03 -1.79418027e-01</_>
    <_>
      1.11141928e-01 -1.23585112e-01 2.13558525e-01 -6.34500623e-01
      3.62014800e-01 5.49077056e-02 -4.45265463e-03 2.17905834e-01
      -9.51988026e-02 -6.51069045e-01 4.42638099e-01 -1.86525047e-01
      -2.27167783e-03 -8.29530954e-02 -4.14886959e-02 1.11137191e-02
      1.88889176e-01 1.84167668e-01 -3.86368930e-01 -1.56470418e-01
      -6.19654432e-02 1.75855160e-01 3.16628486e-01 2.86568940e-01
      -4.88521159e-02 1.36532530e-01 2.27455914e-01 2.89297197e-02
      -4.25915197e-02 9.78428796e-02 2.97017973e-02 3.27541418e-02
      2.39379659e-01 -1.34241685e-01 3.88221890e-02 -1.07117191e-01</_>
    <_>
      7.08466545e-02 2.16551602e-01 -5.57946786e-02 -1.20770268e-01
      7.20060766e-02 -2.10722014e-02 3.67979258e-02 -7.54713193e-02
      8.42059478e-02 -2.38888059e-02 -4.07018419e-03 -1.16315402e-01
      1.64050853e-03 -1.09487539e-02 1.47654429e-01 -2.43752450e-02
      8.06555245e-03 -1.04649011e-02 8.98584649e-02 -1.48224169e-02
      -4.38880809e-02 1.17907405e-01 4.89973687e-02 -1.76629592e-02
      -5.51106147e-02 -5.07306196e-02 6.46828189e-02 2.37631742e-02
      -6.41848519e-02 1.52962394e-02 2.96737123e-02 2.73546167e-02
      1.28240287e-02 2.06593610e-02 -6.67783767e-02 -1.02168307e-01</_>
    <_>
      9.60859284e-02 1.66298464e-01 -3.36764269e-02 -1.51436523e-01
      1.92534417e-01 -3.66880521e-02 5.73810823e-02 -3.60430442e-02
      2.92106401e-02 -1.91671364e-02 3.51473875e-02 -6.85425252e-02
      -3.15273330e-02 2.43335031e-02 9.48087648e-02 -1.38857719e-02
      -3.65240360e-03 5.94233768e-03 1.11465074e-01 -6.77836360e-03
      -9.54898894e-02 1.08447194e-01 8.11692327e-02 -2.91649699e-02
      -7.11606294e-02 1.36708084e-03 8.11054111e-02 4.83419336e-02
      -4.35275510e-02 5.08727040e-03 2.33894214e-02 -2.04924680e-02
      -3.85792777e-02 -6.08444437e-02 -2.29502544e-02 -1.21665627e-01</_>
    <_>
      -3.31805676e-01 8.76801610e-01 -1.20641604e-01 -4.08576697e-01
      3.29534978e-01 -1.01327151e-01 1.50396779e-01 -1.21360853e-01
      -8.72518495e-03 -4.09035757e-02 7.45930523e-02 -2.16993585e-01
      -1.70382485e-01 -8.34151506e-02 8.44801217e-02 2.51185130e-02
      4.38730307e-02 2.77656093e-02 3.64982709e-02 3.22453231e-02
      -8.30729827e-02 1.00480832e-01 1.15821585e-02 -7.24177286e-02
      -5.41766323e-02 8.19863975e-02 -1.72992367e-02 9.57208965e-03
      2.87405867e-02 2.46887915e-02 7.04231337e-02 1.73892453e-02
      4.33191694e-02 -1.53316529e-02 8.55934769e-02 -1.82445168e-01</_>
    <_>
      -2.59245425e-01 7.59198427e-01 -1.80057306e-02 -3.18965018e-01
      2.60785908e-01 -3.42222154e-02 -8.63854121e-03 1.13349059e-03
      1.20247707e-01 -2.29200572e-01 1.12629250e-01 -9.95019823e-02
      -1.53620979e-02 8.36378708e-02 -7.55286142e-02 2.21689548e-02
      1.40202902e-02 -1.96254924e-02 5.76120727e-02 -4.37390879e-02
      -1.29208341e-01 4.51648012e-02 5.55314235e-02 -1.34597853e-01
      -9.62511897e-02 -2.41221841e-02 4.30720262e-02 -3.31614390e-02
      3.24645592e-03 5.75302588e-03 -5.95350098e-03 -1.63944997e-02
      -1.49676986e-02 -4.48533669e-02 -4.81070578e-03 -1.59663662e-01</_>
    <_>
      -4.05805796e-01 7.73172498e-01 -2.06197068e-01 -3.89075071e-01
      3.27464670e-01 -4.75475267e-02 1.02795310e-01 -7.15792850e-02
      1.76436022e-01 -9.27719548e-02 1.09919183e-01 -3.26874822e-01
      -8.71776417e-02 -5.23568243e-02 2.01530144e-01 3.38467248e-02
      1.89206496e-01 -9.36697982e-03 -5.74488146e-03 1.60209499e-02
      -4.65982631e-02 -4.56263833e-02 -6.10132404e-02 -4.40818220e-02
      3.84174548e-02 -4.47984552e-03 1.09957308e-01 -3.52701172e-02
      -1.10620055e-02 2.60051284e-02 -4.82290499e-02 4.78155650e-02
      -1.66107770e-02 1.62191186e-02 -3.17045152e-02 -1.66524261e-01</_>
    <_>
      6.32292509e-01 -1.58881187e+00 3.57444584e-01 -2.94202423e+00
      9.56031382e-01 -7.05122128e-02 -1.50253326e-01 -4.21147704e-01
      8.18821013e-01 -1.03033222e-01 7.64287412e-02 -3.09630513e-01
      -3.28126214e-02 -1.30458549e-02 4.58350815e-02 -3.18590328e-02
      -1.68069061e-02 4.23803627e-02 8.59902427e-02 -6.80387914e-02
      -5.36105447e-02 7.28326067e-02 9.31608528e-02 -8.25949421e-04
      -2.70069868e-04 1.80555787e-02 3.75440978e-02 1.21075623e-01
      -7.25968778e-02 1.21355697e-03 6.26388565e-02 9.53628309e-03
      2.69376598e-02 5.48327006e-02 -2.57356633e-02 -1.49494603e-01</_>
    <_>
      -6.12662584e-02 5.86695433e-01 -1.63205966e-01 -2.71050423e-01
      2.90565908e-01 -6.78374916e-02 4.60482277e-02 -2.44588237e-02
      1.39859170e-01 -1.68774590e-01 -5.16159981e-02 -2.19126731e-01
      6.05347566e-02 1.54351471e-02 1.90110460e-01 6.91928566e-02
      6.52734796e-03 -1.24914221e-01 1.42611369e-01 -1.27062172e-01
      -5.20906970e-02 1.53063750e-02 -1.12457328e-01 5.25933737e-03
      4.73830476e-03 1.51730478e-01 9.21510458e-02 6.24961592e-02
      4.57961783e-02 -4.28533368e-02 1.70349360e-01 1.17886819e-01
      -2.53399499e-02 3.82646807e-02 1.09171495e-01 -1.18840232e-01</_>
    <_>
      4.16945964e-01 -1.65399045e-01 -3.04507706e-02 1.20159807e-02
      1.15540050e-01 1.84916332e-02 -1.75094120e-02 7.43294228e-03
      1.12021893e-01 4.55198530e-03 9.27266758e-03 -1.82983428e-01
      -2.87522655e-02 -6.09743819e-02 8.64458978e-02 3.78960855e-02
      3.39142047e-02 8.47506709e-03 3.86464968e-02 8.84972438e-02
      1.26094767e-03 3.12250368e-02 -6.57576695e-02 6.91181840e-03
      2.42151096e-02 -5.31230830e-02 6.97326362e-02 7.69225731e-02
      -4.78620306e-02 3.44438553e-02 9.60111544e-02 -4.12719734e-02
      -2.69194432e-02 5.45956790e-02 -4.03420031e-02 -1.98809937e-01</_>
    <_>
      1.17535627e+00 2.56509781e-01 -4.02320832e-01 -3.41286331e-01
      1.17661595e-01 7.03817248e-01 3.10949057e-01 1.57772854e-01
      8.53867382e-02 -1.36537090e-01 -7.38129169e-02 -9.98195410e-02
      -2.49996215e-01 -1.17383525e-01 -2.04063840e-02 1.58372805e-01
      2.27006480e-01 -1.22763529e-01 1.50392175e-01 -1.90097302e-01
      3.42867188e-02 4.69413735e-02 -1.54641405e-01 -2.44697884e-01
      6.77523091e-02 -4.50394768e-03 -7.34122545e-02 -2.10101493e-02
      -3.57223600e-02 -5.72352707e-02 2.44353730e-02 -2.74106897e-02
      -2.62885471e-03 -1.60337910e-01 1.16784811e-01 -1.32395774e-01</_>
    <_>
      6.69325143e-02 2.69604564e-01 -1.88381717e-01 -1.14983536e-01
      2.76738226e-01 1.70417340e-03 2.12190654e-02 6.24084519e-03
      2.03015774e-01 -6.85287416e-02 -4.17015888e-03 -9.89216790e-02
      -5.56339882e-03 1.11110816e-02 2.43393406e-01 3.93173378e-03
      7.26301074e-02 -6.27081618e-02 6.01802729e-02 6.34573773e-02
      -7.02714920e-02 -7.51212332e-03 1.56205175e-02 6.05069101e-03
      5.13339192e-02 4.16420288e-02 7.20501542e-02 -6.13166671e-03
      3.28231715e-02 1.34530753e-01 1.34009227e-01 -4.12234366e-02
      -4.58980985e-02 6.72648400e-02 -3.38838026e-02 -1.74974114e-01</_>
    <_>
      3.70425195e-01 3.64148200e-01 -4.18550193e-01 -2.76984990e-01
      5.84102869e-01 -2.86300689e-01 9.43097025e-02 -1.33549929e-01
      -3.15595031e-01 2.04567105e-01 7.27986777e-03 -3.77875641e-02
      -8.87460113e-02 -7.58142471e-02 2.73092324e-03 2.22013205e-01
      7.27007091e-02 -8.39686245e-02 -7.42010623e-02 -3.59888971e-01
      1.88714594e-01 1.37333199e-01 -6.16265275e-02 5.68522252e-02
      -1.82475392e-02 2.46742237e-02 -2.88015991e-01 1.40231758e-01
      3.60075384e-01 -5.18489964e-02 -1.24506779e-01 -1.08418085e-01
      2.25154847e-01 3.31955910e-01 -1.98248059e-01 2.06886441e-01</_>
    <_>
      -3.21377218e-01 8.71981144e-01 -1.23603649e-01 -4.06431645e-01
      3.47705334e-01 -9.66076702e-02 1.27190813e-01 -8.75709429e-02
      -1.62776243e-02 -1.59674361e-02 9.35832262e-02 -2.93951422e-01
      -1.97445139e-01 -7.95613751e-02 9.50381905e-02 2.99361199e-02
      3.17274928e-02 2.13246737e-02 4.38403897e-02 1.57214701e-02
      -8.66049752e-02 6.51336685e-02 -1.38323745e-02 -6.16672598e-02
      -1.03947595e-01 3.11564356e-02 7.45285349e-03 1.41506353e-02
      7.28636310e-02 -5.01058483e-03 2.81839985e-02 1.99436489e-02
      2.12476850e-02 -1.19860200e-02 5.78774400e-02 -1.62183583e-01</_>
    <_>
      1.63661480e-01 3.45241517e-01 -3.62099439e-01 -2.24642813e-01
      1.60098568e-01 -1.29435971e-01 -1.21281315e-02 2.78408468e-01
      1.67619914e-01 -2.31704578e-01 1.26673719e-02 -2.08514258e-01
      -9.02074203e-02 -1.38557956e-01 1.55101135e-01 5.93051724e-02
      -2.00989209e-02 -7.89810568e-02 2.38737494e-01 -7.19864443e-02
      7.20006600e-02 4.64553460e-02 -1.36725262e-01 -9.13039595e-02
      -1.50435846e-02 7.71084130e-02 -4.31288183e-02 -3.15153413e-02
      5.16741872e-02 5.73301204e-02 2.63110474e-02 1.01987459e-01
      3.68502513e-02 -3.76931019e-02 -4.06267047e-02 -1.80923924e-01</_>
    <_>
      -7.42999911e-02 7.65801787e-01 -2.69097000e-01 -4.23544884e-01
      5.99130206e-02 -2.27427617e-01 4.80215132e-01 -3.86202931e-01
      -8.72885883e-02 1.14291809e-01 -1.55487478e-01 -6.66504264e-01
      -1.49840608e-01 -6.03613675e-01 4.54783618e-01 -1.98593922e-02
      3.51867199e-01 -3.34547050e-02 2.08691329e-01 5.13443649e-02
      -7.40413889e-02 -9.79506075e-02 3.56838219e-02 1.69453800e-01
      -1.73460655e-02 -2.19086856e-01 6.34503886e-02 1.49004877e-01
      2.39725858e-01 7.68375769e-02 5.54185398e-02 2.08284333e-01
      4.62073684e-02 -7.29790702e-02 -6.00787215e-02 -4.27832045e-02</_>
    <_>
      -3.76212060e-01 7.87781239e-01 -2.15555996e-01 -3.52039099e-01
      3.12123477e-01 -6.75366595e-02 9.52026993e-02 -7.62251765e-02
      1.64602056e-01 -2.93852426e-02 1.14395425e-01 -3.04536074e-01
      -9.97406840e-02 -4.03747149e-02 2.26346195e-01 -5.12001629e-04
      1.39336973e-01 -1.94712728e-02 2.91307420e-02 1.59551576e-02
      -6.84537143e-02 -4.70306305e-03 -4.75551821e-02 -2.87092160e-02
      2.78657600e-02 1.87418889e-02 7.16283247e-02 -4.01602685e-02
      -3.07437126e-02 2.57170685e-02 -3.44236344e-02 4.32288311e-02
      -7.94192252e-04 6.07171170e-02 1.36462394e-02 -1.97291195e-01</_>
    <_>
      1.50382817e+00 4.78776574e-01 -4.38273698e-01 -6.08220220e-01
      -1.82524890e-01 2.61575967e-01 -6.23987466e-02 -1.04526235e-02
      -1.64068341e-02 5.01768552e-02 5.25256768e-02 -2.63135910e-01
      -1.70071945e-01 -1.81064039e-01 3.01281530e-02 -1.92713946e-01
      1.31181642e-01 -1.69357285e-01 1.87419832e-01 -9.68923941e-02
      7.93616623e-02 -5.01299351e-02 1.02276854e-01 -1.46623999e-01
      8.10009614e-02 7.44703263e-02 1.61896229e-01 -1.56320799e-02
      -4.35604118e-02 -5.19978553e-02 -2.07046438e-02 -6.88252524e-02
      2.32086554e-02 -1.11712664e-01 1.27055831e-02 -1.48144618e-01</_>
    <_>
      1.84782237e-01 2.98521787e-01 -2.49554381e-01 -2.50113934e-01
      4.67495441e-01 -1.80441644e-02 3.46876541e-03 -2.79855818e-01
      -9.43144858e-02 -7.75235519e-02 4.86440808e-02 -1.60470381e-01
      3.39952618e-04 1.19310357e-01 -6.62426883e-03 -5.18064126e-02
      -8.46796483e-03 -5.49178943e-02 7.02037960e-02 -7.74581134e-02
      1.28628209e-01 1.23930126e-01 7.32127996e-03 5.33387959e-02
      4.50760685e-02 2.07520559e-01 8.86156932e-02 2.08048094e-02
      1.47933543e-01 -7.26583526e-02 -2.34452486e-02 9.97516960e-02
      -3.74985412e-02 -4.93490100e-02 -6.72434047e-02 -1.57261059e-01</_>
    <_>
      -4.71665971e-02 3.79580498e-01 5.11262715e-02 -1.79448366e-01
      1.01630248e-01 -9.81258694e-03 2.45136898e-02 -9.37065668e-03
      2.57878285e-02 -1.21123925e-01 4.35749069e-02 -1.16658151e-01
      -1.29242567e-02 -6.26208610e-04 -4.76483144e-02 -1.04033567e-01
      -6.68043196e-02 -1.95010714e-02 3.60494442e-02 -2.88489908e-02
      -9.82145071e-02 1.82078674e-01 1.97933372e-02 -4.98795994e-02
      -9.74811539e-02 2.10340414e-03 4.48794477e-02 8.98501202e-02
      -2.94844080e-02 1.07733058e-02 -2.28205584e-02 4.34338115e-02
      2.23060101e-02 -2.92690545e-02 -2.84490809e-02 -1.46990508e-01</_>
    <_>
      -3.74049991e-01 7.40958095e-01 -2.02793658e-01 -3.20291102e-01
      3.27230155e-01 -9.71098840e-02 6.91552684e-02 -8.12399015e-02
      1.90377295e-01 -3.53607647e-02 1.09524719e-01 -3.03026259e-01
      -8.61748904e-02 -8.18336941e-03 2.22514719e-01 2.17289058e-03
      1.18479602e-01 -9.51639097e-03 5.24957106e-02 2.58732215e-02
      -7.00094774e-02 5.72737344e-02 -1.89913474e-02 -4.39325944e-02
      5.78398407e-02 5.77639379e-02 3.87410223e-02 -3.35135348e-02
      1.41193233e-02 1.59211624e-02 -2.92371046e-02 4.63582724e-02
      9.63210128e-03 1.09935217e-02 -1.10605825e-02 -1.47712067e-01</_>
    <_>
      -4.66366947e-01 1.07155764e+00 -2.10985541e-01 -4.34527278e-01
      4.17859733e-01 -1.55126303e-01 2.66916782e-01 9.05724522e-03
      9.15880874e-02 -1.26676619e-01 7.96847567e-02 -4.61494982e-01
      -2.33520463e-01 -6.58140257e-02 7.37176239e-02 4.31124419e-02
      -1.96628515e-02 -1.42852664e-02 5.95416315e-02 -1.77355826e-01
      -7.28839412e-02 5.85068278e-02 -4.49103750e-02 6.54091239e-02
      -1.13111451e-01 5.38450107e-02 1.64087966e-01 6.26774654e-02
      1.66343637e-02 -8.99028108e-02 1.85098305e-01 -8.27930421e-02
      5.90195209e-02 6.59296885e-02 -1.61769092e-02 -1.33297533e-01</_>
    <_>
      -5.29980958e-02 4.21955287e-01 -5.40222563e-02 -2.36284271e-01
      2.43021145e-01 -4.90984991e-02 5.01683317e-02 -6.34353384e-02
      4.95744012e-02 -5.15089221e-02 5.35503663e-02 -8.55298713e-02
      -4.07081749e-03 1.06355986e-02 3.90613377e-02 -5.38014770e-02
      -3.61115150e-02 1.54719865e-02 6.55658320e-02 1.51405651e-02
      -1.06752276e-01 1.10827923e-01 8.05758312e-02 -6.98961839e-02
      -5.79743087e-02 2.23538131e-02 8.61188546e-02 5.53319743e-03
      3.33351619e-03 3.86636965e-02 2.21665241e-02 2.97479909e-02
      -2.60097440e-03 -9.51844454e-03 -1.49978762e-02 -1.30536899e-01</_>
    <_>
      -3.55478704e-01 7.56818175e-01 -1.43743038e-01 -3.62307549e-01
      2.91376293e-01 3.57301682e-02 7.79044330e-02 -6.46125153e-02
      1.77395418e-01 -1.63444787e-01 1.73603758e-01 -4.13843960e-01
      -9.54540893e-02 -3.10616009e-02 5.85335083e-02 -1.24180904e-02
      4.87287827e-02 -5.20161428e-02 4.37311195e-02 1.08000198e-02
      -3.77366096e-02 9.31548253e-02 -1.30675798e-02 -7.94739351e-02
      -7.91555867e-02 3.02708894e-02 1.06826186e-01 -2.39468459e-02
      -1.10331355e-02 6.59466349e-03 -8.25133454e-03 3.35977711e-02
      4.21833806e-03 8.32096953e-03 1.01762991e-02 -1.04369864e-01</_>
    <_>
      -3.88611674e-01 9.35932159e-01 -1.31592304e-01 -3.96108866e-01
      3.64343673e-01 -1.08888291e-01 1.06868960e-01 -8.18215460e-02
      -2.19443683e-02 -4.64244671e-02 6.28253445e-02 -2.66198099e-01
      -1.59335792e-01 -3.96750085e-02 7.93772116e-02 2.94253454e-02
      2.74368795e-03 2.97300946e-02 2.21883338e-02 -1.32218609e-02
      -6.27995431e-02 -2.00099051e-02 1.81114338e-02 -2.80493069e-02
      -9.26618949e-02 1.61239747e-02 1.24325259e-02 3.21712457e-02
      6.80376515e-02 4.12562452e-02 4.15440314e-02 -2.45196298e-02
      -3.60649861e-02 -3.24012339e-02 -6.98295841e-03 -1.77311257e-01</_>
    <_>
      1.47111547e+00 3.40498149e-01 -2.52669722e-01 -3.06028396e-01
      1.41091034e-01 8.01468730e-01 5.23011386e-02 2.06730932e-01
      1.84583247e-01 1.67107508e-01 1.37474686e-01 -1.43635675e-01
      -3.86562914e-01 2.51106992e-02 2.31714696e-02 1.22764949e-02
      -9.69607532e-02 -1.36515215e-01 4.73793373e-02 8.60675499e-02
      -3.05925664e-02 5.54566011e-02 1.56902354e-02 -1.65637001e-01
      1.17921866e-01 -1.18637137e-01 4.27659508e-03 -8.08814168e-02
      1.14207007e-01 -7.15124011e-02 1.90732986e-01 -1.44459838e-02
      8.01896583e-03 9.61499885e-02 -9.73291770e-02 -1.29217029e-01</_>
    <_>
      9.59404230e-01 9.42167699e-01 2.24046648e-01 -2.16960028e-01
      3.84900331e-01 3.21036369e-01 -7.51398146e-01 -1.88440904e-01
      1.69233024e-01 3.12082231e-01 4.73216206e-01 -2.36362383e-01
      -4.92468834e-01 4.72767711e-01 1.39876142e-01 -2.35998675e-01
      -2.70002987e-02 4.54509780e-02 1.03467882e-01 -5.77718345e-03
      -1.46298632e-02 4.35497798e-02 1.61305338e-01 4.82990257e-02
      -7.71080703e-02 1.02616936e-01 5.21652140e-02 2.58651725e-03
      8.28953683e-02 1.32889180e-02 -1.05797924e-01 -2.14117765e-02
      3.63133401e-02 1.02449320e-01 -5.32627068e-02 -1.91682369e-01</_>
    <_>
      5.09916395e-02 -7.46555328e-02 6.48486093e-02 -3.41780216e-01
      3.09436768e-01 7.57943988e-02 6.90917969e-02 1.22099839e-01
      -4.22537237e-01 2.46689525e-02 -3.73214148e-02 -3.34994078e-01
      1.55367121e-01 2.36127496e-01 2.92482644e-01 1.28543498e-02
      -5.38736731e-02 -2.65824318e-01 4.79816914e-01 -9.55961198e-02
      -2.39516169e-01 9.87688974e-02 -1.74854532e-01 9.88608590e-05
      8.04981813e-02 -1.01337448e-01 3.94082785e-01 1.26879159e-02
      -3.40325795e-02 1.11190736e-01 2.47998804e-01 2.29453623e-01
      2.01760173e-01 8.10377374e-02 1.24199361e-01 4.75255735e-02</_>
    <_>
      -6.37550533e-01 1.35200846e+00 -3.03181678e-01 -4.78155971e-01
      4.11021322e-01 -8.53088200e-02 9.58379507e-02 -1.90053284e-02
      1.61495432e-01 -1.60724521e-01 1.16629668e-01 -4.12829816e-01
      -7.98188373e-02 -7.06615895e-02 1.79922163e-01 3.15230596e-03
      8.04456919e-02 6.74962066e-03 1.12840749e-01 -1.78962201e-01
      8.41589645e-03 -5.04635349e-02 -1.55166060e-01 8.08459371e-02
      1.13494098e-02 9.21560451e-03 -1.34021744e-01 8.42838064e-02
      1.10331357e-01 -4.96700667e-02 2.59387214e-02 -1.83804985e-02
      5.94497547e-02 7.80428797e-02 -1.06875889e-01 -3.10283780e-01</_>
    <_>
      2.27783132e+00 4.03923169e-02 -1.67705536e+00 2.98316795e-02
      7.36523092e-01 -4.85628396e-01 3.00374925e-01 -3.13511580e-01
      -2.09070388e-02 -7.07544804e-01 -2.67052710e-01 -4.16216373e-01
      -5.74294385e-03 2.19225883e-01 1.11979149e-01 -3.39214783e-03
      -9.03957486e-02 -1.91572204e-01 -1.03125833e-01 -1.16338558e-01
      -2.31666714e-01 -6.61484664e-03 5.93025759e-02 -7.39895105e-02
      -2.38024995e-01 2.37199143e-01 8.54179040e-02 1.04714334e-01
      -8.76530856e-02 1.02683194e-01 -4.65640239e-02 9.45947948e-04
      2.75788903e-02 1.47238627e-01 -7.74297267e-02 -1.56305522e-01</_>
    <_>
      -1.76273882e-02 2.77116984e-01 -3.73406671e-02 -1.49629459e-01
      1.07143916e-01 -1.15957879e-01 7.63574541e-02 1.76432449e-02
      1.84682328e-02 -8.79759341e-03 3.15539688e-02 -1.69580802e-01
      -5.94385490e-02 1.73737258e-02 1.34110406e-01 6.69637620e-02
      -8.63450989e-02 6.03455352e-04 1.15943968e-01 -1.03433177e-01
      -1.06848523e-01 1.43069789e-01 8.76666978e-02 -2.24889889e-02
      -6.71464056e-02 1.62477959e-02 -8.81957170e-03 6.39785677e-02
      -2.68681664e-02 -1.73824211e-03 5.42948768e-02 -1.64735541e-02
      -3.26636471e-02 -6.61444589e-02 3.11467238e-02 -9.67815295e-02</_>
    <_>
      -3.48779470e-01 7.56674826e-01 -2.01786995e-01 -3.65230531e-01
      2.96670467e-01 -2.09075734e-02 8.38220492e-02 -9.58939195e-02
      1.49808437e-01 -7.21770525e-02 1.12757377e-01 -3.18207800e-01
      -8.45350996e-02 -2.36015636e-02 1.92943677e-01 -8.94519873e-03
      1.67342111e-01 -2.15588324e-03 2.45174486e-02 5.34553155e-02
      -2.37344056e-02 -2.04079375e-02 -7.11506382e-02 -5.14851250e-02
      2.68125460e-02 -6.68871449e-03 1.00718401e-01 -5.99492975e-02
      -5.77836344e-03 1.86970420e-02 -6.00043051e-02 9.09131318e-02
      -3.69203165e-02 4.05895263e-02 -3.31478864e-02 -1.59820929e-01</_>
    <_>
      2.16808170e-01 5.06042875e-03 -5.30445389e-02 -7.56954262e-03
      1.16733611e-01 -1.20940367e-02 7.54818097e-02 -4.11118716e-02
      8.49881619e-02 -6.40374646e-02 3.85819748e-02 -1.03895895e-01
      -6.49681464e-02 1.09575121e-02 1.55497730e-01 -3.18517648e-02
      4.42898758e-02 8.09552148e-04 3.58739384e-02 -6.73662778e-03
      -6.96025193e-02 4.99718003e-02 -2.68777087e-02 -4.79822792e-02
      -5.21906503e-02 3.38498503e-03 4.90388386e-02 2.96795871e-02
      -8.46843980e-03 -4.91493382e-03 3.46231870e-02 -4.09757644e-02
      1.05391862e-02 1.99244991e-02 -8.40136483e-02 -1.93745434e-01</_>
    <_>
      2.42218232e+00 7.31266081e-01 1.84942707e-01 8.71412098e-01
      2.11421537e+00 9.42746773e-02 -2.00226620e-01 -4.34380025e-01
      1.05359040e-01 -3.14320654e-01 3.51791054e-01 -4.53701839e-02
      -1.09724030e-01 1.39689967e-01 1.55937240e-01 1.08356997e-01
      2.28678778e-01 -2.59606093e-01 1.32850427e-02 -6.83279708e-02
      -1.57382444e-01 6.25555636e-03 4.31311019e-02 -7.41902366e-02
      -4.45991904e-02 1.59025088e-01 1.39638320e-01 1.15959972e-01
      -4.94135432e-02 -8.28216150e-02 6.52320087e-02 -5.71994446e-02
      2.21978098e-01 1.65314987e-01 7.54401013e-02 -1.75614297e-01</_>
    <_>
      -3.36194515e-01 7.33575463e-01 -1.54333442e-01 -2.88819164e-01
      2.78076321e-01 -3.32643241e-02 1.08729109e-01 -6.98577315e-02
      1.36531860e-01 -1.39157102e-01 1.14168890e-01 -3.17395598e-01
      -2.64023338e-02 5.09634661e-03 8.22573900e-02 5.53781614e-02
      4.87305671e-02 -3.93708907e-02 6.30373880e-02 1.63881164e-02
      -2.52591670e-02 3.52918208e-02 3.74633595e-02 -3.56222764e-02
      -1.17305422e-03 -9.45095718e-03 4.01094072e-02 -9.76464450e-02
      2.88043084e-04 6.46497756e-02 9.26586986e-03 5.84107116e-02
      -8.18001106e-03 -6.91055432e-02 7.02683209e-03 -9.57006514e-02</_>
    <_>
      -1.44492537e-01 6.00804865e-01 -9.70478803e-02 -3.02915186e-01
      2.51674116e-01 -8.35861266e-02 8.46139044e-02 -2.65644491e-02
      7.23850355e-03 -1.29440548e-02 6.29591718e-02 -1.90928325e-01
      -5.12117594e-02 -9.31116045e-02 1.56232372e-01 -2.98959631e-02
      9.72115099e-02 -2.61159777e-03 7.08147213e-02 7.34183704e-03
      -6.57218769e-02 1.99623667e-02 5.45211136e-03 9.09567531e-03
      2.55272519e-02 2.43109073e-02 -8.45551770e-03 -2.45639514e-02
      -9.33947042e-02 5.32266265e-03 2.95618512e-02 5.65703027e-02
      -1.65853687e-02 -3.79338525e-02 -2.70984061e-02 -2.03341752e-01</_>
    <_>
      -3.93603116e-01 9.37869549e-01 -1.42730683e-01 -3.84601146e-01
      3.97421926e-01 -7.64482766e-02 2.29873821e-01 -1.00930937e-01
      2.66854279e-02 -1.05154142e-01 -4.38171513e-02 -2.02387348e-01
      -2.02393398e-01 -2.24455968e-02 -4.44408283e-02 -2.29200944e-02
      -2.11350676e-02 -1.77973155e-02 6.23949617e-02 -9.56667066e-02
      -6.17095940e-02 1.00730561e-01 6.43761009e-02 7.29698641e-03
      -9.15557295e-02 1.78859159e-02 4.21832651e-02 -7.04967305e-02
      -7.96369538e-02 1.10939130e-01 1.41463175e-01 -9.53344405e-02
      -4.05507721e-02 -3.25587462e-03 -4.06352431e-03 -1.38052389e-01</_>
    <_>
      -1.84520677e-01 6.58488989e-01 -3.11267227e-02 -3.26176673e-01
      2.54576594e-01 -1.53257595e-02 -9.00687724e-02 2.97040269e-02
      1.35738745e-01 -2.04041913e-01 1.00163087e-01 -8.19607973e-02
      7.06771687e-02 1.13057986e-01 -1.90648492e-02 3.83270234e-02
      1.18757621e-03 -9.31879729e-02 7.17169046e-02 1.71840452e-02
      -1.10863194e-01 -6.22846559e-02 2.83396654e-02 -6.57747611e-02
      -7.28331730e-02 2.07879599e-02 5.80140203e-02 -2.94002164e-02
      -2.39828266e-02 -4.06209240e-03 1.27928657e-02 2.25965236e-03
      2.48190835e-02 -3.78497764e-02 7.53514990e-02 -1.46192342e-01</_>
    <_>
      6.27040803e-01 3.15833598e-01 -8.07239056e-01 -3.80862057e-01
      4.26525325e-01 -4.29936558e-01 -1.95727982e-02 5.12578130e-01
      5.42621985e-02 -1.02430489e-02 -2.64091343e-01 -2.02646956e-01
      -2.65229102e-02 -2.05608994e-01 7.79205486e-02 2.73569852e-01
      5.96856400e-02 -8.90902951e-02 -1.02919415e-02 -3.45963761e-02
      -8.75188559e-02 1.05585851e-01 -1.50913289e-02 -1.58208847e-01
      -8.87193307e-02 2.61694305e-02 1.09988309e-01 1.11890805e-03
      4.30333545e-04 -7.54990652e-02 8.95933136e-02 1.81531173e-03
      -1.30274678e-02 -3.44312079e-02 -7.26600438e-02 -2.09224820e-01</_>
    <_>
      5.61593212e-02 2.64122099e-01 1.15166105e-01 -5.19976079e-01
      4.08996642e-01 1.03517324e-01 -1.23991966e-01 2.39069313e-01
      -3.79656285e-01 -3.02700609e-01 2.54295528e-01 -1.46005735e-01
      7.16387704e-02 4.93089519e-02 5.81131801e-02 1.90651491e-02
      8.39041024e-02 1.15842961e-01 -1.22508211e-02 5.20930216e-02
      -2.15814501e-01 2.61223577e-02 2.58587133e-02 -4.49976996e-02
      -7.67140985e-02 6.73109144e-02 -5.60124405e-02 2.02061273e-02
      7.65366927e-02 -4.35493141e-02 -3.76118608e-02 -8.37205052e-02
      -1.73612878e-01 2.23625940e-03 -1.08091887e-02 -1.28149778e-01</_>
    <_>
      1.04359305e+00 1.99047208e-01 -1.02872872e+00 -4.77618933e-01
      2.95534879e-01 -2.67343342e-01 4.40874785e-01 4.32750732e-01
      9.79589969e-02 -2.50885244e-02 1.32351905e-01 -3.57626565e-02
      1.52420737e-02 -1.85575202e-01 8.83649364e-02 1.55231908e-01
      -3.79653990e-01 -2.16848440e-02 8.13094620e-03 -2.73938119e-01
      -2.93819338e-01 1.53099550e-02 -2.88973093e-01 2.32033700e-01
      -3.17227185e-01 8.48396197e-02 -1.57588407e-01 -1.23636954e-01
      1.23908855e-01 -6.77177086e-02 1.68391149e-02 1.11034989e-01
      -6.32947683e-02 -1.35259260e-03 -1.57103278e-02 6.94453903e-03</_>
    <_>
      -4.05965447e-01 7.89330244e-01 -2.31914505e-01 -3.25474143e-01
      4.51329529e-01 -1.46226183e-01 2.59208500e-01 -1.92438990e-01
      1.48845509e-01 3.94622684e-02 -5.22795040e-03 -3.45439196e-01
      -1.75377965e-01 -1.05185300e-01 2.88609326e-01 7.28553087e-02
      4.90884893e-02 1.34199932e-01 1.33082584e-01 -7.02497587e-02
      -4.00626995e-02 9.57250595e-02 -2.43332796e-03 4.65443321e-02
      -4.42717038e-02 6.17143000e-03 2.00843245e-01 -1.10855624e-01
