<?xml version="1.0"?>
<opencv_storage>
<opencv_ml_svm>
  <format>3</format>
  <svmType>C_SVC</svmType>
  <kernel>
    <type>RBF</type>
    <gamma>5.0625000000000009e-01</gamma></kernel>
  <C>1.0000000000000001e-01</C>
  <term_criteria><iterations>100</iterations></term_criteria>
  <var_count>36</var_count>
  <class_count>2</class_count>
  <class_labels type_id="opencv-matrix">
    <rows>2</rows>
    <cols>1</cols>
    <dt>i</dt>
    <data>
      0 1</data></class_labels>
  <sv_total>200</sv_total>
  <support_vectors>
    <_>
      2.10478473e+00 -1.21792950e-01 2.38410458e-01 -3.81408662e-01
      5.90230763e-01 -3.46695632e-01 -5.97208619e-01 3.89970839e-02
      4.92229044e-01 -1.19186699e-01 3.98485288e-02 -2.17887998e-01
      -1.11391746e-01 -3.48497042e-03 -3.18381935e-02 -2.66638130e-01
      2.52649456e-01 -2.03860346e-02 1.24786243e-01 -1.18230637e-02
      7.18490109e-02 -1.90779194e-01 2.44061854e-02 -7.87224323e-02
      7.16818869e-02 1.67867109e-01 4.60049063e-02 1.50452256e-01
      6.57857675e-03 1.01526547e-02 -1.57049205e-02 -1.88044906e-01
      1.83769852e-01 -2.21717265e-02 1.07018419e-01 -1.07410304e-01</_>
    <_>
      -2.74238586e-01 -9.02470171e-01 1.18830130e-01 4.94311899e-02
      4.01842326e-01 1.00742979e-02 -1.59507930e-01 -2.90856481e-01
      -9.62404460e-02 1.87992584e-02 -8.09421577e-03 2.08554678e-02
      5.95575944e-02 9.81655568e-02 -1.61965549e-01 9.65159684e-02
      -1.23584837e-01 6.93897977e-02 3.04863844e-02 -6.80703670e-02
      -2.25100905e-01 -1.05353735e-01 2.21759558e-01 -9.43769142e-03
      -1.63140580e-01 -3.66526097e-02 -8.61392766e-02 2.46701121e-01
      6.84488565e-03 -1.66666552e-01 -5.30685484e-02 -2.13507265e-01
      -9.08311531e-02 -8.25310573e-02 4.77529429e-02 -5.71011417e-02</_>
    <_>
      -8.31678510e-02 -2.76827425e-01 1.60015285e-01 3.30777057e-02
      2.93091893e-01 -2.19890997e-01 -4.31690887e-02 -2.16188710e-02
      -9.07688364e-02 -1.13723680e-01 -1.12277173e-01 -4.72996868e-02
      1.30107611e-01 -1.07418872e-01 -1.64913341e-01 -6.10869266e-02
      -1.91877231e-01 -1.50977165e-01 6.29002973e-02 -1.64450519e-02
      1.96991935e-02 -2.30786696e-01 -4.75993194e-02 8.55047628e-02
      -9.36745107e-02 2.63374150e-02 -1.48162857e-01 8.11857954e-02
      5.99308573e-02 4.52235751e-02 -1.07977450e-01 -7.79379606e-02
      3.06906998e-02 -9.31496099e-02 -1.35599047e-01 -4.84882966e-02</_>
    <_>
      -4.65093106e-02 -1.61959395e-01 2.67774433e-01 -1.30181992e-02
      2.96627283e-02 -9.36100930e-02 -1.61176696e-02 4.18682070e-03
      -1.00156195e-01 -2.09196024e-02 -8.72628689e-02 1.61370933e-01
      9.25194696e-02 -2.39397679e-02 3.15872170e-02 2.34747976e-02
      8.04330111e-02 2.35625878e-02 7.80199934e-03 -3.57429497e-02
      -4.73654643e-03 -6.07180744e-02 -4.72780271e-03 -9.79616866e-03
      -4.06358540e-02 2.37867311e-02 -2.76391748e-02 1.55097112e-01
      1.02018096e-01 -2.16639116e-02 -1.36987805e-01 -1.21958956e-01
      -9.93618071e-02 -1.07624866e-01 8.14910382e-02 -2.15047020e-02</_>
    <_>
      1.62662379e-02 -9.98214707e-02 2.20758170e-01 -2.25397367e-02
      2.02508092e-01 -4.47186567e-02 -1.79906804e-02 -3.52662466e-02
      -1.00240633e-01 -2.59670597e-02 -3.57215898e-03 1.66589431e-02
      -8.19515344e-03 -1.80761427e-01 -8.24916735e-03 -2.55736522e-02
      -2.53924914e-02 5.60920089e-02 -9.72364005e-03 -8.66903141e-02
      -1.60084944e-02 -2.38329940e-03 -4.72709127e-02 6.43863901e-02
      6.96450844e-03 -6.84506074e-02 -5.55041693e-02 1.54607713e-01
      1.48760393e-01 7.27418140e-02 -8.84924307e-02 -2.10678965e-01
      -1.11866795e-01 -3.26423235e-02 7.59006515e-02 -6.52382672e-02</_>
    <_>
      1.93707690e-01 4.26802821e-02 3.34393203e-01 -3.56739685e-02
      -6.50691241e-02 -2.08859779e-02 1.40338158e-02 5.31947566e-03
      -2.26799026e-02 -6.47266582e-02 1.35808326e-02 3.10841259e-02
      4.35380377e-02 -7.38577619e-02 7.45741278e-02 -1.28150387e-02
      8.49355981e-02 -6.01534657e-02 -2.99208099e-03 6.34843251e-03
      -2.81223636e-02 -6.39780462e-02 -3.93172167e-02 3.61943245e-02
      -2.84035206e-02 -2.06686147e-02 1.20426044e-02 1.81918323e-01
      7.72792771e-02 -2.55243406e-02 -9.08140764e-02 -1.39477879e-01
      -6.25500008e-02 -7.58138895e-02 1.31574661e-01 3.09930723e-02</_>
    <_>
      2.15154588e-02 -2.75850147e-01 2.66492963e-01 5.90985548e-03
      1.25513077e-01 -2.00932734e-02 1.05492771e-02 3.97602431e-02
      -8.97259191e-02 5.95167978e-03 -8.10443424e-03 4.63959724e-02
      3.71485390e-02 -7.00929165e-02 7.52850845e-02 -1.56260096e-02
      1.82900622e-01 -3.29663604e-02 -7.08039897e-03 -4.53169108e-04
      -7.96465874e-02 -1.47238150e-01 -2.98417676e-02 6.87900707e-02
      -4.19189110e-02 1.54057806e-02 3.32238115e-02 1.75410971e-01
      1.15076281e-01 1.04449697e-01 -7.62853548e-02 -1.11677378e-01
      1.84085115e-03 -7.73846433e-02 9.67054963e-02 9.18020494e-03</_>
    <_>
      -6.21974804e-02 -4.14261609e-01 2.13072583e-01 -3.62277664e-02
      2.25193456e-01 -6.30655419e-03 -1.17590845e-01 -1.28523141e-01
      -1.54165089e-01 5.03253266e-02 -1.93335004e-02 3.39215435e-02
      -2.20854254e-03 -6.40676767e-02 6.54260516e-02 -6.16874993e-02
      2.11319216e-02 -9.74076688e-02 1.67315584e-02 -6.02784231e-02
      -6.20100275e-02 -1.97160140e-01 -1.64894611e-02 -2.29162001e-03
      3.86590622e-02 -3.50184925e-02 9.56203714e-02 3.53601456e-01
      2.20489465e-02 5.65923154e-02 -1.24037953e-03 -8.96457285e-02
      -1.07110195e-01 -3.48282494e-02 2.06024110e-01 -1.94775295e-02</_>
    <_>
      -1.38738349e-01 -5.94656646e-01 2.23389432e-01 2.34243974e-01
      3.96159381e-01 -1.91818520e-01 -1.11325160e-01 1.39770612e-01
      4.78689559e-02 1.01242475e-01 -3.62986386e-01 8.19501504e-02
      7.75492052e-03 -4.77417372e-02 -2.25215599e-01 -4.89446878e-01
      -2.10178301e-01 -9.31802671e-03 3.91152315e-03 -3.06318700e-01
      -2.55232960e-01 -1.36831760e-01 -4.76567931e-02 -1.37294739e-01
      -3.38774957e-02 -9.57724899e-02 1.34457573e-01 1.24771535e-01
      2.57948376e-02 -1.82047665e-01 -1.27923086e-01 -1.36549532e-01
      2.56132637e-03 -1.65891886e-01 1.60115674e-01 7.17722997e-02</_>
    <_>
      2.90239245e-01 3.18019800e-02 2.57076800e-01 -2.14877218e-01
      -8.64005536e-02 -2.51871608e-02 2.13107420e-03 -6.94253743e-02
      -2.89979354e-02 -2.86503658e-02 -1.16476528e-01 8.59483555e-02
      -4.88811266e-03 -7.32336119e-02 -2.12125275e-02 1.14471368e-01
      6.86387047e-02 -5.93056977e-02 -4.77466732e-02 -6.87968880e-02
      -3.50935906e-02 -9.84387994e-02 1.92357600e-03 7.64561370e-02
      -2.67083086e-02 6.76280484e-02 -1.58363525e-02 2.14769766e-01
      1.10478543e-01 -8.44684429e-03 -8.16532895e-02 -1.70545220e-01
      -9.25961435e-02 -4.62233275e-02 1.79133669e-01 -3.71303335e-02</_>
    <_>
      -2.97152866e-02 -1.28325552e-01 2.88809121e-01 -1.70598067e-02
      8.51691887e-02 -1.77634180e-01 -2.27212589e-02 8.86050686e-02
      -5.20680398e-02 -7.29610911e-03 -1.78036049e-01 2.71168560e-01
      7.31991529e-02 -1.01140305e-01 4.27310579e-02 7.15473248e-03
      7.03001693e-02 -2.47152030e-01 2.45673377e-02 -1.13289423e-01
      -5.16860895e-02 -1.31812200e-01 1.38522267e-01 -9.30755064e-02
      2.92792749e-02 -4.56843972e-02 9.56794769e-02 1.35057464e-01
      1.07678629e-01 1.10454440e-01 -4.54975665e-02 -1.03090048e-01
      -3.28512676e-02 5.74942790e-02 5.30960485e-02 -4.60632108e-02</_>
    <_>
      3.71374160e-01 5.21728396e-01 7.18773842e-01 -2.25438640e-01
      6.23156190e-01 2.57765092e-02 1.06543653e-01 -1.00307673e-01
      -3.52415472e-01 -1.13596871e-01 1.09232076e-01 4.89464700e-01
      4.85841259e-02 -2.36329362e-01 -1.03800997e-01 -1.03315644e-01
      -1.18326591e-02 -4.66498524e-01 -6.59804121e-02 -1.47225693e-01
      -3.45355660e-01 7.90818315e-03 -3.73785615e-01 1.80737093e-01
      -2.11602338e-02 6.32432997e-02 -3.09194773e-01 -3.02351385e-01
      3.14983040e-01 -3.54145378e-01 9.82124284e-02 -6.86725304e-02
      -5.70405781e-01 2.54858196e-01 2.23989859e-02 3.65186542e-01</_>
    <_>
      1.19893575e+00 -5.58460712e-01 2.51182705e-01 4.98792440e-01
      1.73641071e-01 -6.05438471e-01 -1.88652098e-01 1.32452518e-01
      2.85355002e-01 -1.74095511e-01 1.30398780e-01 7.53520206e-02
      9.24570411e-02 1.45582855e-01 -5.85636497e-02 -3.75523344e-02
      1.08530931e-01 -1.03268981e-01 1.35866091e-01 1.94557905e-01
      -1.80098101e-01 2.57078595e-02 -5.05925380e-02 1.40532311e-02
      -1.33208722e-01 3.44674401e-02 -6.20747022e-02 1.67804942e-01
      -1.40855283e-01 -2.10979059e-02 -7.32321143e-02 -2.13090166e-01
      -7.21118376e-02 9.54209715e-02 -8.03664029e-02 -2.20944756e-03</_>
    <_>
      4.22219098e-01 -1.19179025e-01 3.03113222e-01 1.83894262e-01
      1.36076808e-01 1.54070467e-01 1.10394239e-01 -1.48422673e-01
      -1.18114771e-02 -1.30280352e-03 -1.73859850e-01 -1.10726222e-01
      2.08714083e-01 -1.56340748e-01 7.99682513e-02 -1.16721746e-02
      3.58186215e-02 1.14647724e-01 1.48156554e-01 -9.67006087e-02
      1.62493914e-01 -3.22868712e-02 -8.21361020e-02 2.16414016e-02
      -2.86897779e-01 -1.17209938e-03 4.39107940e-02 1.61017761e-01
      1.87559351e-01 6.24205135e-02 5.62456883e-02 -2.22857222e-01
      -1.38433978e-01 -1.18180640e-01 5.78667596e-02 -1.18092708e-01</_>
    <_>
      -8.95864293e-02 8.73360753e-01 -1.58966982e+00 3.10254663e-01
      4.12521750e-01 1.52155815e-03 3.37149426e-02 -3.42430808e-02
      3.58150125e-01 1.02421343e+00 5.78729510e-01 3.98965120e-01
      1.40632510e-01 -1.74676090e-01 -3.19972308e-03 -3.62854451e-02
      1.18052028e-02 -4.40417416e-02 2.66595948e-02 4.39800136e-03
      -2.51220949e-02 -1.22814432e-01 -2.72670817e-02 1.71347335e-02
      -6.53399453e-02 -1.28282094e-03 7.91092403e-03 2.06068844e-01
      7.70697147e-02 -2.37072655e-03 -6.95570111e-02 -1.61063313e-01
      -5.51398285e-02 -6.80655465e-02 1.26381129e-01 1.16572203e-02</_>
    <_>
      -1.27036735e-01 -2.87750036e-01 1.31628960e-01 -5.80554903e-02
      1.35873854e-01 1.36035774e-02 -6.64831046e-03 -2.02189863e-01
      -7.07369074e-02 -1.32794499e-01 -5.32103069e-02 1.02932505e-01
      2.60299686e-02 -8.93417522e-02 1.19114831e-01 -1.82483029e-02
      1.60454810e-01 1.15443431e-02 -1.60036132e-01 -1.27951398e-01
      3.01754437e-02 7.92162195e-02 -3.71391065e-02 -1.00511022e-01
      -4.70484160e-02 -2.97081936e-02 5.50604574e-02 7.17573836e-02
      -5.49267866e-02 5.81332110e-02 1.30475573e-02 -1.45846367e-01
      -4.49369326e-02 -4.73622009e-02 2.62649119e-01 -1.57902651e-02</_>
    <_>
      2.24731445e-01 2.95276586e-02 2.64950782e-01 -1.92920297e-01
      -9.60546657e-02 -5.86273670e-02 -4.33497205e-02 -4.88148704e-02
      -2.28334162e-02 -3.42060700e-02 -1.17639035e-01 9.47755575e-02
      -1.72523491e-04 -6.54654503e-02 -4.26852070e-02 1.06541559e-01
      6.27730414e-02 -3.22154239e-02 -4.25245576e-02 -6.67596832e-02
      -4.14934121e-02 -6.12169355e-02 -6.13099383e-03 5.49418554e-02
      -5.18334284e-02 6.16039485e-02 -2.25598477e-02 2.07791284e-01
      1.13520041e-01 1.23823145e-02 -9.72684622e-02 -1.68009743e-01
      -1.01165421e-01 -4.95211072e-02 1.68622926e-01 -1.19754169e-02</_>
    <_>
      1.22296584e+00 -4.63173419e-01 -4.91416864e-02 -1.22867680e+00
      4.75049794e-01 -2.71888375e-01 -2.15734299e-02 -1.71434790e-01
      2.12651029e-01 1.18181154e-01 -3.27990115e-01 2.90875733e-02
      -2.78518975e-01 -1.29721373e-01 2.88851887e-01 -5.96210621e-02
      1.55453995e-01 -2.22282276e-01 1.39042931e-02 5.52990437e-02
      1.61529484e-03 -4.91553806e-02 5.08806929e-02 2.97605563e-02
      -1.20941043e-01 1.00994654e-01 -1.79962125e-02 2.70266086e-01
      7.75736943e-02 -1.06383331e-01 -2.03535944e-01 -1.07340820e-01
      -2.87120361e-02 8.26058723e-03 1.67184547e-02 -5.80060631e-02</_>
    <_>
      7.48741478e-02 3.29886675e-02 3.25179905e-01 -5.06843999e-02
      -1.87162999e-02 -2.18573082e-02 1.53600555e-02 1.77145582e-02
      1.71586301e-03 -4.62151431e-02 -4.01850305e-02 2.62629744e-02
      2.77768448e-02 -7.72596374e-02 5.34241125e-02 -5.48763834e-02
      8.18784460e-02 -7.93078840e-02 1.38002140e-02 2.57769153e-02
      -5.91509268e-02 -5.22316284e-02 -1.16872482e-01 8.54092464e-02
      3.44969630e-02 7.84109696e-04 6.57995418e-02 2.14609340e-01
      8.51666257e-02 7.15032499e-03 -7.12429956e-02 -1.09245703e-01
      -7.41144493e-02 -7.55530074e-02 1.51033998e-01 2.07161214e-02</_>
    <_>
      3.13543603e-02 -1.96099579e-01 2.78411090e-01 -1.02085948e-01
      9.63945761e-02 1.27401082e-02 1.27604119e-02 -1.37066796e-01
      2.71657296e-03 -7.87460357e-02 4.03467007e-02 1.24871666e-02
      9.13431942e-02 -1.60509840e-01 -5.25916480e-02 -1.07158363e-01
      1.11815050e-01 -1.27358302e-01 -1.86341073e-04 -6.96541294e-02
      -5.68760447e-02 -4.10113391e-03 -2.71205418e-02 1.46350060e-02
      -2.08674781e-02 -8.70794505e-02 -2.20782217e-02 2.79391378e-01
      -3.48242262e-04 3.77208218e-02 -5.85214533e-02 -1.27405033e-01
      -1.43326312e-01 3.46996374e-02 1.91605479e-01 -4.37776558e-02</_>
    <_>
      2.63262689e-02 -1.85156494e-01 2.44262964e-01 -5.25995977e-02
      1.26051962e-01 6.03108061e-03 -5.11952713e-02 -8.67553651e-02
      2.74675190e-02 -1.50430342e-02 -7.69152585e-03 -6.98632374e-02
      1.36972836e-03 -1.30135283e-01 -2.24701129e-02 -9.02429447e-02
      -2.57713422e-02 1.84472688e-02 5.26831970e-02 6.79700226e-02
      -9.82128680e-02 -5.73532246e-02 -1.05050094e-01 1.06781244e-01
      -3.07685137e-02 2.21273787e-02 4.12941389e-02 2.39411011e-01
      2.42700186e-02 -5.05611859e-02 -6.15613908e-02 -1.15483120e-01
      -3.71110626e-02 -7.31017515e-02 4.09116112e-02 -1.39152501e-02</_>
    <_>
      -4.62624207e-02 -3.80050510e-01 2.16465488e-01 -6.73161373e-02
      2.54234105e-01 1.62436478e-02 -7.19632804e-02 -1.11683026e-01
      4.14527245e-02 -3.48797701e-02 3.16912197e-02 -7.72360787e-02
      5.13895191e-02 -1.39207736e-01 -3.84787582e-02 -2.79517590e-05
      -1.03217930e-01 -8.56255069e-02 1.54753886e-02 -8.57369304e-02
      -1.09773437e-02 1.16218058e-02 8.63254592e-02 -2.65222229e-03
      -5.01642236e-03 -1.11432917e-01 -5.43885157e-02 2.50352144e-01
      4.52850088e-02 1.32326747e-03 -1.34973466e-01 -5.16545810e-02
      -1.35071933e-01 -1.08731531e-01 1.05485737e-01 -6.18810058e-02</_>
    <_>
      1.78002000e+00 -3.47185075e-01 2.76482493e-01 -1.65798768e-01
      8.27180743e-01 1.33805156e-01 -1.02564603e-01 4.29884583e-01
      2.05174491e-01 -2.78459907e-01 3.62732202e-01 -3.57658304e-02
      -2.17774242e-01 3.29527520e-02 -8.81107971e-02 -5.85179105e-02
      9.32974624e-04 -2.41888478e-01 -2.44969670e-02 -2.54935741e-01
      3.98687145e-04 3.76744010e-02 -7.24534318e-02 -2.98480317e-02
      -1.35677263e-01 1.10990115e-01 -2.02156663e-01 3.26947421e-01
      2.28920817e-01 -1.70585886e-01 -1.22140527e-01 6.37114570e-02
      9.78345051e-02 3.86078358e-02 2.32127503e-01 -6.97351247e-02</_>
    <_>
      1.74867824e-01 4.72273976e-02 3.29706609e-01 -1.83097571e-02
      -2.73239650e-02 1.01453409e-01 -3.45860384e-02 1.08509725e-02
      1.97542775e-02 -1.73723008e-02 -2.34823413e-02 -3.92555185e-02
      -6.23159949e-03 -4.17054519e-02 6.77472726e-02 -2.07882803e-02
      4.76400033e-02 1.75643340e-02 4.10846155e-03 -9.58635733e-02
      -7.42018446e-02 -1.02806710e-01 -3.56169008e-02 -2.14357805e-02
      -6.55323416e-02 -3.61326262e-02 -3.72937918e-02 2.52694398e-01
      3.43550257e-02 2.30136346e-02 -2.61096843e-02 -3.59469093e-02
      -1.43644318e-01 -2.48587169e-02 1.14907555e-01 1.50710363e-02</_>
    <_>
      1.74920037e-01 1.31887227e-01 3.03564936e-01 -1.02870852e-01
      -1.33086905e-01 -1.22798635e-02 -3.12591046e-02 -9.21554640e-02
      -7.82166235e-03 -7.11317807e-02 -2.11918484e-02 8.96461774e-03
      3.12219746e-02 -8.54804143e-02 1.53253274e-02 -3.08094099e-02
      7.49276951e-03 -6.85702041e-02 1.32092519e-03 -2.85471529e-02
      -6.96726590e-02 -9.08268392e-02 -4.47239093e-02 1.63104720e-02
      -4.10157405e-02 3.36165316e-02 1.69855896e-02 2.10911185e-01
      8.63696039e-02 -2.34575054e-04 -4.20073345e-02 -1.64441332e-01
      -4.48450968e-02 -5.08503430e-02 1.45774916e-01 -2.84267887e-02</_>
    <_>
      8.73018950e-02 -1.40108123e-01 2.83042431e-01 -4.02767863e-03
      1.44983819e-02 -9.17198658e-02 -8.79144389e-03 7.36916140e-02
      -7.39120021e-02 -5.07312790e-02 -3.66685018e-02 1.32990122e-01
      8.41383487e-02 -6.86303675e-02 4.93145585e-02 -1.87288839e-02
      1.25205129e-01 -1.79131869e-02 2.34081410e-02 3.35702635e-02
      -3.50775458e-02 -9.05246735e-02 5.86524419e-03 2.44096667e-02
      -2.98234597e-02 8.05524923e-03 4.72598663e-03 1.91094473e-01
      1.13459557e-01 4.51149680e-02 -1.32601827e-01 -6.40474409e-02
      -1.29198998e-01 -6.41900450e-02 1.29499748e-01 -8.26288853e-03</_>
    <_>
      -1.36684880e-01 8.53878915e-01 1.07236898e+00 -2.36681011e-02
      1.08030355e+00 -7.55151734e-02 -1.44376874e-01 -5.83643794e-01
      2.49694049e-01 -1.76826745e-01 5.35224490e-02 6.37915611e-01
      -1.21052086e-01 1.04201829e+00 2.68501908e-01 -8.82596821e-02
      -1.11366287e-02 2.08837181e-01 1.43100604e-01 -2.53562391e-01
      3.01603615e-01 -1.79770559e-01 -1.33503780e-01 3.14956039e-01
      1.58492208e-01 -2.94674952e-02 2.88723320e-01 4.07641590e-01
      -3.07260454e-01 2.05087662e-01 -1.60193026e-01 -2.32447773e-01
      1.48492917e-01 -1.96186662e-01 -1.19883558e-02 -1.59481496e-01</_>
    <_>
      5.21433391e-02 -8.25627074e-02 2.58781433e-01 -7.29617402e-02
      7.30119646e-02 -3.44123244e-02 -3.83813307e-02 -1.79226220e-01
      -2.00886410e-02 -6.42490312e-02 -9.96082835e-03 1.27852671e-02
      7.97845647e-02 -1.30959004e-01 -9.40625370e-02 -9.24496427e-02
      -6.52393028e-02 -1.05043516e-01 1.26421256e-02 -4.73495312e-02
      -1.79347349e-03 -8.47202614e-02 2.02657678e-03 7.49203786e-02
      -6.21185154e-02 -1.02421073e-02 3.46213765e-03 2.32747346e-01
      4.06154729e-02 -9.33601484e-02 -2.72012074e-02 -1.96976736e-01
      -8.77102464e-02 -1.01297744e-01 6.87777698e-02 1.69407169e-03</_>
    <_>
      -1.51913986e-01 -5.42309761e-01 1.81610674e-01 2.59060413e-02
      2.07351968e-01 -4.27941605e-03 -3.10454071e-01 -3.79639417e-01
      -1.95721641e-01 -1.34690786e-02 -8.15502480e-02 1.99578673e-01
      -5.50055224e-03 1.37655422e-01 -1.46986842e-01 2.94260904e-02
      -1.42750535e-02 2.59964406e-01 -1.10959992e-01 5.77197596e-02
      -2.11633280e-01 -2.73945332e-01 2.03362346e-01 -1.76216960e-01
      -1.17743082e-01 1.65354162e-01 -1.22884214e-01 1.01100124e-01
      2.29991704e-01 -5.61200865e-02 -1.71369091e-01 -2.62396634e-01
      -1.31284480e-03 -2.25198343e-01 9.94744152e-03 1.22019753e-01</_>
    <_>
      -1.84258699e-01 -5.89833558e-01 1.98569298e-01 -3.13342400e-02
      2.42133170e-01 3.77911068e-02 -7.00399056e-02 -2.45438293e-01
      -1.24749906e-01 -2.43745111e-02 4.69104610e-02 2.19159033e-02
      7.14954957e-02 1.03353513e-02 -1.04146451e-01 -9.94117651e-03
      8.26628655e-02 1.33116156e-01 7.75627121e-02 4.18286845e-02
      -2.89492253e-02 -6.71830848e-02 -4.70621102e-02 4.47324738e-02
      -6.91748708e-02 4.60431390e-02 -1.63961440e-01 2.25216419e-01
      1.42695621e-01 -1.31963030e-01 -7.66411498e-02 -1.41011134e-01
      -7.55647793e-02 -8.73911902e-02 2.24630177e-01 2.13603675e-02</_>
    <_>
      1.75443351e-01 4.54383232e-02 3.29358071e-01 -3.46739814e-02
      -6.51203990e-02 -1.75752621e-02 -6.00602943e-03 1.82235986e-02
      -1.32952137e-02 -5.35839796e-02 -1.10917282e-03 1.18647274e-02
      5.68041839e-02 -6.12824149e-02 6.49358034e-02 -7.27000972e-03
      7.67670348e-02 -6.29061759e-02 -2.26136148e-02 -1.86248478e-02
      -4.27971706e-02 -5.31932600e-02 -5.04850112e-02 4.42432575e-02
      -3.11863925e-02 -1.60384905e-02 -3.24682356e-03 1.83263361e-01
      6.39428794e-02 -1.46958455e-02 -8.46727714e-02 -1.56773776e-01
      -7.02136084e-02 -6.34445474e-02 1.12566277e-01 1.38623230e-02</_>
    <_>
      -5.57383075e-02 -4.00019497e-01 2.34005481e-01 -2.59167627e-02
      2.57263392e-01 4.47938740e-02 -1.14698775e-01 -1.28838718e-01
      -1.32835954e-01 3.21375430e-02 -2.12858915e-02 2.54312381e-02
      -1.04943635e-02 -3.62504013e-02 5.09386323e-02 9.15488787e-03
      4.70503345e-02 -2.87365969e-02 -1.96035340e-04 -6.15169667e-02
      -8.17757994e-02 -1.63437948e-01 -3.11186500e-02 -2.17538625e-02
      3.08899418e-03 -5.47382981e-02 9.08677280e-02 3.43980521e-01
      4.02629673e-02 -1.08895032e-03 2.37787105e-02 -1.36554882e-01
      -4.64556552e-02 -4.15820302e-03 1.78701982e-01 -3.47976908e-02</_>
    <_>
      -1.75781459e-01 -6.04831815e-01 1.85099646e-01 -8.25635642e-02
      3.12618524e-01 3.08020618e-02 -5.41415587e-02 -2.66593248e-01
      -1.07394218e-01 -5.32525778e-02 1.26968637e-01 -1.45450514e-02
      -1.21784974e-02 -1.50607556e-01 -1.53837666e-01 -7.36116692e-02
      1.09277077e-01 8.33896995e-02 -1.07858479e-01 1.10535435e-02
      -1.10826321e-01 -8.20081085e-02 5.53411730e-02 8.99092779e-02
      -1.75557181e-01 -1.54007107e-01 4.66276854e-02 1.36337012e-01
      3.24971080e-02 -3.40602696e-02 -2.37630785e-01 -1.63586423e-01
      -1.79870516e-01 7.04695582e-02 1.38494998e-01 -1.50474861e-01</_>
    <_>
      1.19590969e-03 -2.33555689e-01 2.40751892e-01 -1.48090973e-01
      8.36531073e-02 3.71648232e-03 4.60961387e-02 -1.06863283e-01
      -4.79301102e-02 -1.10867858e-01 1.48203224e-01 -6.09783977e-02
      1.58200294e-01 -1.89771652e-01 1.28205627e-01 -5.79025075e-02
      1.25532806e-01 -7.14668259e-02 2.05542650e-02 -1.56085901e-02
      6.31007031e-02 -1.99631259e-01 -1.52477682e-01 8.65655243e-02
      4.88462262e-02 3.67295444e-02 8.72304589e-02 2.30654776e-01
      1.06856383e-01 -1.30247220e-01 -1.20232217e-01 -1.96067125e-01
      -5.90872504e-02 -1.10884950e-01 7.46574476e-02 8.12273547e-02</_>
    <_>
      -5.44677451e-02 -2.70723313e-01 2.73057967e-01 -2.97822114e-02
      2.09689364e-01 1.77220311e-02 -5.17734364e-02 -1.60585120e-02
      -6.11717924e-02 7.94131309e-03 1.25621678e-02 -2.37255730e-02
      4.71402630e-02 1.50530413e-03 6.04655743e-02 4.83773425e-02
      5.58398403e-02 -4.94665019e-02 -2.40761158e-03 -2.68611568e-03
      -2.73206513e-02 -1.07864983e-01 1.68666597e-02 7.48857632e-02
      -1.09138116e-02 -1.29610434e-01 4.26661186e-02 1.84636325e-01
      1.21176459e-01 -5.56216314e-02 -4.38259169e-02 -1.71696275e-01
      -2.95668207e-02 1.43777570e-02 5.09996712e-02 -5.54253832e-02</_>
    <_>
      2.41536236e+00 -3.67974222e-01 1.71861589e-01 -4.83231097e-02
      3.16634238e-01 -5.62498271e-01 1.04685009e+00 -2.65780658e-01
      1.66633606e-01 -1.48645610e-01 7.53129199e-02 3.32511961e-02
      1.56235918e-01 5.60583919e-02 -4.28558946e-01 9.66248512e-02
      8.70300829e-02 -5.13043106e-02 3.23903821e-02 -1.34696215e-02
      -1.49261728e-01 -9.56400409e-02 -4.98711467e-02 3.54017653e-02
      3.89567241e-02 -1.02710523e-01 1.17410563e-01 1.22620344e-01
      8.85274857e-02 7.88697600e-02 -6.77938759e-02 -2.84432806e-02
      -9.50524285e-02 -1.05952188e-01 1.32191837e-01 -6.17143884e-03</_>
    <_>
      9.92927015e-01 -1.56042233e-01 3.20613325e-01 1.46579966e-01
      2.78844357e-01 5.46197414e-01 4.81236756e-01 -2.02039137e-01
      1.04367584e-01 -3.54952589e-02 -2.45834023e-01 -3.30806673e-02
      1.57762095e-01 -2.12807268e-01 2.21839309e-01 -1.39237359e-01
      8.57882574e-03 6.20374195e-02 8.37660208e-02 -1.05399936e-02
      8.07256773e-02 -1.00563496e-01 4.69809258e-03 1.08605839e-01
      -3.27230066e-01 6.87128529e-02 -6.06696494e-02 1.48900822e-01
      1.96948692e-01 8.94519314e-02 -5.30286096e-02 -2.82175004e-01
      -1.48654386e-01 -5.68180755e-02 2.14872807e-02 1.56327207e-02</_>
    <_>
      2.62804002e-01 -2.85047069e-02 3.50420743e-01 -3.45572472e-01
      4.46805179e-01 -1.58542171e-01 -8.33060369e-02 3.10901701e-01
      -1.70161933e-01 8.35190155e-03 -2.35687047e-01 2.07861155e-01
      1.61235377e-01 -2.23013029e-01 -3.04836512e-01 4.39580768e-01
      -2.55886782e-02 -1.31293058e-01 -3.42381895e-01 4.33348902e-02
      6.36584461e-02 -3.48530263e-01 -2.34294951e-01 2.38125515e-03
      -2.63600349e-02 1.98672172e-02 -5.78602441e-02 2.11663932e-01
      -3.66110802e-02 -5.99056259e-02 -6.06450513e-02 -1.53646991e-01
      -1.86505392e-02 3.53664905e-02 4.35895808e-02 -5.83722591e-02</_>
    <_>
      3.98898512e-01 -4.19494748e-01 2.90357083e-01 1.98774263e-01
      2.90823072e-01 -5.43013513e-01 1.20926537e-01 1.34021997e-01
      -4.92660739e-02 -1.66714162e-01 1.64305836e-01 1.64950099e-02
      1.95482969e-01 1.96203794e-02 3.21216226e-01 -2.22890805e-02
      -2.77790278e-01 -1.91227525e-01 1.75419841e-02 5.35534993e-02
      -1.80624261e-01 -1.59072891e-01 -1.13992460e-01 -1.36699975e-01
      -2.50763178e-01 1.69054151e-01 1.68633744e-01 1.89497322e-01
      1.03635058e-01 9.67454165e-02 -2.60918677e-01 -2.93795675e-01
      -1.67344153e-01 -9.03562903e-02 2.53578931e-01 1.26569513e-02</_>
    <_>
      -7.49149844e-02 -2.27892771e-01 2.62729526e-01 -9.46245641e-02
      7.31985867e-02 -6.22719303e-02 -6.02362454e-02 -2.41446063e-01
      -1.70730334e-02 -1.19131029e-01 4.19359133e-02 7.55149201e-02
      5.63866943e-02 -1.33631483e-01 1.21292649e-02 -3.69083472e-02
      -3.01149618e-02 -5.70570305e-02 3.67732048e-02 -4.97910753e-02
      1.38745108e-03 -9.77107063e-02 -4.72248122e-02 -3.17455083e-02
      -6.68726861e-02 -3.58070806e-02 -5.85716367e-02 2.34037966e-01
      5.18041216e-02 1.24235218e-02 -5.36641926e-02 -7.80510381e-02
      -5.24152890e-02 -4.78101522e-02 2.68823449e-02 1.72664169e-02</_>
    <_>
      -1.00319847e-01 -5.54546058e-01 2.08085075e-01 -3.14825699e-02
      3.38872045e-01 5.35759777e-02 -1.63074449e-01 -1.77591756e-01
      -4.63647582e-02 5.11618145e-02 7.61435479e-02 -1.62003294e-01
      -1.11772917e-01 -6.18487857e-02 -1.03727162e-01 -7.02398922e-03
      4.81745303e-02 1.39515162e-01 -4.59571183e-02 -1.14224590e-01
      -1.30964339e-01 -1.00959197e-01 -6.63039982e-02 3.32330838e-02
      1.14114128e-01 -1.16120502e-01 -7.27713406e-02 1.78794682e-01
      1.52837992e-01 -3.84541340e-02 -7.91658983e-02 -2.13378444e-01
      -4.14773598e-02 -3.83706652e-02 1.33729935e-01 -2.68641431e-02</_>
    <_>
      2.90239245e-01 3.18019800e-02 2.57076800e-01 -2.14877218e-01
      -8.64005536e-02 -2.51871608e-02 2.13107420e-03 -6.94253743e-02
      -2.89979354e-02 -2.86503658e-02 -1.16476528e-01 8.59483555e-02
      -4.88811266e-03 -7.32336119e-02 -2.12125275e-02 1.14471368e-01
      6.86387047e-02 -5.93056977e-02 -4.77466732e-02 -6.87968880e-02
      -3.50935906e-02 -9.84387994e-02 1.92357600e-03 7.64561370e-02
      -2.67083086e-02 6.76280484e-02 -1.58363525e-02 2.14769766e-01
      1.10478543e-01 -8.44684429e-03 -8.16532895e-02 -1.70545220e-01
      -9.25961435e-02 -4.62233275e-02 1.79133669e-01 -3.71303335e-02</_>
    <_>
      4.39000696e-01 -2.40599826e-01 2.90325910e-01 1.71874151e-01
      2.59938631e-02 1.96070552e-01 -1.29819378e-01 -1.29353374e-01
      3.56606781e-01 -3.16311479e-01 1.82896063e-01 1.37406871e-01
      3.59554619e-01 -7.86029771e-02 7.68288672e-02 1.95604920e-01
      4.69337068e-02 -8.49130452e-02 1.32701248e-02 -1.09682396e-01
      -2.14468732e-01 -7.22378790e-02 -2.51541249e-02 -8.31674412e-02
      -1.01991091e-02 -1.25115544e-01 -2.05476880e-02 1.31024733e-01
      9.37949717e-02 7.09867775e-02 -1.86493456e-01 -8.42337683e-02
      8.12734738e-02 -2.02494431e-02 1.01695098e-01 1.15350164e-01</_>
    <_>
      -4.36408110e-02 -4.03001130e-01 1.86196268e-01 -6.63969815e-02
      2.14797661e-01 3.66057046e-02 -1.09185956e-01 -1.45760477e-01
      4.38249484e-02 -2.58634798e-02 2.19319370e-02 -1.45714888e-02
      3.59099321e-02 -1.10952899e-01 -2.47383248e-02 -7.82076456e-03
      -7.93173164e-02 -5.40736504e-02 7.71066174e-03 -1.04842976e-01
      7.37676444e-03 1.35138854e-02 5.06311059e-02 -4.31108512e-02
      -2.06119046e-02 -8.42925236e-02 -1.54553372e-02 1.92332044e-01
      2.21661832e-02 6.72081634e-02 -1.20342471e-01 -6.85454682e-02
      -1.46669284e-01 -1.31461665e-01 1.27462029e-01 -1.68594047e-02</_>
    <_>
      8.89891148e-01 -1.42519787e-01 2.37095550e-01 -4.87697810e-01
      7.23202705e-01 1.94140539e-01 -2.22705342e-02 4.44918036e-01
      -5.20491339e-02 4.70590927e-02 -9.95539688e-03 -5.81602119e-02
      -1.62601113e-01 -4.72673997e-02 -7.50433207e-02 -4.31111641e-02
      -7.52978921e-02 -4.94517349e-02 -1.58328921e-01 -1.69087365e-01
      1.15350015e-01 1.64030671e-01 -2.40885448e-02 4.06624638e-02
      2.13324502e-02 8.09535459e-02 -1.14289939e-01 2.91478217e-01
      1.98217422e-01 -1.31059855e-01 -1.14816979e-01 -7.78884366e-02
      -6.62504812e-04 -3.11817024e-02 8.54830593e-02 -8.61588567e-02</_>
    <_>
      -2.92153214e-03 -1.01844929e-01 3.08486134e-01 -1.11796390e-02
      5.62076680e-02 -1.22550450e-01 -3.64391250e-03 2.76196506e-02
      -1.49378898e-02 -4.70264964e-02 -1.11893237e-01 1.36743531e-01
      7.32788071e-02 -1.27990440e-01 -5.36312833e-02 -4.86620776e-02
      5.32585531e-02 -7.83512592e-02 6.80707023e-02 -5.32803796e-02
      -3.14764865e-02 -2.10901406e-02 -5.51846884e-02 3.65075190e-04
      1.88472439e-02 1.18259247e-02 2.66504530e-02 1.75279602e-01
      4.83869426e-02 5.07292338e-02 -8.83651003e-02 -1.66782528e-01
      -6.66202232e-02 4.97902138e-03 9.68084037e-02 -4.04221937e-02</_>
    <_>
      2.63020664e-01 8.96632671e-01 1.00969982e+00 -2.10194990e-01
      1.02586639e+00 -6.61765551e-03 -6.33059815e-02 -3.88328910e-01
      9.54450220e-02 -1.72364280e-01 -3.07668373e-02 5.15930474e-01
      -2.34482214e-01 6.98211849e-01 2.58801728e-01 -9.51495841e-02
      -4.03638147e-02 9.40119103e-02 3.84936742e-02 -3.68370533e-01
      1.84162110e-01 -5.78085221e-02 -1.10639811e-01 4.58153635e-01
      1.07766017e-01 -1.49092525e-01 -8.39616582e-02 3.85742068e-01
      1.45389521e-02 1.69471964e-01 -8.79334435e-02 -4.43372637e-01
      -1.41993001e-01 -3.14039677e-01 -3.39858159e-02 8.55997503e-02</_>
    <_>
      -4.08271365e-02 -8.28389451e-02 2.94848442e-01 -8.72771144e-02
      3.31383161e-02 -1.03113085e-01 1.12617584e-02 -1.23562835e-01
      -1.43759605e-02 -1.15499541e-01 1.71221269e-03 1.51961669e-01
      1.07366271e-01 -1.21006057e-01 -9.89702530e-03 -1.14064775e-01
      6.76195771e-02 -7.98052102e-02 7.02630877e-02 -4.98304516e-02
      7.21887648e-02 -5.46839461e-02 -1.04400255e-01 3.53746712e-02
      -1.01521529e-01 -1.52436821e-02 -4.03391756e-02 1.33016497e-01
      1.27084136e-01 -4.22258303e-02 -5.07616811e-02 -1.19912639e-01
      -2.96530668e-02 -1.59213737e-01 2.75428556e-02 1.62412263e-02</_>
    <_>
      5.97542524e-02 -1.38507888e-01 2.96710044e-01 -4.47772779e-02
      3.99098471e-02 -8.80827010e-03 3.20545435e-02 -1.49935484e-02
      2.08625216e-02 -6.72753975e-02 2.18730941e-02 3.47768553e-02
      7.81841353e-02 -1.19484358e-01 5.04921563e-02 -4.48672473e-02
      8.48512501e-02 -3.48902158e-02 2.93746702e-02 -3.62751149e-02
      -9.29940566e-02 -7.56634548e-02 -1.28420055e-01 3.14577222e-02
      -7.84137174e-02 -6.33734418e-03 4.40788865e-02 2.01981410e-01
      2.35506017e-02 -6.45484477e-02 -1.53365806e-01 -1.20938562e-01
      -1.19161271e-01 -6.61514848e-02 8.35660100e-02 3.16791274e-02</_>
    <_>
      1.70390829e-01 1.26872331e-01 3.14934134e-01 -9.50785130e-02
      -1.10583015e-01 9.88514815e-03 -4.80925292e-02 -8.58454257e-02
      -2.91927289e-02 -7.40252510e-02 -1.45370644e-02 8.65298905e-04
      4.09830883e-02 -8.32457989e-02 2.17663385e-02 -3.39126922e-02
      6.11039624e-03 -6.43353835e-02 1.20514072e-02 -2.88120806e-02
      -6.35590926e-02 -1.04638509e-01 -3.56032588e-02 4.15902578e-05
      -3.39775607e-02 3.60205919e-02 9.92516172e-04 2.19909444e-01
      8.18881914e-02 -3.38439047e-02 -4.02746275e-02 -1.71448559e-01
      -3.59617211e-02 -5.67633882e-02 1.39587969e-01 -2.28066985e-02</_>
    <_>
      1.17494129e-01 -2.55143017e-01 2.49584407e-01 -1.38140678e-01
      8.94861892e-02 1.25854820e-01 8.49564224e-02 -4.17098356e-03
      -1.48747355e-01 -1.79625228e-02 2.44050957e-02 6.77631646e-02
      8.30547977e-03 3.36928219e-02 1.62853878e-02 9.40443575e-02
      1.69489905e-02 -7.23764747e-02 3.40494588e-02 2.96423808e-02
      -1.92654952e-01 -9.81204212e-02 -8.97926688e-02 1.87952325e-01
      -1.97248962e-02 8.69677030e-03 1.26856286e-02 1.53974146e-01
      8.34641904e-02 -2.16048583e-03 -1.03602242e-02 -9.86801684e-02
      -3.82093117e-02 -4.44645714e-03 1.51347190e-01 3.60697582e-02</_>
    <_>
      1.70390829e-01 1.26872331e-01 3.14934134e-01 -9.50785130e-02
      -1.10583015e-01 9.88514815e-03 -4.80925292e-02 -8.58454257e-02
      -2.91927289e-02 -7.40252510e-02 -1.45370644e-02 8.65298905e-04
      4.09830883e-02 -8.32457989e-02 2.17663385e-02 -3.39126922e-02
      6.11039624e-03 -6.43353835e-02 1.20514072e-02 -2.88120806e-02
      -6.35590926e-02 -1.04638509e-01 -3.56032588e-02 4.15902578e-05
      -3.39775607e-02 3.60205919e-02 9.92516172e-04 2.19909444e-01
      8.18881914e-02 -3.38439047e-02 -4.02746275e-02 -1.71448559e-01
      -3.59617211e-02 -5.67633882e-02 1.39587969e-01 -2.28066985e-02</_>
    <_>
      -6.08118586e-02 -4.31279123e-01 2.07615450e-01 -9.07062143e-02
      1.59356907e-01 4.53529656e-02 -1.34793734e-02 -1.58186197e-01
      -1.51023865e-01 1.94845349e-02 -1.22733915e-03 6.30812868e-02
      1.48189336e-01 3.67166363e-02 5.96972331e-02 1.98284760e-02
      1.22139163e-01 1.37693249e-03 -3.40844467e-02 -1.77665167e-02
      -9.55080763e-02 -1.02508403e-01 -1.00215033e-01 7.24602267e-02
      -7.50745237e-02 7.88721889e-02 3.50564420e-02 1.88861206e-01
      7.06376508e-02 -1.62982624e-02 -6.93668723e-02 -1.05639733e-01
      -3.92169431e-02 -6.77971616e-02 1.06122509e-01 2.03991905e-02</_>
    <_>
      1.30260866e-02 -1.88578367e-01 2.90821671e-01 5.13023697e-02
      6.48337528e-02 -2.69836327e-03 -1.98146012e-02 1.00242071e-01
      -3.99465673e-02 4.80614044e-02 -1.14253215e-01 5.04448153e-02
      -1.16927344e-02 -3.78156127e-03 4.70835306e-02 2.59408075e-02
      1.63027674e-01 4.27484661e-02 8.95813406e-02 3.26086655e-02
      -2.94412151e-02 -8.72531235e-02 -7.16275722e-02 1.92702878e-02
      1.64729748e-02 -5.06106690e-02 3.62953432e-02 2.38146350e-01
      1.46314681e-01 -1.82014480e-02 -1.14549808e-01 -1.44203931e-01
      -1.15164779e-01 8.07431340e-02 1.69899836e-01 1.54523114e-02</_>
    <_>
      2.75952276e-02 -1.51356116e-01 2.65977770e-01 -6.01633675e-02
      2.28554681e-02 -1.78225916e-02 6.60948595e-03 -8.53433385e-02
      -1.00786038e-01 -3.46397758e-02 -1.44858453e-02 1.17116660e-01
      1.24327615e-01 -2.73010656e-02 4.08115275e-02 3.78483273e-02
      1.28527492e-01 -1.10016033e-01 9.03297972e-04 5.06873429e-02
      -1.10035330e-01 -1.35441005e-01 2.23249830e-02 1.14727467e-01
      -9.90234688e-02 4.27250192e-02 1.07493728e-01 1.23367451e-01
      6.18463121e-02 3.75359468e-02 -1.07012996e-02 -1.12325415e-01
      3.67321633e-02 1.53865758e-02 1.16647974e-01 1.25870518e-02</_>
    <_>
      9.77966376e-03 -2.51843631e-01 2.89098769e-01 2.65217274e-02
      4.29427214e-02 1.02850519e-01 -1.07321655e-02 1.29918056e-03
      -8.28444585e-02 1.43281100e-02 4.50813994e-02 -2.06895340e-02
      5.88515773e-02 2.48978306e-02 9.74179804e-02 8.79259035e-02
      1.63579330e-01 8.59638676e-02 -3.04238312e-02 -6.25666883e-03
      -1.69497743e-01 -1.19163565e-01 8.29400495e-02 1.23759553e-01
      -7.30516613e-02 1.41526992e-03 1.25849783e-01 2.09049508e-01
      6.34550825e-02 -1.88374091e-02 -1.03330374e-01 -7.33805969e-02
      -1.19410358e-01 -2.22419035e-02 1.29931688e-01 2.99837608e-02</_>
    <_>
      2.63540840e+00 -1.39866680e-01 1.11301631e-01 -4.63459074e-01
      1.92734614e-01 -4.64774817e-01 -7.41005778e-01 7.11788312e-02
      -2.90052984e-02 -1.26147866e-01 1.84840530e-01 -1.92276277e-02
      2.18400091e-01 3.38193141e-02 -5.64078949e-02 -2.08925262e-01
      1.09464720e-01 1.02171004e-01 -6.96091726e-02 1.85914874e-01
      3.17795053e-02 -2.00491473e-02 -6.86592013e-02 -1.42067512e-02
      5.61416568e-03 -6.45442829e-02 8.53639469e-02 1.25999048e-01
      5.02929576e-02 1.74908340e-02 6.31029233e-02 -1.75191075e-01
      -1.76324040e-01 -1.62520520e-02 5.85765913e-02 5.88105172e-02</_>
    <_>
      -7.95124099e-02 -3.36153507e-01 2.60433614e-01 -7.84524381e-02
      1.31490812e-01 9.91707817e-02 -2.40302831e-02 -1.36155993e-01
      -7.75653943e-02 -3.39711644e-02 2.24824715e-03 1.63387544e-02
      4.60946448e-02 2.16298681e-02 5.69091290e-02 -1.23756249e-02
      1.63849503e-01 2.99204653e-03 -3.84763665e-02 5.07935584e-02
      5.59629127e-03 2.61768810e-02 -1.72002539e-01 8.00170377e-03
      -1.11216702e-01 8.82679771e-04 5.65377846e-02 1.66067481e-01
      2.88461614e-02 -2.05216836e-02 -1.68314986e-02 -1.34331033e-01
      2.50180322e-03 -9.81430709e-02 7.46026114e-02 2.68262383e-02</_>
    <_>
      2.17914367e+00 -5.33896267e-01 4.40775335e-01 1.58439970e+00
      -1.30874040e-02 -3.90568316e-01 1.25529230e-01 -1.38675943e-01
      -3.81906629e-01 1.14429913e-01 -2.69483514e-02 1.38272136e-01
      -6.91246539e-02 -1.40655264e-01 2.16886804e-01 -1.30583301e-01
      8.53643194e-02 3.15890275e-02 -1.73801214e-01 2.31592339e-02
      6.09852076e-02 5.85735263e-03 -3.47766839e-02 -2.27213395e-03
      1.10841937e-01 1.25970375e-02 -9.52586830e-02 2.56919295e-01
      -1.21052470e-02 -4.02762666e-02 -2.90684979e-02 -1.81886211e-01
      -1.14087455e-01 3.92117165e-02 1.33278355e-01 3.06182634e-02</_>
    <_>
      9.08250138e-02 -9.88665000e-02 2.88853735e-01 -1.85608510e-02
      2.76159961e-02 2.64008474e-02 1.71801988e-02 2.58761458e-02
      -2.00799070e-02 -1.55888991e-02 -7.25789890e-02 7.70075321e-02
      9.52830072e-03 -8.79212096e-02 1.64608255e-01 -5.95115311e-02
      1.07086569e-01 -6.12762980e-02 -7.76338624e-03 4.40698266e-02
      -5.31551540e-02 -1.16687067e-01 -6.13946356e-02 4.89105955e-02
      1.76127013e-02 -1.70609988e-02 4.84241098e-02 2.01371998e-01
      -5.35052316e-03 2.01892108e-02 -5.27028507e-03 -7.70250782e-02
      -1.34354666e-01 -8.07539597e-02 1.17637932e-01 1.19077014e-02</_>
    <_>
      -1.28430918e-01 -3.36968452e-01 2.15047330e-01 -8.46843719e-02
      1.11649558e-01 -2.31436212e-02 -1.10684738e-01 -2.92583466e-01
      -1.00965239e-01 -7.78010786e-02 -2.30796002e-02 9.98795852e-02
      5.54022789e-02 5.40305860e-03 2.19253004e-02 -1.05679728e-01
      -3.10655124e-02 -4.49437276e-02 -1.20508019e-02 1.40139073e-01
      -2.89971698e-02 -1.67851657e-01 -5.31783961e-02 -9.08112600e-02
      -9.85630825e-02 3.36077698e-02 -3.16564925e-02 2.30387479e-01
      1.72501773e-01 -6.83786198e-02 -1.38490349e-01 -4.19728495e-02
      -2.49201600e-02 -1.96250781e-01 8.59364495e-02 1.69167817e-02</_>
    <_>
      8.68914604e-01 -2.59760559e-01 2.56064385e-02 -8.41350257e-01
      -3.74770514e-03 -7.03176975e-01 1.89249478e-02 -7.00336218e-01
      2.23269016e-01 2.82403380e-01 -5.32686353e-01 -9.27046686e-02
      -8.43365788e-02 -5.29401936e-02 8.01273882e-02 1.95147142e-01
      1.75109729e-01 6.27713464e-03 2.21968994e-01 -1.99261963e-01
      -6.25229180e-02 -9.17527676e-02 -1.01058125e-01 -1.85301118e-02
      -9.89788547e-02 1.49670765e-01 -1.66974328e-02 2.89044082e-01
      4.50959243e-02 -7.11234957e-02 -3.76724787e-02 -9.36767310e-02
      -1.17346250e-01 3.93840186e-02 2.43690804e-01 1.59090221e-01</_>
    <_>
      1.74920037e-01 1.31887227e-01 3.03564936e-01 -1.02870852e-01
      -1.33086905e-01 -1.22798635e-02 -3.12591046e-02 -9.21554640e-02
      -7.82166235e-03 -7.11317807e-02 -2.11918484e-02 8.96461774e-03
      3.12219746e-02 -8.54804143e-02 1.53253274e-02 -3.08094099e-02
      7.49276951e-03 -6.85702041e-02 1.32092519e-03 -2.85471529e-02
      -6.96726590e-02 -9.08268392e-02 -4.47239093e-02 1.63104720e-02
      -4.10157405e-02 3.36165316e-02 1.69855896e-02 2.10911185e-01
      8.63696039e-02 -2.34575054e-04 -4.20073345e-02 -1.64441332e-01
      -4.48450968e-02 -5.08503430e-02 1.45774916e-01 -2.84267887e-02</_>
    <_>
      2.41708267e-03 -4.25515547e-02 2.46460572e-01 -4.12216149e-02
      1.65853456e-01 -6.75314888e-02 1.10103935e-02 -6.18175566e-02
      -8.65234435e-02 -9.08466205e-02 -9.13135242e-03 4.73276488e-02
      9.62635502e-03 -1.64967611e-01 5.40478230e-02 -7.42462650e-02
      5.01210941e-03 -2.50203758e-02 2.16773450e-02 -9.15574357e-02
      2.13538725e-02 3.05893179e-02 -1.30261123e-01 4.78813909e-02
      -1.07175605e-02 -6.15411289e-02 -7.26700500e-02 1.83996409e-01
      1.17746301e-01 4.41609807e-02 -4.56635542e-02 -1.47587970e-01
      -9.42829177e-02 -7.50096738e-02 5.07799461e-02 5.60732000e-02</_>
    <_>
      9.60219055e-02 -1.25149563e-01 2.87733316e-01 -7.33200982e-02
      -1.99333411e-02 -8.88169855e-02 3.11408713e-02 -1.87317491e-01
      2.70525124e-02 -1.46509364e-01 3.06200925e-02 1.14281528e-01
      1.62417501e-01 -2.07292855e-01 -1.85718052e-02 -8.86299759e-02
      2.53180861e-02 -1.58075854e-01 3.09902150e-03 -3.16808186e-02
      -5.16665727e-02 -1.40046790e-01 -7.22392276e-02 5.05655818e-02
      -5.40519096e-02 -4.82076257e-02 -2.02411190e-02 2.53798723e-01
      6.83117062e-02 -2.72087976e-02 -3.68837751e-02 -1.09537005e-01
      -4.06944267e-02 -1.46004334e-01 8.28969181e-02 -2.54089944e-02</_>
    <_>
      -1.23153105e-01 -5.95663548e-01 2.15039879e-01 8.65505934e-02
      2.87712008e-01 8.60504061e-02 1.66849922e-02 -1.41061410e-01
      7.27421697e-03 4.46213670e-02 1.48269692e-02 -6.35143444e-02
      2.40458488e-01 5.95969483e-02 1.52341530e-01 -6.53893501e-02
      1.86699107e-01 -5.13296723e-02 -6.59264326e-02 -6.63954988e-02
      3.43955718e-02 -1.86387040e-02 -9.58695039e-02 -7.58092944e-03
      -9.55763366e-03 -1.23500131e-01 -6.89487532e-02 1.48841500e-01
      7.99255818e-03 -1.37479484e-01 -1.26467362e-01 -2.00704765e-02
      -1.64168090e-01 -1.82981074e-01 2.52021492e-01 1.05863243e-01</_>
    <_>
      1.85384095e-01 5.04113249e-02 3.23932588e-01 -3.75731103e-02
      -6.47989511e-02 1.11139882e-02 -8.88557266e-03 -7.90345948e-03
      -1.06833670e-02 -4.46475185e-02 -3.56424367e-04 3.68929245e-02
      3.16250250e-02 -8.07463452e-02 6.62603006e-02 -2.05881670e-02
      5.07706739e-02 -9.69305411e-02 -1.53337419e-02 -1.13902297e-02
      -4.07855362e-02 -5.34344986e-02 -2.58533116e-02 2.47257482e-02
      -1.27529670e-02 -2.43067220e-02 2.72475351e-02 1.98535800e-01
      6.42942637e-02 -1.80698524e-03 -9.88097861e-02 -1.57603309e-01
      -7.74213746e-02 -5.83917461e-02 1.26810089e-01 2.27810759e-02</_>
    <_>
      -6.73848316e-02 -4.13523257e-01 2.24139810e-01 -3.83638851e-02
      2.58765370e-01 1.60656609e-02 -9.22578350e-02 -1.44560531e-01
      -1.48968399e-01 4.07458544e-02 -1.30788283e-02 2.16865223e-02
      1.54582842e-03 -5.28448187e-02 8.51573348e-02 -2.11641751e-02
      3.32733281e-02 -8.70642141e-02 -3.15620042e-02 -3.30707245e-02
      -2.75777560e-02 -1.97204337e-01 -2.16713920e-02 9.92080476e-03
      4.34518270e-02 -3.40710059e-02 9.81032848e-02 3.26332390e-01
      4.12481390e-02 2.50742342e-02 2.03013364e-02 -8.65814239e-02
      -9.14025083e-02 -3.94809656e-02 2.07334295e-01 -1.42805148e-02</_>
    <_>
      -7.50876069e-02 1.20324075e-01 5.25183856e-01 1.86529011e-01
      8.09059680e-01 -1.63051248e-01 8.99650231e-02 4.45302248e-01
      -2.22552031e-01 4.50538576e-01 -4.25346464e-01 -9.48473930e-01
      4.34332281e-01 -3.79059166e-01 5.64051047e-02 2.72174001e-01
      1.32109061e-01 1.48457056e-02 -1.39227733e-01 2.75168151e-01
      -9.56590194e-03 -1.09201893e-01 2.53017875e-03 4.50171381e-02
      -1.61978632e-01 -2.50099033e-01 -9.73715335e-02 3.81132871e-01
      6.74283318e-03 2.57363081e-01 -9.43338964e-03 -3.48489791e-01
      3.74673232e-02 -1.31370887e-01 -7.82865435e-02 2.37992942e-01</_>
    <_>
      -5.11904173e-02 -1.54585660e-01 2.67599374e-01 -7.36462548e-02
      1.24780126e-02 4.43269089e-02 -5.94883300e-02 -2.18465820e-01
      -5.64885400e-02 -7.74428621e-02 6.12518676e-02 5.49636520e-02
      7.99956396e-02 -6.24292791e-02 -3.70093784e-03 -6.28067041e-03
      7.09864721e-02 3.10752131e-02 -1.22862961e-02 -2.01417059e-02
      -8.39249566e-02 -1.41246691e-01 -3.20849940e-02 3.62426452e-02
      -2.71817278e-02 4.55516353e-02 1.92163195e-02 1.27476707e-01
      -6.67960383e-03 -7.15572163e-02 -1.33512586e-01 -1.07173547e-01
      -5.70240021e-02 -1.36202484e-01 8.97215158e-02 5.14069758e-02</_>
    <_>
      -7.17781559e-02 -3.81801546e-01 2.36113101e-01 -6.40034750e-02
      1.88822269e-01 1.65365003e-02 -2.46625282e-02 -8.52182880e-02
      -8.31724927e-02 -3.21789943e-02 -1.54418731e-03 3.51045802e-02
      1.45317256e-01 2.23562252e-02 3.97364199e-02 8.52875337e-02
      -6.35985211e-02 -1.12833202e-01 9.84273776e-02 1.18122168e-01
      -1.18144438e-01 -9.99458432e-02 1.24685764e-01 1.30401611e-01
      2.74368692e-02 -1.31293032e-02 1.46928625e-02 3.28114450e-01
      1.03533514e-01 -3.73910442e-02 -4.23927344e-02 -7.24794045e-02
      -1.53904989e-01 -5.38021363e-02 1.15163684e-01 -3.16963606e-02</_>
    <_>
      -1.38771638e-01 2.40079701e-01 5.55161834e-01 1.74651500e-02
      5.90165913e-01 -9.03320163e-02 -9.95845422e-02 1.88086718e-01
      -1.57007426e-01 1.33506969e-01 -3.88919175e-01 -7.86726177e-02
      5.09114623e-01 -8.19016546e-02 -6.65497407e-02 1.63027599e-01
      -8.38767588e-02 -1.86290205e-01 -6.68491870e-02 3.01741511e-01
      8.66945609e-02 -3.46802920e-01 4.17478867e-02 -6.52226880e-02
      -1.01809926e-01 -1.04505173e-03 -1.61496215e-02 4.04068455e-02
      -1.11744650e-01 -1.42023861e-01 -1.50823623e-01 1.11400530e-01
      -1.18229538e-01 8.97935219e-03 4.33217496e-01 1.08333103e-01</_>
    <_>
      -1.88568830e-02 -2.44258672e-01 2.41819873e-01 -9.62434188e-02
      1.42488480e-01 -7.20049366e-02 -5.40126823e-02 -1.54919922e-01
      -7.93709308e-02 -7.27550611e-02 3.36111337e-02 4.07071598e-02
      1.29560858e-01 -7.66842514e-02 -1.18940465e-01 -6.60619047e-03
      4.76263054e-02 -1.29602775e-01 4.54608612e-02 1.15001621e-03
      -8.12880509e-03 -9.73905548e-02 6.13627322e-02 6.55342713e-02
      -3.56114190e-03 4.93358187e-02 -5.07788770e-02 2.57312655e-01
      1.59961313e-01 -9.35837626e-03 -2.65762638e-02 -1.92416564e-01
      -9.72295925e-02 -4.37471271e-02 1.02141120e-01 -6.97284788e-02</_>
    <_>
      -1.25618517e-01 -5.26503921e-01 3.08365524e-01 1.76479384e-01
      8.90370965e-01 -1.41633719e-01 -6.13740645e-02 3.34071875e-01
      -8.76632631e-02 2.14519083e-01 -3.80247504e-01 -5.21874905e-01
      6.54756138e-03 -2.59789258e-01 -2.60012746e-02 5.54402731e-02
      -7.11639225e-01 1.22357629e-01 1.02886356e-01 -1.77532896e-01
      3.24984312e-01 5.03100418e-02 1.24556959e-01 -7.66938999e-02
      9.60751250e-02 -2.41117962e-02 -3.79270837e-02 -8.21747705e-02
      1.18953034e-01 3.84754501e-02 -3.33233997e-02 -1.93006359e-02
      3.35855074e-02 4.42777574e-03 1.08308576e-01 4.50727753e-02</_>
    <_>
      -3.74789201e-02 -1.93234518e-01 2.50936627e-01 -2.43675187e-02
      3.64520284e-03 -8.34235102e-02 -6.99291080e-02 -9.47709680e-02
      -7.37064183e-02 -3.50246690e-02 -6.18476979e-02 9.28732082e-02
      5.71500584e-02 -5.57305776e-02 5.15364297e-02 -4.78397608e-02
      1.36124799e-02 -6.02710173e-02 -3.42593342e-03 -1.38024539e-02
      -1.03998967e-01 -4.71217707e-02 2.22812109e-02 -3.47755961e-02
      -9.46387500e-02 -3.22718769e-02 1.51216639e-02 1.95690572e-01
      3.20903845e-02 -2.49142703e-02 -6.87246993e-02 -1.35789752e-01
      -8.54265690e-02 -5.68828806e-02 1.55626312e-01 2.07817331e-02</_>
    <_>
      1.75346911e-01 4.06682901e-02 3.11957181e-01 -7.87630454e-02
      6.59732968e-02 3.11369505e-02 1.42391026e-02 -5.59369922e-02
      -5.07846326e-02 -1.76837165e-02 1.69688091e-02 -1.60826501e-02
      6.01857379e-02 -4.01855558e-02 1.45599032e-02 9.17909369e-02
      6.15147054e-02 -7.32587604e-03 -2.09294129e-02 -4.25574891e-02
      -1.95888188e-02 -6.34306148e-02 -4.37428243e-02 9.06973332e-02
      -4.57317345e-02 -2.88992487e-02 3.76308188e-02 1.65035322e-01
      5.37761226e-02 -8.96913838e-03 -1.19436070e-01 -9.25088078e-02
      -1.32903874e-01 7.04509392e-03 1.01491287e-01 -3.34752835e-02</_>
    <_>
      -1.17951082e-02 -1.21245146e-01 2.82123685e-01 -1.14869341e-01
      5.07016890e-02 -1.22623285e-02 -3.50293294e-02 -2.14340970e-01
      -4.70759869e-02 -1.02253713e-01 3.92822437e-02 4.86025661e-02
      7.76432513e-04 -1.20238103e-01 8.87623988e-03 -3.13834101e-02
      2.73147821e-02 -4.66491841e-02 -1.69248469e-02 2.23252829e-02
      -2.41637919e-02 -1.64717212e-01 -1.04968309e-01 6.71999622e-03
      -9.54926088e-02 -5.01989461e-02 2.89611407e-02 1.95354447e-01
      1.07676856e-01 -4.42118533e-02 -1.41005188e-01 -1.56286389e-01
      -3.25254798e-02 -1.31764382e-01 8.43593106e-02 3.60706151e-02</_>
    <_>
      -1.22296683e-01 -7.02669680e-01 1.50004923e-01 -8.86906497e-03
      3.87010962e-01 -2.57109851e-01 -2.80593447e-02 1.18407018e-01
      -2.61656325e-02 -1.25934035e-01 -2.07178090e-02 1.28467843e-01
      3.78267735e-01 -2.83518970e-01 -1.13151871e-01 -1.39358565e-01
      1.49255022e-02 -1.76708490e-01 1.54640004e-01 -1.32063568e-01
      4.38375548e-02 -7.81706050e-02 1.93867624e-01 2.78877001e-02
      1.61341041e-01 -3.10858898e-02 -1.01158358e-01 2.17374265e-01
      1.55144766e-01 8.25928524e-02 -2.40924314e-01 -3.14292461e-01
      -1.63025573e-01 -4.59000245e-02 1.36647329e-01 1.69235580e-02</_>
    <_>
      7.14816451e-02 -8.16253275e-02 2.86611736e-01 1.49477860e-02
      -2.28442857e-03 -8.80363286e-02 -5.48397489e-02 -9.20581166e-03
      -8.30969680e-03 -5.80151752e-02 -8.98737386e-02 1.46116674e-01
      6.62543252e-02 -8.63087252e-02 -9.57785398e-02 -9.46942344e-02
      3.78674529e-02 -9.79770422e-02 4.37510051e-02 -2.36197375e-02
      -9.88192707e-02 -3.37372459e-02 1.84660181e-02 3.52150649e-02
      -9.30192135e-03 4.76271845e-03 -6.19525909e-02 2.19462752e-01
      6.25767186e-02 5.51452860e-02 -6.82530478e-02 -1.33931190e-01
      -1.22373607e-02 2.23119240e-02 1.95099041e-01 -1.30068380e-02</_>
    <_>
      -8.28848705e-02 -4.59177464e-01 1.91426530e-01 -1.53724477e-01
      2.37750292e-01 -6.06995523e-02 1.49913765e-02 -1.74419984e-01
      -4.93139550e-02 -6.56116232e-02 7.56824464e-02 4.49296758e-02
      7.03032389e-02 -2.15717405e-01 -6.78367540e-02 -9.70382169e-02
      1.29325807e-01 -1.04131587e-01 -9.24657732e-02 -4.91471067e-02
      -1.05384305e-01 -6.17064945e-02 -6.67698458e-02 1.06863603e-01
      -9.73145589e-02 -1.79061368e-01 1.54439151e-01 1.55750290e-01
      9.61976964e-03 -3.99984792e-02 -1.05245069e-01 -2.79052645e-01
      -7.25748017e-02 4.43889722e-02 4.76430878e-02 -9.91099253e-02</_>
    <_>
      2.24731445e-01 2.95276586e-02 2.64950782e-01 -1.92920297e-01
      -9.60546657e-02 -5.86273670e-02 -4.33497205e-02 -4.88148704e-02
      -2.28334162e-02 -3.42060700e-02 -1.17639035e-01 9.47755575e-02
      -1.72523491e-04 -6.54654503e-02 -4.26852070e-02 1.06541559e-01
      6.27730414e-02 -3.22154239e-02 -4.25245576e-02 -6.67596832e-02
      -4.14934121e-02 -6.12169355e-02 -6.13099383e-03 5.49418554e-02
      -5.18334284e-02 6.16039485e-02 -2.25598477e-02 2.07791284e-01
      1.13520041e-01 1.23823145e-02 -9.72684622e-02 -1.68009743e-01
      -1.01165421e-01 -4.95211072e-02 1.68622926e-01 -1.19754169e-02</_>
    <_>
      2.46030927e-01 1.35242984e-01 3.09679985e-01 2.76636872e-02
      -1.53679818e-01 -3.63009013e-02 -6.88837748e-03 5.48963659e-02
      -4.64175083e-03 -3.93676832e-02 -5.92099987e-02 6.61381781e-02
      2.54556928e-02 -5.14473356e-02 4.52011963e-03 1.77825068e-03
      5.47376759e-02 -1.32248439e-02 -4.65749018e-02 -6.34289086e-02
      -8.82336795e-02 -8.97586495e-02 5.82069904e-03 4.55498882e-02
      -7.12356195e-02 2.17541978e-02 8.40440243e-02 2.02039927e-01
      3.10717002e-02 -1.15266945e-02 -5.06760776e-02 -1.21622778e-01
      -7.42818266e-02 -6.71255440e-02 1.24907866e-01 1.28645636e-02</_>
    <_>
      -5.70647605e-02 -3.73905241e-01 1.80927217e-01 -7.06311539e-02
      2.36601293e-01 -5.87896863e-03 -7.42277429e-02 -1.10790692e-01
      3.99172008e-02 -3.34671773e-02 2.23017372e-02 -4.11039591e-02
      7.31212869e-02 -1.46622851e-01 -3.91291082e-02 -2.56288424e-02
      -1.21616073e-01 -1.05931006e-01 -1.55443163e-03 -8.89426991e-02
      -3.01749613e-02 3.48389708e-02 1.09786361e-01 -7.94929937e-02
      1.72012709e-02 -9.61205885e-02 -4.48771194e-02 2.54571021e-01
      1.82207804e-02 4.93875965e-02 -1.33203521e-01 -5.05786836e-02
      -1.60916299e-01 -1.19453125e-01 1.37337834e-01 -5.49301691e-02</_>
    <_>
      7.13749230e-02 -8.00913125e-02 3.15263331e-01 8.88500214e-02
      -3.22251134e-02 -1.14777803e-01 5.10671549e-02 1.24889992e-01
      -4.51874733e-03 2.22387468e-03 -1.70510367e-01 1.58366516e-01
      1.25771567e-01 -4.97171544e-02 -8.26696679e-02 -1.48760006e-01
      1.08128406e-01 -1.24799557e-01 6.48449510e-02 -7.14745047e-03
      -1.33284494e-01 -1.16816638e-02 -6.88548237e-02 1.09158300e-01
      -5.88307902e-02 -6.62012249e-02 -2.49548368e-02 1.51180640e-01
      6.14173301e-02 6.00297824e-02 -7.82089401e-03 -1.77181736e-01
      2.03385763e-02 -3.05249766e-02 1.65698931e-01 4.03065328e-03</_>
    <_>
      1.52615264e-01 1.37395367e-01 3.07258278e-01 -1.05078839e-01
      -1.12490334e-01 -2.67024357e-02 -4.66000587e-02 -8.20890144e-02
      -1.99675430e-02 -6.41603768e-02 -2.77163610e-02 -5.21930819e-03
      4.50782664e-02 -8.68547559e-02 1.17718847e-02 -2.97903679e-02
      -1.25296135e-02 -7.38332421e-02 -2.04672338e-03 -2.10961346e-02
      -6.78963959e-02 -9.95361283e-02 -4.69399318e-02 1.94136780e-02
      -4.95306998e-02 4.47491743e-02 1.38515839e-02 2.22285956e-01
      9.63950530e-02 -5.45932911e-03 -5.22580855e-02 -1.67060211e-01
      -4.80705276e-02 -6.82375878e-02 1.13880210e-01 -3.39185372e-02</_>
    <_>
      3.36240008e-02 -6.53336048e-02 2.89518207e-01 -6.08783439e-02
      -5.81394807e-02 -5.43939695e-02 -1.70843452e-02 -7.55463615e-02
      -1.26981074e-02 -6.51349649e-02 -6.90117180e-02 9.64423269e-02
      2.54277717e-02 -3.15949656e-02 -1.71406418e-02 -5.24289859e-03
      -8.75191297e-03 -8.46398920e-02 4.72916104e-02 -7.68497288e-02
      -8.89701769e-02 -4.68402207e-02 -4.46405672e-02 -3.40170935e-02
      -1.10792108e-01 -3.97069752e-02 7.22213881e-03 1.73476905e-01
      8.00152421e-02 -5.98582532e-03 -8.56944844e-02 -1.65439367e-01
      -7.15960935e-02 -7.31279626e-02 1.04200274e-01 8.05667508e-03</_>
    <_>
      6.95780888e-02 -8.59118849e-02 2.53941476e-01 -2.87203163e-01
      6.24591373e-02 7.03875422e-02 -2.73945089e-02 -5.31380847e-02
      -8.01198855e-02 -4.06094417e-02 3.54404524e-02 6.21013492e-02
      -3.67571078e-02 -7.03099966e-02 7.18412697e-02 7.78419478e-03
      6.58169389e-02 -1.45534694e-01 -7.92886093e-02 6.25382960e-02
      1.82401519e-02 -1.00040540e-01 -1.25096023e-01 -4.53185476e-03
      -1.55475913e-02 1.07814698e-02 4.66872565e-02 2.51545370e-01
      1.67932466e-01 3.40395533e-02 -7.26483539e-02 -1.34144232e-01
      -5.21886349e-02 -2.21143570e-02 6.60538599e-02 -9.69723389e-02</_>
    <_>
      1.05646096e-01 8.66301358e-03 2.97831237e-01 -1.26054108e-01
      -2.56560426e-02 -2.39028558e-02 -5.39936647e-02 -1.54055387e-01
      -6.05319887e-02 -8.38365182e-02 4.10953490e-03 7.32904598e-02
      4.53597233e-02 -1.00824401e-01 9.30183474e-03 -4.23131138e-02
      3.97427268e-02 -8.60744156e-03 -3.42829488e-02 -4.47474867e-02
      -2.39096582e-02 -1.26315728e-01 3.08766402e-02 -1.22812074e-02
      -5.08934595e-02 -4.20205742e-02 8.70932639e-03 1.69027686e-01
      1.08199865e-01 -9.98536572e-02 -8.67592469e-02 -1.23312175e-01
      -4.96804379e-02 -1.00564785e-01 8.77661034e-02 5.09758703e-02</_>
    <_>
      -2.08248291e-02 -6.82025328e-02 1.88004330e-01 -4.41771261e-02
      1.97478622e-01 -6.08609654e-02 -5.35949890e-04 -6.06126897e-02
      -1.02752291e-01 -9.09872353e-03 -3.80271836e-03 -5.46619296e-04
      -3.45659405e-02 -1.50929138e-01 8.39277823e-03 -3.68028954e-02
      -4.48441729e-02 6.20536916e-02 -1.82716865e-02 -7.64018744e-02
      1.90093387e-02 1.45397885e-02 -3.84139530e-02 7.80040845e-02
      2.32011415e-02 -5.12430444e-02 -5.78949898e-02 1.86445206e-01
      1.56079650e-01 7.92496726e-02 -1.31821275e-01 -2.27828100e-01
      -1.65996253e-01 -5.86390495e-02 6.43911436e-02 -3.39841880e-02</_>
    <_>
      -2.07887024e-01 -4.96423900e-01 1.81952611e-01 -2.22149000e-01
      2.19368204e-01 1.76096391e-02 -1.42207995e-01 -4.95236456e-01
      -1.49204016e-01 -1.41886905e-01 2.03917548e-01 1.13924779e-01
      -7.16946423e-02 -9.89597589e-02 -1.30040154e-01 5.75294085e-02
      5.93430698e-02 7.41668046e-02 -9.51616988e-02 -2.91519351e-02
      -3.98725756e-02 -8.24207366e-02 1.32016808e-01 -1.10096619e-01
      -6.82832524e-02 2.88984030e-02 -8.83392915e-02 2.88565278e-01
      -5.28068617e-02 6.23484626e-02 -5.12245335e-02 -2.08046988e-01
      -2.25729253e-02 -1.30255753e-02 1.06240787e-01 -3.68341804e-02</_>
    <_>
      1.80395126e-01 4.76093888e-02 3.33296895e-01 -2.56558545e-02
      -6.91132024e-02 -5.11905737e-03 1.44971861e-02 2.26273090e-02
      -1.61037315e-02 -5.13630807e-02 -5.38093550e-03 1.05393082e-02
      5.43889739e-02 -7.99056292e-02 6.14850447e-02 -9.35506076e-03
      8.87297541e-02 -5.49890436e-02 -1.21281054e-02 -2.86041759e-03
      -3.56863029e-02 -6.38834834e-02 -1.00015998e-02 2.46066842e-02
      -2.16581058e-02 -1.31633123e-02 -1.24772592e-03 1.79208398e-01
      5.13538904e-02 -2.07524076e-02 -8.18359852e-02 -1.37020826e-01
      -6.80297837e-02 -5.64023033e-02 1.21875830e-01 3.15309800e-02</_>
    <_>
      6.79499954e-02 -1.04993485e-01 2.78059602e-01 4.20694798e-02
      3.02693490e-02 -1.11163437e-01 7.30317086e-03 1.19952992e-01
      -4.40826640e-02 -4.64126021e-02 -8.35531279e-02 1.17873602e-01
      1.25996649e-01 -9.70204994e-02 2.11699065e-02 -3.39166820e-02
      1.18799806e-01 -5.74004278e-02 7.85237551e-02 -3.08167394e-02
      -4.97324765e-02 -3.64053063e-02 3.27827595e-02 1.04286171e-01
      -3.25580947e-02 -2.14566980e-02 4.35174778e-02 1.85035646e-01
      5.36736362e-02 -4.27950285e-02 -3.31270322e-02 -1.36656061e-01
      -4.01385836e-02 -4.39282954e-02 2.02343851e-01 4.65099737e-02</_>
    <_>
      -6.73848316e-02 -4.13523257e-01 2.24139810e-01 -3.83638851e-02
      2.58765370e-01 1.60656609e-02 -9.22578350e-02 -1.44560531e-01
      -1.48968399e-01 4.07458544e-02 -1.30788283e-02 2.16865223e-02
      1.54582842e-03 -5.28448187e-02 8.51573348e-02 -2.11641751e-02
      3.32733281e-02 -8.70642141e-02 -3.15620042e-02 -3.30707245e-02
      -2.75777560e-02 -1.97204337e-01 -2.16713920e-02 9.92080476e-03
      4.34518270e-02 -3.40710059e-02 9.81032848e-02 3.26332390e-01
      4.12481390e-02 2.50742342e-02 2.03013364e-02 -8.65814239e-02
      -9.14025083e-02 -3.94809656e-02 2.07334295e-01 -1.42805148e-02</_>
    <_>
      6.90184012e-02 -1.92088857e-01 2.85759598e-01 -1.68665200e-02
      7.48235360e-02 -1.48034081e-01 3.36259394e-03 1.19645774e-01
      -3.34686935e-02 -9.54613760e-02 9.76209994e-03 1.18987337e-01
      1.23936862e-01 -1.42106116e-01 2.86545251e-02 -7.77946189e-02
      1.84380367e-01 2.43451223e-02 6.90852627e-02 5.39770955e-03
      -1.11456281e-02 -1.64035067e-01 -7.13936016e-02 6.53888360e-02
      3.62882540e-02 1.43222902e-02 -8.57659653e-02 1.77376613e-01
      6.99206218e-02 5.78537360e-02 -1.47823647e-01 -3.51968482e-02
      -1.09517857e-01 -1.14312544e-01 8.00588503e-02 -4.27314155e-02</_>
    <_>
      -3.75582417e-03 -2.45729119e-01 2.47870833e-01 -9.44367722e-02
      1.36625573e-01 -3.04410839e-03 -1.01942696e-01 -1.91019401e-01
      -2.92301513e-02 -7.48610720e-02 6.95198700e-02 -4.46099835e-03
      -1.10778563e-01 -2.51310140e-01 -1.03559099e-01 -1.36306435e-01
      4.01082039e-02 6.28721341e-02 -1.51476115e-01 -1.15397699e-01
      -1.24100998e-01 -8.78660083e-02 -5.57384044e-02 8.63404870e-02
      4.07597236e-02 5.29593090e-03 1.02238566e-01 2.58326530e-01
      -9.12590418e-03 2.87353639e-02 -4.88419905e-02 -2.09312141e-01
      -8.63449275e-02 -6.14779675e-03 1.75746053e-01 5.10277785e-02</_>
    <_>
      5.07651530e-02 -3.40137064e-01 2.66941309e-01 1.49635281e-02
      1.62646413e-01 -8.34553037e-03 7.95005169e-03 1.78231820e-02
      1.32008223e-02 1.13075458e-01 -1.95894331e-01 3.39049809e-02
      -1.58173442e-02 8.63706751e-04 1.05871215e-01 -1.30532146e-01
      2.72672832e-01 -8.93869996e-03 -4.94363718e-03 6.30438849e-02
      -1.15037635e-01 -9.37952474e-02 -2.45218337e-01 -2.50543328e-03
      4.39235009e-02 -1.54967234e-01 -6.84292540e-02 3.21204156e-01
      1.87976584e-01 -9.66854021e-02 -1.21341415e-01 -5.25181107e-02
      -1.38412029e-01 -5.28552793e-02 1.78874612e-01 -4.39158902e-02</_>
    <_>
      6.26866758e-01 -1.30593255e-01 2.34435529e-01 -9.36320871e-02
      -1.99599136e-02 -4.94591415e-01 -1.30103931e-01 -1.00615449e-01
      6.04555979e-02 -8.35825205e-02 1.50362179e-01 -1.10272408e-01
      -2.88610399e-01 1.32560715e-01 -1.42583281e-01 -8.32853317e-02
      2.14941666e-01 -2.98485339e-01 3.10887665e-01 1.44927755e-01
      3.76846418e-02 -8.17454532e-02 -1.01969624e-02 -1.66087270e-01
      -2.22293705e-01 -2.60268878e-02 1.34310544e-01 2.23814860e-01
      7.21774390e-03 -8.23341310e-02 -9.12261009e-02 -1.62049949e-01
      6.27575815e-02 2.43142876e-03 1.46476880e-01 1.45110711e-01</_>
    <_>
      -4.31073532e-02 -1.64049193e-01 2.76927680e-01 -1.13658920e-01
      5.28483391e-02 -4.22856063e-02 -3.68913114e-02 -1.54553846e-01
      -3.97251807e-02 -8.44169259e-02 1.12511190e-02 8.23730826e-02
      1.70731947e-01 -6.52252585e-02 -8.79076645e-02 -2.69465838e-02
      5.95137216e-02 -3.52372117e-02 6.30435571e-02 -5.43342009e-02
      -3.37144732e-02 -7.26829618e-02 3.91435958e-02 7.41729364e-02
      -6.34677559e-02 -3.55744325e-02 -7.87727088e-02 2.43089274e-01
      5.44690564e-02 -3.18747088e-02 -4.39284258e-02 -1.94220483e-01
      -5.24816476e-02 -6.07503913e-02 1.41419828e-01 -2.96491850e-02</_>
    <_>
      3.48752029e-02 -3.34583908e-01 2.46246696e-01 6.26068637e-02
      1.06417485e-01 5.48534887e-03 -1.13032954e-02 4.25916314e-02
      -1.31483125e-02 3.68717052e-02 -3.26041058e-02 -4.14878428e-02
      1.59911364e-01 2.98518892e-02 -5.47148883e-02 -1.66264512e-02
      1.49350226e-01 -8.35274979e-02 6.23848401e-02 4.57293764e-02
      -1.27279893e-01 -8.80274177e-02 -4.24200445e-02 1.97353631e-01
      -1.27150536e-01 -3.44415903e-02 9.55795217e-03 2.63895452e-01
      4.93762046e-02 -6.93963766e-02 -1.19488396e-01 -1.54823869e-01
      -6.96738809e-02 7.11393580e-02 1.34466246e-01 -4.74067591e-02</_>
    <_>
      2.24731445e-01 2.95276586e-02 2.64950782e-01 -1.92920297e-01
      -9.60546657e-02 -5.86273670e-02 -4.33497205e-02 -4.88148704e-02
      -2.28334162e-02 -3.42060700e-02 -1.17639035e-01 9.47755575e-02
      -1.72523491e-04 -6.54654503e-02 -4.26852070e-02 1.06541559e-01
      6.27730414e-02 -3.22154239e-02 -4.25245576e-02 -6.67596832e-02
      -4.14934121e-02 -6.12169355e-02 -6.13099383e-03 5.49418554e-02
      -5.18334284e-02 6.16039485e-02 -2.25598477e-02 2.07791284e-01
      1.13520041e-01 1.23823145e-02 -9.72684622e-02 -1.68009743e-01
      -1.01165421e-01 -4.95211072e-02 1.68622926e-01 -1.19754169e-02</_>
    <_>
      1.51737213e-01 -2.44891923e-02 3.02805662e-01 -5.11686057e-02
      -7.67350383e-03 -3.17052677e-02 2.95272116e-02 7.45540038e-02
      -2.37201434e-02 -8.09156615e-03 -4.76486906e-02 -4.47666179e-03
      2.74310317e-02 -8.64674598e-02 3.02815475e-02 -2.22554598e-02
      6.73178509e-02 1.42208980e-02 9.20192599e-02 -9.04987305e-02
      -2.35718638e-02 -4.33603153e-02 -9.03662145e-02 -1.95233747e-02
      6.45954045e-04 5.30084893e-02 -2.20090840e-02 2.58700937e-01
      6.62627444e-02 1.62714571e-02 -1.04497515e-01 -1.46329820e-01
      -7.84925744e-02 2.64513344e-02 9.45915431e-02 -1.22187119e-02</_>
    <_>
      -2.57854342e-01 -7.01140404e-01 1.04430892e-01 -2.73862749e-01
      2.49863431e-01 -6.96237981e-02 -4.02033925e-02 -5.11506975e-01
      -2.10756168e-01 -2.04697862e-01 2.55036205e-01 1.81461960e-01
      3.62112731e-01 -1.24757566e-01 8.40766877e-02 3.25862169e-02
      2.67136484e-01 -2.95159161e-01 -8.68069828e-02 -8.47792719e-03
      2.11921364e-01 -8.77605006e-02 9.47877020e-02 -8.13402757e-02
      -7.47342557e-02 1.10559449e-01 -1.28051668e-01 -1.58942305e-02
      1.34399727e-01 1.34487748e-01 6.49176612e-02 -1.74691409e-01
      3.08783222e-02 -9.62458104e-02 1.86278403e-01 3.23224291e-02</_>
    <_>
      -6.09398074e-02 -3.58606905e-01 1.84518591e-01 -7.57246539e-02
      2.33689815e-01 2.05297414e-02 -6.81476519e-02 -1.00702792e-01
      5.51524945e-02 -7.95435067e-03 3.71841453e-02 -3.42135094e-02
      4.99579571e-02 -1.43832356e-01 -3.54649387e-02 5.07347705e-03
      -1.09023839e-01 -8.09958503e-02 1.42029440e-02 -8.12804103e-02
      -3.72243987e-04 3.59956473e-02 7.95946494e-02 -4.39756811e-02
      8.74972437e-03 -8.25856775e-02 -4.19045053e-02 2.14374572e-01
      4.02032062e-02 3.21805924e-02 -1.31510839e-01 -2.82134116e-02
      -1.17386311e-01 -1.55129582e-01 1.29183993e-01 -6.98108226e-02</_>
    <_>
      2.08806060e-02 -1.68346748e-01 2.87223846e-01 3.76243191e-03
      2.47946456e-02 -2.59421561e-02 -8.36664718e-03 -1.31988144e-02
      9.74613801e-03 -2.15810388e-02 -1.35127485e-01 6.15471415e-02
      4.99647707e-02 -6.89713284e-02 2.59759538e-02 -6.36142641e-02
      3.00234035e-02 -4.66354303e-02 1.29790567e-02 -8.51133093e-02
      -1.10749222e-01 -4.22280617e-02 -3.78234200e-02 -1.63404718e-02
      -1.08482525e-01 4.45787720e-02 4.55706753e-02 2.35280305e-01
      2.11483873e-02 -1.25157759e-01 -8.12185556e-02 -1.65215105e-01
      -8.19554031e-02 -1.18934460e-01 3.52582149e-02 5.81585020e-02</_>
    <_>
      8.15121680e-02 -1.55347735e-01 2.88432151e-01 1.90716106e-02
      8.89755860e-02 -8.47592875e-02 8.77331272e-02 -5.36123998e-02
      -7.30122114e-03 -2.87198871e-02 -4.97710481e-02 3.96714173e-03
      1.59466371e-01 -9.64833423e-02 -3.36043984e-02 3.48794013e-02
      1.25692720e-02 -1.51945889e-01 1.77169725e-01 -1.27435327e-01
      4.90106456e-02 -3.62486728e-02 7.89069012e-02 -1.80089362e-02
      -1.90260038e-02 -2.09291115e-01 -1.31950676e-01 1.91000044e-01
      1.35692894e-01 -8.14205129e-03 -1.86224401e-01 -1.24441691e-01
      -1.32659093e-01 -7.92308748e-02 4.79245000e-02 -6.52858466e-02</_>
    <_>
      1.22657038e-01 -1.66179016e-01 2.97914743e-01 2.42331326e-02
      2.15576831e-02 -1.99632403e-02 -8.65259767e-02 -4.64503132e-02
      -8.84855911e-02 4.76409085e-02 -1.13215975e-01 4.96835411e-02
      -4.76051904e-02 -7.93239044e-04 -1.04670100e-01 -3.80684435e-02
      1.47950828e-01 8.13740268e-02 -2.82607526e-02 8.24757572e-03
      -1.59462348e-01 -1.05284877e-01 -2.83527393e-02 -2.54772305e-02
      -1.52181247e-02 7.49612302e-02 -7.71672726e-02 3.26666772e-01
      8.62242505e-02 -1.99738182e-02 -5.98636232e-02 -1.30552873e-01
      -8.58004615e-02 -2.72336230e-02 1.39537334e-01 -2.62623038e-02</_>
    <_>
      1.74920037e-01 1.31887227e-01 3.03564936e-01 -1.02870852e-01
      -1.33086905e-01 -1.22798635e-02 -3.12591046e-02 -9.21554640e-02
      -7.82166235e-03 -7.11317807e-02 -2.11918484e-02 8.96461774e-03
      3.12219746e-02 -8.54804143e-02 1.53253274e-02 -3.08094099e-02
      7.49276951e-03 -6.85702041e-02 1.32092519e-03 -2.85471529e-02
      -6.96726590e-02 -9.08268392e-02 -4.47239093e-02 1.63104720e-02
      -4.10157405e-02 3.36165316e-02 1.69855896e-02 2.10911185e-01
      8.63696039e-02 -2.34575054e-04 -4.20073345e-02 -1.64441332e-01
      -4.48450968e-02 -5.08503430e-02 1.45774916e-01 -2.84267887e-02</_>
    <_>
      1.04893148e-01 -1.27648428e-01 2.78855145e-01 -1.10344283e-01
      4.46975678e-02 -1.00852959e-01 -5.31699993e-02 -3.64582948e-02
      -6.39299229e-02 -8.97433832e-02 -1.28731253e-02 9.81999040e-02
      4.87165749e-02 -1.37529612e-01 -8.78481567e-02 -8.33006203e-02
      6.60372898e-02 -6.68177977e-02 -3.85156105e-04 -6.04194999e-02
      -5.25469184e-02 -1.39014736e-01 2.32470315e-02 5.10591157e-02
      3.32722180e-02 -3.32715660e-02 3.94226871e-02 1.84265494e-01
      1.07123107e-01 1.51429065e-02 -1.65436175e-02 -2.81959832e-01
      -4.65735719e-02 -5.83501644e-02 1.17619030e-01 5.49235344e-02</_>
    <_>
      -1.07933491e-01 -5.91907680e-01 2.04047352e-01 4.66883034e-02
      3.32503498e-01 -1.02867253e-01 -5.41412607e-02 1.03846520e-01
      -4.59662080e-02 5.49133755e-02 -8.64889175e-02 -5.81965260e-02
      6.55912012e-02 -8.55300725e-02 -6.94338307e-02 -1.70030653e-01
      4.88958228e-03 1.60583965e-02 4.17638682e-02 -1.64825663e-01
      -2.04298794e-01 -1.49710298e-01 -1.46051748e-02 1.83641404e-01
      -6.04376085e-02 1.44334599e-01 1.63439244e-01 1.86287031e-01
      -8.53160545e-02 -7.52469292e-03 -8.77121165e-02 -4.81508113e-02
      9.95484646e-03 -7.10163862e-02 7.15613738e-02 2.11516358e-02</_>
    <_>
      9.26608667e-02 -7.60573596e-02 2.91658014e-01 4.66678701e-02
      1.51652070e-02 -9.09371600e-02 -5.08708693e-03 6.09927662e-02
      -3.63713875e-02 -1.93905737e-02 -1.07364677e-01 1.32719979e-01
      9.80870202e-02 -6.85409755e-02 -3.35716903e-02 -2.71390043e-02
      8.78655836e-02 1.43122673e-03 4.66085188e-02 2.82670371e-02
      -4.99978773e-02 -5.16947284e-02 1.64817873e-04 9.61767361e-02
      -2.36705802e-02 1.84791572e-02 7.16020763e-02 2.28719085e-01
      6.25286922e-02 -1.62071526e-01 -3.43536958e-02 -2.33836979e-01
      -5.54225035e-02 -1.27184130e-02 1.82193965e-01 -2.21313648e-02</_>
    <_>
      -1.10374250e-01 -2.68926531e-01 2.77116567e-01 -8.91339332e-02
      1.80532128e-01 -9.21138972e-02 -8.57545435e-02 -2.07710728e-01
      -1.00569747e-01 -8.76421556e-02 -5.99239254e-03 1.16530322e-01
      1.40326740e-02 -1.48483366e-01 -1.24325305e-01 -7.22479001e-02
      -8.17318447e-03 -9.33972299e-02 -8.39230642e-02 2.20600553e-02
      -8.54054764e-02 -2.65667707e-01 -1.86144025e-03 3.53401899e-02
      -9.51071270e-03 -4.15187068e-02 1.08719334e-01 1.52452260e-01
      1.68012604e-01 -4.44585122e-02 -6.55376017e-02 -2.79224366e-01
      -2.45315433e-02 3.64780128e-02 1.07974991e-01 -1.34201115e-02</_>
    <_>
      7.13609532e-02 -1.61075667e-01 2.86003083e-01 -8.10676068e-03
      4.56483327e-02 -1.34536743e-01 2.64917947e-02 8.92003551e-02
      -3.08203660e-02 -3.95214632e-02 -6.15958348e-02 8.38396549e-02
      8.48483816e-02 -7.16433823e-02 6.04710579e-02 -5.64760044e-02
      1.34487718e-01 -4.20009233e-02 4.12359461e-02 3.90398577e-02
      5.80088096e-03 -9.70618725e-02 -9.52616334e-02 -1.34850573e-02
      2.31596064e-02 -4.30140942e-02 -8.85694399e-02 1.77186072e-01
      1.26380652e-01 5.23701757e-02 -1.06966600e-01 -6.16676919e-02
      -1.48338616e-01 -9.54300165e-02 1.11223750e-01 -3.65967490e-02</_>
    <_>
      -1.92238674e-01 -5.93582153e-01 1.96726903e-01 -5.39660640e-02
      2.96827972e-01 -2.03955192e-02 -8.90276283e-02 -2.57104874e-01
      -1.05419926e-01 -4.48817760e-02 4.05240469e-02 1.18143789e-01
      -9.72151663e-03 -8.89838487e-02 -1.06667422e-01 -1.18012927e-01
      1.47700250e-01 1.20596923e-01 -1.44833103e-01 -3.90951559e-02
      -9.88693535e-02 -6.85964748e-02 6.69985488e-02 -2.76542157e-02
      -2.27412194e-01 -4.46915440e-03 -8.28486532e-02 1.17543697e-01
      -2.99977455e-02 3.57645191e-02 -1.41579747e-01 -1.29272014e-01
      -7.25795627e-02 -5.95856421e-02 1.35254204e-01 -3.83094735e-02</_>
    <_>
      2.04523988e-02 -2.12321252e-01 2.76519895e-01 -1.74432676e-02
      8.11116248e-02 -3.04714534e-02 -3.22615877e-02 2.94197872e-02
      -1.23308571e-02 -4.78038676e-02 -5.45114726e-02 3.97867300e-02
      1.00001521e-01 -1.08251832e-01 8.52689743e-02 -6.97312206e-02
      5.73659837e-02 2.47263219e-02 -5.31876087e-02 -1.91922355e-02
      2.72557139e-03 -2.73204949e-02 -1.22849822e-01 -1.62501838e-02
      9.04088169e-02 7.56887570e-02 2.62321848e-02 2.36820370e-01
      8.46678168e-02 -2.74254736e-02 -7.28139877e-02 -1.66436121e-01
      -1.59808040e-01 -1.27923548e-01 1.90425411e-01 1.05960041e-01</_>
    <_>
      -1.98287845e-01 1.05822933e+00 -2.54845667e+00 6.78259492e-01
      7.88132489e-01 -9.82277766e-02 -7.70454854e-02 -1.40608698e-01
      -3.93518448e-01 -9.32037830e-01 -5.02481103e-01 -1.35141671e-01
      1.55938491e-02 2.08599307e-02 4.68084514e-02 -1.02515845e-02
      1.57448664e-01 -5.24674803e-02 -1.31370584e-02 -5.33124842e-02
      -1.13856159e-01 -6.59937561e-02 -4.90495302e-02 4.60770167e-02
      -2.74234451e-02 -1.94151849e-02 1.66783314e-02 2.04518199e-01
      6.25578016e-02 -2.15582941e-02 -8.93629119e-02 -1.14217505e-01
      -8.08345154e-02 -3.02261990e-02 1.04588464e-01 1.29217589e-02</_>
    <_>
      -8.88168514e-02 -2.84711212e-01 2.61616379e-01 -8.86590481e-02
      1.20210961e-01 -5.50711229e-02 -9.39125270e-02 -2.09755063e-01
      -1.13347135e-01 -6.28072619e-02 -2.90932655e-02 1.73051029e-01
      -1.89837608e-02 -8.52906778e-02 -8.91037062e-02 -5.18842302e-02
      4.01776657e-02 -1.17789015e-01 -2.05420405e-02 -1.35978414e-02
      -6.74707964e-02 -2.19914839e-01 -5.94725506e-03 -2.45581046e-02
      -5.34418970e-02 -2.87592486e-02 7.69494250e-02 1.26024395e-01
      2.15771943e-01 -3.36507009e-03 -7.40486979e-02 -2.03457817e-01
      -2.95020733e-02 3.25944126e-02 1.19945653e-01 2.49414588e-04</_>
    <_>
      -8.14632028e-02 -2.60107964e-01 2.54030347e-01 -9.46654975e-02
      7.78795183e-02 -4.21277881e-02 -1.03911810e-01 -2.82285273e-01
      -4.77044880e-02 -1.08015016e-01 5.46685308e-02 4.49656621e-02
      -2.63361316e-02 -7.47557729e-02 -2.58721989e-02 -4.59863916e-02
      8.59846361e-03 -2.64730770e-02 -1.07426643e-02 -4.42649834e-02
      -2.67781895e-02 -1.38986245e-01 -5.13444841e-02 -3.86971906e-02
      -6.39686063e-02 -3.10664959e-02 -5.34054972e-02 2.71498412e-01
      4.08230759e-02 -3.55696864e-02 -4.39319722e-02 -1.05572730e-01
      -3.99040356e-02 -6.13377094e-02 6.74649104e-02 4.35318463e-02</_>
    <_>
      -9.05830637e-02 -3.22823018e-01 2.00069606e-01 -1.14302635e-01
      2.16044709e-01 2.75843944e-02 -5.18093407e-02 -1.68705836e-01
      -3.41595188e-02 -1.38999268e-01 1.83303490e-01 -6.92804307e-02
      1.33421049e-01 -7.98752084e-02 -1.02411263e-01 6.90458566e-02
      -1.52550712e-01 -1.16032928e-01 1.53464690e-01 -8.01762268e-02
      -1.49158658e-02 -8.75870604e-03 1.95557535e-01 1.02531262e-01
      7.66823366e-02 1.47258854e-02 -9.34056491e-02 2.81052977e-01
      2.94690505e-02 7.74575472e-02 5.17342575e-02 -8.61072913e-02
      -1.11292146e-01 -7.98460376e-03 1.44694254e-01 9.30130575e-03</_>
    <_>
      3.87755632e-02 -3.34929049e-01 2.29144618e-01 -6.26215488e-02
      1.70778170e-01 -8.01221505e-02 -6.16700687e-02 -3.95691544e-02
      -4.60085236e-02 -6.24472881e-03 -7.36068860e-02 1.27334997e-01
      2.88408268e-02 -8.05585161e-02 4.14085388e-03 -9.03273895e-02
      1.35662302e-01 -9.36194137e-02 1.93548203e-02 -1.23074643e-01
      -9.97412801e-02 -1.73979253e-01 7.30185807e-02 -6.04982004e-02
      -1.71232775e-01 -5.02404012e-02 -1.11052915e-02 1.53092399e-01
      6.86241463e-02 8.49361569e-02 -9.88194868e-02 -9.20468196e-02
      -4.08744141e-02 -2.05112845e-02 -1.61561444e-02 -1.82459615e-02</_>
    <_>
      -1.83699932e-02 -2.06423864e-01 2.41686434e-01 1.87622476e-02
      4.59476188e-02 -1.28951356e-01 -7.46090785e-02 -8.59843343e-02
      -7.34596029e-02 -4.41795029e-02 -1.35742158e-01 1.76066712e-01
      1.31645799e-01 3.85288298e-02 -5.96314892e-02 -9.49885547e-02
      -1.68971904e-02 4.52912115e-02 1.19800791e-01 3.15497555e-02
      5.78814559e-02 -1.84360277e-02 -9.02051181e-02 -5.16878255e-02
      -1.15808569e-01 1.42024755e-01 -1.42536446e-01 7.79281631e-02
      1.51574299e-01 1.11710317e-02 -1.91999763e-01 -7.03508183e-02
      3.18244696e-02 -1.61176547e-01 5.54666258e-02 9.96866524e-02</_>
    <_>
      1.09107882e-01 -3.73766804e-03 3.12239945e-01 -5.41891493e-02
      -3.99473310e-02 -3.18793743e-03 1.00578740e-02 -4.62300964e-02
      -6.81404071e-03 -7.66270533e-02 -1.98281892e-02 4.14844453e-02
      4.87391725e-02 -9.46909860e-02 4.13842574e-02 -1.41225653e-02
      4.10404578e-02 -6.65026531e-02 6.67224750e-02 -2.48022024e-02
      -8.76616761e-02 -5.46324439e-02 -5.41560836e-02 5.60215712e-02
      -8.89464691e-02 -3.11036222e-02 1.44968005e-02 2.00031340e-01
      4.70832288e-02 1.14312936e-02 -2.48449761e-02 -1.15436941e-01
      -5.23322821e-02 -2.77212858e-02 1.06520467e-01 1.89629849e-02</_>
    <_>
      -2.05393843e-02 -2.13006586e-01 2.78879881e-01 -2.44024000e-03
      8.28881934e-02 -1.12002835e-01 -2.98400829e-03 -3.75193432e-02
      2.55346186e-02 -3.82798091e-02 -1.35762483e-01 1.04458258e-01
      8.28157738e-02 -8.47334713e-02 -3.35665676e-03 -1.65700138e-01
      -9.01728217e-03 -1.15260884e-01 1.49350762e-02 -3.31475027e-02
      -8.10710713e-02 -1.37958467e-01 -1.07491978e-01 5.46251936e-03
      -8.10663030e-02 -6.14906363e-02 5.17654158e-02 1.45053744e-01
      7.58631080e-02 -3.54037322e-02 -8.12566057e-02 -1.13501556e-01
      -4.78558615e-02 -8.72916877e-02 1.22300573e-01 2.48617511e-02</_>
    <_>
      9.25547183e-02 -7.01545551e-02 3.09319079e-01 5.23419864e-02
      -3.26531902e-02 -1.17153168e-01 1.28985737e-02 1.49260387e-01
      -5.06397858e-02 -4.27639671e-02 -9.10758451e-02 1.87663645e-01
      1.63643286e-01 -2.91272234e-02 7.52239823e-02 4.05230857e-02
      1.40398443e-01 -3.46905999e-02 4.46873019e-03 -6.25404418e-02
      -4.72430997e-02 -8.10955986e-02 1.53633237e-01 9.11543146e-02
      -5.93497604e-02 1.11831119e-02 5.64174689e-02 1.28484070e-01
      1.14991283e-02 -6.39152527e-02 -3.18828784e-02 -6.57910109e-02
      -4.77552712e-02 -9.71068442e-02 7.32087269e-02 5.87324100e-03</_>
    <_>
      -1.15939207e-01 -1.03678858e+00 1.08871251e-01 5.08423299e-02
      4.44214791e-01 6.04504608e-02 -1.83472320e-01 4.48299758e-03
      -2.36760080e-01 8.51407871e-02 5.34419157e-02 -3.25846486e-02
      3.19742590e-01 4.81021032e-02 1.32358640e-01 -6.36519922e-04
      3.27711850e-01 1.97136700e-01 1.67150155e-01 -1.68187663e-01
      -1.20395675e-01 -5.99995017e-01 2.72082895e-01 5.22036962e-02
      -2.52393559e-02 1.58437610e-01 7.25669712e-02 3.65310341e-01
      8.92401338e-02 -2.57307947e-01 -1.30149588e-01 3.01253889e-02
      -3.26394171e-01 -1.13008790e-01 -1.92899987e-01 2.23661363e-01</_>
    <_>
      5.22315204e-01 -1.32585451e-01 3.24317187e-01 -5.87510578e-02
      3.36919576e-01 5.05044162e-02 8.53450075e-02 1.33673534e-01
      1.23094678e-01 -4.59605493e-02 3.32862628e-03 -1.55379906e-01
      3.83554548e-02 -6.00298047e-02 1.93792582e-01 -1.38276666e-02
      1.76296327e-02 -1.52115569e-01 -2.75631286e-02 -3.97394449e-02
      -1.42226294e-01 1.27775036e-02 -1.02680624e-01 -8.11101720e-02
      -1.35785416e-01 1.50496796e-01 4.87143956e-02 2.96012312e-01
      1.46532625e-01 -1.34158032e-02 -2.70823359e-01 -2.98548400e-01
      -6.58335388e-02 -1.00249890e-02 1.17651641e-01 7.64538646e-02</_>
    <_>
      -2.78219312e-01 -8.37840736e-01 1.33158669e-01 4.08654846e-02
      4.18058217e-01 1.07142709e-01 -1.20648228e-01 -3.88736457e-01
      -1.73415467e-01 1.19615853e-01 -2.09646616e-02 1.69844739e-02
      1.59456253e-01 2.99414665e-01 1.08246565e-01 1.64586961e-01
      1.18898768e-02 -1.50458649e-01 -4.70010601e-02 -1.00016838e-03
      -1.22541942e-01 5.59633411e-02 1.77590951e-01 -6.94699958e-02
      -4.37616482e-02 -1.18046878e-02 5.96087538e-02 1.37004137e-01
      1.98029906e-01 2.04177052e-02 6.01083152e-02 -1.75953224e-01
      -6.76913634e-02 6.08300194e-02 1.17618926e-01 -8.71606395e-02</_>
    <_>
      -1.44296199e-01 -5.64648211e-01 2.07707912e-01 -4.89050075e-02
      2.77660996e-01 -7.51219736e-03 -8.58509243e-02 -2.32367888e-01
      -1.14358470e-01 -4.97330353e-02 5.07490523e-02 1.02883369e-01
      -2.47292276e-02 -1.02387585e-01 -9.49801356e-02 -1.44073725e-01
      1.46464363e-01 1.13835804e-01 -1.67918667e-01 -1.40476441e-02
      -9.66431573e-02 -6.44150302e-02 5.04024737e-02 -9.23169032e-03
      -1.45721138e-01 4.00316939e-02 -8.37178528e-02 1.56209275e-01
      -2.55779270e-02 7.67058432e-02 -1.06002346e-01 -8.82318616e-02
      -1.14847526e-01 -7.33734891e-02 1.88368514e-01 -3.92263532e-02</_>
    <_>
      -7.16537312e-02 -2.13467464e-01 2.89060265e-01 -7.27103353e-02
      1.34747341e-01 -4.34025936e-02 -9.20902491e-02 -1.70569688e-01
      -9.01851952e-02 -6.76088333e-02 -2.37187706e-02 9.52893049e-02
      -7.70247029e-03 -1.21001095e-01 -2.20051203e-02 -6.94042221e-02
      4.93288897e-02 -6.65555298e-02 -4.43393365e-02 -8.23170878e-03
      -4.53838408e-02 -2.00634494e-01 -5.60726151e-02 1.95722878e-02
      -1.03777205e-03 -3.99023071e-02 1.11521237e-01 1.33722737e-01
      2.16394231e-01 -1.24642499e-01 -6.25317097e-02 -2.79888064e-01
      1.46272499e-02 -3.11560594e-02 1.14948176e-01 2.94253360e-02</_>
    <_>
      1.23865426e-01 -1.19259529e-01 2.93467790e-01 9.78650376e-02
      3.72239798e-02 -1.11658245e-01 -3.81323602e-03 1.51442751e-01
      1.51335848e-02 1.32043269e-02 -1.53605595e-01 1.15610637e-01
      1.72517240e-01 -1.84586570e-02 -2.58164443e-02 -2.33603660e-02
      1.95520267e-01 -6.53699914e-04 6.92422912e-02 -1.37699977e-01
      -6.90655932e-02 -4.74391207e-02 6.47547469e-02 3.75894494e-02
      -8.42136666e-02 -3.74837145e-02 4.35077511e-02 1.42736405e-01
      6.65750504e-02 -7.88537189e-02 -7.34534189e-02 -2.10704535e-01
      -1.15891583e-01 -6.27361387e-02 9.18350816e-02 2.15237550e-02</_>
    <_>
      6.67749345e-01 1.01159690e-02 3.27836305e-01 -1.19849361e-01
      1.61166683e-01 -3.84925485e-01 2.17751905e-01 1.87176373e-02
      -1.51969224e-01 -1.50728393e-02 8.36575627e-02 -9.19509977e-02
      -6.34649247e-02 1.08015336e-01 -2.60805041e-02 1.35491798e-02
      1.63613819e-02 -2.54974723e-01 5.04088849e-02 1.11774569e-02
      -9.33961496e-02 -3.70475138e-03 -5.46502694e-02 -1.33977845e-01
      -1.92411885e-01 5.74398153e-02 7.97742531e-02 2.40498662e-01
      1.76096886e-01 -1.17208272e-01 -1.14847355e-01 -1.84426904e-01
      -6.40386492e-02 -1.45845711e-01 1.21594258e-01 -6.57942379e-03</_>
    <_>
      7.44861066e-01 -2.97847301e-01 3.03717643e-01 2.04494268e-01
      1.81275517e-01 -5.86126745e-01 -2.60902286e-01 3.20989676e-02
      9.73060131e-02 -1.13759644e-01 1.91990435e-01 -6.62061572e-02
      -2.89383143e-01 1.22603253e-01 -2.28413090e-01 1.76596399e-02
      2.92375058e-01 -3.02160352e-01 4.44847554e-01 1.27116472e-01
      7.06878211e-03 -1.86166152e-01 -4.91469353e-02 -2.20547289e-01
      5.82407154e-02 -6.47232831e-02 -8.57286900e-02 3.39855283e-01
      1.43668547e-01 1.72144230e-02 -8.08710381e-02 -4.71479595e-02
      2.56651808e-02 2.20647529e-02 2.97027886e-01 1.30401835e-01</_>
    <_>
      9.25295800e-02 -1.34228915e-01 2.84855634e-01 4.83057909e-02
      1.34553127e-02 -1.02809951e-01 -1.43059874e-02 1.31696686e-01
      -3.44677493e-02 -1.99345667e-02 -1.13114633e-01 1.73003539e-01
      1.44236624e-01 -1.01137906e-02 2.38618683e-02 -2.11104397e-02
      1.78720191e-01 -2.03048587e-02 9.82175469e-02 -3.66583206e-02
      -2.52145808e-02 -5.37847653e-02 7.14434087e-02 7.80651197e-02
      -1.09574519e-01 -1.27839101e-02 -5.54651779e-04 1.55266777e-01
      4.35239598e-02 -4.75580096e-02 -9.79458541e-02 -6.54226765e-02
      -7.46861622e-02 -6.96979240e-02 1.42173707e-01 -1.35494163e-03</_>
    <_>
      -1.48837253e-01 -5.39099574e-01 1.73003688e-01 -1.41465232e-01
      2.05848768e-01 1.39407674e-02 -1.39436647e-01 -3.77975553e-01
      -1.14289902e-01 -6.29462674e-02 5.95279746e-02 6.50653318e-02
      -1.45537823e-01 -1.76341832e-01 -8.13628286e-02 -6.22481667e-03
      2.53780130e-02 1.68391764e-01 -3.30888964e-02 4.83196042e-02
      -4.58201207e-02 -7.18779936e-02 -1.47868887e-01 9.45207314e-04
      -9.03657973e-02 -1.31627321e-02 -9.95395482e-02 2.02409685e-01
      7.14299157e-02 9.39928181e-03 -1.00417249e-01 -1.68362424e-01
      -3.36161535e-03 -2.87674740e-02 1.24273390e-01 2.19641086e-02</_>
    <_>
      6.92869201e-02 -2.03545168e-01 2.84565330e-01 8.07123780e-02
      6.61565438e-02 -1.12775408e-01 3.24000828e-02 1.79843575e-01
      -1.87845603e-02 1.39157916e-03 -1.30233601e-01 1.49157062e-01
      1.22788116e-01 -4.68951538e-02 3.94168720e-02 -1.17435381e-02
      1.94547787e-01 7.44626974e-04 8.26925635e-02 -4.95497137e-02
      -3.28052901e-02 -3.14596742e-02 3.43607441e-02 3.12342755e-02
      -1.83824021e-02 -3.45559828e-02 -2.45417729e-02 1.46554425e-01
      8.59818459e-02 -6.43726811e-02 -6.57852367e-02 -8.83479863e-02
      -1.01003036e-01 -7.62605667e-02 1.11156203e-01 2.53534690e-02</_>
    <_>
      -2.67580867e-01 -1.02074194e+00 1.13977179e-01 3.46057974e-02
      4.97283727e-01 -9.15026590e-02 -6.32135123e-02 -5.47611639e-02
      -1.10082373e-01 6.76068440e-02 -5.81461787e-02 6.60195574e-02
      2.04713285e-01 -7.76287243e-02 1.90094914e-02 -1.17966741e-01
      2.17485026e-01 -1.02183707e-01 -5.58239110e-02 -1.53768472e-02
      -1.12335473e-01 -1.98521420e-01 -1.30950436e-01 -5.80861084e-02
      1.63864210e-01 6.51487662e-03 1.48726562e-02 3.30377281e-01
      1.46106035e-01 5.71954343e-03 -3.55250761e-02 -6.56255037e-02
      -1.52053997e-01 -1.37665302e-01 1.82585612e-01 4.36742865e-02</_>
    <_>
      -2.50201762e-01 1.03533721e+00 1.11432314e+00 2.34285966e-01
      1.06876469e+00 -2.10994333e-01 -5.23838922e-02 -4.98436093e-01
      -2.20559165e-01 -1.05296731e-01 4.99456614e-01 -1.09129213e-01
      -6.14607744e-02 -6.78271413e-01 9.94853526e-02 -3.58018279e-01
      4.96376216e-01 -1.65160224e-01 2.74003118e-01 1.46405958e-02
      -6.62070155e-01 5.56818604e-01 1.55017436e-01 4.82484773e-02
      7.06181899e-02 3.77352327e-01 1.11414932e-01 1.45615920e-01
      4.84481722e-01 1.41639307e-01 1.03570744e-01 -1.25879064e-01
      -2.19381616e-01 -2.37422228e-01 -2.25592405e-01 -4.20230925e-02</_>
    <_>
      -3.26932594e-02 -2.15576887e-01 2.67483830e-01 -1.01072751e-01
      1.43895984e-01 -2.93660763e-04 -1.64107364e-02 -1.25248015e-01
      -5.11400364e-02 -9.58878547e-02 5.09929694e-02 2.75811777e-02
      -3.66592295e-02 -1.71236426e-01 4.25697975e-02 -8.18142667e-02
      -1.65840928e-02 -1.44972414e-01 -1.49250403e-02 1.36647038e-02
      -6.06899820e-02 -1.17217734e-01 -1.48695065e-02 2.72414498e-02
      3.99521971e-03 -3.11935693e-02 8.60996842e-02 2.67095387e-01
      6.67271540e-02 -1.25677893e-02 -1.17028933e-02 -1.06983066e-01
      -8.51203725e-02 5.52557632e-02 1.39805719e-01 -1.75021589e-02</_>
    <_>
      1.74589425e-01 2.48084515e-02 2.80189335e-01 -1.30552456e-01
      -8.48139822e-02 -7.67521039e-02 -6.30306080e-02 -5.84593378e-02
      -7.93986768e-02 -1.16873376e-01 1.05982451e-02 1.02527425e-01
      1.81371793e-02 -1.26009524e-01 -8.76739770e-02 -6.37090579e-02
      6.20316975e-02 -8.20372477e-02 -1.90734081e-02 -5.01110516e-02
      -4.98243310e-02 -1.85107812e-01 -3.43779586e-02 8.39276146e-03
      -6.91259950e-02 5.19863777e-02 3.18775922e-02 1.99105501e-01
      1.46106243e-01 2.19090190e-02 -7.19671026e-02 -1.89371094e-01
      -4.66578603e-02 -4.29850258e-02 1.32102564e-01 -4.84332256e-02</_>
    <_>
      9.42438096e-02 -1.43638134e-01 2.96358377e-01 7.62292817e-02
      6.55723289e-02 -1.21269286e-01 -2.37574186e-02 1.86263695e-01
      -2.85788979e-02 5.78681240e-03 -1.49853483e-01 1.54868141e-01
      6.68312684e-02 -8.01135227e-02 3.28392610e-02 -9.29380059e-02
      1.66415483e-01 3.36974449e-02 8.10638145e-02 -1.05353408e-01
      -2.69860905e-02 -8.47352147e-02 1.07700266e-01 4.78445292e-02
      -9.29166004e-02 -9.33272019e-02 3.17484550e-02 1.28646255e-01
      8.78503919e-02 -3.46035920e-02 -5.41962236e-02 -1.70920521e-01
      -6.54194504e-02 1.52920745e-02 1.32207096e-01 3.81436311e-02</_>
    <_>
      -5.22655025e-02 -3.52630585e-01 2.63183236e-01 1.91680174e-02
      1.75224438e-01 -6.76112771e-02 -1.27946865e-02 9.81579255e-03
      -4.03952599e-02 1.54439118e-02 -7.15237856e-02 9.27187949e-02
      -3.56448777e-02 -1.15065508e-01 -8.12795907e-02 -1.23355761e-01
      1.10451542e-01 9.95149165e-02 -4.62639965e-02 -7.51461536e-02
      -1.17591895e-01 -3.89660709e-02 -7.45363608e-02 4.46192594e-03
      4.18863958e-03 -5.33773154e-02 -3.24509367e-02 2.11366028e-01
      2.24673580e-02 3.83452028e-02 -1.54376909e-01 -1.21940278e-01
      -1.44837603e-01 -1.88186336e-02 1.68514237e-01 5.50245978e-02</_>
    <_>
      -2.27029756e-01 -6.92864776e-01 1.48560897e-01 -1.16791651e-01
      2.73770958e-01 -1.02735870e-01 -1.79706495e-02 -2.42172718e-01
      -1.56349525e-01 -8.99139196e-02 7.00988770e-02 1.97825313e-01
      1.22661263e-01 -1.36082888e-01 1.19377226e-01 -1.69338044e-02
      2.15456054e-01 -4.97283265e-02 8.38056803e-02 1.77197158e-02
      1.23393714e-01 -1.36722714e-01 -1.36747882e-01 9.78486799e-03
      -1.32587075e-01 9.55595970e-02 -1.01716146e-02 7.70903379e-02
      1.50635853e-01 -2.94866581e-02 -6.81318268e-02 -1.67883009e-01
      4.22296934e-02 -7.35148042e-02 4.21869792e-02 1.33060455e-01</_>
    <_>
      2.51929522e-01 -1.33901954e-01 2.35471845e-01 4.48518284e-02
      1.24655485e-01 -9.42684058e-03 -9.55849588e-02 -9.09172222e-02
      6.18302487e-02 -2.60007270e-02 -1.76819377e-02 -9.91208032e-02
      9.80510260e-04 -8.21011066e-02 -5.98212555e-02 -2.40183412e-03
      -2.25865636e-02 -2.57776100e-02 3.75855938e-02 -3.14794965e-02
      -7.22513199e-02 -7.33854175e-02 -3.16391326e-02 9.75036919e-02
      -3.36462967e-02 -2.61863768e-01 1.98660661e-02 5.62544316e-02
      1.17339671e-01 -4.49784137e-02 -7.70234019e-02 -5.48876561e-02
      -7.91532081e-03 -2.22989153e-02 9.10345986e-02 -2.53357161e-02</_>
    <_>
      -4.82669957e-02 -3.11937034e-01 2.51483440e-01 -4.33590747e-02
      9.74853337e-02 -6.85216039e-02 2.43471414e-02 -6.47303089e-02
      -5.78265563e-02 -2.02789716e-03 -1.40402988e-01 1.39704108e-01
      4.59274650e-02 -5.73228337e-02 4.64217290e-02 -7.76472241e-02
      5.03908731e-02 -1.18246935e-01 5.14409365e-03 2.96525974e-02
      -9.43919197e-02 -5.58589138e-02 -1.00277022e-01 2.71735750e-02
      -7.77662992e-02 -3.98243293e-02 5.48790023e-02 1.81743503e-01
      9.35788527e-02 5.39633166e-03 -3.19474600e-02 -1.12826630e-01
      -6.58220649e-02 2.62040691e-03 1.72331348e-01 -2.89737415e-02</_>
    <_>
      -5.87125838e-01 2.10950851e+00 2.03904057e+00 1.45982906e-01
      2.16505790e+00 -2.65380025e-01 -2.13446170e-01 -4.80946362e-01
      -8.79717916e-02 -7.80945420e-02 -5.51417731e-02 4.15512711e-01
      1.76315978e-01 1.07452877e-01 1.04386277e-01 1.51027143e-02
      1.71333835e-01 6.53963462e-02 8.69553909e-02 -2.80597862e-02
      1.25933900e-01 -2.13559523e-01 -8.71033296e-02 1.61453635e-01
      -8.76339152e-02 -1.82405815e-01 -2.52852384e-02 2.59965003e-01
      1.09041855e-01 2.88736960e-03 -2.47420058e-01 -1.85224801e-01
      -1.95300102e-01 -1.44705540e-02 1.42144203e-01 1.10152356e-01</_>
    <_>
      -1.55100669e-03 -2.09273025e-01 2.57218689e-01 -7.16209486e-02
      6.00206107e-02 -7.25871027e-02 3.52865295e-03 -1.05877705e-01
      -2.35696062e-02 -6.64229617e-02 -2.53514461e-02 9.53336358e-02
      9.14088935e-02 -1.34113953e-01 -3.13679017e-02 -1.52909741e-01
      9.70531851e-02 -5.83166108e-02 -1.05598763e-01 4.01809439e-02
      -9.12496448e-02 -7.26402178e-02 -4.68378104e-02 1.02962330e-01
      5.17522655e-02 7.57465325e-03 2.57260371e-02 2.00442702e-01
      5.03656790e-02 -3.59138027e-02 -4.75158636e-03 -1.43807516e-01
      -3.89136188e-02 -8.84302109e-02 1.42776325e-01 5.63619956e-02</_>
    <_>
      1.11849762e-01 -3.93941998e-02 2.85781056e-01 -2.69090943e-02
      -6.87722042e-02 -1.38014570e-01 -9.69526842e-02 1.56133408e-02
      -4.24951278e-02 -7.00357109e-02 -6.56724945e-02 1.16777107e-01
      1.04184911e-01 -1.22276992e-01 -4.38712165e-02 -7.34763891e-02
      5.64019941e-03 3.27768326e-02 -4.99937357e-03 -1.03434287e-01
      -1.11866973e-01 -1.63595304e-01 -4.20541726e-02 3.66784669e-02
      -8.61097425e-02 3.49038467e-02 6.21560998e-02 2.81106621e-01
      1.19798437e-01 -5.34134731e-02 -1.20722480e-01 -1.57838464e-01
      -5.58523908e-02 -1.04847513e-01 1.34340420e-01 5.19850291e-02</_>
    <_>
      6.57196641e-01 -5.68812303e-02 2.09219322e-01 -6.70643151e-01
      4.14727032e-01 3.15335482e-01 4.71632630e-02 1.44287184e-01
      -2.97025144e-01 6.01153448e-02 2.14527175e-02 1.06064826e-01
      -7.28044137e-02 8.48877802e-02 9.04393569e-03 1.91023126e-01
      8.15767981e-03 -1.11223087e-01 -1.13806732e-01 -2.35414550e-01
      -2.77994096e-01 -3.40994336e-02 -1.08036576e-02 3.98440287e-02
      1.69197142e-01 5.76288700e-02 -1.74104080e-01 1.50809973e-01
      -9.20594335e-02 -1.26531184e-01 2.81429142e-01 -9.33304057e-03
      -1.25122264e-01 -2.42851168e-01 7.18644857e-02 3.20887938e-03</_>
    <_>
      8.57852846e-02 -1.32546853e-02 2.75392175e-01 -6.51302040e-02
      9.19900462e-02 -9.14575383e-02 -9.22474489e-02 -6.89129829e-02
      -8.39308053e-02 -1.01244636e-01 -7.10847676e-02 5.86564243e-02
      8.92780200e-02 -6.94812983e-02 -7.74960639e-03 -2.07949691e-02
      -4.68450077e-02 -5.58349714e-02 6.51929900e-02 -3.33772302e-02
      8.99823979e-02 -3.90649810e-02 5.45828342e-02 9.48726237e-02
      -3.41229029e-02 8.17957148e-02 3.39612924e-02 1.94917798e-01
      1.66656986e-01 8.45240206e-02 -6.29808307e-02 -1.73116386e-01
      -1.42600499e-02 -1.99694514e-01 1.65141106e-01 -1.04138732e-01</_>
    <_>
      -1.45162076e-01 -4.70112294e-01 2.25220412e-01 -5.86640537e-02
      2.18647316e-01 2.51442585e-02 -7.66993091e-02 -2.74014354e-01
      -1.12003751e-01 -3.57767045e-02 -6.27453346e-03 1.11862898e-01
      7.71405622e-02 3.07683758e-02 3.20267566e-02 3.26278387e-03
      1.10241748e-01 2.73754704e-03 -4.87054884e-02 -5.76878823e-02
      5.02584539e-02 -3.63706276e-02 -9.04909149e-02 -1.11140385e-01
      -7.67883435e-02 -4.12394665e-02 -3.26600596e-02 1.13702700e-01
      1.49195403e-01 -3.52054164e-02 -1.25019208e-01 -2.49328792e-01
      1.80645790e-02 -9.09886286e-02 4.94077504e-02 3.81289758e-02</_>
    <_>
      -2.26127476e-01 -7.92518139e-01 1.31470695e-01 3.44672948e-02
      3.54736209e-01 -3.73680405e-02 -4.85461242e-02 -8.40880722e-02
      -1.69265851e-01 3.95143442e-02 -1.27131669e-02 4.38163010e-03
      6.62277266e-02 3.30734998e-02 -7.74824694e-02 3.56487446e-02
      2.26915348e-02 4.52677421e-02 1.28569558e-01 5.89700602e-02
      2.60499003e-03 -9.56402197e-02 3.57577577e-02 2.03914493e-01
      -5.82641400e-02 6.26592487e-02 -1.01926420e-02 1.36403516e-01
      1.89718857e-01 -4.31733765e-02 -1.08546562e-01 -2.02969268e-01
      -6.77921548e-02 4.52596024e-02 1.92006782e-01 -1.21445894e-01</_>
    <_>
      -9.74480584e-02 -3.32186103e-01 2.41015136e-01 -1.18687525e-01
      1.23048790e-01 -5.50900139e-02 -8.53509307e-02 -2.33963847e-01
      -5.68640791e-02 -1.49498984e-01 5.80869913e-02 9.95249525e-02
      4.29789498e-02 -1.81871265e-01 -4.45516929e-02 -9.00747031e-02
      3.77597462e-04 -1.36982277e-02 3.74170691e-02 1.86712143e-03
      -3.67511474e-02 -1.36468977e-01 -7.06052035e-02 3.05881957e-03
      -6.27620071e-02 8.91021118e-02 -6.59501329e-02 2.28971437e-01
      6.71680346e-02 -6.10809401e-02 -1.11189239e-01 -1.56782299e-01
      -8.61834083e-03 -2.08430067e-01 3.50710787e-02 -8.16210452e-03</_>
    <_>
      1.36406139e-01 3.78854834e-02 3.02589953e-01 -1.79983571e-01
      -1.11894228e-01 -4.51128967e-02 -1.50119269e-03 -1.20228045e-01
      -9.96769220e-02 -2.19346061e-02 -8.37732702e-02 1.10779271e-01
      9.45209339e-02 2.10628025e-02 9.06144977e-02 6.52331114e-02
      1.28737107e-01 -6.47075847e-02 -8.28373209e-02 1.61793213e-02
      -3.09733357e-02 -9.85419378e-02 -1.06339239e-01 -9.85280983e-03
      -1.24180548e-01 1.92015525e-02 4.61828411e-02 1.73245043e-01
      1.37697563e-01 9.52921435e-02 -3.39238979e-02 -1.20384410e-01
      -2.01959386e-02 -7.13571385e-02 1.04984723e-01 3.83032896e-02</_>
    <_>
      -1.90371573e-02 -2.88149178e-01 2.06158772e-01 -2.41519302e-01
      1.00285470e-01 -8.79141763e-02 -4.58302870e-02 -2.23772094e-01
      -8.70185047e-02 -1.45841241e-01 1.03577413e-01 7.87647441e-02
      6.51672259e-02 -2.71878302e-01 -9.08230022e-02 -1.72070637e-01
      7.49598220e-02 -2.05614567e-01 -6.40843436e-02 -6.10404648e-02
      -6.25188230e-03 -1.72996506e-01 -2.20866483e-02 5.86267374e-02
      -4.26505432e-02 3.54982540e-02 4.51508090e-02 2.20833123e-01
      8.67289305e-02 7.29050860e-02 -2.74944138e-02 -1.47226185e-01
      -7.05986144e-03 -1.23926690e-02 1.34578347e-01 2.30555423e-03</_>
    <_>
      7.50083476e-02 -1.64153472e-01 2.81582177e-01 6.26735669e-03
      4.29601148e-02 -1.37688965e-01 2.65799519e-02 9.14938748e-02
      -2.10001003e-02 -7.43772462e-02 -7.02380985e-02 1.95700407e-01
      1.28687665e-01 -1.08085014e-01 1.62325297e-02 -4.46657389e-02
      9.70343202e-02 -1.46806255e-01 3.08129750e-02 -3.35878953e-02
      -3.67857628e-02 -4.53088470e-02 2.78411130e-03 1.04244776e-01
      -4.83876877e-02 -2.28205714e-02 1.10032931e-01 2.02641204e-01
      8.08491483e-02 -2.23216359e-02 -2.84536500e-02 -2.06433237e-01
      -2.53355899e-03 3.40712853e-02 1.41687647e-01 -1.19769452e-02</_>
    <_>
      -8.87440741e-02 -3.06028455e-01 2.49498501e-01 -1.11152783e-01
      1.20185271e-01 -9.49526429e-02 -5.61329685e-02 -2.58893996e-01
      -7.21710995e-02 -1.36100546e-01 3.14506330e-02 1.34983033e-01
      8.61082748e-02 -1.53177470e-01 -3.33760716e-02 -9.84881297e-02
      7.06629083e-03 -2.16952357e-02 -8.73919018e-03 1.31556680e-02
      -4.64051589e-02 -1.50249943e-01 -3.81155238e-02 -4.32667397e-02
      -2.66855191e-02 1.16198793e-01 -4.30414937e-02 1.80447668e-01
      8.83656517e-02 -7.36494958e-02 -1.06298998e-01 -1.04692809e-01
      -6.37194887e-02 -1.51702464e-01 8.43827128e-02 3.86439189e-02</_>
    <_>
      9.19281691e-03 -1.33712158e-01 2.98411041e-01 -3.71851176e-02
      2.61726584e-02 -2.40689181e-02 -1.04370549e-01 -1.21258937e-01
      -1.02388948e-01 -6.42412230e-02 -9.18210018e-03 1.43989116e-01
      2.34844461e-02 -6.79785684e-02 -3.29280756e-02 9.85250100e-02
      6.16358183e-02 -9.82737355e-03 1.07398994e-01 2.06840243e-02
      -1.17915615e-01 -1.34846583e-01 5.32907359e-02 -2.05394789e-03
      -6.48255795e-02 3.84523980e-02 -1.27297342e-01 2.68996596e-01
      9.34093297e-02 8.90652835e-02 -5.27132675e-02 -2.13721737e-01
      8.19666963e-03 -3.53283584e-02 1.11891590e-02 6.61820173e-02</_>
    <_>
      1.99139431e-01 1.56519890e-01 3.25908482e-01 -5.16537651e-02
      -1.16507545e-01 2.88748480e-02 -1.26111982e-02 -1.00980233e-02
