<?xml version="1.0"?>
<opencv_storage>
<opencv_ml_svm>
  <format>3</format>
  <svmType>C_SVC</svmType>
  <kernel>
    <type>RBF</type>
    <gamma>5.0625000000000009e-01</gamma></kernel>
  <C>1.0000000000000001e-01</C>
  <term_criteria><iterations>100</iterations></term_criteria>
  <var_count>36</var_count>
  <class_count>2</class_count>
  <class_labels type_id="opencv-matrix">
    <rows>2</rows>
    <cols>1</cols>
    <dt>i</dt>
    <data>
      0 1</data></class_labels>
  <sv_total>200</sv_total>
  <support_vectors>
    <_>
      -1.11116230e-01 -3.70459288e-01 1.63129255e-01 1.07349247e-01
      -2.05512531e-02 3.17890495e-02 -1.42490380e-02 1.29496064e-02
      -7.85017237e-02 8.48302804e-03 1.28328288e-02 7.53971282e-03
      -4.42371005e-04 -5.74135855e-02 9.15973336e-02 1.52593367e-02
      -8.73192474e-02 -2.23641261e-03 -1.78937167e-02 5.30188233e-02
      -8.44615698e-02 1.83932407e-05 -5.06626256e-02 -7.65957385e-02
      -1.76248327e-02 8.05921555e-02 1.23329960e-01 2.57537700e-02
      -3.18822749e-02 -1.38387278e-01 -8.63859488e-04 5.38540166e-03
      9.75853130e-02 -4.26318049e-02 5.15480936e-02 -5.95898554e-03</_>
    <_>
      1.09302416e-01 -2.06165329e-01 6.89609945e-02 7.22423941e-02
      1.19956389e-01 8.78966972e-03 2.43283212e-02 1.60733964e-02
      -2.94333603e-02 6.21251948e-02 -5.57478219e-02 -3.07166949e-02
      -4.95984592e-02 1.79421902e-02 7.89815038e-02 3.89287621e-02
      -1.01493597e-01 -5.63239977e-02 1.41294615e-03 1.88032612e-02
      -8.63924772e-02 3.09949392e-03 -4.45977412e-02 -8.45703334e-02
      -7.19240680e-02 1.00475736e-01 1.46543398e-01 2.26663314e-02
      -2.55477540e-02 -1.39888540e-01 6.32461451e-04 1.44284936e-02
      9.04173926e-02 -3.78007255e-02 4.33880202e-02 2.09927047e-03</_>
    <_>
      -1.39737688e-02 4.73171353e-01 4.92576808e-01 2.40378335e-01
      -3.23142111e-02 7.66861364e-02 1.65551379e-01 -5.92288524e-02
      1.07552998e-01 -1.52767435e-01 -1.15086526e-01 2.50255242e-02
      7.49974176e-02 -2.89741326e-02 3.67030650e-02 3.88505589e-03
      -4.40588556e-02 -7.92647898e-02 3.27915698e-02 1.33257195e-01
      8.91968887e-03 -3.49216908e-02 -7.81550631e-02 -7.51124918e-02
      -1.53153036e-02 1.02083027e-01 1.81928650e-01 3.26008052e-02
      -1.78766418e-02 -1.33131966e-01 6.59997901e-03 1.75255388e-02
      1.01233236e-01 -5.57728484e-02 3.39479260e-02 -5.84874162e-03</_>
    <_>
      1.65887818e-01 -1.20591000e-01 1.54012237e-02 9.67083722e-02
      4.02988084e-02 4.87717986e-02 -3.80859077e-02 4.51640859e-02
      4.22507804e-03 4.68743891e-02 1.19633861e-02 -2.65518781e-02
      -2.79537085e-02 -2.35951319e-02 4.41164039e-02 3.79545651e-02
      -8.61150324e-02 -3.40164602e-02 -7.90479069e-04 -6.39176089e-03
      -6.09851144e-02 -1.09071191e-03 -4.25364897e-02 -4.50009219e-02
      -2.66613793e-02 9.61402431e-02 1.59042731e-01 2.69485172e-02
      -1.04907826e-02 -1.35305196e-01 -1.63403805e-02 1.24364393e-02
      9.17848349e-02 -2.97532305e-02 3.77418473e-02 -7.37803802e-03</_>
    <_>
      7.81755298e-02 -2.59990133e-02 -6.72525391e-02 -2.18755826e-02
      5.64448163e-03 -2.52839215e-02 -3.55126709e-02 -1.55104306e-02
      -3.93836200e-02 1.23446537e-02 1.92226861e-02 -1.23704625e-02
      1.25481957e-03 -5.46631962e-02 4.39381599e-02 6.12464882e-02
      -8.30480903e-02 -3.53562497e-02 -3.93924229e-02 2.12471317e-02
      -6.60470501e-02 -5.99936908e-03 -6.19827285e-02 -7.29392990e-02
      -2.60288250e-02 8.87845159e-02 1.47513896e-01 2.93891393e-02
      -1.83851551e-02 -1.36589184e-01 1.11697987e-02 1.09369401e-02
      9.24062654e-02 -3.21624689e-02 4.11657989e-02 -1.92932770e-04</_>
    <_>
      2.73924861e-02 -2.22523868e-01 8.35850015e-02 2.04084124e-02
      -2.47221533e-02 -7.52157066e-04 -1.63318105e-02 -3.93690355e-03
      -8.77577215e-02 -3.01481057e-02 2.64626890e-02 -1.99814271e-02
      -2.27373894e-04 -4.41371799e-02 1.88625008e-02 1.06573701e-01
      -5.63358590e-02 -3.48909162e-02 -3.44933569e-02 2.23599616e-02
      -6.65981844e-02 8.74143001e-03 -5.94177991e-02 -5.61070293e-02
      -1.76653601e-02 7.17376545e-02 1.44186720e-01 3.26236822e-02
      -1.72127318e-02 -1.29441187e-01 -3.08174378e-04 -5.60412463e-03
      9.53376070e-02 -3.34272385e-02 3.17565836e-02 -1.18932091e-02</_>
    <_>
      -4.67175916e-02 5.46790838e-01 6.18707299e-01 2.79167444e-01
      -2.35687550e-02 -6.47032037e-02 -1.06243424e-01 -1.38239041e-01
      -1.27680168e-01 7.56556615e-02 7.29352096e-03 -3.91001701e-02
      -3.14855427e-02 -2.72962935e-02 5.47135696e-02 2.01689955e-02
      -7.80223832e-02 -4.25600968e-02 -4.28967662e-02 2.40209214e-02
      -7.83909783e-02 -2.17165652e-04 -6.57326728e-02 -9.24383998e-02
      -3.78392041e-02 8.93741995e-02 1.52157620e-01 3.89446542e-02
      -2.52625290e-02 -1.21643662e-01 -1.64607465e-02 4.62267268e-03
      9.72855613e-02 -2.60284562e-02 2.69564763e-02 -1.87519076e-03</_>
    <_>
      1.30253285e-01 -4.53799814e-02 -8.96511674e-02 4.58612554e-02
      1.25835685e-03 -2.77318042e-02 -4.71125804e-02 -2.79065259e-02
      -2.76728682e-02 1.04767885e-02 1.53307943e-02 -1.73906069e-02
      -1.21551268e-02 -7.43879527e-02 4.13329676e-02 4.22884896e-02
      -8.34207386e-02 -3.52076180e-02 -3.40802595e-02 2.21200921e-02
      -5.99117689e-02 7.33079156e-04 -6.06664084e-02 -7.48465434e-02
      -1.43256672e-02 8.62093568e-02 1.42157644e-01 3.92957777e-02
      -1.80910993e-02 -1.34760126e-01 -3.09236301e-03 6.17656158e-03
      9.09600034e-02 -3.44965756e-02 3.22479755e-02 -3.68048344e-03</_>
    <_>
      -7.06932740e-04 -1.00693747e-01 -2.79911561e-04 -4.18326445e-03
      5.01037342e-03 -6.14986978e-02 -4.48755510e-02 1.15927258e-04
      -2.73427274e-02 -9.54062969e-04 4.46477579e-03 -1.00174276e-02
      -3.04855127e-02 -2.96421759e-02 3.66871692e-02 4.62966636e-02
      -4.51722592e-02 -3.08589395e-02 -3.67750637e-02 1.78119410e-02
      -6.17715530e-02 -1.76996808e-03 -5.77015057e-02 -8.17662627e-02
      -2.99403667e-02 8.39772075e-02 1.55718789e-01 2.37349067e-02
      -1.87413432e-02 -1.32339835e-01 4.18446632e-03 -6.68583717e-03
      1.10925332e-01 -2.51825172e-02 3.52105908e-02 -1.42642930e-05</_>
    <_>
      -5.86709976e-02 -2.46688664e-01 1.61419213e-01 6.05049208e-02
      2.27453541e-02 6.82429830e-03 -1.04541644e-01 8.00641626e-02
      -7.76493326e-02 -5.15825115e-03 -1.06292486e-01 6.12990558e-02
      7.96218636e-04 -2.41055954e-02 6.67061880e-02 4.46974225e-02
      -5.93587980e-02 -6.82641566e-02 -6.07182086e-02 1.84277408e-02
      -5.29735051e-02 1.99488495e-02 -6.77904859e-02 -5.42759262e-02
      -4.27872241e-02 5.81811033e-02 1.33275911e-01 1.83701068e-02
      -1.63240489e-02 -1.13747880e-01 -5.77982422e-03 1.91610754e-02
      9.42081586e-02 -3.37432548e-02 3.97383012e-02 -1.17159868e-02</_>
    <_>
      -7.42383823e-02 2.07434177e-01 5.19709170e-01 1.92714840e-01
      -1.62709635e-02 2.62088161e-02 8.15347731e-02 -1.18607385e-02
      2.44606398e-02 -1.19060308e-01 2.70244982e-02 -4.41554515e-03
      -1.08691826e-02 -4.39578369e-02 6.69162050e-02 4.45724949e-02
      -8.31250548e-02 -3.30109037e-02 -6.89821765e-02 1.64396744e-02
      -8.16164985e-02 7.89061561e-03 -5.04321568e-02 -1.01266608e-01
      -2.68159658e-02 9.87118781e-02 1.61401466e-01 2.22954843e-02
      -1.93743873e-02 -1.35120943e-01 -2.23851446e-02 1.98375788e-02
      9.68213901e-02 -3.50713283e-02 4.04202938e-02 -1.68073934e-03</_>
    <_>
      1.65369280e-03 -1.58278361e-01 3.10704559e-02 9.70103312e-03
      -2.66091321e-02 -2.66025644e-02 -4.71819304e-02 -1.94441061e-02
      -5.10982126e-02 -1.45645551e-02 1.24421930e-02 -1.78664643e-02
      -1.60755068e-02 -4.56086583e-02 2.28607766e-02 6.26465976e-02
      -6.69408888e-02 -1.65695157e-02 -2.34608781e-02 7.93669187e-03
      -6.91734627e-02 -1.59570463e-02 -5.99869788e-02 -5.51883355e-02
      -2.01145113e-02 8.60251039e-02 1.58572838e-01 3.76039036e-02
      -5.59150102e-03 -1.25601783e-01 -5.98600041e-03 6.10102573e-03
      8.83888975e-02 -3.00246943e-02 4.35628071e-02 -1.07622687e-02</_>
    <_>
      5.65485418e-01 -5.45221716e-02 -1.09249368e-01 2.80705631e-01
      3.38076621e-01 7.24331662e-02 -1.18257813e-01 -1.24934930e-02
      -2.50931084e-02 -2.72156056e-02 8.85772407e-02 -2.45179776e-02
      1.27724065e-02 -4.18956578e-02 2.33545639e-02 3.63916866e-02
      -9.37546045e-02 -3.31396945e-02 -1.66451670e-02 1.57301333e-02
      -5.50910980e-02 2.04424709e-02 -7.90797025e-02 -9.54061151e-02
      -5.73265888e-02 7.50806704e-02 1.47881970e-01 2.61835679e-02
      -4.17592674e-02 -1.36327565e-01 6.79788785e-03 1.02308653e-02
      8.97707641e-02 -2.67658606e-02 3.79147679e-02 4.62208875e-03</_>
    <_>
      -3.67124900e-02 -2.12402374e-01 5.70475534e-02 4.91075031e-02
      -1.94476172e-02 -2.13751104e-02 -3.22532542e-02 1.91034265e-02
      -4.41771522e-02 1.75377484e-02 2.33756471e-02 -1.58884730e-02
      -1.14013543e-02 -5.88589758e-02 4.02270779e-02 5.18835336e-02
      -7.30928108e-02 -3.88145521e-02 -2.28877757e-02 1.52026657e-02
      -5.60598299e-02 1.70697235e-02 -6.32211939e-02 -6.76519945e-02
      -1.75251476e-02 7.72283301e-02 1.55586153e-01 2.83524059e-02
      -1.06642907e-02 -1.29111037e-01 -1.24129886e-02 1.10921785e-02
      9.44782943e-02 -3.19669321e-02 4.28653657e-02 -9.06620547e-03</_>
    <_>
      6.29384592e-02 -6.92573860e-02 -3.04962322e-03 -1.32851470e-02
      3.14461775e-02 -2.94047669e-02 -7.28364885e-02 3.40194665e-02
      -1.52681833e-02 1.19042704e-02 -8.85927863e-03 -1.10109919e-03
      -3.36621772e-03 -2.88766972e-03 6.17315918e-02 -1.96218444e-03
      -1.01671048e-01 -1.97921190e-02 -1.33978343e-03 3.14077851e-03
      -4.89779152e-02 1.08111091e-03 -3.03920526e-02 -5.96796684e-02
      -2.81822812e-02 1.04776129e-01 1.39452204e-01 2.73180008e-02
      -2.20935103e-02 -1.32760823e-01 -1.42653342e-02 6.26665261e-03
      8.71351808e-02 -4.05221470e-02 3.16342264e-02 5.69474604e-03</_>
    <_>
      1.01612282e+00 -1.52867466e-01 4.75329943e-02 6.29236028e-02
      8.40511993e-02 -1.27072651e-02 -6.01287112e-02 -5.18472455e-02
      -3.00759822e-02 -1.05892131e-02 2.56219637e-02 -1.71000808e-02
      -7.13708019e-03 -6.43264651e-02 3.61014009e-02 2.50895489e-02
      -3.01928781e-02 -2.18275040e-02 -4.05741036e-02 2.15778705e-02
      -6.30042255e-02 7.53384968e-03 -5.63921705e-02 -7.44153261e-02
      -3.02256905e-02 8.40132460e-02 1.55459270e-01 3.22349109e-02
      -2.28523444e-02 -1.32789418e-01 2.08744267e-03 9.82653257e-03
      8.51419270e-02 -3.57467346e-02 4.05509584e-02 -4.43800399e-03</_>
    <_>
      9.62170005e-01 -1.32070720e-01 1.54360354e-01 -2.45955795e-01
      3.66387218e-02 -4.37342795e-03 6.23369515e-02 -4.10244726e-02
      -1.07892759e-01 1.77020300e-02 -6.38598157e-03 -1.72353406e-02
      -5.65645052e-03 2.41750237e-02 -9.76300705e-03 6.10204116e-02
      -9.87431705e-02 -3.59032974e-02 -4.58685681e-02 5.44945225e-02
      -1.12094827e-01 -2.88148616e-02 -4.78654318e-02 -7.76195154e-02
      -4.48890142e-02 8.13742653e-02 1.64072499e-01 4.05989550e-02
      -2.56120227e-02 -1.36826202e-01 -6.41406886e-03 1.92447864e-02
      9.14560854e-02 -3.26977558e-02 4.32897620e-02 2.17579422e-03</_>
    <_>
      3.05435210e-02 -2.05504447e-01 4.55620624e-02 5.39282151e-02
      5.65218814e-02 6.51025586e-03 1.10971732e-02 -1.40341576e-02
      -7.93623552e-02 4.21580859e-02 1.10653471e-02 2.01397035e-02
      1.73367988e-02 -1.73943900e-02 7.34061226e-02 4.30966876e-02
      -1.15376033e-01 -4.06752564e-02 -2.05941312e-03 4.20589224e-02
      -9.64954346e-02 1.13953501e-02 -5.05133756e-02 -8.80651176e-02
      -4.49932627e-02 7.73306116e-02 1.26713336e-01 3.23827453e-02
      -2.41858587e-02 -1.50076181e-01 6.27884059e-04 2.43612230e-02
      9.09531415e-02 -2.37827450e-02 5.93809150e-02 -1.85482809e-03</_>
    <_>
      2.59167194e-01 -1.48009971e-01 1.66891962e-02 2.29008012e-02
      7.02688545e-02 -1.96136594e-01 9.30584669e-02 -3.41524109e-02
      -6.29210174e-02 1.24631207e-02 -3.10752429e-02 -1.25211766e-02
      -1.36631941e-02 -2.33783070e-02 4.01046425e-02 6.28058538e-02
      -1.07875600e-01 -1.85063351e-02 -3.51125747e-02 7.09685497e-03
      -2.15133186e-02 6.57110140e-02 -8.11045915e-02 -7.87561610e-02
      -4.86753695e-02 8.51342529e-02 1.59406587e-01 4.80235629e-02
      -6.15488505e-03 -1.30606502e-01 -8.90056696e-03 -5.68959489e-03
      9.95467976e-02 -4.05043215e-02 4.83559594e-02 -5.10046119e-03</_>
    <_>
      -7.30999708e-02 -2.87970781e-01 8.40106085e-02 7.27351010e-02
      -5.59337845e-04 -1.35648372e-02 -4.09079269e-02 -5.05550914e-02
      -7.60660693e-02 -1.42173255e-02 -3.96628194e-02 1.48065826e-02
      -2.33243336e-03 -1.56869441e-02 3.88773307e-02 3.32846493e-02
      -7.10687190e-02 -3.30920927e-02 -3.62084769e-02 1.49752358e-02
      -6.75202087e-02 -2.53950013e-03 -5.42711578e-02 -6.79855198e-02
      -2.45382693e-02 8.87185708e-02 1.48469418e-01 3.15587781e-02
      -7.63567863e-03 -1.36045605e-01 7.78401096e-04 4.45364416e-03
      9.34628695e-02 -3.35629322e-02 4.63991687e-02 -5.27379196e-03</_>
    <_>
      8.38258266e-01 -7.55332857e-02 -1.47374824e-01 4.05246943e-01
      9.15989578e-02 -2.67277718e-01 1.00935757e-01 1.63825862e-02
      -9.42998156e-02 -1.37550542e-02 6.19967692e-02 6.60264865e-02
      2.84183677e-02 -6.79839551e-02 6.50811419e-02 1.13306940e-02
      -6.54487461e-02 -3.34266499e-02 -3.24832126e-02 2.00589988e-02
      -6.50636181e-02 -1.13600167e-02 -4.57444191e-02 -8.42582285e-02
      -2.32802350e-02 8.65258947e-02 1.34218201e-01 3.21261734e-02
      -2.63614729e-02 -1.33435696e-01 8.36481267e-05 1.55548314e-02
      9.34657231e-02 -3.30968834e-02 5.09377867e-02 -4.83316649e-03</_>
    <_>
      -4.63350751e-02 -2.22401768e-01 6.05836064e-02 2.02713218e-02
      8.52051470e-03 -5.93777969e-02 -7.71606490e-02 -6.11531688e-03
      -4.70606126e-02 -4.64503318e-02 -7.11066043e-03 -9.36276186e-03
      -9.72288288e-03 -3.83826271e-02 3.70804481e-02 4.30978797e-02
      -8.94717202e-02 -4.46466506e-02 -4.72493097e-02 2.86130086e-02
      -6.37665167e-02 -1.78579167e-02 -4.02255915e-02 -7.89879411e-02
      -2.99287681e-02 9.58381593e-02 1.50942340e-01 2.96659134e-02
      -2.21347474e-02 -1.36562780e-01 -4.92373900e-03 5.87951718e-03
      9.26591232e-02 -2.75190473e-02 4.86852862e-02 -3.67260189e-03</_>
    <_>
      3.18721868e-02 -8.65604356e-02 -2.89424876e-04 -5.43168653e-03
      -2.38515735e-02 1.73094980e-02 -4.08597626e-02 6.07792102e-03
      -4.16882820e-02 4.19459380e-02 2.84679178e-02 8.64382088e-03
      3.09561053e-03 -2.94333324e-02 3.83924358e-02 3.54564078e-02
      -7.32186511e-02 -3.91531438e-02 -4.28390391e-02 1.32345026e-02
      -6.12064376e-02 -1.86026003e-03 -3.01025007e-02 -6.12361804e-02
      -1.63835455e-02 7.86101222e-02 1.62808970e-01 2.67956834e-02
      -2.08627786e-02 -1.22877866e-01 -4.37407615e-03 7.88961351e-03
      9.49393883e-02 -4.66526635e-02 3.89896408e-02 3.49897491e-05</_>
    <_>
      8.64936039e-03 -1.54292271e-01 4.55006361e-02 2.76504792e-02
      -1.54262669e-02 2.49716956e-02 -1.38220740e-02 -4.05006198e-04
      -7.92169794e-02 5.14712147e-02 1.71780270e-02 7.84055237e-03
      3.65036004e-03 -6.13532402e-02 3.22509296e-02 6.02836348e-02
      -6.14157803e-02 7.18860608e-03 -5.35746813e-02 2.13993080e-02
      -4.82992493e-02 -1.16333095e-02 -4.96284068e-02 -7.30922297e-02
      -1.98920108e-02 7.95717314e-02 1.55799896e-01 3.74172144e-02
      -2.81440746e-02 -1.30904153e-01 -4.36048768e-03 2.14818735e-02
      8.74945745e-02 -3.33075300e-02 4.68262099e-02 -6.24044612e-03</_>
    <_>
      -3.87930870e-02 3.82450670e-01 5.11747181e-01 2.06848085e-01
      -3.90126184e-02 9.77971256e-02 1.37076721e-01 -6.61306754e-02
      8.68528262e-02 -8.05863589e-02 -1.35219777e-02 1.82208773e-02
      1.93160269e-02 -4.54089791e-02 6.27615526e-02 6.13671541e-02
      -1.02161564e-01 -3.55959199e-02 -9.91180092e-02 -3.40681598e-02
      -1.25270754e-01 1.18326461e-02 -7.06706420e-02 -8.76644701e-02
      -1.44471759e-02 1.01521060e-01 1.44273445e-01 2.72187814e-02
      -1.97037179e-02 -1.38460428e-01 8.43903050e-03 5.75598795e-03
      9.38505456e-02 -3.88964154e-02 4.09312733e-02 -1.21559715e-02</_>
    <_>
      8.30575898e-02 7.34337652e-03 -9.58330333e-02 -2.65663844e-02
      8.02052300e-03 -1.97923109e-02 -3.42935771e-02 -2.58405190e-02
      -4.61049378e-02 2.06193477e-02 6.83270767e-03 -3.18181468e-04
      -6.02149777e-03 -6.43692538e-02 5.75178526e-02 5.53487130e-02
      -7.39088133e-02 -5.10482751e-02 -3.54302153e-02 2.12986618e-02
      -6.11907244e-02 -4.74327768e-04 -4.51668948e-02 -8.11587200e-02
      -2.48167571e-02 8.51158947e-02 1.44651502e-01 2.60089673e-02
      -2.43940260e-02 -1.31657138e-01 -1.41297386e-03 9.79644246e-03
      9.75695103e-02 -3.20702493e-02 3.35706174e-02 -4.23524668e-03</_>
    <_>
      -5.23220338e-02 -2.77773976e-01 9.99289230e-02 8.17097723e-02
      -2.62983493e-03 -2.02486813e-02 2.34350078e-02 -4.12372034e-03
      -6.86405152e-02 -7.31741264e-03 -3.03946082e-02 -7.18659684e-02
      -6.35805577e-02 -4.19954322e-02 7.67306387e-02 1.53587414e-02
      -6.85208440e-02 -5.39138876e-02 -5.37783168e-02 2.22423170e-02
      -4.67384532e-02 -9.34240175e-04 -5.65189309e-02 -6.82662949e-02
      -3.55405658e-02 9.09407362e-02 1.50816843e-01 1.77483745e-02
      -1.38512161e-02 -1.24550186e-01 9.12862550e-03 -1.00678792e-02
      9.52577814e-02 -3.07526980e-02 4.91418168e-02 -1.34074967e-02</_>
    <_>
      1.74599573e-01 -1.26696989e-01 4.92838211e-03 1.21596470e-01
      5.03444001e-02 7.03574196e-02 -4.94394489e-02 5.25025278e-02
      7.55461957e-03 4.76326533e-02 1.33628836e-02 -2.15459932e-02
      -2.87145618e-02 -2.74712704e-02 5.94429225e-02 3.48336548e-02
      -8.71253908e-02 -4.07707021e-02 5.39159589e-03 3.93186376e-04
      -6.73625991e-02 7.95589481e-03 -4.21360992e-02 -5.20467348e-02
      -1.78990029e-02 1.02161594e-01 1.65812537e-01 2.84694321e-02
      -1.38255218e-02 -1.35481223e-01 -2.38387357e-03 1.73743349e-02
      9.66819301e-02 -1.71190705e-02 3.69967334e-02 -6.42272504e-03</_>
    <_>
      -7.91079625e-02 -2.83443868e-01 9.21965539e-02 7.25715086e-02
      2.05111410e-03 -2.08749510e-02 -2.57041287e-02 -2.86336169e-02
      -7.52104297e-02 -2.73080450e-02 -1.42224273e-02 -1.25675574e-02
      -6.18253229e-03 -3.67003083e-02 3.90464216e-02 3.53264511e-02
      -6.75652102e-02 -4.21212614e-02 -5.71966991e-02 2.53368765e-02
      -5.27099743e-02 -1.44935586e-03 -5.38751557e-02 -8.62276405e-02
      -2.02005003e-02 8.49225298e-02 1.46499559e-01 3.99686806e-02
      -8.65308847e-03 -1.24269366e-01 -4.62907599e-03 7.15425564e-03
      8.21090862e-02 -2.53321566e-02 3.66009958e-02 1.84182660e-03</_>
    <_>
      8.09125304e-02 -3.38542089e-02 -6.28045350e-02 -2.09056605e-02
      3.40419007e-03 -3.20438892e-02 -3.96282449e-02 -1.32522192e-02
      -3.99641208e-02 1.35702593e-02 1.92267857e-02 -9.05827619e-03
      -3.03206779e-03 -5.75584471e-02 5.05991913e-02 5.32121547e-02
      -8.17817301e-02 -3.62167768e-02 -4.25684899e-02 2.21352447e-02
      -5.91086186e-02 -1.63435228e-02 -6.33914247e-02 -7.75554702e-02
      -2.10970528e-02 9.19970199e-02 1.42514914e-01 2.90657505e-02
      -2.17570048e-02 -1.37123317e-01 1.29798744e-02 1.34075880e-02
      8.68715867e-02 -2.56182011e-02 3.49409617e-02 -2.77415593e-03</_>
    <_>
      2.23403666e-02 -2.06733227e-01 8.22510868e-02 1.98308509e-02
      -1.69156864e-02 -1.39610926e-02 -1.79781727e-02 3.35396966e-03
      -9.01076421e-02 -1.91894211e-02 2.89851576e-02 -1.06567889e-02
      2.28049653e-03 -3.52083519e-02 1.57392807e-02 9.51871648e-02
      -7.24051073e-02 -4.30033095e-02 -3.90041806e-02 1.45333009e-02
      -4.99249287e-02 1.65389944e-02 -7.52198324e-02 -6.04739487e-02
      -2.94152219e-02 7.84416795e-02 1.48278162e-01 2.06443407e-02
      -2.60104928e-02 -1.31316289e-01 -1.26963370e-02 -2.85418495e-03
      8.20914358e-02 -3.40145268e-02 2.70948317e-02 -1.39389010e-02</_>
    <_>
      6.50279045e-01 -1.30690411e-01 5.69499135e-02 1.00176923e-01
      3.47187892e-02 3.72940712e-02 1.79088209e-03 5.35834916e-02
      -4.39785011e-02 4.72858250e-02 -2.64937151e-02 -2.06313264e-02
      -1.72458012e-02 -5.13698421e-02 3.46396193e-02 2.11696085e-02
      -8.11570212e-02 -2.59438511e-02 -2.95936130e-02 4.17617857e-02
      -7.04508871e-02 -2.08028965e-03 -5.42675704e-02 -7.84532651e-02
      -4.06355560e-02 9.23906118e-02 1.48071513e-01 2.12251935e-02
      -1.37461750e-02 -1.25405028e-01 -4.09909151e-03 7.30642816e-03
      8.27992484e-02 -3.71421166e-02 3.65779400e-02 5.29019395e-03</_>
    <_>
      -5.55153936e-02 -2.00647544e-02 3.85300696e-01 1.29195943e-01
      -2.79030986e-02 1.27490193e-01 2.04919070e-01 -1.50371194e-02
      5.42524531e-02 -1.57764539e-01 5.78474179e-02 1.14676654e-01
      -1.14647098e-01 -7.82014430e-02 5.40241301e-02 6.01305217e-02
      -6.83788136e-02 1.96949225e-02 -5.26367128e-02 2.29020864e-02
      -7.57897943e-02 -3.96989140e-04 -4.37602699e-02 -1.00859061e-01
      -3.37424763e-02 8.60741585e-02 1.48215562e-01 1.89232230e-02
      -2.11064070e-02 -1.36380091e-01 -1.56956501e-02 1.61727350e-02
      8.76303986e-02 -3.46568003e-02 4.03244421e-02 8.19180161e-03</_>
    <_>
      -6.20760880e-02 -2.86473870e-01 9.07343999e-02 7.86018372e-02
      3.97297693e-03 -2.38106363e-02 -1.99481156e-02 -2.64668725e-02
      -7.85766467e-02 -5.51634803e-02 -6.27304092e-02 -5.38363531e-02
      -4.88574803e-02 -4.93498817e-02 6.75345734e-02 1.47951907e-02
      -1.29995719e-01 -5.82570732e-02 -4.54344749e-02 1.25528499e-03
      -3.15480977e-02 -1.46629578e-02 -3.04277409e-02 -8.14381093e-02
      -1.38591463e-02 9.71544757e-02 1.49972305e-01 1.99280083e-02
      -2.25605294e-02 -1.38076156e-01 -1.90733769e-03 -9.99727659e-03
      8.41604993e-02 -2.68306453e-02 5.90223745e-02 4.47343569e-03</_>
    <_>
      5.35498187e-02 -5.57613857e-02 -5.60910553e-02 -7.24036992e-03
      -8.00026953e-03 -1.53092993e-02 -4.20832671e-02 -4.29637767e-02
      -6.39122352e-02 -5.92435431e-03 3.85920145e-03 4.98012966e-03
      1.58432336e-03 -6.18579574e-02 4.55074646e-02 4.73728441e-02
      -9.00678784e-02 -3.79536338e-02 -3.40695009e-02 7.73674995e-03
      -6.45985454e-02 -1.48807652e-02 -6.70412779e-02 -7.75010660e-02
      -2.27420684e-02 9.28110406e-02 1.55349270e-01 3.75405699e-02
      -4.72879829e-03 -1.28832698e-01 -2.17356742e-03 5.53877978e-03
      9.69563946e-02 -2.65678260e-02 3.80419865e-02 2.11120606e-03</_>
    <_>
      -7.01455623e-02 -2.80567378e-01 7.22641796e-02 8.20691735e-02
      -1.89327803e-02 1.36003494e-02 -2.42368039e-02 -5.05281650e-02
      -9.96600911e-02 -1.11809811e-02 -6.91351388e-03 1.76460389e-02
      1.14009725e-02 -2.27974951e-02 4.60675433e-02 3.88758481e-02
      -8.26584324e-02 -4.17900458e-02 -4.45306934e-02 1.68949999e-02
      -6.01497777e-02 -2.11770646e-02 -4.48919013e-02 -9.11200717e-02
      -1.18306978e-02 8.21229890e-02 1.35884658e-01 1.79864038e-02
      -1.57359298e-02 -1.33966163e-01 -1.50607377e-02 4.26523201e-03
      9.35095996e-02 -2.57566385e-02 4.02348824e-02 -1.15671130e-02</_>
    <_>
      -3.12665701e-02 -2.00472623e-01 5.20582758e-02 2.73669027e-02
      -1.78488828e-02 -2.55080331e-02 -3.42816189e-02 6.95133209e-03
      -3.20598669e-02 8.96965060e-03 4.46713157e-02 -2.92863920e-02
      -1.17481584e-02 -5.17305136e-02 2.62578391e-02 5.91338128e-02
      -7.20520318e-02 -4.39656861e-02 -5.19948266e-02 2.32415535e-02
      -3.59362103e-02 7.80948484e-03 -4.31483313e-02 -7.38644153e-02
      -1.92975588e-02 8.25121999e-02 1.47911385e-01 2.90738028e-02
      -1.85856987e-02 -1.29837275e-01 -2.04117154e-03 4.29484202e-03
      8.92879367e-02 -3.53186168e-02 3.88021134e-02 -7.71847367e-03</_>
    <_>
      9.90217447e-01 -1.81189373e-01 1.10677861e-01 -1.86579805e-02
      8.64902064e-02 7.93828815e-02 -1.10639766e-01 -4.38598357e-02
      -3.60755920e-02 -4.08522375e-02 2.86699757e-02 -3.02004404e-02
      -1.09316604e-02 -5.13594225e-02 5.10217175e-02 2.89433934e-02
      -7.49308541e-02 -4.19525541e-02 -3.62261645e-02 2.46272795e-02
      -5.71627468e-02 6.81491336e-03 -5.80704100e-02 -7.46028945e-02
      -2.47146189e-02 8.43911842e-02 1.42273515e-01 3.12519260e-02
      -1.85028296e-02 -1.32008702e-01 -2.65354966e-03 2.04312755e-03
      9.14128199e-02 -3.43800224e-02 4.08304557e-02 -3.05928662e-03</_>
    <_>
      1.43453026e+00 -1.23120017e-01 7.86541551e-02 1.62022457e-01
      6.57637417e-02 1.07819438e-02 2.05213740e-03 -7.10985623e-03
      -5.42949289e-02 -2.06583850e-02 -2.73692724e-03 -2.43072473e-02
      -4.33901884e-03 -3.93955149e-02 4.28567566e-02 3.92606556e-02
      -8.14073086e-02 -4.46016863e-02 -2.32485030e-02 3.68237980e-02
      -6.22296594e-02 -5.22264978e-03 -5.25395274e-02 -8.17542970e-02
      -2.82643475e-02 8.23432356e-02 1.37340307e-01 3.23863626e-02
      -2.07751952e-02 -1.26804739e-01 -2.41577672e-03 3.99033120e-03
      8.37058127e-02 -3.53891887e-02 4.04135212e-02 -5.72880846e-04</_>
    <_>
      -6.65352196e-02 -4.65667993e-02 2.39059284e-01 1.03214093e-01
      1.50630772e-02 -9.98635590e-02 -4.76442948e-02 -2.32841279e-02
      -3.27486987e-03 3.18157561e-02 -7.34134763e-02 -1.79882005e-01
      1.26484141e-01 -5.33419624e-02 8.14390779e-02 4.18735147e-02
      -6.26574904e-02 -4.17755283e-02 -2.95861661e-02 -5.35140885e-03
      -5.45969643e-02 -8.75432044e-03 -4.20929864e-02 -7.47158602e-02
      -1.81257371e-02 8.56389031e-02 1.51590332e-01 2.09493116e-02
      -1.84506867e-02 -1.40424371e-01 -7.04681501e-03 9.78324004e-03
      8.94676745e-02 -2.47002672e-02 4.35055681e-02 -5.60433324e-03</_>
    <_>
      -4.12544273e-02 -1.86648771e-01 -2.48322496e-03 4.57673818e-02
      2.48763580e-02 1.12013600e-03 -3.83464545e-02 -5.57590015e-02
      -8.08693022e-02 -2.17968132e-03 -3.88816893e-02 5.26490994e-03
      -1.44102639e-02 -1.99594498e-02 4.97555919e-02 2.88324971e-02
      -7.61654526e-02 -6.45641983e-02 -3.78804989e-02 2.16362923e-02
      -5.88969886e-02 8.92383419e-03 -6.04730919e-02 -7.31914565e-02
      -2.52756551e-02 8.86152387e-02 1.43021673e-01 3.30030024e-02
      -2.53141504e-02 -1.55769005e-01 -1.85502153e-02 4.45544673e-03
      8.41410533e-02 -3.48915346e-02 4.81842011e-02 2.71896622e-03</_>
    <_>
      1.39593974e-01 4.40666825e-02 -8.53519663e-02 -5.13360575e-02
      -2.19588610e-03 -1.81465074e-02 -4.47363555e-02 -2.35807970e-02
      -5.46518639e-02 -8.78585503e-03 -3.76215507e-03 -5.80446236e-03
      -2.23109517e-02 -5.73105142e-02 4.30492312e-02 2.58513335e-02
      -6.13533705e-02 -3.12012695e-02 -4.23730686e-02 2.37263627e-02
      -6.99368268e-02 -1.58253487e-03 -4.24314886e-02 -5.77295385e-02
      -1.83421206e-02 7.75231719e-02 1.47997767e-01 1.81977376e-02
      -1.46653894e-02 -1.30575299e-01 4.92851902e-03 4.07063775e-03
      8.86215791e-02 -3.03007942e-02 3.38766687e-02 1.22345157e-03</_>
    <_>
      -1.24888886e-02 -1.37283042e-01 4.59744185e-02 1.86471120e-02
      -3.58127095e-02 -9.61272232e-03 -3.73718003e-03 2.87642963e-02
      -5.89605980e-02 1.65307373e-02 6.28923401e-02 -4.31019813e-02
      -6.81382418e-03 -3.51410136e-02 1.37949297e-02 5.88557310e-02
      -4.64446470e-02 -1.74391139e-02 -5.98505922e-02 2.38789394e-02
      -5.30188791e-02 -2.59999442e-03 -4.51580882e-02 -7.73603618e-02
      -2.15582065e-02 8.72661620e-02 1.51345357e-01 3.38416398e-02
      -2.42513139e-02 -1.25693813e-01 1.31136011e-02 9.48022585e-03
      9.64971408e-02 -3.11963893e-02 5.09350970e-02 6.20717602e-03</_>
    <_>
      1.30253285e-01 -4.53799814e-02 -8.96511674e-02 4.58612554e-02
      1.25835685e-03 -2.77318042e-02 -4.71125804e-02 -2.79065259e-02
      -2.76728682e-02 1.04767885e-02 1.53307943e-02 -1.73906069e-02
      -1.21551268e-02 -7.43879527e-02 4.13329676e-02 4.22884896e-02
      -8.34207386e-02 -3.52076180e-02 -3.40802595e-02 2.21200921e-02
      -5.99117689e-02 7.33079156e-04 -6.06664084e-02 -7.48465434e-02
      -1.43256672e-02 8.62093568e-02 1.42157644e-01 3.92957777e-02
      -1.80910993e-02 -1.34760126e-01 -3.09236301e-03 6.17656158e-03
      9.09600034e-02 -3.44965756e-02 3.22479755e-02 -3.68048344e-03</_>
    <_>
      -3.39957215e-02 -1.86419874e-01 6.67795539e-02 7.02764243e-02
      -4.38266248e-03 -1.95289925e-02 3.10739013e-03 -4.20500401e-05
      -6.06098846e-02 7.79230671e-04 -3.49954516e-02 -5.86131848e-02
      -3.11903432e-02 -1.26006240e-02 3.32511775e-02 6.21524639e-02
      -3.08783371e-02 -3.80892865e-02 -3.34436782e-02 1.59269087e-02
      -6.08139075e-02 8.37012939e-03 -4.14225794e-02 -9.10714865e-02
      -2.68462393e-02 8.70111436e-02 1.36157855e-01 2.20937058e-02
      -3.02149579e-02 -1.28680408e-01 1.26230326e-02 6.85761636e-03
      1.01740815e-01 -4.77383062e-02 3.28089707e-02 -3.07140755e-03</_>
    <_>
      -2.37784907e-03 -1.65076151e-01 4.35545444e-02 3.83888222e-02
      -2.47889366e-02 3.45654972e-02 -1.15737356e-02 1.24189456e-03
      -8.23014453e-02 5.43281287e-02 -1.73077406e-03 3.43704247e-03
      4.03850805e-03 -6.77196905e-02 2.49945950e-02 6.43251166e-02
      -5.64089566e-02 6.11712225e-03 -5.11743091e-02 6.02495717e-03
      -3.37843150e-02 -1.55439395e-02 -4.42679077e-02 -8.21781084e-02
      -2.23895404e-02 7.76703060e-02 1.62605286e-01 3.73649709e-02
      -6.44507166e-03 -1.29579425e-01 -9.10696108e-03 2.38497090e-02
      8.19449052e-02 -2.79946439e-02 5.17643355e-02 -6.18101656e-03</_>
    <_>
      3.80581804e-02 1.40631661e-01 2.93179184e-01 5.96856512e-02
      -7.38942018e-03 1.18813120e-01 1.47556037e-01 2.49786377e-02
      1.15825489e-01 -8.42238814e-02 -1.52546642e-02 9.48067158e-02
      -6.72183558e-02 -5.05591519e-02 2.02028193e-02 6.80995658e-02
      -8.89026001e-02 -6.78176666e-03 -6.10280149e-02 -2.06438880e-02
      -8.85425135e-02 3.81792523e-03 -5.16627841e-02 -5.60442768e-02
      -2.14831680e-02 8.55958238e-02 1.18192069e-01 3.72284055e-02
      -2.47046202e-02 -1.45790502e-01 -1.20745385e-02 -5.88149624e-03
      8.82641226e-02 -3.34044872e-03 4.21468429e-02 7.92348292e-03</_>
    <_>
      -2.55318992e-02 -1.41199738e-01 3.09670288e-02 4.92120115e-03
      1.67391375e-02 -5.01890294e-02 -5.73282465e-02 2.93267183e-02
      -1.61142293e-02 2.08376832e-02 -3.08611318e-02 -5.63183287e-03
      -2.47211531e-02 -3.96879166e-02 4.72246446e-02 4.45283242e-02
      -4.57492098e-02 -3.14239636e-02 -3.72406072e-03 -3.69377155e-03
      -9.12750587e-02 -1.35495812e-02 -4.04721238e-02 -7.22987130e-02
      -2.71857344e-02 8.31646398e-02 1.60819575e-01 1.57532580e-02
      -1.76291596e-02 -1.35053039e-01 2.88139074e-03 9.96467844e-03
      8.92370343e-02 -4.40316871e-02 3.43654379e-02 -4.47621848e-03</_>
    <_>
      9.01756763e-01 -8.90548602e-02 -1.37712017e-01 4.08657849e-01
      -1.24549262e-01 1.65233463e-01 -2.60772735e-01 2.48446036e-02
      1.31262997e-02 -6.68481365e-02 -3.15883458e-02 -6.08261749e-02
      -2.28906721e-02 -3.47705856e-02 3.76939178e-02 5.15784249e-02
      -8.06112289e-02 -1.15196500e-02 -2.95177996e-02 2.17337925e-02
      -6.75541013e-02 -8.29874829e-04 -6.87363967e-02 -9.04204473e-02
      -1.89098641e-02 7.89008439e-02 1.40887767e-01 4.27062623e-02
      -1.55795049e-02 -1.36394978e-01 -9.61741246e-03 3.85131198e-03
      8.85128081e-02 -3.92759219e-02 4.24828567e-02 -1.06322030e-02</_>
    <_>
      -2.45578643e-02 -2.49594092e-01 8.72574896e-02 6.69183657e-02
      -4.55303788e-02 5.02080657e-02 2.24734806e-02 1.42547237e-02
      -9.20167491e-02 1.84876360e-02 4.33062613e-02 -2.08267868e-02
      -7.20308046e-04 -4.98262644e-02 3.76570262e-02 5.01921065e-02
      -3.74278761e-02 -2.42965128e-02 -4.65228558e-02 3.21530327e-02
      -6.23746924e-02 -2.17464590e-03 -4.01652791e-02 -8.20460171e-02
      -2.93990374e-02 8.91786292e-02 1.52571648e-01 4.25529703e-02
      -2.58873031e-02 -1.32810950e-01 -9.29664262e-03 6.27632253e-03
      8.61584395e-02 -3.15182433e-02 4.80779894e-02 -1.57703962e-02</_>
    <_>
      8.80370215e-02 2.26387242e-03 -9.22740027e-02 -2.73476075e-02
      1.17607918e-02 -2.02216748e-02 -3.41158956e-02 -3.54428403e-02
      -5.46202362e-02 9.46232956e-03 -1.04911171e-03 -8.49315431e-04
      -6.50282437e-03 -6.80306330e-02 5.19802719e-02 5.21036796e-02
      -6.96693137e-02 -4.42857370e-02 -3.22945900e-02 2.05921121e-02
      -5.80428429e-02 -4.22900403e-03 -4.64788675e-02 -8.22155029e-02
      -2.48713661e-02 9.19192806e-02 1.41233712e-01 3.08815818e-02
      -2.82352287e-02 -1.28551170e-01 2.41997186e-04 6.69958815e-03
      9.89554599e-02 -3.24435383e-02 3.24477628e-02 -2.49005645e-03</_>
    <_>
      3.53272185e-02 -9.28506255e-02 -2.92964466e-02 -3.82755388e-04
      -2.07300410e-02 -2.45328844e-02 -5.28508909e-02 -1.78647805e-02
      -4.81740348e-02 2.80955248e-03 1.45501941e-02 1.28244506e-02
      7.03128753e-03 -3.89494784e-02 3.34857516e-02 3.15935016e-02
      -8.68374035e-02 -3.25775072e-02 -3.13695408e-02 1.42718647e-02
      -6.55576661e-02 -1.29924957e-02 -5.17375283e-02 -6.60610348e-02
      -2.89847348e-02 7.74564892e-02 1.48056388e-01 1.19347302e-02
      -2.13043578e-02 -1.30580828e-01 3.72242834e-03 6.23491127e-03
      9.57851782e-02 -2.15096287e-02 3.97710241e-02 -9.24923085e-03</_>
    <_>
      8.80370215e-02 2.26387242e-03 -9.22740027e-02 -2.73476075e-02
      1.17607918e-02 -2.02216748e-02 -3.41158956e-02 -3.54428403e-02
      -5.46202362e-02 9.46232956e-03 -1.04911171e-03 -8.49315431e-04
      -6.50282437e-03 -6.80306330e-02 5.19802719e-02 5.21036796e-02
      -6.96693137e-02 -4.42857370e-02 -3.22945900e-02 2.05921121e-02
      -5.80428429e-02 -4.22900403e-03 -4.64788675e-02 -8.22155029e-02
      -2.48713661e-02 9.19192806e-02 1.41233712e-01 3.08815818e-02
      -2.82352287e-02 -1.28551170e-01 2.41997186e-04 6.69958815e-03
      9.89554599e-02 -3.24435383e-02 3.24477628e-02 -2.49005645e-03</_>
    <_>
      -5.67332841e-03 -1.84043199e-01 1.59908365e-02 7.33511895e-02
      -2.45429985e-02 -3.83497030e-02 -5.06531121e-03 -2.86704712e-02
      -6.01242483e-02 -2.84965467e-02 3.41314301e-02 -3.24126780e-02
      -1.80096310e-02 -3.84032764e-02 3.42344977e-02 3.88277024e-02
      -7.33911842e-02 -5.41377142e-02 -3.09377816e-02 1.02570243e-02
      -5.95388450e-02 -9.01298691e-03 -6.13517165e-02 -5.81734888e-02
      -3.20555978e-02 8.26713964e-02 1.53615132e-01 4.09889445e-02
      -1.72309652e-02 -1.35099664e-01 -1.69126838e-02 1.62542760e-02
      9.51357335e-02 -3.69395949e-02 3.80976684e-02 -6.88348478e-03</_>
    <_>
      1.93954911e-02 -1.00989334e-01 -1.61140878e-02 1.53016532e-02
      8.49068351e-03 -4.02310491e-02 -3.06115132e-02 -2.56597009e-02
      -5.15983663e-02 -3.04245800e-02 9.79823805e-03 -2.87252590e-02
      -1.95113868e-02 -4.09515984e-02 1.07475305e-02 2.60926988e-02
      -6.63429573e-02 -3.01157515e-02 -3.72498110e-02 2.24877317e-02
      -7.05515221e-02 5.26623987e-03 -5.21638095e-02 -5.41038364e-02
      -1.92496274e-02 8.71779844e-02 1.47377059e-01 1.83855724e-02
      -1.56440660e-02 -1.18062004e-01 -6.38829265e-03 8.91824160e-03
      9.26273093e-02 -2.86391973e-02 3.64904441e-02 -1.29548209e-02</_>
    <_>
      -7.38277566e-03 -1.44805968e-01 1.20991459e-02 6.57182327e-03
      -3.60380523e-02 -2.65434254e-02 -2.40114648e-02 -8.81066298e-05
      -4.76716459e-02 -1.82812642e-02 9.39469859e-02 -1.70629136e-02
      1.12420246e-02 -4.83340211e-02 3.78452651e-02 4.21752296e-02
      -8.23759809e-02 -2.76345536e-02 -2.34668273e-02 2.71761175e-02
      -6.22445419e-02 -4.67487890e-03 -6.62717298e-02 -7.34889209e-02
      -2.81170327e-02 8.57492611e-02 1.48324922e-01 3.14287953e-02
      -1.20765101e-02 -1.35115340e-01 -1.25281941e-02 1.86207499e-02
      8.74319971e-02 -3.37726064e-02 3.74043770e-02 -4.16515768e-03</_>
    <_>
      4.23883796e-01 -1.55775413e-01 -6.63259774e-02 3.19652528e-01
      2.99789965e-01 1.13458931e-01 -1.88351870e-01 -3.77460606e-02
      -2.62245303e-03 -3.87452692e-02 7.61791319e-02 5.43109793e-03
      3.17295790e-02 -4.75186333e-02 2.58058012e-02 2.11926680e-02
      -6.58281222e-02 -2.32423358e-02 -3.21030244e-02 2.64357124e-02
      -6.17435277e-02 1.22966534e-02 -5.21572903e-02 -7.65063465e-02
      -2.75396556e-02 9.46446955e-02 1.50337428e-01 2.56079100e-02
      -2.67851762e-02 -1.30536601e-01 -7.95513298e-03 -1.93280331e-03
      9.09952596e-02 -4.18396741e-02 4.78525795e-02 -2.75438558e-03</_>
    <_>
      8.30575898e-02 7.34337652e-03 -9.58330333e-02 -2.65663844e-02
      8.02052300e-03 -1.97923109e-02 -3.42935771e-02 -2.58405190e-02
      -4.61049378e-02 2.06193477e-02 6.83270767e-03 -3.18181468e-04
      -6.02149777e-03 -6.43692538e-02 5.75178526e-02 5.53487130e-02
      -7.39088133e-02 -5.10482751e-02 -3.54302153e-02 2.12986618e-02
      -6.11907244e-02 -4.74327768e-04 -4.51668948e-02 -8.11587200e-02
      -2.48167571e-02 8.51158947e-02 1.44651502e-01 2.60089673e-02
      -2.43940260e-02 -1.31657138e-01 -1.41297386e-03 9.79644246e-03
      9.75695103e-02 -3.20702493e-02 3.35706174e-02 -4.23524668e-03</_>
    <_>
      3.29761729e-02 -5.64571396e-02 -2.23681331e-02 -2.01215949e-02
      -3.45105790e-02 -3.39550041e-02 -3.57988849e-02 -3.30434181e-03
      -3.47463749e-02 -1.08673209e-02 6.86319396e-02 -1.13249589e-02
      -2.13638376e-02 -2.62866355e-02 3.11695915e-02 3.04976553e-02
      -5.47063537e-02 -3.89116034e-02 -4.80278879e-02 1.83777753e-02
      -5.16426302e-02 -1.83348060e-02 -6.00712225e-02 -4.96823788e-02
      -3.13188881e-02 9.08796117e-02 1.55381367e-01 -8.09564663e-04
      -1.64354555e-02 -1.43499598e-01 -1.64536983e-02 1.36481486e-02
      9.90894660e-02 -4.22421321e-02 3.28024104e-02 3.26845213e-03</_>
    <_>
      1.03881991e+00 -1.51940882e-01 1.25386715e-01 -1.50586292e-01
      7.77425766e-02 4.77611944e-02 -5.00840619e-02 -8.97554308e-02
      -7.25844875e-02 -3.34401242e-02 2.03284081e-02 -3.46518084e-02
      -9.46241897e-03 -5.98367006e-02 3.90866213e-02 3.31462882e-02
      -6.70169443e-02 -4.27849665e-02 -4.02589478e-02 2.18135286e-02
      -5.74030168e-02 7.35745300e-03 -5.86538687e-02 -7.28000477e-02
      -1.44377807e-02 8.48375335e-02 1.48694307e-01 2.36727949e-02
      -1.66908614e-02 -1.26106516e-01 -7.85895158e-03 5.08075068e-03
      9.19367149e-02 -3.26067768e-02 4.80942354e-02 -3.47861880e-03</_>
    <_>
      -3.78054716e-02 -1.93019465e-01 1.12188850e-02 6.10862784e-02
      3.37029211e-02 -3.92105207e-02 -4.59577255e-02 -4.61063161e-02
      -5.85054420e-02 -2.49436516e-02 -7.04016760e-02 -1.53696807e-02
      -2.22098511e-02 -6.09105602e-02 3.27524878e-02 5.45056090e-02
      -6.97639287e-02 -4.15507779e-02 -4.99291196e-02 4.44887541e-02
      -7.72687495e-02 6.09852606e-03 -3.08153238e-02 -6.73054159e-02
      -2.31913701e-02 8.40389952e-02 1.50799304e-01 4.02868688e-02
      -2.68824231e-02 -1.22294582e-01 -2.87186867e-03 3.05092032e-03
      9.37086493e-02 -3.62417474e-02 4.66025397e-02 -1.08455652e-02</_>
    <_>
      7.49739930e-02 -2.87305210e-02 -6.50417134e-02 -2.34474186e-02
      -2.13445514e-03 -2.92186551e-02 -3.59399617e-02 -1.58230755e-02
      -4.49941382e-02 1.37128606e-02 2.07452700e-02 -1.30282659e-02
      -7.04248436e-04 -5.33772632e-02 3.95756923e-02 5.35438210e-02
      -8.54788870e-02 -4.63499464e-02 -4.11032774e-02 2.06458177e-02
      -5.79965040e-02 -2.19957926e-03 -6.83813244e-02 -8.45031664e-02
      -2.39812117e-02 9.20798406e-02 1.46315277e-01 3.53076272e-02
      -1.87648088e-02 -1.36581883e-01 1.50113017e-03 9.16577596e-03
      9.05448273e-02 -2.96018831e-02 4.23262715e-02 -7.01968279e-03</_>
    <_>
      2.22338997e-02 -2.10882798e-01 8.68452862e-02 3.53797637e-02
      -1.95996612e-02 -2.74880556e-03 -6.24033064e-03 -4.20663273e-05
      -9.42322612e-02 -1.32948058e-02 3.40448543e-02 -1.80843920e-02
      -5.81349013e-03 -3.91478390e-02 2.75612418e-02 1.00352407e-01
      -5.44635244e-02 -4.02442291e-02 -4.55014408e-02 1.46498587e-02
      -5.32289110e-02 1.03258733e-02 -6.11454360e-02 -5.16063944e-02
      -2.95953471e-02 7.97873065e-02 1.45117432e-01 2.43845079e-02
      -1.82201415e-02 -1.29836500e-01 -1.99349970e-03 -6.44747866e-03
      9.56082866e-02 -3.34498286e-02 3.45954411e-02 -8.49899743e-03</_>
    <_>
      4.58850712e-02 -1.09542869e-01 -4.73536327e-02 1.14154927e-02
      1.76619105e-02 -5.65759791e-03 -5.55419736e-02 -7.91600719e-02
      -7.58479089e-02 -2.58681942e-02 -5.55252023e-02 5.03809948e-04
      -1.38609959e-02 -6.62574470e-02 5.63800037e-02 4.63953651e-02
      -9.52868164e-02 -3.84000130e-02 -4.77607027e-02 3.31401005e-02
      -7.18554705e-02 3.79876094e-03 -4.71751764e-02 -4.13054191e-02
      -1.49828857e-02 9.79588926e-02 1.51393712e-01 4.31565493e-02
      -1.89076047e-02 -1.28205493e-01 -1.20852385e-02 2.03416329e-02
      8.78443420e-02 -3.20106000e-02 4.93033938e-02 1.11776237e-04</_>
    <_>
      2.36074459e-02 2.44761869e-01 3.04848194e-01 9.68883336e-02
      -3.62886302e-02 -6.09611114e-03 -4.31901179e-02 -1.15805995e-02
      -4.86780666e-02 2.64319014e-02 -1.91624518e-02 -5.17266989e-02
      6.16099462e-02 -6.31052628e-03 5.07926270e-02 5.14567383e-02
      -5.61197735e-02 -2.03283988e-02 -6.45252317e-02 3.30947433e-03
      -5.48530258e-02 -1.44507727e-02 -4.47840616e-02 -2.50869282e-02
      -3.33939195e-02 7.08367452e-02 1.47587776e-01 5.40788881e-02
      -9.15068295e-03 -1.29299164e-01 -4.95989714e-03 4.81374515e-03
      9.25801247e-02 -5.68165490e-03 3.21150050e-02 1.62315182e-02</_>
    <_>
      1.11632323e+00 -1.30383775e-01 -1.77403707e-02 1.92086264e-01
      -6.68259487e-02 -1.96379557e-01 9.15419683e-02 -1.30641013e-02
      -1.09639622e-01 -1.02106649e-02 2.75144889e-03 3.48521471e-02
      7.45706167e-03 -5.12079559e-02 5.86567484e-02 2.21630260e-02
      -7.09293410e-02 -4.31891531e-02 -3.84671800e-02 1.15895225e-02
      -5.91283739e-02 -5.86524140e-03 -3.73990461e-02 -6.84388503e-02
      -2.35450100e-02 9.24132988e-02 1.41971931e-01 2.59355512e-02
      -2.64418945e-02 -1.37966976e-01 -3.76724591e-03 1.07265753e-03
      8.96548033e-02 -3.43414843e-02 4.04319651e-02 -8.57575610e-03</_>
    <_>
      -4.14786749e-02 -2.05927491e-01 5.88046126e-02 3.36883925e-02
      -1.21352496e-02 -2.74899658e-02 -3.86679880e-02 1.05053037e-02
      -3.59616429e-02 8.85273609e-03 2.76501123e-02 -1.89848468e-02
      -9.98377614e-03 -5.27263358e-02 2.04954520e-02 5.80877773e-02
      -7.40144625e-02 -4.71568853e-02 -4.48288023e-02 1.87160484e-02
      -4.91468385e-02 1.39045622e-03 -5.25179468e-02 -6.38940558e-02
      -2.40909774e-02 8.23465139e-02 1.55255541e-01 3.14070135e-02
      -1.95332635e-02 -1.27952963e-01 2.83709611e-03 2.16015265e-03
      9.08757672e-02 -2.51327716e-02 4.21684571e-02 -8.29199702e-03</_>
    <_>
      1.63353488e-01 -3.71224135e-02 2.81478502e-02 -2.65036412e-02
      -7.09413290e-02 3.35427187e-02 -1.00590840e-01 8.01554974e-03
      -4.26975712e-02 2.35366244e-02 3.76938842e-03 -3.55095440e-03
      -4.22469862e-02 -4.48895767e-02 4.92053553e-02 6.86508864e-02
      -4.57676835e-02 -2.22295243e-02 -2.95534246e-02 9.29313526e-03
      -3.15102674e-02 4.53727460e-03 8.82470701e-03 -4.77847494e-02
      -3.60484049e-02 5.52325435e-02 1.08362444e-01 1.41061042e-02
      9.58410185e-03 -1.23468600e-01 -9.51213390e-03 5.11333793e-02
      1.20922357e-01 -3.28961983e-02 5.18909246e-02 -1.57725357e-03</_>
    <_>
      -6.37072185e-03 -1.44292191e-01 -1.91145949e-02 3.99117768e-02
      9.92233586e-03 -2.45695212e-03 -1.61496717e-02 -6.70393929e-02
      -6.11853264e-02 1.30372532e-02 -1.97849721e-02 -2.41080346e-03
      -1.18275816e-02 -2.97416281e-02 3.28872241e-02 2.82120332e-02
      -6.75610453e-02 -3.95843051e-02 -5.71171343e-02 1.29881389e-02
      -4.64307033e-02 -7.14188302e-03 -6.13389835e-02 -6.11669309e-02
      -2.33724955e-02 8.46043676e-02 1.57425389e-01 4.03624512e-02
      -1.52929779e-02 -1.35305181e-01 -8.17256980e-03 1.99293494e-02
      7.82807618e-02 -3.30456980e-02 2.94680614e-02 -2.59775016e-03</_>
    <_>
      7.30836242e-02 -4.10009995e-02 -1.95733551e-02 -5.51688895e-02
      1.24145742e-03 -3.54594328e-02 -9.57964510e-02 3.43736038e-02
      -1.76467150e-02 -1.77726056e-02 2.44337060e-02 8.97057913e-03
      -4.75274026e-03 -3.37824002e-02 6.81700930e-02 3.94867323e-02
      -7.73504004e-02 -3.35168801e-02 -5.19414619e-02 3.26145776e-02
      -4.55227196e-02 -7.41802529e-03 -3.69122587e-02 -8.32611620e-02
      -4.86480743e-02 8.66624787e-02 1.47973046e-01 3.25481892e-02
      -2.64265854e-02 -1.29007772e-01 5.84170572e-04 1.14081213e-02
      8.43697712e-02 -3.76955383e-02 4.03427891e-02 -1.33531296e-03</_>
    <_>
      -6.31666705e-02 -2.36778334e-01 2.40640342e-02 9.75801945e-02
      -1.56194912e-02 1.15587534e-02 1.14858765e-02 -8.84242356e-02
      -1.12917453e-01 -5.44595532e-02 4.02651131e-02 -1.75350588e-02
      -3.30501283e-03 -3.24456953e-03 6.36962280e-02 2.53212489e-02
      -6.34327084e-02 -3.36914957e-02 -4.38918993e-02 1.69078410e-02
      -5.03142066e-02 -7.65591278e-04 -5.71962148e-02 -6.00790419e-02
      -3.35163660e-02 1.00617185e-01 1.50117680e-01 3.75824831e-02
      -1.07159102e-02 -1.31932378e-01 -1.11940242e-02 2.39249459e-03
      7.82924891e-02 -2.82422677e-02 3.86347584e-02 -8.61691032e-03</_>
    <_>
      3.63306254e-01 -1.76731467e-01 2.02561259e-01 -2.30237097e-01
      1.47228643e-01 -9.66903195e-02 6.62018731e-02 -1.92040554e-03
      -1.20770231e-01 -9.18561127e-03 1.67827550e-02 -1.04587162e-02
      1.34267025e-02 -6.74028024e-02 1.15786940e-02 6.09541833e-02
      -7.46304989e-02 -2.13496871e-02 -2.85963416e-02 3.11848242e-02
      -5.77058084e-02 1.73748173e-02 -5.55231981e-02 -8.16923454e-02
      -3.78675498e-02 8.84036645e-02 1.40653446e-01 2.62232348e-02
      -1.31086390e-02 -1.30241275e-01 1.60114816e-03 1.51757058e-02
      8.13472345e-02 -2.72119492e-02 4.71099280e-02 3.29816132e-03</_>
    <_>
      2.27969466e-03 -1.27062663e-01 1.08283469e-02 6.00832608e-03
      -8.69091414e-03 -2.49052905e-02 -6.38011992e-02 -1.47719700e-02
      -5.10224886e-02 -8.36325437e-03 2.44496129e-02 1.32231740e-02
      3.24936328e-03 -4.99632843e-02 5.08459918e-02 4.05640900e-02
      -6.30657077e-02 -2.45801173e-02 -4.43869680e-02 3.12523656e-02
      -5.10111898e-02 -5.04605751e-03 -5.16983718e-02 -7.27300793e-02
      -3.97651903e-02 9.09393132e-02 1.50409341e-01 2.38057803e-02
      -2.00443640e-02 -1.31477967e-01 -2.54074461e-03 8.92463513e-03
      9.75764394e-02 -3.16167809e-02 4.31531146e-02 -5.93980867e-03</_>
    <_>
      3.67370737e-03 -1.55877993e-01 4.56880406e-02 2.84127109e-02
      -1.79869402e-03 1.61198881e-02 -1.23829953e-02 3.12140165e-03
      -8.08071494e-02 4.76087183e-02 5.00629947e-04 -6.93167653e-03
      3.75879300e-03 -6.75433427e-02 1.70965418e-02 6.77698851e-02
      -6.96179792e-02 5.97606879e-03 -5.69233261e-02 9.68159735e-03
      -3.90120558e-02 -2.46514324e-02 -3.86559702e-02 -7.63477460e-02
      -2.47746091e-02 7.93352202e-02 1.59149915e-01 3.55051644e-02
      -2.00810842e-02 -1.27272040e-01 -4.03503003e-03 1.91515293e-02
      8.93937498e-02 -3.41779925e-02 4.83410358e-02 -3.39769642e-03</_>
    <_>
      -3.24621573e-02 -1.88696116e-01 2.67010368e-02 3.93328220e-02
      -1.45325270e-02 -3.39189433e-02 -1.91325471e-02 -1.09884609e-02
      -5.03344350e-02 -6.21947600e-03 3.36498804e-02 -1.88079048e-02
      -1.30041689e-02 -4.04278934e-02 6.37680739e-02 4.10252064e-02
      -6.73362836e-02 -2.51139235e-02 -2.78165154e-02 3.06564793e-02
      -7.82473087e-02 3.55926016e-03 -6.04978018e-02 -7.59212449e-02
      -2.25416906e-02 8.51142332e-02 1.56761378e-01 2.69349888e-02
      -2.18579546e-02 -1.29502445e-01 -4.21058014e-03 1.01116374e-02
      8.49168375e-02 -2.95535028e-02 3.03979609e-02 -1.04841329e-02</_>
    <_>
      9.08039287e-02 -1.35452941e-01 5.99522032e-02 1.66773293e-02
      3.60237141e-06 -1.68808680e-02 -2.81318016e-02 3.48458327e-02
      -6.05503656e-02 2.10563932e-02 -3.85961379e-03 -2.63052192e-02
      8.77963845e-03 2.49368977e-03 3.08503304e-02 6.54520169e-02
      -8.38241577e-02 -3.43316011e-02 -5.93236573e-02 3.02226394e-02
      -4.96502444e-02 1.45405168e-02 -4.43360917e-02 -6.54126182e-02
      -2.99658682e-02 9.93385315e-02 1.45789012e-01 3.31692435e-02
      -1.79943591e-02 -1.26396969e-01 -1.85170490e-02 8.67104158e-03
      9.69156697e-02 -3.16452831e-02 3.35838385e-02 -4.40390827e-03</_>
    <_>
      8.37806910e-02 4.16428549e-03 -9.58090723e-02 -1.79631244e-02
      1.14091784e-02 -2.14297306e-02 -3.38219702e-02 -2.59171445e-02
      -5.20954281e-02 1.29485093e-02 -6.01732312e-03 2.45334290e-04
      -2.91907025e-04 -6.16374947e-02 6.12840690e-02 5.14867529e-02
      -7.10836947e-02 -4.39591557e-02 -4.19199467e-02 2.01286450e-02
      -5.51516563e-02 4.61497251e-03 -4.54428345e-02 -7.67534524e-02
      -2.12911125e-02 8.87330398e-02 1.50645435e-01 3.17252576e-02
      -2.19292231e-02 -1.25176936e-01 -2.16785399e-03 1.60340797e-02
      8.79151672e-02 -2.88711600e-02 3.83944400e-02 -2.45165633e-04</_>
    <_>
      -1.71762258e-02 -1.72322169e-01 1.39480298e-02 6.44091368e-02
      -9.34722647e-03 1.62162166e-02 -1.25807207e-02 -8.83607641e-02
      -1.04829364e-01 -2.49744840e-02 6.56363741e-03 2.14558654e-02
      1.06430175e-02 -2.68110298e-02 4.16472107e-02 4.19307575e-02
      -4.79680635e-02 -3.75761539e-02 -2.18776837e-02 4.21066303e-03
      -6.93738833e-02 1.62159977e-03 -4.41529639e-02 -3.60572562e-02
      -4.61831838e-02 8.91714543e-02 1.60004497e-01 3.36371362e-02
      -2.10481025e-02 -1.34697631e-01 -9.43118893e-03 4.86579351e-03
      9.00184959e-02 -3.10854800e-02 4.62926067e-02 -1.69433784e-02</_>
    <_>
      -1.74110785e-01 -5.57260931e-01 3.29107702e-01 1.78006083e-01
      -5.38482470e-03 6.09125476e-03 -4.15666290e-02 1.58854112e-01
      -1.89730242e-01 -1.34141028e-01 -7.47837797e-02 -1.13813709e-02
      2.97304075e-02 -1.77039951e-01 -6.47163540e-02 7.28846565e-02
      -2.77503673e-02 2.25256160e-02 2.20645964e-02 3.80080678e-02
      -1.51444629e-01 -1.74385794e-02 -6.40197322e-02 -5.66052981e-02
      -5.79176322e-02 1.40058547e-01 1.30575776e-01 3.60663161e-02
      5.73751330e-03 -1.43852249e-01 1.30708225e-03 -6.50898367e-03
      8.75943303e-02 -4.20555919e-02 4.01025005e-02 3.92375095e-03</_>
    <_>
      1.08321637e-01 1.64844505e-02 -8.32011104e-02 -5.15155382e-02
      5.06421784e-03 -3.62302475e-02 -5.25842644e-02 -1.31081659e-02
      -3.98166403e-02 -7.91887194e-03 3.07712574e-02 -8.46896030e-04
      -8.22386425e-03 -6.22359887e-02 6.02338202e-02 4.69414853e-02
      -6.78795278e-02 -2.49057002e-02 -3.91672552e-02 1.16284778e-02
      -5.21117002e-02 -1.69647951e-02 -6.01173714e-02 -7.05380738e-02
      -3.56025174e-02 8.79866853e-02 1.36950046e-01 4.05651592e-02
      -8.85934941e-03 -1.17330097e-01 8.12126603e-03 -1.75580895e-03
      8.53042677e-02 -3.80346961e-02 3.76277715e-02 -1.20435227e-02</_>
    <_>
      -6.57146722e-02 -2.67867386e-01 5.82846701e-02 8.25401917e-02
      -1.41604198e-02 1.65422838e-02 -1.44908391e-02 -4.23624255e-02
      -1.06778070e-01 -3.79381061e-04 -1.39641110e-03 1.99746918e-02
      1.83099974e-02 -2.91514453e-02 3.49725373e-02 4.49492559e-02
      -6.48439378e-02 -2.83255689e-02 -4.09809984e-02 3.51011567e-02
      -6.67424947e-02 -1.45376222e-02 -5.68224415e-02 -9.03767496e-02
      -1.18456613e-02 9.02624279e-02 1.37908697e-01 2.11120937e-02
      -2.59605963e-02 -1.23188302e-01 -1.61992274e-02 4.80789412e-03
      8.45926404e-02 -2.96858568e-02 3.67878675e-02 -5.46606211e-03</_>
    <_>
      3.07801310e-02 -7.81769082e-02 -1.39879333e-02 -4.67512757e-02
      4.30667959e-02 -8.36423188e-02 -1.17942736e-01 -3.29906557e-04
      -1.52570764e-02 -2.54095923e-02 -4.98947762e-02 2.65845563e-02
      4.52113245e-03 -4.00387347e-02 5.71672283e-02 3.92966792e-02
      -8.09581354e-02 -8.59265402e-03 -3.30708250e-02 4.71013263e-02
      -8.82579237e-02 9.03617032e-03 -2.65140366e-02 -7.66786709e-02
      -2.80470476e-02 9.49864015e-02 1.61702380e-01 4.23469804e-02
      -1.48602314e-02 -1.29016951e-01 4.59375186e-03 -2.12305482e-03
      9.12032500e-02 -2.60610618e-02 4.61369194e-02 -8.81240354e-04</_>
    <_>
      2.44919565e-02 -1.38481051e-01 4.78335330e-03 1.73769854e-02
      4.40973863e-02 -2.32343320e-02 -5.27845696e-02 -1.90086197e-02
      -6.44811392e-02 -1.62252262e-02 -3.14784944e-02 2.61283666e-02
      7.52155250e-03 -2.08058599e-02 5.70228733e-02 3.35307457e-02
      -7.24455714e-02 -4.46534939e-02 -2.97989920e-02 1.02879787e-02
      -6.20390661e-02 -3.35221738e-03 -5.47617152e-02 -6.76007345e-02
      -3.53417508e-02 8.88020620e-02 1.48693785e-01 2.67616082e-02
      -1.62748285e-02 -1.25870958e-01 -6.48430875e-03 -5.39621245e-03
      9.34971273e-02 -3.71782444e-02 4.56919670e-02 -2.53032660e-03</_>
    <_>
      4.55060154e-01 -1.45673141e-01 -8.33770633e-02 3.38418692e-01
      2.70727098e-01 1.27953276e-01 -2.02641249e-01 -2.86917668e-02
      3.29048198e-04 -4.02705818e-02 5.82426377e-02 -4.46163537e-03
      1.97086968e-02 -4.54208143e-02 3.68111208e-02 2.00993344e-02
      -5.52178435e-02 -2.27727313e-02 -3.64710242e-02 2.16261372e-02
      -5.96297681e-02 1.12558324e-02 -5.12187667e-02 -8.17352235e-02
      -2.46124249e-02 9.27492082e-02 1.55742988e-01 3.19579467e-02
      -2.18725409e-02 -1.30002886e-01 -3.96557478e-03 5.20047173e-03
      9.09665376e-02 -4.29129936e-02 4.82785851e-02 4.12077364e-03</_>
    <_>
      3.31312604e-02 -5.87654412e-02 -5.38100936e-02 -8.18997249e-03
      2.49419678e-02 -3.00225485e-02 -6.24628849e-02 -2.73229647e-02
      -5.13542891e-02 3.66389542e-03 -2.82697622e-02 2.00322922e-02
      -1.95205881e-04 -6.89613447e-02 5.36004677e-02 5.40845171e-02
      -7.08681867e-02 -2.43505966e-02 -3.13927941e-02 2.16893889e-02
      -6.57908544e-02 3.22394120e-03 -2.74562445e-02 -8.36760774e-02
      -2.24483646e-02 8.49276483e-02 1.54845729e-01 2.71789376e-02
      -1.69904977e-02 -1.29560649e-01 -4.82200412e-03 4.65194741e-03
      8.59955177e-02 -3.65279578e-02 4.68731038e-02 -1.06116636e-02</_>
    <_>
      1.95304543e-01 -1.17618494e-01 1.77338943e-02 6.06752522e-02
      3.57673094e-02 6.99390098e-02 -4.18505855e-02 3.97377200e-02
      -3.71924625e-03 4.15343568e-02 6.77976711e-03 -2.89921109e-02
      -1.66345891e-02 -1.83902718e-02 3.78474332e-02 3.39655913e-02
      -9.35098529e-02 -3.63027491e-02 3.69819393e-03 6.73154881e-03
      -6.50038123e-02 -4.58386866e-03 -3.98944318e-02 -6.14926182e-02
      -2.18015593e-02 9.51395929e-02 1.50947750e-01 3.05811055e-02
      -1.26569364e-02 -1.34677306e-01 -1.98889263e-02 1.39127085e-02
      9.66725573e-02 -2.24675145e-02 3.24203260e-02 -5.76560711e-03</_>
    <_>
      1.28024761e-02 -8.15520510e-02 -6.25094250e-02 2.35508233e-02
      -1.40575878e-02 -1.17221475e-02 1.18391747e-02 -4.43442017e-02
      -6.21899813e-02 2.27171648e-02 1.43094668e-02 -5.33494093e-02
      -1.57495663e-02 -6.69352859e-02 7.06466334e-03 6.02318868e-02
      -6.07344657e-02 -5.35473078e-02 -3.90242562e-02 1.59483124e-02
      -7.55595714e-02 -7.31557235e-03 -6.81015030e-02 -6.95839524e-02
      -1.21452678e-02 7.23578483e-02 1.48366168e-01 2.57138293e-02
      -3.64438072e-02 -1.29086226e-01 1.08923605e-02 1.05580762e-02
      8.04991275e-02 -2.93200798e-02 2.53333803e-02 -4.14133258e-03</_>
    <_>
      8.16096738e-02 -3.09246574e-02 -5.81059232e-02 -3.19819264e-02
      2.46458780e-03 -2.28090473e-02 -3.95090580e-02 -1.42767914e-02
      -3.55414376e-02 1.84415486e-02 2.06146110e-02 -1.48243681e-02
      -7.24597741e-03 -5.81232943e-02 5.44609353e-02 5.09673692e-02
      -7.99551532e-02 -3.95252034e-02 -3.28198783e-02 1.00266095e-02
      -5.97658418e-02 -9.18104313e-03 -6.01738691e-02 -7.72628486e-02
      -2.49513537e-02 8.85620117e-02 1.54167861e-01 3.05115301e-02
      -1.40376557e-02 -1.30163699e-01 2.60194438e-03 8.33464041e-03
      9.24305022e-02 -3.43175791e-02 3.93336378e-02 1.72283116e-03</_>
    <_>
      2.22338997e-02 -2.10882798e-01 8.68452862e-02 3.53797637e-02
      -1.95996612e-02 -2.74880556e-03 -6.24033064e-03 -4.20663273e-05
      -9.42322612e-02 -1.32948058e-02 3.40448543e-02 -1.80843920e-02
      -5.81349013e-03 -3.91478390e-02 2.75612418e-02 1.00352407e-01
      -5.44635244e-02 -4.02442291e-02 -4.55014408e-02 1.46498587e-02
      -5.32289110e-02 1.03258733e-02 -6.11454360e-02 -5.16063944e-02
      -2.95953471e-02 7.97873065e-02 1.45117432e-01 2.43845079e-02
      -1.82201415e-02 -1.29836500e-01 -1.99349970e-03 -6.44747866e-03
      9.56082866e-02 -3.34498286e-02 3.45954411e-02 -8.49899743e-03</_>
    <_>
      -7.58054629e-02 -2.40342975e-01 1.57210492e-02 1.02894582e-01
      -7.44659826e-03 4.24954221e-02 2.62435377e-02 -1.23709835e-01
      -1.06950693e-01 -2.22633686e-03 -8.38525128e-03 -1.87165532e-02
      -2.18089912e-02 -3.34486365e-02 5.27147390e-02 1.89823043e-02
      -6.08880259e-02 -1.07156001e-02 -3.89601476e-02 2.78818272e-02
      -7.84016103e-02 -2.19545215e-02 -5.14473468e-02 -5.67525551e-02
      -2.63178684e-02 9.96744111e-02 1.52911216e-01 4.22118530e-02
      -7.78103434e-03 -1.25673369e-01 -6.23518787e-03 -7.72376219e-03
      9.25116166e-02 -3.57525535e-02 4.60835584e-02 -2.51207743e-02</_>
    <_>
      -4.14786749e-02 -2.05927491e-01 5.88046126e-02 3.36883925e-02
      -1.21352496e-02 -2.74899658e-02 -3.86679880e-02 1.05053037e-02
      -3.59616429e-02 8.85273609e-03 2.76501123e-02 -1.89848468e-02
      -9.98377614e-03 -5.27263358e-02 2.04954520e-02 5.80877773e-02
      -7.40144625e-02 -4.71568853e-02 -4.48288023e-02 1.87160484e-02
      -4.91468385e-02 1.39045622e-03 -5.25179468e-02 -6.38940558e-02
      -2.40909774e-02 8.23465139e-02 1.55255541e-01 3.14070135e-02
      -1.95332635e-02 -1.27952963e-01 2.83709611e-03 2.16015265e-03
      9.08757672e-02 -2.51327716e-02 4.21684571e-02 -8.29199702e-03</_>
    <_>
      1.37315961e-02 -9.84080881e-02 -4.31520678e-02 2.72655282e-02
      -3.05273081e-03 2.57282015e-02 -8.88331514e-03 -6.04570694e-02
      -8.33368152e-02 2.29176618e-02 9.92489792e-03 1.61331724e-02
      1.65504459e-02 -3.19814347e-02 3.65822688e-02 2.54046470e-02
      -6.36162758e-02 -3.32096927e-02 -4.43098731e-02 8.34547449e-03
      -3.86837870e-02 -1.15890289e-02 -3.83050516e-02 -7.04675391e-02
      -2.62135230e-02 8.46137404e-02 1.71769083e-01 2.35131700e-02
      -2.13786867e-03 -1.19205832e-01 -9.40329581e-03 -4.88202134e-03
      8.52206945e-02 -2.31612138e-02 4.04733345e-02 -8.71091266e-04</_>
    <_>
      -1.07824979e-02 -1.22804329e-01 -1.70385428e-02 5.00319451e-02
      -3.80143931e-04 1.06968461e-02 -9.64598358e-03 -5.11876866e-02
      -9.56258774e-02 -6.19925885e-03 1.79137066e-02 -1.59294475e-02
      -9.18668602e-03 -4.73116711e-02 4.63744290e-02 5.57617322e-02
      -6.22862726e-02 -3.65730077e-02 -3.13549079e-02 1.27760414e-02
      -6.17920198e-02 -7.80514395e-03 -5.42525314e-02 -7.97230229e-02
      -1.60276033e-02 9.00764614e-02 1.43477917e-01 3.27247605e-02
      -1.37462523e-02 -1.38822749e-01 6.20029634e-03 2.00177543e-02
      9.06522945e-02 -2.72855535e-02 3.38020772e-02 -3.64437816e-03</_>
    <_>
      2.75361121e-01 -8.80076215e-02 -8.59708339e-03 -2.57889293e-02
      1.90260530e-01 -5.82800023e-02 -1.42874066e-02 -6.69535249e-02
      -6.47904873e-02 -4.08079010e-03 3.59153599e-02 3.93737108e-02
      1.75068527e-02 -7.25225434e-02 6.90987334e-02 2.82161888e-02
      -7.34783560e-02 -3.88023667e-02 -4.00252342e-02 2.66756043e-02
      -5.73658831e-02 4.09920048e-03 -4.36106399e-02 -6.51041046e-02
      -1.44839892e-02 9.55807269e-02 1.42632812e-01 3.05606406e-02
      -2.46112458e-02 -1.35858133e-01 9.43764462e-04 1.75610336e-03
      9.18841511e-02 -3.69046368e-02 4.70513329e-02 -6.64660800e-03</_>
    <_>
      1.18051529e-01 -1.04765803e-01 4.85990532e-02 -3.70673067e-03
      5.64707210e-03 9.97206476e-03 -1.30326701e-02 7.44914785e-02
      -4.81196828e-02 5.84989339e-02 -8.05823226e-03 -1.25795240e-02
      -1.33733144e-02 -1.00916494e-02 2.34400146e-02 9.58897024e-02
      -7.50516206e-02 -2.40672808e-02 -3.80621478e-02 3.21071818e-02
      -5.72618991e-02 1.15040606e-02 -3.59655172e-02 -6.81170672e-02
      -2.09445991e-02 8.03802162e-02 1.43789113e-01 3.28912102e-02
      -2.27203090e-02 -1.25745997e-01 -6.28768839e-03 4.92372597e-03
      9.46931243e-02 -4.36800458e-02 2.91923434e-02 -4.67097526e-03</_>
    <_>
      1.17960714e-01 7.86372274e-03 -1.12603009e-01 -3.13759618e-03
      1.67895406e-02 -2.87334640e-02 -3.11584584e-02 -4.13362011e-02
      -6.38227239e-02 -1.79767348e-02 1.63956638e-02 -1.61854178e-02
      -1.23481052e-02 -1.01011932e-01 7.24687502e-02 5.78107163e-02
      -9.07298028e-02 -3.67825031e-02 -4.43067886e-02 2.32022498e-02
      -5.56513593e-02 -1.29692629e-02 -4.12371457e-02 -5.82666509e-02
      -2.81980596e-02 8.15538242e-02 1.64949194e-01 2.99617834e-02
      -3.80314663e-02 -1.26121312e-01 -6.60707429e-03 3.67247290e-03
      9.85945463e-02 -3.03081870e-02 2.63138190e-02 -6.02690363e-03</_>
    <_>
      -9.39559366e-04 -1.31424695e-01 8.23631184e-04 3.86346541e-02
      -2.13630442e-02 6.56145345e-03 5.31781116e-04 -3.18326168e-02
      -7.62089491e-02 6.91028079e-03 3.89871337e-02 -1.65235270e-02
      1.50401623e-03 -6.39929026e-02 2.51566563e-02 2.45570485e-02
      -7.11807013e-02 -3.05560660e-02 -3.48278284e-02 1.58980098e-02
      -6.14609793e-02 -1.24499295e-02 -6.46345466e-02 -6.68445602e-02
      -4.13516834e-02 8.68284404e-02 1.45286754e-01 2.95864455e-02
      -2.19744518e-02 -1.39262781e-01 -1.51788373e-03 -3.76858655e-03
      9.65064242e-02 -4.22321856e-02 5.43243922e-02 -2.06004619e-03</_>
    <_>
      1.93116724e-01 -2.17574984e-01 1.13367654e-01 6.26714230e-02
      1.38906180e-03 1.47488266e-01 -1.12870717e-02 8.31681117e-02
      -4.07751240e-02 1.19808130e-01 4.79068644e-02 -4.28738892e-02
      -5.80303371e-03 -3.98679450e-02 4.31808084e-02 5.55299930e-02
      -9.18587297e-02 -2.31494717e-02 1.25586819e-02 2.57003047e-02
      -7.89014250e-02 1.13593861e-02 -6.42499849e-02 -8.13712701e-02
      -1.49524938e-02 1.00230284e-01 1.41621396e-01 3.83278728e-02
      -2.80400272e-02 -1.43051088e-01 -8.44714884e-03 7.80287432e-03
      9.39451009e-02 -3.32287103e-02 3.72395031e-02 -1.89067181e-02</_>
    <_>
      5.86555479e-03 -1.62140608e-01 4.50697839e-02 2.56731305e-02
      -7.43349455e-03 1.74602512e-02 -2.59511755e-03 6.19047740e-03
      -8.42439085e-02 4.50437851e-02 1.00507680e-02 -1.49715517e-03
      -6.09330891e-04 -5.68230115e-02 2.18305103e-02 7.63172582e-02
      -5.67389093e-02 1.33470856e-02 -5.50112315e-02 1.76033266e-02
      -3.55123691e-02 -1.14489160e-02 -4.14637178e-02 -6.69539273e-02
      -2.43652854e-02 8.09581429e-02 1.59634843e-01 3.43655124e-02
      -1.79805290e-02 -1.29348427e-01 -5.05587086e-04 1.88196991e-02
      8.87910724e-02 -3.32165286e-02 5.63808940e-02 -8.27705313e-04</_>
    <_>
      -7.68924952e-02 -2.89226353e-01 2.80708652e-02 1.49673387e-01
      2.04984937e-02 4.28489596e-02 7.20699802e-02 -1.48760214e-01
      -1.04176410e-01 -1.40856879e-04 -7.87003487e-02 -7.98728764e-02
      -5.98861948e-02 -6.63087741e-02 5.59401028e-02 2.65341625e-02
      -3.03123537e-02 -2.62647979e-02 -2.84636784e-02 1.56684816e-02
      -7.70607516e-02 -7.88752548e-03 -4.35754843e-02 -6.29558191e-02
      -4.21041399e-02 8.07144493e-02 1.51638046e-01 3.04573756e-02
      -1.60782766e-02 -1.43766791e-01 4.30111540e-03 -1.79493160e-03
      8.85651857e-02 -4.03272137e-02 4.36167158e-02 -1.35624167e-02</_>
    <_>
      -6.74275076e-03 -1.30905434e-01 -2.27143173e-03 -3.04050464e-03
      9.45382193e-03 -3.98037769e-02 -6.62193820e-02 -1.08437082e-02
      -2.92680953e-02 -2.29053348e-02 -1.30454591e-02 8.92555993e-03
      -9.87695251e-03 -2.54321788e-02 1.01572037e-01 3.67486663e-02
      -8.40497911e-02 -3.47172432e-02 -2.65933108e-02 1.48779899e-02
      -5.24902269e-02 -2.71080378e-02 -4.86486815e-02 -9.67432633e-02
      -2.77268346e-02 9.71470922e-02 1.39347166e-01 3.23020890e-02
      -2.84482446e-02 -1.28788203e-01 -9.88739048e-05 1.03686973e-02
      8.20016116e-02 -3.39622311e-02 3.73497196e-02 2.59897299e-03</_>
    <_>
      9.97499883e-01 -1.50115862e-01 6.71516359e-02 -2.93611139e-02
      -4.09150690e-01 -1.84336444e-03 -4.85020541e-02 -1.59879662e-02
      -5.42164706e-02 -7.72649748e-03 -3.82560678e-02 -2.62074489e-02
      -1.91822276e-02 -3.15117054e-02 3.09804734e-02 4.64062355e-02
      -7.33229369e-02 -4.10139337e-02 -3.77512351e-02 1.97924040e-02
      -5.80483191e-02 -1.00488365e-02 -4.51731905e-02 -6.29966259e-02
      -2.78607253e-02 8.88215974e-02 1.49937853e-01 1.91023387e-02
      -2.31756456e-02 -1.35414049e-01 -6.35761011e-04 -1.19617052e-05
      8.99999067e-02 -2.81424932e-02 4.43466678e-02 -8.60169716e-03</_>
    <_>
      8.30575898e-02 7.34337652e-03 -9.58330333e-02 -2.65663844e-02
      8.02052300e-03 -1.97923109e-02 -3.42935771e-02 -2.58405190e-02
      -4.61049378e-02 2.06193477e-02 6.83270767e-03 -3.18181468e-04
      -6.02149777e-03 -6.43692538e-02 5.75178526e-02 5.53487130e-02
      -7.39088133e-02 -5.10482751e-02 -3.54302153e-02 2.12986618e-02
      -6.11907244e-02 -4.74327768e-04 -4.51668948e-02 -8.11587200e-02
      -2.48167571e-02 8.51158947e-02 1.44651502e-01 2.60089673e-02
      -2.43940260e-02 -1.31657138e-01 -1.41297386e-03 9.79644246e-03
      9.75695103e-02 -3.20702493e-02 3.35706174e-02 -4.23524668e-03</_>
    <_>
      1.10719347e+00 -1.22727461e-01 -2.73120143e-02 1.90968037e-01
      -7.64242113e-02 -1.91406101e-01 8.70696306e-02 -1.73784532e-02
      -1.03191979e-01 -5.97524643e-03 1.22256821e-03 3.42422388e-02
      7.27092894e-03 -4.82496805e-02 5.42545803e-02 2.59846020e-02
      -7.30018020e-02 -4.30671163e-02 -4.00426500e-02 1.04441820e-02
      -5.94291165e-02 -1.41908126e-02 -4.63877320e-02 -6.81186393e-02
      -2.38208361e-02 9.06646401e-02 1.42929271e-01 2.43042782e-02
      -2.10607592e-02 -1.33113191e-01 -2.11865967e-03 4.47448762e-03
      8.70840400e-02 -2.91365124e-02 3.93327735e-02 -5.76410070e-03</_>
    <_>
      -5.06857559e-02 -2.34779313e-01 1.03766993e-01 2.55513061e-02
      -7.49803428e-03 -7.01170787e-02 -7.35412538e-02 7.64205083e-02
      -2.59426306e-03 -4.43670005e-02 3.46082114e-02 -2.26700883e-02
      -1.82060786e-02 -4.16128002e-02 4.31636870e-02 2.19288329e-03
      -9.01350230e-02 -4.41184491e-02 -2.14881562e-02 1.77999809e-02
      -6.73393533e-02 4.37802216e-03 -4.25193235e-02 -5.68445399e-02
      -9.82926879e-03 8.17048475e-02 1.57912120e-01 2.83989478e-02
      -1.94381457e-02 -1.31946728e-01 -1.30775273e-02 1.10777011e-02
      8.65031928e-02 -4.42029797e-02 3.19975093e-02 -3.11330165e-04</_>
    <_>
      -8.23478028e-02 -2.95696646e-01 9.23683047e-02 7.52844885e-02
      7.01653073e-04 -7.49863312e-03 -4.24774177e-02 -6.26453161e-02
      -7.53678903e-02 -9.84201021e-03 -3.97977345e-02 1.51679367e-02
      -6.62073120e-03 -1.37599288e-02 4.61420119e-02 3.87454964e-02
      -7.12475851e-02 -4.33612093e-02 -4.26685065e-02 1.38178403e-02
      -6.15039319e-02 -1.25642018e-02 -5.81533164e-02 -6.86994717e-02
      -3.60014923e-02 8.77144635e-02 1.45939901e-01 3.30926627e-02
      -1.32175991e-02 -1.28649607e-01 3.27501609e-03 5.54696703e-03
      9.50451940e-02 -2.34965496e-02 4.44288887e-02 -9.10748448e-03</_>
    <_>
      2.41175160e-01 -2.03666147e-02 2.34873202e-02 -1.35591999e-01
      1.70844331e-01 -9.19472277e-02 4.95623462e-02 1.45182684e-02
      -1.01230472e-01 9.32514295e-03 1.71318687e-02 3.47669944e-02
      1.83254760e-02 -4.01906073e-02 3.74235101e-02 2.45186128e-02
      -6.62408918e-02 -4.64014784e-02 -3.93157899e-02 1.26301814e-02
      -5.68641759e-02 9.68978740e-03 -4.97146025e-02 -9.22923908e-02
      -9.09166969e-03 5.84752299e-02 1.68708369e-01 2.56129112e-02
      -3.43727623e-03 -1.44241601e-01 -3.33599455e-04 2.20008520e-03
      9.41627547e-02 -2.67868731e-02 4.37592007e-02 -4.32591652e-03</_>
    <_>
      -5.42040877e-02 -2.08758116e-01 1.69899184e-02 5.14533184e-02
      2.51676217e-02 -2.42432840e-02 -3.01157739e-02 -4.82338443e-02
      -7.72098601e-02 -1.80751774e-02 -7.41636455e-02 -2.71091461e-02
      -3.40421014e-02 -2.79254857e-02 3.49963754e-02 3.24165858e-02
      -7.78262168e-02 -4.22472060e-02 -3.74551564e-02 -1.08559318e-02
      -5.42930141e-02 -7.82190170e-03 -6.24416471e-02 -7.26819709e-02
      -1.18450094e-02 9.22974721e-02 1.62882224e-01 3.25353108e-02
      -2.62727570e-02 -1.30111098e-01 3.18829832e-03 -5.96940692e-04
      1.00496426e-01 -2.77999453e-02 3.97339351e-02 1.25918025e-03</_>
    <_>
      1.04830527e+00 -1.28312662e-01 7.34553859e-02 2.71125466e-01
      5.63184083e-01 -2.25224625e-02 1.44867208e-02 3.59208025e-02
      -6.25891164e-02 4.21520974e-03 2.28566583e-02 -7.67755555e-03
      -2.71297973e-02 -4.09775041e-02 6.96846023e-02 6.53249398e-02
      -5.20935655e-02 -5.01041003e-02 -6.00067712e-02 2.09815288e-03
      -4.58245426e-02 -4.17822041e-02 -4.31521162e-02 -4.62225601e-02
      -1.44598829e-02 8.62177387e-02 1.51259020e-01 3.40895914e-02
      -1.16268555e-02 -1.29378349e-01 -6.64409297e-03 9.16705746e-03
      9.59238857e-02 -2.39411294e-02 3.71244736e-02 6.73763861e-04</_>
    <_>
      5.30879498e-02 -8.94951895e-02 -2.21484918e-02 -1.10090757e-02
      2.38248520e-02 -6.50186315e-02 -4.65475433e-02 -2.61368118e-02
      -1.18157472e-02 -1.67347323e-02 1.95244364e-02 -2.44092401e-02
      -1.82558298e-02 -2.09521540e-02 4.67234142e-02 4.18842919e-02
      -5.75479567e-02 -3.56422365e-02 -3.99363413e-02 3.81633453e-02
      -7.46403933e-02 7.88794307e-04 -6.58779368e-02 -6.26024678e-02
      -2.87218615e-02 8.14193785e-02 1.34022698e-01 3.23435850e-02
      -1.21274218e-02 -1.41434595e-01 -3.04974383e-03 1.63308606e-02
      9.28897411e-02 -4.25549932e-02 4.43972461e-02 3.82431806e-03</_>
    <_>
      1.04830527e+00 -1.28312662e-01 7.34553859e-02 2.71125466e-01
      5.63184083e-01 -2.25224625e-02 1.44867208e-02 3.59208025e-02
      -6.25891164e-02 4.21520974e-03 2.28566583e-02 -7.67755555e-03
      -2.71297973e-02 -4.09775041e-02 6.96846023e-02 6.53249398e-02
      -5.20935655e-02 -5.01041003e-02 -6.00067712e-02 2.09815288e-03
      -4.58245426e-02 -4.17822041e-02 -4.31521162e-02 -4.62225601e-02
      -1.44598829e-02 8.62177387e-02 1.51259020e-01 3.40895914e-02
      -1.16268555e-02 -1.29378349e-01 -6.64409297e-03 9.16705746e-03
      9.59238857e-02 -2.39411294e-02 3.71244736e-02 6.73763861e-04</_>
    <_>
      -7.54905492e-02 -2.83722818e-01 8.58083069e-02 7.50345960e-02
      -7.31889484e-03 1.03720706e-02 -3.09938285e-02 -4.80952524e-02
      -9.90372300e-02 -2.38070488e-02 -2.93164626e-02 6.09491579e-03
      -1.15638711e-02 -9.35169123e-03 6.59311265e-02 3.62207331e-02
      -7.73855820e-02 -4.96064574e-02 -4.83757667e-02 2.59109158e-02
      -5.88680878e-02 -5.69023425e-03 -4.50450182e-02 -7.44368136e-02
      -2.04830486e-02 8.33305344e-02 1.33227274e-01 3.56266946e-02
      -3.70306894e-03 -1.39624998e-01 -1.41054019e-03 5.40032168e-04
      9.99797061e-02 -2.89432816e-02 2.68559735e-02 -6.36968762e-03</_>
    <_>
      -4.32627648e-02 -2.19192371e-01 2.67731342e-02 5.79963364e-02
      2.26694997e-02 -2.79394519e-02 -4.55873869e-02 -5.28187975e-02
      -7.71713927e-02 -2.70575192e-02 -6.18690513e-02 -1.84785165e-02
      -2.70754565e-02 -3.89992557e-02 4.07631174e-02 3.53779458e-02
      -7.32169822e-02 -3.42417434e-02 -4.27073166e-02 8.21026880e-03
      -5.20917252e-02 -5.35260187e-03 -5.00123985e-02 -8.65009353e-02
      -1.34204449e-02 8.40480402e-02 1.55499816e-01 2.92031169e-02
      -3.37468572e-02 -1.31169692e-01 1.03744934e-03 1.22722629e-02
      1.01425469e-01 -2.85092108e-02 3.59822884e-02 1.10524865e-02</_>
    <_>
      -4.60294187e-02 -2.07700074e-01 1.90272070e-02 5.10506816e-02
      2.02677622e-02 1.48207648e-02 -2.65915077e-02 -5.64720929e-02
      -9.66087803e-02 -2.71886727e-03 -1.35534015e-02 6.97827665e-03
      -8.09296407e-03 -1.54088894e-02 5.72859943e-02 9.49411094e-03
      -6.96230233e-02 -5.60833290e-02 -4.36257608e-02 1.18322745e-02
      -5.80559000e-02 -5.46120806e-03 -6.19430393e-02 -6.18855469e-02
      -1.83587503e-02 1.05769388e-01 1.49308860e-01 2.08547246e-02
      -1.95284355e-02 -1.44293174e-01 -1.51360771e-02 1.45271898e-03
      8.46299529e-02 -3.88448872e-02 4.97805811e-02 4.05156193e-03</_>
    <_>
      -2.39631478e-02 -1.95964232e-01 2.60715894e-02 3.09472308e-02
      7.34067801e-03 -4.36963215e-02 -2.01118812e-02 -1.97988078e-02
      -7.00119585e-02 -1.20610762e-02 2.84404643e-02 1.04522146e-02
      -3.19029344e-03 2.96631665e-03 6.57130107e-02 5.53897247e-02
      -6.33140281e-02 -5.67135476e-02 -3.59312557e-02 1.97941996e-02
      -6.25321120e-02 -1.48324184e-02 -8.02557245e-02 -9.47914347e-02
      -3.33590433e-02 9.43615437e-02 1.35105774e-01 3.81448269e-02
      -1.39883012e-02 -1.31135121e-01 -8.71748081e-04 1.11213047e-02
      8.21412057e-02 -3.49953696e-02 5.00338040e-02 -7.82107294e-04</_>
    <_>
      -3.45991813e-02 -1.71936885e-01 4.85449024e-02 2.37562247e-02
      1.18283471e-02 -4.88965213e-02 -6.37234077e-02 6.52074814e-03
      -2.88704298e-02 -1.59956776e-02 4.00301907e-03 7.91254826e-03
      1.26901194e-02 -3.59449275e-02 2.05069128e-02 3.35092433e-02
      -9.00518075e-02 -4.39421013e-02 -3.94828469e-02 2.69395374e-02
      -5.76314107e-02 -1.65123245e-04 -4.29200344e-02 -5.35985306e-02
      -2.18759440e-02 9.34314504e-02 1.45258456e-01 2.49453392e-02
      -1.59021951e-02 -1.28460974e-01 -8.74690525e-03 9.34932195e-03
      9.19208452e-02 -3.36550325e-02 4.88270670e-02 -5.18469838e-04</_>
    <_>
      4.11820859e-02 -6.06214777e-02 -4.91795205e-02 -1.41284401e-02
      1.14028789e-02 -2.33792309e-02 -5.14566936e-02 -2.87109204e-02
      -2.76277401e-02 2.89821327e-02 7.41948374e-03 9.44488775e-03
      4.37481329e-03 -3.11027206e-02 4.54401337e-02 6.13307916e-02
      -8.01592469e-02 -4.70198169e-02 -3.49792391e-02 2.05031727e-02
      -5.50952181e-02 -5.63022075e-03 -5.67175895e-02 -7.95032978e-02
      -3.10200080e-02 9.46667418e-02 1.31175712e-01 2.65986193e-02
      -7.96444807e-03 -1.27234846e-01 -5.56675997e-03 1.01946389e-04
      8.77525732e-02 -3.76377031e-02 3.65030989e-02 2.99627800e-03</_>
    <_>
      1.17714427e-01 -2.17013180e-01 1.49718940e-01 -5.84970368e-03
      -1.14614256e-01 1.08397782e-01 1.65676160e-04 8.36907923e-02
      -7.67869651e-02 4.96613868e-02 2.44653076e-02 -2.57495288e-02
      -2.62880679e-02 1.39729036e-02 1.16770312e-01 1.47325564e-02
      -1.12881869e-01 -6.13817647e-02 -8.28657765e-03 3.89440767e-02
      -1.05254449e-01 2.58716289e-03 -7.41658136e-02 -4.90354784e-02
      -1.42812757e-02 9.52343270e-02 1.56763300e-01 2.72476356e-02
      -7.92581961e-03 -1.18266284e-01 -1.24718836e-02 3.84347001e-03
      1.02870233e-01 -1.71456374e-02 3.78006585e-02 -1.06696794e-02</_>
    <_>
      -1.24753481e-02 -1.55720785e-01 2.24364679e-02 -7.12886511e-04
      1.73912216e-02 -3.98405977e-02 -9.22522694e-02 9.75969527e-03
      -2.76212506e-02 -9.94051527e-03 -2.07540393e-02 2.81239059e-02
      7.53017666e-05 -2.80896965e-02 3.46449651e-02 4.29496095e-02
      -6.78150505e-02 -5.03920764e-02 -3.72685753e-02 2.44058929e-02
      -5.68892211e-02 1.82997938e-02 -4.63246107e-02 -7.56523535e-02
      -7.60404067e-03 9.05766487e-02 1.51714772e-01 3.24197188e-02
      -1.72548853e-02 -1.43109530e-01 5.29878354e-03 6.25304040e-03
      1.04889788e-01 -4.19590436e-02 3.17983925e-02 2.91766832e-03</_>
    <_>
      5.07204980e-02 -9.84926894e-02 -4.69341502e-03 -2.32832972e-02
      2.70726662e-02 -9.34428051e-02 -6.82527050e-02 -7.39295408e-03
      -1.81314698e-03 -3.01606636e-02 2.84494702e-02 -3.29078026e-02
      -2.56677624e-02 -3.17751244e-02 5.60158119e-02 4.49320823e-02
      -7.13015124e-02 -2.11075954e-02 -5.10433055e-02 3.78641933e-02
      -6.16491027e-02 -1.48859713e-02 -6.08785413e-02 -6.65431768e-02
      -2.64614653e-02 8.01882148e-02 1.48716524e-01 2.76617780e-02
      -1.74205378e-02 -1.32038087e-01 -1.05268629e-02 6.08254084e-03
      8.59477594e-02 -2.50053592e-02 4.50123735e-02 -9.95723624e-03</_>
    <_>
      4.67797648e-03 1.06472403e-01 1.48066849e-01 6.19417131e-02
      -1.58617161e-02 -2.19071214e-03 1.03604617e-02 1.05628036e-02
      -2.63497252e-02 -4.65943553e-02 1.54725723e-02 -6.34961901e-03
      -9.51560028e-03 -4.45686616e-02 4.29446921e-02 5.60342856e-02
      -7.38110021e-02 -4.42104191e-02 -3.78078371e-02 3.30188796e-02
      -4.77516241e-02 -1.12153555e-03 -5.19358367e-02 -7.66137838e-02
      -2.43693572e-02 8.59347135e-02 1.57283247e-01 3.86682972e-02
      -2.09278055e-02 -1.30304560e-01 1.00293625e-02 -4.65666503e-03
      9.24733877e-02 -4.19710912e-02 3.49321105e-02 2.12491304e-03</_>
    <_>
      3.43619436e-02 -9.08345878e-02 -1.37058171e-02 -3.03597618e-02
      1.84210483e-02 -7.23879486e-02 -9.19787586e-02 2.12565307e-02
      -1.81815457e-02 -1.70809198e-02 -8.22043978e-03 -6.05185097e-03
      -1.58501510e-02 -5.31874634e-02 5.88006228e-02 3.45139615e-02
      -8.98556113e-02 -3.90421823e-02 -4.53622565e-02 1.05731087e-02
      -5.07645719e-02 -8.14102497e-03 -4.90261614e-02 -6.84182942e-02
      -3.43717486e-02 9.19240117e-02 1.52301639e-01 2.53672060e-02
      -1.97408032e-02 -1.49883926e-01 -1.39048025e-02 1.25975572e-02
      9.50060859e-02 -3.18089463e-02 3.31699178e-02 8.57958512e-04</_>
    <_>
      -6.38032258e-02 -2.64913350e-01 7.47286230e-02 6.52598962e-02
      -5.64329885e-03 -4.40089870e-03 -3.26601267e-02 -4.06298228e-02
      -8.91314298e-02 -1.35248490e-02 -2.84750313e-02 1.00554340e-02
      -3.78880324e-03 -1.69913024e-02 4.59288992e-02 3.89294289e-02
      -7.58253485e-02 -5.18955514e-02 -4.11409214e-02 1.47943124e-02
      -6.18452691e-02 -9.37175006e-03 -4.80476916e-02 -7.70611018e-02
      -2.94269938e-02 9.06639770e-02 1.40475020e-01 2.18490437e-02
      -1.18253790e-02 -1.35755584e-01 -1.15107140e-02 2.18349742e-03
      8.80760625e-02 -3.49235833e-02 2.91823242e-02 -7.03313679e-04</_>
    <_>
      -8.60106647e-02 -3.41328561e-01 1.73085779e-01 1.02543287e-01
      -1.84101965e-02 3.56047414e-02 -5.58653194e-03 7.80737177e-02
      -1.02342635e-01 2.68263370e-02 -6.55403244e-04 -6.03054883e-03
      6.16961485e-03 -8.60685781e-02 2.80314311e-02 7.65422806e-02
      -4.72935773e-02 -2.65969592e-03 -4.30120081e-02 4.91527021e-02
      -6.59915805e-02 -9.30773281e-03 -3.64501216e-02 -1.03280567e-01
      -4.45236266e-02 8.39268640e-02 1.41072974e-01 3.23587321e-02
      -6.28808374e-03 -1.42485157e-01 -2.15562200e-03 4.04715212e-03
      8.98686126e-02 -3.98922898e-02 4.20571566e-02 -4.37023956e-03</_>
    <_>
      -3.36330496e-02 -1.78232983e-01 7.09988223e-03 3.38019170e-02
      1.38277542e-02 -2.44282968e-02 -3.43623683e-02 -3.98019962e-02
      -7.19456002e-02 -1.36529021e-02 -4.95048091e-02 -2.39446852e-02
      -2.31721364e-02 -1.70053188e-02 4.55339774e-02 3.77483405e-02
      -7.15103373e-02 -2.98648980e-02 -4.15623486e-02 7.74460938e-03
      -5.22018783e-02 -4.55318298e-03 -5.62626831e-02 -9.20572877e-02
      -8.50715395e-03 9.31689292e-02 1.56068414e-01 2.69125346e-02
      -3.74255516e-02 -1.28576770e-01 4.94607119e-03 1.77722110e-03
      1.08665295e-01 -2.55933255e-02 3.98032032e-02 2.87730899e-03</_>
    <_>
      5.71301579e-02 -7.75445476e-02 1.02055361e-02 -2.78338511e-02
      1.10046091e-02 -5.98678365e-02 -8.05811211e-02 9.51578654e-03
      -2.06453744e-02 -4.08453383e-02 2.22491529e-02 -1.20420689e-02
      -9.22146998e-03 -2.85638236e-02 6.40527457e-02 5.11631519e-02
      -5.63759804e-02 -1.97446682e-02 -3.56013440e-02 3.16332504e-02
      -6.42676055e-02 -3.52427858e-04 -4.91522402e-02 -7.24805444e-02
      -1.92316379e-02 7.30045065e-02 1.54419005e-01 3.02763078e-02
      -1.28442375e-02 -1.25108391e-01 -4.06995183e-03 5.18762134e-03
      1.01514779e-01 -3.64894606e-02 4.71283719e-02 -1.52736041e-03</_>
    <_>
      7.63767119e-03 -1.85713470e-01 5.95853291e-02 2.30832305e-02
      -2.26841923e-02 -1.49519509e-02 -3.18484046e-02 9.50045139e-03
      -6.86951056e-02 -3.24855000e-02 1.03119165e-02 -5.49502075e-02
      -1.71568040e-02 -3.04337349e-02 3.94178778e-02 1.01543672e-01
      -5.89885525e-02 -4.07600552e-02 -6.58514574e-02 1.11281881e-02
      -2.08416060e-02 8.72896053e-03 -4.82332818e-02 -8.99988860e-02
      -2.50580329e-02 7.13477433e-02 1.51193410e-01 2.47273073e-02
      -2.06705257e-02 -1.37247160e-01 -3.65407416e-03 2.12637405e-03
      8.93803239e-02 -2.15256661e-02 4.23516147e-02 -1.47387246e-02</_>
    <_>
      2.80047387e-01 -1.80219844e-01 1.02227174e-01 -1.04364842e-01
      1.83197454e-01 -7.53096715e-02 4.27813176e-03 -5.46222217e-02
      -8.93133804e-02 -4.45230640e-02 3.55029814e-02 -1.55590950e-02
      -3.42310965e-03 -2.00201571e-02 2.30624136e-02 4.65675555e-02
      -9.24140736e-02 -5.30227795e-02 -2.38505229e-02 7.50932051e-03
      -6.13585338e-02 2.53528566e-03 -5.87954149e-02 -7.08277076e-02
      -3.18601727e-02 8.53504613e-02 1.59607306e-01 1.06383413e-02
      -2.11494658e-02 -1.39125541e-01 -6.73688296e-03 -2.49160104e-03
      8.43266100e-02 -3.05860117e-02 4.44234312e-02 -5.97894238e-03</_>
    <_>
      1.90209031e-01 -1.33558601e-01 1.04378216e-01 9.04766005e-03
      -4.96997638e-03 5.15660504e-03 2.34788135e-02 7.77019337e-02
      -1.45369591e-02 1.30116995e-02 -1.86688732e-02 -2.14797482e-02
      -2.55431384e-02 1.30456425e-02 3.28014642e-02 2.74241939e-02
      -9.45191607e-02 -6.92176744e-02 -1.99161097e-02 1.78107861e-02
      -6.89677522e-02 8.48324131e-03 -4.44526337e-02 -4.13295589e-02
      -2.46060528e-02 6.81260750e-02 1.73283935e-01 1.81804113e-02
      -1.78094320e-02 -1.26784727e-01 -6.31227624e-03 3.41981300e-03
      8.80388916e-02 -3.66941318e-02 3.55912596e-02 -7.13297445e-03</_>
    <_>
      2.63913780e-01 4.08072807e-02 -1.14300020e-01 4.76586726e-03
      -1.10297374e-01 -4.99212369e-02 -1.11515643e-02 3.09722777e-02
      -3.88522632e-02 1.34479487e-02 -5.67916930e-02 -1.02963746e-02
      -3.52050364e-02 -1.54199675e-02 6.24714494e-02 8.32061395e-02
      -4.64439765e-02 -5.03857248e-02 -6.60878345e-02 3.73438783e-02
      -7.66747370e-02 -1.30602447e-02 -3.38950045e-02 -5.94937988e-02
      -1.20694591e-02 1.02369033e-01 1.58354834e-01 3.85660976e-02
      -2.14193389e-02 -1.36656195e-01 -2.09123772e-02 -1.60455368e-02
      9.36007500e-02 -4.32900861e-02 4.06820513e-02 -8.43234733e-03</_>
    <_>
      -1.34792462e-01 -4.29391831e-01 1.96184322e-01 1.22319572e-01
      -1.07978787e-02 -4.95495126e-02 -5.53547256e-02 -4.59320843e-03
      -8.26803818e-02 -1.06854863e-01 8.09247233e-03 -3.81887481e-02
      -1.05725043e-02 -7.33886510e-02 -8.11415538e-03 2.74887960e-02
      -1.09976076e-01 -7.08096698e-02 -4.49141413e-02 4.26719673e-02
      -6.51523843e-02 6.13276893e-03 -8.20132568e-02 -3.52705084e-02
      -3.29866745e-02 7.18922913e-02 1.17738582e-01 3.94619070e-02
      -1.53268240e-02 -1.54849663e-01 -6.89061172e-03 5.09289606e-03
      9.98095870e-02 -3.25999968e-02 4.38078791e-02 -1.81292091e-02</_>
    <_>
      7.26654589e-01 -2.40323860e-02 -2.28687793e-01 6.21514261e-01
      -4.02142107e-02 -3.20154577e-02 -8.12841356e-02 1.04177959e-01
      -8.49497225e-03 -2.14812066e-02 2.63380334e-02 -3.87312621e-02
      -3.31664532e-02 3.34117077e-02 5.25861979e-02 9.07765999e-02
      -6.81055784e-02 -2.41672937e-02 -1.70222297e-02 9.46132187e-03
      -6.03537560e-02 -2.08100919e-02 -4.89555635e-02 -4.77128960e-02
      -1.25873890e-02 1.10291600e-01 1.62068456e-01 1.47147458e-02
      -3.11699566e-02 -1.37996212e-01 1.15034766e-02 -8.32189433e-03
      9.70310494e-02 -3.30677442e-02 3.91949490e-02 -1.96116022e-03</_>
    <_>
      -1.99074969e-02 -1.49946228e-01 -3.61055485e-03 2.23562457e-02
      -1.10551808e-03 -1.06173567e-02 -1.79817639e-02 -5.00431061e-02
      -5.92552982e-02 1.24127166e-02 -3.00033530e-03 -2.72570197e-02
      -1.69667713e-02 -2.26293299e-02 4.28324752e-02 3.04705668e-02
      -6.09168075e-02 -3.49513106e-02 -3.99618447e-02 1.47549864e-02
      -5.34023717e-02 -2.71891570e-03 -6.34992495e-02 -8.05734247e-02
      -1.88578758e-02 8.97745565e-02 1.37014344e-01 2.94199754e-02
      -2.24361345e-02 -1.38547093e-01 -4.03892854e-03 1.80241503e-02
      8.59288946e-02 -2.14622170e-02 3.11997458e-02 -1.09734870e-02</_>
    <_>
      4.80854213e-02 -1.01531215e-01 1.20627936e-02 -2.57815979e-02
      2.16302127e-02 -6.92956597e-02 -6.20698780e-02 4.39034961e-03
      -5.31994225e-03 -2.64328066e-02 1.23830158e-02 -2.12786477e-02
      -5.96389407e-03 -3.15387957e-02 5.96074015e-02 3.94022837e-02
      -6.16771579e-02 -3.36650982e-02 -3.72055508e-02 3.11563015e-02
      -6.85663745e-02 4.26218519e-03 -5.20824492e-02 -6.27101660e-02
      -3.40289921e-02 8.46379921e-02 1.47710040e-01 3.52449715e-02
      -2.80430000e-02 -1.28763884e-01 4.59025614e-03 1.12634338e-02
      8.75874758e-02 -2.73929927e-02 4.00330834e-02 -2.12060474e-03</_>
    <_>
      3.81806307e-02 -1.20863900e-01 6.51188474e-03 -2.05687969e-03
      3.65841947e-02 -8.61095563e-02 -4.31410149e-02 -2.58266237e-02
      -1.71749212e-03 -4.13418226e-02 1.85274854e-02 -4.80546542e-02
      -3.27321291e-02 -3.13515291e-02 4.99002486e-02 4.85292189e-02
      -5.42056598e-02 -2.52664257e-02 -2.93681193e-02 5.32814600e-02
      -8.58558938e-02 6.54236460e-03 -5.40685505e-02 -5.99099621e-02
      -2.37596016e-02 7.38749206e-02 1.45970836e-01 4.07408252e-02
      -1.51357837e-02 -1.26958370e-01 -1.49156246e-03 3.70169850e-03
      9.28805992e-02 -4.38514128e-02 3.54754440e-02 2.40874756e-03</_>
    <_>
      4.62239571e-02 -9.52599272e-02 6.82332879e-03 -2.37177107e-02
      2.16062423e-02 -8.17160606e-02 -6.86297938e-02 9.38914163e-05
      4.23700176e-03 -2.39527225e-02 3.00559644e-02 -1.58982445e-02
      -1.79323666e-02 -2.42131706e-02 6.53365701e-02 4.43201140e-02
      -6.43762499e-02 -2.95754857e-02 -4.66751233e-02 5.03601693e-02
      -7.73523152e-02 7.60999694e-03 -4.99166921e-02 -5.93593679e-02
      -1.37877781e-02 8.89016986e-02 1.49492651e-01 2.55425163e-02
      -2.68512815e-02 -1.18894041e-01 3.19954334e-03 5.67425508e-04
      8.77124369e-02 -2.45105326e-02 4.20551114e-02 2.11666874e-03</_>
    <_>
      9.72945988e-01 -1.95028856e-01 9.09798890e-02 1.97598323e-01
      5.23680210e-01 3.67785916e-02 -6.74330220e-02 1.25612936e-03
      -3.89608778e-02 -2.79540941e-02 -4.63492014e-02 -4.51097339e-02
      -3.51702645e-02 -4.60180603e-02 4.12792228e-02 5.87739758e-02
      -6.25079498e-02 -5.48484139e-02 -4.52866554e-02 -1.98823493e-03
      -6.05848692e-02 2.52384529e-03 -6.40492663e-02 -8.78677219e-02
      -5.00000753e-02 7.33843371e-02 1.57044291e-01 4.38279584e-02
      -1.79901887e-02 -1.25008881e-01 -3.81461298e-03 7.11814873e-03
      8.30284283e-02 -3.55284177e-02 4.21174020e-02 1.75755285e-03</_>
    <_>
      -2.47955341e-02 -2.04111457e-01 9.29584429e-02 -1.23084383e-02
      -1.06620528e-02 -5.78610897e-02 -1.15267202e-01 3.83563004e-02
      -5.26008233e-02 -6.49104789e-02 1.49438512e-02 6.09691180e-02
      2.46330276e-02 -1.24847805e-02 7.84421265e-02 3.87164503e-02
      -6.62248209e-02 -2.13391613e-02 -1.56974178e-02 2.98418850e-03
      -5.86774349e-02 2.71828525e-04 -6.05934188e-02 -7.35313967e-02
      -3.95696089e-02 7.32509866e-02 1.64913744e-01 3.95029970e-02
      -1.86282936e-02 -1.32833630e-01 1.27081934e-04 1.29630733e-02
      8.32629651e-02 -3.13206390e-02 3.89514863e-02 6.89431652e-03</_>
    <_>
      -9.13285539e-02 -3.20833325e-01 8.29191729e-02 1.09295473e-01
      1.35497348e-02 -4.92458130e-05 1.19833986e-03 -8.35984200e-02
      -7.42290318e-02 -1.98026393e-02 -2.11076029e-02 -3.50567289e-02
      -2.45175567e-02 -3.81697714e-02 2.54808497e-02 1.30278012e-02
      -7.54303411e-02 -1.38484994e-02 -4.90328334e-02 3.16130444e-02
      -5.76680079e-02 -2.19077654e-02 -2.69642062e-02 -9.03055668e-02
      -3.24491598e-02 6.79813251e-02 1.52498573e-01 2.17612125e-02
      -2.30939239e-02 -1.19608000e-01 -1.33972904e-02 2.89077079e-03
      8.48628134e-02 -3.44363302e-02 3.95663157e-02 -1.29148588e-02</_>
    <_>
      3.12315132e-02 -1.14435315e-01 -6.76617399e-03 -1.67352818e-02
      2.73174867e-02 -8.08045641e-02 -4.73097377e-02 -2.50730868e-02
      1.71862135e-03 -3.07380371e-02 2.93801110e-02 -4.80129272e-02
      -2.31532659e-02 -3.24286595e-02 5.82159199e-02 5.05599603e-02
      -6.69622943e-02 -3.27148922e-02 -5.01054078e-02 4.32964042e-02
      -6.50869086e-02 -4.99961432e-03 -6.60805255e-02 -6.80661872e-02
      -2.02353261e-02 7.92807490e-02 1.40339568e-01 3.38378847e-02
      -1.38419727e-02 -1.32954061e-01 -6.40322827e-03 3.12516443e-03
      8.81604031e-02 -2.92383432e-02 3.88316698e-02 -7.85251241e-03</_>
    <_>
      3.78263332e-02 -9.73831043e-02 -5.77108329e-03 -2.25464143e-02
      2.19972935e-02 -7.98503682e-02 -6.85429722e-02 8.45028553e-03
      -6.34030346e-03 -3.09475493e-02 4.65351865e-02 -1.50921289e-02
      -1.23496335e-02 -2.05362886e-02 6.55418038e-02 5.28717563e-02
      -6.90756291e-02 -4.88698445e-02 -4.34138067e-02 3.20136175e-02
      -5.43678291e-02 -7.44120451e-03 -7.18013272e-02 -6.85445741e-02
      -1.59391649e-02 9.13879946e-02 1.45562500e-01 2.22309697e-02
      -1.63486041e-02 -1.30920410e-01 8.34165141e-03 -2.90917442e-03
      7.80477449e-02 -2.84911599e-02 5.38240075e-02 -6.82054088e-04</_>
    <_>
      1.31808236e-01 -8.35797861e-02 1.22727668e-02 -1.02173397e-02
      3.60367750e-03 3.93715873e-02 -3.56608331e-02 4.11086455e-02
      -5.04120849e-02 5.82004935e-02 1.11665772e-02 2.06421092e-02
      7.39510451e-03 -1.95895452e-02 4.11852784e-02 6.64954111e-02
      -9.97923836e-02 -3.81095372e-02 -3.24425176e-02 2.31942497e-02
      -5.06315120e-02 -1.54078361e-02 -3.30718011e-02 -6.27884865e-02
      -1.10117691e-02 8.07389840e-02 1.36637837e-01 3.22980620e-02
      -2.51336955e-02 -1.36873826e-01 1.83724496e-03 3.85987130e-03
      8.67585540e-02 -4.12616991e-02 3.89695168e-02 -1.02046411e-02</_>
    <_>
      2.95861922e-02 -1.30932182e-01 -2.73595899e-02 3.18313055e-02
      -1.50179826e-02 1.10787237e-02 -2.71454379e-02 -3.81094851e-02
      -6.44940212e-02 2.69599315e-02 2.62599643e-02 1.23652248e-02
      1.26540652e-02 -6.14908598e-02 3.71582434e-02 5.42462505e-02
      -9.14361700e-02 -4.52950373e-02 -3.19030248e-02 1.83517840e-02
      -6.33341298e-02 9.62103193e-04 -6.12327345e-02 -7.29551911e-02
      -2.26224698e-02 8.89958888e-02 1.51564196e-01 3.78154442e-02
      -1.80189107e-02 -1.33647427e-01 -9.82206408e-03 -3.54062940e-04
      8.64518508e-02 -2.76817698e-02 5.11037298e-02 1.34002650e-02</_>
    <_>
      -2.87308451e-02 -1.86411038e-01 2.71188449e-02 2.98398156e-02
      2.00436469e-02 -4.31505144e-02 -7.36191869e-02 -7.36606424e-04
      -3.71940322e-02 4.31549596e-03 -3.41017917e-02 2.17026789e-02
      1.35786377e-03 -4.08033952e-02 3.34300250e-02 4.40085381e-02
      -9.31270868e-02 -4.88055348e-02 -4.17201072e-02 1.97965540e-02
      -5.89908212e-02 -6.10362412e-03 -5.35663106e-02 -8.01151320e-02
      -9.25015472e-03 8.17577690e-02 1.40749484e-01 2.90481560e-02
      -1.72006246e-02 -1.40083268e-01 7.13519054e-03 7.93536007e-03
      9.03209075e-02 -3.81122045e-02 3.62433977e-02 -1.36473146e-03</_>
    <_>
      1.51127994e+00 -1.50800675e-01 5.30936569e-02 2.30966017e-01
      2.25428730e-01 -1.91180885e-03 -3.46707590e-02 -1.60420220e-02
      -6.06603399e-02 -3.57217267e-02 8.22709221e-03 -2.20969878e-02
      -2.47897785e-02 -4.18762751e-02 5.16825393e-02 4.07174192e-02
      -6.89137205e-02 -4.69499975e-02 -4.19658870e-02 1.28393611e-02
      -6.54689446e-02 -1.46269659e-03 -5.46582825e-02 -8.12591985e-02
      -3.21589448e-02 8.01044405e-02 1.42927393e-01 3.93738449e-02
      -2.17006672e-02 -1.29607528e-01 -4.27145744e-04 5.40632661e-03
      8.57914239e-02 -3.13078240e-02 3.99675928e-02 -1.87177549e-03</_>
    <_>
      1.71508163e-01 -6.68565631e-02 -6.87593818e-02 1.50479436e-01
      -1.36072710e-01 -1.00567736e-01 6.74064234e-02 5.56766130e-02
      -9.53148752e-02 4.11954820e-02 2.49482412e-02 2.35267039e-02
      -8.49653129e-03 3.27677559e-03 7.79215395e-02 4.26681973e-02
      -5.12312315e-02 -4.72640544e-02 -6.02798238e-02 4.48669754e-02
      -6.32287338e-02 -3.90574895e-02 -3.98102328e-02 -4.77037393e-02
      -3.22169438e-02 9.95480120e-02 1.23431548e-01 5.75191826e-02
      -2.25957427e-02 -1.29572690e-01 -2.88843568e-02 1.02914711e-02
      1.12574182e-01 -3.93047333e-02 2.94674896e-02 -8.56537465e-03</_>
    <_>
      1.19599625e-02 -1.00056864e-01 -2.05759257e-02 1.97763238e-02
      3.05674691e-03 -1.63587220e-02 -4.49229181e-02 -5.07219993e-02
      -4.80752774e-02 -1.58214755e-02 -6.67029852e-03 -5.49707236e-03
      -1.07155908e-02 -3.80552113e-02 3.64445597e-02 3.18181291e-02
      -5.13970442e-02 -4.25726660e-02 -5.13983965e-02 4.75798994e-02
      -6.36427179e-02 2.11562049e-02 -4.58009280e-02 -6.91217929e-02
      -1.60945822e-02 1.08047247e-01 1.37732208e-01 1.34383040e-02
      -1.57393217e-02 -1.27454087e-01 5.21064689e-03 6.73233112e-03
      9.99825075e-02 -2.99839955e-02 4.10886928e-02 1.34258820e-02</_>
    <_>
      3.20448242e-02 -1.11779094e-01 1.05505856e-02 -2.56407280e-02
      1.69218834e-02 -9.04812515e-02 -5.84187098e-02 1.03778671e-03
      6.01381529e-04 -2.44981069e-02 3.35769020e-02 -2.59925686e-02
      -2.04156507e-02 -3.48904468e-02 6.91886768e-02 5.02947271e-02
      -6.15033060e-02 -3.35084535e-02 -4.53301072e-02 3.12568471e-02
      -5.67445084e-02 -6.85208943e-03 -5.08149527e-02 -7.68340826e-02
      -2.51029767e-02 8.89046937e-02 1.49891600e-01 2.14228760e-02
      -3.01442910e-02 -1.28450483e-01 -1.13129672e-02 1.90530310e-03
      8.30911323e-02 -2.35732235e-02 5.35616241e-02 -7.99246319e-03</_>
    <_>
      5.66177927e-02 -9.72783267e-02 3.48175354e-02 -4.58938628e-02
      -8.65756650e-04 -1.02721974e-02 -3.42576299e-04 3.20660099e-02
      -6.77104071e-02 3.51419784e-02 2.26151124e-02 -2.12652013e-02
      9.65596735e-03 -3.39034870e-02 1.99642349e-02 4.97401431e-02
      -8.58712569e-02 -1.67245027e-02 -5.98612651e-02 3.73356193e-02
      -4.26409952e-02 2.43349206e-02 -4.21709828e-02 -7.39961714e-02
      -4.56508063e-03 7.98725933e-02 1.43019080e-01 3.59411016e-02
      -3.07337344e-02 -1.39950812e-01 -3.66169726e-03 3.00150225e-03
      9.69431475e-02 -2.64412388e-02 4.08445038e-02 9.54577059e-04</_>
    <_>
      4.81100893e-03 6.30170703e-02 1.20813370e-01 3.85158025e-02
      -2.46931817e-02 1.48124263e-01 1.97559208e-01 1.71222407e-02
      1.43632427e-01 -1.68790892e-01 2.05165073e-02 1.26338691e-01
      -5.13619743e-02 -7.00533167e-02 4.23619300e-02 3.16206701e-02
      -9.37434658e-02 -2.52670068e-02 -8.49737376e-02 -2.48119142e-02
      -1.23373441e-01 5.90298930e-03 -3.79069895e-02 -9.08498392e-02
      -3.27050015e-02 8.06100070e-02 1.38279006e-01 1.78895053e-02
      -1.90455969e-02 -1.35510221e-01 -2.12544110e-02 1.19417375e-02
      8.30219015e-02 -2.58735493e-02 4.24995907e-02 -9.44679230e-03</_>
    <_>
      4.96471040e-02 -1.01662211e-01 5.41877979e-03 -2.77282838e-02
      2.26840340e-02 -6.33523390e-02 -8.76796842e-02 -5.64452494e-03
      -2.02449299e-02 -2.29704827e-02 -5.84476767e-03 1.73729751e-02
      2.21731621e-04 -2.18564589e-02 7.70163164e-02 3.89297418e-02
      -6.42065257e-02 -2.29184106e-02 -5.17514311e-02 3.53710614e-02
      -6.11591935e-02 -1.56474113e-03 -3.96028273e-02 -7.76528865e-02
      -2.95195058e-02 8.48170966e-02 1.55486643e-01 4.23733033e-02
      -1.48107046e-02 -1.28047466e-01 -7.03089824e-03 4.67131194e-03
      8.38197619e-02 -1.54479425e-02 2.94199064e-02 -7.65207876e-03</_>
    <_>
      -7.13094175e-02 -2.75422931e-01 7.03437999e-02 7.16694370e-02
      -7.10499147e-03 4.07243439e-04 -2.67668925e-02 -4.50442731e-02
      -8.46824422e-02 -7.49499816e-03 -3.26486938e-02 7.60114845e-03
      -9.64690372e-03 -2.43572742e-02 4.40836921e-02 3.89539748e-02
      -5.32319732e-02 -3.69183235e-02 -4.77608927e-02 2.42176130e-02
      -6.50770366e-02 -5.20142028e-04 -5.65592498e-02 -8.52471367e-02
      -1.64239276e-02 8.58382955e-02 1.49874553e-01 2.48338915e-02
      -1.52988117e-02 -1.45305306e-01 -5.32730902e-03 9.82620567e-03
      7.81399608e-02 -3.76691148e-02 4.67227101e-02 -2.92543182e-03</_>
    <_>
      -9.27851796e-02 -3.23800445e-01 1.29534289e-01 9.07074139e-02
      -4.81602270e-03 -6.81467401e-03 -1.23442784e-02 1.80376082e-04
      -4.15760241e-02 1.72192045e-02 7.86524825e-03 -2.97440905e-02
      -2.44940538e-02 -5.89010902e-02 7.62221143e-02 4.28939462e-02
      -8.27392414e-02 -3.17077748e-02 -4.15579379e-02 3.88822854e-02
      -5.83657734e-02 -1.03411982e-02 -3.88987884e-02 -7.09007010e-02
      -2.34372672e-02 7.37321749e-02 1.35816947e-01 2.22725514e-02
      -3.41606215e-02 -1.41890436e-01 -4.82167490e-03 2.85607297e-03
      8.48588347e-02 -3.57709303e-02 4.06461097e-02 -5.16961934e-03</_>
    <_>
      -1.65651917e-01 -4.71573025e-01 2.15163082e-01 1.35745391e-01
      -5.81059651e-03 -6.34774864e-02 -2.72946805e-02 -2.16884743e-02
      -6.52508363e-02 -1.04345500e-01 -9.36015043e-04 -6.69888631e-02
      -4.98560891e-02 -3.82780209e-02 6.63757995e-02 1.89740013e-03
      -9.02626514e-02 -1.13847079e-02 -3.56534012e-02 2.35827398e-02
      -4.55894098e-02 -5.63929370e-03 -3.59178372e-02 -7.80497715e-02
      -3.77911553e-02 7.30548203e-02 1.53107032e-01 3.83629911e-02
      -3.48741598e-02 -1.48627460e-01 -6.19521039e-03 1.89321954e-02
      9.38263535e-02 -5.13449796e-02 2.56572794e-02 8.09396338e-03</_>
    <_>
      1.44696087e-01 -5.91436662e-02 -3.74007002e-02 2.82066148e-02
      -2.41101701e-02 -2.14924645e-02 -7.43325427e-03 -1.27085429e-02
      -1.69400759e-02 3.96399200e-02 -6.68139234e-02 -5.92974313e-02
      -5.70439287e-02 -2.25124806e-02 4.05595899e-02 1.23931475e-01
      -5.22720851e-02 -4.28259932e-02 -5.63327968e-02 2.85966545e-02
      -7.39339292e-02 -5.32228723e-02 -8.93204473e-03 -4.59726788e-02
      -1.21454084e-02 1.13586903e-01 1.59938693e-01 4.82047647e-02
      -3.17774825e-02 -1.23647943e-01 -1.39179518e-02 -1.30871572e-02
      9.03264433e-02 -4.44135554e-02 4.25846130e-02 -5.46510564e-03</_>
    <_>
      -5.13658784e-02 -2.39221707e-01 7.00092614e-02 6.12301752e-02
      -1.47473149e-03 1.73402752e-03 -2.33107600e-02 -9.24257562e-03
      -8.84867981e-02 -4.09325212e-03 -2.16886513e-02 5.08151297e-03
      1.60417380e-03 -3.07208020e-02 5.34608699e-02 4.87915203e-02
      -7.91917667e-02 -2.63935495e-02 -3.49946283e-02 2.47853827e-02
      -6.80063143e-02 -7.96735846e-03 -7.29772449e-02 -6.99323788e-02
      -1.86725687e-02 9.00780708e-02 1.22614339e-01 4.45907824e-02
      -1.62024442e-02 -1.37123853e-01 -5.20015229e-03 3.16485530e-03
      1.01046652e-01 -2.99021490e-02 4.26059105e-02 -1.97411440e-02</_>
    <_>
      9.72170308e-02 -3.66916806e-02 -7.78870657e-02 2.83612451e-03
