<?xml version="1.0"?>
<opencv_storage>
<opencv_ml_svm>
  <format>3</format>
  <svmType>C_SVC</svmType>
  <kernel>
    <type>RBF</type>
    <gamma>1.5000000000000001e-04</gamma></kernel>
  <C>1.0000000000000001e-01</C>
  <term_criteria><iterations>100</iterations></term_criteria>
  <var_count>36</var_count>
  <class_count>2</class_count>
  <class_labels type_id="opencv-matrix">
    <rows>2</rows>
    <cols>1</cols>
    <dt>i</dt>
    <data>
      0 1</data></class_labels>
  <sv_total>200</sv_total>
  <support_vectors>
    <_>
      5.61663434e-02 6.14750898e-03 -6.69023022e-02 4.52769874e-03
      -3.53024318e-03 -5.02221808e-02 1.01733275e-01 -7.35263452e-02
      -3.56444195e-02 -3.95422578e-02 -8.67605675e-03 -6.77601546e-02
      -1.07958801e-01 7.36001413e-03 -2.17089429e-02 -5.01443557e-02
      -6.09412715e-02 -3.83130535e-02 1.33495815e-02 3.49893095e-03
      -5.79334144e-03 -1.37228379e-02 1.77084450e-02 1.48976268e-02
      -2.34347712e-02 -3.51353781e-03 -2.57880590e-03 -6.34445483e-03
      -1.08131382e-03 7.85200670e-03 -1.19775031e-02 -5.10881143e-03
      4.10172017e-03 1.65040267e-03 5.48691954e-04 1.69139653e-01</_>
    <_>
      -1.45710617e-01 1.10309780e-01 -6.27988353e-02 1.44295786e-02
      -1.62718876e-03 -4.39072773e-02 1.14038795e-01 -8.67212489e-02
      -2.26593018e-02 -3.39351259e-02 -1.14792204e-02 -7.69049898e-02
      -1.12349465e-01 1.27928928e-02 -2.04670914e-02 -5.50630875e-02
      -6.36843666e-02 -3.72145213e-02 1.01563530e-02 3.20653128e-03
      -5.72677050e-03 -1.87335517e-02 1.66605599e-02 1.39432643e-02
      -2.37598419e-02 -3.42776231e-03 -4.36348189e-03 -5.73968329e-03
      -2.00097286e-03 7.85697438e-03 -1.17510036e-02 -5.17528458e-03
      3.34474980e-03 2.29887269e-03 -7.43217897e-05 1.69253469e-01</_>
    <_>
      5.07750548e-02 2.07197666e-02 -7.21431226e-02 -3.12030278e-02
      -2.30370201e-02 -8.59271288e-02 1.23307958e-01 -7.86333382e-02
      -4.32465374e-02 -2.77373511e-02 -4.45740903e-03 -5.78450933e-02
      -9.94126126e-02 1.46553908e-02 -1.66585278e-02 -6.82125539e-02
      -7.12805465e-02 -3.99054401e-02 1.13596292e-02 2.01763562e-03
      -7.34661426e-03 -1.59904733e-02 1.90884657e-02 1.43255014e-02
      -2.42543519e-02 -5.99795533e-03 1.23415623e-04 -5.29092969e-03
      6.81684378e-06 8.51036981e-03 -1.06702242e-02 -5.28825028e-03
      7.54857482e-03 1.85650785e-03 -2.73158483e-04 1.68458641e-01</_>
    <_>
      -2.22448498e-01 1.69101834e-01 -5.70773743e-02 2.39738636e-02
      -5.59390225e-02 -7.46576488e-02 9.20671672e-02 -9.46971327e-02
      -4.13995571e-02 -4.04241309e-02 -6.33645151e-03 -7.43115395e-02
      -1.13039635e-01 1.20898234e-02 -2.36379895e-02 -5.49128130e-02
      -6.31104931e-02 -3.70887779e-02 9.25844070e-03 1.42139301e-03
      -9.03543364e-03 -1.77265275e-02 1.76707301e-02 1.38097564e-02
      -2.43809912e-02 -4.09297459e-03 -4.62717377e-03 -6.46756403e-03
      4.00548393e-04 7.97634386e-03 -1.24419304e-02 -5.10045234e-03
      3.38837993e-03 2.06438499e-03 -2.70880148e-04 1.69485271e-01</_>
    <_>
      2.12125406e-02 3.21438350e-02 -7.16571212e-02 -1.88059844e-02
      6.41161110e-03 -6.35953099e-02 1.29915655e-01 -7.62289613e-02
      -2.84408163e-02 -2.74664816e-02 -1.41380318e-02 -8.54630619e-02
      -1.17823884e-01 8.15901533e-03 -1.78784542e-02 -5.40864281e-02
      -6.76948950e-02 -3.98749895e-02 1.46229155e-02 3.57076013e-03
      -4.44806763e-04 -2.06638463e-02 1.60429608e-02 1.38926404e-02
      -2.21341886e-02 -5.14492579e-03 -5.02314512e-03 -5.63778868e-03
      -3.34988319e-04 8.55422392e-03 -1.17652239e-02 -4.30790661e-03
      5.12309885e-03 2.87965010e-03 3.91767913e-04 1.68881118e-01</_>
    <_>
      -2.49660939e-01 1.91564947e-01 -5.43108732e-02 3.93404216e-02
      -7.53121451e-02 -5.42565435e-02 1.12956360e-01 -8.67428929e-02
      -4.09694277e-02 -4.78640683e-02 -8.16519838e-03 -7.40610436e-02
      -1.13613307e-01 1.06833959e-02 -2.22221483e-02 -5.59137911e-02
      -6.15815148e-02 -3.52144577e-02 9.20115691e-03 5.01488382e-03
      -6.92326296e-03 -1.66488104e-02 1.79342013e-02 1.30805029e-02
      -2.36040484e-02 -3.43743758e-03 -3.25682713e-03 -6.57525146e-03
      -2.14468164e-05 7.48951407e-03 -1.15902517e-02 -4.66043269e-03
      3.57406540e-03 2.18192674e-03 -3.23513057e-04 1.69340923e-01</_>
    <_>
      -1.96110561e-01 1.51392803e-01 -5.86299486e-02 3.34335379e-02
      -2.80356053e-02 -4.62214090e-02 1.14379898e-01 -8.33889693e-02
      -3.79311591e-02 -4.00881134e-02 -8.60412046e-03 -7.47942328e-02
      -1.11557171e-01 1.05434302e-02 -2.00141761e-02 -5.47171608e-02
      -6.19294979e-02 -3.65472771e-02 1.14253769e-02 2.69794045e-03
      -6.14262931e-03 -1.95677020e-02 1.80561505e-02 1.23882564e-02
      -2.22019330e-02 -4.94020432e-03 -4.06081695e-03 -7.04278843e-03
      -1.51314551e-03 9.09710303e-03 -1.18768122e-02 -5.25392825e-03
      3.61470506e-03 2.20771926e-03 -6.53522846e-04 1.69403702e-01</_>
    <_>
      -2.12106243e-01 1.60538435e-01 -5.64695857e-02 3.67044993e-02
      -3.03284861e-02 -3.20511982e-02 1.18953548e-01 -8.31008106e-02
      -3.54007147e-02 -4.23977263e-02 -1.04103442e-02 -7.32835233e-02
      -1.14716999e-01 1.30734723e-02 -1.94836073e-02 -5.61524853e-02
      -6.20521940e-02 -3.80230956e-02 1.07912747e-02 3.32740368e-03
      -5.28557273e-03 -1.79345068e-02 1.65898222e-02 1.27652753e-02
      -2.30981447e-02 -4.39355290e-03 -3.54593666e-03 -6.69950759e-03
      -1.71796035e-03 7.99675565e-03 -1.21778576e-02 -4.58347984e-03
      2.86758412e-03 1.87591847e-03 -3.84444895e-04 1.69463560e-01</_>
    <_>
      -2.11666822e-01 1.60707995e-01 -5.69662079e-02 3.47843543e-02
      -4.00110446e-02 -4.45591919e-02 1.13341145e-01 -8.06652158e-02
      -3.75065841e-02 -4.27302942e-02 -1.20096719e-02 -7.37003386e-02
      -1.15198039e-01 1.23305963e-02 -2.10393798e-02 -5.57009317e-02
      -6.27943426e-02 -3.65938842e-02 1.19299097e-02 2.63893488e-03
      -6.54747197e-03 -1.89676564e-02 1.70196127e-02 1.24582704e-02
      -2.27033217e-02 -3.74403480e-03 -3.98669532e-03 -7.81144528e-03
      -4.39485448e-04 8.18036217e-03 -1.22609437e-02 -4.79819532e-03
      3.04127927e-03 2.72907433e-03 -1.65913007e-04 1.69561282e-01</_>
    <_>
      -2.35391736e-01 1.75865129e-01 -5.57593927e-02 2.70440802e-02
      -6.96434304e-02 -8.40931088e-02 8.67024437e-02 -9.20900181e-02
      -4.58702594e-02 -4.65490595e-02 -8.94302595e-03 -7.26983175e-02
      -1.14251137e-01 1.04422467e-02 -2.41172928e-02 -5.39921522e-02
      -6.42372221e-02 -3.40204015e-02 9.48833302e-03 4.43837792e-03
      -6.03206502e-03 -1.78893246e-02 1.90840885e-02 1.14653995e-02
      -2.28626896e-02 -3.65139311e-03 -3.89209180e-03 -6.33059209e-03
      8.77908664e-04 7.51783326e-03 -1.19329644e-02 -4.90897428e-03
      3.67609272e-03 1.74781878e-03 9.83800128e-05 1.69470519e-01</_>
    <_>
      -1.65508792e-01 1.21679842e-01 -3.98304537e-02 3.56056504e-02
      -2.42031477e-02 -3.95913459e-02 9.22325402e-02 -7.58936927e-02
      -4.67074700e-02 -5.31050786e-02 -6.66956883e-03 -6.88735545e-02
      -1.15478106e-01 9.20077786e-03 -2.36553755e-02 -5.53801842e-02
      -6.08664490e-02 -3.85560580e-02 1.00507187e-02 3.30337416e-03
      -5.95324021e-03 -1.98771320e-02 2.00682413e-02 1.13638947e-02
      -2.33086571e-02 -4.74295300e-03 -3.26709752e-03 -6.46004360e-03
      -9.98846022e-04 6.94284728e-03 -1.31180091e-02 -4.00850968e-03
      4.38881479e-03 1.78849674e-03 3.43285756e-05 1.69553623e-01</_>
    <_>
      -1.51180878e-01 1.07232772e-01 -3.87640856e-02 1.56081682e-02
      -1.01910094e-02 -3.99128720e-02 1.09657675e-01 -8.68071690e-02
      -3.73391919e-02 -4.24427539e-02 -5.29300142e-03 -7.28725865e-02
      -1.14316136e-01 8.29606317e-03 -2.47081518e-02 -5.44128194e-02
      -6.50573969e-02 -3.56222317e-02 1.17008286e-02 -2.87017203e-03
      -5.62188495e-03 -1.84660424e-02 1.69362593e-02 1.40619474e-02
      -2.33909078e-02 -2.97706877e-03 -4.15539695e-03 -8.48382153e-03
      -1.90554268e-03 8.04519095e-03 -1.08677875e-02 -4.29433165e-03
      3.88363679e-03 2.03383784e-03 6.53368945e-04 1.69272214e-01</_>
    <_>
      1.44168464e-02 2.60985252e-02 -6.93480670e-02 -6.21583965e-03
      9.36739892e-03 -5.58239669e-02 1.04156420e-01 -7.97879025e-02
      -2.39059050e-02 -3.87202464e-02 -1.22635877e-02 -7.39909858e-02
      -1.10994570e-01 9.94525012e-03 -2.46468671e-02 -5.34803495e-02
      -6.40575364e-02 -3.40657718e-02 9.75814555e-03 3.92950745e-03
      -6.95106015e-03 -1.85119472e-02 1.76298600e-02 1.14860022e-02
      -2.41878442e-02 -2.33234791e-03 -2.83226767e-03 -3.81653733e-03
      -2.93131988e-03 8.55047628e-03 -1.21860215e-02 -5.22820977e-03
      4.03809361e-03 2.14386894e-03 -6.20057166e-04 1.69323713e-01</_>
    <_>
      -4.76450939e-03 3.90213206e-02 -6.88676834e-02 1.86878385e-03
      -2.66285962e-03 -6.24478124e-02 9.95702893e-02 -8.55795369e-02
      -3.21594439e-02 -3.72594669e-02 -1.74037423e-02 -7.45209008e-02
      -1.10879809e-01 8.95192195e-03 -2.19822917e-02 -5.33520281e-02
      -6.64208829e-02 -3.46022211e-02 1.09319258e-02 4.84994100e-03
      -3.72280926e-03 -1.76850874e-02 1.71491299e-02 1.19504062e-02
      -2.51132827e-02 -2.48293672e-03 -1.90914317e-03 -5.93087031e-03
      -7.32569548e-04 7.46484753e-03 -1.21922353e-02 -5.74730104e-03
      3.77049833e-03 2.10954412e-03 -1.46114337e-03 1.69349015e-01</_>
    <_>
      3.11146490e-03 3.44642103e-02 -6.83919787e-02 -8.45814496e-03
      4.05653426e-03 -5.64562678e-02 1.02841206e-01 -8.39725211e-02
      -2.22890694e-02 -3.22211049e-02 -1.40216490e-02 -7.29451329e-02
      -1.11268088e-01 1.15480414e-02 -2.50510946e-02 -5.49938306e-02
      -6.47670403e-02 -3.59868482e-02 9.16186161e-03 2.94519169e-03
      -5.77610917e-03 -1.61984917e-02 1.97159089e-02 1.23341782e-02
      -2.37193778e-02 -1.53504184e-03 -3.32420901e-03 -4.29227343e-03
      -1.27447513e-03 7.84878805e-03 -1.20953228e-02 -4.41337656e-03
      2.95713777e-03 1.38817786e-03 4.87285550e-04 1.69465184e-01</_>
    <_>
      3.29889357e-02 1.81216300e-02 -7.00563788e-02 -8.51399638e-03
      4.32550529e-04 -5.77606745e-02 1.02434516e-01 -8.33550766e-02
      -2.73360908e-02 -3.64651196e-02 -1.16463024e-02 -7.48407692e-02
      -1.10893667e-01 9.50432476e-03 -2.10543163e-02 -5.49021289e-02
      -6.35931715e-02 -3.70818861e-02 9.48758144e-03 4.61300509e-03
      -7.82185979e-03 -1.77440811e-02 2.06471030e-02 1.33972382e-02
      -2.28434652e-02 -4.18011239e-03 -3.12386476e-03 -6.11722656e-03
      -2.54282058e-04 6.97586499e-03 -1.22375851e-02 -5.57751767e-03
      1.43196667e-03 2.10283231e-03 -1.01959053e-03 1.69729009e-01</_>
    <_>
      -1.43116131e-01 1.00790836e-01 -6.35780022e-02 1.26180584e-02
      2.44914414e-03 -2.70412974e-02 1.32975444e-01 -8.15715492e-02
      -1.92930773e-02 -3.45857032e-02 -8.36537685e-03 -7.95972347e-02
      -1.14077985e-01 1.08758165e-02 -1.88219678e-02 -5.60355484e-02
      -6.18010722e-02 -3.80114838e-02 1.30084837e-02 2.21342989e-03
      -7.57466303e-03 -1.92908011e-02 1.71989854e-02 1.33901117e-02
      -2.30954513e-02 -3.26693035e-03 -3.89477634e-03 -4.66327835e-03
      -9.54852672e-04 7.08046416e-03 -1.13798082e-02 -5.81675163e-03
      2.59807264e-03 2.41543422e-03 -3.10188712e-04 1.69570416e-01</_>
    <_>
      -3.09681386e-01 2.32820019e-01 -4.97941971e-02 4.26950976e-02
      -1.18629180e-01 -8.30265135e-02 9.66320485e-02 -8.91434550e-02
      -5.38196117e-02 -6.71387166e-02 -5.73600829e-03 -7.00327754e-02
      -1.16052769e-01 1.21095413e-02 -2.79862136e-02 -5.53190894e-02
      -6.31363466e-02 -3.30294296e-02 7.26034073e-03 6.03507692e-03
      -7.15119531e-03 -1.69237498e-02 1.98972709e-02 1.29107228e-02
      -2.32403055e-02 -3.96575872e-03 -2.68175406e-03 -5.43019269e-03
      3.90232090e-05 7.57307746e-03 -1.17107956e-02 -4.70035709e-03
      4.17850493e-03 2.03663041e-03 -5.10879559e-04 1.69292957e-01</_>
    <_>
      4.95547540e-02 -2.75714742e-03 -7.30970949e-02 -1.63420830e-02
      8.08048155e-03 -6.59884661e-02 1.02652304e-01 -8.89219865e-02
      -3.51500958e-02 -4.15116362e-02 -9.83735919e-03 -7.50905126e-02
      -1.11950353e-01 7.56580615e-03 -2.37232279e-02 -5.78557290e-02
      -6.29761219e-02 -3.33214588e-02 9.86559037e-03 5.89995366e-03
      -8.24592635e-03 -1.71271227e-02 1.88988652e-02 1.17547484e-02
      -2.65152808e-02 -2.86768051e-03 -2.40843394e-03 -6.09850138e-03
      1.55989677e-04 7.80174974e-03 -1.13724396e-02 -5.34381252e-03
      4.28346219e-03 2.72116717e-03 -9.76779047e-05 1.69228330e-01</_>
    <_>
      -1.38469055e-01 1.11454122e-01 -6.03492297e-02 1.99527182e-02
      -2.50129141e-02 -4.05758917e-02 1.19560182e-01 -8.06537196e-02
      -3.31232138e-02 -4.48312238e-02 -9.63488314e-03 -7.24659860e-02
      -1.11982666e-01 8.40708334e-03 -2.21448261e-02 -5.41107804e-02
      -6.28548786e-02 -3.51695642e-02 1.28804585e-02 3.52250668e-03
      -6.08440535e-03 -1.93729326e-02 1.78322718e-02 1.19774137e-02
      -2.31801718e-02 -4.24410263e-03 -4.56722081e-03 -6.07824931e-03
      3.39878199e-04 8.38617515e-03 -1.13531798e-02 -5.36676915e-03
      2.62791873e-03 2.19943770e-03 -1.13539025e-03 1.69642195e-01</_>
    <_>
      -2.21508786e-01 1.66957915e-01 -5.47899902e-02 3.28557938e-02
      -3.31122428e-02 -1.65196862e-02 1.22819826e-01 -1.03790380e-01
      -3.43486518e-02 -3.84789146e-02 -8.51298776e-03 -7.13264123e-02
      -1.14820451e-01 1.41840568e-02 -2.21933629e-02 -5.53339608e-02
      -6.27985671e-02 -3.63377519e-02 1.10412510e-02 3.41493567e-03
      -5.15449373e-03 -1.73101369e-02 1.81258619e-02 1.25105903e-02
      -2.28298958e-02 -4.75536799e-03 -2.43748329e-03 -6.14111731e-03
      -6.16958889e-04 8.13559163e-03 -1.16298506e-02 -4.53018118e-03
      3.56778991e-03 2.06886721e-03 -4.23351536e-04 1.69362605e-01</_>
    <_>
      -2.49770835e-01 1.89180717e-01 -5.15791550e-02 4.08380963e-02
      -4.60618921e-02 -3.63556831e-03 1.27158731e-01 -1.11106284e-01
      -3.64982337e-02 -3.59260775e-02 -9.42842010e-03 -6.97150379e-02
      -1.13911122e-01 1.44414818e-02 -2.29869150e-02 -5.57245612e-02
      -6.08165003e-02 -3.57275158e-02 1.09745208e-02 1.17765309e-03
      -5.52460924e-03 -1.67433824e-02 1.75112374e-02 1.24587594e-02
      -2.36361902e-02 -5.13163442e-03 -2.79501174e-03 -6.15330506e-03
      3.47114372e-04 8.84811766e-03 -1.17112808e-02 -4.86170175e-03
      3.46055301e-03 2.45893560e-03 -2.50362849e-04 1.69478282e-01</_>
    <_>
      -2.23366514e-01 1.70276999e-01 -5.63088581e-02 2.54080370e-02
      -4.97433096e-02 -7.20762163e-02 1.00662366e-01 -8.54398832e-02
      -4.29324470e-02 -4.71263155e-02 -9.29349847e-03 -7.47949257e-02
      -1.12038791e-01 1.10107381e-02 -2.26135179e-02 -5.47739044e-02
      -6.25177175e-02 -3.60775962e-02 8.93416069e-03 3.78433219e-03
      -7.04048760e-03 -1.83630418e-02 1.84912905e-02 1.29590528e-02
      -2.36123987e-02 -3.65416659e-03 -3.89598520e-03 -5.71334315e-03
      -1.19348615e-03 8.33078846e-03 -1.18999444e-02 -5.19514084e-03
      3.63457366e-03 2.13929685e-03 -4.66002966e-04 1.69350311e-01</_>
    <_>
      3.94341536e-02 5.31279203e-03 -7.20689818e-02 -1.31513765e-02
      1.31347394e-02 -6.18283898e-02 1.12254791e-01 -7.86768720e-02
      -2.90293377e-02 -3.34476344e-02 -1.08247884e-02 -7.41850436e-02
      -1.12633526e-01 8.14524665e-03 -1.97870675e-02 -5.47723956e-02
      -6.52894452e-02 -3.68990786e-02 1.14828199e-02 4.06854600e-03
      -6.28702715e-03 -1.82474740e-02 1.85797252e-02 1.35762421e-02
      -2.39575841e-02 -4.19034855e-03 -3.11780255e-03 -5.44007868e-03
      1.72826066e-03 7.80254463e-03 -1.12279067e-02 -5.04830759e-03
      4.53870790e-03 2.91233603e-03 6.63533108e-04 1.69087619e-01</_>
    <_>
      1.44224176e-02 1.27695585e-02 -7.13660493e-02 -1.22045232e-02
      9.49933659e-03 -5.84108531e-02 1.15972869e-01 -7.54711106e-02
      -2.71001346e-02 -3.93052623e-02 -1.36302402e-02 -7.69929439e-02
      -1.12335175e-01 5.32659655e-03 -2.51991861e-02 -5.28424792e-02
      -6.21509477e-02 -3.43696550e-02 1.12254499e-02 1.71085226e-03
      -4.00915928e-03 -1.90813038e-02 2.18503885e-02 1.11701256e-02
      -2.41853110e-02 -3.70149780e-03 -2.49148975e-03 -5.66054694e-03
      -2.36395258e-03 7.03652715e-03 -1.14575680e-02 -4.14699921e-03
      4.13878495e-03 1.88396417e-03 -6.81636855e-04 1.69380412e-01</_>
    <_>
      -2.10815787e-01 1.61098570e-01 -5.91032021e-02 4.07225415e-02
      -8.91891196e-02 -5.45463152e-02 1.34640068e-01 -6.69460818e-02
      -2.42567174e-02 -3.54339220e-02 -1.18432157e-02 -8.23336914e-02
      -1.13367625e-01 8.41283519e-03 -2.12062858e-02 -5.38918078e-02
      -6.04199134e-02 -3.44684869e-02 1.02822492e-02 3.65585904e-03
      -7.80964317e-03 -1.73205156e-02 1.64040104e-02 1.33038210e-02
      -2.35027689e-02 -2.60579842e-03 -3.79504054e-03 -6.09253440e-03
      -1.64940068e-03 8.69225617e-03 -1.16524706e-02 -5.25636459e-03
      3.94508848e-03 1.88614626e-03 -3.90527508e-04 1.69246733e-01</_>
    <_>
      -2.27716714e-01 1.77103072e-01 -5.60755655e-02 4.02222909e-02
      -9.37133208e-02 -5.89795001e-02 1.22080080e-01 -7.33404160e-02
      -3.40405852e-02 -3.89464572e-02 -1.32382419e-02 -8.03623274e-02
      -1.15805149e-01 7.89100677e-03 -2.17961147e-02 -5.48523292e-02
      -6.22049421e-02 -3.40241604e-02 8.39307811e-03 3.81330890e-03
      -6.02764031e-03 -1.72707289e-02 1.73641015e-02 1.23549039e-02
      -2.26649921e-02 -2.76984693e-03 -3.98949906e-03 -6.19015424e-03
      -3.10305331e-04 8.73013306e-03 -1.16816862e-02 -4.67935624e-03
      3.40289879e-03 2.09143874e-03 -2.32945473e-04 1.69369042e-01</_>
    <_>
      -4.15201411e-02 4.88968529e-02 -6.60308003e-02 2.97203809e-02
      1.04190130e-02 -5.13477204e-03 1.08909972e-01 -7.12580532e-02
      -2.45511662e-02 -2.92229652e-02 -1.15699079e-02 -6.76439703e-02
      -1.21178389e-01 5.84185170e-03 -2.26030927e-02 -5.39682321e-02
      -6.56219050e-02 -3.82217690e-02 9.33621451e-03 1.19058334e-03
      -3.75637831e-03 -1.78957973e-02 1.71399005e-02 1.42316241e-02
      -2.46560723e-02 -4.95952833e-03 -3.50271165e-03 -6.67013088e-03
      -1.95412501e-03 9.19302553e-03 -1.27946381e-02 -4.99211857e-03
      3.38420132e-03 1.67540868e-03 1.25399951e-04 1.69297963e-01</_>
    <_>
      -2.23862842e-01 1.66892916e-01 -5.48965000e-02 2.56099571e-02
      -4.34799716e-02 -4.39848714e-02 1.04780063e-01 -1.00015238e-01
      -3.86010483e-02 -3.83571014e-02 -9.02054459e-03 -7.12792054e-02
      -1.14297390e-01 1.28337685e-02 -2.27432419e-02 -5.49036749e-02
      -6.33828789e-02 -3.68668586e-02 9.36866365e-03 4.18346003e-03
      -5.63179143e-03 -1.76472701e-02 1.84620414e-02 1.30966110e-02
      -2.28497889e-02 -4.30029584e-03 -3.35829402e-03 -6.31903298e-03
      -3.27066053e-04 8.40378925e-03 -1.17432103e-02 -4.59381798e-03
      3.29486071e-03 2.32757162e-03 -2.18080080e-04 1.69359207e-01</_>
    <_>
      -8.30118656e-02 6.82698190e-02 -6.11447990e-02 1.39142331e-02
      1.37360962e-02 -1.50226345e-02 1.02201790e-01 -8.39248076e-02
      -2.48895660e-02 -3.43529321e-02 -9.78531688e-03 -6.93488196e-02
      -1.19182125e-01 8.10225587e-03 -2.18036547e-02 -5.54191545e-02
      -6.49128333e-02 -3.89248319e-02 8.69291835e-03 1.95681374e-03
      -5.69861615e-03 -1.99080426e-02 2.06956789e-02 1.06098354e-02
      -2.34241448e-02 -5.18698804e-03 -4.36801556e-03 -5.36221685e-03
      -2.00413313e-04 8.42281058e-03 -1.19682988e-02 -6.05775556e-03
      3.34568857e-03 1.60855602e-03 -3.06313188e-04 1.69533476e-01</_>
    <_>
      6.24166913e-02 -2.30646087e-03 -7.06150010e-02 -3.06533882e-03
      -1.87089313e-02 -5.47303818e-02 8.98590311e-02 -9.12449285e-02
      -1.40399281e-02 -5.01976423e-02 -1.93439238e-02 -6.33233637e-02
      -1.21751107e-01 2.06448808e-02 -3.24612111e-02 -6.15023039e-02
      -6.49332330e-02 -3.77254598e-02 3.99580831e-03 1.96418236e-03
      -2.53881537e-03 -1.99927688e-02 1.51307592e-02 1.39982896e-02
      -2.62327828e-02 -7.68037466e-03 -6.62864326e-03 -5.71429543e-03
      4.66792844e-04 8.07313621e-03 -1.23055484e-02 -4.00561700e-03
      3.77588323e-03 2.65888334e-03 6.13161246e-04 1.69194102e-01</_>
    <_>
      2.09234823e-02 6.63521187e-03 -7.31221288e-02 -8.96842033e-03
      7.51488516e-03 -5.76336868e-02 1.10066548e-01 -7.77686685e-02
      -2.48911735e-02 -3.79579030e-02 -9.37056541e-03 -7.08132684e-02
      -1.13378957e-01 7.83657189e-03 -2.28392612e-02 -5.36619909e-02
      -6.48302883e-02 -3.70366462e-02 9.58666578e-03 3.64199001e-03
      -3.47318198e-03 -1.65530518e-02 1.78196114e-02 1.06696887e-02
      -2.41653174e-02 -4.49682632e-03 -6.50262926e-03 -6.12038327e-03
      -2.01767986e-03 7.75152352e-03 -1.12263132e-02 -5.27702272e-03
      3.56342131e-03 1.89532817e-03 -9.72015609e-04 1.69201776e-01</_>
    <_>
      -5.89363091e-03 3.25272828e-02 -6.97373450e-02 -9.25504416e-03
      7.12405285e-03 -7.20229372e-02 9.98450145e-02 -8.50596800e-02
      -3.42006050e-02 -3.73145267e-02 -1.21864025e-02 -7.50596449e-02
      -1.12191647e-01 5.83300600e-03 -2.19135769e-02 -5.53603098e-02
      -6.44776374e-02 -3.53123471e-02 1.19515425e-02 3.12380865e-03
      -4.51828679e-03 -1.74957607e-02 1.86318494e-02 1.16678094e-02
      -2.46656947e-02 -5.10335108e-03 -4.73705260e-03 -6.00248203e-03
      -3.23370215e-04 8.11156072e-03 -1.13832047e-02 -4.54917923e-03
      4.04847646e-03 2.85787927e-03 -2.52031226e-04 1.69182777e-01</_>
    <_>
      1.47849713e-02 9.57550760e-03 -7.25948066e-02 -5.16490871e-03
      8.85317475e-03 -5.27778976e-02 1.05936155e-01 -7.75580779e-02
      -2.37045567e-02 -4.07993421e-02 -1.27628688e-02 -7.41999149e-02
      -1.16197519e-01 9.30196140e-03 -2.30772477e-02 -5.63879460e-02
      -6.66001290e-02 -3.62159386e-02 9.98061802e-03 2.28776061e-03
      -5.57800289e-03 -1.85011327e-02 1.74323469e-02 1.28786759e-02
      -2.43321378e-02 -3.64841428e-03 -4.34113434e-03 -7.17334170e-03
      -3.04812216e-04 8.45850073e-03 -1.24438461e-02 -5.91882318e-03
      3.53600364e-03 2.89864908e-03 5.83470610e-05 1.69347703e-01</_>
    <_>
      -1.92841470e-01 1.43280730e-01 -5.87578379e-02 2.60570087e-02
      -4.77986708e-02 -3.73619013e-02 1.28730908e-01 -8.55122656e-02
      -2.99404580e-02 -4.36428338e-02 -8.80628452e-03 -7.56406486e-02
      -1.13688558e-01 1.15498379e-02 -2.33882256e-02 -5.53931631e-02
      -6.19755425e-02 -3.66848484e-02 9.50253755e-03 2.06917129e-03
      -5.54604782e-03 -1.74631011e-02 1.71044413e-02 1.34540508e-02
      -2.42909808e-02 -4.44289623e-03 -3.14476481e-03 -5.29690692e-03
      4.47953615e-04 8.79395846e-03 -1.15526943e-02 -5.20209270e-03
      4.81528370e-03 2.32383399e-03 -4.04284539e-04 1.69147044e-01</_>
    <_>
      -5.41074499e-02 4.42225821e-02 -4.89172190e-02 4.86400118e-03
      3.45464610e-03 -4.22125235e-02 1.14475377e-01 -8.43065158e-02
      -1.68329049e-02 -4.01152447e-02 -1.24449171e-02 -8.06912109e-02
      -1.10966742e-01 1.43021690e-02 -2.03067660e-02 -5.48795834e-02
      -6.49748594e-02 -3.34470905e-02 1.15084564e-02 1.63611665e-03
      -5.44655230e-03 -1.94013547e-02 1.44692883e-02 1.53847821e-02
      -2.16204617e-02 -3.64509597e-03 -2.77679903e-03 -6.76968507e-03
      -1.82081317e-03 6.59032166e-03 -6.84794411e-03 -3.24412296e-03
      3.93563369e-03 2.41923635e-03 -8.67409515e-04 1.68676108e-01</_>
    <_>
      -5.62858209e-02 6.11623935e-02 -6.26071021e-02 6.15925808e-03
      -7.35717127e-03 -5.50174676e-02 8.21736827e-02 -9.45678204e-02
      -3.68687771e-02 -3.70573960e-02 -9.93795320e-03 -6.92853853e-02
      -1.15319856e-01 5.96318208e-03 -2.54032053e-02 -5.36959395e-02
      -6.29947484e-02 -3.43965888e-02 1.03633069e-02 3.65001871e-03
      -3.63898044e-03 -1.94847565e-02 1.88911408e-02 1.25487428e-02
      -2.37229187e-02 -5.71971992e-03 -2.50061229e-03 -4.49771248e-03
      -5.92830882e-04 9.23935231e-03 -1.21004554e-02 -5.61076961e-03
      3.38112842e-03 2.25973502e-03 -1.36040413e-04 1.69490561e-01</_>
    <_>
      -5.24388142e-02 5.92474416e-02 -6.60651401e-02 1.96613418e-03
      -4.96445177e-03 -7.14589208e-02 8.51925388e-02 -8.71814862e-02
      -3.92722264e-02 -3.95630747e-02 -4.87389695e-03 -7.04395771e-02
      -1.12376682e-01 6.43870048e-03 -2.47057751e-02 -5.25679626e-02
      -6.64025322e-02 -3.77594978e-02 1.12748025e-02 3.57655855e-03
      -5.54240821e-03 -1.82547122e-02 1.96048245e-02 1.57057513e-02
      -2.26290990e-02 -3.84893431e-03 -4.47617238e-03 -5.16043883e-03
      -9.72831564e-04 6.59307232e-03 -1.23841036e-02 -5.26456488e-03
      4.01239609e-03 1.34381722e-03 -1.58498588e-05 1.69269145e-01</_>
    <_>
      -1.15760438e-01 9.37150344e-02 -6.55781776e-02 9.72388498e-03
      -3.63351330e-02 -5.01267724e-02 1.22614287e-01 -8.41073543e-02
      -2.37306617e-02 -4.37684543e-02 -9.13204439e-03 -7.22003207e-02
      -1.12726644e-01 1.40646929e-02 -2.48637311e-02 -5.24748750e-02
      -6.43956289e-02 -3.86042371e-02 1.23612061e-02 2.63425289e-03
      -6.41372288e-03 -1.88168399e-02 1.92945506e-02 1.52986152e-02
      -2.40907054e-02 -1.84250320e-03 -3.63102159e-03 -5.33666229e-03
      -2.19585418e-04 8.14460497e-03 -1.15307020e-02 -5.31566748e-03
      3.56046157e-03 1.94962230e-03 -1.63942506e-03 1.69409722e-01</_>
    <_>
      -6.61523044e-02 5.89469336e-02 -6.96924254e-02 1.43425800e-02
      -1.65026765e-02 -5.48800342e-02 1.07815340e-01 -7.85233974e-02
      -2.49680523e-02 -3.77405770e-02 -9.97137651e-03 -7.10145086e-02
      -1.13688596e-01 9.24727879e-03 -2.46614702e-02 -5.11543304e-02
      -6.35429025e-02 -3.79689671e-02 1.01071857e-02 5.27106645e-03
      -5.14268735e-03 -1.63115729e-02 1.55607797e-02 1.25940703e-02
      -2.52600498e-02 -4.11636382e-03 -2.15922296e-03 -5.43190446e-03
      -1.32520928e-03 8.96825828e-03 -1.13549856e-02 -5.84961241e-03
      2.52514193e-03 2.29235366e-03 -1.57387857e-03 1.69373214e-01</_>
    <_>
      -1.42395437e-01 1.16828792e-01 -6.58325478e-02 2.20697429e-02
      -3.45154591e-02 -7.37212002e-02 1.10368960e-01 -7.68757686e-02
      -3.38540450e-02 -3.90286557e-02 -1.44940820e-02 -8.13629925e-02
      -1.09525241e-01 7.76787382e-03 -2.06431169e-02 -5.55804931e-02
      -6.14472143e-02 -3.44899260e-02 8.83831177e-03 2.67222011e-03
      -6.57849154e-03 -1.67061426e-02 1.71390809e-02 1.18714226e-02
      -2.47846264e-02 -4.57005110e-03 -2.02086661e-03 -6.30907109e-03
      2.18354995e-04 6.43401127e-03 -1.19150942e-02 -4.95431805e-03
      4.42189537e-03 2.06910656e-03 -2.17223409e-04 1.69249564e-01</_>
    <_>
      -1.15634128e-01 1.07066840e-01 -6.63948357e-02 2.94928700e-02
      -5.31869456e-02 -5.87937199e-02 1.08743854e-01 -8.02540705e-02
      -2.45983787e-02 -4.24254388e-02 -1.16371419e-02 -7.81715065e-02
      -1.13208793e-01 7.77369738e-03 -2.37018354e-02 -5.58931008e-02
      -6.19843975e-02 -3.32968533e-02 8.79515521e-03 2.83071352e-03
      -6.85410248e-03 -1.71561837e-02 1.74189266e-02 1.19094281e-02
      -2.50612032e-02 -2.90855300e-03 -3.87592707e-03 -6.89884135e-03
      -4.98358277e-04 7.58620678e-03 -1.19570168e-02 -5.41286077e-03
      4.00292687e-03 2.06139847e-03 5.69809286e-04 1.69330105e-01</_>
    <_>
      -7.36327767e-02 7.60546401e-02 -6.80302158e-02 1.38125960e-02
      -3.11593935e-02 -6.95271045e-02 1.06520027e-01 -7.52636194e-02
      -1.90928858e-02 -4.14482877e-02 -1.19973365e-02 -7.38220513e-02
      -1.10026166e-01 1.18062198e-02 -2.47969441e-02 -5.57212196e-02
      -6.03184700e-02 -3.63427661e-02 1.02532012e-02 3.19075398e-03
      -5.94740501e-03 -1.98375322e-02 1.93673410e-02 1.11234924e-02
      -2.37063561e-02 -3.85460560e-03 -3.56071093e-03 -5.76268090e-03
      2.31200131e-04 8.06377362e-03 -1.16022583e-02 -4.58405493e-03
      2.60474486e-03 1.57807674e-03 -5.67239767e-04 1.69755474e-01</_>
    <_>
      -1.10706240e-01 9.28582624e-02 -6.75556362e-02 1.57658197e-02
      -4.88152429e-02 -6.97903410e-02 1.04223073e-01 -8.86218026e-02
      -2.12666318e-02 -2.86087953e-02 -1.54645620e-02 -7.84425363e-02
      -1.11612111e-01 1.00567946e-02 -2.29127686e-02 -5.55818379e-02
      -6.50410727e-02 -3.43859978e-02 1.23681398e-02 3.70059488e-03
      -4.82054148e-03 -1.94034912e-02 1.57209300e-02 1.26163308e-02
      -2.43625343e-02 -3.93894734e-03 -5.22229075e-03 -5.37732290e-03
      -5.46565629e-04 7.67377252e-03 -1.19204093e-02 -4.66396008e-03
      3.25189624e-03 1.92293723e-03 -2.51586956e-04 1.69415876e-01</_>
    <_>
      -8.91640112e-02 8.39638859e-02 -6.29687756e-02 2.37514824e-02
      -1.62466820e-02 -4.28308211e-02 8.70460346e-02 -9.79631618e-02
      -3.36599238e-02 -4.43525538e-02 -5.62365027e-03 -6.70113564e-02
      -1.12181097e-01 9.73191950e-03 -2.32337881e-02 -5.52224964e-02
      -6.28951564e-02 -3.63474526e-02 1.23254256e-02 4.45842830e-04
      -5.76719316e-03 -1.87061913e-02 1.97268706e-02 1.14932628e-02
      -2.20576525e-02 -4.14942345e-03 -3.88144027e-03 -6.98380079e-03
      -1.54298928e-03 7.29861716e-03 -1.12450486e-02 -4.18094592e-03
      3.43495049e-03 1.74626871e-03 -1.16666476e-03 1.69563547e-01</_>
    <_>
      -1.68256328e-01 1.39240548e-01 -5.55992573e-02 3.49271335e-02
      -4.54817526e-02 -5.24201468e-02 1.09559022e-01 -7.64108449e-02
      -3.88506241e-02 -3.95298228e-02 -1.25162648e-02 -7.24788234e-02
      -1.12516008e-01 9.06290580e-03 -2.10435130e-02 -5.50042391e-02
      -6.13209791e-02 -3.47485878e-02 1.10350596e-02 6.05006097e-03
      -5.82408858e-03 -1.87478177e-02 1.83735546e-02 1.24368276e-02
      -2.32577603e-02 -4.99845622e-03 -4.37180558e-03 -5.95298363e-03
      -1.16086367e-03 8.69017467e-03 -1.16754789e-02 -4.72734543e-03
      3.25082545e-03 1.45231362e-03 -3.65191314e-04 1.69381753e-01</_>
    <_>
      -1.38904050e-01 1.11187205e-01 -6.19013272e-02 2.04671826e-02
      -4.14954536e-02 -3.87051143e-02 1.16030954e-01 -9.57773104e-02
      -2.22761650e-02 -2.80269980e-02 -1.50744077e-02 -7.82324225e-02
      -1.10310279e-01 1.05860988e-02 -1.96253341e-02 -5.50412126e-02
      -6.23328723e-02 -3.79314832e-02 8.98720790e-03 3.08975810e-03
      -5.33343805e-03 -1.48692746e-02 1.77990235e-02 1.30035067e-02
      -2.42635459e-02 -3.42810946e-03 -3.26357782e-03 -7.35650398e-03
      -1.44560530e-03 9.82583314e-03 -1.16487313e-02 -4.30481508e-03
      2.76054046e-03 2.14459770e-03 -5.08473713e-05 1.69212818e-01</_>
    <_>
      -9.34189931e-02 8.30305591e-02 -7.05995709e-02 1.77761968e-02
      -3.37876230e-02 -9.26992670e-02 1.01579398e-01 -6.08561113e-02
      -2.39513330e-02 -4.19562198e-02 -1.12950234e-02 -7.60950297e-02
      -1.11327261e-01 9.89212375e-03 -2.25032941e-02 -5.60373329e-02
      -6.34674132e-02 -3.79003584e-02 1.05769830e-02 4.67169983e-03
      -4.86586243e-03 -1.91690605e-02 1.77201033e-02 1.24110822e-02
      -2.41624340e-02 -2.16687284e-03 -3.78992152e-03 -7.96827767e-03
      -7.40176009e-04 7.75021221e-03 -1.12416912e-02 -5.37616434e-03
      2.44592805e-03 1.97937130e-03 -5.87977120e-04 1.69546604e-01</_>
    <_>
      5.53445444e-02 -9.79056954e-02 6.24132454e-01 1.12882897e-01
      4.34721448e-03 -1.09207407e-01 1.25176698e-01 -1.02318771e-01
      -1.30923958e-02 -4.20405120e-02 5.76802809e-03 -7.11846426e-02
      -1.07682452e-01 5.50353061e-03 -2.62051132e-02 -5.65140024e-02
      -6.68097883e-02 -3.13544720e-02 1.17453290e-02 7.73839012e-04
      -4.65824734e-03 -2.02549919e-02 1.46337645e-02 1.48149962e-02
      -3.02458014e-02 -7.53037166e-04 -4.92206961e-03 -6.15598261e-03
      1.19125492e-04 7.79911457e-03 -1.14968996e-02 -1.10732727e-02
      3.49011505e-03 2.04463862e-03 -1.10737863e-03 1.69660419e-01</_>
    <_>
      -6.63583726e-02 6.15519397e-02 -6.99939579e-02 6.50397409e-03
      -5.17020794e-03 -7.25474283e-02 9.55198035e-02 -7.46528283e-02
      -1.90229621e-02 -3.73060443e-02 -7.76874973e-03 -7.28299841e-02
      -1.15240403e-01 1.07614184e-02 -2.17040423e-02 -5.68281077e-02
      -6.42083362e-02 -3.91782634e-02 1.32904975e-02 3.69987404e-03
      -4.96880384e-03 -1.88151263e-02 1.69822574e-02 1.18309800e-02
      -2.32652184e-02 -3.89677589e-03 -4.48223064e-03 -7.19587877e-03
      -2.00999639e-04 9.45870299e-03 -1.16019947e-02 -5.40552428e-03
      3.98311811e-03 2.52514938e-03 -2.37837347e-04 1.69301882e-01</_>
    <_>
      -7.79533684e-02 7.22465217e-02 -6.56034574e-02 2.36375704e-02
      -1.47808539e-02 -3.14837471e-02 9.68362167e-02 -9.49908569e-02
      -2.94250380e-02 -3.81844901e-02 -1.40789859e-02 -7.12384954e-02
      -1.12458326e-01 8.62276740e-03 -2.34861486e-02 -5.70775196e-02
      -6.32164404e-02 -3.47559191e-02 1.05988346e-02 3.10784020e-03
      1.40889897e-03 -2.19296869e-02 1.83707904e-02 8.43843725e-03
      -2.32826155e-02 -3.05735855e-03 -2.54776515e-03 -5.22548007e-03
      -6.10353745e-05 9.09972563e-03 -1.21372743e-02 -5.26117859e-03
      3.44962371e-03 2.55297474e-03 -1.21677015e-03 1.69828713e-01</_>
    <_>
      -1.57307044e-01 1.32033542e-01 -6.17925189e-02 3.93161476e-02
      -6.31608367e-02 -7.42036253e-02 9.19942409e-02 -7.52338246e-02
      -4.23988476e-02 -4.19306532e-02 -1.13019096e-02 -7.38002285e-02
      -1.12003781e-01 7.95022305e-03 -2.23215241e-02 -5.72954528e-02
      -6.25486001e-02 -3.48677337e-02 7.56321475e-03 2.58372189e-03
      -7.28962431e-03 -1.69308782e-02 1.83552001e-02 1.19268158e-02
      -2.39711851e-02 -2.79116398e-03 -2.76243966e-03 -6.05607871e-03
      5.52411948e-04 8.20079073e-03 -1.26462001e-02 -4.74265125e-03
      3.06665269e-03 2.26732157e-03 4.76673507e-04 1.69614509e-01</_>
    <_>
      -1.64105301e-03 3.18017006e-02 -7.17088580e-02 -2.90679233e-03
      -7.45418062e-03 -6.20436110e-02 1.04818486e-01 -7.82417282e-02
      -1.34428553e-02 -3.78391594e-02 -1.38781713e-02 -7.23136291e-02
      -1.13963649e-01 1.48903411e-02 -2.54310500e-02 -5.43723367e-02
      -6.23517111e-02 -3.57229970e-02 1.35710854e-02 3.89010692e-03
      -6.13874570e-03 -1.80755369e-02 1.78598929e-02 1.31394882e-02
      -2.44243052e-02 -4.20692464e-04 -4.32568789e-03 -5.52357966e-03
      -4.38358344e-04 9.00483504e-03 -1.23735424e-02 -5.07382024e-03
      1.94278383e-03 1.17698184e-03 3.70436494e-04 1.69803962e-01</_>
    <_>
      -1.49613574e-01 1.13809653e-01 -6.67421818e-02 2.16898881e-02
      -1.44993281e-02 -7.21474960e-02 1.03198476e-01 -8.58142003e-02
      -3.12829353e-02 -4.11496051e-02 -1.32954605e-02 -7.76600242e-02
      -1.10367320e-01 1.33419344e-02 -1.97791159e-02 -5.76650351e-02
      -6.18663877e-02 -3.74665670e-02 8.96056835e-03 3.89804109e-03
      -3.79310176e-03 -1.98894627e-02 1.71351191e-02 1.03031211e-02
      -2.34762616e-02 -3.54955718e-03 -2.50138738e-03 -5.36552770e-03
      -9.88857471e-04 7.57033890e-03 -1.15476549e-02 -4.70004138e-03
      2.92105996e-03 2.17242143e-03 -2.39737958e-04 1.69563502e-01</_>
    <_>
      -1.61157846e-01 1.28923014e-01 -6.37912676e-02 1.94645096e-02
      -3.03761810e-02 -7.86802098e-02 1.00738786e-01 -8.56532827e-02
      -3.66447084e-02 -3.78281735e-02 -1.51687935e-02 -8.03369209e-02
      -1.08348608e-01 9.40497220e-03 -1.86959952e-02 -5.66991456e-02
      -6.20875768e-02 -3.54491025e-02 9.87039320e-03 3.82375228e-03
      -3.95559845e-03 -1.89146996e-02 1.75078325e-02 9.51570552e-03
      -2.43145712e-02 -3.64005193e-03 -4.05210862e-03 -5.57148037e-03
      -2.37622535e-05 7.19594350e-03 -1.16911456e-02 -4.80170408e-03
      3.44905886e-03 1.96813978e-03 -2.13657375e-04 1.69505864e-01</_>
    <_>
      -9.73574966e-02 9.91299525e-02 -5.88358641e-02 3.69523987e-02
      -1.61506981e-02 1.17445402e-02 1.26062885e-01 -1.02283590e-01
      -2.22116485e-02 -2.66274344e-02 -1.32708726e-02 -7.22118020e-02
      -1.11927688e-01 1.04901576e-02 -2.16126386e-02 -5.54656461e-02
      -6.44380003e-02 -3.38454992e-02 1.04289968e-02 1.45755755e-03
      -6.13573985e-03 -1.40254209e-02 1.66855380e-02 9.53476690e-03
      -2.43292060e-02 -2.93688732e-03 -2.22841860e-03 -5.29921288e-03
      1.19355228e-03 8.67761765e-03 -1.14247221e-02 -4.09060903e-03
      3.45560769e-03 1.97935011e-03 -8.82543274e-04 1.69452921e-01</_>
    <_>
      -6.74443170e-02 5.78195453e-02 -6.52018636e-02 2.96313353e-02
      5.40883467e-03 -3.82189639e-02 9.67421159e-02 -7.10030273e-02
      -2.58944854e-02 -4.23713028e-02 -1.02071427e-02 -7.02054426e-02
      -1.15205631e-01 5.71966637e-03 -2.29770448e-02 -5.59352934e-02
      -6.35227412e-02 -3.63811962e-02 9.05045774e-03 3.24876793e-03
      -4.14786953e-03 -2.13286355e-02 1.80565696e-02 1.32471742e-02
      -2.25643460e-02 -3.60104349e-03 -4.16425383e-03 -6.88833883e-03
      2.58787232e-03 8.25992413e-03 -1.15719484e-02 -5.28255058e-03
      2.68021901e-03 2.68756505e-03 -4.13839822e-04 1.69711277e-01</_>
    <_>
      -7.41562098e-02 7.14195445e-02 -4.35459539e-02 2.64181551e-02
      -1.27141969e-02 -3.01544014e-02 9.98154283e-02 -7.11334497e-02
      -3.51611264e-02 -3.77043635e-02 -1.97935235e-02 -7.10427463e-02
      -1.18089519e-01 6.28366554e-03 -2.40084361e-02 -5.44730760e-02
      -6.16119206e-02 -3.63002270e-02 8.74405075e-03 5.88191999e-03
      -3.23312706e-03 -2.10916586e-02 1.96202081e-02 1.20805986e-02
      -2.37062629e-02 -3.83565156e-03 -2.31013726e-03 -6.43315632e-03
      7.71115534e-04 7.97985215e-03 -1.17477570e-02 -4.81570791e-03
      3.33120115e-03 1.55416445e-03 -2.30980164e-04 1.69567823e-01</_>
    <_>
      -9.85169634e-02 7.99789727e-02 -5.95899560e-02 2.01620720e-02
      -2.38530040e-02 -3.12466491e-02 1.07177801e-01 -6.76161647e-02
      -3.40763330e-02 -4.47669141e-02 -5.74743841e-03 -7.29007795e-02
      -1.15973279e-01 1.53460738e-03 -2.29901802e-02 -5.36440946e-02
      -6.62065744e-02 -3.50478813e-02 9.97983757e-03 8.28851573e-03
      -7.06127565e-03 -2.27190237e-02 1.89924035e-02 1.46854119e-02
      -2.34227963e-02 -3.63862724e-03 -4.72851889e-03 -5.20563405e-03
      3.96766409e-04 7.24496786e-03 -1.11291287e-02 -6.16936525e-03
      3.49461962e-03 2.11441400e-03 -1.50224171e-03 1.69371560e-01</_>
    <_>
      1.54125504e-04 2.78384686e-02 -5.57062738e-02 1.90344453e-02
      1.51421875e-02 -3.55176255e-02 7.66082183e-02 -6.82770982e-02
      -4.01423685e-02 -3.92868295e-02 -1.98075431e-03 -7.05925003e-02
      -1.08342119e-01 1.38193078e-03 -2.08299737e-02 -5.73411733e-02
      -6.03732355e-02 -3.73238623e-02 1.53166605e-02 2.10759812e-03
      -7.61038391e-03 -1.93673298e-02 1.47454105e-02 1.26650156e-02
      -2.36720499e-02 -2.38726987e-03 -2.56327796e-03 -6.48745894e-03
      -6.40737417e-05 7.88943656e-03 -1.13834664e-02 -3.59732285e-03
      3.00065242e-03 2.23500794e-03 -4.02852493e-05 1.69734374e-01</_>
    <_>
      -5.88532090e-02 6.41239658e-02 -6.07492700e-02 9.93232708e-03
      1.78612433e-02 -2.80993897e-02 9.41818729e-02 -7.83943385e-02
      -2.92428508e-02 -3.74678597e-02 -6.63942983e-03 -7.08961114e-02
      -1.10935949e-01 5.71352569e-03 -1.83184054e-02 -5.49090877e-02
      -6.45885170e-02 -4.12250869e-02 1.11341495e-02 6.69027795e-04
      -7.06988154e-03 -1.75907202e-02 1.67655516e-02 1.20613053e-02
      -2.46978309e-02 -4.05952567e-03 -4.58931783e-04 -7.45926332e-03
      5.82661363e-04 1.07427193e-02 -1.25212362e-02 -5.24493773e-03
      2.94683850e-03 2.59887706e-03 -4.02828591e-04 1.69546798e-01</_>
    <_>
      1.23430684e-03 3.13025974e-02 -6.63543940e-02 -5.39756753e-03
      -8.46377667e-03 -7.87222609e-02 8.60496759e-02 -8.00306275e-02
      -2.47695129e-02 -3.53452563e-02 -1.19341547e-02 -7.30656013e-02
      -1.07393138e-01 9.17865522e-03 -2.35623773e-02 -5.65612577e-02
      -6.29184991e-02 -3.62010300e-02 8.08947999e-03 2.99844774e-03
      -5.31994971e-03 -1.92953348e-02 1.78610887e-02 1.33949304e-02
      -2.51011960e-02 -3.67241213e-03 -4.38333489e-03 -5.18751703e-03
      -1.94625929e-03 6.98792748e-03 -1.17290793e-02 -5.71484677e-03
      2.70262058e-03 2.21007806e-03 -9.57137207e-04 1.69503003e-01</_>
    <_>
      -1.15637153e-01 7.62327239e-02 -6.41972944e-02 8.93768854e-03
      -4.46772203e-03 -5.12252524e-02 9.59240124e-02 -8.09774697e-02
      -2.61390377e-02 -4.43030410e-02 -4.65618772e-03 -7.04190508e-02
      -1.14290543e-01 1.10379495e-02 -2.27723420e-02 -5.30038849e-02
      -6.52219281e-02 -4.07344289e-02 1.15881963e-02 2.83418642e-03
      -7.34200282e-03 -1.85320824e-02 1.57828387e-02 1.06776161e-02
      -2.42818668e-02 -2.40709772e-03 -2.41571385e-03 -6.83327392e-03
      -4.62522032e-04 8.35759472e-03 -1.19651007e-02 -5.59448544e-03
      2.94351741e-03 2.98110163e-03 -3.68166402e-05 1.69579357e-01</_>
    <_>
      -2.13202298e-01 1.52141377e-01 -5.59147410e-02 1.89998951e-02
      -3.61705981e-02 -3.42511982e-02 1.16263799e-01 -9.82973948e-02
      -3.18009295e-02 -3.47379893e-02 -9.61759407e-03 -7.51767829e-02
      -1.15734190e-01 1.36514893e-02 -2.29884032e-02 -5.47180660e-02
      -6.40509576e-02 -3.61779407e-02 1.01619912e-02 1.63869793e-03
      -5.86510543e-03 -1.88151598e-02 1.81000475e-02 1.30452299e-02
      -2.31567007e-02 -3.95857729e-03 -3.65768350e-03 -6.46514073e-03
      -9.06708941e-04 8.50276649e-03 -1.21105202e-02 -4.97495802e-03
      3.71921156e-03 2.15222221e-03 -1.47590385e-04 1.69382051e-01</_>
    <_>
      -2.03668997e-01 1.48402393e-01 -5.70686013e-02 1.38293486e-02
      -4.68817428e-02 -5.77052124e-02 1.11800127e-01 -8.90707448e-02
      -3.16018127e-02 -3.21043208e-02 -9.45938099e-03 -7.92813897e-02
      -1.15411758e-01 1.11014051e-02 -2.20794342e-02 -5.44683672e-02
      -6.45862445e-02 -3.63493674e-02 9.88159329e-03 2.48637632e-03
      -6.17133174e-03 -1.94929522e-02 1.67815294e-02 1.31441588e-02
      -2.29687002e-02 -3.62170301e-03 -3.28421290e-03 -6.82920450e-03
      8.91927863e-04 7.48753687e-03 -1.19712744e-02 -4.91762115e-03
      4.06503212e-03 2.13142158e-03 -3.68140260e-04 1.69381112e-01</_>
    <_>
      -9.60323289e-02 8.61191750e-02 -6.30788729e-02 1.42203392e-02
      -2.53654197e-02 -5.13921417e-02 1.09382868e-01 -8.06755722e-02
      -3.09529603e-02 -3.94822545e-02 -9.63035785e-03 -7.31273964e-02
      -1.15354292e-01 6.51061721e-03 -2.09790263e-02 -5.38115986e-02
      -6.31567016e-02 -3.64812650e-02 9.86501016e-03 3.74359940e-03
      -3.66335758e-03 -1.60817578e-02 1.69026889e-02 1.29526481e-02
      -2.28857026e-02 -4.30229912e-03 -4.27182904e-03 -6.94963057e-03
      1.08004606e-04 6.70209667e-03 -1.12218345e-02 -4.72027902e-03
      3.18810903e-03 2.00929074e-03 -1.13398745e-03 1.69326127e-01</_>
    <_>
      -8.80754441e-02 6.98149130e-02 -6.61075190e-02 7.80443102e-03
      -1.24161560e-02 -6.13981225e-02 1.03374906e-01 -7.87493885e-02
      -3.26664597e-02 -4.19209749e-02 -8.71615577e-03 -7.58858621e-02
      -1.10770158e-01 6.61632046e-03 -2.16094982e-02 -5.60727790e-02
      -6.25529960e-02 -3.65211815e-02 1.10528916e-02 3.95746622e-03
      -7.12759746e-03 -1.61325801e-02 1.76428296e-02 1.18762422e-02
      -2.58037038e-02 -5.09193074e-03 -4.62287758e-03 -7.04343477e-03
      -5.11334802e-04 8.92096665e-03 -1.16809998e-02 -5.65482024e-03
      3.25147272e-03 2.36168713e-03 -2.69917567e-04 1.69289365e-01</_>
    <_>
      6.21497305e-03 2.71335393e-02 -6.92669526e-02 -4.61288448e-03
      -4.39200224e-03 -6.61345571e-02 9.55268219e-02 -7.75362328e-02
      -2.90629528e-02 -3.06850504e-02 -9.98380408e-03 -7.20674843e-02
      -1.12646714e-01 9.07313731e-03 -2.01099254e-02 -5.36007434e-02
      -6.60911053e-02 -4.03367281e-02 9.60565638e-03 3.94658325e-03
      -5.84662752e-03 -1.61119215e-02 1.77057758e-02 1.28565924e-02
      -2.32566334e-02 -2.76943645e-03 -3.80581245e-03 -7.01030483e-03
      5.19240333e-04 8.79625697e-03 -1.19737880e-02 -3.63539299e-03
      5.07504167e-03 1.42720470e-03 -8.86440685e-04 1.68998957e-01</_>
    <_>
      -9.84840840e-03 2.50388738e-02 -6.73653930e-02 -6.46746019e-03
      1.17866870e-03 -5.82411736e-02 9.62404013e-02 -8.54992121e-02
      -3.13056670e-02 -3.88938747e-02 -7.31369713e-03 -6.84582144e-02
      -1.13868043e-01 9.92152747e-03 -2.39980333e-02 -5.33316582e-02
      -6.67952001e-02 -3.73969302e-02 9.66755766e-03 5.15546883e-03
      -5.13875065e-03 -1.92426946e-02 1.95399132e-02 1.40231112e-02
      -2.24505868e-02 -3.57268983e-03 -4.96054301e-03 -5.25578344e-03
      -1.43091311e-04 8.30913801e-03 -1.18509457e-02 -3.48895835e-03
      2.52607954e-03 1.40972389e-03 -2.39639106e-04 1.69459075e-01</_>
    <_>
      5.92405461e-02 -5.10861445e-03 -6.89222142e-02 -1.53103033e-02
      -4.49909922e-03 -5.00558876e-02 1.14672147e-01 -7.78185204e-02
      -3.38652208e-02 -4.56743911e-02 -8.38321261e-03 -7.12262988e-02
      -1.14381038e-01 7.02623371e-03 -2.23787948e-02 -5.24826795e-02
      -6.61466420e-02 -3.79673429e-02 9.52417497e-03 2.28583161e-03
      -4.84013371e-03 -1.84829086e-02 1.95725113e-02 1.38588613e-02
      -2.31640674e-02 -2.68761604e-03 -2.48907413e-03 -5.33534354e-03
      -3.56331962e-04 8.77978653e-03 -1.10109756e-02 -4.01821174e-03
      4.30468051e-03 2.60934955e-03 -2.53486156e-04 1.69106290e-01</_>
    <_>
      7.52301945e-04 1.06322309e-02 -5.17330691e-02 3.05063762e-02
      1.04420027e-02 -3.69215496e-02 9.12413150e-02 -6.67014420e-02
      -3.62564735e-02 -3.82233337e-02 -1.27965705e-02 -6.92790970e-02
      -1.04738384e-01 6.81906473e-03 -2.93465629e-02 -5.61896227e-02
      -6.34320006e-02 -2.86733378e-02 6.51183072e-03 9.68708098e-03
      -7.35466275e-03 -2.21992079e-02 2.16513947e-02 1.25650475e-02
      -2.42944658e-02 -3.70066054e-03 -2.18731374e-03 -4.21022438e-03
      -9.61305632e-04 1.02454871e-02 -1.34118255e-02 -6.27006497e-03
      3.97587614e-03 4.58177552e-03 -1.09714863e-03 1.69532850e-01</_>
    <_>
      4.76403907e-02 5.01577789e-03 -7.07571507e-02 -7.77683873e-03
      9.86877694e-06 -5.49888946e-02 1.11684613e-01 -7.81693980e-02
      -2.81510204e-02 -4.36491519e-02 -9.42506641e-03 -7.23136663e-02
      -1.13444641e-01 7.70336483e-03 -2.37578899e-02 -5.32501377e-02
      -6.49796724e-02 -3.80008928e-02 1.02378465e-02 2.64926348e-03
      -3.23519041e-03 -1.77303664e-02 1.67830698e-02 1.10092675e-02
      -2.29411405e-02 -4.85965284e-03 -2.02839822e-03 -6.20369660e-03
      7.99612142e-04 7.95133598e-03 -1.11201471e-02 -4.51192260e-03
      3.90794175e-03 1.52197876e-03 1.39906319e-04 1.69301674e-01</_>
    <_>
      -6.14256971e-02 6.44418821e-02 -6.64980114e-02 2.27584057e-02
      -1.68446042e-02 -5.21790422e-02 1.06274910e-01 -6.95613697e-02
      -3.52966934e-02 -4.02986072e-02 -1.11425733e-02 -6.97574615e-02
      -1.12478726e-01 6.21642312e-03 -2.32515689e-02 -5.24606109e-02
      -6.52182773e-02 -3.75431329e-02 1.55709134e-02 -8.98381579e-04
      -6.98108179e-03 -2.02574264e-02 2.11917013e-02 1.37963425e-02
      -2.30144039e-02 -5.50259044e-03 -2.97633093e-03 -6.63026329e-03
      -2.69842660e-03 7.65520940e-03 -1.26533862e-02 -5.86583931e-03
      2.82129948e-03 1.98099413e-03 9.97613024e-05 1.69650808e-01</_>
    <_>
      3.96030962e-01 3.54536802e-01 -5.61614633e-02 4.30033058e-02
      -1.80598255e-02 -5.63919656e-02 1.01449229e-01 -8.25542510e-02
      -2.63820197e-02 -4.20522504e-02 -7.60184461e-03 -7.21338019e-02
      -1.11452326e-01 1.05036013e-02 -2.19406541e-02 -5.47117740e-02
      -6.23705201e-02 -3.64921652e-02 1.04381023e-02 3.98161821e-03
      -4.60124994e-03 -1.84714831e-02 1.75141878e-02 1.03176245e-02
      -2.38593090e-02 -4.36120946e-03 -3.37497704e-03 -4.51093307e-03
      -7.66116835e-04 7.64188869e-03 -1.14351027e-02 -4.88793664e-03
      3.53540294e-03 1.98604888e-03 1.19766737e-04 1.69428319e-01</_>
    <_>
      -2.05347165e-02 -1.63946804e-02 -1.06085241e-01 1.88144788e-01
      -1.51371872e-02 -5.26459962e-02 1.09036110e-01 -8.84417146e-02
      -3.54817845e-02 -3.47805806e-02 -2.07667369e-02 -7.49305189e-02
      -1.03559375e-01 1.15915230e-02 -1.76703278e-02 -5.72621971e-02
      -6.48421645e-02 -3.76687087e-02 9.95233003e-03 7.13073881e-03
      -9.34537873e-03 -2.35139895e-02 2.23513991e-02 1.31349927e-02
      -2.10304093e-02 -4.39331634e-03 -3.28364712e-03 -6.46922411e-03
      -7.76988629e-04 8.29170924e-03 -1.27124107e-02 -4.78257239e-03
      2.48715957e-03 2.73470976e-03 -6.99823897e-04 1.69619396e-01</_>
    <_>
      -5.15317870e-03 1.59809198e-02 -7.31147528e-02 4.05395450e-03
      -4.47238004e-03 -6.43407851e-02 9.85841528e-02 -8.29859078e-02
      -2.40945965e-02 -3.84797566e-02 -1.10696275e-02 -7.30403662e-02
      -1.10955000e-01 1.01034148e-02 -2.35571340e-02 -5.48792854e-02
      -6.35025874e-02 -3.37419361e-02 1.27321407e-02 1.10084494e-03
      -6.83822203e-03 -1.99807417e-02 1.72154065e-02 1.40249617e-02
      -2.50014141e-02 -3.44477803e-03 -2.88106315e-03 -8.38111434e-03
      1.17391092e-03 7.70996697e-03 -1.21440785e-02 -4.48079826e-03
      2.77373404e-03 2.59118271e-03 -1.43439544e-03 1.69724569e-01</_>
    <_>
      3.55989709e-02 -6.25810698e-02 3.11773926e-01 7.35675842e-02
      -7.96034560e-03 -7.36211389e-02 8.24502036e-02 -8.17525014e-02
      -3.68586667e-02 -3.63759026e-02 -4.05722484e-02 -6.81670755e-02
      -1.25573382e-01 1.62191577e-02 -2.30685528e-02 -5.73096462e-02
      -5.86120933e-02 -3.92717421e-02 1.21262195e-02 3.59909073e-03
      -6.11565774e-03 -1.66392848e-02 1.92675460e-02 1.42299235e-02
      -2.40102746e-02 -3.81922442e-03 -1.57511130e-03 -4.86684730e-03
      -3.02046992e-05 7.33497553e-03 -9.72715300e-03 -6.59914222e-03
      3.70482681e-03 2.37136311e-03 -9.30273905e-04 1.69175997e-01</_>
    <_>
      2.92829722e-02 4.76601645e-02 -7.89000914e-02 4.84825931e-02
      2.63183564e-03 -6.30102977e-02 9.86173972e-02 -7.79098794e-02
      -3.03770155e-02 -3.44521739e-02 -1.95351634e-02 -7.00221434e-02
      -1.12156682e-01 1.20216208e-02 -2.25366820e-02 -6.03084341e-02
      -6.01018593e-02 -3.70826088e-02 1.07267462e-02 2.80066836e-03
      -3.53333703e-03 -1.91879086e-02 1.91037059e-02 1.27763124e-02
      -2.36851145e-02 -4.30792896e-03 -3.26561066e-03 -7.47725228e-03
      1.03986438e-03 8.47787596e-03 -1.24267070e-02 -4.54058964e-03
      3.29996180e-03 1.93500833e-03 -4.64364653e-04 1.69652149e-01</_>
    <_>
      -3.17502506e-02 8.86002034e-02 -7.47160837e-02 4.05058712e-02
      1.40090231e-02 -2.33008806e-02 1.38128921e-01 -8.19001421e-02
      -2.80849095e-02 -4.29230928e-02 -1.35683697e-02 -7.55691156e-02
      -1.13958016e-01 1.22556845e-02 -1.99943110e-02 -5.68826608e-02
      -6.43467084e-02 -3.79335433e-02 1.31337661e-02 3.71727045e-03
      -1.75756367e-03 -1.85142644e-02 1.97935961e-02 1.32973194e-02
      -2.27433089e-02 -3.71159893e-03 -2.55475985e-03 -7.39366747e-03
      -1.03412349e-04 7.76917534e-03 -1.15605295e-02 -5.21856546e-03
      3.30633577e-03 1.89713703e-03 -1.15689076e-03 1.69415906e-01</_>
    <_>
      5.57354353e-02 2.27462687e-02 -6.82471916e-02 -1.51240295e-02
      -9.71140864e-04 -5.34424223e-02 1.13889873e-01 -8.35435987e-02
      -3.26952860e-02 -4.27523330e-02 -1.29035795e-02 -7.62206912e-02
      -1.14671603e-01 7.78433261e-03 -2.36158054e-02 -5.21271341e-02
      -6.52022809e-02 -3.67106125e-02 9.28458292e-03 4.11866745e-03
      -3.16556892e-03 -2.00351458e-02 1.84337441e-02 1.21113770e-02
      -2.45768093e-02 -5.74274501e-03 -3.49153159e-03 -6.51529757e-03
      1.90517516e-04 6.64805062e-03 -1.15847364e-02 -5.08836145e-03
      3.99792334e-03 1.96622219e-03 -1.45759957e-03 1.69282988e-01</_>
    <_>
      9.73900408e-02 1.88070253e-01 -7.72337765e-02 9.67211500e-02
      3.65611375e-03 -3.84496860e-02 1.22200198e-01 -5.19452542e-02
      -2.90015340e-02 -6.66846409e-02 -2.45322119e-02 -7.23051578e-02
      -1.11099869e-01 1.30846119e-02 -1.51448548e-02 -5.70838600e-02
      -6.23691343e-02 -4.02650237e-02 1.05544059e-02 4.75096470e-03
      -5.45385014e-03 -1.93184651e-02 1.95360929e-02 1.38218608e-02
      -2.20500045e-02 -1.10591669e-03 -4.82057640e-03 -7.34724198e-03
      -8.65325623e-04 7.84778781e-03 -1.17295953e-02 -4.51701973e-03
      3.47081525e-03 2.38503586e-03 -3.04351182e-04 1.69259682e-01</_>
    <_>
      -9.35372859e-02 7.14355856e-02 -6.39637560e-02 2.84795649e-02
      -1.71852652e-02 -4.16079722e-02 8.78642872e-02 -8.25425237e-02
      -2.82530785e-02 -4.58239578e-02 -6.28936524e-03 -7.01100901e-02
      -1.18862472e-01 8.55767634e-03 -2.20064949e-02 -5.57432473e-02
      -6.24176301e-02 -4.12512049e-02 1.16956867e-02 1.98812247e-03
      -7.81513005e-03 -1.66651085e-02 1.91175304e-02 1.24901049e-02
      -2.39367746e-02 -4.43082908e-03 -4.76454152e-03 -5.12678735e-03
      1.38163217e-03 9.22675617e-03 -1.25014493e-02 -5.06591704e-03
      4.19237232e-03 2.14143051e-03 -5.47644217e-04 1.69392914e-01</_>
    <_>
      5.58632538e-02 -7.46843778e-03 -7.02134967e-02 -1.05882809e-02
      -6.02359744e-03 -4.93399203e-02 1.17306888e-01 -8.08327049e-02
      -3.49337868e-02 -4.22225893e-02 -1.02792913e-02 -7.31331259e-02
      -1.14403635e-01 8.26414395e-03 -2.38226373e-02 -5.13703935e-02
      -6.64516836e-02 -3.64201926e-02 1.04664667e-02 3.12997354e-03
      -5.30370045e-03 -1.95018779e-02 1.54372239e-02 1.15019837e-02
      -2.46790946e-02 -3.01055890e-03 -3.28343711e-03 -6.27746200e-03
      -4.57140646e-04 9.47047118e-03 -1.16560534e-02 -4.94647911e-03
      4.47756844e-03 3.05465632e-03 -2.46045791e-04 1.69186816e-01</_>
    <_>
      9.99548361e-02 -2.23059021e-02 -1.18024871e-01 1.46499187e-01
      4.50794073e-03 -8.37610066e-02 1.03648528e-01 -8.51551518e-02
      -3.15226242e-02 -4.56802323e-02 -3.77028971e-03 -7.47983903e-02
      -1.16707765e-01 1.14193093e-02 -2.25037131e-02 -5.24135455e-02
      -6.32100925e-02 -3.96850705e-02 1.06672328e-02 4.17086668e-03
      -7.55823031e-03 -1.89086273e-02 1.83098856e-02 1.36084836e-02
      -2.38633752e-02 -2.55726604e-03 -2.83243135e-03 -5.30309323e-03
      3.99447716e-04 7.78836850e-03 -1.16686858e-02 -4.10029292e-03
      3.29177361e-03 2.37340387e-03 -7.34253321e-04 1.69444367e-01</_>
    <_>
      -4.03009914e-02 4.89091463e-02 -6.76001608e-02 1.38811453e-03
      1.17624458e-02 -3.88062373e-02 1.11161001e-01 -8.47414061e-02
      -1.90639012e-02 -3.60682718e-02 -1.30726183e-02 -7.41801709e-02
      -1.13547370e-01 1.05171287e-02 -2.29973104e-02 -5.48388697e-02
      -6.52635917e-02 -3.82750779e-02 1.16406064e-02 1.30964804e-03
      -7.78915780e-03 -1.86843537e-02 1.93615146e-02 1.26776323e-02
      -2.38351319e-02 -3.66746215e-03 -4.86438442e-03 -6.73366897e-03
      -2.70436081e-04 7.81169301e-03 -1.17324963e-02 -4.90135932e-03
      2.94884527e-03 1.86616322e-03 -1.16527977e-03 1.69503331e-01</_>
    <_>
      -6.09786138e-02 5.91882393e-02 -6.96605295e-02 -5.16658882e-03
      -1.58733893e-02 -7.20094070e-02 1.15463711e-01 -7.61398822e-02
      -2.93075331e-02 -4.36440445e-02 -1.05458107e-02 -7.46866837e-02
      -1.10894985e-01 1.00959726e-02 -2.47420128e-02 -5.48010767e-02
      -6.29936382e-02 -3.74286324e-02 9.88293253e-03 1.52437040e-03
      -5.05803199e-03 -1.85009725e-02 1.98176503e-02 1.06191458e-02
      -2.45953910e-02 -1.85043504e-03 -2.94044777e-03 -5.30096982e-03
      -1.12644513e-04 7.88696203e-03 -1.12767620e-02 -5.59259951e-03
      4.21710685e-03 1.88673311e-03 -5.35907748e-04 1.69459164e-01</_>
    <_>
      -4.44749594e-02 4.33825776e-02 -7.06000701e-02 1.45727093e-03
      7.24476576e-03 -5.94840720e-02 1.05974011e-01 -8.38002041e-02
      -2.58087609e-02 -3.81066091e-02 -1.09792622e-02 -7.25140870e-02
      -1.12947419e-01 1.19961463e-02 -2.34585926e-02 -5.42259701e-02
      -6.42020032e-02 -3.74839269e-02 1.07577546e-02 3.13514331e-03
      -3.47794523e-03 -1.72737446e-02 1.74847152e-02 1.45340404e-02
      -2.45692879e-02 -2.81148311e-03 -1.20919384e-03 -6.03279192e-03
      1.36295997e-03 9.42463335e-03 -1.19991805e-02 -5.05112717e-03
      2.37380504e-03 2.44666007e-03 -2.87518400e-04 1.69560954e-01</_>
    <_>
      -1.37767885e-02 3.59521173e-02 -6.29800558e-02 -2.91647576e-03
      9.12895519e-03 -4.05688956e-02 1.08734630e-01 -7.81992376e-02
      -1.92872509e-02 -4.67651971e-02 -1.23018976e-02 -7.48376697e-02
      -1.02632172e-01 8.58175103e-03 -2.00871136e-02 -4.92601655e-02
      -6.94779232e-02 -3.79102342e-02 1.18527887e-02 3.40942852e-03
      -5.79770608e-03 -1.81041211e-02 1.95823181e-02 1.25407530e-02
      -2.21878719e-02 -1.43244001e-03 -4.47502779e-03 -7.27178669e-03
      -1.79585200e-04 7.72833219e-03 -7.76979420e-03 -5.06438268e-03
      4.53648996e-03 1.98259298e-03 5.64059417e-04 1.68652460e-01</_>
    <_>
      -4.44639809e-02 5.27862124e-02 -6.71927631e-02 1.03808404e-03
      6.40722644e-03 -4.57632802e-02 1.08375035e-01 -8.36240873e-02
      -2.43117567e-02 -3.66550833e-02 -1.88431870e-02 -7.76819587e-02
      -1.07411973e-01 9.69465822e-03 -1.82590466e-02 -5.29142581e-02
      -6.80872053e-02 -3.82015146e-02 1.09421834e-02 1.63828267e-03
      -8.75236373e-03 -1.59703288e-02 1.93683729e-02 1.47191742e-02
      -2.42232885e-02 -4.30578133e-03 -6.57808594e-03 -6.89802971e-03
      8.39894172e-04 7.65782921e-03 -1.25681935e-02 -5.68864401e-03
      2.49807280e-03 1.95335830e-03 7.18269221e-05 1.69287980e-01</_>
    <_>
      -6.03372557e-03 1.35886883e-02 -4.17556018e-02 3.34451869e-02
      1.77849911e-03 -3.05828359e-02 8.86831805e-02 -6.79348335e-02
      -4.42176536e-02 -3.56749780e-02 -2.30360292e-02 -6.94132075e-02
      -1.03371933e-01 8.48319009e-03 -2.53680553e-02 -5.70498183e-02
      -6.75795227e-02 -3.12163197e-02 7.51009071e-03 1.28383953e-02
      -8.11000541e-03 -2.02172566e-02 2.12812182e-02 1.33461338e-02
      -2.40756366e-02 -4.60771332e-03 -4.52349428e-03 -5.31814527e-03
      -1.21644768e-03 1.04013924e-02 -1.49754062e-02 -4.62191878e-03
      3.34886857e-03 3.88807221e-03 -3.19172337e-04 1.69357166e-01</_>
    <_>
      3.55989709e-02 -6.25810698e-02 3.11773926e-01 7.35675842e-02
      -7.96034560e-03 -7.36211389e-02 8.24502036e-02 -8.17525014e-02
      -3.68586667e-02 -3.63759026e-02 -4.05722484e-02 -6.81670755e-02
      -1.25573382e-01 1.62191577e-02 -2.30685528e-02 -5.73096462e-02
      -5.86120933e-02 -3.92717421e-02 1.21262195e-02 3.59909073e-03
      -6.11565774e-03 -1.66392848e-02 1.92675460e-02 1.42299235e-02
      -2.40102746e-02 -3.81922442e-03 -1.57511130e-03 -4.86684730e-03
      -3.02046992e-05 7.33497553e-03 -9.72715300e-03 -6.59914222e-03
      3.70482681e-03 2.37136311e-03 -9.30273905e-04 1.69175997e-01</_>
    <_>
      3.00297923e-02 1.22543210e-02 -7.07396790e-02 -1.13455132e-02
      1.55962468e-03 -6.46736473e-02 1.01969294e-01 -8.09694454e-02
      -2.87784133e-02 -3.38608660e-02 -1.20228687e-02 -7.21223950e-02
      -1.12029351e-01 9.16398410e-03 -2.29683518e-02 -5.28948195e-02
      -6.21266477e-02 -3.63543853e-02 1.12354076e-02 4.00941912e-03
      -6.72960142e-03 -1.58642549e-02 1.99345369e-02 1.25135547e-02
      -2.46338584e-02 -4.08671517e-03 -4.84976545e-03 -6.72297413e-03
      -1.21737295e-03 9.05165356e-03 -1.18460320e-02 -3.75002646e-03
      2.70065921e-03 1.49077736e-03 -7.47381942e-04 1.69393674e-01</_>
    <_>
      1.10657932e-03 2.81025916e-02 -7.21158087e-02 -2.05438142e-03
      -4.65357909e-03 -6.76733404e-02 9.58660766e-02 -8.48729759e-02
      -2.51100883e-02 -3.46248709e-02 -8.98624491e-03 -6.96456581e-02
      -1.10560365e-01 1.15716178e-02 -2.39650439e-02 -5.31372502e-02
      -6.53826594e-02 -3.50011848e-02 8.50771274e-03 4.39893827e-03
      -2.31730402e-03 -1.82343386e-02 1.68255344e-02 1.35580860e-02
      -2.44256016e-02 -1.99725572e-03 -2.78510037e-03 -4.29538218e-03
      -2.82091438e-03 8.83930083e-03 -1.16065657e-02 -5.31263696e-03
      2.18346389e-03 1.41182460e-03 -1.93477594e-04 1.69461042e-01</_>
    <_>
      4.60697375e-02 5.30515844e-03 -7.25702867e-02 -8.63039587e-03
      1.16661109e-03 -5.48273101e-02 1.15642056e-01 -7.93667734e-02
      -2.89728381e-02 -4.34117578e-02 -1.04022948e-02 -7.51752555e-02
      -1.14849173e-01 7.66060408e-03 -2.34324560e-02 -5.34153618e-02
      -6.33725747e-02 -3.73293422e-02 9.72842146e-03 5.19275758e-03
      -3.30094271e-03 -1.81753505e-02 1.96202565e-02 1.04146926e-02
      -2.39625052e-02 -5.32451319e-03 -1.83353072e-03 -6.39922637e-03
      2.43857066e-04 7.60854781e-03 -1.08476589e-02 -5.45173418e-03
      4.42233589e-03 1.88510737e-03 -5.17668435e-04 1.69180423e-01</_>
    <_>
      -6.14256971e-02 6.44418821e-02 -6.64980114e-02 2.27584057e-02
      -1.68446042e-02 -5.21790422e-02 1.06274910e-01 -6.95613697e-02
      -3.52966934e-02 -4.02986072e-02 -1.11425733e-02 -6.97574615e-02
      -1.12478726e-01 6.21642312e-03 -2.32515689e-02 -5.24606109e-02
      -6.52182773e-02 -3.75431329e-02 1.55709134e-02 -8.98381579e-04
      -6.98108179e-03 -2.02574264e-02 2.11917013e-02 1.37963425e-02
      -2.30144039e-02 -5.50259044e-03 -2.97633093e-03 -6.63026329e-03
      -2.69842660e-03 7.65520940e-03 -1.26533862e-02 -5.86583931e-03
      2.82129948e-03 1.98099413e-03 9.97613024e-05 1.69650808e-01</_>
    <_>
      2.72310805e-02 8.79377220e-03 -7.08475485e-02 -2.01106481e-02
      1.01164926e-03 -6.14594258e-02 1.08726434e-01 -8.67921412e-02
      -2.86424253e-02 -4.20645252e-02 -1.08432798e-02 -7.62822405e-02
      -1.13090530e-01 8.25117063e-03 -2.38626171e-02 -5.66738993e-02
      -6.51996061e-02 -3.44305038e-02 1.03595667e-02 2.92100292e-03
      -6.36899984e-03 -1.77249257e-02 1.92336999e-02 1.11575266e-02
      -2.46762782e-02 -4.69864206e-03 -4.28087404e-03 -7.64792319e-03
      7.62863143e-04 7.47292396e-03 -1.15652448e-02 -5.12629468e-03
      4.45551239e-03 2.76543107e-03 7.55265064e-04 1.69189498e-01</_>
    <_>
      -2.05347165e-02 -1.63946804e-02 -1.06085241e-01 1.88144788e-01
      -1.51371872e-02 -5.26459962e-02 1.09036110e-01 -8.84417146e-02
      -3.54817845e-02 -3.47805806e-02 -2.07667369e-02 -7.49305189e-02
      -1.03559375e-01 1.15915230e-02 -1.76703278e-02 -5.72621971e-02
      -6.48421645e-02 -3.76687087e-02 9.95233003e-03 7.13073881e-03
      -9.34537873e-03 -2.35139895e-02 2.23513991e-02 1.31349927e-02
      -2.10304093e-02 -4.39331634e-03 -3.28364712e-03 -6.46922411e-03
      -7.76988629e-04 8.29170924e-03 -1.27124107e-02 -4.78257239e-03
      2.48715957e-03 2.73470976e-03 -6.99823897e-04 1.69619396e-01</_>
    <_>
      7.86435530e-02 -4.34088381e-03 -6.58437908e-02 -1.77987274e-02
      -1.92225203e-02 -4.51233387e-02 8.55907053e-02 -1.06762193e-01
      -1.99219715e-02 -5.25598489e-02 -8.81739706e-03 -8.00551921e-02
      -1.02252960e-01 9.22314171e-03 -1.99295152e-02 -5.04368059e-02
      -6.13309853e-02 -3.68027017e-02 7.12139206e-03 9.74679459e-03
      -4.83736116e-03 -9.09426901e-03 1.55932857e-02 1.13641014e-02
      -3.24734487e-02 -6.18650625e-03 -5.14640007e-03 -1.51765756e-02
      -9.01998580e-03 1.10595338e-02 -1.17074456e-02 -5.84966782e-03
      2.12652027e-03 1.99375395e-03 1.73558551e-03 1.68379843e-01</_>
    <_>
      3.55989709e-02 -6.25810698e-02 3.11773926e-01 7.35675842e-02
      -7.96034560e-03 -7.36211389e-02 8.24502036e-02 -8.17525014e-02
      -3.68586667e-02 -3.63759026e-02 -4.05722484e-02 -6.81670755e-02
      -1.25573382e-01 1.62191577e-02 -2.30685528e-02 -5.73096462e-02
      -5.86120933e-02 -3.92717421e-02 1.21262195e-02 3.59909073e-03
      -6.11565774e-03 -1.66392848e-02 1.92675460e-02 1.42299235e-02
      -2.40102746e-02 -3.81922442e-03 -1.57511130e-03 -4.86684730e-03
      -3.02046992e-05 7.33497553e-03 -9.72715300e-03 -6.59914222e-03
      3.70482681e-03 2.37136311e-03 -9.30273905e-04 1.69175997e-01</_>
    <_>
      2.92829722e-02 4.76601645e-02 -7.89000914e-02 4.84825931e-02
      2.63183564e-03 -6.30102977e-02 9.86173972e-02 -7.79098794e-02
      -3.03770155e-02 -3.44521739e-02 -1.95351634e-02 -7.00221434e-02
      -1.12156682e-01 1.20216208e-02 -2.25366820e-02 -6.03084341e-02
      -6.01018593e-02 -3.70826088e-02 1.07267462e-02 2.80066836e-03
      -3.53333703e-03 -1.91879086e-02 1.91037059e-02 1.27763124e-02
      -2.36851145e-02 -4.30792896e-03 -3.26561066e-03 -7.47725228e-03
      1.03986438e-03 8.47787596e-03 -1.24267070e-02 -4.54058964e-03
      3.29996180e-03 1.93500833e-03 -4.64364653e-04 1.69652149e-01</_>
    <_>
      5.57354353e-02 2.27462687e-02 -6.82471916e-02 -1.51240295e-02
      -9.71140864e-04 -5.34424223e-02 1.13889873e-01 -8.35435987e-02
      -3.26952860e-02 -4.27523330e-02 -1.29035795e-02 -7.62206912e-02
      -1.14671603e-01 7.78433261e-03 -2.36158054e-02 -5.21271341e-02
      -6.52022809e-02 -3.67106125e-02 9.28458292e-03 4.11866745e-03
      -3.16556892e-03 -2.00351458e-02 1.84337441e-02 1.21113770e-02
      -2.45768093e-02 -5.74274501e-03 -3.49153159e-03 -6.51529757e-03
      1.90517516e-04 6.64805062e-03 -1.15847364e-02 -5.08836145e-03
      3.99792334e-03 1.96622219e-03 -1.45759957e-03 1.69282988e-01</_>
    <_>
      3.44049893e-02 4.49880846e-02 -8.57534483e-02 5.93393967e-02
      2.92474823e-03 -6.76113442e-02 9.90658551e-02 -8.12847763e-02
      -2.96189990e-02 -3.59848812e-02 -1.47759868e-02 -7.28293210e-02
      -1.14438623e-01 1.11887036e-02 -2.26529837e-02 -5.54426201e-02
      -6.31223544e-02 -3.75221819e-02 1.05953477e-02 3.80840967e-03
      -4.17679641e-03 -1.91693250e-02 1.93411373e-02 1.29533196e-02
      -2.33701710e-02 -5.08795725e-03 -1.79093436e-03 -8.19805078e-03
      1.59144797e-03 7.50783924e-03 -1.22599984e-02 -3.76002048e-03
      4.12526308e-03 2.03113700e-03 -9.41300939e-04 1.69402033e-01</_>
    <_>
      5.33313155e-02 1.03795277e-02 -6.99523613e-02 -2.78997943e-02
      -4.29267716e-03 -6.52113780e-02 1.18608400e-01 -7.67815039e-02
      -2.81901006e-02 -3.15010957e-02 -6.87222369e-03 -6.47344217e-02
      -1.04508318e-01 1.24768224e-02 -1.96415745e-02 -6.24084026e-02
      -6.68719560e-02 -3.60530615e-02 8.67637154e-03 2.24129017e-03
      -3.75940721e-03 -1.52483648e-02 1.89751834e-02 1.38123995e-02
      -2.46766657e-02 -2.57428829e-03 -2.01849523e-03 -6.15519844e-03
      1.46798545e-03 7.65356841e-03 -1.12385480e-02 -4.99982480e-03
      6.21975586e-03 2.48043728e-03 -3.19905026e-04 1.68864384e-01</_>
    <_>
      2.87664920e-01 2.63869852e-01 -6.85302466e-02 8.62645209e-02
      -3.03083770e-02 -3.26162688e-02 1.09560490e-01 -7.10771605e-02
      -2.46842597e-02 -4.53936718e-02 -2.79660560e-02 -7.41266757e-02
      -1.11196108e-01 1.27910310e-02 -1.75420046e-02 -5.70905469e-02
      -6.71465322e-02 -3.93069126e-02 9.86341946e-03 3.88841238e-03
      -8.83825589e-03 -1.98032632e-02 1.64754130e-02 1.25775076e-02
      -2.33709738e-02 -5.66005707e-03 -3.07474448e-03 -4.58014803e-03
      -2.92083540e-04 7.77981384e-03 -1.29475212e-02 -4.75879991e-03
      3.35997273e-03 2.17092037e-03 -6.73633040e-05 1.69288054e-01</_>
    <_>
      5.92405461e-02 -5.10861445e-03 -6.89222142e-02 -1.53103033e-02
      -4.49909922e-03 -5.00558876e-02 1.14672147e-01 -7.78185204e-02
      -3.38652208e-02 -4.56743911e-02 -8.38321261e-03 -7.12262988e-02
      -1.14381038e-01 7.02623371e-03 -2.23787948e-02 -5.24826795e-02
      -6.61466420e-02 -3.79673429e-02 9.52417497e-03 2.28583161e-03
      -4.84013371e-03 -1.84829086e-02 1.95725113e-02 1.38588613e-02
      -2.31640674e-02 -2.68761604e-03 -2.48907413e-03 -5.33534354e-03
      -3.56331962e-04 8.77978653e-03 -1.10109756e-02 -4.01821174e-03
      4.30468051e-03 2.60934955e-03 -2.53486156e-04 1.69106290e-01</_>
    <_>
      -4.74995747e-02 4.16672491e-02 -4.54823039e-02 3.63037549e-02
      -1.85166728e-02 -1.25060817e-02 9.17404294e-02 -6.55990168e-02
      -4.34320830e-02 -3.20325680e-02 -1.00048557e-02 -7.49871954e-02
      -1.12629846e-01 9.48555022e-03 -2.67413612e-02 -5.57898916e-02
      -6.37832806e-02 -3.85992415e-02 9.44440067e-03 7.25880358e-03
      -4.20137728e-03 -2.02194992e-02 1.78537928e-02 1.68383215e-02
      -2.41376031e-02 -5.79356309e-03 -3.91638884e-03 -6.82608690e-03
      -7.59208575e-04 6.34067925e-03 -1.11508863e-02 -3.91183747e-03
      3.49737704e-03 1.65558571e-03 -1.20776496e-03 1.69168204e-01</_>
    <_>
      3.93947929e-01 3.49651217e-01 -5.63412793e-02 4.38812673e-02
      -1.65820923e-02 -5.56027815e-02 1.00264154e-01 -8.30830783e-02
      -2.68879868e-02 -4.14900146e-02 -7.15484051e-03 -7.18333125e-02
      -1.11766092e-01 9.64572188e-03 -2.23889332e-02 -5.45573607e-02
      -6.30497485e-02 -3.60585228e-02 1.05236797e-02 2.48679798e-03
      -4.91635315e-03 -1.89489461e-02 1.85877550e-02 1.12777287e-02
      -2.42641792e-02 -3.47127533e-03 -3.05980328e-03 -4.92572505e-03
      -7.91581289e-04 7.04604061e-03 -1.12655666e-02 -4.96543664e-03
      3.50900693e-03 1.71451841e-03 -1.10707711e-03 1.69509485e-01</_>
    <_>
      -1.74233302e-01 1.32519141e-01 -5.45472056e-02 2.90649030e-02
      -7.71324933e-02 -2.55254563e-02 1.20759383e-01 -8.85515511e-02
      -2.60179043e-02 -2.70905048e-02 -1.28286351e-02 -7.93069378e-02
      -1.11649789e-01 6.58121007e-03 -1.99569333e-02 -5.13271205e-02
      -6.42865449e-02 -3.57334837e-02 9.98142175e-03 3.57587216e-03
      -5.31604514e-03 -1.86326467e-02 1.62281338e-02 1.19079733e-02
      -2.35015992e-02 -3.93404858e-03 -2.15010485e-03 -6.97786966e-03
      1.33806339e-03 8.84757470e-03 -1.20630022e-02 -5.19454526e-03
      3.71321687e-03 2.10327073e-03 -1.64721190e-04 1.69391766e-01</_>
    <_>
      1.12215942e-02 2.00806838e-02 -6.73795640e-02 -1.01050816e-03
      2.32520816e-03 -6.54308870e-02 1.03628241e-01 -8.10029581e-02
      -3.79052833e-02 -3.82961221e-02 -1.21339317e-02 -7.18889311e-02
      -1.11561835e-01 1.08858822e-02 -2.40065567e-02 -5.24715967e-02
      -6.26644120e-02 -3.81947570e-02 1.46947922e-02 6.10833801e-03
      -6.11607358e-03 -2.04440728e-02 1.77820995e-02 1.26395728e-02
      -2.34434381e-02 -3.37221753e-03 -4.12940327e-03 -8.44551623e-03
      -4.77398280e-04 7.66296405e-03 -1.14359725e-02 -5.70333889e-03
      4.83565684e-03 3.81153752e-03 -8.43863003e-04 1.69216126e-01</_>
    <_>
      -3.99887823e-02 2.98281703e-02 -7.51597807e-02 1.46237202e-02
      -3.21608931e-02 -6.22925423e-02 1.03464648e-01 -8.66855904e-02
      -1.79835837e-02 -4.00979407e-02 -1.27331680e-02 -7.48345181e-02
      -1.10795535e-01 1.02509884e-02 -2.28748769e-02 -5.41658811e-02
      -6.30261749e-02 -3.77386212e-02 1.06580239e-02 4.98500839e-03
      -4.25972557e-03 -2.11716257e-02 2.06315741e-02 1.46400575e-02
      -2.37794798e-02 -3.54002998e-03 -3.51668312e-03 -6.56169280e-03
      6.89718814e-04 6.83394354e-03 -1.12955915e-02 -4.74758074e-03
      3.79645545e-03 2.08281912e-03 1.23888589e-04 1.69319808e-01</_>
    <_>
      -9.50215459e-02 8.96711573e-02 -6.13295250e-02 1.83218941e-02
      -5.04915379e-02 -5.32285087e-02 9.45941061e-02 -8.62949044e-02
      -2.84836348e-02 -4.84057032e-02 -1.21745160e-02 -7.04211816e-02
      -1.14996150e-01 8.76967702e-03 -2.23310832e-02 -5.76264970e-02
      -6.22811019e-02 -3.40188518e-02 1.47359259e-02 7.13251950e-03
      -4.92506707e-03 -1.70908943e-02 1.76864453e-02 1.23493839e-02
      -2.40318421e-02 -3.60406958e-03 -3.59709747e-03 -7.61670666e-03
      -3.96011310e-04 7.23611005e-03 -1.18630677e-02 -4.25666664e-03
      3.38290562e-03 2.44076410e-03 -8.51050136e-05 1.69406280e-01</_>
    <_>
      -6.08810298e-02 6.71705976e-02 -6.69129044e-02 2.23476905e-03
      -2.46872939e-02 -7.73856863e-02 1.05117410e-01 -7.53965452e-02
      -3.62007879e-02 -2.93875951e-02 -1.08096423e-02 -7.02339858e-02
      -1.08056381e-01 5.01453178e-03 -2.05399916e-02 -5.91887124e-02
      -6.60280809e-02 -3.75867113e-02 1.08195283e-02 1.33777654e-03
      -3.21360817e-03 -1.91538241e-02 2.01692209e-02 1.23446491e-02
      -2.39275955e-02 -4.15112032e-03 -3.79362912e-03 -7.81340525e-03
      -5.29952929e-04 7.99862202e-03 -1.11840134e-02 -5.61842462e-03
      3.06905177e-03 1.85397232e-03 -5.61841473e-04 1.69485420e-01</_>
    <_>
      -5.78702800e-02 5.92765510e-02 -6.58033043e-02 8.11324362e-03
      -1.59436408e-02 -7.45225027e-02 8.44499245e-02 -8.70123133e-02
      -4.36411463e-02 -4.11474742e-02 -1.42444223e-02 -7.11790472e-02
      -1.14273041e-01 6.92999829e-03 -2.24310737e-02 -5.47839999e-02
      -6.85794801e-02 -3.54336128e-02 1.18239559e-02 5.35923336e-03
      -4.01605060e-03 -1.96836349e-02 1.80793833e-02 1.06667317e-02
      -2.48134043e-02 -4.37523471e-03 -3.02298623e-03 -6.78301975e-03
      4.39212570e-04 9.95825045e-03 -1.18112471e-02 -4.77405870e-03
      2.28255382e-03 1.58719730e-03 -1.75528592e-04 1.69561565e-01</_>
    <_>
      -2.57682770e-01 2.03990355e-01 -5.42579368e-02 5.78481518e-02
      -1.42829478e-01 -3.70180272e-02 1.34583801e-01 -9.10790414e-02
      -2.86076497e-02 -2.52565052e-02 -1.22184046e-02 -8.25477242e-02
      -1.14211656e-01 6.48986595e-03 -2.33394857e-02 -5.49880788e-02
      -5.91163784e-02 -3.11324075e-02 7.02658016e-03 2.37876340e-03
      -7.17744976e-03 -1.50861703e-02 1.68618541e-02 1.16135087e-02
      -2.49710083e-02 -4.45993524e-03 -3.52667295e-03 -6.99582743e-03
      -1.28760308e-04 8.27980787e-03 -1.17366984e-02 -4.96996753e-03
      3.83875100e-03 2.26345682e-03 -3.11966760e-05 1.69314936e-01</_>
    <_>
      6.67414516e-02 -2.71077181e-04 -6.61178231e-02 -1.79098770e-02
      -2.28712615e-03 -5.88360764e-02 1.08871147e-01 -7.92000964e-02
      -3.39506567e-02 -3.62168737e-02 -7.06048030e-03 -7.29501843e-02
      -1.11634552e-01 9.14069451e-03 -1.83833614e-02 -5.71942963e-02
      -6.33017570e-02 -3.71302776e-02 8.94122105e-03 4.82932618e-03
      -4.73571289e-03 -2.01759860e-02 1.74834169e-02 1.28020439e-02
      -2.35422291e-02 -4.16474883e-03 -3.09153576e-03 -3.86162545e-03
      -4.98782727e-04 8.10084213e-03 -1.11827888e-02 -4.52113524e-03
      5.30923856e-03 2.06099870e-03 -1.55769207e-03 1.69065222e-01</_>
    <_>
      -1.00525379e-01 7.60086626e-02 -6.87708408e-02 1.80742908e-02
      -2.87151560e-02 -6.90576434e-02 9.94659960e-02 -7.50122294e-02
      -2.25072447e-02 -4.38570231e-02 -1.02934539e-02 -7.32211992e-02
      -1.16013229e-01 1.17999995e-02 -2.46640071e-02 -5.44835329e-02
      -6.35144189e-02 -3.60590667e-02 1.09448405e-02 4.01683059e-03
      -4.81859222e-03 -1.95393357e-02 1.70479510e-02 1.30855814e-02
      -2.38946192e-02 -4.91380552e-03 -3.69356689e-03 -5.31153614e-03
      -7.38263247e-04 9.11203120e-03 -1.16606178e-02 -4.81946487e-03
      4.19966411e-03 1.91094656e-03 -2.99673819e-04 1.69215262e-01</_>
    <_>
      -3.98127362e-02 3.62348072e-02 -7.28203058e-02 5.23206592e-03
      -2.95577738e-02 -6.40337914e-02 1.02164470e-01 -8.33340436e-02
      -1.76869128e-02 -4.45017032e-02 -1.17340740e-02 -7.55045861e-02
      -1.13104679e-01 9.52398870e-03 -2.26188004e-02 -5.61415069e-02
      -6.44033775e-02 -3.44818905e-02 1.27813593e-02 4.29670792e-03
      -5.76000568e-03 -1.88362189e-02 1.93223022e-02 1.11730900e-02
      -2.49437634e-02 -3.13842017e-03 -4.16194368e-03 -3.26142460e-03
      -1.33212621e-03 8.99966713e-03 -1.13575142e-02 -5.61510818e-03
      4.42883745e-03 2.18187110e-03 -2.68125441e-04 1.69212118e-01</_>
    <_>
      3.55989709e-02 -6.25810698e-02 3.11773926e-01 7.35675842e-02
      -7.96034560e-03 -7.36211389e-02 8.24502036e-02 -8.17525014e-02
      -3.68586667e-02 -3.63759026e-02 -4.05722484e-02 -6.81670755e-02
      -1.25573382e-01 1.62191577e-02 -2.30685528e-02 -5.73096462e-02
      -5.86120933e-02 -3.92717421e-02 1.21262195e-02 3.59909073e-03
      -6.11565774e-03 -1.66392848e-02 1.92675460e-02 1.42299235e-02
      -2.40102746e-02 -3.81922442e-03 -1.57511130e-03 -4.86684730e-03
      -3.02046992e-05 7.33497553e-03 -9.72715300e-03 -6.59914222e-03
      3.70482681e-03 2.37136311e-03 -9.30273905e-04 1.69175997e-01</_>
    <_>
      -3.41258347e-02 3.40595916e-02 -7.04521313e-02 -1.32986822e-03
      -1.95727088e-02 -5.81654869e-02 1.05697282e-01 -8.24540481e-02
      -1.62270144e-02 -4.46068756e-02 -9.39189736e-03 -7.40045309e-02
      -1.13326542e-01 7.89786782e-03 -2.40493398e-02 -5.66379726e-02
      -6.21233843e-02 -3.75599191e-02 1.07516954e-02 3.99913266e-03
      -7.72036938e-03 -2.12838240e-02 2.04975884e-02 1.39291184e-02
      -2.26984583e-02 -2.65636342e-03 -3.84788821e-03 -6.52960269e-03
      8.53845617e-04 8.20439495e-03 -1.02685206e-02 -5.27358288e-03
      2.54865480e-03 2.44721933e-03 -1.40515433e-04 1.69561699e-01</_>
    <_>
      2.66227163e-02 7.83126056e-03 -7.15528205e-02 -9.27881710e-03
      1.03194509e-02 -5.75297587e-02 1.13252029e-01 -7.11943358e-02
      -2.28730664e-02 -3.96720394e-02 -9.42136999e-03 -7.27235004e-02
      -1.10478483e-01 6.72615226e-03 -2.23078821e-02 -5.43620177e-02
      -6.20454624e-02 -3.59036811e-02 1.06316069e-02 3.20639438e-03
      -4.87390067e-03 -1.75428614e-02 1.79531313e-02 1.32308016e-02
      -2.38335803e-02 -4.20113141e-03 -4.62573348e-03 -4.39271238e-03
      -2.97030580e-04 7.89915957e-03 -1.10667218e-02 -4.82679019e-03
      4.55931481e-03 1.68842589e-03 1.28574576e-03 1.69075355e-01</_>
    <_>
      -2.15888284e-02 2.77384277e-02 -7.21055567e-02 -2.50194920e-04
      -1.34173390e-02 -5.28790094e-02 1.08725473e-01 -8.28930885e-02
      -1.72419008e-02 -4.94875908e-02 -1.00143924e-02 -7.44342059e-02
      -1.14865467e-01 7.32503971e-03 -2.34538782e-02 -5.49351610e-02
      -6.88635781e-02 -3.61124240e-02 1.36965038e-02 3.08956974e-03
      -8.02180357e-03 -1.99978296e-02 1.72782987e-02 1.57690700e-02
      -2.43924297e-02 -5.48209110e-03 -4.42829169e-03 -5.79116121e-03
      -8.72062054e-04 6.63833739e-03 -1.12836473e-02 -5.48126874e-03
      4.35112044e-03 2.60065938e-03 -1.00926368e-03 1.69006333e-01</_>
    <_>
      -3.33374292e-02 5.52967638e-02 -7.10664168e-02 6.66950922e-03
      -1.50688933e-02 -9.08476412e-02 9.05177817e-02 -7.51436800e-02
      -3.60280722e-02 -4.34646159e-02 -1.38892308e-02 -7.32577294e-02
      -1.10589385e-01 9.15102381e-03 -2.26170942e-02 -5.64570874e-02
      -6.49380386e-02 -3.56689878e-02 1.01629887e-02 5.81604987e-03
      -4.56755795e-03 -1.74677111e-02 1.77590344e-02 9.21568274e-03
      -2.47510970e-02 -3.60865775e-03 -5.10971108e-03 -6.21363334e-03
      -1.01949100e-03 9.67327878e-03 -1.18658757e-02 -5.49196964e-03
      3.02540977e-03 3.11656157e-03 -7.52272608e-04 1.69411495e-01</_>
    <_>
      -2.84765679e-02 2.58144420e-02 -7.45369121e-02 1.13255987e-02
      -2.20053848e-02 -6.04773872e-02 1.02603853e-01 -8.39119926e-02
      -1.45167662e-02 -4.43400219e-02 -9.00526624e-03 -7.49793723e-02
      -1.12224281e-01 8.31787102e-03 -2.03947946e-02 -5.48522435e-02
      -6.57790080e-02 -3.64366025e-02 1.16905142e-02 3.63710150e-03
      -5.54208132e-03 -1.86700970e-02 1.84183381e-02 1.38059435e-02
      -2.34191194e-02 -3.89158074e-03 -2.25305092e-03 -6.10360829e-03
      1.04341819e-03 1.05217760e-02 -1.11757135e-02 -4.86124866e-03
      3.12813651e-03 3.10796220e-03 2.32986873e-04 1.69255197e-01</_>
    <_>
      -4.91834730e-02 3.55921648e-02 -4.00374494e-02 5.95076755e-03
      -5.86677622e-03 -4.05838601e-02 9.76552367e-02 -6.38189092e-02
      -4.44228984e-02 -4.22094576e-02 -8.08640849e-03 -7.87817240e-02
      -1.09928697e-01 6.99392008e-03 -2.71731243e-02 -5.27341403e-02
      -6.70789555e-02 -3.43719013e-02 1.30608305e-02 -4.30430146e-03
      -7.96014443e-03 -1.70032885e-02 1.69252660e-02 1.61008704e-02
      -2.23789141e-02 -3.96720646e-03 -4.90962854e-03 -5.59365889e-03
      -2.44424702e-03 6.75592525e-03 -7.97474571e-03 -4.58015176e-03
      3.10211745e-03 1.47869007e-03 -1.53319933e-03 1.69061661e-01</_>
    <_>
      9.48398747e-03 2.81438362e-02 -6.57032579e-02 3.61941615e-03
      -1.66689437e-02 -6.33981153e-02 1.05299324e-01 -7.59212375e-02
      -3.53017710e-02 -4.05753329e-02 -1.06002102e-02 -7.10056052e-02
      -1.12427317e-01 9.52608883e-03 -2.51811985e-02 -4.90069538e-02
      -6.06144033e-02 -3.75862308e-02 9.93093569e-03 5.68784215e-03
      -4.47146967e-03 -1.68891847e-02 2.00899057e-02 1.10306619e-02
      -2.24975161e-02 -3.53893265e-03 -2.16778228e-03 -7.00900052e-03
      -4.99057642e-04 8.10550991e-03 -1.08414087e-02 -5.47139114e-03
      3.37000960e-03 9.41840932e-04 -7.67026970e-04 1.69414923e-01</_>
    <_>
      6.88256249e-02 6.34298055e-03 -6.99210539e-02 -2.34984793e-02
      -9.55530722e-03 -6.09718561e-02 1.27002820e-01 -8.12107325e-02
      -4.16324325e-02 -4.09444459e-02 -1.02397352e-02 -7.57874250e-02
      -1.14315219e-01 8.09926819e-03 -1.84498858e-02 -5.35232387e-02
      -6.47016242e-02 -3.70963588e-02 1.31777180e-02 2.28902930e-03
      -3.49392695e-03 -1.72251482e-02 1.83113758e-02 1.00125838e-02
      -2.30994355e-02 -7.50514865e-03 -4.96045547e-03 -4.47408389e-03
      4.36843839e-03 9.88425314e-03 -1.15606161e-02 -6.26112800e-03
      6.96647028e-03 1.46197563e-03 1.91043961e-04 1.68882683e-01</_>
    <_>
      -1.15602404e-01 9.60070044e-02 -6.10228814e-02 1.35211861e-02
      -5.93120232e-02 -6.26215413e-02 1.02738939e-01 -8.59393477e-02
      -3.92457247e-02 -4.65298295e-02 -4.99949418e-03 -7.68325850e-02
      -1.16069719e-01 5.16006304e-03 -2.39560362e-02 -5.51431738e-02
      -6.51480108e-02 -3.69775593e-02 1.09228622e-02 2.22275825e-03
      -8.46263114e-03 -1.82897355e-02 2.15084571e-02 1.35070877e-02
      -2.34572832e-02 -4.16242098e-03 -4.45919018e-03 -6.48138672e-03
      -1.10129220e-03 7.46793719e-03 -1.18993586e-02 -5.71855297e-03
      2.19154963e-03 2.91029876e-03 -5.26686315e-04 1.69600070e-01</_>
    <_>
      -9.42662209e-02 8.11055079e-02 -6.33074343e-02 1.19708301e-02
      -2.34233625e-02 -4.37434241e-02 9.61553752e-02 -9.39190909e-02
      -2.84577534e-02 -4.45918515e-02 -8.81220773e-03 -6.91969171e-02
      -1.13774523e-01 8.83111265e-03 -2.56920457e-02 -5.39202839e-02
      -6.46810830e-02 -3.72094251e-02 1.00144129e-02 4.37981542e-03
      -4.30412218e-03 -1.64276753e-02 1.94936730e-02 1.65431071e-02
      -2.38104854e-02 -4.43987548e-03 -2.76363245e-03 -4.57929121e-03
      7.84824020e-04 8.81148875e-03 -1.19721610e-02 -4.73104976e-03
      4.52186633e-03 1.86518824e-03 -3.02240340e-04 1.69045955e-01</_>
    <_>
      -2.23019496e-02 2.40856521e-02 -7.11711571e-02 3.73912253e-03
      -6.91097043e-03 -5.33280633e-02 1.00148112e-01 -7.97156319e-02
      -1.25414450e-02 -4.45060320e-02 -7.13862246e-03 -7.48163164e-02
      -1.13375477e-01 9.70327388e-03 -2.38197688e-02 -5.56791313e-02
      -6.42018095e-02 -3.50247547e-02 9.05571133e-03 1.64559390e-03
      -6.45571016e-03 -1.94049273e-02 2.35540029e-02 1.11678140e-02
      -2.21160371e-02 -4.71262401e-03 -3.26701952e-03 -7.13080261e-03
      -1.15077326e-03 5.76662365e-03 -1.17130093e-02 -5.30803576e-03
      4.66709444e-03 1.35631196e-03 -2.95219856e-04 1.69330478e-01</_>
    <_>
      2.92829722e-02 4.76601645e-02 -7.89000914e-02 4.84825931e-02
      2.63183564e-03 -6.30102977e-02 9.86173972e-02 -7.79098794e-02
      -3.03770155e-02 -3.44521739e-02 -1.95351634e-02 -7.00221434e-02
      -1.12156682e-01 1.20216208e-02 -2.25366820e-02 -6.03084341e-02
      -6.01018593e-02 -3.70826088e-02 1.07267462e-02 2.80066836e-03
      -3.53333703e-03 -1.91879086e-02 1.91037059e-02 1.27763124e-02
      -2.36851145e-02 -4.30792896e-03 -3.26561066e-03 -7.47725228e-03
      1.03986438e-03 8.47787596e-03 -1.24267070e-02 -4.54058964e-03
      3.29996180e-03 1.93500833e-03 -4.64364653e-04 1.69652149e-01</_>
    <_>
      1.76199770e-03 2.99677458e-02 -6.80442750e-02 7.07471045e-03
      -9.22266301e-03 -6.39028028e-02 9.83087793e-02 -7.76660070e-02
      -3.27801630e-02 -3.81243713e-02 -1.13825407e-02 -7.12206289e-02
      -1.12221643e-01 1.07145654e-02 -2.43457165e-02 -4.75261956e-02
      -6.18177727e-02 -3.84179354e-02 1.36372214e-02 5.09362295e-03
      -5.06256707e-03 -1.76545549e-02 1.71651281e-02 1.09482100e-02
      -2.30690856e-02 -3.11742513e-03 -3.56035540e-03 -9.21437051e-03
      8.14713363e-04 9.14877187e-03 -1.10511919e-02 -4.84990561e-03
      3.61151225e-03 1.36847782e-03 -1.54411898e-03 1.69433534e-01</_>
    <_>
      7.67673319e-03 -6.65426329e-02 4.67831284e-01 1.18793666e-01
      4.38252278e-03 -7.34476224e-02 1.39097869e-01 -8.39236528e-02
      -1.52246915e-02 -4.48393896e-02 1.11019127e-02 -7.65095502e-02
      -1.04916967e-01 4.58862120e-03 -1.74541865e-02 -5.26356958e-02
      -6.81196228e-02 -3.81692648e-02 9.75924730e-03 4.47849976e-03
      -4.21807915e-03 -1.93905253e-02 1.84385478e-02 1.03574954e-02
      -2.19195411e-02 -4.49632388e-03 -4.75476310e-03 -7.12240161e-03
      -5.27361466e-04 8.79135821e-03 -1.40710874e-02 -2.05484778e-03
      3.05630593e-03 2.00049137e-03 4.25894570e-04 1.69599622e-01</_>
    <_>
      7.67673319e-03 -6.65426329e-02 4.67831284e-01 1.18793666e-01
      4.38252278e-03 -7.34476224e-02 1.39097869e-01 -8.39236528e-02
      -1.52246915e-02 -4.48393896e-02 1.11019127e-02 -7.65095502e-02
      -1.04916967e-01 4.58862120e-03 -1.74541865e-02 -5.26356958e-02
      -6.81196228e-02 -3.81692648e-02 9.75924730e-03 4.47849976e-03
      -4.21807915e-03 -1.93905253e-02 1.84385478e-02 1.03574954e-02
      -2.19195411e-02 -4.49632388e-03 -4.75476310e-03 -7.12240161e-03
      -5.27361466e-04 8.79135821e-03 -1.40710874e-02 -2.05484778e-03
      3.05630593e-03 2.00049137e-03 4.25894570e-04 1.69599622e-01</_>
    <_>
      7.67673319e-03 -6.65426329e-02 4.67831284e-01 1.18793666e-01
      4.38252278e-03 -7.34476224e-02 1.39097869e-01 -8.39236528e-02
      -1.52246915e-02 -4.48393896e-02 1.11019127e-02 -7.65095502e-02
      -1.04916967e-01 4.58862120e-03 -1.74541865e-02 -5.26356958e-02
      -6.81196228e-02 -3.81692648e-02 9.75924730e-03 4.47849976e-03
      -4.21807915e-03 -1.93905253e-02 1.84385478e-02 1.03574954e-02
      -2.19195411e-02 -4.49632388e-03 -4.75476310e-03 -7.12240161e-03
      -5.27361466e-04 8.79135821e-03 -1.40710874e-02 -2.05484778e-03
      3.05630593e-03 2.00049137e-03 4.25894570e-04 1.69599622e-01</_>
    <_>
      7.79009238e-02 5.59349209e-02 -6.99179322e-02 4.19587418e-02
      -1.86540373e-02 -3.76628898e-02 1.11900136e-01 -7.82975107e-02
      -3.74653190e-02 -4.19824868e-02 -1.87797528e-02 -7.47746155e-02
      -1.18742622e-01 7.50414236e-03 -2.10206751e-02 -5.63215874e-02
      -6.43586665e-02 -3.34688835e-02 1.20624797e-02 3.97416018e-03
      -3.95619404e-03 -1.80907156e-02 1.81345697e-02 1.03887971e-02
      -2.38672551e-02 -5.86867146e-03 -4.07045148e-03 -7.76854157e-03
      -2.18116256e-05 6.55849511e-03 -1.16886413e-02 -4.79247933e-03
      4.44202218e-03 3.31673375e-03 -4.71414445e-04 1.69211403e-01</_>
    <_>
      -9.64694321e-02 7.61006400e-02 -6.89397603e-02 1.87894031e-02
      -2.13749446e-02 -6.97220787e-02 9.06975567e-02 -8.10586810e-02
      -2.99484488e-02 -3.72960456e-02 -8.27903207e-03 -7.05520809e-02
      -1.12911142e-01 7.54828472e-03 -2.08018962e-02 -5.50226755e-02
      -6.50879964e-02 -3.61387245e-02 9.55549907e-03 4.89735464e-03
      -1.02776277e-03 -1.89650767e-02 1.74649674e-02 1.37644699e-02
      -2.39797551e-02 -3.11409775e-03 -1.84311369e-03 -5.36445808e-03
      2.62124959e-04 7.40427012e-03 -1.13376696e-02 -4.97487513e-03
      4.09911480e-03 2.94625666e-03 8.23050650e-05 1.69211119e-01</_>
    <_>
      -1.58182755e-01 1.60634309e-01 -5.91983646e-02 1.96921509e-02
      -8.49866420e-02 -8.83716270e-02 1.01054333e-01 -7.22939223e-02
      -2.85390522e-02 -4.89658900e-02 -1.04205552e-02 -7.63249695e-02
      -1.14782825e-01 1.35425888e-02 -2.63215601e-02 -5.16308211e-02
      -6.37857690e-02 -3.63344438e-02 1.11349868e-02 3.96078499e-03
      -7.95793347e-03 -1.79312788e-02 2.02745982e-02 1.03989961e-02
      -2.28009038e-02 -5.12042921e-03 -4.20004362e-03 -7.81987049e-03
      -1.97044318e-03 8.85184295e-03 -1.24687310e-02 -4.80467733e-03
      2.87834625e-03 1.63378753e-03 -3.25422006e-04 1.69514045e-01</_>
    <_>
      6.44640345e-03 2.29031276e-02 -6.76860735e-02 -2.98962276e-03
      -1.90363347e-03 -6.56376779e-02 1.01899624e-01 -7.33348355e-02
      -2.62669139e-02 -3.75052802e-02 -1.02231652e-02 -7.47652277e-02
      -1.10975869e-01 1.29686520e-02 -2.12015137e-02 -5.41909710e-02
      -6.17056377e-02 -3.79868746e-02 1.00389058e-02 3.38306744e-03
      -4.88763163e-03 -1.96995698e-02 1.58475731e-02 1.31226908e-02
      -2.26183645e-02 -2.89313076e-03 -3.99054959e-03 -7.60338688e-03
      -1.51181710e-03 8.07378627e-03 -1.21401222e-02 -3.24509526e-03
      2.85508623e-03 2.33596843e-03 -3.61101178e-04 1.69507086e-01</_>
    <_>
      5.66721745e-02 6.69906586e-02 -7.54436329e-02 3.97542603e-02
      -9.63100698e-03 -4.35907319e-02 1.21084303e-01 -6.64258748e-02
      -2.79353876e-02 -4.61714566e-02 -1.80104431e-02 -7.65636340e-02
      -1.19138658e-01 9.76274535e-03 -2.03245617e-02 -5.75429536e-02
      -6.78357407e-02 -3.75315882e-02 9.89727117e-03 4.73093567e-03
      -3.61146801e-03 -2.09526420e-02 1.71606112e-02 1.58094019e-02
      -2.49232594e-02 -3.61426338e-03 -3.15482565e-03 -6.53394032e-03
      -1.46384968e-03 9.29681212e-03 -1.22557245e-02 -5.12661412e-03
      2.78366962e-03 3.08140623e-03 -1.30248012e-03 1.69264123e-01</_>
    <_>
      5.57354353e-02 2.27462687e-02 -6.82471916e-02 -1.51240295e-02
      -9.71140864e-04 -5.34424223e-02 1.13889873e-01 -8.35435987e-02
      -3.26952860e-02 -4.27523330e-02 -1.29035795e-02 -7.62206912e-02
      -1.14671603e-01 7.78433261e-03 -2.36158054e-02 -5.21271341e-02
      -6.52022809e-02 -3.67106125e-02 9.28458292e-03 4.11866745e-03
      -3.16556892e-03 -2.00351458e-02 1.84337441e-02 1.21113770e-02
      -2.45768093e-02 -5.74274501e-03 -3.49153159e-03 -6.51529757e-03
      1.90517516e-04 6.64805062e-03 -1.15847364e-02 -5.08836145e-03
      3.99792334e-03 1.96622219e-03 -1.45759957e-03 1.69282988e-01</_>
    <_>
      -1.58855408e-01 1.20104745e-01 -5.88867404e-02 3.47889364e-02
      -3.73377539e-02 -1.71048008e-02 1.17060140e-01 -9.04027671e-02
      -3.41681540e-02 -3.41177881e-02 -1.30631234e-02 -7.11351708e-02
      -1.18842050e-01 6.19304739e-03 -2.39956696e-02 -5.42740487e-02
      -6.63669407e-02 -3.43478397e-02 1.12357121e-02 2.58989423e-03
      -4.81626578e-03 -1.83724016e-02 1.71448365e-02 1.14419265e-02
      -2.41757855e-02 -4.30312613e-03 -3.31316097e-03 -6.61680382e-03
      -1.28210685e-03 7.52941007e-03 -1.16878711e-02 -5.71869966e-03
      3.38754547e-03 2.13589356e-03 -1.04611812e-04 1.69411808e-01</_>
    <_>
      1.06926896e-01 7.65394047e-02 -7.67999589e-02 3.83294970e-02
      -8.80196318e-03 -4.31225002e-02 1.23279013e-01 -7.75057003e-02
      -3.60429436e-02 -4.92629670e-02 -1.76448748e-02 -7.34624192e-02
      -1.16242476e-01 8.92113242e-03 -2.29955669e-02 -6.20668605e-02
      -6.59480914e-02 -3.59052196e-02 9.25933477e-03 2.52457056e-03
      -5.14716748e-03 -1.75095592e-02 1.88580137e-02 1.31028136e-02
      -2.68717632e-02 -4.60478803e-03 -4.41089086e-03 -4.55956720e-03
      -7.94755295e-04 9.97541007e-03 -1.20132193e-02 -5.98832453e-03
      2.76821805e-03 1.69073930e-03 -1.78918440e-03 1.69413120e-01</_>
    <_>
      7.38176331e-02 1.18938886e-01 -7.00587258e-02 2.33884957e-02
      -1.50108915e-02 -6.87431023e-02 9.69444662e-02 -8.25296268e-02
      -2.80590672e-02 -4.27072272e-02 -1.05216112e-02 -6.94258213e-02
      -1.09710991e-01 1.27065722e-02 -2.39914712e-02 -5.63489757e-02
      -6.48668483e-02 -3.87787037e-02 1.05252834e-02 1.49234128e-03
      -4.63219592e-03 -1.89686138e-02 2.00565550e-02 1.27252936e-02
      -2.38286685e-02 -4.07908810e-03 -3.15590389e-03 -7.59763503e-03
      4.56652138e-04 6.44205278e-03 -1.16750291e-02 -5.00470540e-03
      2.77348980e-03 2.36836099e-03 -8.95214907e-04 1.69628471e-01</_>
    <_>
      -9.06541348e-02 7.36570284e-02 -6.81841448e-02 1.34136369e-02
      -1.74735244e-02 -6.19865321e-02 9.43749696e-02 -8.49187747e-02
      -2.14883238e-02 -3.94084379e-02 -9.23748035e-03 -7.15913773e-02
      -1.15706638e-01 1.07316040e-02 -2.39466671e-02 -5.47240674e-02
      -6.40434027e-02 -3.46328504e-02 1.23312650e-02 5.41196251e-03
      -4.42342786e-03 -1.76171269e-02 1.71050224e-02 1.37070911e-02
      -2.36466378e-02 -6.43139239e-03 -4.11418360e-03 -5.78255393e-03
      -3.79844802e-04 8.29458982e-03 -1.16344308e-02 -5.04840584e-03
      3.31398728e-03 2.23545358e-03 -6.09581999e-04 1.69248626e-01</_>
    <_>
      -4.63651158e-02 4.23786491e-02 -7.13487491e-02 -1.64308015e-03
      -1.13630705e-02 -5.95543124e-02 1.12590179e-01 -8.26951116e-02
      -1.86686423e-02 -5.02123386e-02 -1.01526901e-02 -7.80493468e-02
      -1.12373017e-01 1.09617775e-02 -2.15114914e-02 -5.68704903e-02
      -6.49031252e-02 -3.73018384e-02 1.03516225e-02 1.94963405e-03
      -6.21191086e-03 -1.93296503e-02 1.77729558e-02 1.30485957e-02
      -2.37154346e-02 -2.56229984e-03 -5.06137172e-03 -4.14801762e-03
      -8.97205027e-04 8.35173763e-03 -1.11980448e-02 -5.82070043e-03
      3.99247510e-03 2.96298717e-03 -8.72876903e-04 1.69232741e-01</_>
    <_>
      -1.70164645e-01 1.31590798e-01 -6.20046258e-02 2.04057749e-02
      -5.26580103e-02 -7.56952688e-02 1.08153254e-01 -7.87307322e-02
      -3.41499895e-02 -4.12837528e-02 -9.49672237e-03 -7.97343925e-02
      -1.12750329e-01 8.17266200e-03 -2.08775327e-02 -5.32131381e-02
      -6.15061149e-02 -3.58702801e-02 8.88186134e-03 4.05196380e-03
      -7.09168194e-03 -1.84494592e-02 1.87763125e-02 1.25119388e-02
      -2.41556559e-02 -3.97304958e-03 -3.78562487e-03 -6.29509659e-03
      1.15782872e-03 8.54093488e-03 -1.11966804e-02 -5.04680583e-03
      2.96125980e-03 2.24266341e-03 -5.48008597e-04 1.69445559e-01</_>
    <_>
      -7.01159909e-02 7.26858824e-02 -6.54531121e-02 2.32774927e-03
      -2.37775501e-02 -7.98646957e-02 9.54707116e-02 -8.05349946e-02
      -3.37158777e-02 -3.92167680e-02 -1.11657362e-02 -7.52503946e-02
      -1.13754883e-01 1.06419576e-02 -2.40289029e-02 -5.41634448e-02
      -6.32378459e-02 -3.60928513e-02 9.72656347e-03 2.03717779e-03
      -4.69333120e-03 -1.86993331e-02 1.81269348e-02 1.14182271e-02
      -2.37673055e-02 -4.22543474e-03 -3.69154033e-03 -5.88199589e-03
      1.47054336e-04 8.48022010e-03 -1.21943299e-02 -4.87373071e-03
      3.72514385e-03 2.44125840e-03 -4.24517930e-04 1.69479966e-01</_>
    <_>
      2.68811230e-02 4.69578654e-02 -5.33048585e-02 1.74652655e-02
      5.57122333e-03 -3.11530773e-02 1.04032926e-01 -7.04597235e-02
      -3.22821178e-02 -4.37134206e-02 -4.01589833e-03 -6.98753670e-02
      -1.10032253e-01 9.23395716e-03 -2.08131522e-02 -5.52701950e-02
      -6.14931099e-02 -3.60757709e-02 7.69154588e-03 5.30677987e-03
      -5.01429802e-03 -1.91127118e-02 1.74239948e-02 1.35050146e-02
      -2.35757194e-02 -6.04541413e-03 -4.53189621e-03 -8.70354567e-03
      -1.19040103e-03 8.27299803e-03 -1.04669230e-02 -4.86672856e-03
      3.12299398e-03 2.56103976e-03 -1.87209225e-03 1.69215009e-01</_>
    <_>
      -4.19991687e-02 4.24614511e-02 -7.20264167e-02 6.09250134e-03
      -2.15945002e-02 -6.12334386e-02 1.07813269e-01 -7.64437988e-02
      -1.60538517e-02 -4.96096909e-02 -1.19425179e-02 -7.71879330e-02
      -1.10495068e-01 8.61774106e-03 -2.27297153e-02 -5.31170890e-02
      -6.51309043e-02 -3.66387032e-02 1.04586761e-02 3.54735367e-03
      -6.61120005e-03 -1.96332186e-02 2.04246063e-02 1.39853945e-02
      -2.33044177e-02 -4.80660703e-03 -4.34234552e-03 -6.62503438e-03
      9.68213601e-04 8.28235038e-03 -1.10651981e-02 -5.23485336e-03
      4.08146484e-03 2.30853702e-03 -5.41981601e-04 1.69135660e-01</_>
    <_>
      6.95180371e-02 -3.22547376e-01 -2.68397450e-01 5.82248390e-01
      2.49928590e-02 -1.41818166e-01 1.17064521e-01 -1.09833807e-01
      -2.73046996e-02 -3.88878658e-02 6.96723210e-03 -8.20596442e-02
      -1.16028480e-01 1.32516427e-02 -2.26619449e-02 -4.94342223e-02
      -6.61815703e-02 -3.93787213e-02 1.11902533e-02 -6.62157731e-03
      -7.49931252e-03 -1.46936923e-02 1.63534693e-02 1.37294596e-02
      -2.50182115e-02 -2.98212422e-03 -4.43286262e-03 -5.90753229e-03
      -9.84786544e-04 7.40593113e-03 -1.20277731e-02 -6.71316823e-03
      3.27852904e-03 2.68502044e-03 -3.57178826e-04 1.69415548e-01</_>
    <_>
      8.15660730e-02 1.04464211e-01 -6.67958036e-02 4.41530421e-02
      -1.37025053e-02 -2.78893802e-02 1.13579914e-01 -8.13520625e-02
      -3.46226580e-02 -4.39162999e-02 -1.10981148e-02 -7.09493831e-02
      -1.14851631e-01 6.07872335e-03 -2.00113412e-02 -5.89577109e-02
      -6.10266812e-02 -3.66071612e-02 1.37814693e-02 2.06135632e-03
      -1.75868138e-03 -1.86472498e-02 1.78988446e-02 1.04559520e-02
      -2.46543381e-02 -3.62490723e-03 -2.11876724e-03 -5.51987253e-03
      -1.30957633e-03 8.13174900e-03 -1.08563947e-02 -5.60350949e-03
      3.23121948e-03 1.43171370e-03 -5.61424647e-04 1.69594228e-01</_>
    <_>
      2.43311711e-02 4.87641105e-03 -7.25165829e-02 -8.44685454e-03
      -3.10264435e-03 -6.19044118e-02 1.04580551e-01 -8.00582692e-02
      -3.37894671e-02 -3.81626561e-02 -7.72474706e-03 -7.31600523e-02
      -1.14618436e-01 5.65565424e-03 -2.16795336e-02 -5.72857037e-02
      -6.47146776e-02 -3.84695008e-02 9.10740253e-03 8.08625715e-04
      -6.26836484e-03 -1.90259218e-02 1.98404230e-02 1.42758051e-02
      -2.42271516e-02 -2.45497911e-03 -6.12214115e-03 -6.50915783e-03
      -8.73006473e-04 8.21444858e-03 -1.16338106e-02 -4.73349541e-03
      2.93761306e-03 1.64960034e-03 -3.99667450e-04 1.69457406e-01</_>
    <_>
      -8.18659812e-02 6.81737512e-02 -6.95612878e-02 1.45996390e-02
      -1.53008541e-02 -6.78064376e-02 9.55660492e-02 -8.11922699e-02
      -2.14826465e-02 -3.16681936e-02 -1.24391643e-02 -7.18752444e-02
      -1.11309737e-01 1.05746053e-02 -2.12144069e-02 -5.62645122e-02
      -6.83715269e-02 -3.60739082e-02 8.27349816e-03 4.45549004e-03
      -4.09833575e-03 -1.96069144e-02 1.61040854e-02 9.34485719e-03
      -2.33503971e-02 -1.90426304e-03 -3.69375222e-03 -6.49080845e-03
      -8.70226650e-04 9.85554792e-03 -1.12333186e-02 -4.61325655e-03
      3.67500330e-03 2.08099815e-03 -3.79082427e-04 1.69297636e-01</_>
    <_>
      2.35207789e-02 1.27864582e-02 -6.76110908e-02 -7.41422549e-03
      -2.71237898e-03 -5.87144382e-02 1.08865932e-01 -7.54149705e-02
      -3.16365026e-02 -4.48850431e-02 -7.36268563e-03 -7.22201839e-02
      -1.11987852e-01 8.63524713e-03 -2.47019473e-02 -5.38214110e-02
      -6.31038100e-02 -3.67635414e-02 1.12485513e-02 3.24194971e-03
      -5.86061087e-03 -2.15924215e-02 1.80583242e-02 1.70055833e-02
      -2.51845196e-02 -2.55147764e-03 -1.99877395e-04 -8.54720082e-03
      8.10979167e-04 7.21702632e-03 -1.13562215e-02 -5.89273637e-03
      2.70577683e-03 2.46513425e-03 -5.98331681e-04 1.69609785e-01</_>
    <_>
      -2.04293713e-01 1.46907419e-01 -5.95269203e-02 2.12198514e-02
      -6.19078092e-02 -7.70297796e-02 1.01011820e-01 -8.34071189e-02
      -3.30803357e-02 -4.37169299e-02 -9.76454932e-03 -7.98235685e-02
      -1.14271805e-01 1.14851203e-02 -2.04540212e-02 -5.61100096e-02
      -6.57211617e-02 -3.70896123e-02 9.75354854e-03 4.17729514e-03
      -8.38238280e-03 -1.98324341e-02 1.79848578e-02 1.25478096e-02
      -2.27181986e-02 -2.48557329e-03 -3.64213204e-03 -7.35949911e-03
      1.40801829e-04 7.43742986e-03 -1.20197190e-02 -4.81325621e-03
      3.92588694e-03 1.91388698e-03 -1.47414656e-04 1.69355080e-01</_>
    <_>
      -1.87025499e-02 1.82648543e-02 -7.54275024e-02 6.99530728e-03
      -2.24400163e-02 -5.67915030e-02 9.75069031e-02 -9.35893953e-02
      -1.29436050e-02 -3.92770879e-02 -1.09575493e-02 -7.04924315e-02
      -1.16302207e-01 1.50240827e-02 -2.61441749e-02 -6.15902469e-02
      -6.46472201e-02 -3.73198316e-02 1.02447039e-02 3.19637242e-03
