<?xml version="1.0"?>
<opencv_storage>
<opencv_ml_svm>
  <format>3</format>
  <svmType>C_SVC</svmType>
  <kernel>
    <type>RBF</type>
    <gamma>3.3750000000000002e-02</gamma></kernel>
  <C>1.0000000000000001e-01</C>
  <term_criteria><iterations>100</iterations></term_criteria>
  <var_count>36</var_count>
  <class_count>2</class_count>
  <class_labels type_id="opencv-matrix">
    <rows>2</rows>
    <cols>1</cols>
    <dt>i</dt>
    <data>
      0 1</data></class_labels>
  <sv_total>200</sv_total>
  <support_vectors>
    <_>
      -5.52078933e-02 2.08841160e-01 5.92281204e-03 1.29474392e-02
      -2.14005467e-02 -4.70865294e-02 3.97079960e-02 4.88365116e-03
      1.10317029e-01 -8.19817558e-02 -4.54299375e-02 -7.31125921e-02
      -2.25394145e-02 7.65352696e-02 3.17693204e-02 5.84909841e-02
      -5.37912883e-02 -4.34079673e-03 3.09955124e-02 3.22698336e-03
      -1.77899972e-02 -4.74442216e-03 1.86105352e-02 8.02555494e-03
      2.93139578e-03 4.93569113e-03 1.62524208e-02 8.27387965e-04
      2.91508902e-03 -7.65837030e-03 7.51965400e-03 -1.20838778e-02
      3.64178419e-02 -1.75957961e-04 -7.91959057e-04 1.64873347e-01</_>
    <_>
      -3.64839449e-03 -1.03384122e-01 3.78837883e-01 -4.41331416e-02
      -2.74749864e-02 -2.35607848e-02 3.58844101e-02 1.82015002e-02
      1.25472099e-01 -7.72895217e-02 -3.16117890e-02 -6.93742782e-02
      -3.19979340e-02 6.99973255e-02 2.88792495e-02 5.38397878e-02
      -6.77250326e-02 -4.99763619e-03 3.36108394e-02 1.30582629e-02
      -1.85498539e-02 -3.96997388e-03 1.98754426e-02 8.51211511e-03
      7.78435683e-03 2.53866380e-03 1.45587986e-02 2.02335324e-03
      5.51750464e-03 -7.94894621e-03 6.59867283e-03 -1.12401722e-02
      3.89935784e-02 1.22403691e-03 -8.75094149e-04 1.63131177e-01</_>
    <_>
      5.81899807e-02 1.09765321e-01 1.46509556e-03 5.06940931e-02
      -2.02107290e-03 -6.21901453e-03 6.18351400e-02 5.40629626e-05
      1.24144450e-01 -7.85755739e-02 -4.52133119e-02 -7.36391842e-02
      -1.77050233e-02 7.65077025e-02 3.12109180e-02 5.56413718e-02
      -5.47646210e-02 -3.49878939e-03 3.02601885e-02 6.16663462e-03
      -1.82011928e-02 -3.50704347e-03 1.56778749e-02 1.29785724e-02
      2.17853021e-03 5.08450996e-03 1.51870195e-02 2.82688159e-03
      2.80691287e-03 -7.83686433e-03 6.22750819e-03 -1.21492250e-02
      3.66746113e-02 -4.26917599e-04 -5.25804993e-04 1.64984077e-01</_>
    <_>
      -1.07565615e-03 4.82421666e-02 -3.33399549e-02 -8.54744948e-03
      -1.04293879e-02 -1.78924650e-02 3.62538807e-02 9.42171179e-03
      1.21751003e-01 -7.65853524e-02 -3.79534811e-02 -7.75334314e-02
      -2.05884017e-02 7.66809955e-02 3.21204588e-02 5.79666719e-02
      -5.28029241e-02 -4.61817998e-03 3.11302133e-02 4.50553978e-03
      -1.66168083e-02 -5.05938614e-03 1.83201153e-02 9.29385703e-03
      2.98624136e-03 5.51576167e-03 1.77936181e-02 2.97605223e-03
      2.01968104e-03 -4.84262221e-03 6.97921170e-03 -1.09977555e-02
      3.66269983e-02 -2.92131561e-04 -6.20067585e-05 1.64901301e-01</_>
    <_>
      3.92566137e-02 -1.03320158e-03 -4.63867597e-02 -8.00147559e-03
      -5.46685513e-03 -3.03224828e-02 5.37221581e-02 1.11014517e-02
      1.19693235e-01 -7.68607259e-02 -4.32729349e-02 -7.78227448e-02
      -1.95156895e-02 7.69615397e-02 3.23201902e-02 5.46225682e-02
      -5.65153137e-02 -2.47298414e-03 3.11264396e-02 2.35185004e-03
      -1.81852598e-02 -4.69585275e-03 1.81927737e-02 1.01596145e-02
      3.96705326e-03 5.51228225e-03 1.67978872e-02 3.78225627e-03
      1.53509842e-03 -8.15639365e-03 7.89406151e-03 -1.14634372e-02
      3.66309509e-02 -5.37399319e-04 -1.45151440e-04 1.64714113e-01</_>
    <_>
      1.11181717e-02 1.18789203e-01 -1.67643782e-02 -3.87795689e-03
      -3.38425264e-02 -1.81032717e-02 5.89717664e-02 6.97152875e-03
      1.09175242e-01 -7.74102509e-02 -4.12088074e-02 -7.12890029e-02
      -1.78651866e-02 7.66578615e-02 3.20516340e-02 5.58220521e-02
      -5.37375659e-02 -4.00925800e-03 3.24551500e-02 5.04789408e-03
      -1.71700642e-02 -4.38505178e-03 1.63960792e-02 9.11369547e-03
      2.01531034e-03 3.34459683e-03 1.63677316e-02 2.47018761e-03
      3.53205507e-03 -5.65967243e-03 6.89754682e-03 -1.23639628e-02
      3.69339436e-02 -1.21436967e-03 7.34772824e-04 1.65062129e-01</_>
    <_>
      1.03795221e-02 5.15790842e-02 -3.30791213e-02 -1.83825959e-02
      -2.48824451e-02 -3.36591005e-02 4.74984720e-02 4.49541584e-03
      1.15990967e-01 -7.88925141e-02 -4.28068526e-02 -7.21070394e-02
      -1.64504908e-02 7.62161538e-02 3.27812731e-02 5.40298559e-02
      -5.61822280e-02 -2.21422734e-03 3.10473014e-02 3.38246860e-03
      -1.69695504e-02 -2.95496313e-03 1.94090661e-02 1.13682048e-02
      2.63594207e-03 3.91321490e-03 1.74805690e-02 2.37876573e-03
      3.32441134e-03 -7.31938612e-03 6.68720668e-03 -1.14195030e-02
      3.70063111e-02 -1.02272292e-03 5.00471506e-04 1.64709166e-01</_>
    <_>
      9.86251831e-02 2.93520354e-02 3.69502208e-03 3.71006876e-02
      -1.12975342e-02 1.16022537e-02 7.47733861e-02 -2.36245547e-03
      1.08752020e-01 -7.39797428e-02 -4.52419706e-02 -7.42462128e-02
      -2.29109488e-02 7.72523955e-02 3.18179242e-02 5.68740591e-02
      -5.42281605e-02 -4.29881853e-04 2.81753130e-02 6.63926173e-03
      -1.76606309e-02 -3.42016737e-03 1.55779496e-02 1.04673738e-02
      1.48099870e-03 6.16849586e-03 1.76584665e-02 4.99700522e-03
      3.17699974e-03 -7.54294125e-03 7.64115900e-03 -1.09473085e-02
      3.75300199e-02 -9.71289061e-04 3.61808052e-04 1.64687589e-01</_>
    <_>
      -3.58378328e-02 2.98445281e-02 2.68765986e-01 -2.23560128e-02
      -3.92526165e-02 -2.90139094e-02 4.69078571e-02 9.39946249e-03
      1.31818920e-01 -7.56184384e-02 -4.07147072e-02 -7.45953843e-02
      -2.29510255e-02 7.68491700e-02 3.12969312e-02 5.68596721e-02
      -4.99706492e-02 -2.97007803e-03 3.31191830e-02 2.45827110e-03
      -1.35807469e-02 -4.69875289e-03 1.79345366e-02 8.90624989e-03
      2.33124010e-03 5.03685186e-03 1.59064624e-02 1.85220572e-03
      2.04178365e-03 -7.17675919e-03 8.20760988e-03 -1.17771998e-02
      3.82050909e-02 -1.50887785e-03 -2.66893534e-04 1.64857447e-01</_>
    <_>
      -7.21980410e-04 8.03848803e-02 -2.94438619e-02 -1.40358526e-02
      -1.95555706e-02 -2.19913162e-02 4.43987511e-02 4.64262394e-03
      1.17829338e-01 -7.22504780e-02 -3.83796282e-02 -7.39782751e-02
      -1.93656888e-02 7.38367960e-02 3.20998579e-02 6.15341216e-02
      -5.13236113e-02 -5.43709053e-03 2.89915893e-02 7.25896517e-03
      -1.53083876e-02 -3.10048554e-03 1.78774185e-02 1.03132622e-02
      3.13427043e-03 3.52065125e-03 1.74111165e-02 1.76465104e-03
      3.73189012e-03 -7.36806961e-03 7.47405924e-03 -1.06199728e-02
      3.70593965e-02 -3.65498621e-04 -1.05088938e-03 1.64516836e-01</_>
    <_>
      -2.07810774e-02 1.63380690e-02 2.61175424e-01 -2.29302868e-02
      -1.41516440e-02 -3.28867920e-02 3.64998318e-02 4.40170709e-03
      1.00652017e-01 -7.60070458e-02 -3.70577984e-02 -6.79352656e-02
      -2.05461457e-02 7.66062289e-02 2.96150781e-02 5.50872386e-02
      -5.47060855e-02 1.23469287e-03 2.87158955e-02 4.62576142e-03
      -1.63131151e-02 -3.56723950e-03 1.81496646e-02 6.62165321e-03
      2.40318687e-03 8.12759716e-03 1.48489848e-02 2.40316894e-03
      2.41497927e-03 -7.76584074e-03 1.09811043e-02 -1.21834399e-02
      3.51215079e-02 -4.15600091e-03 -5.17575652e-04 1.65464357e-01</_>
    <_>
      3.08390558e-02 3.37166153e-02 -2.78293397e-02 6.12752466e-03
      -6.53114729e-03 -1.71538815e-02 3.61636654e-02 3.43653676e-03
      1.10352196e-01 -7.36760348e-02 -4.29474227e-02 -7.38804042e-02
      -2.49522813e-02 7.28828013e-02 3.19973342e-02 5.75270578e-02
      -5.59629984e-02 -6.47421600e-03 3.69569622e-02 4.93006501e-03
      -1.40713323e-02 -6.04434544e-03 2.06580013e-02 1.01491399e-02
      3.74698988e-03 4.67846077e-03 1.51595604e-02 2.79369019e-03
      2.14794767e-03 -7.80318538e-03 8.89848080e-03 -1.22253029e-02
      3.66070531e-02 -1.17636193e-03 -1.64848345e-03 1.64589778e-01</_>
    <_>
      -1.83324702e-02 1.14754178e-01 -2.17163619e-02 6.32179063e-03
      -7.72476895e-03 -3.32150981e-02 4.48670313e-02 9.73644387e-03
      1.16660148e-01 -7.30095729e-02 -4.00598906e-02 -7.10559562e-02
      -1.91320628e-02 7.30696097e-02 3.01893428e-02 5.83517402e-02
      -5.43779954e-02 -3.41910147e-03 3.14060487e-02 5.13180532e-03
      -1.50423534e-02 -6.91132527e-03 1.59413405e-02 8.02057609e-03
      1.70811522e-03 4.00466286e-03 1.50261996e-02 3.46538937e-03
      3.16481409e-03 -7.72573007e-03 6.63986243e-03 -1.19959237e-02
      3.70074734e-02 -8.57009960e-04 -1.18395255e-03 1.65116340e-01</_>
    <_>
      5.07731438e-01 8.59885141e-02 -1.40238507e-02 -2.49349065e-02
      -8.18788353e-03 -3.32168527e-02 2.56806258e-02 5.69710415e-03
      1.18188486e-01 -7.48278350e-02 -4.10042517e-02 -6.88295066e-02
      -1.75964888e-02 7.50799552e-02 3.14547345e-02 5.53259701e-02
      -5.54005019e-02 -2.59787403e-03 3.28360610e-02 4.82915109e-03
      -1.73090436e-02 -5.42174373e-03 1.98582932e-02 9.87371802e-03
      3.37379449e-03 4.29756008e-03 1.60552561e-02 1.56486162e-03
      2.75667314e-03 -9.01270285e-03 7.06833135e-03 -1.20282900e-02
      3.67815830e-02 -9.95232607e-04 1.06596999e-04 1.64844647e-01</_>
    <_>
      4.71238233e-02 2.03037285e-03 3.80820148e-02 -5.91435935e-03
      -3.19208857e-03 -3.06869410e-02 4.72901426e-02 6.90513058e-03
      9.66768414e-02 -7.33385757e-02 -4.71060947e-02 -7.83663765e-02
      -1.37797613e-02 7.73303136e-02 3.23569141e-02 5.85311241e-02
      -5.37010655e-02 -6.54476508e-03 2.82907858e-02 4.45534615e-03
      -1.85813773e-02 -2.90189730e-03 1.71878785e-02 1.09757632e-02
      3.61404195e-03 6.73113624e-03 1.50344362e-02 2.06464529e-03
      4.03861888e-03 -7.43385870e-03 8.46107304e-03 -1.17359469e-02
      3.54736708e-02 3.11670155e-05 -3.76821525e-04 1.64792314e-01</_>
    <_>
      4.60712433e-01 5.50060757e-02 -9.81909968e-03 1.91966761e-02
      -2.33578812e-02 2.16451809e-02 5.48601523e-02 -5.91586065e-03
      1.33975327e-01 -8.31275508e-02 -4.02541272e-02 -7.10450038e-02
      -1.95156690e-02 7.80395865e-02 3.44931521e-02 5.63709661e-02
      -5.41487709e-02 -2.12318101e-03 3.11287697e-02 1.89375877e-03
      -1.60332303e-02 -4.43186471e-03 1.99769288e-02 9.50830244e-03
      3.59527511e-03 5.20260539e-03 1.57518797e-02 2.21323315e-03
      2.66236463e-03 -7.14870868e-03 7.71846669e-03 -1.18239354e-02
      3.70376222e-02 -5.19259716e-04 -4.24724189e-04 1.64657578e-01</_>
    <_>
      1.77728664e-02 1.05501257e-01 -1.81651264e-02 1.56855751e-02
      -5.66165475e-03 -2.05518398e-02 6.31104037e-02 5.02080098e-03
      1.14512585e-01 -8.39199126e-02 -4.31987271e-02 -7.76498765e-02
      -2.13497691e-02 7.70039111e-02 3.20905820e-02 5.87872565e-02
      -5.47887310e-02 -4.95035294e-03 3.02065071e-02 4.49005794e-03
      -1.60768069e-02 -4.28249640e-03 1.80878136e-02 7.82644935e-03
      2.80335685e-03 4.27474873e-03 1.55320177e-02 1.08470954e-03
      1.73319341e-03 -8.25423095e-03 6.30446943e-03 -1.21680209e-02
      3.68929580e-02 -7.89629121e-04 -8.51161254e-04 1.65097922e-01</_>
    <_>
      -9.44390427e-03 1.09751880e-01 4.56169695e-02 1.00020915e-02
      -7.24511337e-04 -3.78747955e-02 5.10409623e-02 5.85929118e-03
      1.10282965e-01 -7.95063153e-02 -3.52282897e-02 -7.30688199e-02
      -2.54866704e-02 7.96508119e-02 3.11145484e-02 5.35646491e-02
      -5.70252016e-02 -1.61320309e-03 3.08307838e-02 1.19064869e-02
      -1.81689914e-02 -2.60959147e-03 1.92907918e-02 8.48988537e-03
      6.41623512e-03 4.61673317e-03 1.57419611e-02 3.27652367e-03
      4.16006893e-03 -8.28904100e-03 8.17365851e-03 -1.10726636e-02
      3.87937762e-02 -3.98044661e-03 -3.48680420e-04 1.64285064e-01</_>
    <_>
      -3.57879065e-02 1.51360363e-01 -1.67857353e-02 -1.83801353e-02
      -2.66938116e-02 -1.34582408e-02 3.90792005e-02 9.53024067e-03
      1.19147465e-01 -7.59806931e-02 -3.82563733e-02 -7.06056133e-02
      -2.15316638e-02 7.56290928e-02 3.34599614e-02 5.66831194e-02
      -5.39318733e-02 -2.17880425e-03 2.88330894e-02 3.52368364e-03
      -1.66947842e-02 -8.08598287e-03 1.88476909e-02 6.80926861e-03
      2.77091004e-03 5.23263356e-03 1.64175685e-02 2.05957214e-03
      3.00365780e-03 -7.30991689e-03 7.58556789e-03 -1.17726307e-02
      3.73732336e-02 -7.90026155e-04 -4.88936377e-04 1.64834529e-01</_>
    <_>
      -4.06940803e-02 2.28778776e-02 1.99146807e-01 -4.13737297e-02
      -2.88350005e-02 -2.93290578e-02 4.43789698e-02 1.22941127e-02
      1.26396880e-01 -7.92668685e-02 -4.46678735e-02 -7.58298561e-02
      -1.96905173e-02 7.43468851e-02 3.24759334e-02 5.58694452e-02
      -5.36012091e-02 -4.04858170e-03 3.13020386e-02 1.98599999e-03
      -1.54731171e-02 -4.67245793e-03 1.81911942e-02 7.99918547e-03
      2.83461995e-03 5.40861581e-03 1.80874616e-02 1.81120809e-03
      2.45031854e-03 -7.94003997e-03 7.95501284e-03 -1.09386994e-02
      3.79417092e-02 -7.82708696e-04 -8.86937603e-04 1.64718643e-01</_>
    <_>
      -2.43731737e-02 1.16327927e-01 -2.92025022e-02 -2.33874880e-02
      -3.33511047e-02 -2.30446365e-02 4.95066941e-02 8.15858040e-03
      1.21268325e-01 -7.84341469e-02 -3.84979881e-02 -7.40275458e-02
      -1.82225294e-02 7.73327425e-02 2.84700952e-02 5.71662597e-02
      -5.48969433e-02 -3.70371714e-03 3.19549888e-02 5.34856366e-03
      -1.63435135e-02 -4.80209943e-03 1.65015236e-02 6.48933183e-03
      1.54094188e-03 6.30063470e-03 1.75664593e-02 1.16768957e-03
      4.33188118e-03 -6.96163531e-03 7.34115578e-03 -1.16724502e-02
      3.73293050e-02 -4.80664399e-04 -2.91969685e-04 1.65064380e-01</_>
    <_>
      1.46307433e-02 4.14327718e-02 -2.99766418e-02 5.04807848e-03
      5.85977780e-03 -2.06837114e-02 3.84778492e-02 3.88121349e-03
      1.14478402e-01 -7.49394894e-02 -4.45113853e-02 -7.30901957e-02
      -1.79372877e-02 7.62263536e-02 3.07373405e-02 5.81645109e-02
      -5.52601963e-02 -5.98873803e-03 3.25233117e-02 5.94176911e-03
      -1.85976531e-02 -4.20991424e-03 1.80431660e-02 8.61323252e-03
      2.49491958e-03 4.19526640e-03 1.62629373e-02 7.92086357e-04
      2.07139598e-03 -7.89740402e-03 7.25537771e-03 -1.10603496e-02
      3.82296890e-02 -6.35397853e-04 -1.28852355e-03 1.64623439e-01</_>
    <_>
      3.84864002e-03 8.18771422e-02 -1.91162881e-02 1.14298025e-02
      1.05832808e-03 -2.99899783e-02 4.22811732e-02 6.55454304e-03
      1.15697056e-01 -7.46561438e-02 -4.26442809e-02 -7.30569288e-02
      -2.16450579e-02 7.63041377e-02 3.05181015e-02 5.59602939e-02
      -5.44653758e-02 -2.17627804e-03 3.29737291e-02 3.99367372e-03
      -1.50040928e-02 -4.77895699e-03 1.84643064e-02 9.25305951e-03
      3.12218256e-03 6.26055151e-03 1.56021062e-02 1.65140722e-03
      1.10147463e-03 -4.15304024e-03 7.67498557e-03 -1.18178036e-02
      3.73955071e-02 -6.07805676e-04 -3.42736748e-04 1.64752275e-01</_>
    <_>
      -1.65791884e-02 -5.33482097e-02 3.11532915e-01 -2.12127864e-02
      -4.79459949e-03 -2.56417897e-02 5.14663458e-02 1.67646203e-02
      1.27971008e-01 -7.93851912e-02 -4.45225053e-02 -7.30119199e-02
      -1.94968581e-02 7.44688809e-02 3.23122665e-02 5.76173887e-02
      -5.09879664e-02 -2.67599337e-03 3.21569480e-02 8.57782550e-04
      -1.48637285e-02 -5.46190049e-03 1.94935072e-02 7.85811525e-03
      2.74819601e-03 3.68522946e-03 1.60955172e-02 1.69820222e-03
      2.98792706e-03 -7.15694949e-03 9.07657761e-03 -1.10958749e-02
      3.64061967e-02 -7.72773274e-05 3.36357130e-04 1.64731130e-01</_>
    <_>
      5.02127171e-01 7.67338350e-02 -1.47554195e-02 -2.14471351e-02
      -3.69618349e-02 -3.54131237e-02 4.46422175e-02 1.32342745e-02
      1.14029005e-01 -7.85244778e-02 -3.90574001e-02 -7.45076314e-02
      -1.97995026e-02 7.75281638e-02 3.18107940e-02 5.53797074e-02
      -5.38384914e-02 -3.34192370e-03 3.05373296e-02 4.74488921e-03
      -1.70568936e-02 -5.21357078e-03 1.86173655e-02 9.04238597e-03
      2.86917551e-03 4.24694922e-03 1.65292602e-02 2.74166022e-03
      3.78252193e-03 -6.89539453e-03 7.58045632e-03 -1.14548719e-02
      3.69371735e-02 -5.96582599e-04 3.95567797e-04 1.64728820e-01</_>
    <_>
      4.22568321e-02 -2.24530008e-02 -5.15517294e-02 -7.70330895e-03
      -4.01410367e-03 -3.70769799e-02 5.19973934e-02 1.30154472e-02
      1.15756080e-01 -7.72791356e-02 -4.21370715e-02 -7.25545213e-02
      -2.04242300e-02 7.54245147e-02 3.37170176e-02 5.54087125e-02
      -5.45481220e-02 -2.95200315e-03 3.08549274e-02 5.77974273e-03
      -1.44500462e-02 -4.19346103e-03 1.91713776e-02 8.48838873e-03
      2.21179752e-03 5.27200522e-03 1.68148242e-02 2.98085157e-03
      4.55058459e-03 -8.35712347e-03 7.89864548e-03 -1.31760165e-02
      3.70091237e-02 -7.49892846e-04 -8.38465698e-04 1.64743885e-01</_>
    <_>
      5.53676128e-01 7.88284838e-02 -1.18931551e-02 -1.77892968e-02
      -3.04317456e-02 -3.03544682e-02 3.71519774e-02 1.39300320e-02
      1.12375423e-01 -7.79954121e-02 -4.10614610e-02 -7.03084841e-02
      -1.81947574e-02 7.50966519e-02 3.09848394e-02 5.64111620e-02
      -5.51976301e-02 -4.18789452e-03 3.02685257e-02 5.85180474e-03
      -1.66721866e-02 -4.55878628e-03 1.71412807e-02 7.83166196e-03
      2.95861973e-03 4.61434247e-03 1.63328797e-02 3.11692222e-03
      2.38806033e-03 -7.42288120e-03 7.24663213e-03 -1.12846922e-02
      3.63941714e-02 -1.20227877e-03 -5.22776099e-04 1.65071175e-01</_>
    <_>
      -3.88475917e-02 1.51617944e-01 -1.30448649e-02 -1.26724802e-02
      -3.34162302e-02 -2.23766714e-02 3.98764834e-02 1.65496767e-02
      1.18897177e-01 -7.13607669e-02 -3.67325805e-02 -7.30162039e-02
      -2.08312012e-02 7.77025670e-02 2.99297348e-02 6.01688512e-02
      -5.56660332e-02 -4.78930445e-03 3.29606421e-02 2.54378701e-03
      -1.66492611e-02 -6.23982400e-03 1.98443718e-02 8.19718931e-03
      4.20249952e-03 3.88539350e-03 1.57237481e-02 4.68721904e-04
      2.67146295e-03 -6.04233705e-03 7.72087136e-03 -1.18824579e-02
      3.71691436e-02 -8.36668944e-04 -9.89453518e-04 1.64649829e-01</_>
    <_>
      1.25840083e-02 1.07693095e-02 -3.77741605e-02 -2.31600390e-03
      -1.25820572e-02 -2.65378281e-02 2.46312432e-02 1.61290672e-02
      1.12996183e-01 -8.06117356e-02 -3.74322012e-02 -7.53670409e-02
      -2.07766071e-02 7.17226341e-02 3.02051473e-02 5.79907335e-02
      -4.96165864e-02 -4.51936125e-04 3.12103480e-02 6.60557859e-03
      -1.96001474e-02 -6.49011554e-03 1.93096846e-02 6.47368236e-03
      1.69687672e-03 6.01721602e-03 1.85701754e-02 6.64362276e-04
      3.64969322e-03 -6.39448501e-03 8.31526518e-03 -1.04842158e-02
      3.70299257e-02 -4.52420529e-04 4.95673630e-05 1.64928660e-01</_>
    <_>
      4.04101126e-02 3.88729852e-03 -4.69058491e-02 -9.12761874e-03
      -5.40818647e-03 -3.35040987e-02 5.17034307e-02 1.62061527e-02
      1.19127743e-01 -7.67154992e-02 -4.09134701e-02 -7.43681341e-02
      -1.99597236e-02 7.74380788e-02 3.26779708e-02 5.77581897e-02
      -5.43379858e-02 -6.73069386e-04 2.95850877e-02 3.54133756e-03
      -1.67280529e-02 -5.83848776e-03 1.83538385e-02 9.16891731e-03
      4.20156261e-03 6.41805632e-03 1.61843840e-02 2.01463816e-03
      1.46875705e-03 -7.98543263e-03 7.26980623e-03 -1.13924276e-02
      3.63865942e-02 -4.20018565e-04 -9.45465756e-04 1.64934158e-01</_>
    <_>
      8.94940551e-03 1.12571001e-01 -1.70274451e-02 -2.36950931e-03
      -2.98650283e-02 -1.34328324e-02 5.98848835e-02 7.95025565e-03
      1.14957616e-01 -7.55752400e-02 -4.29141261e-02 -7.07786307e-02
      -2.08571944e-02 7.49346018e-02 3.18926461e-02 5.75045794e-02
      -5.24440967e-02 -3.07625649e-03 3.28614675e-02 5.88323828e-03
      -1.66283306e-02 -6.35001250e-03 2.03692783e-02 9.77141410e-03
      2.68445257e-03 5.14663430e-03 1.61144976e-02 2.88749975e-03
      2.56742304e-03 -6.81185769e-03 8.38787481e-03 -1.20374523e-02
      3.69163342e-02 -2.47589080e-04 -6.16429432e-04 1.64560825e-01</_>
    <_>
      3.26632738e-01 8.05370212e-02 1.18202204e-02 4.45281565e-02
      -5.52289141e-03 -3.19771618e-02 3.73139940e-02 2.72335368e-03
      1.21340759e-01 -7.02720955e-02 -3.90853509e-02 -7.03392178e-02
      -2.20502168e-02 7.36198947e-02 3.02094519e-02 5.87591305e-02
      -5.33692911e-02 -2.49533006e-03 3.06627136e-02 5.32694208e-03
      -1.45159774e-02 -7.07195466e-03 1.69490781e-02 6.13577850e-03
      2.95676012e-03 3.92178213e-03 1.73859391e-02 1.13684684e-03
      3.30451340e-03 -8.37852992e-03 7.66409468e-03 -1.02231521e-02
      3.75678726e-02 -8.27662298e-04 -4.63586795e-04 1.64789125e-01</_>
    <_>
      -2.99880933e-02 8.95458311e-02 1.96666017e-01 -8.71065352e-03
      -3.36914323e-02 -3.99487205e-02 3.94421667e-02 8.00670416e-04
      1.14130795e-01 -7.21351355e-02 -3.85149643e-02 -7.57608339e-02
      -1.81353465e-02 7.87708759e-02 3.10418326e-02 5.56553602e-02
      -5.29782139e-02 -2.18490744e-03 3.11330594e-02 3.26685468e-03
      -1.59625914e-02 -4.56599100e-03 1.71240792e-02 8.68953671e-03
      3.56644043e-03 5.07954927e-03 1.58689413e-02 2.10305862e-03
      3.16294911e-03 -7.29601178e-03 6.80961972e-03 -1.15165198e-02
      3.78409810e-02 5.95522986e-04 8.91458694e-05 1.64593145e-01</_>
    <_>
      -3.37520689e-02 1.47274598e-01 -1.90762728e-02 -1.63366385e-02
      -2.90660914e-02 -1.69095155e-02 4.54214849e-02 1.82696059e-02
      1.15233973e-01 -7.62310401e-02 -3.84951644e-02 -7.12282807e-02
      -2.02293564e-02 7.87553266e-02 3.04990355e-02 5.73296845e-02
      -5.43392748e-02 -3.69701837e-03 3.01894434e-02 4.66070976e-03
      -1.88696794e-02 -4.88463556e-03 1.90847423e-02 8.28328356e-03
      3.20128445e-03 4.32954310e-03 1.50420498e-02 2.58042617e-03
      2.87538557e-03 -6.07634475e-03 7.89825711e-03 -1.16371270e-02
      3.68104018e-02 -7.14189257e-04 -3.10128904e-04 1.64699182e-01</_>
    <_>
      -1.66093484e-02 1.06040999e-01 -2.55585592e-02 -3.69620929e-03
      -5.63979009e-03 -2.66401693e-02 4.74019274e-02 1.24103967e-02
      1.11433625e-01 -7.51165450e-02 -4.42273580e-02 -7.15869144e-02
      -1.98831148e-02 7.14416727e-02 3.03163212e-02 5.69254905e-02
      -5.21219373e-02 -3.04330664e-04 2.88820975e-02 6.76615536e-03
      -1.65516809e-02 -6.46430347e-03 1.90987755e-02 8.94687418e-03
      2.57312250e-03 6.21240074e-03 1.49977347e-02 3.50529212e-03
      2.63960939e-03 -8.46664608e-03 7.24510569e-03 -1.15650287e-02
      3.70937437e-02 -3.17881757e-04 -1.25244638e-04 1.64759189e-01</_>
    <_>
      2.71684527e-02 1.50629384e-02 -4.56178449e-02 -1.97147615e-02
      -1.72537751e-02 -3.32899690e-02 4.94932868e-02 1.42002748e-02
      1.25541583e-01 -7.37704337e-02 -3.54480483e-02 -7.32048750e-02
      -1.60319135e-02 7.64956474e-02 3.51131782e-02 5.43680117e-02
      -5.50150909e-02 -4.17684112e-03 3.14507484e-02 5.14494022e-03
      -1.62689257e-02 -7.37896049e-03 1.79933272e-02 8.88064131e-03
      3.07711982e-03 3.98600195e-03 1.87894348e-02 2.58877291e-03
      1.05813716e-03 -6.93554711e-03 7.12953880e-03 -1.17261680e-02
      3.78743000e-02 -4.68477199e-04 -6.61365339e-04 1.64750680e-01</_>
    <_>
      4.60712433e-01 5.50060757e-02 -9.81909968e-03 1.91966761e-02
      -2.33578812e-02 2.16451809e-02 5.48601523e-02 -5.91586065e-03
      1.33975327e-01 -8.31275508e-02 -4.02541272e-02 -7.10450038e-02
      -1.95156690e-02 7.80395865e-02 3.44931521e-02 5.63709661e-02
      -5.41487709e-02 -2.12318101e-03 3.11287697e-02 1.89375877e-03
      -1.60332303e-02 -4.43186471e-03 1.99769288e-02 9.50830244e-03
      3.59527511e-03 5.20260539e-03 1.57518797e-02 2.21323315e-03
      2.66236463e-03 -7.14870868e-03 7.71846669e-03 -1.18239354e-02
      3.70376222e-02 -5.19259716e-04 -4.24724189e-04 1.64657578e-01</_>
    <_>
      5.55933833e-01 9.62732360e-02 -1.00710187e-02 -2.54223365e-02
      -3.13040465e-02 -2.52766423e-02 3.60389277e-02 1.20251738e-02
      1.18500233e-01 -7.44635984e-02 -3.93350534e-02 -7.27999359e-02
      -1.96540188e-02 7.78281540e-02 3.11759803e-02 5.91052100e-02
      -5.43772392e-02 -4.80157835e-03 3.07638571e-02 4.26050974e-03
      -1.67966206e-02 -5.05451765e-03 1.90876704e-02 8.84810090e-03
      3.05574364e-03 5.46380691e-03 1.56432707e-02 1.90991093e-03
      2.05343449e-03 -6.82444498e-03 7.74485897e-03 -1.18685244e-02
      3.63356173e-02 -5.48533513e-04 -4.13079164e-04 1.64889753e-01</_>
    <_>
      7.19328582e-01 8.87198299e-02 3.03656701e-02 5.16507728e-03
      -2.81591322e-02 -2.49355659e-02 4.81174327e-02 1.08971568e-02
      1.12234622e-01 -7.44968727e-02 -3.80773880e-02 -7.16014653e-02
      -2.37836521e-02 7.35322312e-02 2.93458961e-02 5.77653348e-02
      -5.11784554e-02 -3.37846781e-04 2.72842832e-02 7.55917886e-03
      -1.61212981e-02 -7.08497548e-03 1.78184751e-02 7.62428017e-03
      3.43267387e-03 5.06727537e-03 1.61491111e-02 2.48322287e-03
      2.23189266e-03 -8.10441747e-03 7.65428785e-03 -1.10675404e-02
      3.69916148e-02 -7.55606379e-05 -6.13527896e-04 1.64712414e-01</_>
    <_>
      -1.83156896e-02 8.61325487e-02 -3.48530188e-02 -1.12570617e-02
      -2.52006669e-02 -1.89509261e-02 4.43321429e-02 1.48366345e-02
      1.19195975e-01 -8.61288384e-02 -3.82384583e-02 -7.37494528e-02
      -1.75628997e-02 7.62083828e-02 3.11681796e-02 5.80746382e-02
      -5.51701263e-02 -2.45502288e-03 3.29899490e-02 4.10788087e-03
      -1.70576274e-02 -3.95889301e-03 2.02723276e-02 6.06215931e-03
      4.23082942e-03 5.19906683e-03 1.71992183e-02 1.65313203e-03
      1.21736224e-03 -6.67737704e-03 7.97358900e-03 -1.18660694e-02
      3.62516157e-02 -7.17501098e-04 -3.85566993e-04 1.64971039e-01</_>
    <_>
      -1.27726002e-02 1.35708988e-01 -6.99189538e-03 2.07149815e-02
      -1.78017505e-02 -2.75158398e-02 3.69825140e-02 8.73199664e-03
      1.15846865e-01 -7.72399306e-02 -4.17668372e-02 -7.33917579e-02
      -1.97892841e-02 7.41266906e-02 2.88149379e-02 5.35991527e-02
      -5.26063666e-02 -3.66384070e-03 3.07734646e-02 4.31376370e-03
      -1.61530338e-02 -6.43852819e-03 1.93813220e-02 8.74190684e-03
      2.42429064e-03 3.30678979e-03 1.82483699e-02 2.20367708e-03
      3.34794773e-03 -9.81924310e-03 6.06924621e-03 -1.03762830e-02
      3.65553983e-02 -6.87108433e-04 7.46119622e-05 1.65080339e-01</_>
    <_>
      -1.42494065e-03 8.65352750e-02 -1.77035928e-02 1.52103016e-02
      -1.44498146e-04 -3.05195749e-02 4.11965661e-02 1.01458700e-02
      1.15798444e-01 -6.92642033e-02 -3.80870402e-02 -7.36810938e-02
      -2.15094630e-02 7.92093948e-02 3.24474648e-02 5.64023517e-02
      -5.42813651e-02 -3.26289004e-03 3.07551436e-02 5.15965885e-03
      -1.44241694e-02 -6.05896721e-03 1.83853284e-02 7.58433389e-03
      3.01030371e-03 4.49493481e-03 1.65982675e-02 1.66104943e-03
      2.59314128e-03 -5.72180375e-03 7.35335052e-03 -1.19703365e-02
      3.70050743e-02 -1.75713887e-03 -1.58831652e-04 1.65034935e-01</_>
    <_>
      1.58748496e-02 -6.17502118e-03 1.75578922e-01 1.46408575e-02
      1.84781384e-03 -2.19914485e-02 4.30289470e-02 4.12098505e-03
      9.89001989e-02 -7.90018365e-02 -2.43647825e-02 -6.58273622e-02
      -2.86898464e-02 6.97369948e-02 3.30185257e-02 5.36961406e-02
      -6.55517951e-02 -1.85945537e-03 2.86173243e-02 6.39126496e-03
      -1.88589953e-02 -2.28458596e-03 2.27638651e-02 9.54437535e-03
      1.64853805e-03 8.82885139e-03 1.46698076e-02 8.57495703e-04
      2.53224443e-03 -7.53897568e-03 4.54124110e-03 -1.21168680e-02
      3.62119675e-02 4.41397913e-03 -4.66330792e-04 1.64014325e-01</_>
    <_>
      4.19211298e-01 7.39151984e-02 -4.44261311e-03 4.20549922e-02
      1.94866152e-03 -1.22417621e-02 7.44623542e-02 1.38529046e-02
      1.17848016e-01 -8.24218988e-02 -3.85938175e-02 -7.29901940e-02
      -2.28112303e-02 7.66624361e-02 2.96162274e-02 5.61021417e-02
      -5.03929742e-02 -2.93905893e-03 3.08232252e-02 4.26692376e-03
      -1.61138382e-02 -5.24423551e-03 1.98286474e-02 7.76861468e-03
      2.91482545e-03 4.56905551e-03 1.77572127e-02 1.43124908e-03
      1.47918437e-03 -7.53398240e-03 7.91268609e-03 -1.07765393e-02
      3.64754573e-02 -3.46462126e-04 -2.75062339e-04 1.64909422e-01</_>
    <_>
      4.46681455e-02 -2.03454029e-02 -5.04965708e-02 -1.17436247e-02
      -1.01212915e-02 -3.72763127e-02 4.92221490e-02 1.46634718e-02
      1.15571521e-01 -7.62857199e-02 -4.23306860e-02 -7.17536807e-02
      -1.98779218e-02 7.55537599e-02 3.13489959e-02 5.63082248e-02
      -5.42966686e-02 -2.04143021e-03 3.00705750e-02 3.50103970e-03
      -1.75688937e-02 -2.68291100e-03 1.81047339e-02 1.06157316e-02
      3.34969000e-03 6.21570414e-03 1.67249404e-02 2.47691758e-03
      1.53688632e-03 -8.34861863e-03 7.49047427e-03 -1.14792036e-02
      3.74961793e-02 -8.63898720e-04 -4.45143203e-04 1.64664075e-01</_>
    <_>
      1.73112527e-02 3.92202660e-02 -4.18280140e-02 -1.63955465e-02
      -9.55988932e-03 -2.29487438e-02 4.04913127e-02 4.09089355e-03
      1.15647890e-01 -7.38534480e-02 -4.25080135e-02 -7.37331808e-02
      -2.10551471e-02 7.52554238e-02 3.22169140e-02 5.95628880e-02
      -5.22954427e-02 -2.80738575e-03 3.06883324e-02 5.98144205e-03
      -1.51601769e-02 -3.66159528e-03 2.05339584e-02 9.16859228e-03
      1.80222583e-03 5.18675800e-03 1.46598881e-02 2.61438708e-03
      3.46910395e-03 -7.93525763e-03 8.53765570e-03 -1.17680850e-02
      3.64818200e-02 -2.87397532e-04 4.44048026e-04 1.64618075e-01</_>
    <_>
      4.46681455e-02 -2.03454029e-02 -5.04965708e-02 -1.17436247e-02
      -1.01212915e-02 -3.72763127e-02 4.92221490e-02 1.46634718e-02
      1.15571521e-01 -7.62857199e-02 -4.23306860e-02 -7.17536807e-02
      -1.98779218e-02 7.55537599e-02 3.13489959e-02 5.63082248e-02
      -5.42966686e-02 -2.04143021e-03 3.00705750e-02 3.50103970e-03
      -1.75688937e-02 -2.68291100e-03 1.81047339e-02 1.06157316e-02
      3.34969000e-03 6.21570414e-03 1.67249404e-02 2.47691758e-03
      1.53688632e-03 -8.34861863e-03 7.49047427e-03 -1.14792036e-02
      3.74961793e-02 -8.63898720e-04 -4.45143203e-04 1.64664075e-01</_>
    <_>
      -6.62005623e-04 9.57392678e-02 -2.49173604e-02 -1.47550814e-02
      -2.83274446e-02 -2.11577658e-02 4.31324281e-02 7.04530301e-03
      1.19294859e-01 -7.70902783e-02 -4.20666821e-02 -7.63688162e-02
      -2.08749045e-02 7.63802677e-02 3.54131497e-02 5.77440299e-02
      -5.62693737e-02 -3.04249697e-03 3.05403005e-02 2.19684374e-03
      -1.51393069e-02 -2.14406219e-03 1.91374235e-02 1.02118747e-02
      3.05189099e-03 4.20335308e-03 1.77814271e-02 3.13965185e-03
      3.54977138e-03 -5.50108310e-03 6.91334950e-03 -1.04952771e-02
      3.73775586e-02 -4.50454711e-04 -1.08364504e-03 1.64429113e-01</_>
    <_>
      5.40209651e-01 7.91621432e-02 -1.08524198e-02 -1.88739430e-02
      -2.67625898e-02 -3.10631841e-02 4.02157344e-02 1.26742031e-02
      1.13522440e-01 -7.63425753e-02 -3.91314588e-02 -7.12129772e-02
      -2.09937878e-02 7.48601854e-02 3.27869728e-02 5.62645197e-02
      -5.30714020e-02 -3.22631258e-03 3.09741404e-02 3.90371727e-03
      -1.55121917e-02 -4.29335050e-03 1.72095429e-02 9.85015836e-03
      2.76548369e-03 4.67054872e-03 1.60328783e-02 1.19299372e-03
      2.12144665e-03 -7.56263966e-03 8.16722400e-03 -1.21024353e-02
      3.69735248e-02 2.93477315e-05 -5.08127909e-04 1.64724603e-01</_>
    <_>
      -4.39344253e-03 4.90437932e-02 -3.73144150e-02 -1.42704509e-02
      -1.59714390e-02 -2.23070122e-02 4.61613536e-02 1.22159906e-02
      1.20054424e-01 -7.38669708e-02 -3.98203544e-02 -7.57332370e-02
      -2.02593710e-02 7.73278922e-02 3.17833498e-02 5.74826635e-02
      -5.53223826e-02 3.19249695e-04 3.21907364e-02 3.25533072e-03
      -1.95725691e-02 -5.13575459e-03 1.52954543e-02 1.03381379e-02
      2.11471831e-03 4.47135838e-03 1.55308265e-02 2.68872362e-03
      2.03159731e-03 -7.63347233e-03 5.82148554e-03 -9.49895103e-03
      3.73157337e-02 -6.30940893e-04 -1.27466163e-03 1.65043712e-01</_>
    <_>
      -2.74131484e-02 1.14875741e-01 -1.87462103e-02 -1.38503015e-02
      -3.86694893e-02 -3.02691385e-02 3.75212692e-02 1.54293347e-02
      1.15187198e-01 -7.45261386e-02 -4.02185246e-02 -7.57109225e-02
      -2.14299969e-02 7.53358230e-02 3.08743455e-02 5.78705035e-02
      -5.44758439e-02 -4.31818917e-04 2.99765915e-02 3.86353210e-03
      -1.72516871e-02 -5.13440557e-03 1.70803722e-02 8.00134242e-03
      2.84034712e-03 5.73814986e-03 1.55916708e-02 1.36727921e-03
      1.73283985e-03 -7.35656917e-03 7.73210032e-03 -1.16258962e-02
      3.64605375e-02 -1.30097615e-05 -4.16213908e-04 1.64967492e-01</_>
    <_>
      4.22568321e-02 -2.24530008e-02 -5.15517294e-02 -7.70330895e-03
      -4.01410367e-03 -3.70769799e-02 5.19973934e-02 1.30154472e-02
      1.15756080e-01 -7.72791356e-02 -4.21370715e-02 -7.25545213e-02
      -2.04242300e-02 7.54245147e-02 3.37170176e-02 5.54087125e-02
      -5.45481220e-02 -2.95200315e-03 3.08549274e-02 5.77974273e-03
      -1.44500462e-02 -4.19346103e-03 1.91713776e-02 8.48838873e-03
      2.21179752e-03 5.27200522e-03 1.68148242e-02 2.98085157e-03
      4.55058459e-03 -8.35712347e-03 7.89864548e-03 -1.31760165e-02
      3.70091237e-02 -7.49892846e-04 -8.38465698e-04 1.64743885e-01</_>
    <_>
      -4.78234235e-03 7.30257258e-02 -3.47241350e-02 -1.59965474e-02
      -1.40103437e-02 -2.71767862e-02 4.49878536e-02 7.59338774e-03
      1.19471170e-01 -7.35815987e-02 -4.08702306e-02 -7.37827122e-02
      -1.79348756e-02 7.39490390e-02 3.28736417e-02 5.83172850e-02
      -5.31618148e-02 -4.65845317e-03 3.16271856e-02 5.08601032e-03
      -1.70509685e-02 -4.59566247e-03 1.98298618e-02 7.46757584e-03
      3.56477685e-03 4.44255443e-03 1.67831853e-02 1.60386320e-03
      3.77934804e-04 -6.35480415e-03 7.33799348e-03 -1.14647737e-02
      3.72766182e-02 -1.99538787e-04 -1.02362677e-03 1.64685667e-01</_>
    <_>
      5.05779386e-01 7.14778528e-02 -1.60519984e-02 -2.35913452e-02
      -2.84955204e-02 -3.06432173e-02 3.84413190e-02 1.10004349e-02
      1.17673106e-01 -7.29164183e-02 -3.98980156e-02 -7.33854249e-02
      -1.97064932e-02 7.58883134e-02 3.15294191e-02 5.69076948e-02
      -5.45538738e-02 -3.05244001e-03 3.18222083e-02 4.43751831e-03
      -1.75544862e-02 -6.18172437e-03 1.93217713e-02 9.36053973e-03
      2.55748257e-03 5.65199973e-03 1.69054139e-02 1.81435666e-03
      3.28126410e-03 -6.65411307e-03 7.48648960e-03 -1.13342265e-02
      3.68400551e-02 -6.69752364e-04 -9.56760196e-04 1.64807618e-01</_>
    <_>
      3.73700596e-02 7.36187969e-04 -4.71263938e-02 -8.10408406e-03
      -6.57427358e-03 -2.92011630e-02 5.16721345e-02 1.76588763e-02
      1.22397199e-01 -7.80651048e-02 -4.35641520e-02 -7.53800869e-02
      -1.86135359e-02 8.00060332e-02 3.30452211e-02 5.63418828e-02
      -5.53432889e-02 -3.50218709e-03 3.07803284e-02 3.12767341e-03
      -1.68396235e-02 -4.91098734e-03 1.77272260e-02 6.57441374e-03
      3.28887813e-03 6.89249346e-03 1.56786609e-02 2.81517603e-03
      1.68101501e-03 -7.72288209e-03 6.08890876e-03 -1.32007999e-02
      3.65552343e-02 -2.54797982e-04 -3.70064925e-04 1.65289775e-01</_>
    <_>
      9.52439755e-03 1.16622441e-01 -1.30495830e-02 1.62432087e-03
      -2.95294859e-02 -1.78080704e-02 5.84340990e-02 5.80112915e-03
      1.11285187e-01 -7.53401443e-02 -4.20274623e-02 -7.42566511e-02
      -2.03332584e-02 7.47920200e-02 3.25144306e-02 5.61175011e-02
      -5.37197851e-02 -5.09358291e-03 3.28915417e-02 4.31220233e-03
      -1.68557204e-02 -1.98155083e-03 1.92685109e-02 7.50892935e-03
      3.14286421e-03 2.85534677e-03 1.57721825e-02 2.06468860e-03
      1.88229908e-03 -6.24299655e-03 7.90513214e-03 -1.08781345e-02
      3.69256660e-02 -4.35314723e-04 -7.56574562e-04 1.64595082e-01</_>
    <_>
      1.21507673e-02 -3.41961794e-02 1.53403118e-01 -6.97732950e-03
      -8.04807432e-03 -1.04040867e-02 4.34667133e-02 -3.94141907e-03
      1.11367978e-01 -7.28147402e-02 -2.38698013e-02 -6.65593222e-02
      -2.55218409e-02 7.87618160e-02 3.17166410e-02 6.15466237e-02
      -6.14624768e-02 -4.42946656e-03 2.88576595e-02 9.12113208e-03
      -2.04278883e-02 -5.59463724e-03 2.25938987e-02 5.28967334e-03
      3.60648800e-03 3.84975900e-03 1.69257112e-02 2.44437810e-03
      2.15410721e-03 -7.39863701e-03 4.21948219e-03 -1.17540779e-02
      3.61523479e-02 1.77425297e-03 -2.42952665e-04 1.64432198e-01</_>
    <_>
      5.61600327e-01 8.28626081e-02 -1.14349760e-02 -1.88433006e-02
      -3.20340768e-02 -3.02212574e-02 3.87361944e-02 1.20977992e-02
      1.14238188e-01 -8.02995339e-02 -4.31203768e-02 -7.10492879e-02
      -1.88202281e-02 7.59074986e-02 3.00382785e-02 5.62686063e-02
      -5.41288033e-02 -3.06992838e-03 3.09355836e-02 5.11192111e-03
      -1.63083468e-02 -5.12745045e-03 1.82096977e-02 9.39316861e-03
      1.86755415e-03 5.91966184e-03 1.64638702e-02 2.99979723e-03
      2.77203764e-03 -6.46489812e-03 7.38881528e-03 -1.13176610e-02
      3.67717035e-02 -5.52495068e-04 -6.19712460e-04 1.64924577e-01</_>
    <_>
      2.62409449e-01 1.52257845e-01 1.33696524e-02 3.64105403e-02
      -2.89272349e-02 -3.27501893e-02 4.35277633e-02 6.65852288e-03
      1.17994688e-01 -8.08301866e-02 -2.94456575e-02 -7.36287087e-02
      -2.24932916e-02 7.10537359e-02 3.44988443e-02 5.97393028e-02
      -5.47488593e-02 -5.19262161e-03 3.32465619e-02 -1.60436635e-03
      -1.53185083e-02 -4.40719398e-03 1.79864671e-02 1.05428491e-02
      2.81419768e-03 2.38227146e-03 1.55952573e-02 1.47740892e-03
      2.33290391e-03 -8.21414124e-03 7.46657839e-03 -1.16773490e-02
      3.62278298e-02 -1.12257304e-03 -5.99944207e-04 1.64953530e-01</_>
    <_>
      1.47424033e-02 2.44734287e-02 -3.73839810e-02 -1.63647141e-02
      -1.04526114e-02 -1.73063986e-02 3.24921310e-02 1.86103990e-03
      1.20587863e-01 -7.25768134e-02 -4.16916050e-02 -7.59690180e-02
      -1.84074640e-02 7.60473087e-02 3.08754668e-02 6.05809353e-02
      -5.51159903e-02 -3.18679539e-03 3.27194966e-02 6.03659870e-03
      -2.21678112e-02 -1.76481705e-03 1.82358101e-02 9.85033810e-03
      4.08462947e-03 3.64774768e-03 1.63668022e-02 2.62480206e-03
      2.97713466e-03 -7.30992248e-03 6.72693411e-03 -1.11719975e-02
      3.71091217e-02 -5.69875760e-04 -9.49335576e-04 1.64545998e-01</_>
    <_>
      -2.14339960e-02 1.10217996e-01 -2.30279788e-02 -1.85151375e-03
      -7.35680806e-03 -2.56600920e-02 4.68220823e-02 9.24780034e-03
      1.14828870e-01 -7.44271576e-02 -3.95027176e-02 -7.21965432e-02
      -2.17290483e-02 7.38216117e-02 3.28846313e-02 5.65112866e-02
      -5.27809449e-02 -3.33004491e-03 2.97051165e-02 6.57245889e-03
      -1.72525160e-02 -5.99374156e-03 1.77638941e-02 1.01450495e-02
      2.79104942e-03 5.12859412e-03 1.64266210e-02 3.52563779e-03
      2.35547149e-03 -8.08012392e-03 7.41423992e-03 -1.14052510e-02
      3.62125933e-02 -9.83147533e-04 -5.51055535e-04 1.64965540e-01</_>
    <_>
      7.71976113e-02 2.42789239e-02 -1.95233487e-02 -1.27407908e-03
      -4.60328115e-03 -3.04796826e-02 4.42738421e-02 1.48700306e-03
      8.99043158e-02 -6.91463277e-02 -4.81817946e-02 -8.24285746e-02
      -9.45498992e-04 6.56999424e-02 3.29575613e-02 6.04978129e-02
      -5.69451861e-02 -1.52555639e-02 3.24841961e-02 4.69034072e-04
      -2.03120168e-02 -3.26699833e-03 2.25620251e-02 4.42322483e-03
      5.42081241e-03 4.76209261e-03 1.58239231e-02 9.02194937e-04
      3.63143161e-03 -7.70529965e-03 7.92859308e-03 -9.95455123e-03
      3.56426686e-02 -1.76311107e-04 -4.97770845e-04 1.64639071e-01</_>
    <_>
      -1.05212734e-03 6.33132085e-02 -3.33625376e-02 -1.51710771e-02
      -1.11142965e-02 -1.72714926e-02 3.64671908e-02 1.14958705e-02
      1.21431962e-01 -7.44947717e-02 -3.87585275e-02 -7.14205056e-02
      -1.69594977e-02 7.65024275e-02 3.31363529e-02 5.95500953e-02
      -5.35637587e-02 -4.05467488e-03 2.85856444e-02 7.88928289e-03
      -1.67884007e-02 -5.83177945e-03 1.91678517e-02 9.03803948e-03
      3.53735965e-03 5.46265766e-03 1.52864167e-02 3.96071281e-03
      2.35249242e-03 -7.52771320e-03 7.68010039e-03 -1.10337678e-02
      3.71431448e-02 -2.59339635e-04 -4.81787196e-04 1.64541334e-01</_>
    <_>
      4.60712433e-01 5.50060757e-02 -9.81909968e-03 1.91966761e-02
      -2.33578812e-02 2.16451809e-02 5.48601523e-02 -5.91586065e-03
      1.33975327e-01 -8.31275508e-02 -4.02541272e-02 -7.10450038e-02
      -1.95156690e-02 7.80395865e-02 3.44931521e-02 5.63709661e-02
      -5.41487709e-02 -2.12318101e-03 3.11287697e-02 1.89375877e-03
      -1.60332303e-02 -4.43186471e-03 1.99769288e-02 9.50830244e-03
      3.59527511e-03 5.20260539e-03 1.57518797e-02 2.21323315e-03
      2.66236463e-03 -7.14870868e-03 7.71846669e-03 -1.18239354e-02
      3.70376222e-02 -5.19259716e-04 -4.24724189e-04 1.64657578e-01</_>
    <_>
      -9.44390427e-03 1.09751880e-01 4.56169695e-02 1.00020915e-02
      -7.24511337e-04 -3.78747955e-02 5.10409623e-02 5.85929118e-03
      1.10282965e-01 -7.95063153e-02 -3.52282897e-02 -7.30688199e-02
      -2.54866704e-02 7.96508119e-02 3.11145484e-02 5.35646491e-02
      -5.70252016e-02 -1.61320309e-03 3.08307838e-02 1.19064869e-02
      -1.81689914e-02 -2.60959147e-03 1.92907918e-02 8.48988537e-03
      6.41623512e-03 4.61673317e-03 1.57419611e-02 3.27652367e-03
      4.16006893e-03 -8.28904100e-03 8.17365851e-03 -1.10726636e-02
      3.87937762e-02 -3.98044661e-03 -3.48680420e-04 1.64285064e-01</_>
    <_>
      -1.19057763e-02 5.54484390e-02 -2.84265000e-02 -1.42726237e-02
      -1.96711458e-02 -1.84690692e-02 2.81493105e-02 1.28573468e-02
      1.19806595e-01 -7.18425661e-02 -3.86778079e-02 -7.49972835e-02
      -1.92136765e-02 7.75392577e-02 3.18354517e-02 5.98319136e-02
      -5.51360510e-02 -2.83781183e-03 3.00365221e-02 6.42233156e-03
      -1.92820765e-02 -6.17586914e-03 1.61216687e-02 7.94740953e-03
      2.30871397e-03 5.20074042e-03 1.63918510e-02 2.68321228e-03
      3.51689965e-03 -9.00435168e-03 8.41154996e-03 -1.09266127e-02
      3.74237597e-02 -9.19993035e-04 -8.05052241e-06 1.64793909e-01</_>
    <_>
      3.33566442e-02 1.50123518e-02 -4.10861596e-02 -1.31918658e-02
      -1.23965228e-02 -2.85876319e-02 4.84348014e-02 2.94433301e-03
      1.14913039e-01 -7.19733983e-02 -4.56654504e-02 -6.99049830e-02
      -2.10143123e-02 7.28544220e-02 3.33766863e-02 6.04290888e-02
      -5.35315014e-02 -2.29317881e-03 2.86746826e-02 4.09514876e-03
      -1.77416112e-02 -3.45449615e-03 1.76315922e-02 6.04939694e-03
      2.42720381e-03 4.43600910e-03 1.54796448e-02 1.96827506e-03
      2.15983344e-03 -6.34777080e-03 7.89538864e-03 -1.29705882e-02
      3.74573693e-02 -2.42152513e-04 -1.16086472e-03 1.64626420e-01</_>
    <_>
      -2.78328396e-02 1.20051757e-01 -2.39941254e-02 -3.06989271e-02
      -4.73433807e-02 -1.27597600e-02 3.95787843e-02 7.55814742e-03
      1.19602710e-01 -7.28123933e-02 -3.92249860e-02 -7.65580088e-02
      -2.18043979e-02 7.53959566e-02 3.29013765e-02 5.76272756e-02
      -5.53738773e-02 -1.15491950e-03 2.78878808e-02 2.66817119e-03
      -1.81879811e-02 -4.41271253e-03 1.99127290e-02 1.01136817e-02
      3.08413757e-03 5.14990790e-03 1.62987597e-02 2.20489898e-03
      2.73004943e-03 -7.03020394e-03 7.68450089e-03 -1.14691770e-02
      3.68561782e-02 -9.40681901e-04 -1.46519113e-03 1.64608032e-01</_>
    <_>
      1.63131661e-03 8.19898546e-02 -1.88259985e-02 1.43650314e-02
      -3.61385522e-03 -2.79025994e-02 4.56467234e-02 5.93242375e-03
      1.15263022e-01 -7.34260008e-02 -4.19088341e-02 -7.36679137e-02
      -1.85297616e-02 7.77658522e-02 3.54344957e-02 5.68993017e-02
      -5.49195297e-02 -2.34931614e-03 3.13663967e-02 2.76819989e-03
      -1.52384555e-02 -4.45604837e-03 1.85279660e-02 9.78415366e-03
      2.98899366e-03 5.09475963e-03 1.62705556e-02 2.91156839e-03
      3.79048125e-03 -4.04177746e-03 6.67718239e-03 -1.10825030e-02
      3.69510986e-02 -2.35397121e-04 -5.43042901e-04 1.64672717e-01</_>
    <_>
      1.66022554e-01 8.82489532e-02 -5.31239528e-03 1.41551439e-02
      -3.32370810e-02 -2.02214699e-02 5.02382591e-02 6.21890510e-03
      1.16574787e-01 -7.17940032e-02 -3.83804888e-02 -7.59504959e-02
      -2.16003899e-02 7.43231997e-02 2.93426439e-02 5.54721877e-02
      -5.14953844e-02 -3.99798062e-03 3.14114690e-02 5.65561187e-03
      -1.69180240e-02 -3.14037502e-03 1.91087592e-02 7.48251611e-03
      2.49069766e-03 5.08431857e-03 1.66413635e-02 2.46220175e-03
      3.48022929e-03 -6.06072834e-03 7.62694329e-03 -1.13072153e-02
      3.60603742e-02 -6.60111778e-04 -1.32725661e-04 1.64958909e-01</_>
    <_>
      4.99679983e-01 8.50917846e-02 -1.25062345e-02 -2.17595175e-02
      -2.78025940e-02 -2.54868772e-02 3.80287468e-02 9.39810183e-03
      1.15128979e-01 -7.70143196e-02 -4.25564088e-02 -7.33001009e-02
      -1.91060398e-02 7.56173134e-02 3.06098908e-02 5.97677343e-02
      -5.39523512e-02 -3.68134794e-03 2.89936438e-02 4.98700654e-03
      -1.72858126e-02 -3.28965625e-03 1.96820721e-02 8.73311609e-03
      3.51407472e-03 4.92142700e-03 1.52476234e-02 1.72700023e-03
      3.25102243e-03 -8.20588879e-03 8.14452954e-03 -1.09221851e-02
      3.62736396e-02 -3.43942811e-04 -4.58659837e-04 1.64621010e-01</_>
    <_>
      4.30555828e-02 -2.05148626e-02 -4.94031869e-02 -8.96684639e-03
      -9.16660670e-03 -3.70480567e-02 5.00849672e-02 1.33125326e-02
      1.17106140e-01 -7.24226236e-02 -4.11188416e-02 -7.48713166e-02
      -1.87475365e-02 7.54506513e-02 3.20456102e-02 5.39009906e-02
      -5.49769774e-02 -3.84273077e-03 3.14996801e-02 2.51683663e-03
      -1.70612596e-02 -5.70407370e-03 1.89896245e-02 7.68829603e-03
      1.08377391e-03 6.92168996e-03 1.51950931e-02 3.88852437e-03
      2.33225571e-03 -9.83303133e-03 7.56689627e-03 -1.25177447e-02
      3.61795463e-02 -5.94806101e-04 -7.53464934e-04 1.65223479e-01</_>
    <_>
      9.45411474e-02 2.10769802e-01 5.68887629e-02 1.93296492e-01
      6.88342750e-02 -9.71439257e-02 2.97316443e-02 9.40088741e-03
      1.48742244e-01 -5.85178211e-02 -3.46846469e-02 -6.67494312e-02
      -1.83925238e-02 8.00308883e-02 3.26136537e-02 5.71759716e-02
      -5.21678850e-02 -2.47687986e-03 3.10009476e-02 4.02376801e-03
      -1.67905949e-02 -6.31006528e-03 1.81487668e-02 9.75665264e-03
      2.49727513e-03 3.80496425e-03 1.55271655e-02 2.28235265e-03
      2.54136557e-03 -7.94355944e-03 7.80365570e-03 -1.15140108e-02
      3.62947620e-02 7.93255283e-04 -5.59578417e-04 1.64638504e-01</_>
    <_>
      4.25357051e-04 6.31715581e-02 -3.31404693e-02 -2.14409288e-02
      -1.26873367e-02 -3.09901889e-02 4.16913964e-02 4.20555472e-03
      1.19307615e-01 -7.26847351e-02 -4.10507098e-02 -7.41425753e-02
      -2.20591221e-02 7.64522776e-02 3.26511674e-02 5.75777479e-02
      -5.28615341e-02 -4.54477780e-03 3.18096206e-02 5.52455848e-03
      -1.73866767e-02 -3.91790411e-03 1.86658725e-02 7.41148368e-03
      8.89680465e-04 5.48710721e-03 1.63204595e-02 2.19553267e-03
      2.79681827e-03 -8.25465564e-03 7.50221359e-03 -1.23735052e-02
      3.58840972e-02 -7.80150469e-04 6.65720901e-04 1.65243328e-01</_>
    <_>
      5.57030022e-01 7.73858055e-02 -1.34414108e-02 -2.04563737e-02
      -2.85661686e-02 -2.78513543e-02 3.98155600e-02 1.34132812e-02
      1.16258860e-01 -7.62889534e-02 -4.04650420e-02 -7.11821392e-02
      -1.87389925e-02 7.67801031e-02 3.15122046e-02 5.66625521e-02
      -5.39787970e-02 -3.47706140e-03 2.98260022e-02 5.50663471e-03
      -1.70537326e-02 -5.02156420e-03 1.75931342e-02 8.49514734e-03
      2.50295922e-03 6.12473348e-03 1.59407575e-02 2.08225893e-03
      2.69771786e-03 -7.24111870e-03 7.66825629e-03 -1.19317975e-02
      3.68325040e-02 -4.18801908e-04 -1.91973231e-04 1.64913520e-01</_>
    <_>
      -1.57389026e-02 9.66274515e-02 -2.91637518e-02 -7.03228405e-03
      -1.71861779e-02 -2.97783297e-02 4.30227332e-02 7.17093330e-03
      1.23215973e-01 -7.38142505e-02 -4.15839925e-02 -7.15884939e-02
      -1.88052766e-02 7.59787858e-02 3.07533331e-02 5.99602871e-02
      -5.48158027e-02 -2.75707757e-03 3.05365846e-02 4.27410658e-03
      -1.75999794e-02 -5.98810241e-03 1.94287784e-02 9.21329949e-03
      4.17614542e-03 4.12726821e-03 1.65186692e-02 2.90130801e-03
      3.61188804e-03 -8.14587530e-03 6.44911313e-03 -1.25785209e-02
      3.75194438e-02 -3.06639471e-04 -5.31343452e-04 1.64529338e-01</_>
    <_>
      4.38826717e-02 7.66556710e-02 -1.14215501e-02 1.75650045e-02
      -1.50428964e-02 -3.27127823e-03 5.49815707e-02 6.10878598e-03
      1.18688829e-01 -7.27511793e-02 -3.99087667e-02 -7.00724795e-02
      -1.58611909e-02 7.23019689e-02 3.48210968e-02 5.97114637e-02
      -5.58736064e-02 -8.10827769e-04 2.87997928e-02 4.65994515e-03
      -1.77002195e-02 -5.31096803e-03 1.64568201e-02 6.57212874e-03
      3.04563553e-03 4.01892280e-03 1.67691167e-02 3.00271297e-03
      3.21211107e-03 -7.62983272e-03 8.01889319e-03 -1.07093938e-02
      3.65096480e-02 -9.57720971e-04 -7.35417882e-04 1.64854079e-01</_>
    <_>
      -3.10112704e-02 1.38656169e-01 -2.09878888e-02 -1.07378969e-02
      -2.51137167e-02 -1.75439864e-02 4.21925895e-02 1.77880079e-02
      1.19076855e-01 -7.20118359e-02 -3.85703780e-02 -6.97505996e-02
      -2.10018102e-02 7.87205547e-02 2.84647848e-02 5.79740070e-02
      -5.38449325e-02 -2.47156597e-03 3.25442851e-02 5.23808738e-03
      -1.82174984e-02 -5.81990369e-03 1.94956511e-02 9.50890593e-03
      2.59792921e-03 4.38251020e-03 1.52562549e-02 2.32977001e-03
      2.88776378e-03 -6.99827028e-03 6.68935059e-03 -1.10647026e-02
      3.68237011e-02 -8.89787683e-04 -2.95093108e-04 1.64892703e-01</_>
    <_>
      9.99940634e-02 6.41171634e-02 -8.06802697e-03 3.32406610e-02
      5.78105124e-03 -1.83166433e-02 4.48354259e-02 6.62035448e-03
      1.14973582e-01 -7.48326629e-02 -3.67063545e-02 -7.18376860e-02
      -1.86141450e-02 6.74325973e-02 3.35721299e-02 6.08231910e-02
      -5.41991740e-02 -4.51979553e-03 3.09158098e-02 3.95567529e-03
      -1.30371768e-02 -5.06457407e-03 1.90084353e-02 7.57383183e-03
      3.51251452e-03 5.55053819e-03 1.56294871e-02 1.72955415e-03
      2.64233537e-03 -7.61668989e-03 8.36775266e-03 -1.28463889e-02
      3.74916866e-02 -1.26868358e-03 -3.46052722e-04 1.64682508e-01</_>
    <_>
      -1.34100448e-02 1.08733915e-01 -2.43884679e-02 -2.76322998e-02
      -4.10185456e-02 -3.28603387e-02 5.24201021e-02 2.02212972e-03
      1.15750246e-01 -7.34753162e-02 -4.07602675e-02 -7.23292977e-02
      -2.16749962e-02 7.33235329e-02 3.17296311e-02 6.46499246e-02
      -5.36021218e-02 -7.06817082e-04 3.08918469e-02 5.26005728e-03
      -1.82019118e-02 -4.94581275e-03 1.83096882e-02 7.72096822e-03
      3.27261374e-03 3.86568275e-03 1.62474699e-02 2.37347046e-03
      2.03400222e-03 -6.18079212e-03 7.89202657e-03 -1.30965915e-02
      3.67082581e-02 -2.33403596e-04 2.04664786e-04 1.64629743e-01</_>
    <_>
      -6.22196635e-03 8.52837488e-02 -2.31932998e-02 -3.02600060e-02
      -2.95890421e-02 -1.68316737e-02 3.87347564e-02 -5.37430635e-03
      1.15105391e-01 -7.69826323e-02 -4.29438427e-02 -7.63723776e-02
      -2.08025556e-02 7.41577223e-02 3.53762023e-02 6.02904223e-02
      -5.52276000e-02 -1.25230465e-03 2.84764972e-02 4.40562936e-03
      -1.75852068e-02 -5.20884059e-03 1.82845294e-02 6.95064431e-03
      2.44249799e-03 3.78194265e-03 1.58935096e-02 1.98725774e-03
      2.31149071e-03 -5.71358390e-03 8.52245837e-03 -1.19782416e-02
      3.77779342e-02 -1.28330314e-03 7.16503064e-06 1.64572254e-01</_>
    <_>
      -8.77284333e-02 3.31474662e-01 4.33848053e-02 4.33239415e-02
      -1.12918578e-01 -6.41531050e-02 2.65050568e-02 -6.08479884e-03
      1.25064537e-01 -7.43075535e-02 -3.97576056e-02 -7.77082220e-02
      -2.09813975e-02 7.96056837e-02 2.88835913e-02 5.24777845e-02
      -5.45417145e-02 -5.93993859e-03 2.62322463e-02 1.96190318e-03
      -1.58243701e-02 -6.04285952e-03 1.80674996e-02 8.58565606e-03
      3.58360284e-03 4.18784749e-03 1.78639255e-02 2.07312009e-03
      2.62253708e-03 -7.62192113e-03 6.44942047e-03 -1.08207725e-02
      3.69856954e-02 -2.24637988e-04 -3.62379244e-04 1.64782181e-01</_>
    <_>
      5.31370677e-02 -2.45674662e-02 -5.33184558e-02 -1.72300898e-02
      -1.18721016e-02 -3.67524251e-02 4.50493060e-02 9.41697881e-03
      1.12443551e-01 -6.84677362e-02 -4.00816016e-02 -6.39027804e-02
      -2.33229510e-02 7.50864521e-02 2.89683137e-02 5.90414815e-02
      -5.07855117e-02 -3.99130490e-03 3.28365341e-02 3.36485589e-03
      -1.50129283e-02 -3.67348618e-03 1.56288110e-02 6.05056994e-03
      5.75697934e-03 4.12735250e-03 1.50744813e-02 4.63889865e-03
      1.34255725e-03 -7.51244836e-03 7.64299650e-03 -1.04180481e-02
      3.65737602e-02 2.84943613e-04 3.59941216e-04 1.64642945e-01</_>
    <_>
      4.00895476e-02 2.16966937e-03 -4.62242402e-02 -5.80326188e-03
      -3.14284442e-03 -3.42738405e-02 5.00315055e-02 1.23504987e-02
      1.21555194e-01 -7.42202774e-02 -4.21531536e-02 -7.60392845e-02
      -1.97571777e-02 7.75477737e-02 3.28716636e-02 5.51343337e-02
      -5.54427579e-02 -1.88911671e-03 3.07831336e-02 4.11717407e-03
      -1.71878394e-02 -4.15162835e-03 1.91382226e-02 8.77117366e-03
      3.30405962e-03 4.92245937e-03 1.59883518e-02 2.79237889e-03
      2.30962061e-03 -7.33361440e-03 7.73227355e-03 -1.14993304e-02
      3.74517031e-02 -3.64549458e-04 1.27440857e-04 1.64541736e-01</_>
    <_>
      9.52439755e-03 1.16622441e-01 -1.30495830e-02 1.62432087e-03
      -2.95294859e-02 -1.78080704e-02 5.84340990e-02 5.80112915e-03
      1.11285187e-01 -7.53401443e-02 -4.20274623e-02 -7.42566511e-02
      -2.03332584e-02 7.47920200e-02 3.25144306e-02 5.61175011e-02
      -5.37197851e-02 -5.09358291e-03 3.28915417e-02 4.31220233e-03
      -1.68557204e-02 -1.98155083e-03 1.92685109e-02 7.50892935e-03
      3.14286421e-03 2.85534677e-03 1.57721825e-02 2.06468860e-03
      1.88229908e-03 -6.24299655e-03 7.90513214e-03 -1.08781345e-02
      3.69256660e-02 -4.35314723e-04 -7.56574562e-04 1.64595082e-01</_>
    <_>
      1.21507673e-02 -3.41961794e-02 1.53403118e-01 -6.97732950e-03
      -8.04807432e-03 -1.04040867e-02 4.34667133e-02 -3.94141907e-03
      1.11367978e-01 -7.28147402e-02 -2.38698013e-02 -6.65593222e-02
      -2.55218409e-02 7.87618160e-02 3.17166410e-02 6.15466237e-02
      -6.14624768e-02 -4.42946656e-03 2.88576595e-02 9.12113208e-03
      -2.04278883e-02 -5.59463724e-03 2.25938987e-02 5.28967334e-03
      3.60648800e-03 3.84975900e-03 1.69257112e-02 2.44437810e-03
      2.15410721e-03 -7.39863701e-03 4.21948219e-03 -1.17540779e-02
      3.61523479e-02 1.77425297e-03 -2.42952665e-04 1.64432198e-01</_>
    <_>
      1.34125603e-02 3.08493301e-02 -4.38802987e-02 -2.70993114e-02
      -1.60700120e-02 -2.98785232e-02 4.46631052e-02 -2.34905188e-03
      1.23816781e-01 -7.83468932e-02 -3.77747379e-02 -7.09494054e-02
      -1.94195621e-02 7.45762512e-02 2.87449844e-02 6.29127696e-02
      -5.49408384e-02 -5.40854223e-03 2.87742615e-02 5.73708257e-03
      -1.55944917e-02 -5.52443182e-03 1.62725355e-02 1.01229260e-02
      3.65733751e-03 6.33887667e-03 1.62639003e-02 1.80155528e-03
      6.63957559e-04 -7.74451206e-03 6.45687850e-03 -1.17547009e-02
      3.70318852e-02 -1.34495192e-03 -6.84457133e-04 1.65053010e-01</_>
    <_>
      1.31194042e-02 6.53765053e-02 -3.03155947e-02 -1.27605544e-02
      -2.46110540e-02 -1.88939366e-02 4.33632284e-02 6.29774295e-03
      1.17665917e-01 -7.22816139e-02 -4.09089439e-02 -7.11864233e-02
      -2.06421800e-02 7.40913078e-02 3.23685370e-02 5.85863702e-02
      -5.58023117e-02 -1.36364566e-03 3.09416801e-02 4.99467738e-03
      -1.70416050e-02 -4.96231439e-03 1.76491980e-02 7.36615481e-03
      3.09442263e-03 4.46958235e-03 1.55207738e-02 2.06892728e-03
      2.92893033e-03 -6.46030577e-03 7.31243473e-03 -1.25788152e-02
      3.68464887e-02 -9.94171482e-04 5.54211205e-04 1.64882571e-01</_>
    <_>
      -2.14339960e-02 1.10217996e-01 -2.30279788e-02 -1.85151375e-03
      -7.35680806e-03 -2.56600920e-02 4.68220823e-02 9.24780034e-03
      1.14828870e-01 -7.44271576e-02 -3.95027176e-02 -7.21965432e-02
      -2.17290483e-02 7.38216117e-02 3.28846313e-02 5.65112866e-02
      -5.27809449e-02 -3.33004491e-03 2.97051165e-02 6.57245889e-03
      -1.72525160e-02 -5.99374156e-03 1.77638941e-02 1.01450495e-02
      2.79104942e-03 5.12859412e-03 1.64266210e-02 3.52563779e-03
      2.35547149e-03 -8.08012392e-03 7.41423992e-03 -1.14052510e-02
      3.62125933e-02 -9.83147533e-04 -5.51055535e-04 1.64965540e-01</_>
    <_>
      1.14072606e-01 -6.12885924e-04 -3.01802848e-02 1.84549969e-02
      -2.77923178e-02 -6.81938650e-03 6.54692501e-02 6.17314409e-03
      1.25759915e-01 -8.20996165e-02 -4.17136401e-02 -7.50960186e-02
      -2.24451087e-02 8.12410191e-02 3.20115760e-02 6.03202321e-02
      -5.52099757e-02 -4.81306063e-03 3.19120325e-02 3.64928041e-03
      -1.76692028e-02 -5.91215165e-03 2.02158429e-02 7.76785426e-03
      1.15485711e-03 6.13762811e-03 1.62425619e-02 1.41372834e-03
      3.36618489e-03 -8.51957779e-03 8.15937389e-03 -1.09671075e-02
      3.69923525e-02 -8.72650999e-04 -1.04073761e-03 1.64874211e-01</_>
    <_>
      7.71976113e-02 2.42789239e-02 -1.95233487e-02 -1.27407908e-03
      -4.60328115e-03 -3.04796826e-02 4.42738421e-02 1.48700306e-03
      8.99043158e-02 -6.91463277e-02 -4.81817946e-02 -8.24285746e-02
      -9.45498992e-04 6.56999424e-02 3.29575613e-02 6.04978129e-02
      -5.69451861e-02 -1.52555639e-02 3.24841961e-02 4.69034072e-04
      -2.03120168e-02 -3.26699833e-03 2.25620251e-02 4.42322483e-03
      5.42081241e-03 4.76209261e-03 1.58239231e-02 9.02194937e-04
      3.63143161e-03 -7.70529965e-03 7.92859308e-03 -9.95455123e-03
      3.56426686e-02 -1.76311107e-04 -4.97770845e-04 1.64639071e-01</_>
    <_>
      -3.33742648e-02 1.16002686e-01 -2.24440154e-02 -1.86354835e-02
      -2.87279598e-02 -2.43525114e-02 3.20609137e-02 2.52618641e-03
      1.23574652e-01 -7.53512532e-02 -4.39787023e-02 -7.42204040e-02
      -2.04104688e-02 7.82105401e-02 3.32677662e-02 6.41174540e-02
      -5.75274415e-02 -2.90269079e-03 2.97513995e-02 4.74764919e-03
      -1.75269116e-02 -3.05397878e-03 2.00669635e-02 7.50019308e-03
      3.65323550e-03 4.77021048e-03 1.60995610e-02 1.54830806e-03
      2.47904658e-03 -7.22452998e-03 8.18013772e-03 -1.24149397e-02
      3.73095721e-02 -7.07613362e-04 -1.12178945e-03 1.64421305e-01</_>
    <_>
      8.84271692e-03 3.76902483e-02 -3.67300920e-02 -1.32162180e-02
      -8.28657858e-03 -1.90921519e-02 3.40027213e-02 6.12179516e-03
      1.18762620e-01 -6.65878132e-02 -3.61545272e-02 -7.92641118e-02
      -2.46831309e-02 7.41622150e-02 3.38387229e-02 5.56163676e-02
      -5.04687726e-02 -4.68865503e-03 3.22731547e-02 3.70948017e-03
      -1.90100204e-02 -1.60125829e-03 2.22271383e-02 9.46504623e-03
      1.58031320e-03 3.95607296e-03 1.57578047e-02 1.84711558e-03
      2.18743505e-03 -6.58067269e-03 7.88902678e-03 -1.19681321e-02
      3.66118923e-02 -9.02404950e-04 -8.06571334e-04 1.64707050e-01</_>
    <_>
      -3.18129291e-03 1.04195327e-01 -2.66639255e-02 -4.61676978e-02
      -3.79472449e-02 -4.40923683e-03 4.58337553e-02 -3.87091353e-03
      1.18098713e-01 -7.56385550e-02 -3.64981033e-02 -7.64470026e-02
      -2.14661155e-02 7.26948157e-02 3.13420668e-02 5.83225563e-02
      -5.28295226e-02 -4.60428931e-03 2.96486709e-02 4.38088831e-03
      -1.60811935e-02 -5.34853153e-03 1.69988777e-02 9.26597044e-03
      2.95043434e-03 4.56683338e-03 1.66057758e-02 1.67907419e-04
      1.45496998e-03 -6.85777050e-03 7.33713480e-03 -1.25763584e-02
      3.74832191e-02 -4.99783317e-04 -2.08005984e-03 1.64850324e-01</_>
    <_>
      2.34002480e-03 8.44389424e-02 -1.94333978e-02 1.51858311e-02
      -4.15573176e-03 -2.45918650e-02 4.56729531e-02 4.02711844e-03
      1.13238484e-01 -7.27392435e-02 -3.84693481e-02 -7.56570697e-02
      -1.82098560e-02 7.90184587e-02 3.50952111e-02 5.86616434e-02
      -5.29106148e-02 -1.57988491e-03 2.97638364e-02 2.96536880e-03
      -1.44613329e-02 -4.47731372e-03 1.78080387e-02 9.28475428e-03
      2.26737256e-03 5.16935438e-03 1.62705444e-02 1.97613123e-03
      2.39179283e-03 -4.30460973e-03 6.90199109e-03 -1.12247765e-02
      3.80800515e-02 -4.99176502e-04 -2.03938107e-05 1.64691031e-01</_>
    <_>
      4.87930700e-03 6.13190234e-02 -3.51090804e-02 -2.06985250e-02
      -2.54607387e-02 -2.14927457e-02 3.86880040e-02 5.90752251e-03
      1.19498894e-01 -6.79743737e-02 -4.10264805e-02 -7.32426420e-02
      -2.27089040e-02 7.77407587e-02 3.24767977e-02 5.88004477e-02
      -5.48141710e-02 -3.46614886e-03 3.20222229e-02 4.74233972e-03
      -1.61927007e-02 -3.56108649e-03 1.74108613e-02 7.89742079e-03
      3.37924436e-03 3.32700927e-03 1.71934906e-02 1.67318597e-03
      2.03213166e-03 -7.07196025e-03 7.62230344e-03 -1.15022799e-02
      3.83548699e-02 -9.69550805e-04 -1.03916088e-03 1.64506137e-01</_>
    <_>
      -1.65791884e-02 -5.33482097e-02 3.11532915e-01 -2.12127864e-02
      -4.79459949e-03 -2.56417897e-02 5.14663458e-02 1.67646203e-02
      1.27971008e-01 -7.93851912e-02 -4.45225053e-02 -7.30119199e-02
      -1.94968581e-02 7.44688809e-02 3.23122665e-02 5.76173887e-02
      -5.09879664e-02 -2.67599337e-03 3.21569480e-02 8.57782550e-04
      -1.48637285e-02 -5.46190049e-03 1.94935072e-02 7.85811525e-03
      2.74819601e-03 3.68522946e-03 1.60955172e-02 1.69820222e-03
      2.98792706e-03 -7.15694949e-03 9.07657761e-03 -1.10958749e-02
      3.64061967e-02 -7.72773274e-05 3.36357130e-04 1.64731130e-01</_>
    <_>
      4.22568321e-02 -2.24530008e-02 -5.15517294e-02 -7.70330895e-03
      -4.01410367e-03 -3.70769799e-02 5.19973934e-02 1.30154472e-02
      1.15756080e-01 -7.72791356e-02 -4.21370715e-02 -7.25545213e-02
      -2.04242300e-02 7.54245147e-02 3.37170176e-02 5.54087125e-02
      -5.45481220e-02 -2.95200315e-03 3.08549274e-02 5.77974273e-03
      -1.44500462e-02 -4.19346103e-03 1.91713776e-02 8.48838873e-03
      2.21179752e-03 5.27200522e-03 1.68148242e-02 2.98085157e-03
      4.55058459e-03 -8.35712347e-03 7.89864548e-03 -1.31760165e-02
      3.70091237e-02 -7.49892846e-04 -8.38465698e-04 1.64743885e-01</_>
    <_>
      8.34448263e-04 6.40508160e-02 -2.70065162e-02 -5.49264578e-03
      -1.52369114e-02 -3.16373594e-02 3.43236998e-02 4.27246699e-03
      1.18631743e-01 -8.04824904e-02 -4.56731953e-02 -7.51222521e-02
      -2.22079065e-02 7.72557035e-02 3.26334350e-02 5.69391288e-02
      -5.63035235e-02 -2.75804708e-03 3.07021923e-02 2.91099516e-03
      -1.69093180e-02 -5.78789040e-03 2.05887575e-02 9.22118872e-03
      2.08490388e-03 6.24930672e-03 1.65092237e-02 8.34986626e-04
      3.03911115e-03 -7.08421646e-03 8.26396234e-03 -1.19860312e-02
      3.75485010e-02 -1.00823597e-03 -1.28640633e-04 1.64632544e-01</_>
    <_>
      9.60546061e-02 1.26902968e-01 8.12289398e-03 7.76599199e-02
      2.54936032e-02 -2.97007021e-02 5.22372797e-02 1.45095680e-02
      1.18732460e-01 -8.36346447e-02 -4.48062532e-02 -6.56926408e-02
      -1.66191384e-02 7.50283673e-02 2.71998011e-02 5.68307377e-02
      -5.25724702e-02 -2.56164442e-03 2.80751456e-02 5.86202322e-03
      -1.77797787e-02 -5.26657701e-03 1.65677182e-02 9.80586372e-03
      3.39058647e-03 5.60485292e-03 1.77871250e-02 2.48912745e-03
      2.60305777e-03 -7.33917579e-03 7.38391280e-03 -1.05429441e-02
      3.60815227e-02 -3.29586386e-04 -1.01141236e-03 1.64965108e-01</_>
    <_>
      5.57030022e-01 7.73858055e-02 -1.34414108e-02 -2.04563737e-02
      -2.85661686e-02 -2.78513543e-02 3.98155600e-02 1.34132812e-02
      1.16258860e-01 -7.62889534e-02 -4.04650420e-02 -7.11821392e-02
      -1.87389925e-02 7.67801031e-02 3.15122046e-02 5.66625521e-02
      -5.39787970e-02 -3.47706140e-03 2.98260022e-02 5.50663471e-03
      -1.70537326e-02 -5.02156420e-03 1.75931342e-02 8.49514734e-03
      2.50295922e-03 6.12473348e-03 1.59407575e-02 2.08225893e-03
      2.69771786e-03 -7.24111870e-03 7.66825629e-03 -1.19317975e-02
      3.68325040e-02 -4.18801908e-04 -1.91973231e-04 1.64913520e-01</_>
    <_>
      -4.04210053e-02 1.56221375e-01 -1.47163989e-02 -2.10720543e-02
      -2.43470520e-02 -1.27839195e-02 4.43725809e-02 9.45525616e-03
      1.19457558e-01 -7.29703605e-02 -3.77089791e-02 -7.21633956e-02
      -2.12280732e-02 7.83295482e-02 3.26458663e-02 5.79638556e-02
      -5.38328923e-02 -3.40278307e-03 2.91950349e-02 4.52154875e-03
      -1.66992340e-02 -7.14646652e-03 2.00707875e-02 8.90633557e-03
      3.22904391e-03 6.01967517e-03 1.53714512e-02 3.05753504e-03
      3.83932795e-03 -7.55056553e-03 8.89511127e-03 -1.18332207e-02
      3.74948829e-02 -6.26517751e-04 -3.40695464e-04 1.64401174e-01</_>
    <_>
      -2.51843669e-02 9.99604836e-02 -3.03057618e-02 -5.60048595e-03
      -3.76861058e-02 -1.70421619e-02 3.92645784e-02 1.76598616e-02
      1.24213874e-01 -7.79542476e-02 -3.84137444e-02 -7.23624453e-02
      -1.82415079e-02 7.57577345e-02 3.31140496e-02 5.74787520e-02
      -5.58933802e-02 -1.26183010e-03 3.03420313e-02 4.83838702e-03
      -1.57182198e-02 -5.38918935e-03 2.12115925e-02 8.95112101e-03
      2.49258103e-03 6.24364894e-03 1.55077642e-02 3.61996423e-03
      3.43471440e-03 -8.07182956e-03 7.64574204e-03 -1.21941557e-02
      3.70296873e-02 -6.46338332e-04 -6.58776378e-04 1.64672405e-01</_>
    <_>
      -4.21722978e-03 6.06333725e-02 -3.53674702e-02 -1.85618438e-02
      -2.00607423e-02 -3.00819185e-02 5.40762655e-02 1.78277753e-02
      1.16643548e-01 -7.33677819e-02 -4.01200168e-02 -7.16728568e-02
      -2.05118153e-02 7.46137500e-02 3.27854045e-02 5.68923429e-02
      -5.51706553e-02 -9.75085248e-04 3.00934482e-02 4.65697283e-03
      -1.85243487e-02 -4.56626993e-03 1.86316632e-02 8.23752489e-03
      2.25016219e-03 6.31364016e-03 1.65583510e-02 5.66398026e-04
      2.95289839e-03 -4.56228480e-03 8.67826492e-03 -1.22765470e-02
      3.71413231e-02 -2.71345227e-04 -8.10379570e-04 1.64596707e-01</_>
    <_>
      -1.47396075e-02 1.06357634e-01 -2.38785557e-02 -3.26006114e-02
      -5.24979010e-02 -2.54631881e-02 4.85655740e-02 1.17906462e-02
      1.12373814e-01 -7.39577860e-02 -4.17507067e-02 -7.18605295e-02
      -2.18367949e-02 7.81801194e-02 2.76304837e-02 6.44758120e-02
      -5.33300191e-02 -3.25712003e-03 3.00471298e-02 4.93893679e-03
      -1.82141569e-02 -3.97053594e-03 1.90775208e-02 9.47032962e-03
      5.31257456e-03 5.95142413e-03 1.60880331e-02 1.66418753e-03
      2.80739972e-03 -6.84154080e-03 7.10841781e-03 -1.20775253e-02
      3.72756086e-02 -9.02608561e-04 -8.47262098e-04 1.64541543e-01</_>
    <_>
      -2.78176088e-02 1.35238484e-01 -1.37112085e-02 -5.46528550e-04
      -2.55436338e-02 -3.11143249e-02 2.99365893e-02 4.09233104e-03
      1.16586335e-01 -7.80911669e-02 -4.24160324e-02 -7.14373738e-02
      -1.88082065e-02 7.51854777e-02 3.18781361e-02 5.70954233e-02
      -5.47392815e-02 -2.39971559e-03 3.12510282e-02 3.26259434e-03
      -1.44405793e-02 -4.67054918e-03 2.02402975e-02 8.14219657e-03
      2.24673864e-03 5.91332559e-03 1.49457790e-02 3.29116755e-03
      3.75388982e-03 -6.77432632e-03 8.65244679e-03 -1.25682652e-02
      3.75337787e-02 -8.74139660e-04 -8.16240557e-04 1.64555758e-01</_>
    <_>
      -3.69974598e-02 1.49790436e-01 -1.43204341e-02 -1.27397245e-02
      -3.90617624e-02 -1.68319307e-02 4.64627780e-02 1.49813741e-02
      1.15964450e-01 -7.95445293e-02 -3.98595482e-02 -7.17584416e-02
      -1.91950761e-02 7.60640427e-02 3.26144844e-02 5.73424362e-02
      -5.49065061e-02 -1.92816521e-03 2.79235225e-02 3.84858623e-03
      -1.54915890e-02 -5.33780316e-03 1.87004153e-02 8.80169589e-03
      3.03875003e-03 5.60093950e-03 1.64356846e-02 2.72062048e-03
      5.16228657e-03 -5.88945672e-03 7.70066818e-03 -1.10955797e-02
      3.69842798e-02 -5.78831939e-04 -3.83722683e-04 1.64604530e-01</_>
    <_>
      8.22909772e-02 -6.88788071e-02 -5.50666489e-02 -2.17346591e-03
      -2.76982766e-02 -4.31225747e-02 4.62388359e-02 -1.43254257e-03
      1.17826723e-01 -8.14989880e-02 -3.39596011e-02 -6.77731931e-02
      -2.05561686e-02 7.93171972e-02 2.74572261e-02 5.71264252e-02
      -5.28531261e-02 -9.33682919e-03 2.90004332e-02 3.18824803e-03
      -1.57137476e-02 -6.76879333e-03 1.55810816e-02 7.91481975e-03
      3.40246246e-03 4.70322231e-03 1.61466058e-02 1.07934128e-03
      1.93695980e-03 -7.76660023e-03 1.00757414e-02 -1.24223689e-02
      3.79229002e-02 -4.80328541e-04 -6.35848555e-04 1.64516732e-01</_>
    <_>
      1.15776502e-01 -1.98591989e-03 -2.95700040e-02 1.32897776e-02
      -2.12774277e-02 -1.68425459e-02 3.51090990e-02 1.23455320e-02
      1.20268799e-01 -8.28918666e-02 -3.55840474e-02 -7.54271969e-02
      -2.08485257e-02 7.24569857e-02 3.32626142e-02 5.52898422e-02
      -4.99947183e-02 -3.97975510e-03 3.11665758e-02 5.90199558e-03
      -1.92429051e-02 -4.55436204e-03 2.18189657e-02 8.65587033e-03
      1.81916205e-03 4.62259306e-03 1.78740583e-02 2.23332387e-03
      1.96307432e-03 -7.56557239e-03 9.53249726e-03 -1.06264632e-02
      3.55865099e-02 -7.17226940e-04 -1.09453558e-03 1.64850041e-01</_>
    <_>
      -1.96440369e-02 1.07894428e-01 -2.93814037e-02 -1.59402378e-02
      -3.77340280e-02 -2.27891114e-02 4.04218808e-02 1.68400202e-02
      1.19673908e-01 -7.85921812e-02 -3.69843356e-02 -7.44392052e-02
      -1.69429798e-02 7.33427852e-02 3.28235328e-02 5.84400184e-02
      -5.42925596e-02 -3.83364083e-03 2.76855007e-02 4.70266817e-03
      -1.67773683e-02 -3.79692554e-03 1.97631139e-02 8.11445806e-03
      4.28816816e-03 4.52378392e-03 1.56304520e-02 4.17919178e-03
      4.26724041e-03 -5.60339401e-03 7.00850878e-03 -1.22936564e-02
      3.64733823e-02 -5.71274606e-04 -5.39780536e-04 1.64631650e-01</_>
    <_>
      -2.10101027e-02 1.00689009e-01 -3.08798049e-02 -1.06686493e-02
      -2.80277673e-02 -1.95135213e-02 3.51047479e-02 1.44872786e-02
      1.24133162e-01 -7.86749125e-02 -3.91755365e-02 -7.16696009e-02
      -1.68636274e-02 7.67996907e-02 3.04284580e-02 5.69099374e-02
      -5.46496175e-02 -3.81602277e-03 3.15286182e-02 4.94286930e-03
      -1.70203093e-02 -5.34265256e-03 1.86995231e-02 7.93219078e-03
      2.52629584e-03 4.46709059e-03 1.64634977e-02 3.96821741e-03
      8.83542467e-04 -7.81864300e-03 6.52667927e-03 -1.16703846e-02
      3.62548046e-02 -5.98139653e-04 -5.97483129e-04 1.65190637e-01</_>
    <_>
      -1.16463248e-02 9.84225124e-02 -3.29188518e-02 -1.37361521e-02
      -2.19092816e-02 -7.96073209e-03 5.40883057e-02 2.27934700e-02
      1.21965289e-01 -7.16857761e-02 -4.02517840e-02 -7.26710260e-02
      -2.09172927e-02 8.15672278e-02 3.27476114e-02 5.96421026e-02
      -5.44027127e-02 -4.78683924e-03 2.87201293e-02 5.40319877e-03
      -1.67040844e-02 -4.51842789e-03 1.93851497e-02 7.59995915e-03
      2.48790672e-03 5.88001637e-03 1.53446598e-02 1.40205026e-03
      2.76437053e-03 -9.31118801e-03 8.23517051e-03 -1.07008163e-02
      3.70037593e-02 -4.25114034e-04 -4.76570451e-04 1.64716959e-01</_>
    <_>
      2.08149869e-02 1.81898680e-02 -4.45476659e-02 -1.30266566e-02
      5.96579909e-03 -2.03671791e-02 5.55686243e-02 1.48921506e-02
      1.13987006e-01 -7.04391450e-02 -4.02253307e-02 -7.23688006e-02
      -2.11252216e-02 7.23771006e-02 3.17763425e-02 5.23377694e-02
      -5.31410351e-02 -2.66546360e-03 3.02094426e-02 5.35732647e-03
      -1.54728191e-02 -5.98976109e-03 1.85096450e-02 9.65358224e-03
      2.18527205e-03 5.98089537e-03 1.62434392e-02 3.14427423e-03
      1.93896994e-03 -7.42444629e-03 7.35804811e-03 -1.09104123e-02
      3.64077985e-02 -5.45152405e-04 -5.71729383e-04 1.64963543e-01</_>
    <_>
      5.45742452e-01 9.97105464e-02 3.32509354e-02 4.14874479e-02
      -2.46115252e-02 -2.17122696e-02 5.88955581e-02 7.92484824e-03
      1.15001500e-01 -7.30814338e-02 -3.18691805e-02 -7.63784051e-02
      -2.22966447e-02 7.51763955e-02 3.24790664e-02 5.71301468e-02
      -5.23581393e-02 -1.86146668e-03 3.18992808e-02 4.10705712e-03
      -1.80370845e-02 -2.33257213e-03 1.92923974e-02 5.69738168e-03
      4.10217000e-03 3.51812341e-03 1.61939729e-02 2.27820524e-03
      2.90972739e-03 -7.78023340e-03 8.24958831e-03 -1.11021278e-02
      3.75108384e-02 -1.43392838e-03 -4.28852305e-04 1.64607763e-01</_>
    <_>
      5.45742452e-01 9.97105464e-02 3.32509354e-02 4.14874479e-02
      -2.46115252e-02 -2.17122696e-02 5.88955581e-02 7.92484824e-03
      1.15001500e-01 -7.30814338e-02 -3.18691805e-02 -7.63784051e-02
      -2.22966447e-02 7.51763955e-02 3.24790664e-02 5.71301468e-02
      -5.23581393e-02 -1.86146668e-03 3.18992808e-02 4.10705712e-03
      -1.80370845e-02 -2.33257213e-03 1.92923974e-02 5.69738168e-03
      4.10217000e-03 3.51812341e-03 1.61939729e-02 2.27820524e-03
      2.90972739e-03 -7.78023340e-03 8.24958831e-03 -1.11021278e-02
      3.75108384e-02 -1.43392838e-03 -4.28852305e-04 1.64607763e-01</_>
    <_>
      5.45742452e-01 9.97105464e-02 3.32509354e-02 4.14874479e-02
      -2.46115252e-02 -2.17122696e-02 5.88955581e-02 7.92484824e-03
      1.15001500e-01 -7.30814338e-02 -3.18691805e-02 -7.63784051e-02
      -2.22966447e-02 7.51763955e-02 3.24790664e-02 5.71301468e-02
      -5.23581393e-02 -1.86146668e-03 3.18992808e-02 4.10705712e-03
      -1.80370845e-02 -2.33257213e-03 1.92923974e-02 5.69738168e-03
      4.10217000e-03 3.51812341e-03 1.61939729e-02 2.27820524e-03
      2.90972739e-03 -7.78023340e-03 8.24958831e-03 -1.11021278e-02
      3.75108384e-02 -1.43392838e-03 -4.28852305e-04 1.64607763e-01</_>
    <_>
      5.45742452e-01 9.97105464e-02 3.32509354e-02 4.14874479e-02
      -2.46115252e-02 -2.17122696e-02 5.88955581e-02 7.92484824e-03
      1.15001500e-01 -7.30814338e-02 -3.18691805e-02 -7.63784051e-02
      -2.22966447e-02 7.51763955e-02 3.24790664e-02 5.71301468e-02
      -5.23581393e-02 -1.86146668e-03 3.18992808e-02 4.10705712e-03
      -1.80370845e-02 -2.33257213e-03 1.92923974e-02 5.69738168e-03
      4.10217000e-03 3.51812341e-03 1.61939729e-02 2.27820524e-03
      2.90972739e-03 -7.78023340e-03 8.24958831e-03 -1.11021278e-02
      3.75108384e-02 -1.43392838e-03 -4.28852305e-04 1.64607763e-01</_>
    <_>
      2.40982082e-02 4.57737781e-02 -4.02099788e-02 -2.58408356e-02
      -1.51387323e-02 -2.35636383e-02 4.53507714e-02 2.31612846e-03
      1.18874431e-01 -7.22651407e-02 -3.59953642e-02 -7.43635967e-02
      -2.13565994e-02 7.42862523e-02 3.11589800e-02 5.78306168e-02
      -5.30389324e-02 -3.75221623e-03 3.00258454e-02 3.73220700e-03
      -1.49831204e-02 -5.17147966e-03 1.84181556e-02 7.62206316e-03
      3.14239133e-03 5.78481471e-03 1.58690978e-02 1.44844176e-03
      1.77592912e-03 -6.26569008e-03 7.69867050e-03 -1.12296445e-02
      3.69010493e-02 -8.40261404e-04 3.13071127e-04 1.64885461e-01</_>
    <_>
      1.94494333e-02 -2.16554254e-02 7.11325109e-02 -1.88499840e-03
      -2.79357024e-02 -2.86672879e-02 3.84297930e-02 -2.90872809e-03
      1.14459008e-01 -7.44514689e-02 -3.86341512e-02 -7.81585127e-02
      -1.85143463e-02 8.08303580e-02 3.30740735e-02 6.24058880e-02
      -5.12335747e-02 -3.11470451e-03 3.15978527e-02 6.35252474e-03
      -1.90067776e-02 -7.21761165e-03 1.91762336e-02 1.30936708e-02
      2.58462736e-03 5.11344010e-03 1.60061382e-02 2.42798286e-03
      4.20966651e-03 -7.51389237e-03 5.86879952e-03 -1.15946438e-02
      3.78591418e-02 1.50206715e-05 4.00513265e-04 1.64576560e-01</_>
    <_>
      -1.77156907e-02 9.20526087e-02 -2.10968871e-02 -1.64310038e-02
      -1.36027681e-02 -2.04940923e-02 4.23801094e-02 5.39218867e-03
      1.14647448e-01 -7.32466355e-02 -4.14891280e-02 -7.55540729e-02
      -2.19151229e-02 7.31173754e-02 3.22781131e-02 5.66421896e-02
      -5.40148020e-02 -2.72729457e-03 3.16388458e-02 1.88654417e-03
      -1.68406665e-02 -5.11390530e-03 1.99431516e-02 9.01112147e-03
      3.64029664e-03 4.45485953e-03 1.73310712e-02 3.47125088e-03
      3.58551717e-03 -5.68010798e-03 6.92733331e-03 -1.13259153e-02
      3.73226032e-02 -5.03894815e-04 -6.24646083e-04 1.64513350e-01</_>
    <_>
      -3.13499644e-02 1.38898820e-01 -1.80889964e-02 -1.19677568e-02
      -3.07997316e-02 -1.50000611e-02 4.56485972e-02 1.23615488e-02
      1.18490010e-01 -7.55915567e-02 -4.07812931e-02 -7.02356771e-02
      -1.90951526e-02 7.78977275e-02 3.12828496e-02 5.71389794e-02
      -5.49807101e-02 -4.87605575e-03 3.12217716e-02 3.64510622e-03
      -1.66794602e-02 -4.76255454e-03 1.83933508e-02 8.81653279e-03
      3.25668301e-03 4.09633294e-03 1.70127787e-02 3.45625798e-03
      2.83914502e-03 -7.56218517e-03 7.28965178e-03 -1.22878747e-02
      3.77486460e-02 -7.95735570e-04 -7.03908736e-04 1.64629176e-01</_>
    <_>
      -1.57033186e-02 8.39634240e-02 -3.27249281e-02 -7.82222580e-03
      -3.21162827e-02 -1.39025366e-02 4.10267264e-02 2.04510298e-02
      1.23196259e-01 -7.78160095e-02 -3.72309089e-02 -7.15018287e-02
      -1.88513007e-02 7.68201500e-02 3.19997445e-02 5.78232370e-02
      -5.32749109e-02 -4.12686681e-03 3.25366706e-02 2.75459373e-03
      -1.62113681e-02 -3.01691075e-03 1.92738790e-02 7.33967219e-03
      3.51405470e-03 4.48591728e-03 1.61562283e-02 2.62712780e-03
      3.26292263e-03 -8.19781329e-03 7.76594784e-03 -1.11895418e-02
      3.64407338e-02 1.17299023e-04 -4.84450538e-05 1.64758429e-01</_>
    <_>
      2.63869315e-02 3.91519256e-02 -3.08949631e-02 -2.25085840e-02
      -2.27473043e-02 -2.41355617e-02 4.33028229e-02 3.00695328e-03
      1.15603201e-01 -7.23875389e-02 -3.99080999e-02 -7.25166202e-02
      -1.82176139e-02 7.59659037e-02 3.10963150e-02 5.29789478e-02
      -5.44644520e-02 -2.06584018e-03 3.05588227e-02 3.48818698e-03
      -1.53085608e-02 -8.54459032e-03 1.99367199e-02 9.05013457e-03
      3.14939348e-03 6.32948382e-03 1.54134547e-02 3.88624053e-03
      3.89613933e-03 -9.26370267e-03 7.86912721e-03 -1.15080848e-02
      3.57379466e-02 -9.59119760e-04 -6.58335339e-04 1.65029049e-01</_>
    <_>
      -4.03571017e-02 2.63322443e-01 1.36686619e-02 -3.13880257e-02
      -1.09793842e-01 -3.24905366e-02 3.82988900e-02 7.89538398e-03
      1.10694051e-01 -8.44029635e-02 -4.06503975e-02 -7.28240386e-02
      -2.00730339e-02 7.96780810e-02 3.16463448e-02 5.24753183e-02
      -5.57736494e-02 -6.80171931e-03 2.90352926e-02 3.34134349e-03
      -1.52777573e-02 1.94312626e-04 1.63837373e-02 7.72116473e-03
      2.68364209e-03 3.33037949e-03 1.86471045e-02 2.06679292e-03
      2.85093277e-03 -8.95456597e-03 7.36281369e-03 -1.10955499e-02
      3.60863954e-02 -4.50246676e-04 -7.26656523e-04 1.65015087e-01</_>
    <_>
      2.96784472e-03 -9.43143293e-03 8.10846984e-02 -6.99763186e-03
      -2.64257081e-02 -2.64591351e-02 4.96288650e-02 1.13359904e-02
      1.15882948e-01 -7.73796365e-02 -3.74803804e-02 -7.08838105e-02
      -1.81987230e-02 7.93055817e-02 3.46317738e-02 5.88890277e-02
      -5.11492267e-02 -3.43715749e-03 3.02483439e-02 4.57498338e-03
      -1.74752325e-02 -2.41242535e-03 2.09089331e-02 9.27347690e-03
      2.25809589e-03 3.34735028e-03 1.47340940e-02 4.51118173e-03
      2.92120408e-03 -7.44515890e-03 5.49406512e-03 -1.26657393e-02
      3.55748050e-02 8.10238649e-04 4.63720586e-04 1.64911985e-01</_>
    <_>
      1.33569632e-02 3.51784155e-02 -3.99025455e-02 -2.09012367e-02
      -2.28242911e-02 -1.50033571e-02 3.78781930e-02 1.66924689e-02
      1.22611634e-01 -7.12947920e-02 -3.97144109e-02 -6.99735656e-02
      -1.51668061e-02 7.74887875e-02 3.18138823e-02 5.81248477e-02
      -5.19659854e-02 -2.73855100e-03 3.15411128e-02 7.38777220e-03
      -1.91216916e-02 -3.92770022e-03 1.78630520e-02 7.90677406e-03
      2.83698388e-03 3.83938174e-03 1.64484698e-02 1.54626544e-03
      2.47666659e-03 -9.83030256e-03 7.00098462e-03 -1.20990528e-02
      3.59197631e-02 -3.14388279e-04 -6.39574602e-04 1.65197000e-01</_>
    <_>
      1.54192606e-02 4.03492041e-02 -4.48902473e-02 -1.38908178e-02
      -1.60989948e-02 -3.43248136e-02 4.69138995e-02 5.26234088e-03
      1.20839171e-01 -7.99897760e-02 -3.80812809e-02 -7.36089796e-02
      -1.75978076e-02 7.51997381e-02 3.34171243e-02 5.47435358e-02
      -5.49218878e-02 -4.75288881e-03 2.79377736e-02 5.57559170e-03
      -1.29427882e-02 -2.88453675e-03 1.77407507e-02 6.78641070e-03
      3.57379718e-03 7.52191572e-03 1.77388210e-02 6.73257222e-04
      2.00508232e-03 -5.75546036e-03 7.56828859e-03 -1.10048410e-02
      3.62298712e-02 -4.13582748e-04 -1.91887608e-03 1.65030733e-01</_>
    <_>
      -4.33331542e-02 1.97457388e-01 1.15035446e-02 4.06796932e-02
      -2.21722387e-02 -4.09086496e-02 4.72410992e-02 5.71839325e-03
      1.15737021e-01 -7.83077255e-02 -4.30950001e-02 -7.47975856e-02
      -2.13768687e-02 8.00481513e-02 3.10443807e-02 5.73102273e-02
      -5.29865250e-02 -4.00041835e-03 3.00389994e-02 2.73068156e-03
      -1.95322223e-02 -3.48140392e-03 1.85311381e-02 6.66715484e-03
      2.58902460e-03 2.90069077e-03 1.72785502e-02 1.60005700e-03
      1.22602982e-03 -7.46209174e-03 7.69323716e-03 -1.11830365e-02
      3.57107557e-02 -1.38028525e-04 -7.23932404e-04 1.65022209e-01</_>
    <_>
      1.49742467e-02 -3.38635035e-02 1.05034687e-01 -1.34211415e-02
      -1.33571466e-02 -3.26606818e-02 4.53098230e-02 1.01736980e-02
      1.19739890e-01 -7.52643347e-02 -3.98604535e-02 -7.58769810e-02
      -1.65420994e-02 7.93934017e-02 3.02900840e-02 6.18992634e-02
      -4.84037362e-02 -2.74304627e-03 3.14977281e-02 5.43331774e-03
      -1.57298520e-02 -6.67407829e-03 1.67896077e-02 8.91450141e-03
      7.56953377e-04 4.25058557e-03 1.69799887e-02 2.84120487e-03
      4.17768583e-03 -8.94954149e-03 5.91137726e-03 -1.13178277e-02
      3.74647565e-02 -7.41838187e-04 -4.74610715e-04 1.65282801e-01</_>
    <_>
      1.34788424e-01 8.66213143e-02 -2.64270753e-02 -1.73442904e-02
      -3.79494578e-02 -4.37998399e-03 5.21244109e-02 4.21509519e-03
      1.21055774e-01 -7.77261257e-02 -3.82291079e-02 -7.17568249e-02
      -2.05614325e-02 7.51473382e-02 3.21905725e-02 5.88091798e-02
      -5.45214936e-02 -1.93452311e-03 3.28739770e-02 3.63328587e-03
      -1.64754037e-02 -3.99140362e-03 1.87443923e-02 9.57276486e-03
      3.72949382e-03 3.13690375e-03 1.59621108e-02 2.80072121e-03
      2.43629515e-03 -8.54160544e-03 7.48008071e-03 -1.13675026e-02
      3.63050736e-02 -8.66716728e-04 -8.10909900e-04 1.64802298e-01</_>
    <_>
      9.10337642e-02 8.16218928e-02 2.00448465e-02 4.35384475e-02
      -1.33181345e-02 -2.70261359e-03 4.23873551e-02 -3.92086059e-03
      1.16409399e-01 -7.46212155e-02 -3.97055484e-02 -7.15817809e-02
      -2.09015440e-02 7.55759776e-02 2.89825778e-02 5.55332452e-02
      -5.67748919e-02 -2.27259961e-03 3.18500474e-02 8.48042686e-03
      -1.84361264e-02 -8.28263443e-03 1.68916024e-02 8.98713060e-03
      3.64009826e-03 4.43385495e-03 1.67612489e-02 1.18807820e-03
      2.69408803e-03 -7.73057714e-03 8.00822768e-03 -1.04900962e-02
      3.66226286e-02 -9.62377875e-04 -6.16531761e-04 1.64837152e-01</_>
    <_>
      1.30351752e-01 -3.55869196e-02 -4.07112539e-02 1.24131292e-02
      -1.68519635e-02 -1.93181541e-02 5.46894670e-02 8.52807704e-03
      1.21803932e-01 -8.06142762e-02 -3.61884199e-02 -6.87299520e-02
      -1.91091597e-02 8.34497958e-02 2.87055038e-02 5.83760142e-02
      -5.51918074e-02 -5.88888396e-03 2.95795817e-02 1.95488962e-03
      -1.71130951e-02 -4.16642940e-03 1.75483748e-02 7.37684919e-03
      3.03594908e-03 5.32378536e-03 1.77276414e-02 2.58159637e-03
      3.95170273e-03 -7.93161523e-03 8.18862952e-03 -1.16454288e-02
      3.80279906e-02 -9.08989634e-04 -1.72359461e-03 1.64591074e-01</_>
    <_>
      -6.70984238e-02 2.44263336e-01 4.77913627e-03 -2.66933925e-02
      -6.75078928e-02 -3.17795165e-02 4.24561873e-02 4.73073451e-03
      1.11178003e-01 -8.70120972e-02 -4.22640443e-02 -7.40071312e-02
      -2.22795159e-02 7.93314651e-02 2.90598013e-02 5.45641743e-02
      -5.38972691e-02 -4.35429392e-03 2.89676636e-02 3.76024353e-03
      -1.63737126e-02 -4.63785324e-03 1.83393229e-02 9.57677141e-03
      3.91681585e-03 5.19508449e-03 1.57930013e-02 3.23405559e-03
      1.47393055e-03 -8.15904699e-03 6.90537877e-03 -1.16803301e-02
      3.67363878e-02 -2.61654088e-04 -2.64324248e-04 1.64834067e-01</_>
    <_>
      3.97521019e-01 5.32468818e-02 -5.55085391e-03 1.11921756e-02
      -2.75037326e-02 -3.96234542e-03 6.14411160e-02 1.02057829e-02
      1.14695817e-01 -7.55402967e-02 -3.88053693e-02 -7.26360902e-02
      -2.11384483e-02 7.69874305e-02 3.01987864e-02 5.78731261e-02
      -5.18308878e-02 -3.60614969e-03 2.81734113e-02 3.99760064e-03
      -1.75720975e-02 -6.26240345e-03 1.76453348e-02 8.42631143e-03
      2.08172319e-03 4.44029132e-03 1.57271810e-02 2.99610384e-03
      3.13678966e-03 -6.75380277e-03 8.52398109e-03 -1.11657204e-02
      3.84477749e-02 -3.86265980e-04 -1.36371673e-04 1.64394215e-01</_>
    <_>
      -1.97771676e-02 1.00000471e-01 -3.20151411e-02 -1.35511570e-02
      -1.63134243e-02 -2.12264266e-02 3.81990895e-02 1.08273504e-02
      1.21787652e-01 -7.95732290e-02 -3.89123708e-02 -7.23212436e-02
      -2.03975327e-02 7.63796270e-02 3.18743140e-02 5.71725890e-02
      -5.49260676e-02 -2.93826126e-03 3.17554437e-02 4.02378989e-03
      -1.57754198e-02 -3.43849999e-03 1.74985640e-02 9.04746633e-03
      2.68553896e-03 5.13571827e-03 1.67484693e-02 1.78486400e-03
      2.28673592e-03 -5.12654893e-03 6.73427479e-03 -1.19855553e-02
      3.66544463e-02 -6.18544524e-04 -8.79838073e-04 1.65024489e-01</_>
    <_>
      -1.49894003e-02 7.03012124e-02 -3.54199745e-02 -2.00968124e-02
      -2.56769881e-02 -2.90612485e-02 4.36687097e-02 1.18374527e-02
      1.19755544e-01 -7.67892525e-02 -4.15989272e-02 -7.27823675e-02
      -1.90482941e-02 7.62014315e-02 3.13732624e-02 5.73530383e-02
      -5.48230298e-02 -4.41303756e-03 3.48140635e-02 3.61150294e-03
      -1.52199548e-02 -3.09815933e-03 1.96910985e-02 5.92990452e-03
      1.41462090e-03 4.70903423e-03 1.61255877e-02 2.66689947e-03
      3.37223546e-03 -6.13270933e-03 6.82733394e-03 -1.22869927e-02
      3.60208899e-02 -6.63865707e-04 -1.10601948e-03 1.65224850e-01</_>
    <_>
      5.02912998e-01 1.20811217e-01 1.90743729e-02 3.03916223e-02
      -3.56487297e-02 -1.90853905e-02 5.53045608e-02 5.85458660e-03
      1.20907262e-01 -7.28962645e-02 -3.76536176e-02 -7.43296221e-02
      -2.12662816e-02 7.53038526e-02 2.89308969e-02 5.65963760e-02
      -5.01426384e-02 -2.62810825e-03 2.75718290e-02 5.22279041e-03
      -1.69818867e-02 -4.88982396e-03 1.81426015e-02 8.37547705e-03
      2.20557791e-03 4.90380684e-03 1.68502796e-02 1.30614126e-03
      2.63482868e-03 -8.69491044e-03 7.64153618e-03 -1.11227501e-02
      3.67891341e-02 -3.10997857e-04 -6.67742745e-04 1.64893091e-01</_>
    <_>
      -9.18659195e-03 6.82950541e-02 -3.35687995e-02 -7.82988966e-03
      -1.37741854e-02 -1.65769495e-02 3.70185710e-02 1.86974909e-02
      1.16655342e-01 -7.64838457e-02 -4.01375592e-02 -7.26254284e-02
      -1.84007809e-02 7.57096633e-02 3.10429726e-02 5.72144166e-02
      -5.40443212e-02 -4.04559774e-03 3.23650949e-02 4.26935963e-03
      -1.55203100e-02 -2.87832669e-03 1.84816439e-02 9.24900826e-03
      2.85737263e-03 5.90602681e-03 1.58938970e-02 2.76744063e-03
      2.01040902e-03 -7.70930154e-03 7.12680630e-03 -1.13818385e-02
      3.69109809e-02 -6.36475335e-04 7.67412363e-04 1.64930061e-01</_>
    <_>
      -1.14137167e-02 8.54148716e-02 -2.42594481e-02 -1.25359865e-02
      -2.42499691e-02 -1.11655695e-02 3.06177065e-02 -4.16595547e-04
      1.21597581e-01 -7.91985020e-02 -4.32650223e-02 -7.48237967e-02
      -2.14433204e-02 7.44396821e-02 3.44288610e-02 5.87827675e-02
      -5.29213697e-02 -4.35689697e-03 2.70049553e-02 6.54932158e-03
      -1.56617146e-02 -6.07322622e-03 1.94808915e-02 8.99381097e-03
      2.48089782e-03 6.42106496e-03 1.77540537e-02 1.00182102e-03
      3.17159761e-03 -7.66858179e-03 7.75715197e-03 -1.19153904e-02
      3.77662815e-02 -1.01118314e-03 -4.91576153e-04 1.64679289e-01</_>
    <_>
      -1.67154148e-02 1.15340687e-01 -2.33081859e-02 -3.16662230e-02
      -3.37709486e-02 -1.99866872e-02 4.34486307e-02 2.53551360e-03
      1.18649252e-01 -7.39051104e-02 -3.87568213e-02 -7.52265453e-02
      -2.08292361e-02 7.59354904e-02 3.17589231e-02 5.70753030e-02
      -5.43496683e-02 -4.13867692e-03 2.90783588e-02 3.77229485e-03
      -1.89603586e-02 -4.71145986e-03 1.84780657e-02 9.28206649e-03
      2.33855704e-03 5.11402218e-03 1.77797806e-02 2.25269631e-03
      3.44402064e-03 -8.91327765e-03 8.03848915e-03 -1.12296008e-02
      3.67918052e-02 -4.22713754e-04 -7.29254563e-04 1.64678380e-01</_>
    <_>
      6.41232803e-02 4.11533006e-02 -2.26098858e-02 2.57008728e-02
      6.74255099e-03 -1.62216537e-02 5.92647791e-02 1.12157334e-02
      1.04989298e-01 -7.98442066e-02 -4.49064523e-02 -7.19367191e-02
      -2.02531610e-02 7.88651481e-02 2.89065093e-02 5.90148605e-02
      -5.41985258e-02 -3.80729791e-03 2.95188837e-02 4.52583563e-03
      -1.59352031e-02 -5.94517868e-03 1.73013620e-02 9.00113210e-03
      4.36159922e-03 5.83304930e-03 1.50285289e-02 2.03342154e-03
      1.13161223e-03 -8.13066121e-03 7.28409830e-03 -1.05285104e-02
      3.58839408e-02 -6.99015975e-04 -5.19378867e-04 1.65083900e-01</_>
    <_>
      2.20278446e-02 4.89075296e-02 -3.03839166e-02 -1.76155977e-02
      -1.43994857e-02 -2.46784780e-02 4.28684391e-02 2.14281841e-03
      1.15408033e-01 -7.36539587e-02 -3.87738794e-02 -7.18415827e-02
      -1.82111878e-02 7.70680755e-02 3.45939286e-02 5.62926754e-02
      -5.36754690e-02 -3.92375002e-03 2.95591112e-02 4.26092884e-03
      -1.69206820e-02 -2.28269910e-03 1.83790270e-02 7.70388916e-03
      1.91366987e-03 3.26940347e-03 1.62090641e-02 1.63371442e-03
      3.93224368e-03 -8.04212131e-03 7.88641721e-03 -1.09538995e-02
      3.61253656e-02 -3.08132643e-04 -7.68322352e-05 1.64818585e-01</_>
    <_>
      1.89180337e-02 5.75070530e-02 -3.04100309e-02 -2.37980541e-02
      -2.07988098e-02 -2.25868188e-02 4.23464924e-02 -1.61035149e-03
      1.15885355e-01 -7.72164166e-02 -3.95037010e-02 -6.99348301e-02
      -1.93768125e-02 7.46003836e-02 3.06686684e-02 5.36906272e-02
      -5.31052686e-02 -2.76318472e-03 3.06215901e-02 3.17870383e-03
      -1.69648267e-02 -3.59371002e-03 1.84237678e-02 9.02083889e-03
      2.20744242e-03 3.27177672e-03 1.57661494e-02 2.49078171e-03
      1.29725831e-03 -7.51112215e-03 7.80940289e-03 -1.26400189e-02
      3.60598154e-02 -1.47022103e-04 -3.08047311e-04 1.64924607e-01</_>
    <_>
      1.62953306e-02 5.79694919e-02 -4.06963080e-02 -1.01141725e-02
      -1.77185761e-03 -3.26154009e-02 5.29619567e-02 1.23436088e-02
      1.18997544e-01 -7.78466389e-02 -3.28782015e-02 -7.86509886e-02
      -2.20309384e-02 7.38987252e-02 2.78872363e-02 5.77128902e-02
      -4.93450128e-02 -4.63973079e-03 2.91669071e-02 5.57144824e-03
      -1.40429894e-02 -4.55653435e-03 2.00110301e-02 9.72669106e-03
      2.76187854e-03 4.91992570e-03 1.62714217e-02 3.75014520e-03
      5.57171879e-03 -8.20676237e-03 7.22080981e-03 -9.95999016e-03
      3.66610214e-02 -2.95116159e-04 -2.06311204e-04 1.64633095e-01</_>
    <_>
      7.65632272e-01 1.04795218e-01 1.58113204e-02 6.47376466e-04
      -3.60243991e-02 -2.50929222e-02 4.69501391e-02 1.06720189e-02
      1.15173951e-01 -7.56280795e-02 -3.88808399e-02 -7.28481784e-02
      -2.26155296e-02 7.55092129e-02 2.85405423e-02 5.78532778e-02
      -5.03733791e-02 -3.07338056e-03 2.91468874e-02 5.25377551e-03
      -1.54327853e-02 -5.34320110e-03 1.92104317e-02 8.45505390e-03
      3.09684034e-03 5.12318453e-03 1.59890037e-02 2.30931421e-03
      2.28699297e-03 -7.69720739e-03 7.80713977e-03 -1.11008724e-02
      3.64951789e-02 -4.38037445e-04 -4.22451878e-04 1.64835826e-01</_>
    <_>
      9.05074105e-02 4.13160324e-02 -2.31734589e-02 1.92806609e-02
      -1.47045907e-02 -1.34890452e-02 4.65350933e-02 7.69803906e-03
      1.16463080e-01 -7.86917061e-02 -4.02045697e-02 -7.01255128e-02
      -1.75578482e-02 7.47595429e-02 3.04920338e-02 5.91962524e-02
      -5.24089262e-02 -2.34897109e-03 3.16652730e-02 6.90585608e-03
      -1.65876504e-02 -5.10041416e-03 1.97720658e-02 7.59725645e-03
      2.86571262e-03 4.68248874e-03 1.69114601e-02 -1.61204007e-05
      1.83417054e-03 -1.01494975e-02 8.02755728e-03 -1.07063744e-02
      3.73946130e-02 8.51036821e-05 -4.16020659e-04 1.64666325e-01</_>
    <_>
      7.11518200e-03 4.31443602e-02 -3.14906240e-02 -2.30533648e-02
      -1.81428138e-02 -2.58710049e-02 3.45554240e-02 1.40452925e-02
      1.18767664e-01 -7.02894405e-02 -4.02189866e-02 -7.61227608e-02
      -1.97306704e-02 7.85267800e-02 3.27869095e-02 5.75286038e-02
      -5.62671088e-02 -2.97947996e-03 2.88543329e-02 4.39731637e-03
      -1.86803434e-02 -4.28132527e-03 1.83692873e-02 8.55569076e-03
      2.45906180e-03 4.08898247e-03 1.59220938e-02 2.33324268e-03
      2.82298727e-03 -7.65242521e-03 6.36220677e-03 -1.09454896e-02
      3.77003849e-02 -1.03382557e-03 -6.63961750e-04 1.64760187e-01</_>
    <_>
      -4.23896909e-02 1.66847736e-01 -1.20181367e-02 -1.77520122e-02
      -3.10021862e-02 -1.95562281e-02 3.02932560e-02 8.52932280e-04
      1.14601523e-01 -7.40408376e-02 -4.39923741e-02 -7.36298040e-02
      -2.09039878e-02 7.43548125e-02 3.07155866e-02 5.70316501e-02
      -5.40401302e-02 -2.05973885e-03 3.21204625e-02 3.37121566e-03
      -1.76857244e-02 -3.96536710e-03 1.80005487e-02 7.86339119e-03
      1.91339455e-03 3.62688373e-03 1.40481889e-02 2.32003652e-03
      4.16649692e-03 -7.41812214e-03 6.93963654e-03 -1.16089126e-02
      3.71259488e-02 -2.28400953e-04 -5.34518564e-04 1.64783835e-01</_>
    <_>
      4.23720223e-04 -1.04130516e-02 1.12748459e-01 -3.81235592e-03
      -1.65390633e-02 -3.37154269e-02 3.14273834e-02 2.37860426e-04
      1.12257540e-01 -7.44371489e-02 -3.77479419e-02 -7.67083541e-02
      -1.47282965e-02 7.86386356e-02 3.08192149e-02 5.74924052e-02
      -4.56601493e-02 -2.43196217e-03 3.18535976e-02 3.28448298e-03
      -1.82874259e-02 -5.20464918e-03 1.78089980e-02 8.19891505e-03
      1.41095452e-03 4.81372606e-03 1.67619325e-02 2.36273836e-03
      1.31405459e-03 -5.38848480e-03 8.50442238e-03 -1.14767468e-02
      3.61489914e-02 5.64089896e-05 1.71370542e-04 1.65196016e-01</_>
    <_>
      1.47727756e-02 5.10582887e-02 -3.78531925e-02 -2.53756028e-02
      -1.48905003e-02 -2.43416484e-02 4.77407537e-02 7.01373862e-03
      1.17401138e-01 -7.62307048e-02 -3.76437753e-02 -7.21169338e-02
      -1.85706150e-02 7.43072182e-02 3.12258545e-02 5.59414253e-02
      -5.66021428e-02 -2.23341095e-03 3.01423036e-02 3.21119092e-03
      -1.73002146e-02 -4.95233620e-03 1.62422378e-02 8.28147680e-03
      3.40956473e-03 4.69122035e-03 1.49104083e-02 1.26740709e-03
      1.71812321e-03 -8.47799890e-03 7.18655763e-03 -1.15589742e-02
      3.72381359e-02 -9.11019219e-04 -6.31911913e-04 1.64935738e-01</_>
    <_>
      1.75324399e-02 4.61414307e-02 -3.97329666e-02 -2.37611141e-02
      -1.42992521e-02 -2.22033989e-02 5.14643900e-02 1.45419771e-02
      1.16519012e-01 -7.11040795e-02 -3.65747623e-02 -7.14133084e-02
      -2.06498858e-02 7.73736984e-02 3.04072127e-02 5.69235571e-02
      -5.46441153e-02 -4.39126883e-03 2.98434198e-02 2.93577905e-03
      -1.55612016e-02 -5.35484497e-03 1.80534031e-02 9.12927557e-03
      3.65508394e-03 4.41434467e-03 1.63988266e-02 2.21070182e-03
      1.05600897e-03 -8.11664201e-03 8.89823679e-03 -1.10792499e-02
      3.78967002e-02 -7.01217738e-04 5.75338898e-04 1.64425164e-01</_>
    <_>
      -8.23641866e-02 2.67749906e-01 1.02175036e-02 -2.33931597e-02
      -6.83539957e-02 -2.98504774e-02 3.39763984e-02 -1.12686912e-03
      1.15015402e-01 -8.59246179e-02 -4.29671109e-02 -7.06144199e-02
      -2.29076222e-02 7.96176866e-02 3.25231925e-02 5.67339733e-02
      -5.57843894e-02 -4.27428121e-03 2.97428388e-02 3.72499879e-03
      -1.63464770e-02 -4.20738198e-03 1.80676430e-02 8.22802261e-03
      2.31493032e-03 5.35473740e-03 1.53064588e-02 3.59252631e-03
      2.74638482e-03 -7.91698322e-03 8.81841592e-03 -1.15128076e-02
      3.67659852e-02 -2.57929234e-04 -3.29900911e-04 1.64618373e-01</_>
    <_>
      7.24578202e-02 2.13873927e-02 -2.36542225e-02 1.80263799e-02
      -3.81594244e-03 -1.40698235e-02 7.22218603e-02 4.68957750e-03
      1.15288556e-01 -7.93920010e-02 -3.92184034e-02 -7.84752294e-02
      -2.38137618e-02 7.55025297e-02 3.22972722e-02 5.72011434e-02
      -5.36251180e-02 -2.10821861e-03 2.81720702e-02 3.78446653e-03
      -1.62655115e-02 -2.03205855e-03 1.80484764e-02 8.38348176e-03
      3.63245187e-03 3.67429154e-03 1.75642446e-02 2.56131520e-03
      3.39930807e-03 -5.84340701e-03 6.59527350e-03 -9.88596119e-03
      3.61697711e-02 -1.17473339e-03 -7.92434788e-04 1.64868489e-01</_>
    <_>
      -2.50150170e-02 1.26765683e-01 -1.54417455e-02 2.47670664e-03
      -2.88022701e-02 -2.24554576e-02 4.83545922e-02 1.56090250e-02
      1.14413694e-01 -7.95352608e-02 -3.87610085e-02 -6.99279010e-02
      -1.97429657e-02 7.21817091e-02 3.21986005e-02 5.69859296e-02
      -5.59442490e-02 -8.16704123e-04 3.04162093e-02 2.63308734e-03
      -1.56226996e-02 -4.03155806e-03 1.74944066e-02 9.81304143e-03
      4.04695608e-03 4.80758352e-03 1.71879716e-02 3.08941607e-03
      1.75927463e-03 -8.21932126e-03 7.91876670e-03 -1.12631693e-02
      3.70362736e-02 -5.09749923e-04 -6.52108691e-04 1.64598957e-01</_>
    <_>
      5.06679714e-02 4.60413471e-03 -5.10114543e-02 -2.01685559e-02
      -1.38592096e-02 -4.14252654e-02 5.90550639e-02 5.25115943e-03
      1.25302806e-01 -7.85800889e-02 -3.95547152e-02 -6.90649673e-02
      -2.04943344e-02 7.74457753e-02 3.90997082e-02 5.94572686e-02
      -5.37535027e-02 -4.22296952e-03 3.27289253e-02 6.78715482e-03
      -2.11837608e-02 -5.81767410e-03 1.78088602e-02 6.94483332e-03
      1.62177929e-03 4.98990435e-03 1.28552550e-02 1.72131287e-03
      4.17921925e-03 -8.75821244e-03 6.29848661e-03 -9.80035681e-03
      3.72237451e-02 -1.06901454e-03 6.48803471e-05 1.64999589e-01</_>
    <_>
      3.36394459e-02 1.39053404e-01 -8.25223606e-03 -4.77854768e-03
      -5.11791520e-02 -2.66930591e-02 2.29638927e-02 8.32701940e-03
      1.13512717e-01 -8.30329284e-02 -4.00246680e-02 -7.48403892e-02
      -1.96020827e-02 7.10275397e-02 3.11532076e-02 5.78041077e-02
      -4.92617972e-02 -3.88866221e-03 3.02346181e-02 4.79612732e-03
      -1.59828309e-02 -4.87313326e-03 1.87317710e-02 1.07652815e-02
      3.29417153e-03 5.09315031e-03 1.41100548e-02 2.21637590e-03
      1.80927711e-03 -6.32189028e-03 7.97593314e-03 -1.19862547e-02
      3.62087674e-02 4.77943016e-04 -5.27702447e-04 1.64770514e-01</_>
    <_>
      8.08690190e-02 4.51870868e-03 -3.50654796e-02 -5.68376249e-03
      -3.11018135e-02 -1.99797004e-02 5.05235866e-02 8.36401619e-03
      1.10644490e-01 -7.51520470e-02 -3.95490974e-02 -7.70777240e-02
      -2.36764029e-02 7.91242942e-02 3.03616114e-02 5.60041517e-02
      -5.58480956e-02 -3.53953126e-03 3.20208035e-02 2.74914410e-03
      -1.65503025e-02 -4.26893029e-03 1.84294600e-02 7.52816396e-03
      2.33292137e-03 3.71503690e-03 1.70044824e-02 1.84676284e-03
      4.46026400e-03 -8.89985543e-03 7.59010948e-03 -1.18028075e-02
      3.68333869e-02 5.64251037e-04 5.01867849e-04 1.64646074e-01</_>
    <_>
      -3.47520150e-02 1.42589867e-01 -1.87551789e-02 -1.11007784e-02
      -2.68241074e-02 -1.83444247e-02 3.79999503e-02 1.60091240e-02
      1.20191388e-01 -7.85857067e-02 -3.96751091e-02 -6.95744306e-02
