<?xml version="1.0"?>
<opencv_storage>
<opencv_ml_svm>
  <format>3</format>
  <svmType>C_SVC</svmType>
  <kernel>
    <type>RBF</type>
    <gamma>2.2500000000000003e-03</gamma></kernel>
  <C>1.0000000000000001e-01</C>
  <term_criteria><iterations>100</iterations></term_criteria>
  <var_count>36</var_count>
  <class_count>2</class_count>
  <class_labels type_id="opencv-matrix">
    <rows>2</rows>
    <cols>1</cols>
    <dt>i</dt>
    <data>
      0 1</data></class_labels>
  <sv_total>200</sv_total>
  <support_vectors>
    <_>
      4.54534560e-01 -8.55783653e-03 5.48581958e-01 -7.33501371e-03
      2.05308497e-01 8.09175149e-02 2.86507398e-01 -2.58549266e-02
      1.82925686e-01 -1.78130925e-01 -4.86913025e-02 6.39625564e-02
      -1.08857676e-01 2.82267109e-02 -4.97848652e-02 -5.35882674e-02
      2.35636175e-01 -1.36218034e-02 2.78949142e-01 -3.94891109e-03
      3.70374657e-02 1.19140353e-02 -2.01028377e-01 7.69732222e-02
      -1.66285634e-02 8.63545015e-02 -2.64289141e-01 -1.02575071e-01
      2.71445289e-02 8.18164274e-02 2.84501314e-01 -1.65264457e-01
      -6.88168481e-02 -3.52876913e-03 -8.88045132e-02 2.95929350e-02</_>
    <_>
      -1.48872900e+00 -1.34576321e+00 4.64394718e-01 2.45598946e-02
      2.93141663e-01 3.95148210e-02 2.81304598e-01 1.43315746e-02
      8.24807361e-02 -1.89848319e-01 1.33387491e-01 -4.97265756e-02
      -1.29297813e-02 1.83348179e-01 -1.01828761e-01 2.52447873e-01
      1.36607125e-01 6.21372610e-02 3.66782367e-01 -1.97857231e-01
      -6.68620393e-02 5.89390881e-02 -4.84988801e-02 -1.78749815e-01
      -1.72853306e-01 1.84999499e-02 -2.15552971e-01 7.34121278e-02
      1.31694019e-01 6.59625754e-02 -7.04073310e-02 -1.40654534e-01
      -1.11015595e-01 1.74370363e-01 6.33903369e-02 1.36057705e-01</_>
    <_>
      4.69341606e-01 -2.54297227e-01 6.25321031e-01 4.19176817e-02
      -8.73112082e-02 2.36909434e-01 -6.03239611e-02 3.34831402e-02
      4.49666660e-03 -1.09566234e-01 -1.00447692e-01 -6.08191229e-02
      7.05821216e-02 7.42367059e-02 -5.73313497e-02 -1.85574576e-01
      1.10441841e-01 9.56712067e-02 5.81605256e-01 -7.29190186e-02
      -3.21432203e-01 9.54444855e-02 -3.93398494e-01 -1.95389111e-02
      -1.46528453e-01 1.02711007e-01 -6.61300644e-02 8.35309103e-02
      -9.35054719e-02 1.25510186e-01 1.91265285e-01 -4.57645357e-01
      -6.69564605e-02 1.37727186e-01 -3.06891501e-02 1.91363990e-01</_>
    <_>
      9.65026617e-02 -3.79119754e-01 5.76198876e-01 1.11665241e-01
      -2.06282623e-02 -1.79206297e-01 3.14826310e-01 -1.77366495e-01
      -1.82647426e-02 -1.31927922e-01 5.42279780e-02 1.01981804e-01
      -1.01504639e-01 1.68089308e-02 3.47851054e-03 4.25726548e-02
      2.91187733e-01 1.60857499e-01 3.10650945e-01 -1.89750791e-01
      -3.79665792e-01 4.75022644e-02 -1.48786768e-01 -1.74246226e-02
      3.35064642e-02 -1.07611232e-02 -1.45731181e-01 -8.45192969e-02
      2.91665234e-02 -3.13076563e-02 1.08005419e-01 -4.47267175e-01
      -4.54695523e-02 -1.03450865e-02 2.94659268e-02 2.12878063e-01</_>
    <_>
      -2.23336744e+00 -2.04887366e+00 3.77449334e-01 1.37921929e-01
      4.50324625e-01 -4.29532677e-01 3.83638740e-01 -2.07041517e-01
      -1.73766464e-01 -4.09419388e-01 -1.52875111e-01 -2.74264142e-02
      -5.36715686e-02 6.82608306e-01 -7.56913349e-02 -4.62584555e-01
      -1.92661509e-01 1.25437090e-02 8.83731782e-01 1.69953272e-01
      -9.52419043e-02 3.15083712e-01 9.73591879e-02 -6.64125010e-02
      8.10397193e-02 -2.24434480e-01 -1.51729971e-01 1.82647020e-01
      2.40575284e-01 4.10974808e-02 1.94270447e-01 -4.82213259e-01
      2.32679918e-01 -4.61229320e-05 9.39824134e-02 -9.64496806e-02</_>
    <_>
      -1.97047853e+00 -1.96711051e+00 3.78655851e-01 5.73297322e-01
      2.89614111e-01 -7.56129444e-01 -2.31018260e-01 2.41412446e-01
      2.81743616e-01 -2.29736045e-01 -4.21700835e-01 -2.08231136e-01
      2.92626262e-01 4.26362008e-01 -1.15341358e-01 -2.59023279e-01
      3.89961392e-01 -8.14606473e-02 4.76450294e-01 -1.50888562e-01
      -2.92224512e-02 2.17012331e-01 4.21030149e-02 -5.34346141e-02
      -1.68660000e-01 3.22666973e-01 -4.26876813e-01 -7.75596425e-02
      8.91017616e-02 4.38720971e-01 1.62164345e-01 1.16898473e-02
      2.93943025e-02 2.42756456e-01 -2.79165447e-01 -1.63063169e-01</_>
    <_>
      -2.36543989e+00 -2.37521815e+00 3.26274544e-01 5.72399795e-01
      5.28650761e-01 -5.67926645e-01 -4.76441711e-01 1.28405884e-01
      3.34394068e-01 2.19823062e-01 -3.76467407e-01 -2.11592065e-03
      3.60397816e-01 5.21563649e-01 -1.48732811e-01 -5.54114044e-01
      -3.29174362e-02 -1.87565178e-01 4.31147754e-01 -1.22121207e-01
      -3.39234054e-01 1.68330684e-01 -1.13753386e-01 1.14990890e-01
      4.18156534e-02 -1.11522987e-01 -3.01451087e-01 1.37525916e-01
      8.94836523e-03 2.28364959e-01 8.45364407e-02 -1.71399549e-01
      -3.82586122e-02 6.12055650e-03 -2.39900395e-01 -1.62273288e-01</_>
    <_>
      -2.00011253e+00 -1.81540489e+00 4.21723813e-01 -3.92295681e-02
      5.31636715e-01 3.41307908e-01 2.31608555e-01 -2.44813651e-01
      2.10392833e-01 2.22611174e-01 -4.62158509e-02 2.49168217e-01
      -9.28921402e-02 5.88912144e-02 -2.85015911e-01 -1.38240308e-01
      -2.76225746e-01 -3.45675312e-02 3.17292154e-01 -1.87445328e-01
      -3.49244297e-01 -1.58286348e-01 -1.43113479e-01 1.66154653e-01
      5.68889566e-02 5.64258881e-02 -2.55522788e-01 -8.56548026e-02
      1.03985511e-01 1.22172430e-01 2.73646384e-01 -2.75114447e-01
      -1.27561644e-01 -6.63151965e-02 1.64191872e-01 3.34439576e-01</_>
    <_>
      -4.26638424e-02 -4.68767017e-01 5.56861401e-01 1.55485958e-01
      1.87648833e-01 -1.19145356e-01 3.48609537e-02 -3.95972729e-02
      2.25459620e-01 -4.29438539e-02 -5.98471016e-02 -4.80845906e-02
      5.50186075e-02 -5.76073267e-02 -2.00190976e-01 1.03646815e-01
      1.95537522e-01 -8.11318755e-02 2.87099510e-01 -1.29585966e-01
      -2.60369897e-01 5.49692810e-02 -3.06399882e-01 1.85707420e-01
      7.09331632e-02 1.06119616e-02 -3.13882709e-01 1.44192263e-01
      -8.00536424e-02 -4.97389324e-02 1.91649318e-01 -1.81872234e-01
      -1.00258375e-02 5.15424982e-02 1.23860970e-01 1.56718671e-01</_>
    <_>
      -2.15302753e+00 -1.88294530e+00 3.52233589e-01 1.95726156e-01
      4.59435940e-01 1.20716907e-01 3.32205325e-01 -3.44108939e-01
      8.91369700e-01 -4.61571775e-02 4.88915183e-02 -2.56189443e-02
      1.32360002e-02 3.26567769e-01 -1.19033866e-01 -2.47032523e-01
      -2.66293257e-01 1.75418973e-01 4.49964367e-02 -1.11722589e-01
      -5.16581893e-01 -1.76161706e-01 -3.53926510e-01 -1.45085067e-01
      1.22735098e-01 -5.70317656e-02 -2.01783925e-01 -2.86069632e-01
      1.18599474e-01 -1.63335040e-01 3.60263556e-01 -4.20930713e-01
      5.91120198e-02 2.24322900e-01 1.13225788e-01 2.77619630e-01</_>
    <_>
      -2.38150048e+00 -2.12269354e+00 3.45098317e-01 1.33625031e-01
      3.57559383e-01 -3.10205042e-01 4.61554855e-01 3.31329764e-03
      4.22044933e-01 -3.72365087e-01 4.78403363e-03 -3.58663738e-01
      1.62256911e-01 8.19450915e-01 2.44598854e-02 -3.01724941e-01
      2.49674916e-01 1.08472250e-01 2.38686100e-01 -4.86369841e-02
      -4.22389418e-01 3.93997192e-01 -4.43152815e-01 -2.46092491e-03
      1.94663405e-01 2.33529672e-01 -1.55092165e-01 2.12432936e-01
      6.59131184e-02 -7.11795166e-02 3.95082146e-01 -2.37252817e-01
      5.11402439e-04 5.44043243e-01 -1.51885957e-01 8.05595592e-02</_>
    <_>
      -3.04090953e+00 -2.78055739e+00 3.26223224e-01 1.90323815e-02
      5.64597130e-01 2.94698745e-01 7.50115663e-02 -3.34880408e-03
      3.58909406e-02 2.19230145e-01 -5.67410648e-01 -1.89254060e-01
      3.57687801e-01 5.92666268e-01 -3.52829695e-01 -6.20773673e-01
      -2.41973177e-02 5.16402721e-02 5.41438997e-01 -1.54499859e-01
      -6.00658596e-01 -6.13262504e-03 -4.88943815e-01 1.85362011e-01
      -8.50840583e-02 -5.70652820e-02 -3.65335047e-01 3.43120456e-01
      -1.90182105e-01 -2.79894024e-01 1.66859031e-01 -2.98866749e-01
      -6.79496825e-02 -1.44741103e-01 1.69536918e-01 2.06272617e-01</_>
    <_>
      -1.56659961e+00 -1.38048840e+00 9.53763574e-02 1.66258007e-01
      3.60968590e-01 -3.38730007e-01 1.78125963e-01 -7.77688101e-02
      -1.37769848e-01 -3.87728699e-02 1.45811856e-01 2.79316723e-01
      4.86033335e-02 3.84451509e-01 1.75524846e-01 4.83878404e-02
      -1.00069568e-01 -1.09831154e-01 2.59768933e-01 -1.21525742e-01
      1.02069125e-01 2.01047465e-01 -3.25134963e-01 -1.99381933e-01
      -6.51682317e-02 -1.48273736e-01 -4.58462417e-01 3.45642686e-01
      -1.29788443e-01 3.48213594e-03 -2.91227192e-01 6.54009730e-02
      1.40713155e-01 3.03356141e-01 -1.11545563e-01 2.06448451e-01</_>
    <_>
      1.27146244e-01 -9.63816717e-02 6.13857150e-01 5.79880364e-02
      1.18248589e-01 -2.54791621e-02 7.34673068e-03 7.89146647e-02
      6.17140383e-02 -4.50933240e-02 9.52116325e-02 4.84602712e-02
      1.39146093e-02 8.21194798e-03 5.14560938e-02 1.01275854e-01
      5.40743433e-02 -6.94933757e-02 4.07797992e-01 -2.17778385e-01
      -4.34776731e-02 9.26428884e-02 -3.41410190e-01 1.19489342e-01
      -5.65250367e-02 5.93862236e-02 -2.66757011e-01 -6.42357767e-02
      -1.11863181e-01 7.18281046e-03 7.26723820e-02 -3.25338721e-01
      -5.87009154e-02 1.81253254e-01 -1.03896566e-01 6.14353977e-02</_>
    <_>
      -1.20542455e+00 -9.76160049e-01 4.64528471e-01 -3.10031682e-01
      3.80516827e-01 1.75284728e-01 2.84495026e-01 -9.64965746e-02
      -3.07396054e-01 -2.95407057e-01 -8.16144571e-02 -8.09566155e-02
      2.32017357e-02 3.50773409e-02 -1.10117227e-01 -3.02322134e-02
      2.26346895e-01 -2.21286401e-01 -2.44721910e-03 1.18228033e-01
      2.48995367e-02 2.30379567e-01 1.54902130e-01 -3.14093649e-01
      -1.46067888e-01 -2.01505110e-01 -3.61653656e-01 2.10212514e-01
      -4.18730602e-02 2.56566852e-01 2.18685903e-02 -3.26985538e-01
      -1.15232199e-01 8.82525072e-02 -3.54793333e-02 1.56816676e-01</_>
    <_>
      -8.36010337e-01 -9.78635132e-01 5.12828588e-01 3.33986312e-01
      2.50887632e-01 -1.59127623e-01 -3.66907150e-01 1.86994612e-01
      1.62625268e-01 -3.20028467e-03 -1.34681523e-01 -2.17412382e-01
      3.03434730e-01 8.90655592e-02 1.20922416e-01 1.26678854e-01
      4.29520607e-01 -3.93473217e-03 8.94080922e-02 -1.25832871e-01
      -5.34132123e-01 8.50231349e-02 -2.64951855e-01 -1.93636492e-01
      1.39829174e-01 2.22658172e-01 -1.40851706e-01 3.62758338e-01
      2.05556452e-01 1.34004638e-01 5.02336264e-01 -2.33626455e-01
      -1.71908870e-01 4.66561727e-02 -1.78324636e-02 2.06384897e-01</_>
    <_>
      -7.95258880e-01 -9.57100630e-01 5.05104303e-01 2.00846478e-01
      1.87021092e-01 -1.33156627e-01 -2.32919276e-01 1.13968313e-01
      -3.63421738e-02 9.27777588e-02 2.69731060e-02 1.86908823e-02
      7.42635727e-02 1.61295477e-02 -1.99396923e-01 1.89750288e-02
      7.29994550e-02 -2.32751369e-01 -5.04153147e-02 -1.23928934e-01
      -3.09400141e-01 1.17333554e-01 -4.51634675e-01 8.18664059e-02
      -1.21815741e-01 -2.55991463e-02 -1.20366074e-01 1.47856146e-01
      -3.33019972e-01 1.95659995e-01 4.52301562e-01 -2.26687297e-01
      -8.51387382e-02 -4.66075689e-02 -1.68559745e-01 3.56926918e-01</_>
    <_>
      -1.34866798e+00 -1.35745740e+00 4.81623828e-01 6.10472709e-02
      4.77699816e-01 2.14326486e-01 -3.74691516e-01 -2.29213610e-01
      -2.44541287e-01 2.77283907e-01 -3.61287713e-01 3.53668302e-01
      -6.91557527e-02 -2.76919901e-01 -2.45798752e-01 -5.55922806e-01
      -6.47877157e-02 -9.69413072e-02 5.91259599e-01 1.95753217e-01
      -1.12107843e-01 1.29524767e-01 -4.05202448e-01 3.89201939e-02
      -1.01925530e-01 -3.27399001e-02 3.84284258e-01 -7.05143809e-02
      1.66528612e-01 1.20307334e-01 2.36075714e-01 -6.01927161e-01
      1.72846057e-02 1.85014252e-02 -3.33337625e-03 3.90154213e-01</_>
    <_>
      -5.37683368e-01 -6.68498158e-01 6.04858577e-01 -2.07300156e-01
      3.15374523e-01 6.33204579e-02 1.39571860e-01 6.01613857e-02
      -5.45359135e-01 -9.29286256e-02 -1.57560691e-01 -2.30781641e-03
      7.89052621e-02 1.42772451e-01 -2.26170376e-01 9.08147916e-02
      1.01855420e-01 9.57342535e-02 6.13254368e-01 -4.38802429e-02
      -2.20382854e-01 1.70487598e-01 1.22249372e-01 9.33999121e-02
      -1.28791586e-01 3.36261868e-01 1.47732543e-02 -1.90714240e-01
      1.97865397e-01 1.16099834e-01 9.40019041e-02 -3.28096300e-01
      6.18922077e-02 1.54804349e-01 1.25492781e-01 9.63479057e-02</_>
    <_>
      -1.67411172e+00 -1.58963537e+00 4.14721787e-01 4.21592534e-01
      2.12257847e-01 -6.48734748e-01 -1.48039520e-01 -7.54843801e-02
      2.49865204e-01 -3.85489821e-01 -9.99802724e-02 -4.15541977e-02
      -6.93447813e-02 1.32116362e-01 -8.36779550e-02 -5.14809132e-01
      -7.59937540e-02 -4.98229172e-04 3.18889618e-01 3.56045932e-01
      -2.61064112e-01 3.72278303e-01 -4.08135772e-01 -1.97572876e-02
      -4.90102209e-02 1.12857334e-01 -3.81121904e-01 -6.33270890e-02
      -1.15962669e-01 2.09342331e-01 -1.57072052e-01 -2.40080535e-01
      1.07421882e-01 4.86958027e-01 -5.46138063e-02 -1.37988597e-01</_>
    <_>
      -1.39345849e+00 -1.40510452e+00 4.40768808e-01 2.18048230e-01
      3.20161879e-01 -1.35849923e-01 -1.65524438e-01 1.18871070e-01
      1.93475395e-01 1.12258084e-03 -1.28874220e-02 -1.25853434e-01
      1.53738827e-01 1.49810612e-01 -3.61099511e-01 -2.72127420e-01
      -2.25751474e-02 -2.43707523e-01 7.61452243e-02 -1.08923756e-01
      2.80196276e-02 1.32123917e-01 -3.27849507e-01 -3.81959021e-01
      -9.63431001e-02 1.26265660e-01 -2.18952578e-02 2.29303643e-01
      -2.42284477e-01 4.45822477e-01 -1.02299169e-01 -1.02020986e-01
      -1.48166254e-01 1.65240164e-03 -2.50759274e-01 -1.89641178e-01</_>
    <_>
      -2.24328375e+00 -1.99750471e+00 3.32812190e-01 5.90765988e-03
      5.04800141e-01 -8.34331959e-02 4.65778112e-01 -1.82882413e-01
      1.30173266e-01 -3.33842725e-01 -1.23512812e-01 -1.61261231e-01
      3.31551999e-01 3.87441576e-01 3.24959874e-01 2.96172857e-01
      -1.97051436e-01 5.07774115e-01 2.07764417e-01 -1.39068365e-02
      -1.54123902e-01 1.55087411e-01 1.12274840e-01 -1.18608773e-02
      -1.57520888e-04 7.28562549e-02 -3.17898303e-01 -4.20587733e-02
      -1.28392309e-01 1.26555413e-01 3.59150112e-01 -2.79115289e-01
      1.47499695e-01 -1.70343742e-01 -3.84061337e-01 2.03379288e-01</_>
    <_>
      -1.81253958e+00 -1.68836820e+00 4.13553864e-01 1.85296103e-01
      4.04311419e-01 -1.67683423e-01 1.28566846e-01 5.82936071e-02
      1.82512194e-01 -2.61442274e-01 -7.26144463e-02 -2.96590120e-01
      1.13054857e-01 8.50250572e-02 -3.87874156e-01 7.58009730e-03
      -8.93680826e-02 2.87080586e-01 -1.41883209e-01 -1.02054916e-01
      4.93729413e-02 4.56839412e-01 -6.64195716e-01 6.57203943e-02
      -1.30483031e-01 -1.56836566e-02 -6.80232421e-02 -1.16659962e-01
      9.25774425e-02 8.00743476e-02 3.54308039e-02 -3.49497646e-01
      1.97800864e-02 4.26486194e-01 1.83190495e-01 1.32240117e-01</_>
    <_>
      -2.54122210e+00 -2.21069860e+00 3.45797122e-01 -8.18033144e-02
      5.34954607e-01 2.84817100e-01 5.72845459e-01 -1.76150743e-02
      1.58600599e-01 -1.68218166e-01 -1.63958251e-01 -3.48829150e-01
      3.88739347e-01 4.88415807e-01 2.18411479e-02 1.25198469e-01
      -1.14626519e-01 9.87812355e-02 -9.37884450e-02 9.47713926e-02
      6.13740571e-02 1.00711204e-01 2.57134065e-02 5.78325316e-02
      1.22577548e-01 2.04762608e-01 2.83159435e-01 -6.82701841e-02
      1.49770766e-01 1.80240840e-01 1.25970006e-01 -3.32841784e-01
      -1.32231131e-01 1.28454491e-01 1.97177790e-02 1.47844031e-01</_>
    <_>
      -2.22728491e+00 -2.09819627e+00 3.95977259e-01 4.05186340e-02
      5.08592665e-01 -1.44514593e-03 -1.47461787e-01 2.98945177e-02
      -1.09466799e-01 2.94967979e-01 -3.36775780e-01 1.64525658e-01
      2.44293258e-01 4.62383837e-01 5.89147843e-02 -3.03554177e-01
      3.47390398e-02 -1.79282159e-01 6.24410450e-01 6.36879429e-02
      -5.23617089e-01 3.41993988e-01 4.23006564e-02 1.75975025e-01
      -3.42291221e-02 -1.29424393e-01 1.17749840e-01 -4.60704193e-02
      4.53889817e-02 -2.04300612e-01 -8.35815221e-02 -6.43217623e-01
      1.97699323e-01 2.89438665e-01 -1.67378500e-01 3.55822407e-03</_>
    <_>
      4.04384658e-02 -1.90127015e-01 5.83616436e-01 1.09031312e-01
      6.97816163e-02 -8.81304666e-02 1.33725733e-01 -7.38692954e-02
      3.70754823e-02 -8.73918235e-02 1.60777614e-01 8.58447179e-02
      -5.23387128e-03 5.59039153e-02 1.21071137e-01 1.47493914e-01
      -4.60899360e-02 1.26530547e-02 4.20386463e-01 -3.58460173e-02
      -1.86979920e-01 1.85381457e-01 -3.46825033e-01 -1.02953337e-01
      -6.11273572e-02 1.88254043e-01 -1.23102635e-01 1.11187458e-01
      5.16927615e-02 6.12362437e-02 1.66997224e-01 -2.84774959e-01
      -4.94893230e-02 1.02142558e-01 -2.58219000e-02 1.76097438e-01</_>
    <_>
      -2.16850114e+00 -1.85616612e+00 4.39001918e-01 -1.68977439e-01
      5.02293468e-01 6.77308083e-01 9.74969923e-01 -5.73965684e-02
      2.27920860e-01 -3.16796780e-01 -1.50686949e-01 -5.39288104e-01
      1.64077044e-01 4.42111909e-01 -6.59621000e-01 -4.91360664e-01
      -1.24494404e-01 1.54063916e-02 2.52133445e-03 -5.18040098e-02
      4.76647839e-02 -9.59911868e-02 -4.41481501e-01 2.74093390e-01
      1.64303944e-01 -8.67625698e-02 -4.16268557e-02 -2.20663860e-01
      7.90113732e-02 -1.34597436e-01 -2.12308690e-01 -7.60282338e-01
      -8.40100572e-02 1.48321554e-01 4.03218091e-01 2.54869193e-01</_>
    <_>
      -2.35235667e+00 -2.07978392e+00 3.94821674e-01 -2.59623319e-01
      5.18495202e-01 6.43069744e-01 6.16509497e-01 -1.69875488e-01
      -2.13311568e-01 -3.39075387e-01 -3.80203217e-01 -4.98696327e-01
      3.81193191e-01 6.22989833e-01 5.37403673e-02 -4.04522717e-02
      -3.12908709e-01 4.24425632e-01 4.75011110e-01 3.04861128e-01
      -4.13956434e-01 9.55437124e-02 -1.90952703e-01 -2.22859889e-01
      1.09975882e-01 -9.96108633e-03 -1.61723971e-01 8.02593350e-01
      2.54719555e-01 8.50135833e-02 1.56454772e-01 -8.38622212e-01
      8.93331468e-02 -7.90594518e-02 2.22364649e-01 1.38066813e-01</_>
    <_>
      -9.06178057e-01 -8.64351690e-01 4.75534201e-01 -4.75071706e-02
      3.33352029e-01 8.54941607e-02 1.80868641e-01 -1.50033355e-01
      1.84914425e-01 -1.35533988e-01 9.59263071e-02 1.15286760e-01
      -7.11445883e-02 -1.02877274e-01 1.93906903e-01 9.38388780e-02
      8.67589787e-02 1.81584526e-02 1.39923906e-02 6.70050606e-02
      2.43436061e-02 1.20635554e-01 -1.95344508e-01 -2.53443364e-02
      1.14925086e-01 7.79698417e-02 3.22075337e-02 6.84657022e-02
      2.00310461e-02 3.96785997e-02 2.18577549e-01 -1.99227184e-01
      9.65014845e-03 1.39117688e-01 -8.06435123e-02 2.80471236e-01</_>
    <_>
      -1.55808294e+00 -1.58840442e+00 4.41197127e-01 3.62656564e-01
      3.23354721e-01 -2.40989357e-01 -1.68577865e-01 1.50871128e-01
      2.33731836e-01 -5.82588986e-02 -2.37805143e-01 -2.87621737e-01
      1.74420998e-01 -4.35103178e-02 -3.01102281e-01 -1.93953350e-01
      3.37406784e-01 -4.08635229e-01 4.15863216e-01 -2.13277027e-01
      2.00894047e-02 1.77059188e-01 -2.72661060e-01 1.32414714e-01
      3.89029890e-01 -7.42215812e-02 1.25912681e-01 3.68599683e-01
      1.36686429e-01 4.76829037e-02 2.47235909e-01 -1.62898526e-02
      -4.32351857e-01 3.88013750e-01 2.69388318e-01 2.64770895e-01</_>
    <_>
      -2.24858737e+00 -2.06570101e+00 3.39963317e-01 1.24712192e-01
      4.72320229e-01 -1.70686305e-01 1.66886374e-01 -5.63697666e-02
      8.65043476e-02 7.27734044e-02 -7.87211061e-02 -1.31378815e-01
      4.04267251e-01 5.89945614e-01 1.38076887e-01 1.42861962e-01
      -1.48621559e-01 5.93468696e-02 3.92667621e-01 -1.27939627e-01
      -1.31124914e-01 2.60869473e-01 -1.20957829e-01 2.80022919e-02
      1.72349960e-01 -4.16076444e-02 -4.56513353e-02 6.11494258e-02
      7.34439343e-02 -6.53778249e-03 1.16243377e-01 -5.17196119e-01
      -4.05046642e-02 -3.20478886e-01 1.10741975e-02 5.60229540e-01</_>
    <_>
      1.14886709e-01 -1.39173925e-01 5.81317902e-01 2.46731058e-01
      7.61695728e-02 -7.45061114e-02 3.57905217e-02 1.40117547e-02
      1.05414696e-01 -6.04653060e-02 1.20394193e-01 5.01960292e-02
      -7.43342787e-02 -2.37693228e-02 -2.24016398e-01 9.66809019e-02
      -1.69507172e-02 -2.94111464e-02 3.60677123e-01 -7.85580352e-02
      -1.81221470e-01 -6.04892597e-02 -3.63627166e-01 -5.02217226e-02
      5.74619649e-03 1.43394202e-01 -1.25045046e-01 9.52713937e-03
      -3.07607166e-02 1.22577474e-01 1.54601499e-01 -3.64960402e-01
      1.27301961e-01 -1.30382134e-02 -4.25503440e-02 9.88048688e-02</_>
    <_>
      -9.54111964e-02 -5.11102200e-01 5.49817801e-01 1.84480533e-01
      1.84698537e-01 -2.77466059e-01 -6.27661049e-02 -1.84408519e-02
      -4.73709665e-02 -1.29109370e-02 1.13698997e-01 1.19982563e-01
      -6.75528497e-02 4.93575893e-02 -1.85787231e-02 3.49941514e-02
      2.33796492e-01 -1.78801596e-01 3.91484410e-01 -4.89563644e-02
      -1.98109016e-01 1.60190165e-01 -2.25239977e-01 2.83758603e-02
      8.74978453e-02 -1.17354490e-01 -8.28996524e-02 -3.08762696e-02
      4.01395001e-02 1.24616651e-02 1.85373828e-01 -6.50572896e-01
      -7.10108224e-03 2.70427447e-02 -1.76299829e-02 1.53348982e-01</_>
    <_>
      -1.98552632e+00 -1.85485482e+00 3.78605276e-01 4.62680310e-02
      5.49145281e-01 -3.75450216e-02 1.79107755e-01 -3.91298443e-01
      -1.29334778e-01 -1.38426244e-01 -2.05463514e-01 2.25557432e-01
      3.90758663e-02 -1.39087569e-02 1.22088015e-01 -2.93794662e-01
      -4.59192216e-01 1.21733084e-01 4.82862890e-01 4.54452693e-01
      -1.88032314e-02 4.56782639e-01 -9.24147740e-02 1.61595181e-01
      1.24509807e-03 6.06292672e-02 -3.94255068e-04 6.62551969e-02
      7.57843778e-02 -1.68857034e-02 -1.45022660e-01 -2.35466525e-01
      -2.76507318e-01 3.10055494e-01 1.73174113e-01 1.71135947e-01</_>
    <_>
      -5.72016537e-01 -8.08555484e-01 4.61743832e-01 3.06597978e-01
      2.17951044e-01 -1.66563183e-01 2.67765969e-02 -7.05381632e-02
      3.56559068e-01 -2.07936633e-02 -9.49295424e-03 -2.57454962e-01
      2.08564878e-01 4.80425917e-03 2.19581008e-01 7.62770772e-02
      1.00453362e-01 1.01936854e-01 1.43150061e-01 6.25166893e-02
      -3.04518789e-01 3.50432247e-01 -5.88450134e-01 -1.24225684e-01
      1.02482051e-01 1.66312352e-01 8.66567658e-04 2.17103526e-01
      -2.25960463e-02 1.17070794e-01 6.69273138e-02 -1.52055800e-01
      1.92221522e-01 -2.07502112e-01 -2.09497601e-01 1.70339286e-01</_>
    <_>
      -1.81917027e-01 -2.30445310e-01 5.74237347e-01 4.37380895e-02
      1.55036673e-01 -1.81266561e-01 2.27585495e-01 -2.60894019e-02
      1.42828733e-01 -2.45915666e-01 2.26219594e-01 -1.11798709e-02
      -1.19076885e-01 5.03213219e-02 -6.60449937e-02 -1.03278980e-02
      2.11627677e-01 -9.24651474e-02 2.78415114e-01 5.00572147e-03
      -1.85265169e-01 -1.17693827e-01 -2.50426829e-01 8.37591290e-02
      -1.80596262e-02 2.55110078e-02 -2.96320558e-01 8.29942897e-02
      1.17901266e-01 2.16215104e-01 2.16467485e-01 -2.30775729e-01
      -5.07142246e-02 1.44357175e-01 8.44622999e-02 -3.07687791e-03</_>
    <_>
      -7.38104045e-01 -6.30017221e-01 5.54158449e-01 -5.02234399e-01
      2.61259317e-01 6.43600166e-01 7.78023720e-01 -7.71622136e-02
      -7.11856112e-02 -4.22430664e-01 1.33693799e-01 -1.13538451e-01
      -1.84403867e-01 1.55044287e-01 -2.20450461e-01 -1.33287728e-01
      1.60042152e-01 -5.96907362e-03 1.47015363e-01 6.30970523e-02
      -1.69443950e-01 -2.07049832e-01 -2.51985878e-01 -2.21040562e-01
      -1.28761321e-01 6.10833019e-02 -8.59536901e-02 1.99323654e-01
      -1.37158856e-01 -6.47827387e-02 1.65801674e-01 -2.55690485e-01
      7.41009116e-02 -1.56586803e-02 -2.05802932e-01 -2.17058912e-01</_>
    <_>
      -1.22077608e+00 -1.06080568e+00 5.53178847e-01 -2.70310432e-01
      2.71798253e-01 7.10528314e-01 3.10732394e-01 -1.69273376e-01
      -8.34294930e-02 -1.70552209e-01 -1.92004874e-01 -1.56824470e-01
      7.74495909e-03 -1.94575228e-02 -2.61158437e-01 -3.24486107e-01
      5.45601472e-02 -1.13091387e-01 2.63984472e-01 6.85040206e-02
      -1.50416568e-01 -3.07807475e-01 -9.60718393e-02 -7.10591823e-02
      -1.19665749e-01 -9.33388621e-03 -1.31303743e-01 -2.22713947e-01
      -5.14591821e-02 1.18900947e-01 1.72205314e-01 -5.84450781e-01
      -8.60070288e-02 -1.73330799e-01 1.08915225e-01 6.71880916e-02</_>
    <_>
      -7.15533078e-01 -7.56692469e-01 5.75922847e-01 -1.64164647e-01
      4.03060317e-01 3.41334403e-01 3.23014498e-01 -1.79358199e-01
      -1.87568218e-01 -4.37766761e-02 9.19995946e-04 5.28480820e-02
      -7.27140754e-02 6.11684620e-02 7.74298683e-02 -1.38790116e-01
      1.59947485e-01 1.94295689e-01 1.14059523e-01 -1.31344683e-02
      -5.24703860e-01 1.77264795e-01 -3.85649711e-01 8.89554471e-02
      1.62288815e-01 2.42654130e-01 1.78450719e-01 6.19143248e-02
      -1.74632534e-01 -1.54510260e-01 2.84359515e-01 -1.40483961e-01
      -1.07413121e-01 2.90309191e-01 -1.28036141e-01 1.63724229e-01</_>
    <_>
      -6.31097972e-01 -7.94756413e-01 5.40640533e-01 -1.16352111e-01
      2.84038782e-01 -2.94655301e-02 8.68351981e-02 1.11758761e-01
      -3.36665243e-01 8.06865022e-02 6.63636252e-03 1.20600164e-01
      -1.36510760e-01 1.96887046e-01 -6.00605369e-01 9.19009298e-02
      2.25089923e-01 -8.09784234e-02 5.07519126e-01 -3.32114816e-01
      -1.44458711e-01 -1.88410971e-02 -1.21147722e-01 1.72206134e-01
      -2.16290697e-01 8.65157470e-02 -2.60175198e-01 4.89347428e-02
      -2.13084325e-01 -2.89760940e-02 3.00109714e-01 -2.56173521e-01
      2.13030547e-01 2.76265796e-02 -2.31597528e-01 2.58796811e-01</_>
    <_>
      -1.44123864e+00 -1.41866422e+00 4.97568101e-01 -2.11709514e-02
      4.50191051e-01 1.03039131e-01 3.04902583e-01 -6.45858273e-02
      1.82666406e-02 -1.75226167e-01 -1.50686830e-01 9.20373648e-02
      -5.59271984e-02 3.24176818e-01 -2.18282603e-02 -3.48020464e-01
      2.60784566e-01 -1.09924890e-01 4.82450217e-01 -1.67553172e-01
      -5.99614494e-02 -1.80257395e-01 -1.65991992e-01 7.60652218e-03
      2.95613378e-01 -1.51867280e-02 -1.04672134e-01 -1.15025222e-01
      1.73303306e-01 -1.60345539e-01 1.87027141e-01 -4.79914606e-01
      -3.00024450e-02 4.24122512e-02 5.99018671e-03 3.25712077e-02</_>
    <_>
      -7.14731038e-01 -8.02905083e-01 5.38506687e-01 5.40299490e-02
      3.22045624e-01 9.21325460e-02 2.85327464e-01 -7.88334310e-02
      -8.93161371e-02 -1.74710050e-01 3.39343213e-02 -5.06872907e-02
      5.63982092e-02 -6.91643823e-03 -8.85705277e-02 3.77881899e-02
      -2.38857731e-01 2.99838841e-01 3.98958594e-01 1.37161791e-01
      7.50385076e-02 1.23278506e-01 -4.76696283e-01 2.56632883e-02
      -2.23776773e-01 -1.24368437e-01 -6.68887272e-02 -1.46605924e-01
      6.30906969e-02 4.21416722e-02 6.46915613e-03 -3.03721219e-01
      1.87060639e-01 -1.11695722e-01 -1.68968171e-01 -2.20730882e-02</_>
    <_>
      -1.17520571e+00 -1.15917742e+00 4.84795690e-01 1.18801601e-01
      3.61811638e-01 1.61962658e-02 2.87080199e-01 -1.99400648e-01
      2.03550681e-01 -1.36106059e-01 -2.98975632e-02 -1.89281311e-02
      2.25411914e-02 4.50186908e-01 5.04605547e-02 -3.62280637e-01
      5.67878708e-02 3.63599569e-01 2.98814714e-01 -2.41390750e-01
      -2.33168975e-01 2.19006956e-01 -3.17982167e-01 -5.68239093e-02
      1.77327860e-02 2.90746391e-01 -2.14451656e-01 -1.99264735e-01
      1.23479776e-01 -6.36973679e-02 7.83808529e-02 -4.63541776e-01
      -9.53520834e-02 3.92399877e-01 -5.29277958e-02 1.47545755e-01</_>
    <_>
      -9.34783161e-01 -1.03999484e+00 4.62578148e-01 2.59953886e-01
      3.67485970e-01 -1.14675656e-01 -2.40156904e-01 -9.43270773e-02
      1.42188296e-01 -1.43420532e-01 -2.81453907e-01 -1.07012086e-01
      1.72475576e-01 5.46791963e-02 2.12089140e-02 -1.29933327e-01
      -1.18148774e-01 1.20495908e-01 1.67452216e-01 6.90801367e-02
      -2.86849558e-01 1.98095500e-01 -1.21840253e-01 -1.84061050e-01
      -2.43827745e-01 -5.07385075e-01 -5.17663121e-01 1.67378411e-01
      -3.37852299e-01 -1.16483614e-01 1.71445757e-01 -2.14723106e-02
      -2.49926746e-01 4.31050137e-02 1.75490424e-01 5.60847335e-02</_>
    <_>
      -1.65870404e+00 -1.43416727e+00 4.25532877e-01 3.46924854e-03
      3.09786260e-01 1.49376437e-01 6.40847862e-01 -2.35433161e-01
      5.53030670e-01 -5.16153932e-01 1.18316598e-01 -2.08432153e-01
      -1.04908809e-01 1.25889421e-01 -5.67824841e-02 -2.79874027e-01
      -1.58493876e-01 2.15214156e-02 1.36882618e-01 -1.66496187e-01
      1.90022960e-01 -5.37699461e-02 -3.71823758e-01 -3.05115759e-01
      2.20803261e-01 2.08657086e-02 1.57046523e-02 2.76049048e-01
      -9.18550938e-02 3.10156167e-01 1.80632442e-01 -1.62501901e-01
      3.38807814e-02 7.47676939e-02 -9.02425591e-03 -5.35290614e-02</_>
    <_>
      -1.72391963e+00 -1.67344940e+00 4.07033473e-01 -3.47237170e-01
      6.31419182e-01 3.18401128e-01 3.60927671e-01 -2.09620878e-01
      -2.66878068e-01 -1.88795745e-01 -3.12467337e-01 9.26081315e-02
      -5.48938056e-03 1.34868711e-01 -3.73375118e-01 -1.74455419e-01
      -1.98104337e-01 6.63682818e-01 5.37838697e-01 -2.58087754e-01
      2.78812289e-01 4.91015494e-01 -3.20079952e-01 2.09102139e-01
      -1.47124588e-01 9.33416467e-03 -1.59455851e-01 -1.46150872e-01
      -2.20525515e-04 2.82411933e-01 -4.56722863e-02 -1.57072932e-01
      8.28854889e-02 2.03660265e-01 -2.90432479e-02 2.13548943e-01</_>
    <_>
      -9.23966825e-01 -1.03389084e+00 4.33075428e-01 1.10605329e-01
      4.27627832e-01 -2.99042970e-01 4.00696456e-01 1.34644821e-01
      6.70264438e-02 -8.94123390e-02 1.79684401e-01 -7.85620734e-02
      5.75179346e-02 6.54035509e-01 -2.92963833e-01 3.92630994e-01
      -2.45713115e-01 1.40112862e-02 4.76982266e-01 -6.95161879e-01
      -2.30765358e-01 2.85630692e-02 1.68852255e-01 -1.60917953e-01
      -2.54235774e-01 -2.20759943e-01 1.28075048e-01 1.69292122e-01
      -9.64091420e-02 -7.32715130e-02 2.79185593e-01 -4.53524739e-02
      -2.12125760e-03 6.36213124e-02 -6.74501583e-02 -2.51149356e-01</_>
    <_>
      -1.43252468e+00 -1.41803300e+00 4.77445394e-01 3.18117104e-02
      3.96703154e-01 9.69749242e-02 8.20223391e-02 9.47553813e-02
      -1.54983163e-01 5.30329756e-02 -2.63883591e-01 -4.65202183e-02
      2.37258375e-01 2.22101793e-01 -2.40393668e-01 -3.08996052e-01
      1.95515335e-01 -1.37350976e-01 2.64711350e-01 -1.99048873e-02
      6.74234517e-03 2.06606492e-01 -1.84627488e-01 -5.06548174e-02
      -1.17116608e-01 1.37921557e-01 3.02192837e-01 -1.25372782e-01
      1.72038466e-01 -3.93590890e-03 1.05294913e-01 -4.24086511e-01
      -1.73384517e-01 2.16163397e-01 6.54913262e-02 2.30512783e-01</_>
    <_>
      -4.32723641e-01 -6.08696401e-01 5.43594003e-01 1.87702820e-01
      1.80775627e-01 -3.48193347e-01 3.21983695e-01 3.02779730e-02
      4.57452750e-03 -2.44772986e-01 2.66918689e-01 -1.21058151e-01
      -7.08402619e-02 3.65455836e-01 -3.06353301e-01 -4.59985696e-02
      1.45418718e-01 -2.55135626e-01 2.40871996e-01 4.86396030e-02
      -2.99182177e-01 1.35143161e-01 -9.04772729e-02 2.87885725e-01
      -9.36051831e-02 -2.09872395e-01 -8.75448883e-02 1.83678597e-01
      -3.01549584e-01 -1.84804320e-01 3.03075731e-01 -4.00096267e-01
      1.32033974e-01 1.44279793e-01 -2.71253511e-02 3.71525854e-01</_>
    <_>
      -8.98641527e-01 -8.17598045e-01 5.26717246e-01 1.06432280e-02
      4.02690202e-01 -1.70532428e-02 4.49275583e-01 -2.55300581e-01
      1.98254764e-01 -3.47924858e-01 6.39866218e-02 -5.94514497e-02
      -4.45484295e-02 8.04865267e-03 -5.33713624e-02 -1.70318440e-01
      -5.18463552e-02 1.02814913e-01 4.77542967e-01 2.26458795e-02
      2.97846664e-02 2.73742437e-01 -3.17360431e-01 1.66458204e-01
      1.25646397e-01 1.94750428e-01 2.52895415e-01 -2.55615334e-03
      2.35394668e-02 2.94437706e-01 3.28277260e-01 -4.81822670e-01
      1.37716576e-01 -4.94382717e-02 1.24491021e-01 3.59483421e-01</_>
    <_>
      4.62809384e-01 8.76843750e-01 -5.99744511e+00 -6.55101286e-03
      6.59761608e-01 3.30444932e-01 8.46200585e-02 5.84589057e-02
      -1.74393818e-01 -2.31160820e-01 1.86018661e-01 1.54277787e-01
      5.06325960e-01 -2.20944002e-01 -2.42952287e-01 -2.73580104e-01
      3.86879176e-01 -2.45702356e-01 3.50533515e-01 -1.72127917e-01
      -4.48243827e-01 -8.31556227e-03 9.24262553e-02 2.62555599e-01
      -5.28184414e-01 -1.43535985e-02 -1.27873972e-01 1.55029684e-01
      4.57292199e-01 1.12802856e-01 2.71430817e-02 1.90059505e-02
      -2.40073353e-02 1.87236562e-01 2.58125085e-02 1.45683125e-01</_>
    <_>
      -7.50750542e-01 -7.31658220e-01 5.45133352e-01 -3.70426588e-02
      2.62999952e-01 1.86250489e-02 3.98927629e-01 -1.39711022e-01
      1.87052146e-01 -1.50563672e-01 3.49795371e-01 -5.26953191e-02
      -1.02698177e-01 2.15554282e-01 -1.56294420e-01 -1.70258954e-02
      3.72715411e-03 -1.14910766e-01 3.50110263e-01 2.21314337e-02
      -3.23131442e-01 6.39873296e-02 -2.54772872e-01 -4.11732607e-02
      8.31118301e-02 3.62889580e-02 -1.06594078e-01 -1.48448050e-02
      -5.35623357e-02 1.23467527e-01 -1.16466060e-01 -3.60922188e-01
      -8.46401826e-02 1.00526243e-01 2.15756774e-01 1.89093277e-01</_>
    <_>
      -8.87265265e-01 -9.80056822e-01 4.94237989e-01 6.38594329e-02
      5.67948818e-01 -9.47335139e-02 -8.43499973e-02 -1.65226117e-01
      -4.94038731e-01 5.45543991e-02 -3.50270599e-01 2.64478445e-01
      1.71266079e-01 2.36847982e-01 1.32225826e-01 -6.01076446e-02
      2.77280286e-02 5.99914640e-02 6.24092996e-01 3.20163757e-01
      4.11939211e-02 3.56331766e-01 -2.69547790e-01 9.71645191e-02
      3.44307050e-02 8.15556720e-02 1.87198669e-01 2.92484462e-01
      1.74345598e-01 -7.48419538e-02 2.75072277e-01 -3.45303655e-01
      -1.16110086e-01 1.36551499e-01 1.46562397e-01 3.43449265e-01</_>
    <_>
      -1.25029707e+00 -1.20350826e+00 4.86750722e-01 3.56205814e-02
      4.16542411e-01 1.89713519e-02 1.57044888e-01 -7.00266510e-02
      3.07812374e-02 -2.12437660e-02 -1.01615280e-01 2.65019596e-01
      -9.35174525e-02 6.53926730e-02 6.79129288e-02 -1.36796638e-01
      1.10874876e-01 -2.11517781e-01 5.59246600e-01 -7.71675333e-02
      -7.11736456e-02 2.71733314e-01 -1.04868785e-01 1.24080963e-01
      2.36222625e-01 -1.30487680e-01 3.30091536e-01 -1.52494207e-01
      -6.13725334e-02 -1.78137988e-01 1.62085921e-01 -5.05510747e-01
      -6.70336708e-02 1.94967225e-01 -2.18267646e-02 2.31741786e-01</_>
    <_>
      -1.62441778e+00 -1.49219739e+00 5.17747879e-01 -4.87553358e-01
      5.39216936e-01 7.92022169e-01 5.28341830e-01 2.44810849e-01
      -4.28934209e-02 -4.97775882e-01 -7.30419457e-01 -8.04993093e-01
      4.76976424e-01 2.58470088e-01 -1.85353398e-01 -3.28565054e-02
      4.73734081e-01 6.19294822e-01 6.99412286e-01 -4.82443929e-01
      1.41204432e-01 1.12651527e-01 5.22052497e-02 5.49939610e-02
      8.27530548e-02 2.26871312e-01 -1.22252084e-01 -1.40947834e-01
      3.08351278e-01 -2.45640367e-01 1.13934860e-01 -1.29008561e-01
      -1.56424761e-01 3.06185961e-01 -1.36980802e-01 -2.66838700e-01</_>
    <_>
      -1.14405978e+00 -1.26350141e+00 4.73960251e-01 3.45388323e-01
      5.12073398e-01 -2.54578263e-01 -4.82713291e-03 -5.78959025e-02
      3.40786159e-01 6.09033480e-02 -2.20209807e-01 8.83417428e-02
      1.64527595e-01 2.86237657e-01 -1.04076073e-01 -3.34278464e-01
      -2.86569893e-02 -6.83382675e-02 4.77668285e-01 -4.73480448e-02
      -8.35087746e-02 1.32812545e-01 -3.85401607e-01 2.76067611e-02
      2.83844292e-01 -9.21203569e-03 -1.84687868e-01 -7.05915913e-02
      2.18955025e-01 -1.93764623e-02 -3.09870597e-02 -6.11871123e-01
      2.62063682e-01 -5.24839833e-02 -4.23806369e-01 2.74668455e-01</_>
    <_>
      -1.50962973e+00 -1.51119149e+00 4.72222418e-01 2.48785421e-01
      3.74071747e-01 -2.12213024e-01 -2.25059554e-01 6.32645339e-02
      7.88993835e-02 -9.32405442e-02 -1.59243375e-01 -1.14904694e-01
      5.43340705e-02 -1.01834796e-01 -1.58077016e-01 -2.53067106e-01
      1.44940138e-01 1.81608096e-01 1.71504691e-01 1.64170474e-01
      -3.31485063e-01 3.61054420e-01 -7.04587460e-01 -8.24269503e-02
      1.31647764e-02 2.15675920e-01 -2.66680717e-01 -2.34639883e-01
      -1.22364923e-01 9.51595604e-02 1.78426504e-01 -2.11268634e-01
      2.89540023e-01 -2.13655941e-02 -2.48783514e-01 2.13973075e-01</_>
    <_>
      -1.62662590e+00 -1.62460709e+00 4.43462759e-01 1.81226984e-01
      4.00681585e-01 -1.67532906e-01 1.37348071e-01 -8.94121975e-02
      4.91939262e-02 -1.21257521e-01 -6.31330013e-02 -2.50380933e-01
      2.62787730e-01 4.24953848e-01 2.21230593e-02 -5.15049510e-02
      1.19301602e-01 4.71884422e-02 5.25597990e-01 -2.48327240e-01
      -1.26912579e-01 2.83050746e-01 -2.81018823e-01 -2.29461372e-01
      -8.03483948e-02 1.62899196e-02 -2.38736514e-02 1.32661611e-01
      -1.63072139e-01 2.48649083e-02 -1.01513036e-01 -1.80418760e-01
      -1.29846400e-02 1.12617970e-01 -5.28087132e-02 -2.52939034e-02</_>
    <_>
      -9.31463182e-01 -1.12607884e+00 3.96824479e-01 6.31900311e-01
      3.00385892e-01 -2.40801707e-01 -9.93700698e-02 2.60807514e-01
      9.82018054e-01 4.15343717e-02 -1.79046348e-01 -2.50164837e-01
      4.24576759e-01 1.81958616e-01 -3.16848122e-02 3.46773475e-01
      2.88128387e-02 -1.81946173e-01 -3.48229706e-01 -1.75526902e-01
      -2.86594927e-02 1.47833571e-01 -1.10347018e-01 1.56048790e-01
      8.71244147e-02 1.91705897e-01 -1.93301082e-01 -1.31293669e-01
      -3.87626775e-02 2.12378263e-01 -3.22493464e-01 1.24282196e-01
      -1.35203943e-01 1.56191453e-01 4.75774258e-02 -3.72306705e-02</_>
    <_>
      -1.14856803e+00 -1.08440721e+00 4.67101634e-01 9.64492559e-02
      2.96968490e-01 3.08131929e-02 4.42452103e-01 1.91496894e-01
      6.62748098e-01 6.55965805e-02 1.62478730e-01 -1.02633677e-01
      8.85506049e-02 2.69172519e-01 6.89573539e-03 9.81692374e-02
      3.21470231e-01 2.13356942e-01 -5.98904379e-02 -3.68505090e-01
      -2.81371504e-01 2.00098604e-01 -3.63280803e-01 6.37613982e-02
      3.47329909e-03 3.60507756e-01 -6.54221997e-02 -2.95201719e-01
      1.12582631e-01 -4.39094096e-01 -2.32390929e-02 -3.48171920e-01
      5.03755920e-02 1.15465671e-01 -3.83405864e-01 1.05968833e-01</_>
    <_>
      1.69440523e-01 -1.49103940e-01 5.79644263e-01 1.19680010e-01
      6.37796074e-02 -1.65912956e-01 1.58537447e-01 7.28108212e-02
      4.46001478e-02 -2.09438354e-01 -3.30647570e-03 6.97406568e-03
      -4.07194197e-02 -9.45298597e-02 3.30811217e-02 -2.18283273e-02
      2.98517317e-01 -7.90417343e-02 2.45720997e-01 -8.11800137e-02
      -1.17769703e-01 2.04491407e-01 -2.95353323e-01 8.96399170e-02
      -7.83867687e-02 1.35927692e-01 3.68029214e-02 6.88073486e-02
      -4.36709635e-02 -6.89536408e-02 9.56437960e-02 -2.89330184e-01
      -6.13779910e-02 1.95060015e-01 -1.32346436e-01 1.13520868e-01</_>
    <_>
      -7.11081624e-01 -1.04325342e+00 2.51080096e-01 3.30163389e-01
      5.43547511e-01 -3.94554824e-01 -3.37366283e-01 1.38191298e-01
      -2.16938585e-01 4.22094971e-01 1.03068594e-02 3.85203511e-01
      3.02618239e-02 3.18162471e-01 -1.57452375e-01 3.32681611e-02
      -8.14324394e-02 8.17057118e-02 2.25398615e-01 -1.28015667e-01
      -3.00636757e-02 1.28669992e-01 -4.18221891e-01 8.65039155e-02
      -2.23366976e-01 -1.93564832e-01 -8.17266330e-02 -2.05011040e-01
      -1.42740849e-02 7.19688609e-02 -1.66912511e-01 -2.97798008e-01
      -1.72428727e-01 3.06851804e-01 -3.69840153e-02 7.62425177e-03</_>
    <_>
      -8.25999677e-01 -8.50300610e-01 4.38279212e-01 2.15418190e-01
      3.46720606e-01 -2.21485600e-01 5.04492402e-01 -2.19450071e-02
      2.87312090e-01 -5.49148858e-01 -2.07272366e-01 -5.24922788e-01
      2.75523752e-01 1.52819186e-01 1.94475546e-01 2.09508389e-01
      -2.96430737e-01 2.84077525e-01 -9.52754170e-03 -1.42089166e-02
      2.06880718e-01 3.12312216e-01 7.23136216e-02 -5.86653054e-02
      1.70104519e-01 5.14301918e-02 -2.76133746e-01 1.43985659e-01
      2.05299389e-02 9.35148597e-02 2.43385192e-02 -5.23908027e-02
      -1.02354199e-01 -7.42432699e-02 -6.91386983e-02 2.13907152e-01</_>
    <_>
      1.24845333e-01 -4.86488014e-01 5.49178004e-01 -3.77216237e-03
      7.05921531e-01 5.09177148e-01 1.33348759e-02 -1.68949232e-01
      3.95909131e-01 -6.16321452e-02 -4.23782378e-01 1.86469883e-01
      -1.46695778e-01 -2.03231201e-01 -3.65493834e-01 1.66934803e-01
      -1.48524821e-01 1.43147513e-01 2.51540899e-01 2.33425990e-01
      -1.50532663e-01 -5.94851654e-03 1.57113060e-01 1.41617149e-01
      -1.06781505e-01 -1.06136359e-01 -3.11818093e-01 7.86374509e-02
      -1.06347568e-01 3.33387554e-02 1.29229456e-01 -9.28153098e-02
      -8.83456841e-02 -6.73840344e-02 3.14692222e-02 2.74146833e-02</_>
    <_>
      -7.55501390e-01 -7.61766732e-01 4.54707235e-01 -3.76389891e-01
      2.85953850e-01 1.87391639e-01 6.46996498e-01 -2.50489097e-02
      -2.60375440e-02 -3.58224869e-01 1.95818648e-01 -1.93763763e-01
      -1.07066251e-01 -6.17377609e-02 -5.26155457e-02 2.64189124e-01
      6.61877319e-02 2.27641687e-01 6.02551214e-02 8.68579596e-02
      -2.63311714e-02 1.04090318e-01 -2.71599740e-01 -3.07743847e-01
      -7.16244429e-02 -1.43689737e-02 -6.30505532e-02 5.09474725e-02
      8.87429938e-02 1.19136609e-01 9.38351527e-02 -1.15180828e-01
      1.01800717e-01 2.02342555e-01 -1.70810800e-02 -1.07232042e-01</_>
    <_>
      -2.15263009e+00 -1.90815520e+00 4.54632372e-01 -6.17854223e-02
      3.87107611e-01 3.72282088e-01 -5.02299964e-02 3.10441017e-01
      -3.08201820e-01 2.14159891e-01 -4.30263907e-01 -3.54073405e-01
      4.10773516e-01 3.25346738e-01 -2.78771430e-01 1.11907952e-01
      3.10433149e-01 -2.53026575e-01 1.74384341e-01 5.90293631e-02
      -3.14777106e-01 1.06962724e-02 1.41908824e-01 1.49001151e-01
      -1.78402245e-01 1.82261206e-02 7.25409463e-02 -3.72479088e-03
      1.07543156e-01 -4.10535485e-02 -8.78059790e-02 -6.94281638e-01
      1.52558938e-01 -2.12211609e-01 1.03729546e-01 1.72774628e-01</_>
    <_>
      -2.08893657e+00 -1.86905146e+00 4.52059388e-01 -2.21540585e-01
      4.23976630e-01 2.53495067e-01 1.95358679e-01 1.23421073e-01
      -4.31178153e-01 3.58140409e-01 -6.66434690e-02 3.42827626e-02
      1.54171079e-01 4.83753532e-01 -4.42350626e-01 3.89495566e-02
      -4.66021523e-03 4.15275060e-02 3.63191515e-01 -4.58862126e-01
      -3.74127299e-01 1.25795290e-01 -3.37690115e-01 3.54021907e-01
      -2.05312699e-01 -2.26127803e-01 -2.26598248e-01 2.43520007e-01
      1.41989934e-04 -1.38492554e-01 1.36119425e-01 -1.57924443e-01
      -4.09269691e-01 1.73999473e-01 3.48686367e-01 -9.23642516e-02</_>
    <_>
      -1.21506560e+00 -1.05828977e+00 4.69337672e-01 4.86123599e-02
      2.92360127e-01 -1.12772539e-01 2.68101871e-01 8.00349712e-02
      -1.21022999e-01 -3.90007831e-02 5.10101207e-04 -2.89132297e-01
      2.02844888e-01 7.03936145e-02 -4.46561687e-02 3.61239165e-01
      -4.56409063e-03 5.26108503e-01 2.70962626e-01 -3.40686113e-01
      -1.50201768e-01 3.41837317e-01 -5.00619054e-01 8.71738195e-02
      -6.94423392e-02 3.75200510e-01 -2.76148673e-02 1.79829523e-01
      1.29226476e-01 1.00272447e-01 7.96325877e-02 -5.04741520e-02
      5.74037917e-02 2.00693727e-01 -8.53092074e-02 1.48197353e-01</_>
    <_>
      -1.05249000e+00 -1.15737879e+00 4.98326063e-01 1.74709827e-01
      5.09212017e-01 -1.68642250e-03 -4.74966317e-01 -1.83906168e-01
      -3.52608383e-01 1.29856735e-01 -6.15494132e-01 4.39576596e-01
      1.27595037e-01 -7.01067084e-03 1.38211310e-01 -7.02816188e-01
      -1.01162739e-01 3.09680611e-01 6.87564492e-01 2.14497894e-01
      -1.50736645e-01 3.84569675e-01 -4.83455688e-01 -5.45678660e-03
      -1.81005388e-01 1.18353330e-01 3.87136847e-01 3.01195621e-01
      3.92560922e-02 1.87642008e-01 1.86748207e-02 -3.49421613e-02
      1.87526215e-02 1.82372376e-01 -1.83141202e-01 4.80475053e-02</_>
    <_>
      -5.56661606e-01 -7.57124662e-01 5.47876537e-01 2.46537805e-01
      2.90828884e-01 1.38827771e-01 -4.77143407e-01 1.23388665e-02
      -7.15995952e-02 8.75007138e-02 -3.58820468e-01 1.28102615e-01
      8.72939751e-02 -2.69861042e-01 2.46112980e-02 -2.43097052e-01
      3.32102440e-02 -5.16056269e-02 5.64126909e-01 -7.55356327e-02
      -2.16498807e-01 3.89402732e-02 -3.78439665e-01 -1.20513864e-01
      -2.30040960e-02 5.89073710e-02 -2.69116133e-01 1.50956511e-01
      -3.13785747e-02 1.89731251e-02 -4.19871956e-02 -1.83608010e-01
      7.39181787e-02 4.62606490e-01 4.41576131e-02 -4.55513932e-02</_>
    <_>
      -1.05727470e+00 -9.67536330e-01 5.61618567e-01 -5.19487619e-01
      3.14347118e-01 1.11549759e+00 3.93854648e-01 9.09278467e-02
      1.64402779e-02 -1.97744757e-01 -2.84335703e-01 -1.88023463e-01
      4.15133610e-02 -1.52978316e-01 -2.83250660e-01 -1.94639578e-01
      3.98495972e-01 -1.16708905e-01 5.86404242e-02 -2.13592604e-01
      1.35631859e-01 -8.32247436e-02 -2.05109105e-01 2.46081203e-02
      3.86692099e-02 2.19699517e-01 -3.16313542e-02 -1.92617644e-02
      -2.50518441e-01 -4.27824482e-02 -4.00521010e-02 -3.52788091e-01
      8.37210715e-02 -9.96117946e-03 -1.63102254e-01 2.15806723e-01</_>
    <_>
      -9.29218888e-01 -9.41886663e-01 5.15517473e-01 4.28378806e-02
      2.93029308e-01 3.55807722e-01 -3.99300121e-02 -7.52629805e-03
      9.00485292e-02 1.50405228e-01 1.76905785e-02 1.68092716e-02
      7.91342035e-02 1.27344683e-01 6.05008043e-02 -2.20888704e-02
      2.70729423e-01 -1.28988922e-01 7.48259425e-02 -1.29830852e-01
      -5.25007367e-01 -5.36429835e-03 -2.65364528e-01 -1.65771976e-01
      -7.21755475e-02 2.84015983e-01 -2.24848956e-01 2.08042040e-01
      -1.75221190e-01 -1.04752138e-01 3.14139396e-01 -3.12873691e-01
      3.31755877e-02 -1.58846751e-02 -2.39031658e-01 1.93229198e-01</_>
    <_>
      -1.30524457e+00 -1.35493481e+00 4.37785059e-01 4.61278439e-01
      4.62861836e-01 -4.63585734e-01 -1.72404438e-01 2.32302155e-02
      9.93505940e-02 6.11649491e-02 -6.27551898e-02 1.98575556e-02
      2.13310316e-01 2.35308066e-01 1.11211188e-01 1.88817814e-01
      3.86034474e-02 -9.48162153e-02 2.71872312e-01 -2.00946495e-01
      -3.36170107e-01 -4.94715646e-02 -3.97513419e-01 -1.04567066e-01
      -3.00703524e-03 1.57328084e-01 1.67592138e-01 3.15401345e-01
      6.40606284e-02 1.02182016e-01 3.43772471e-01 -2.83373624e-01
      8.07789266e-02 1.77339092e-01 -8.73587579e-02 2.23492905e-01</_>
    <_>
      -5.73234141e-01 -5.75604796e-01 6.01071239e-01 2.90324888e-03
      2.28870198e-01 2.56449074e-01 -9.29501578e-02 -2.66150944e-02
      1.35056958e-01 -8.87601301e-02 -4.79802601e-02 -2.01686891e-03
      5.82087748e-02 -1.89830720e-01 -1.23337261e-01 -8.02629367e-02
      1.94264680e-01 -2.53602445e-01 2.80329913e-01 -2.39755705e-01
      -8.64079222e-03 3.91418859e-02 -3.10210764e-01 1.32428393e-01
      1.57346711e-01 1.43304154e-01 3.41911204e-02 -1.04028866e-01
      -1.96594641e-01 -1.19068742e-01 9.14735496e-02 -3.51971924e-01
      -1.54779792e-01 1.73106976e-02 1.02835491e-01 2.34160036e-01</_>
    <_>
      -1.89088956e-01 -3.02676439e-01 5.68358243e-01 -1.48726180e-01
      1.18077151e-01 3.67079496e-01 2.91065723e-01 -7.84093793e-03
      6.83091804e-02 -1.75719559e-01 1.94691550e-02 -1.12732872e-01
      -3.90840042e-03 -1.83231011e-02 -3.55781801e-02 1.51347935e-01
      1.79580629e-01 1.15797855e-01 3.51065278e-01 -1.60283834e-01
      -4.28286716e-02 7.35287741e-02 -2.74410307e-01 1.27656199e-02
      -4.30305153e-02 1.51338205e-01 -2.33085543e-01 1.57009318e-01
      5.00678876e-03 4.37180437e-02 2.43216351e-01 -1.88753635e-01
      -1.16988353e-01 2.05744609e-01 3.49608362e-02 8.70440975e-02</_>
    <_>
      4.85947579e-01 6.37478456e-02 5.69551706e-01 -1.94137059e-02
      5.91675378e-02 5.18543795e-02 2.06746325e-01 -9.49532613e-02
      7.24644288e-02 -6.00913465e-02 5.14618494e-02 3.35905142e-02
      4.12120633e-02 3.44751962e-02 1.08872436e-03 7.14008063e-02
      6.24725893e-02 3.85794379e-02 3.34463298e-01 -1.08203426e-01
      -1.55037344e-01 7.43852109e-02 -1.95853055e-01 3.96010801e-02
      1.19842485e-01 5.60531877e-02 -1.29959509e-01 -4.39532362e-02
      1.47747984e-02 -6.55597495e-03 1.44961596e-01 -3.59275609e-01
      -2.94236094e-02 6.11371361e-02 -3.63350660e-02 7.18765259e-02</_>
    <_>
      -1.20506257e-01 -1.81012526e-01 3.93284440e-01 5.34108318e-02
      5.05559206e-01 1.88386608e-02 3.09157819e-01 3.48035470e-02
      -5.60700558e-02 -1.04468629e-01 2.02739105e-01 2.26035848e-01
      -1.71017032e-02 1.05644934e-01 -2.06691071e-01 1.27010927e-01
      1.73309058e-01 -2.19928458e-01 9.59614441e-02 -9.30911899e-02
      -1.01218849e-01 8.24182406e-02 -2.54558623e-01 2.75986120e-02
      7.67019838e-02 5.07900454e-02 -1.62596658e-01 -1.39504671e-02
      1.68908790e-01 4.64735664e-02 -5.09252921e-02 -4.11011755e-01
      -1.43552557e-01 -7.16057420e-03 -8.11972544e-02 -7.69136697e-02</_>
    <_>
      4.12238359e-01 -1.12481751e-01 6.02308750e-01 1.08627550e-01
      1.15084067e-01 6.86922148e-02 7.74916336e-02 5.40820956e-02
      -4.23562489e-02 -6.47076070e-02 4.02999334e-02 -8.89628381e-02
      -1.16337938e-02 3.44154499e-02 -1.49442807e-01 9.70339254e-02
      1.05050474e-01 -4.64151055e-02 2.85592645e-01 -1.06669590e-01
      -2.24761009e-01 1.54611114e-02 -2.35165641e-01 -1.81633309e-02
      -5.92303388e-02 3.14418375e-02 -1.49604201e-01 1.26308903e-01
      3.97102423e-02 3.55402678e-02 9.99238268e-02 -2.87072301e-01
      7.44317770e-02 2.61121467e-02 -2.86235046e-02 9.17290896e-03</_>
    <_>
      -6.76267803e-01 -7.69495368e-01 5.12934506e-01 2.48755366e-02
      3.94422680e-01 2.43757114e-01 9.75098237e-02 -1.69187054e-01
      9.69009176e-02 -9.14440975e-02 -1.45834908e-01 1.53226838e-01
      -1.08610913e-01 6.96893781e-02 -2.23749980e-01 3.86710428e-02
      -2.47147884e-02 1.26454197e-02 3.33014429e-01 -1.16599932e-01
      -2.92790830e-01 -9.34168398e-02 -2.14910433e-01 7.12234676e-02
      -2.76333809e-01 -5.10781296e-02 -1.66064292e-01 3.14319581e-01
      -1.60233732e-02 8.63151923e-02 5.72694540e-01 -1.80509284e-01
      1.91329122e-01 -8.33766907e-02 1.70514770e-02 1.01687744e-01</_>
    <_>
      -5.69977999e-01 -6.99649692e-01 5.71269333e-01 -4.59873557e-01
      3.71612310e-01 2.09552512e-01 5.52103877e-01 3.19594711e-01
      -3.64554703e-01 -1.52151942e-01 3.84112448e-03 -3.71937990e-01
      1.23918399e-01 3.05892617e-01 -6.37592793e-01 2.58199394e-01
      3.64383012e-01 4.47927751e-02 4.73095626e-01 -3.52177620e-01
      -2.17791110e-01 -6.27980381e-02 -1.16297983e-01 -5.56837469e-02
      9.77182239e-02 3.75095129e-01 -6.68665096e-02 2.92084247e-01
      2.97696888e-01 2.07930475e-01 1.69344351e-01 -2.90790528e-01
      4.07862589e-02 7.61239231e-02 2.40947008e-01 -1.47898406e-01</_>
    <_>
      -2.74734974e-01 -2.41066560e-01 5.89646578e-01 7.84028053e-01
      2.01104593e+00 -9.49014664e-01 -8.13136160e-01 3.20905596e-01
      -4.01399016e-01 5.92806518e-01 -1.13022792e+00 4.33649302e-01
      8.86823893e-01 2.93539941e-01 -8.12926590e-01 9.45033729e-01
      8.91851246e-01 8.04677010e-01 6.48188293e-01 5.42158663e-01
      5.36695838e-01 -7.69005537e-01 -8.40107918e-01 -5.10306716e-01
      6.80440247e-01 3.00897717e-01 -5.89605391e-01 -4.23684657e-01
      -2.09259912e-01 -6.91803217e-01 5.71475148e-01 -3.60579759e-01
      3.27839643e-01 1.13624418e-02 4.22870606e-01 -1.46470377e-02</_>
    <_>
      -7.35541582e-01 -6.74995601e-01 5.02986312e-01 -1.44522637e-01
      4.56878126e-01 4.03270833e-02 3.46671730e-01 -5.58717549e-02
      -3.74607265e-01 -9.00741816e-02 1.86278503e-02 3.47668529e-02
      1.38296440e-01 5.16628802e-01 1.07215807e-01 1.67987883e-01
      3.18994559e-02 3.62135731e-02 5.06290197e-01 1.19517282e-01
      -1.00107759e-01 2.58966219e-02 1.31532758e-01 1.19496949e-01
      -6.86017517e-03 2.39377424e-01 -6.03242079e-03 2.91804284e-01
      -1.16241433e-01 7.46319145e-02 1.73157141e-01 -4.93685633e-01
      1.45694003e-01 -9.05742943e-02 -1.20611005e-01 3.28897983e-02</_>
    <_>
      3.63927865e+00 -2.82203460e+00 3.66658539e-01 4.99211282e-01
      -2.19601408e-01 5.78846991e-01 9.85248804e-01 3.27284515e-01
      5.42118967e-01 -3.99183750e-01 -7.35692859e-01 1.82398885e-01
      5.95463887e-02 3.46970379e-01 -4.78397697e-01 8.06626976e-01
      -4.32433933e-01 -6.79615021e-01 7.11032271e-01 9.73965168e-01
      -1.65804580e-01 1.47262722e-01 -5.11728942e-01 4.30426836e-01
      3.20379063e-02 9.49123949e-02 -3.93784106e-01 1.36771113e-01
      7.98954908e-03 -2.34947860e-01 6.74098134e-01 -2.67384738e-01
      -2.53601104e-01 4.40906793e-01 -6.53674126e-01 -5.92216626e-02</_>
    <_>
      2.62503922e-01 -5.56752980e-01 4.73502159e-01 1.42719626e-01
      4.32448328e-01 -5.63767040e-03 1.10522602e-02 3.36316526e-01
      2.42136598e-01 4.83128652e-02 1.57302290e-01 3.02866008e-02
      1.62700072e-01 -3.03228386e-02 -2.10716248e-01 2.08870053e-01
      7.89837837e-02 6.24381267e-02 1.00471839e-01 1.60716936e-01
      1.58771113e-01 2.07081392e-01 -1.96926817e-01 -1.41046613e-01
      -3.35052796e-02 4.61266845e-01 -2.73366392e-01 -5.14468141e-02
      -9.38315243e-02 7.12016970e-02 1.26256049e-01 -5.45951724e-01
      -2.34076381e-01 2.30222121e-01 -2.56280333e-01 4.17705663e-02</_>
    <_>
      -2.00064346e-01 -2.21211910e-01 5.91408074e-01 -1.69748008e-01
      2.46854722e-01 2.84935385e-01 4.20350611e-01 -1.34485409e-01
      4.63760607e-02 -3.39040272e-02 1.65850207e-01 1.11692943e-01
      -5.90181574e-02 5.27210049e-02 -7.59250671e-03 -7.22363815e-02
      9.88055915e-02 6.19936436e-02 3.58038962e-01 -1.65863618e-01
      -4.34334502e-02 9.53409448e-02 -3.66237909e-01 1.19621359e-01
      1.38690069e-01 2.62975276e-01 -4.63692993e-02 1.52204931e-01
      -5.12601323e-02 1.19552448e-01 1.24731049e-01 -3.83288026e-01
      3.11802216e-02 1.28206521e-01 -6.48577437e-02 5.29365093e-02</_>
    <_>
      -9.09624577e-01 -9.82564807e-01 4.67697054e-01 -3.73285636e-02
      3.82388473e-01 -1.05302043e-01 1.58001557e-01 -1.61563195e-02
      1.42980233e-01 -5.18370159e-02 -2.94375662e-02 3.43957245e-02
      -1.39597744e-01 1.20025456e-01 -2.11433470e-01 -3.09483021e-01
      7.32365623e-02 5.77098608e-01 1.91225454e-01 -2.22553313e-01
      -3.28730881e-01 6.42408431e-02 -3.23536009e-01 2.94318885e-01
      -3.33374180e-02 2.24042103e-01 -9.48123112e-02 -3.50545317e-01
      1.70347303e-01 -7.40368217e-02 3.36426795e-01 -2.99863100e-01
      2.18891144e-01 -5.05995862e-02 -1.87302276e-01 2.23100826e-01</_>
    <_>
      4.50287700e-01 -1.57740131e-01 5.85018337e-01 -2.20445797e-01
      4.12784256e-02 -1.74169526e-01 2.19905868e-01 -1.08910248e-01
      2.52332747e-01 -7.63223395e-02 4.15306091e-02 3.99382561e-02
      1.29201226e-02 -1.33375851e-02 4.70785610e-03 -3.49309444e-02
      1.86347127e-01 1.19998328e-01 3.61646563e-01 -5.01318136e-03
      -7.96210021e-02 -3.61610986e-02 -1.95195839e-01 -8.15854371e-02
      -3.04754674e-02 2.96898056e-02 -1.75936639e-01 1.21996753e-01
      -4.38294560e-02 2.50309169e-01 -1.18916314e-02 -4.10697073e-01
      -2.81367600e-02 -1.96172800e-02 -1.44702375e-01 7.29011670e-02</_>
    <_>
      1.38642120e+00 -2.35392499e+00 5.58349371e-01 -2.67614460e+00
      8.79739702e-01 -7.37414777e-01 2.31877044e-01 -2.99735498e-02
      6.95378959e-01 7.21074760e-01 5.66264212e-01 3.61369520e-01
      -2.63510317e-01 -3.44953567e-01 -8.82900059e-01 -3.23629081e-01
      2.78552383e-01 6.27637208e-01 2.54733264e-01 -3.28728139e-01
      -2.94446051e-01 4.57517803e-01 2.89715398e-02 -4.00957018e-01
      4.29670736e-02 2.03009531e-01 1.09541412e-04 4.39901590e-01
      -6.62563667e-02 -1.02378830e-01 -6.06115535e-02 -6.68359578e-01
      -3.97551298e-01 9.60902311e-03 -2.09403992e-01 -1.13668986e-01</_>
    <_>
      -5.50478458e-01 -6.70647383e-01 4.37424302e-01 -1.38939381e-01
      3.73259962e-01 1.41077206e-01 1.69892803e-01 -1.40052587e-01
      -2.40085259e-01 1.84409723e-01 2.51436353e-01 5.84826022e-02
      4.00295705e-02 2.68394709e-01 4.71834047e-03 1.83545768e-01
      -1.19613223e-01 4.01277654e-02 4.99597890e-03 2.10984588e-01
      -2.30537578e-01 6.97252154e-02 -4.95831877e-01 -2.56003112e-01
      -2.59439945e-02 -1.24823391e-01 -2.11223155e-01 2.22472340e-01
      -6.98716193e-02 -1.28745148e-02 -6.10725954e-02 -3.21532369e-01
      -2.17850357e-02 2.36602485e-01 2.58526385e-01 8.37971866e-02</_>
    <_>
      4.50183243e-01 8.90024900e-02 5.75259328e-01 -3.62640992e-02
      1.02271736e-01 3.73760834e-02 2.14199573e-01 -1.08522534e-01
      5.64854182e-02 -5.66673949e-02 2.12502573e-02 5.48855886e-02
      6.15286641e-02 7.42050856e-02 2.72552506e-03 1.00600675e-01
      2.59695128e-02 6.63647503e-02 3.60138804e-01 -1.03466414e-01
      -1.36733934e-01 8.30823854e-02 -2.02645868e-01 4.62014265e-02
      1.03875674e-01 6.11685850e-02 -1.33661047e-01 -2.20099408e-02
      9.95534007e-03 -4.28230241e-02 1.56334639e-01 -3.48742962e-01
      -8.48500133e-02 7.17082173e-02 -5.25223762e-02 8.09833631e-02</_>
    <_>
      -6.39473200e-01 -1.02207398e+00 3.93135279e-01 8.10083330e-01
      3.07673544e-01 -6.06359959e-01 -3.78950089e-01 -2.51385551e-02
      3.87232512e-01 1.76383764e-01 -9.23163891e-02 -4.29446138e-02
      2.68899113e-01 1.93668306e-01 7.28470236e-02 -2.05203786e-01
      -7.33433217e-02 -1.35717034e-01 5.72122753e-01 -2.37076148e-01
      -5.90694472e-02 2.99302459e-01 -5.13121128e-01 1.13933953e-02
      9.35352519e-02 -2.77906805e-01 1.36989906e-01 6.94352269e-01
      -1.97161421e-01 3.74357730e-01 1.04822867e-01 -1.28780171e-01
      5.87621666e-02 -2.03548253e-01 -8.44855756e-02 4.60932553e-02</_>
    <_>
      3.35919809e+00 -2.70327401e+00 4.24761564e-01 -1.10823226e+00
      4.97429252e-01 -4.31790888e-01 2.02258810e-01 -2.10497594e+00
      -8.69539008e-02 5.89267015e-01 4.03307855e-01 -7.08361089e-01
      2.92268515e-01 1.32778967e-02 -4.18590248e-01 -6.38685077e-02
      4.12624538e-01 -5.58400564e-02 4.97624964e-01 2.55376846e-01
      -2.05503017e-01 -1.41683728e-01 2.80563929e-03 -1.78382501e-01
      -3.12529445e-01 7.69059211e-02 -4.71703053e-01 -1.58623368e-01
      -1.16696015e-01 1.60412490e-01 -1.55653041e-02 3.74465659e-02
      -2.23338112e-01 3.41231883e-01 -2.28482097e-01 4.59168792e-01</_>
    <_>
      9.45990324e-01 1.23353966e-01 9.98814642e-01 -3.20163146e-02
      1.84198380e+00 1.61812171e-01 4.97110963e-01 2.12588236e-01
      1.81356087e-01 -8.17250490e-01 6.72968850e-02 -6.62359521e-02
      -4.44680691e-01 6.23383403e-01 3.18048000e-02 2.92905211e-01
      2.64936447e-01 -3.30216438e-01 3.13172221e-01 -6.40857220e-01
      -9.39651549e-01 3.14590693e-01 -3.43279779e-01 1.98086590e-01
      2.10940227e-01 -8.64255428e-02 4.78605241e-01 -2.64992654e-01
      2.13623509e-01 4.13851619e-01 -5.16720116e-01 -1.28943607e-01
      -5.24804294e-01 -2.25162327e-01 -2.88417757e-01 6.40434384e-01</_>
    <_>
      -9.38061893e-01 -8.54650021e-01 5.35706341e-01 -1.71069860e-01
      3.93214703e-01 3.76352906e-01 2.05821127e-01 -2.58521259e-01
      -3.24701548e-01 1.56242447e-02 -1.17652893e-01 3.03344637e-01
      -1.86960287e-02 2.97222763e-01 3.22794050e-01 -2.52667427e-01
      2.53543735e-01 -9.70347971e-02 4.58614975e-01 3.55817974e-02
      -1.07841507e-01 -2.77943555e-02 -2.45374426e-01 -3.80725980e-01
      5.29998466e-02 4.85780597e-01 -8.39560106e-02 -1.91213693e-02
      -1.73345711e-02 5.79810850e-02 -3.80431078e-02 -3.76169175e-01
      4.23244894e-01 4.50113386e-01 -2.88824975e-01 1.60965934e-01</_>
    <_>
      -4.63140458e-01 -6.13026321e-01 5.62909722e-01 7.20912889e-02
      1.93670899e-01 -3.54584716e-02 2.75624562e-02 -2.86637731e-02
      3.99610884e-02 -1.08063906e-01 2.08151769e-02 7.22841769e-02
      -8.34599361e-02 -8.66313651e-02 -3.39114010e-01 7.64769986e-02
      1.07066952e-01 -1.59643367e-01 3.16033602e-01 9.62250903e-02
      -1.23189278e-01 -3.77014913e-02 -3.76135111e-02 -4.68778284e-03
      3.17907543e-03 3.64333279e-02 -2.12098867e-01 -6.24748729e-02
      2.29613278e-02 7.05044717e-02 9.92735550e-02 -3.60770792e-01
      1.78160723e-02 9.69801620e-02 1.08092548e-02 1.56911865e-01</_>
    <_>
      -7.06522644e-01 -8.20864797e-01 5.47090828e-01 3.85444500e-02
      2.49927804e-01 -1.41298130e-01 1.16516344e-01 -5.67521080e-02
      -1.38016298e-01 -1.36723772e-01 -1.33892849e-01 6.36417493e-02
      7.43732750e-02 2.26478875e-01 1.65455818e-01 -1.07737919e-02
      1.17649764e-01 2.76205242e-01 5.82428157e-01 -3.39662373e-01
      -1.47510529e-01 2.47306049e-01 -2.84482002e-01 2.75516920e-02
      2.69240402e-02 9.69053283e-02 -1.58339038e-01 9.56612453e-02
      1.31634444e-01 -7.92424083e-02 2.30764464e-01 -2.49030739e-01
      -8.07678849e-02 3.16204995e-01 -1.21542297e-01 1.04379758e-01</_>
    <_>
      -4.93731648e-01 -6.09684348e-01 5.75618505e-01 3.54979225e-02
      2.65103579e-01 2.19893157e-01 -5.51777519e-02 -1.05426311e-01
      -1.57174274e-01 8.62502083e-02 4.18512076e-02 3.16037863e-01
      -8.86310935e-02 8.12095590e-03 1.43141881e-01 5.51725551e-02
      1.60077304e-01 -1.06324993e-01 3.42512012e-01 -1.58036187e-01
      -1.09539494e-01 2.13779256e-01 -2.46636808e-01 -1.42408043e-01
      -1.06408954e-01 1.93528999e-02 -3.70214045e-01 4.71147671e-02
      -5.91231249e-02 1.23010062e-01 -2.69906558e-02 -2.49653593e-01
      2.17089374e-02 1.91606626e-01 7.84600824e-02 1.79846197e-01</_>
    <_>
      -2.18621552e-01 -2.28646889e-01 2.49667555e-01 4.91718855e-03
      5.26418805e-01 -2.10638568e-02 2.59498805e-01 -7.00144749e-03
      -9.79371890e-02 -9.45993438e-02 2.08186563e-02 3.11609685e-01
      -9.06563848e-02 8.26748833e-02 -1.68863051e-02 1.07663393e-01
      2.03489318e-01 -7.09793419e-02 8.61315206e-02 1.18233219e-01
      -5.32809161e-02 8.89772475e-02 -3.12499970e-01 -1.33662984e-01
      1.22468688e-01 -3.88290882e-02 -3.84442061e-02 2.43698761e-01
      2.28278831e-01 -4.63987440e-02 -1.00715989e-02 -2.91049153e-01
      -2.41587348e-02 5.60114980e-02 -1.84044898e-01 1.27112269e-01</_>
    <_>
      -1.98612884e-01 -4.71464753e-01 4.79482532e-01 2.09868118e-01
      1.11883119e-01 -1.04843512e-01 1.72841206e-01 -2.39334791e-03
      1.00356147e-01 -2.48819500e-01 -1.17683895e-01 -1.41691327e-01
      -1.83493935e-03 -1.90121144e-01 1.00676268e-01 9.00523588e-02
      1.02877967e-01 4.26413827e-02 2.52573609e-01 2.86361538e-02
      -1.36836782e-01 1.39111236e-01 -1.88176215e-01 5.79486042e-02
      1.20332003e-01 1.00061661e-02 -1.55935092e-02 -4.83948775e-02
      7.64406472e-02 9.10163894e-02 1.28652483e-01 -2.91158825e-01
      -4.90931571e-02 1.09672338e-01 -1.35991452e-02 1.10337041e-01</_>
    <_>
      -4.93378133e-01 -6.81942761e-01 5.06531060e-01 1.18241943e-01
      2.49246329e-01 4.42144386e-02 -6.97998554e-02 -1.06818959e-01
      1.15120322e-01 -1.50572592e-02 -7.06175268e-02 9.36239585e-02
      4.39789481e-02 -1.00358337e-01 4.55910638e-02 1.40714064e-01
      -8.94729644e-02 1.12094395e-01 3.50687534e-01 -1.44331291e-01
      -9.99218151e-02 1.71297386e-01 -3.05068254e-01 -3.47806327e-02
      -1.14025377e-01 -1.20931432e-01 -7.16703609e-02 9.85074565e-02
      -1.13042898e-01 7.36447871e-02 -2.23817695e-02 -5.87973237e-01
      2.69434489e-02 1.53341994e-01 -1.89460307e-01 5.74690709e-03</_>
    <_>
      2.41461873e-01 6.84787989e-01 -3.95846891e+00 -2.26534083e-01
      7.16478109e-01 1.86888147e-02 -2.72337973e-01 1.86961621e-01
      1.84591949e-01 1.07959032e+00 -8.85093927e-01 -1.41019082e+00
      -2.32590485e+00 6.23474658e-01 2.76711166e-01 2.08236068e-01
      6.29880205e-02 4.28654673e-03 4.10371989e-01 5.19188412e-04
      1.35462647e-02 1.77105635e-01 -3.36512715e-01 2.62209401e-03
      7.89613426e-02 1.64356768e-01 -1.42541155e-01 7.20553771e-02
      -1.32884115e-01 6.33786712e-03 1.63244933e-01 -4.31703120e-01
      -1.04733547e-02 7.81038031e-02 4.80442345e-02 9.96875688e-02</_>
    <_>
      4.00274336e-01 -1.07206613e-01 6.08747125e-01 1.34689227e-01
      1.05535164e-01 5.61112491e-03 6.52997792e-02 7.18594342e-02
      -2.83338055e-02 -8.32094774e-02 -9.11696441e-03 -6.58100322e-02
      1.53102055e-02 2.42944863e-02 -1.12299576e-01 5.29927872e-02
      1.68309629e-01 -5.30243963e-02 3.13111782e-01 -6.39746934e-02
      -1.72895640e-01 -8.68512969e-03 -2.36153901e-01 -4.80190627e-02
      -3.83337587e-02 5.68615720e-02 -1.93561569e-01 9.39091071e-02
      -3.94127937e-03 2.02815589e-02 9.18326154e-02 -3.21626961e-01
      8.28392059e-02 3.73466760e-02 -3.79306488e-02 4.35069762e-02</_>
    <_>
      -6.76267803e-01 -7.69495368e-01 5.12934506e-01 2.48755366e-02
      3.94422680e-01 2.43757114e-01 9.75098237e-02 -1.69187054e-01
      9.69009176e-02 -9.14440975e-02 -1.45834908e-01 1.53226838e-01
      -1.08610913e-01 6.96893781e-02 -2.23749980e-01 3.86710428e-02
      -2.47147884e-02 1.26454197e-02 3.33014429e-01 -1.16599932e-01
      -2.92790830e-01 -9.34168398e-02 -2.14910433e-01 7.12234676e-02
      -2.76333809e-01 -5.10781296e-02 -1.66064292e-01 3.14319581e-01
      -1.60233732e-02 8.63151923e-02 5.72694540e-01 -1.80509284e-01
      1.91329122e-01 -8.33766907e-02 1.70514770e-02 1.01687744e-01</_>
    <_>
      2.42689133e-01 -1.77921921e-01 5.77349782e-01 2.03457877e-01
      3.70972417e-02 -2.16674849e-01 1.48499501e-03 -1.04846910e-01
      3.11634932e-02 8.94218404e-03 9.51751396e-02 8.50169957e-02
      5.90979829e-02 1.69877544e-01 7.98153132e-02 1.60778284e-01
      1.27092183e-01 -1.13517113e-01 4.58656996e-01 -2.38250926e-01
      4.47616214e-03 1.40094757e-01 -2.46656001e-01 -5.07716974e-03
      -6.34243190e-02 1.07191235e-01 -1.33986488e-01 6.22760430e-02
      -4.05444875e-02 1.23580612e-01 1.54390424e-01 -4.06524152e-01
      -1.11736640e-01 1.63952440e-01 -9.40113887e-02 2.46243790e-01</_>
    <_>
      -2.74734974e-01 -2.41066560e-01 5.89646578e-01 7.84028053e-01
      2.01104593e+00 -9.49014664e-01 -8.13136160e-01 3.20905596e-01
      -4.01399016e-01 5.92806518e-01 -1.13022792e+00 4.33649302e-01
      8.86823893e-01 2.93539941e-01 -8.12926590e-01 9.45033729e-01
      8.91851246e-01 8.04677010e-01 6.48188293e-01 5.42158663e-01
      5.36695838e-01 -7.69005537e-01 -8.40107918e-01 -5.10306716e-01
      6.80440247e-01 3.00897717e-01 -5.89605391e-01 -4.23684657e-01
      -2.09259912e-01 -6.91803217e-01 5.71475148e-01 -3.60579759e-01
      3.27839643e-01 1.13624418e-02 4.22870606e-01 -1.46470377e-02</_>
    <_>
      9.08930182e-01 -9.44240093e-01 5.03244102e-01 -7.66822472e-02
      1.07878029e-01 -3.48942548e-01 7.71474421e-01 -2.73653805e-01
      -1.48297757e-01 3.13630253e-01 -2.32412353e-01 1.76007338e-02
      7.05518201e-02 -3.61579984e-01 4.90468927e-02 -1.69116586e-01
      2.88020670e-01 7.67561793e-02 -1.63175806e-01 -7.63300717e-01
      -4.38546866e-01 5.45154512e-01 -1.82448640e-01 8.74771997e-02
      -7.15027899e-02 2.31856048e-01 -4.21542674e-02 -9.59689170e-02
      -3.64427924e-01 -5.72897159e-02 5.34532033e-02 -4.27300185e-01
      5.36385775e-01 -1.24355897e-01 2.91811943e-01 -4.35799398e-02</_>
    <_>
      4.50287700e-01 -1.57740131e-01 5.85018337e-01 -2.20445797e-01
      4.12784256e-02 -1.74169526e-01 2.19905868e-01 -1.08910248e-01
      2.52332747e-01 -7.63223395e-02 4.15306091e-02 3.99382561e-02
      1.29201226e-02 -1.33375851e-02 4.70785610e-03 -3.49309444e-02
      1.86347127e-01 1.19998328e-01 3.61646563e-01 -5.01318136e-03
      -7.96210021e-02 -3.61610986e-02 -1.95195839e-01 -8.15854371e-02
      -3.04754674e-02 2.96898056e-02 -1.75936639e-01 1.21996753e-01
      -4.38294560e-02 2.50309169e-01 -1.18916314e-02 -4.10697073e-01
      -2.81367600e-02 -1.96172800e-02 -1.44702375e-01 7.29011670e-02</_>
    <_>
      4.85947579e-01 6.37478456e-02 5.69551706e-01 -1.94137059e-02
      5.91675378e-02 5.18543795e-02 2.06746325e-01 -9.49532613e-02
      7.24644288e-02 -6.00913465e-02 5.14618494e-02 3.35905142e-02
      4.12120633e-02 3.44751962e-02 1.08872436e-03 7.14008063e-02
      6.24725893e-02 3.85794379e-02 3.34463298e-01 -1.08203426e-01
      -1.55037344e-01 7.43852109e-02 -1.95853055e-01 3.96010801e-02
      1.19842485e-01 5.60531877e-02 -1.29959509e-01 -4.39532362e-02
      1.47747984e-02 -6.55597495e-03 1.44961596e-01 -3.59275609e-01
      -2.94236094e-02 6.11371361e-02 -3.63350660e-02 7.18765259e-02</_>
    <_>
      -5.49143195e-01 -5.69414675e-01 2.72807896e-01 9.99304205e-02
      5.87657094e-01 -3.13878447e-01 4.45301890e-01 -1.17161274e-01
      -2.87828743e-01 -3.54186073e-02 8.44128616e-03 1.74295381e-01
      3.80194455e-01 4.32198346e-01 2.79707164e-01 3.63729388e-01
      -5.86373322e-02 4.24364865e-01 3.67187113e-01 -8.26591700e-02
      1.73588451e-02 9.03702751e-02 -1.13350824e-01 2.07527429e-01
      1.60484716e-01 2.66801834e-01 -1.68086722e-01 1.67664841e-01
      2.25993484e-01 -1.86299369e-01 6.98500276e-02 -2.66967323e-02
      -4.10374969e-01 2.06656709e-01 2.26629198e-01 1.20650962e-01</_>
    <_>
      4.39509243e-01 -9.61455330e-02 5.94244897e-01 -1.22140139e-01
      -9.30792764e-02 1.29828125e-01 5.53289652e-02 -8.01814944e-02
      -2.83899088e-03 -3.88575979e-02 -3.92691791e-02 1.62265182e-01
      -3.39585282e-02 1.02129959e-01 -1.62004933e-01 5.24802483e-04
      2.35583439e-01 -1.10264957e-01 3.46495777e-01 -2.12511212e-01
      -1.05441518e-01 3.91530432e-02 -3.56782764e-01 -3.03213336e-02
      -3.73100452e-02 2.66911574e-02 -2.18451172e-02 8.65626261e-02
      -1.27417251e-01 4.62409481e-02 1.38682514e-01 -3.84551018e-01
      -7.68439621e-02 1.31122380e-01 -3.09237223e-02 7.72954896e-02</_>
    <_>
      3.36545181e+00 -2.96335196e+00 4.71004277e-01 -6.69502437e-01
      1.39444458e+00 -6.66143894e-01 1.48927435e-01 -1.33651745e+00
      -5.81413805e-01 9.02920246e-01 2.32135877e-01 -4.14741188e-01
      4.46655214e-01 -1.24047317e-01 -1.91157624e-01 -3.94561768e-01
      2.04199582e-01 -2.66207755e-01 1.90546736e-01 -4.52881962e-01
      1.37654856e-01 3.10833246e-01 2.20669746e-01 1.38242543e-01
      4.59677493e-03 -1.83997467e-01 -2.33124480e-01 -2.76597530e-01
      -1.88621357e-02 4.84705754e-02 3.00041556e-01 -3.20813805e-01
      3.15513372e-01 5.58657460e-02 1.63194150e-01 6.68288693e-02</_>
    <_>
      5.62106110e-02 -3.06763232e-01 6.13979936e-01 -9.03876945e-02
      9.53877121e-02 1.84143737e-01 5.28445661e-01 8.64328742e-02
      -1.19889304e-01 -5.00900969e-02 3.01699251e-01 -2.18555704e-01
      1.82259195e-02 2.47198805e-01 -5.06300405e-02 1.24060310e-01
      4.87845764e-02 4.50431323e-03 4.86202300e-01 -1.50076658e-01
      -1.86450988e-01 9.73583236e-02 -3.24090034e-01 6.54115975e-02
      -2.50756443e-02 1.13222852e-01 -1.71354219e-01 9.39327925e-02
      6.32018503e-03 -1.73051730e-02 2.29295880e-01 -2.25835219e-01
      -4.24309671e-02 4.10953462e-02 -8.44306648e-02 1.26177996e-01</_>
    <_>
      -5.58489680e-01 -4.08229113e-01 5.75332701e-01 -1.24502532e-01
      3.92477751e-01 1.46791264e-01 6.17810011e-01 -3.34626704e-01
      6.46341741e-02 -2.34229952e-01 1.71886772e-01 2.02157825e-01
      -1.75436571e-01 2.79171646e-01 1.07814193e-01 -3.32377344e-01
      -6.13217130e-02 2.40322813e-01 4.09616232e-01 -5.29475100e-02
      -8.67005363e-02 1.55038983e-01 -3.61585081e-01 -2.89689265e-02
      7.11449469e-03 1.89378873e-01 2.67228037e-01 -6.28569275e-02
      1.44000500e-01 4.93632723e-03 1.92787141e-01 -3.30251783e-01
      3.78494908e-04 4.90253046e-02 3.40280198e-02 -1.61653414e-01</_>
    <_>
      -4.44349013e-02 -3.77260149e-01 5.73003232e-01 1.62225202e-01
      1.56932652e-01 -3.79342467e-01 1.78477958e-01 6.54601976e-02
      -1.31608844e-01 -2.00616881e-01 -2.35732663e-02 -1.11917585e-01
      -9.88786016e-03 5.05334623e-02 -2.77466893e-01 -6.42776042e-02
      1.24299392e-01 -2.89925039e-02 3.31555486e-01 -1.04086787e-01
      3.82366627e-02 1.57255441e-01 -3.63556951e-01 2.18294095e-02
      4.21492662e-03 5.92964655e-03 -3.51260155e-01 6.46311641e-02
      4.90123145e-02 1.67530552e-01 -2.47428566e-02 -2.53132015e-01
      4.46463972e-02 8.35832395e-03 9.35020391e-04 2.03800187e-01</_>
    <_>
      -5.17817259e-01 -4.42373872e-01 5.84334791e-01 -9.35794488e-02
      2.48193800e-01 1.72006384e-01 4.83158618e-01 -2.74213403e-01
      1.72293052e-01 -2.23063171e-01 1.30329937e-01 1.04290277e-01
      -1.64666340e-01 2.53944725e-01 4.54351939e-02 -3.10801417e-01
      7.79195875e-02 2.32266814e-01 2.88044721e-01 -1.60885647e-01
      -1.39335006e-01 1.74515456e-01 -2.64511049e-01 5.03057502e-02
      1.25293769e-02 2.43151039e-01 1.45761082e-02 4.63089580e-03
      1.07033886e-02 8.80182683e-02 1.00837499e-01 -2.25182876e-01
      9.83191803e-02 -4.68916148e-02 -5.73672652e-02 -1.28209129e-01</_>
    <_>
      -1.84761655e+00 -1.56608117e+00 3.43465120e-01 -8.50659087e-02
      4.35768992e-01 3.64405811e-01 5.82576752e-01 -8.80463645e-02
      4.72787172e-01 1.25368118e-01 2.07215607e-01 -2.25544810e-01
      2.24520355e-01 7.03788757e-01 -3.92928958e-01 -1.13923900e-01
      -2.37749383e-01 9.74385813e-02 -2.20741272e-01 -5.01696765e-01
      -3.97615999e-01 -4.41878587e-01 -6.02402210e-01 -6.21130131e-02
      2.20222995e-01 -2.66674012e-01 1.21603338e-02 6.06016368e-02
      4.21498537e-01 -6.32349178e-02 4.82741207e-01 -2.00202152e-01
      -2.46636853e-01 1.58699393e-01 3.35234851e-01 3.46384607e-02</_>
    <_>
      -4.42587495e-01 -3.90312761e-01 5.89774191e-01 -1.34967819e-01
      1.88312560e-01 4.10235077e-01 3.63020539e-01 -1.57745942e-01
      -2.71021621e-04 1.32662103e-01 8.43784362e-02 6.49553761e-02
      3.92130725e-02 5.63681163e-02 -1.04926676e-01 -4.62940261e-02
      -5.64562017e-03 -8.67557228e-02 2.86554456e-01 -1.37668505e-01
      -1.94270283e-01 9.97766554e-02 -3.38002920e-01 3.37899476e-01
      -8.69630724e-02 -4.02464233e-02 -1.88685805e-01 1.65417746e-01
      -1.61558807e-01 -1.09626733e-01 4.37615067e-02 -1.48497537e-01
      8.96272883e-02 -1.17428087e-01 -4.91292682e-03 2.81033777e-02</_>
    <_>
      -1.04168344e+00 -1.21909118e+00 4.04355556e-01 5.73750317e-01
      1.55860960e+00 -9.41529155e-01 -3.09061050e-01 -1.72589168e-01
      -4.39595759e-01 4.35473979e-01 9.46847126e-02 8.88431311e-01
      1.84583828e-01 3.48649025e-01 -9.96564515e-03 9.03140962e-01
      -3.87653470e-01 3.90832931e-01 -8.31021309e-01 8.28768253e-01
      6.58548772e-01 -1.41045898e-01 -1.42422423e-01 -1.11413933e-01
      6.01083562e-02 1.06157713e-01 -9.20469761e-02 -1.62603125e-01
      9.36001947e-04 -1.70856044e-01 2.28599742e-01 9.03148204e-02
      -3.27369213e-01 1.08454846e-01 2.98346788e-01 3.19978058e-01</_>
    <_>
      1.97114512e-01 -1.35833815e-01 6.04351878e-01 7.74721354e-02
      1.16234004e-01 1.68612152e-02 1.00985259e-01 7.61484131e-02
      3.04665808e-02 -1.30285621e-01 5.80555387e-02 -5.21581583e-02
      2.87612826e-02 -8.74918140e-03 -3.66845801e-02 1.55704618e-01
      1.26117960e-01 -7.67045617e-02 3.25046003e-01 -1.03890799e-01
      -2.65290290e-01 1.57882407e-01 -1.95581168e-01 5.78939915e-02
      -3.52205932e-02 2.29320116e-02 -1.00590535e-01 -1.04299329e-01
      -6.75223991e-02 -1.52994497e-02 1.39852196e-01 -2.78783292e-01
      6.09093197e-02 1.16908178e-01 -2.24410333e-02 1.02463990e-01</_>
    <_>
      -2.98586845e-01 -4.12961781e-01 5.49387217e-01 1.39934227e-01
      2.18632489e-01 -2.62547046e-01 3.10447782e-01 3.37550417e-02
      1.13534093e-01 3.35155949e-02 2.77338296e-01 -3.05742305e-02
      6.42807335e-02 3.16929966e-01 -1.63498908e-01 2.56417822e-02
      -9.54805315e-02 -8.56067166e-02 3.98798943e-01 -1.94944665e-01
      -1.34471312e-01 4.34694700e-02 -3.28408629e-01 8.77364799e-02
      2.26533078e-02 2.34741136e-01 -7.46820495e-02 -4.59737666e-02
      1.00933984e-01 1.78204358e-01 -5.33720441e-02 -3.11722904e-01
      6.62295148e-02 6.67360201e-02 2.28768010e-02 -4.19438407e-02</_>
    <_>
      5.26908934e-02 -2.72791326e-01 5.52702904e-01 3.22818249e-01
      9.15050060e-02 -4.21267807e-01 1.49372637e-01 3.99143100e-02
      1.02516770e-01 -4.78062451e-01 -7.17190579e-02 -2.42300704e-01
      -7.25989565e-02 -6.21189885e-02 -9.27266926e-02 -2.15926051e-01
      8.59406367e-02 7.79682249e-02 3.83811563e-01 2.05019534e-01
      -2.87887871e-01 4.78430465e-02 8.72103497e-03 -1.92415506e-01
      -1.93753481e-01 1.83624193e-01 -1.17220789e-01 -9.01523754e-02
      -1.12828091e-01 -1.09276231e-02 1.12267368e-01 -2.54004419e-01
      1.17285345e-02 5.03168106e-02 7.40117058e-02 2.22869530e-01</_>
    <_>
      -1.06183553e+00 -1.22173440e+00 4.23122376e-01 1.19142635e-02
      4.37495679e-01 -5.19004941e-01 6.11726105e-01 -7.46370154e-03
      -6.88488245e-01 -4.35286164e-01 3.15752506e-01 -3.34274650e-01
      8.98273364e-02 7.95725644e-01 -1.54505698e-02 -6.15511462e-02
      7.07222223e-02 2.19873860e-01 1.44596323e-01 4.84537512e-01
      -1.02825098e-01 4.36682522e-01 -4.22073603e-01 -4.58124101e-01
      -1.92649923e-02 -2.38050550e-01 -2.61510730e-01 2.84208864e-01
      9.32357386e-02 -2.64358427e-02 -3.01064085e-02 -6.04299128e-01
      4.42219786e-02 3.43203336e-01 1.74626097e-01 1.29509673e-01</_>
    <_>
      -4.97372821e-02 -6.74547136e-01 5.09307206e-01 2.58934945e-01
      4.81895775e-01 1.00738443e-01 1.69118762e-01 -1.86390147e-01
      2.64620394e-01 -4.26391065e-02 -1.56810671e-01 1.20699860e-01
      -8.22309125e-03 3.88284884e-02 -2.26801448e-02 -4.20191325e-03
      6.78218678e-02 9.36132576e-03 2.61263698e-01 5.36784204e-03
      1.22827999e-01 1.50953367e-01 -3.94130766e-01 3.22591603e-01
      5.84344156e-02 4.96316701e-02 -3.49113606e-02 6.17920756e-02
      1.38530269e-01 1.34221792e-01 1.55354470e-01 -3.09132993e-01
      1.62640512e-01 -1.08168162e-01 -1.49803981e-01 9.88326520e-02</_>
    <_>
      -7.14335799e-01 -7.72417426e-01 5.37048638e-01 -2.93546557e-01
      3.30361992e-01 2.20798403e-01 3.78553540e-01 2.81051062e-02
      -3.02303404e-01 1.95581727e-02 1.13287151e-01 5.33637479e-02
      -2.14877669e-02 3.53597909e-01 3.74872498e-02 -3.37427743e-02
      3.44678819e-01 -1.21232778e-01 4.21064526e-01 -8.83680657e-02
      -4.03927684e-01 -1.46570757e-01 -2.95857310e-01 -2.60013491e-01
      -7.47845042e-04 4.06553328e-01 2.00007200e-01 1.89929098e-01
      1.42439649e-01 -2.65539493e-02 1.58578977e-01 -2.36710906e-01
      9.72310528e-02 2.99644917e-01 9.57710594e-02 2.89054122e-02</_>
    <_>
      -2.59223366e+00 -2.51417351e+00 3.11191797e-01 3.28190811e-02
      7.70842373e-01 1.57844767e-01 2.57772237e-01 -3.85021158e-02
      5.17452024e-02 2.32295483e-01 -5.08481979e-01 -2.99336612e-01
      7.28766263e-01 1.15915191e+00 -1.26491189e-01 -5.87385118e-01
      -1.50462791e-01 2.00495496e-01 2.24375762e-02 -2.02413976e-01
      -1.25257894e-01 2.84767687e-01 -4.23265606e-01 -1.54335022e-01
      -2.13884935e-01 -3.48922372e-01 6.74511194e-02 -3.10208201e-01
      -3.30891043e-01 -1.06697209e-01 8.54777545e-02 -7.02816844e-01
      -2.93083817e-01 3.95793557e-01 -6.32182837e-01 -2.77142018e-01</_>
    <_>
      -4.23767358e-01 -3.51896375e-01 5.89812458e-01 -6.80677816e-02
      3.42337668e-01 1.26247868e-01 4.35221285e-01 -2.88235843e-01
      5.26234172e-02 -1.98209509e-01 1.28396645e-01 1.43158108e-01
      -1.25242174e-01 1.56849951e-01 -5.29816598e-02 -2.88543522e-01
      5.69502860e-02 1.15453482e-01 3.35448682e-01 -6.60236329e-02
      -3.38923484e-02 1.51816845e-01 -3.69370013e-01 1.19608618e-01
      -3.13044600e-02 2.77072042e-01 3.14561695e-01 -7.86033720e-02
      1.55226905e-02 1.05584905e-01 3.10850561e-01 -3.38901669e-01
      -6.16141632e-02 -1.24761060e-01 -8.90537202e-02 -1.23746097e-01</_>
    <_>
      -5.71306348e-01 -4.26680088e-01 3.27476382e-01 -8.07574615e-02
      2.01185614e-01 2.90509254e-01 2.72448421e-01 6.97410330e-02
      1.43957004e-01 -1.67783439e-01 2.86541849e-01 2.32194811e-02
      -3.36757191e-02 7.15448381e-03 -3.48834813e-01 -2.13785246e-01
      2.43282944e-01 -4.56891447e-01 3.08547486e-02 9.03252587e-02
      -1.55207843e-01 -4.47178274e-01 -6.59900680e-02 -6.27099350e-02
      -7.16593722e-03 3.66811827e-02 -2.79272705e-01 -1.23475771e-02
      -3.69931124e-02 -4.65904698e-02 8.06769431e-02 -1.46772012e-01
      2.05971241e-01 1.25687439e-02 5.64699024e-02 1.28737062e-01</_>
    <_>
      5.43908514e-02 -3.98794621e-01 5.00512600e-01 4.31249887e-01
      1.63169295e-01 -5.05380571e-01 -7.47805089e-03 4.28996719e-02
      8.52424279e-02 -2.64571905e-01 -6.15850575e-02 -2.92004615e-01
      1.31857410e-01 1.33414462e-01 9.40302201e-03 -1.70868888e-01
      2.16449454e-01 -4.91007343e-02 3.43590409e-01 2.85797179e-01
      -3.92153561e-01 1.16402499e-01 -2.10132584e-01 -7.31703267e-02
      -3.68794682e-03 2.55922824e-01 -5.92477201e-03 2.59505715e-02
      -9.39197838e-03 1.79194316e-01 1.36808336e-01 -3.61906528e-01
      9.47459694e-03 1.36134764e-02 6.18687086e-02 2.77320087e-01</_>
    <_>
      2.80065630e-02 -2.37089559e-01 5.41692376e-01 4.16327983e-01
      6.13404885e-02 -5.07735550e-01 1.40881285e-01 9.42017287e-02
      1.08413950e-01 -1.56060576e-01 9.78557989e-02 -1.36709824e-01
      7.51576945e-02 3.30440611e-01 2.02076845e-02 1.28789678e-01
      1.69486165e-01 -1.16664395e-01 4.42521185e-01 -2.24674329e-01
      -2.41426304e-01 9.23101455e-02 -1.92155600e-01 -1.10133171e-01
      -5.59167303e-02 1.80719808e-01 -1.61705121e-01 -1.24638267e-01
      1.59649983e-01 2.50021014e-02 2.44223531e-02 -3.81161094e-01
      4.40140814e-02 3.83577906e-02 2.94904970e-02 8.91878381e-02</_>
    <_>
      6.20610178e-01 -7.04310164e-02 5.70757508e-01 -3.92289102e-01
      4.81307387e-01 7.94993937e-02 6.12062156e-01 -2.24663287e-01
      3.22224468e-01 1.90296590e-01 -2.14006439e-01 -5.61154895e-02
      1.41726986e-01 1.25099391e-01 -4.21131030e-02 1.69273451e-01
      4.39345390e-02 7.46606588e-02 4.59392965e-01 2.19705731e-01
      -1.87312499e-01 2.70048410e-01 -3.53830680e-02 -7.23865256e-03
      -3.24394166e-01 -1.64866805e-01 -2.02121794e-01 -6.75108507e-02
      -2.85062399e-02 4.52920586e-01 1.92558944e-01 -3.11214864e-01
      -8.15402493e-02 3.28621089e-01 -1.48425028e-01 1.27363920e-01</_>
    <_>
      -9.68112826e-01 -6.98065162e-01 5.61123788e-01 -5.24598300e-01
      3.28115135e-01 9.02761877e-01 6.45108521e-01 -4.39140350e-01
      9.43738446e-02 8.59780877e-04 7.64111653e-02 3.47799003e-01
      -2.12375343e-01 7.40711093e-02 4.02800977e-01 -4.03265029e-01
      1.70957357e-01 -8.23581815e-02 1.81860372e-01 -2.65617832e-03
      -2.06109852e-01 -1.80101484e-01 -2.44521245e-01 -7.57909939e-02
      9.40603092e-02 -5.52792512e-02 -4.20700878e-01 1.42972767e-01
      -2.32056186e-01 -2.47080550e-01 7.69674312e-03 -4.18443620e-01
      1.62363902e-01 8.35810676e-02 2.43150480e-02 1.43257782e-01</_>
    <_>
      -3.42903793e-01 -7.25867331e-01 5.57270527e-01 1.69953436e-01
      2.59162158e-01 -2.58486867e-01 -1.47123739e-01 5.69756255e-02
      2.12784991e-01 2.29730070e-01 4.82668132e-02 1.24628365e-01
      -3.39957215e-02 2.76565589e-02 -4.10064846e-01 -1.99302629e-01
      2.29955778e-01 -1.47252724e-01 4.87075776e-01 -3.90125901e-01
      -3.88274044e-02 2.27803633e-01 -8.21685076e-01 5.00263236e-02
      -7.32101351e-02 -2.69095264e-02 -1.54379249e-01 1.42330438e-01
      2.84598142e-01 2.73787111e-01 2.34023690e-01 -3.73275667e-01
      -3.73105966e-02 6.20262921e-02 -1.93968445e-01 1.15347534e-01</_>
    <_>
      -3.27913076e-01 -3.96218598e-01 6.02418900e-01 -1.37988150e-01
      3.18977922e-01 2.31793433e-01 2.55721539e-01 6.85071945e-02
      -2.59566188e-01 -2.80731935e-02 1.01368345e-01 1.06528170e-01
      -4.51458879e-02 1.52932420e-01 -1.18805580e-01 1.69903964e-01
      -2.27868222e-02 5.62662371e-02 3.77967209e-01 -2.22305879e-01
      -2.55320281e-01 4.16489877e-02 -2.21503392e-01 -3.46765332e-02
      -1.14353672e-01 -7.07534794e-03 -1.28057986e-01 2.00531527e-01
      -8.43379870e-02 1.83283407e-02 1.38494864e-01 -1.64676338e-01
      2.50641704e-01 -2.00331256e-01 -7.57617503e-02 -3.72426398e-02</_>
    <_>
      -5.15546083e-01 -7.04881012e-01 5.92127025e-01 -2.48335585e-01
      3.10036361e-01 3.99729609e-01 3.24256830e-02 2.06183627e-01
      -6.18844628e-01 8.73255506e-02 -2.60086834e-01 -3.69634554e-02
      5.55129759e-02 1.02262303e-01 -3.87471110e-01 -6.58648508e-03
      3.11317630e-02 9.30857100e-03 5.75325787e-01 -3.14138979e-01
      1.03435896e-01 1.35348111e-01 -1.53477997e-01 3.27681720e-01
      -5.92574943e-03 2.21657068e-01 1.03834927e-01 9.37951803e-02
      2.22394139e-01 1.24426760e-01 -1.89353917e-02 -3.29555690e-01
      4.16638888e-02 2.79434413e-01 -1.55441567e-01 1.83521435e-01</_>
    <_>
      -1.29220831e+00 -9.95488048e-01 5.52725971e-01 -7.42476940e-01
      2.11732745e-01 1.01076913e+00 1.12809110e+00 3.99611704e-02
      -2.85496973e-02 -5.72173774e-01 -8.57772827e-02 -6.95232987e-01
      7.23967552e-02 2.51831561e-01 -5.00586748e-01 -2.96306133e-01
      3.72051001e-01 9.19676870e-02 1.36646360e-01 2.77200975e-02
      1.16676964e-01 -1.31590322e-01 6.85059291e-04 -6.68816939e-02
      6.34836257e-02 -2.52706483e-02 -3.57420415e-01 -2.06505790e-01
      -6.55010110e-03 -1.41839564e-01 -1.70554429e-01 -3.43347400e-01
      5.64550720e-02 -5.06231561e-02 1.84279859e-01 1.33688122e-01</_>
    <_>
      1.38728851e-02 -3.55833501e-01 5.42188168e-01 2.68925637e-01
      1.29993409e-01 -4.72665340e-01 3.29224765e-01 -2.18954533e-01
      7.62192309e-02 -3.04989725e-01 6.87779114e-02 1.05440773e-01
      -1.95175290e-01 6.17136583e-02 -4.63705435e-02 -2.91732132e-01
      5.06363139e-02 -1.03542067e-01 3.74239802e-01 1.43027693e-01
      -8.41526762e-02 9.36408713e-02 -3.58178973e-01 -5.00064949e-03
      -5.76973446e-02 3.21436599e-02 -8.69039893e-02 7.91633595e-03
      8.09933897e-03 -9.19873361e-04 2.92506311e-02 -2.20652521e-01
      5.80176748e-02 -7.82195330e-02 -1.05937839e-01 3.35113019e-01</_>
    <_>
      -9.63841319e-01 -1.10009825e+00 4.59254384e-01 2.36049742e-01
      4.19209421e-01 -4.56354141e-01 -7.27970302e-02 -4.05131578e-02
      -2.00832531e-01 1.55621305e-01 -1.05237298e-01 3.33925992e-01
      -2.57503875e-02 3.47685128e-01 -1.04651131e-01 -2.66193837e-01
      -1.35177612e-01 -1.04433998e-01 4.94788051e-01 1.00801028e-01
      -2.66544044e-01 3.58099192e-01 1.02149971e-01 1.21456832e-01
      -2.20085591e-01 -1.79014772e-01 1.79187760e-01 -1.80551916e-01
      -3.94684523e-01 -2.22800985e-01 -1.75691903e-01 -2.15359420e-01
      8.57056752e-02 4.05397892e-01 -1.57946408e-01 1.19236022e-01</_>
    <_>
      4.50287700e-01 -1.57740131e-01 5.85018337e-01 -2.20445797e-01
      4.12784256e-02 -1.74169526e-01 2.19905868e-01 -1.08910248e-01
      2.52332747e-01 -7.63223395e-02 4.15306091e-02 3.99382561e-02
      1.29201226e-02 -1.33375851e-02 4.70785610e-03 -3.49309444e-02
      1.86347127e-01 1.19998328e-01 3.61646563e-01 -5.01318136e-03
      -7.96210021e-02 -3.61610986e-02 -1.95195839e-01 -8.15854371e-02
      -3.04754674e-02 2.96898056e-02 -1.75936639e-01 1.21996753e-01
      -4.38294560e-02 2.50309169e-01 -1.18916314e-02 -4.10697073e-01
      -2.81367600e-02 -1.96172800e-02 -1.44702375e-01 7.29011670e-02</_>
    <_>
      -5.40633380e-01 -4.73505855e-01 6.03456199e-01 -1.75886735e-01
      2.16190219e-01 2.46288642e-01 4.88823354e-01 -1.38632104e-01
      -1.63854808e-01 -9.87108350e-02 1.88131124e-01 1.41856987e-02
      -2.40883604e-02 1.30064145e-01 5.85807376e-02 -4.05577663e-03
      1.84647024e-01 -1.78278133e-01 3.90838295e-01 -4.49172631e-02
      5.66462353e-02 2.61881471e-01 -2.71063477e-01 2.05203503e-01
      6.56299740e-02 -2.01587930e-01 1.92608479e-02 2.55342662e-01
      -1.18744008e-01 -2.82904916e-02 1.68686047e-01 -2.02907875e-01
      -1.61667705e-01 -2.44584437e-02 8.13495964e-02 2.43439436e-01</_>
    <_>
      -3.68631542e-01 -6.99108660e-01 5.18518150e-01 -8.42973292e-02
      3.22452128e-01 -1.54943556e-01 3.00208092e-01 -1.57449290e-01
      -4.62259119e-03 -9.58312005e-02 9.94284675e-02 1.55100405e-01
      -1.97285220e-01 2.85935849e-01 -1.82758063e-01 -3.19114059e-01
      -2.28305664e-02 1.20080486e-01 3.27508718e-01 -1.08620048e-01
      -1.98953137e-01 1.90426543e-01 -2.94078618e-01 4.41264957e-02
      -6.76913336e-02 5.65288626e-02 -3.68590951e-01 -8.22924301e-02
      -2.70602554e-01 1.05975106e-01 1.18982792e-02 -1.24130689e-01
      -1.83932900e-01 5.99061668e-01 2.08024368e-01 -3.90245914e-02</_>
    <_>
      -1.51791584e+00 -1.84358191e+00 4.68854368e-01 1.22251213e-01
      3.27313095e-01 7.12746158e-02 -1.66713849e-01 -3.17853779e-01
      -2.34802589e-01 -3.57614279e-01 -6.49876356e-01 -3.26784521e-01
      2.19791755e-01 8.95187780e-02 -2.06506386e-01 -6.91747546e-01
      -2.99343735e-01 2.51646847e-01 8.89195085e-01 8.09569836e-01
      -2.71529943e-01 6.82902098e-01 -3.75687122e-01 2.13573918e-01
      -2.68861502e-01 2.65720040e-01 -1.74326986e-01 4.15725291e-01
      -4.65902209e-01 2.81402826e-01 3.51087719e-01 -1.06672697e-01
      8.02751184e-02 -6.70291260e-02 -8.17278586e-03 1.22753687e-01</_>
    <_>
      5.85827708e-01 -9.45350289e-01 5.62818646e-01 1.10799760e-01
      7.04684794e-01 -1.28453001e-01 -3.15486670e-01 1.99210569e-01
      -2.78595537e-01 1.10305980e-01 1.46077737e-01 -1.57900512e-01
      8.61261934e-02 -1.66660607e-01 -3.07316303e-01 2.82661524e-02
      -1.34844869e-01 2.43022487e-01 2.40732059e-01 -2.58466601e-01
      -4.21555966e-01 -6.01542033e-02 -2.08825126e-01 -1.54907003e-01
      6.09066784e-01 2.46164929e-02 -5.56670055e-02 1.85187712e-01
      -9.28047597e-02 4.03344743e-02 2.71617889e-01 -6.57095790e-01
      -7.82546848e-02 3.39838825e-02 -3.65475237e-01 3.90339382e-02</_>
    <_>
      -1.66221452e+00 -1.42696285e+00 3.94622356e-01 1.01966523e-01
      4.17865455e-01 6.53203905e-01 2.07253113e-01 -1.94121301e-01
      7.37829149e-01 -7.67881498e-02 -3.70607316e-01 -2.48842657e-01
      1.67572275e-01 -1.26098901e-01 -1.15438521e-01 -2.44560570e-01
      -2.53003329e-01 2.57504225e-01 -1.78352013e-01 -1.66667178e-02
      -2.90955365e-01 -2.18015492e-01 -2.13141248e-01 -5.39445639e-01
      2.80090552e-02 -3.67862508e-02 -6.45112470e-02 -2.90858924e-01
      -1.16233528e-01 1.52777031e-01 7.64748082e-02 -5.31224906e-01
      -9.13795531e-02 1.14947222e-01 -7.47232586e-02 -2.62458827e-02</_>
    <_>
      9.96091291e-02 -3.92267495e-01 4.79420066e-01 6.76034689e-01
      -6.19413294e-02 -2.80192345e-01 8.49760510e-03 3.71438026e-01
      7.72408664e-01 1.69389993e-01 8.64960030e-02 -2.59893060e-01
      3.92581403e-01 3.63738507e-01 -2.45999545e-02 1.88733459e-01
      3.76373708e-01 -2.47297361e-01 4.87136282e-02 -4.93939906e-01
      -3.53421777e-01 7.89211318e-02 -5.87310135e-01 5.14229424e-02
      1.40546367e-01 1.48982247e-02 -2.16641843e-01 -1.85610503e-01
      2.81079590e-01 -1.03018552e-01 -2.44875271e-02 -3.44560742e-01
      -1.28071636e-01 1.68326080e-01 3.01999561e-02 1.11294478e-01</_>
    <_>
      9.94842589e-01 -8.12865853e-01 5.88575363e-01 -9.70491171e-02
      5.71795166e-01 -4.28554773e-01 5.49400508e-01 3.13292027e-01
      -4.94825505e-02 -9.83004272e-03 -4.33911443e-01 1.01706445e-01
      6.73967898e-02 -2.74325848e-01 -9.44680814e-03 -6.30856678e-02
      -2.80059520e-02 3.39607775e-01 -1.58573225e-01 -5.02149403e-01
      -4.81996804e-01 9.28506702e-02 -4.09718335e-01 -1.90191660e-02
      4.26745713e-01 2.15070233e-01 7.43228570e-02 5.39033078e-02
      -2.75085747e-01 2.36252509e-03 1.22364752e-01 -5.13302982e-01
      -8.87035802e-02 -8.57825726e-02 -1.02633491e-01 2.06211116e-02</_>
    <_>
      8.62990916e-01 -1.47801960e+00 4.71291631e-01 4.75724190e-01
      3.95764470e-01 -6.03340745e-01 8.93488288e-01 -6.44699633e-01
      -4.62416172e-01 2.19329998e-01 -3.48905653e-01 2.80220397e-02
      9.58356261e-03 -4.05042797e-01 2.73386896e-01 -3.36876452e-01
      4.84072059e-01 4.24830496e-01 -1.48194283e-01 -9.45073664e-01
      -3.63733917e-01 6.64316714e-01 -4.15310234e-01 2.24219576e-01
      2.49629784e-02 -2.34105036e-01 -5.19140661e-01 8.98483321e-02
      5.41738942e-02 1.47276625e-01 2.06575215e-01 -3.81989807e-01
      2.94267923e-01 -2.10824311e-01 3.37793261e-01 -1.70255601e-01</_>
    <_>
      -5.28016269e-01 -4.72811610e-01 6.01175547e-01 -1.70485348e-01
      2.39092723e-01 1.87925354e-01 5.21808982e-01 -1.22775227e-01
      -1.38994545e-01 -1.27209827e-01 1.27845392e-01 -4.43408340e-02
      2.85041500e-02 1.60647050e-01 -2.61481088e-02 -4.97738533e-02
      2.93995021e-03 -9.39147174e-02 4.76908952e-01 -1.07078301e-02
      2.90475581e-02 2.07913637e-01 -2.51120925e-01 1.53983101e-01
      1.45458966e-01 -9.82143730e-02 2.93267090e-02 3.78632247e-01
      -1.67818874e-01 6.67604581e-02 1.64720207e-01 -1.08691581e-01
      -8.52608755e-02 -8.62806365e-02 7.74595961e-02 3.17177474e-01</_>
    <_>
      -1.71715808e+00 -1.60511839e+00 4.51227129e-01 2.39599124e-02
      3.80848557e-01 -1.32534087e-01 2.68243253e-01 -1.29735947e-01
      -1.89521015e-01 -1.22200921e-01 2.40876917e-02 -3.60198021e-02
      -9.21769813e-02 4.31031555e-01 -3.69334757e-01 -3.49221110e-01
      1.08445995e-01 5.60981482e-02 4.94413614e-01 1.49462828e-02
      -5.28569669e-02 -3.13041098e-02 -7.01667249e-01 1.02760084e-01
      -1.51789933e-01 -4.35932070e-01 -2.36792013e-01 -1.64829060e-01
      2.23412395e-01 2.64741451e-01 2.59754866e-01 -4.31394994e-01
      9.42297056e-02 2.88281769e-01 1.95852742e-01 4.56882894e-01</_>
    <_>
      -2.38575451e-02 -3.04429561e-01 5.62572420e-01 4.99168262e-02
      1.50069833e-01 -3.23025972e-01 2.87029475e-01 -1.20730437e-01
      -1.19217284e-01 -3.30414623e-01 -4.39866483e-02 6.12243824e-02
      -1.16615295e-01 2.26883870e-02 2.45664846e-02 -2.16240764e-01
      1.69776469e-01 -4.82649729e-02 3.83131117e-01 1.45910634e-02
      -4.74394858e-02 1.36247694e-01 -2.19275951e-01 -2.58079972e-02
      -8.13211128e-02 6.09987527e-02 1.04789592e-01 -7.55761713e-02
      7.02855270e-03 -5.99372983e-02 9.71033126e-02 -3.75631303e-01
      1.01612709e-01 1.75167054e-01 -4.01447490e-02 2.78024495e-01</_>
    <_>
      1.50243804e-01 -1.39933273e-01 5.95488966e-01 9.04810578e-02
      1.32703543e-01 1.34077892e-02 1.56349465e-01 5.63611370e-03
      -4.23298255e-02 -3.37775014e-02 3.41292620e-02 -1.49339973e-03
      -5.33962436e-03 1.28642380e-01 1.42235821e-02 7.24656656e-02
      1.77730754e-01 5.11431620e-02 2.82455772e-01 -7.55031705e-02
      -3.38036180e-01 7.49207959e-02 -3.41977775e-01 -8.48635435e-02
      -9.20763463e-02 -8.85123238e-02 -1.61878049e-01 1.02247655e-01
      -9.98829976e-02 -1.33985328e-02 1.54648140e-01 -3.18540394e-01
      -3.83440293e-02 1.65462092e-01 -3.44389491e-02 5.60596772e-02</_>
    <_>
      1.47672355e-01 -1.83980048e-01 5.55824637e-01 1.24456353e-01
      1.21000856e-01 -2.58398622e-01 2.13856697e-01 6.96988851e-02
      -9.37908962e-02 -3.52388382e-01 6.37469627e-03 -1.75886840e-01
      -9.65599939e-02 2.04189285e-03 -2.45026812e-01 -7.82862380e-02
      1.48843110e-01 7.60483416e-03 3.26000482e-01 -3.23922411e-02
      -1.89598665e-01 6.12533987e-02 -1.10478617e-01 2.67572626e-02
      -1.74320549e-01 1.58829734e-01 -9.19324085e-02 -3.84144522e-02
      -1.52537465e-01 8.77772737e-03 9.11464021e-02 -2.96427637e-01
      3.03562637e-02 -1.91274360e-02 -5.46504632e-02 2.30249554e-01</_>
    <_>
      -2.95412928e-01 -3.05521250e-01 6.31203830e-01 -1.14919089e-01
      2.59671032e-01 3.37857962e-01 3.26929241e-01 4.35659438e-02
      -1.11929938e-01 2.01115981e-02 8.46373066e-02 -2.92725340e-02
      -2.25058431e-03 1.11741379e-01 -2.23102197e-01 -7.42613226e-02
      -2.24090666e-02 1.05731869e-02 3.12114269e-01 -1.64252266e-01
      -1.62394345e-01 2.69328237e-01 -3.30537170e-01 7.42669478e-02
      -5.98156340e-02 7.76647450e-03 -1.34236202e-01 1.52391076e-01
      1.08798601e-01 3.97129878e-02 7.80983418e-02 -3.31358939e-01
      2.60758568e-02 -1.63351335e-02 3.09201106e-02 4.07505371e-02</_>
    <_>
      2.19321683e-01 -5.92822075e-01 4.03537065e-01 1.98521405e-01
      3.33609551e-01 4.78041358e-02 7.14786574e-02 -2.30973050e-01
      -3.00539825e-02 3.11512351e-01 1.19108364e-01 9.89391655e-02
      2.96891201e-02 -2.74551492e-02 -2.48411223e-02 1.74772263e-01
      -3.18005458e-02 1.13134645e-01 2.04665080e-01 -7.26241693e-02
      -1.71489745e-01 4.19310294e-02 -3.89014572e-01 -7.39307934e-03
      -8.41049924e-02 3.26059252e-01 9.15105194e-02 -6.27786666e-02
      2.04527020e-01 1.76507935e-01 -1.69115275e-01 -3.33596691e-02
      5.38341585e-04 2.88968086e-02 -8.13428089e-02 -2.21642200e-02</_>
    <_>
      8.90770555e-02 -2.78633416e-01 5.23530662e-01 1.67685717e-01
      1.74311191e-01 -3.94469857e-01 1.79300696e-01 -5.73502705e-02
      -1.54282287e-01 -3.45202982e-01 -4.81034592e-02 -1.44683287e-01
      -3.13521214e-02 7.77601302e-02 -8.06950405e-02 -7.90626556e-02
      2.81458467e-01 6.90265046e-03 3.20237160e-01 2.32570693e-01
      -2.22679049e-01 1.73185736e-01 -1.43595710e-01 -2.04356223e-01
      -1.86573654e-01 1.67526782e-01 -1.47393182e-01 -9.71350521e-02
      -5.11562750e-02 1.30605344e-02 7.85407200e-02 -3.52864385e-01
      -9.42934081e-02 3.44474576e-02 2.47449521e-02 1.68677732e-01</_>
    <_>
      5.27399778e-01 3.04989529e+00 2.09086227e+00 1.51179016e+00
      6.46084785e+00 2.30632395e-01 8.76948774e-01 -1.12176128e-01
      7.23613620e-01 -2.44594336e-01 7.64328241e-02 -4.21316028e-01
      -1.35601088e-01 -2.35936776e-01 -1.17738687e-01 -5.47469333e-02
      3.62789929e-01 -4.42075551e-01 7.86905706e-01 -1.06960699e-01
      -3.22167575e-01 3.16680461e-01 -5.02008438e-01 1.69851214e-01
      -4.88618135e-01 2.11638421e-01 -3.15128297e-01 3.61044109e-01
      1.13802075e-01 1.60262540e-01 1.13000162e-01 -4.14621443e-01
      1.91025987e-01 3.46903443e-01 -7.82611892e-02 1.59719378e-01</_>
    <_>
      1.92791119e-01 -1.66824594e-01 5.63804150e-01 1.02703452e-01
      6.49846569e-02 -3.26860189e-01 2.78194010e-01 -2.45076939e-01
      -8.97187889e-02 -2.02635393e-01 7.46053606e-02 2.90373322e-02
      -5.57330064e-02 2.09385023e-01 5.20443320e-02 -1.04748845e-01
      -6.78735301e-02 -7.36512393e-02 5.07233500e-01 1.82317138e-01
      -2.14827016e-01 1.18565463e-01 -3.14303279e-01 2.17566803e-01
      -5.17142676e-02 6.43463582e-02 -3.94941047e-02 1.69378109e-02
      -2.09512159e-01 3.81253883e-02 1.50192708e-01 -3.65970552e-01
      7.73512498e-02 9.21533778e-02 -1.65397376e-01 9.52310562e-02</_>
    <_>
      8.93664002e-01 -1.09158301e+00 5.96682489e-01 -1.12972677e+00
      9.69371676e-01 1.75309494e-01 -8.54936242e-01 1.29873514e-01
      2.87886709e-01 -7.14717269e-01 -4.30140615e-01 2.56530166e-01
      -1.96840554e-01 9.64269191e-02 1.88315269e-02 1.67081449e-02
      -2.01864094e-01 -6.44974131e-03 8.51462781e-02 6.14458323e-02
      -7.89361715e-01 -3.39062572e-01 -5.09399921e-02 1.89136207e-01
      -1.41706303e-01 -2.53606111e-01 -4.03390884e-01 -2.00331464e-01
      1.28312111e-01 1.40552774e-01 -2.56867737e-01 -2.00494662e-01
      -4.27349150e-01 -4.01971906e-01 1.43523693e-01 5.01421750e-01</_>
    <_>
