<?xml version="1.0"?>
<opencv_storage>
<opencv_ml_svm>
  <format>3</format>
  <svmType>C_SVC</svmType>
  <kernel>
    <type>RBF</type>
    <gamma>5.0625000000000009e-01</gamma></kernel>
  <C>1.0000000000000001e-01</C>
  <term_criteria><iterations>100</iterations></term_criteria>
  <var_count>36</var_count>
  <class_count>2</class_count>
  <class_labels type_id="opencv-matrix">
    <rows>2</rows>
    <cols>1</cols>
    <dt>i</dt>
    <data>
      0 1</data></class_labels>
  <sv_total>200</sv_total>
  <support_vectors>
    <_>
      -3.26193213e-01 8.64350855e-01 -2.01613516e-01 7.80567825e-02
      2.65571803e-01 1.98297203e-01 -9.94457826e-02 6.50899783e-02
      -1.06539473e-01 -5.88096343e-02 1.55768218e-02 1.05178274e-01
      9.77788866e-02 -1.14853077e-01 -4.43837000e-03 2.01311871e-01
      2.53811711e-03 3.29094261e-01 -4.34293933e-02 1.28369957e-01
      1.10487647e-01 8.25634599e-02 9.08536538e-02 -7.69875199e-02
      2.69356042e-01 3.79960500e-02 9.46723372e-02 -1.10757411e-01
      -8.73397514e-02 -9.96455476e-02 -1.77841425e-01 1.52614117e-01
      2.09898818e-02 2.91136146e-01 -6.56913891e-02 5.52606732e-02</_>
    <_>
      1.39361043e-02 3.58500749e-01 -4.08290066e-02 3.06519419e-01
      4.29277271e-01 -1.67670116e-01 -6.88074008e-02 -2.72535365e-02
      1.37880584e-02 -4.72346842e-02 -9.43417922e-02 1.34605565e-03
      1.18336581e-01 3.55355963e-02 -2.24438742e-01 8.67500529e-02
      1.79209048e-03 5.82286157e-02 2.61456490e-01 2.17602462e-01
      9.14382637e-02 7.26357400e-02 -8.00329149e-02 -8.62926245e-02
      3.66776101e-02 1.51992247e-01 3.13708670e-02 1.67976059e-02
      7.87524134e-03 -5.55598252e-02 3.29861343e-02 5.23084737e-02
      -6.09816648e-02 2.09572241e-01 -1.24003269e-01 -2.71307724e-03</_>
    <_>
      1.77076328e+00 1.79258659e-01 -4.86783504e-01 5.33818960e-01
      1.19865604e-01 -1.89901888e-01 6.27315879e-01 3.00330460e-01
      -1.18352711e-01 -2.02111259e-01 1.69954732e-01 -1.05688848e-01
      5.34293689e-02 3.67667675e-01 -1.75143927e-01 -1.77402362e-01
      -2.91187406e-01 1.66193232e-01 9.35727581e-02 5.43347076e-02
      1.32078426e-02 -1.62407830e-01 8.64316057e-03 1.15202358e-02
      8.34932402e-02 -4.45073731e-02 -1.70581549e-01 -1.72884151e-01
      1.56067654e-01 -5.69768017e-03 9.63824317e-02 9.96349826e-02
      -7.57085159e-02 3.90586972e-01 -5.70538789e-02 1.36141092e-01</_>
    <_>
      -1.11292703e-02 3.90422791e-02 7.08703473e-02 4.71385606e-02
      1.34243919e-02 -3.99105847e-02 -1.05714485e-01 2.33795326e-02
      -1.27782195e-03 -4.26504537e-02 -1.66577008e-02 1.11319616e-01
      9.08574313e-02 7.94997364e-02 -2.13820990e-02 1.18867658e-01
      6.56570271e-02 1.16963470e-02 1.76603168e-01 -2.03740913e-02
      1.00386851e-02 8.82054567e-02 3.39191370e-02 -1.36419170e-04
      -3.27351019e-02 -1.64967298e-03 -2.63904408e-02 -1.07763700e-01
      2.05981005e-02 -8.44623297e-02 2.61530206e-02 9.39003080e-02
      -1.89202819e-02 2.25644439e-01 -7.23793954e-02 1.70960620e-01</_>
    <_>
      -6.98626488e-02 5.26647046e-02 2.00310014e-02 5.39994910e-02
      1.11709066e-01 -3.38483676e-02 -4.56324667e-02 -1.21383764e-01
      5.25559038e-02 1.70932144e-01 -6.77075684e-02 1.02510760e-02
      -9.88529250e-03 3.68798897e-02 3.12272403e-02 -1.09872602e-01
      4.60592508e-02 5.37139811e-02 8.03801417e-02 3.62758152e-02
      -4.33162898e-02 -6.43815249e-02 1.04853883e-01 -2.51549371e-02
      1.06875345e-01 2.16204777e-01 4.92562614e-02 -9.66023952e-02
      -4.74103093e-02 -8.84918347e-02 -1.84507787e-01 6.79048747e-02
      -1.25222549e-01 1.27066001e-01 -8.16919804e-02 1.17986672e-01</_>
    <_>
      -3.48840266e-01 1.05621314e+00 -2.69508302e-01 2.01159149e-01
      3.39210302e-01 -5.25558507e-03 -1.73071489e-01 2.53300685e-02
      2.69926399e-01 1.08869925e-01 -4.20502037e-01 -1.76367220e-02
      3.28588068e-01 4.94480819e-01 -3.69406760e-01 -1.66246951e-01
      8.19027647e-02 2.77342647e-02 2.82197118e-01 -4.79674414e-02
      1.84763715e-01 1.23591445e-01 1.00905413e-03 -1.78325549e-01
      7.19192848e-02 1.40345037e-01 -8.62203911e-02 -1.66385815e-01
      -8.53838101e-02 7.85389468e-02 -1.66093916e-01 1.59736816e-02
      -2.23802533e-02 2.29183018e-01 -1.18126415e-01 6.24890588e-02</_>
    <_>
      2.01492999e-02 1.86352745e-01 8.32793675e-03 5.14330901e-02
      -9.80147440e-03 1.28946006e-02 -5.20825982e-02 -9.96660069e-02
      3.26698124e-02 3.51475105e-02 -9.11141932e-03 1.63336489e-02
      -3.16012092e-02 9.14166495e-02 -7.66805932e-02 -1.03145629e-01
      6.96380436e-02 5.06105646e-02 1.74384251e-01 1.49247358e-02
      -1.60507441e-01 1.39217535e-02 1.26718238e-01 -2.33029369e-02
      -1.02017550e-02 1.05207480e-01 -4.24019918e-02 -2.02018276e-01
      -3.21670622e-02 -2.36668275e-03 -4.84640077e-02 3.86364460e-02
      -1.05931826e-01 1.66814432e-01 -8.56628790e-02 1.72463730e-01</_>
    <_>
      1.72795817e-01 -1.93317682e-01 1.17721833e-01 2.22852007e-02
      -1.75838210e-02 -4.50907653e-04 -1.21549051e-02 3.04511283e-04
      -2.12268494e-02 4.60421816e-02 -3.03526707e-02 -3.44317593e-02
      -1.89242046e-02 1.05619103e-01 -9.76144969e-02 -7.59076998e-02
      5.75816743e-02 2.87884288e-02 7.50502944e-02 -2.97376346e-02
      -5.45524769e-02 4.74366620e-02 1.00847714e-01 -9.04384255e-03
      5.88070601e-02 9.74510908e-02 -2.24269517e-02 -2.09453896e-01
      -5.44210039e-02 -5.46677150e-02 -1.39263660e-01 9.99711081e-02
      -5.98035865e-02 2.62564242e-01 -9.29863602e-02 2.01556444e-01</_>
    <_>
      -5.53525575e-02 3.35771203e-01 -9.46881026e-02 1.29847616e-01
      2.30453402e-01 1.83795780e-01 -1.25773907e-01 -8.05911794e-02
      -1.06496938e-01 7.08504245e-02 1.42562622e-02 -4.84116711e-02
      5.51360957e-02 1.70180082e-01 -1.49159461e-01 3.58767360e-02
      6.90919757e-02 8.57516304e-02 1.28815025e-01 -4.06292528e-02
      -2.17771064e-03 6.87544420e-02 2.98401088e-01 -1.12239927e-01
      2.72118933e-02 2.56814305e-02 1.04560152e-01 -2.31659234e-01
      -9.76061597e-02 3.69004458e-02 -7.88260698e-02 1.00284636e-01
      8.47779661e-02 2.31827900e-01 -2.55198926e-02 1.71682268e-01</_>
    <_>
      2.53757805e-01 -2.57332951e-01 -4.34539914e-02 2.70815305e-02
      6.69101849e-02 -1.95307762e-03 -6.74770176e-02 2.57889498e-02
      8.24185908e-02 5.28651886e-02 5.62342256e-02 4.09481153e-02
      5.09544834e-02 -8.24091118e-03 -7.05011562e-02 -4.92205434e-02
      1.14667289e-01 5.50783277e-02 8.37858692e-02 6.76712021e-03
      -4.39080074e-02 -5.14981560e-02 1.12557560e-01 -6.54961243e-02
      9.68469232e-02 1.52332336e-01 -1.10432468e-02 -2.33062178e-01
      -1.11711390e-01 -1.69009030e-01 -1.33261874e-01 1.15858465e-01
      -5.86469918e-02 2.66921043e-01 -1.59210917e-02 2.07370073e-01</_>
    <_>
      -1.25014469e-01 2.81299680e-01 -2.00320967e-02 6.86296970e-02
      2.53367238e-02 1.43651031e-02 -3.67267840e-02 4.03870596e-03
      1.83207095e-02 -5.07252999e-02 -8.46847147e-02 4.39232634e-03
      -6.20955676e-02 4.82492521e-02 -2.92451791e-02 -1.36451900e-01
      6.76754564e-02 9.34061110e-02 6.07080460e-02 -3.16872038e-02
      -1.07467994e-02 1.14727236e-01 2.79388465e-02 -1.45286396e-02
      3.90088893e-02 1.16728574e-01 -3.88857946e-02 -1.19826846e-01
      -1.06946290e-01 -1.77340806e-01 -9.84246284e-02 1.07082967e-02
      -9.21590552e-02 1.60998747e-01 -7.58244097e-02 2.57244289e-01</_>
    <_>
      -1.08265504e-01 1.90790296e-01 -8.80377367e-02 7.90309310e-02
      8.96674320e-02 6.71781898e-02 -1.16279639e-01 2.24837828e-02
      -5.60984351e-02 6.72440976e-02 -9.93161723e-02 -1.83634404e-02
      1.51292803e-02 -1.55379679e-02 -1.87322125e-01 1.79812517e-02
      4.85483781e-02 8.30052234e-03 1.35632709e-01 4.12180759e-02
      -8.84446576e-02 5.95974885e-02 1.03834517e-01 -5.92426583e-02
      2.57528514e-01 3.80535498e-02 4.63695079e-02 -1.11053400e-01
      -7.88716483e-04 -6.57828003e-02 -1.82141647e-01 4.66251886e-03
      -8.17450285e-02 1.63373545e-01 -5.51021472e-02 1.25305235e-01</_>
    <_>
      2.60336876e-01 1.75630614e-01 1.04981340e-01 1.02468617e-01
      2.76725204e-03 1.35915950e-01 -1.53403670e-01 1.61363706e-01
      1.16662256e-01 -7.01242536e-02 -2.92847157e-01 8.05381462e-02
      -1.64610118e-01 9.26870015e-03 -1.15141839e-01 -1.50443450e-01
      5.57381138e-02 -1.29213065e-01 1.19068094e-01 2.09273577e-01
      9.26468745e-02 7.10003451e-02 1.49643406e-01 -2.88603157e-02
      1.02633044e-01 7.79510215e-02 -4.53857929e-02 -1.24228261e-01
      -1.51934266e-01 -2.65537128e-02 -3.30699608e-02 -2.15373691e-02
      -1.73583820e-01 3.24919969e-01 -1.54759079e-01 1.47940114e-01</_>
    <_>
      9.74575162e-01 1.42691702e-01 -1.29225314e+00 2.55407035e-01
      1.31823123e-01 -7.21431300e-02 -1.12251557e-01 1.77366316e-01
      3.02614659e-01 2.06013652e-03 4.50551152e-01 -2.55604625e-01
      2.42032371e-02 2.91117936e-01 -8.74447003e-02 1.66011676e-02
      5.48988543e-02 -2.96959206e-02 2.24616881e-02 8.71093720e-02
      -2.76682489e-02 -1.34775890e-02 4.59610298e-02 -6.90558692e-03
      1.72569782e-01 1.35280564e-01 1.34536013e-01 -1.95404664e-01
      -2.52355053e-03 -1.79427207e-01 -1.63558647e-02 -7.75205158e-03
      -2.30376348e-02 1.65712461e-01 -1.14483930e-01 1.70967221e-01</_>
    <_>
      1.37804434e-01 3.51619840e-01 5.22801243e-02 2.06653804e-01
      2.33856589e-01 -2.52784103e-01 -2.14595944e-02 -1.34823442e-01
      -1.81976199e-01 1.11698776e-01 -1.85089201e-01 -1.99021831e-01
      -1.21983044e-01 5.03568761e-02 -2.82941777e-02 3.11483055e-01
      4.77939956e-02 -3.30254249e-02 2.95923084e-01 -3.25948037e-02
      1.14738248e-01 -6.35106023e-03 1.56286687e-01 1.38819844e-01
      1.26974910e-01 1.90642893e-01 -5.71321137e-02 -3.16905081e-01
      -7.79600888e-02 2.44705584e-02 -1.50002345e-01 1.40418142e-01
      -6.64744154e-02 2.14599639e-01 -1.27583947e-02 1.63725317e-01</_>
    <_>
      2.05901057e-01 -2.59520769e-01 -7.65050820e-04 1.12062609e-02
      9.29188952e-02 -1.48432571e-02 -4.78143841e-02 2.58672852e-02
      6.64080754e-02 5.65579422e-02 5.10481745e-02 4.34932187e-02
      3.80802751e-02 6.90321147e-04 -8.34280998e-02 -5.77685162e-02
      9.44490433e-02 6.21105172e-02 8.28818902e-02 -3.58019629e-03
      -3.42841707e-02 -4.90122549e-02 1.02636501e-01 -6.36850521e-02
      9.24129486e-02 1.34263515e-01 -2.11559553e-02 -2.44775802e-01
      -1.01521567e-01 -1.41505957e-01 -1.08942725e-01 1.13934539e-01
      -7.05217272e-02 2.75372833e-01 8.43525282e-04 1.89348683e-01</_>
    <_>
      8.03182051e-02 -1.65693656e-01 8.65079015e-02 5.46047166e-02
      4.82432311e-03 -3.39948796e-02 4.04656772e-03 3.37102846e-03
      1.85843762e-02 1.12386364e-02 2.09089741e-03 4.62209284e-02
      -4.25523100e-03 1.44922063e-01 -1.02944188e-01 -1.46051059e-02
      2.59209275e-02 -2.88054105e-02 1.68933809e-01 -4.90318276e-02
      -8.61469433e-02 6.47304058e-02 1.04765005e-01 -1.14144653e-01
      5.23901917e-02 7.73311779e-02 2.31298003e-02 -1.66595578e-01
      -3.72415967e-02 -8.38859677e-02 -9.94509235e-02 1.26907662e-01
      -7.18332976e-02 1.92605019e-01 -5.13180941e-02 1.07096761e-01</_>
    <_>
      1.74040997e+00 -4.38268602e-01 -1.14202344e+00 2.30731070e-02
      4.73547250e-01 8.58473033e-03 2.71942198e-01 -5.44524968e-01
      -9.79531854e-02 -1.29682012e-02 -1.17788024e-01 -1.86350569e-01
      9.80816633e-02 1.59636393e-01 1.02270469e-01 2.20643371e-01
      2.29097381e-02 1.13017388e-01 2.73547918e-01 -7.37040723e-03
      -1.53044807e-02 2.13032961e-01 -3.76988314e-02 -1.10482365e-01
      9.56793949e-02 7.35314637e-02 -6.18788926e-03 -1.03127815e-01
      -2.28617698e-01 -1.30986467e-01 -2.61377841e-01 2.09748864e-01
      -1.91633001e-01 1.73053935e-01 -2.75234967e-01 1.82214320e-01</_>
    <_>
      1.10096240e+00 7.61067808e-01 8.48408759e-01 2.80184448e-01
      4.63955617e-03 5.04302502e-01 3.18504035e-01 6.29591227e-01
      2.72375733e-01 7.87647069e-02 1.03728659e-02 2.40529478e-01
      2.16085061e-01 9.19185653e-02 -2.56781150e-02 1.03302978e-01
      1.93601921e-01 -2.40676552e-01 1.65900756e-02 -1.67860925e-01
      -9.75658000e-02 5.58519699e-02 2.39213288e-01 -3.04154586e-02
      2.33964592e-01 2.05054820e-01 -6.48567826e-02 -2.10551187e-01
      4.00933214e-02 -5.96736595e-02 -9.70128328e-02 1.02586105e-01
      -1.11489976e-02 1.23696804e-01 -5.38322926e-02 2.07498327e-01</_>
    <_>
      3.39563042e-01 -4.84653503e-01 1.55610815e-01 -3.04525811e-02
      2.90392339e-02 8.46970826e-03 5.80746680e-03 7.17090741e-02
      -5.56679256e-02 1.73369329e-02 -3.39514501e-02 6.65901527e-02
      1.48936473e-02 1.39695480e-01 -8.63334015e-02 -9.53837391e-03
      4.45176028e-02 1.20667823e-01 9.47430134e-02 -3.90244201e-02
      3.37968506e-02 -3.44407856e-02 1.50636911e-01 -5.35130575e-02
      1.11483209e-01 1.04561567e-01 5.85752726e-02 -2.02442363e-01
      -5.28786667e-02 -1.04777217e-01 -9.25192460e-02 1.22752130e-01
      -5.35346977e-02 2.33022168e-01 -9.11874771e-02 1.87362492e-01</_>
    <_>
      1.91539209e-02 1.77445471e-01 -7.35760629e-02 7.66091570e-02
      7.32779950e-02 8.21035430e-02 -2.12698840e-02 7.80632943e-02
      -4.57557589e-02 -4.56116833e-02 -1.58262416e-03 6.94071129e-02
      -9.00483355e-02 1.16929933e-01 -5.09112328e-02 1.00457044e-02
      -3.63904014e-02 -7.29933605e-02 1.10143892e-01 -4.15045992e-02
      -2.73913592e-02 4.93768863e-02 4.48791496e-02 -3.59651186e-02
      1.24611571e-01 4.28104065e-02 4.94753197e-02 -8.82001519e-02
      3.19416425e-03 -3.18317600e-02 -6.68546036e-02 1.11044841e-02
      -8.45891312e-02 1.35851562e-01 -1.20954290e-01 1.78983361e-01</_>
    <_>
      -4.21337895e-02 3.71989071e-01 -2.18145564e-01 1.56517610e-01
      8.09885710e-02 1.00214861e-01 -7.36221671e-02 1.74854100e-01
      -1.63954005e-01 3.49388085e-02 -1.08928569e-01 -8.53416510e-04
      4.95013557e-02 4.45562974e-02 -2.23473087e-01 -3.73619869e-02
      -6.41040679e-04 4.94866110e-02 -8.01355541e-02 -2.28233468e-02
      7.94911832e-02 9.18122455e-02 1.05539508e-01 -8.79962295e-02
      1.56521454e-01 1.63485602e-01 1.30593717e-01 -1.81916833e-01
      -1.83329508e-01 1.97519362e-03 -1.05686374e-01 3.21307816e-02
      -6.34011403e-02 1.55208394e-01 -6.00684285e-02 1.99458584e-01</_>
    <_>
      2.15710759e+00 -2.40115389e-01 -9.33488607e-01 1.54692337e-01
      -1.94184795e-01 4.18574780e-01 -7.30978966e-01 4.14947391e-01
      5.05358160e-01 4.23754379e-02 -4.50310618e-01 2.46246412e-01
      -1.82248414e-01 3.09676826e-02 -1.11102432e-01 -1.59675926e-01
      -3.47463787e-02 2.00048685e-01 3.47680688e-01 4.02705893e-02
      -8.85327160e-02 -8.28192681e-02 1.94245100e-01 -8.66951421e-02
      1.18859619e-01 1.45580620e-01 4.29399684e-02 -1.69254243e-01
      -1.60387591e-01 3.39187798e-03 3.23493890e-02 9.80310068e-02
      -1.18274780e-04 2.07461983e-01 6.33312240e-02 2.12747574e-01</_>
    <_>
      1.48411795e-01 -2.84138471e-01 3.92277837e-02 2.58054528e-02
      5.21062799e-02 1.42699815e-02 -3.34767662e-02 6.25945553e-02
      -5.50440103e-02 1.95972845e-02 -2.01206636e-02 -3.26676643e-03
      -1.61376074e-02 9.79212448e-02 -1.41749397e-01 1.92823857e-02
      6.56836033e-02 7.38672819e-03 1.25898167e-01 -3.06207240e-02
      3.80538939e-03 1.04199396e-02 1.52949616e-01 -8.77756625e-02
      7.30059296e-02 6.16497658e-02 5.68522606e-03 -1.94880396e-01
      -5.73578440e-02 -8.13578069e-02 -4.93996143e-02 9.06582326e-02
      -3.50499935e-02 2.70720541e-01 -5.55725396e-02 2.05035806e-01</_>
    <_>
      1.29650676e+00 8.22210908e-01 2.91193724e-01 1.07320137e-01
      1.84967101e-01 -5.73356628e-01 4.96094406e-01 1.25049606e-01
      -2.61643857e-01 2.63345659e-01 -4.28151116e-02 -1.00552790e-01
      3.01261514e-01 1.01315126e-01 1.62440315e-02 5.56253009e-02
      -1.35670587e-01 1.84734035e-02 1.63085550e-01 5.38006015e-02
      3.37398215e-03 -8.92468914e-02 -2.31941670e-01 -1.25980437e-01
      6.31519556e-02 -8.73129517e-02 2.62387276e-01 -2.19803646e-01
      -3.86307873e-02 -1.02083080e-01 3.34652178e-02 -1.33373395e-01
      -1.77840963e-02 2.06069842e-01 5.66519797e-02 2.69830763e-01</_>
    <_>
      1.25446630e+00 -4.23843749e-02 4.34042573e-01 -4.65767890e-01
      1.19652736e+00 1.07585120e+00 -4.26478297e-01 -1.41724080e-01
      2.19553426e-01 -1.64688960e-01 -3.96539539e-01 -1.14082217e-01
      -2.84949571e-01 -2.38245204e-01 -2.17898324e-01 -1.09775193e-01
      1.48581252e-01 -5.39203770e-02 2.24498197e-01 -3.90888751e-02
      2.45567355e-02 -2.89995912e-02 8.32645409e-03 -1.64635349e-02
      4.02346961e-02 1.00221775e-01 1.42437890e-01 -1.32909874e-02
      -4.27633012e-03 -1.76122561e-02 -7.78378919e-02 -6.22221045e-02
      -1.75902769e-01 2.93715984e-01 1.52486131e-01 1.17836177e-01</_>
    <_>
      1.19408943e-01 -8.95513296e-02 4.94221747e-02 -6.01535290e-03
      -2.05523204e-02 1.83217660e-01 -4.74678129e-02 7.36663043e-02
      -8.86998177e-02 -5.08286767e-02 -6.25082254e-02 -3.18262652e-02
      1.28823845e-02 3.48856999e-03 -4.91385758e-02 2.34568305e-02
      1.37908077e-02 9.70763192e-02 1.04964785e-01 -3.95023525e-02
      -5.36057204e-02 9.21593010e-02 1.12171166e-01 -1.62547454e-02
      1.97128057e-01 -2.30548177e-02 1.03717595e-01 -2.65818745e-01
      -6.92122504e-02 -1.10479034e-01 -1.15160346e-01 8.27450529e-02
      1.02380775e-02 2.33637050e-01 -9.87709165e-02 1.66895837e-01</_>
    <_>
      -1.37269229e-01 4.11660552e-01 -3.91101018e-02 5.27150631e-02
      3.56437206e-01 3.44725907e-01 -3.65275554e-02 6.81835189e-02
      -9.81927216e-02 -2.29091495e-02 1.48461342e-01 1.21720143e-01
      7.47231618e-02 -1.26662940e-01 3.10005546e-01 2.06946969e-01
      -8.09362438e-03 3.88126373e-01 6.30518645e-02 1.42795756e-01
      3.85389812e-02 -2.72415012e-01 1.22249052e-01 1.26799522e-02
      1.47815630e-01 1.45477951e-01 -9.29490924e-02 -1.96692228e-01
      -2.54229316e-03 -1.19912893e-01 -1.53937563e-01 -1.28172457e-01
      -1.04170278e-01 1.63420498e-01 -1.11976683e-01 1.53186873e-01</_>
    <_>
      -2.04589859e-01 4.56612200e-01 -1.38495550e-01 -2.91959662e-03
      1.30264863e-01 2.21348003e-01 -1.45059869e-01 4.20735329e-02
      -1.94932342e-01 -4.51038778e-02 -3.26969847e-02 1.70338303e-01
      6.14147335e-02 2.52525080e-02 1.27034381e-01 -6.83946088e-02
      -8.97810161e-02 5.78220263e-02 6.95656389e-02 1.91519887e-03
      1.18233217e-02 1.09014660e-02 -1.99702680e-02 -1.57670334e-01
      1.94587186e-01 7.43791983e-02 -6.04428276e-02 -2.84536749e-01
      -3.20610590e-02 -1.12904802e-01 -1.67489946e-01 1.54253155e-01
      -2.95874733e-03 1.70861617e-01 -6.39246106e-02 2.11473465e-01</_>
    <_>
      1.67411849e-01 -1.87644139e-01 1.04435153e-01 5.36924042e-02
      -2.71475576e-02 -5.97287575e-03 -5.59765473e-03 -1.51209608e-02
      -2.24607196e-02 3.38911302e-02 -3.81150097e-02 -2.95211785e-02
      -4.51521436e-03 1.03792906e-01 -1.05722852e-01 -8.84843916e-02
      6.51262105e-02 3.42568308e-02 7.96555057e-02 -2.36473475e-02
      -4.62707058e-02 5.60971648e-02 8.44175220e-02 -7.94456061e-03
      5.80530986e-02 6.85586184e-02 -2.23248973e-02 -1.95555225e-01
      -5.76545633e-02 -7.36958236e-02 -1.34827226e-01 9.31260884e-02
      -5.81217371e-02 2.56018043e-01 -7.80341104e-02 1.92940027e-01</_>
    <_>
      -3.80545817e-02 3.13633829e-01 -8.49768594e-02 1.18640438e-01
      2.03545988e-01 1.98321342e-01 -9.85659957e-02 -6.20827377e-02
      -9.93667841e-02 4.57537323e-02 2.61036325e-02 -1.97691564e-02
      2.92418674e-02 9.58132520e-02 -7.71476477e-02 2.00721845e-02
      2.83798743e-02 9.70790014e-02 1.55648649e-01 -5.41821346e-02
      3.69836055e-02 5.37502840e-02 3.13248128e-01 -6.69479892e-02
      7.41020590e-02 -1.88913308e-02 9.11296085e-02 -2.79203475e-01
      -1.06837526e-01 2.34362278e-02 -8.31508562e-02 7.35029057e-02
      7.19276592e-02 2.37082183e-01 -7.31890798e-02 1.75188020e-01</_>
    <_>
      3.26943621e-02 -7.76413605e-02 -6.37239069e-02 3.62030044e-02
      -1.25723062e-02 1.88427586e-02 -2.16384884e-02 1.12223830e-02
      -7.71443173e-02 2.70692445e-02 -3.11321374e-02 8.52807537e-02
      -6.58541992e-02 1.96287394e-01 -7.52440393e-02 -9.15564895e-02
      5.59972040e-02 6.05080165e-02 1.09252326e-01 -1.07022993e-01
      -7.27578849e-02 5.45233190e-02 8.10597092e-02 -4.06553522e-02
      7.07176626e-02 7.55112320e-02 4.82193790e-02 -1.69699758e-01
      -4.41481695e-02 -6.88319504e-02 -1.15926102e-01 1.40272379e-01
      -2.64059324e-02 1.06114902e-01 -7.93528482e-02 1.55639753e-01</_>
    <_>
      -8.15077126e-02 1.36635676e-01 -3.46160457e-02 7.70934597e-02
      1.49517894e-01 5.31036183e-02 -5.80584481e-02 -3.71897854e-02
      -1.82744432e-02 1.92927688e-01 -1.28288731e-01 7.23845959e-02
      7.15170205e-02 -6.18451275e-02 -1.23999991e-01 8.65088999e-02
      -4.51542251e-02 -7.06850663e-02 5.84456846e-02 -2.78201140e-02
      -7.08128065e-02 -2.30745804e-02 6.75826296e-02 -2.07327709e-01
      3.66167389e-02 9.62677598e-02 1.35932425e-02 -1.45140380e-01
      -1.10632114e-01 -3.28403674e-02 -7.66773447e-02 1.13728747e-01
      -1.05010472e-01 1.57204285e-01 -1.09979890e-01 1.68303728e-01</_>
    <_>
      3.10802650e+00 -5.32590151e-02 -6.33418739e-01 7.44250193e-02
      8.96988332e-01 1.06609948e-02 3.85034174e-01 3.31244051e-01
      -7.95434322e-03 -2.12956175e-01 -3.67753863e-01 2.81968385e-01
      -1.90153524e-01 1.11528739e-01 3.96084525e-02 -5.17771803e-02
      3.26856583e-01 -2.13955879e-01 6.35171160e-02 2.12181564e-02
      -1.01624787e-01 -4.59952690e-02 2.43268713e-01 1.17014676e-01
      -6.65809438e-02 6.40006363e-02 1.67859063e-01 -1.82050288e-01
      -1.45404667e-01 -1.09907016e-01 -1.22014239e-01 1.32680256e-02
      6.30262941e-02 -4.25577536e-02 -1.04547963e-01 2.18425289e-01</_>
    <_>
      5.67307472e-01 6.17780507e-01 -5.36629260e-01 5.69053650e-01
      -3.76711279e-01 1.37933567e-01 -2.81056195e-01 -2.86878496e-01
      -4.26924378e-02 -1.07109852e-01 -9.93873831e-03 -1.65437609e-01
      -3.14905494e-02 -1.15314789e-01 -1.75960019e-01 1.52643174e-02
      5.75997949e-01 1.72509141e-02 -1.85440823e-01 -1.88835487e-01
      -9.04571339e-02 -1.78958867e-02 -2.39165530e-01 -6.76804185e-02
      4.36426066e-02 1.76805988e-01 1.76878870e-01 -1.89134493e-01
      1.12236850e-03 -3.50950146e-03 -1.66347384e-01 4.54538092e-02
      -1.35355264e-01 3.49828571e-01 -1.42919764e-01 1.81821987e-01</_>
    <_>
      1.14966726e+00 7.57090926e-01 2.07418114e-01 5.39081514e-01
      -4.18717057e-01 -1.59704566e-01 3.70119005e-01 -1.25064077e-02
      -1.49671406e-01 -3.00344586e-01 8.62255692e-02 -3.24785411e-01
      -2.27222294e-01 3.85611169e-02 -4.69449274e-02 -1.57140210e-01
      -1.29108352e-03 2.54351377e-01 2.55571783e-01 1.64733827e-01
      -1.13505619e-02 1.36703506e-01 1.77096233e-01 -7.56085068e-02
      1.88807175e-01 3.37918103e-02 -1.66387916e-01 -2.83985138e-01
      -3.79030704e-02 3.10120191e-02 1.04096502e-01 1.60115272e-01
      -1.08456954e-01 1.18511260e-01 -2.18118772e-01 1.70477346e-01</_>
    <_>
      -4.99844272e-03 -9.32581443e-03 1.32162794e-02 6.31578937e-02
      8.43795016e-02 -2.11880310e-03 -8.07716846e-02 -3.43985967e-02
      1.20532468e-01 1.14974067e-01 -2.45663747e-02 -7.28241652e-02
      6.55488968e-02 1.35463342e-01 -1.03463866e-01 -1.53251335e-01
      1.34374410e-01 4.10269350e-02 1.55978158e-01 2.76891459e-02
      7.75157139e-02 7.75889913e-03 1.58003569e-01 1.11699980e-02
      1.31029412e-02 1.77111208e-01 -2.65392140e-02 -1.54506132e-01
      -4.98918891e-02 -8.55488628e-02 -1.32886156e-01 9.78548750e-02
      -3.83100212e-02 1.73782721e-01 -6.02499209e-02 2.24622697e-01</_>
    <_>
      1.99766243e+00 9.39591974e-03 2.67389327e-01 -3.37696940e-01
      8.41423988e-01 3.21316093e-01 1.69926435e-01 -1.99518085e-01
      -1.76162715e-03 6.57994300e-02 2.49413654e-01 -3.18306863e-01
      1.58700705e-01 -5.01351282e-02 -4.24133152e-01 1.01106219e-01
      4.50701714e-01 2.09410712e-01 5.64668737e-02 -7.08475010e-03
      -1.34074613e-01 1.48788810e-01 -1.75757572e-01 -1.63067847e-01
      1.25620263e-02 1.93276837e-01 -2.70528859e-03 -1.91093087e-01
      3.66648026e-02 -2.02977225e-01 -3.11235249e-01 4.98538762e-02
      -9.36952606e-02 2.01120481e-01 -2.04696566e-01 6.74055368e-02</_>
    <_>
      7.53666401e-01 2.97388703e-01 1.28424585e-01 2.75906146e-01
      -4.34599876e-01 2.10891962e-01 -4.02318597e-01 3.50131124e-01
      2.09580243e-01 9.33235232e-03 -2.59387910e-01 2.01264080e-02
      -2.43628412e-01 2.07946584e-01 -7.63891861e-02 -8.28194059e-03
      1.36604115e-01 -9.75068659e-02 1.01554625e-01 2.89030135e-01
      6.83215633e-02 2.10639928e-02 8.27557966e-02 -5.11841662e-02
      6.53377324e-02 1.08340979e-01 -1.49124684e-02 -2.00427055e-01
      -1.60595283e-01 -1.54781491e-01 -1.25140145e-01 -7.31003657e-02
      -2.00155824e-01 2.82923788e-01 -1.66520074e-01 7.61377364e-02</_>
    <_>
      -5.07213874e-03 6.56374767e-02 -1.44912273e-01 1.01492340e-02
      8.60650651e-03 5.40626831e-02 -1.20500512e-01 1.67532228e-02
      -1.82073623e-01 6.47355914e-02 -8.93169045e-02 -7.26594701e-02
      -9.48020294e-02 2.20405981e-01 -1.29129186e-01 -1.04181930e-01
      3.64150964e-02 7.67333782e-04 1.98462367e-01 -7.98969343e-02
      -1.30823389e-01 1.15238791e-02 1.63232550e-01 3.05948462e-02
      1.82444856e-01 5.15120253e-02 -2.81238053e-02 -9.27388072e-02
      2.49842666e-02 -1.26613960e-01 -1.46846652e-01 4.51227054e-02
      -8.95107538e-02 1.60057589e-01 -1.17287133e-02 2.14773729e-01</_>
    <_>
      2.56736326e+00 7.37904906e-02 -7.85456479e-01 2.72950262e-01
      8.77340063e-02 2.95230418e-01 4.93237793e-01 2.56563902e-01
      1.64830275e-02 -5.20750582e-02 -7.98606221e-03 2.20071539e-01
      4.49148156e-02 1.89862147e-01 6.57613501e-02 -6.01241998e-02
      3.82802188e-02 -1.98592786e-02 1.46275625e-01 1.72721401e-01
      1.00916822e-03 -7.18673412e-03 2.50623614e-01 -9.29348394e-02
      6.73287585e-02 -7.31369033e-02 1.78369224e-01 -9.59849507e-02
      -3.54950652e-02 -1.71575770e-02 -1.57795712e-01 5.23582138e-02
      -1.59394622e-01 2.05333129e-01 -1.69578344e-01 1.22381479e-01</_>
    <_>
      -1.04652807e-01 2.28542417e-01 -8.45675394e-02 1.06643036e-01
      6.76600710e-02 9.77779031e-02 -6.52056411e-02 -5.71173709e-03
      -6.67131469e-02 3.77274118e-02 -2.86042169e-02 -6.51682541e-02
      1.46194343e-02 6.24868013e-02 -6.71245530e-02 -4.91972342e-02
      6.00499660e-02 2.57019792e-02 2.04795338e-02 3.54502946e-02
      -3.19650769e-02 1.60207003e-01 1.60587788e-01 -3.72847542e-02
      1.19841449e-01 4.61818464e-02 -4.77612726e-02 -7.83738419e-02
      -1.14427298e-01 -1.02081858e-01 -2.00523175e-02 2.31281146e-02
      2.47730874e-02 1.09465852e-01 1.30314669e-02 7.49967694e-02</_>
    <_>
      4.60258871e-02 4.67569619e-01 -5.57600200e-01 1.45409405e-01
      2.41387188e-01 1.12360209e-01 2.71107286e-01 -3.33436608e-01
      3.21634620e-01 2.98802018e-01 2.34672070e-01 9.23667401e-02
      -8.66119862e-02 9.37339365e-02 2.22791001e-01 -1.94875762e-01
      1.11061402e-01 2.37852156e-01 -8.58624578e-02 -8.07021558e-02
      1.69460643e-02 -1.68925032e-01 1.84221655e-01 -4.65026982e-02
      2.14875564e-01 1.81460693e-01 -1.57611929e-02 -1.79784939e-01
      -8.05996545e-03 -1.77712306e-01 -3.07219587e-02 -6.06375411e-02
      -4.03770022e-02 1.95445701e-01 -8.49219412e-02 1.46983296e-01</_>
    <_>
      2.50179529e-01 3.31610590e-01 8.25505853e-02 2.25474223e-01
      2.08607569e-01 -3.71614307e-01 2.73963646e-03 -1.72742158e-01
      -2.38765627e-01 1.13359734e-01 -1.91652685e-01 -2.52910554e-01
      -1.20641366e-01 9.52016860e-02 -4.46012579e-02 3.24621320e-01
      9.07070860e-02 -4.84259017e-02 3.31928253e-01 -3.15256715e-02
      1.27454728e-01 5.54008922e-03 1.39103532e-01 1.88405648e-01
      1.21895298e-01 2.22317398e-01 -1.53677408e-02 -3.64077240e-01
      -9.76229534e-02 -9.97877680e-03 -1.02423646e-01 1.56331018e-01
      -8.31353813e-02 2.20793903e-01 -3.10585499e-02 1.55925587e-01</_>
    <_>
      -7.92779252e-02 -2.63818372e-02 -5.63744456e-02 7.00245202e-02
      1.32357463e-01 7.36625418e-02 -8.42700601e-02 1.23656154e-01
      -1.83309942e-01 1.01559266e-01 -3.59449559e-03 1.89181212e-02
      -4.27932888e-02 7.37359226e-02 -1.18554905e-01 -2.64473092e-02
      7.34378956e-03 9.67948735e-02 9.26351249e-02 -4.63519758e-03
      2.79857721e-02 3.54670770e-02 1.34403214e-01 -6.65868744e-02
      7.09999949e-02 9.32884142e-02 1.42643183e-01 -1.67504787e-01
      -5.23756929e-02 -5.59908450e-02 -9.86706838e-02 -3.38172652e-02
      -8.89757741e-03 1.41178176e-01 -9.95696187e-02 1.63649708e-01</_>
    <_>
      -1.16788402e-01 5.31671524e-01 -1.63371846e-01 8.10430199e-02
      1.22776389e-01 2.00747281e-01 -1.74187031e-03 9.41378325e-02
      -1.01183109e-01 -2.70485133e-01 1.16149962e-01 1.27290487e-01
      -9.27759930e-02 1.38238072e-01 -3.69957536e-02 -1.36018366e-01
      4.60229181e-02 2.36119315e-01 1.38633147e-01 -1.45953760e-01
      1.16326157e-02 1.41779900e-01 9.99172404e-02 -2.26570472e-01
      1.11536913e-01 2.09809020e-02 -7.03199655e-02 -1.44838333e-01
      -1.47562265e-01 -5.03795408e-02 -8.25238526e-02 2.67086476e-02
      -1.20390847e-01 8.26762691e-02 -8.83758292e-02 2.06144989e-01</_>
    <_>
      3.20773751e-01 1.72677606e-01 1.19788952e-01 9.81091708e-02
      -2.08092049e-01 1.09098352e-01 1.22373097e-01 3.62963468e-01
      -1.87808961e-01 3.01317334e-01 -1.51083618e-01 -1.86167628e-01
      6.84713498e-02 -1.41024306e-01 -7.45432675e-02 -6.40543848e-02
      5.28805479e-02 2.77260095e-01 1.68053746e-01 -1.50946632e-01
      -1.59934033e-02 7.48491436e-02 4.83879559e-02 -2.74795182e-02
      -9.53299850e-02 1.61498159e-01 9.12458636e-03 -1.87510833e-01
      9.92320701e-02 -9.93935391e-02 -9.28108245e-02 1.31335938e-02
      -4.22717333e-02 2.24480018e-01 2.76789125e-02 1.91556767e-01</_>
    <_>
      -2.66736019e-02 3.82679731e-01 -1.84374407e-01 1.41058445e-01
      9.85264927e-02 1.50774613e-01 -8.94192457e-02 2.01295063e-01
      -1.08674765e-01 3.98820825e-02 -8.43731165e-02 -8.85852333e-03
      1.01505490e-02 6.06326312e-02 -1.94099277e-01 -1.51703116e-02
      3.95745188e-02 5.62707894e-02 -5.50733879e-02 -2.89234631e-02
      1.19479544e-01 1.83196068e-02 9.10188705e-02 -5.59393167e-02
      7.46580586e-02 1.60050675e-01 1.05394125e-01 -2.23887369e-01
      -1.66978791e-01 -2.25707958e-03 -1.28235102e-01 4.79401797e-02
      -1.02332763e-01 1.44286111e-01 -2.44998280e-02 2.09126785e-01</_>
    <_>
      5.67166686e-01 2.30839074e-01 -4.63429958e-01 6.25385761e-01
      -2.39791006e-01 6.45375475e-02 1.67503640e-01 -2.95624614e-01
      1.11982577e-01 -2.80234993e-01 -1.35984775e-02 -7.31662661e-03
      -1.54588148e-01 7.15993941e-02 -3.18199366e-01 -1.56601593e-01
      8.20684806e-02 -6.77969232e-02 -1.93462059e-01 -1.41203851e-01
      1.23556986e-01 -3.26347090e-02 4.90303263e-02 -1.93258941e-01
      2.33668596e-01 2.46924102e-01 6.31132489e-03 -2.18017280e-01
      -4.71821940e-03 -1.37712941e-01 -1.52076250e-02 -2.86886059e-02
      5.44727519e-02 2.20742553e-01 -1.01502933e-01 2.20589250e-01</_>
    <_>
      1.54513073e+00 -2.45748445e-01 2.80256867e-01 -8.74033198e-02
      7.79357374e-01 8.16243470e-01 -5.75368643e-01 -9.89476442e-02
      3.56282562e-01 -1.30954862e-01 -6.38499707e-02 -1.86569355e-02
      -2.65048176e-01 -9.87769216e-02 -4.20806617e-01 -2.65962631e-01
      -6.67099953e-02 5.64264692e-02 5.46639115e-02 -7.10315034e-02
      -1.01430807e-02 -7.61049539e-02 -5.85520752e-02 -1.01718284e-01
      2.71008164e-01 6.24114508e-03 -2.33995076e-02 -3.41100693e-02
      5.54998554e-02 1.53246606e-02 -4.56535891e-02 -4.24265824e-02
      -1.50169775e-01 4.08840805e-01 -3.29216048e-02 1.47433460e-01</_>
    <_>
      -1.48058133e-02 -5.15329652e-02 2.85649858e-02 8.37679505e-02
      1.02382950e-01 -5.61026484e-02 -2.97896452e-02 -2.82538682e-03
      6.08824268e-02 1.09619804e-01 -2.74427608e-02 9.00637954e-02
      5.25210388e-02 9.79976952e-02 -1.78861782e-01 -6.40129894e-02
      1.24933030e-02 3.36789601e-02 1.35470167e-01 -7.22916350e-02
      1.61923915e-02 1.94788724e-02 1.06420502e-01 -4.34864052e-02
      2.34743487e-02 9.41012874e-02 9.27616879e-02 -1.45411640e-01
      -1.14969306e-01 -1.48807555e-01 -9.40423682e-02 9.87866148e-02
      -1.14584424e-01 1.64686531e-01 -5.70658594e-02 1.44783095e-01</_>
    <_>
      6.63443431e-02 -1.42396316e-02 -1.30269546e-02 2.29205862e-02
      -1.61529575e-02 -2.11816095e-03 -5.10378964e-02 8.02984461e-02
      -5.31710275e-02 5.25655299e-02 -3.81855369e-02 -8.49223696e-03
      -6.25425577e-02 1.34663299e-01 -8.97956192e-02 -9.09133106e-02
      1.05006084e-01 4.66157533e-02 2.17421055e-01 -5.30090593e-02
      3.44252051e-03 8.85599777e-02 3.81706916e-02 -3.35118920e-02
      9.77309197e-02 9.18937698e-02 1.20212413e-01 -2.00740054e-01
      -2.80225594e-02 -6.95216656e-02 -1.27619043e-01 8.46507028e-02
      -9.24323946e-02 1.20300248e-01 -5.64128384e-02 1.91371039e-01</_>
    <_>
      1.54319897e-01 -3.07610452e-01 4.38070558e-02 4.06295732e-02
      5.46616539e-02 3.60846072e-02 -4.72186841e-02 5.42271696e-02
      -6.01649508e-02 1.41911479e-02 -1.41145950e-02 4.21255454e-03
      -2.11962890e-02 9.25030187e-02 -1.09858155e-01 3.45958956e-02
      5.38342930e-02 1.73649918e-02 1.30091712e-01 -1.69052221e-02
      2.75040958e-02 -5.53992437e-03 1.27670079e-01 -9.79894400e-02
      7.42414594e-02 5.76834343e-02 2.45299377e-02 -1.87274352e-01
      -4.16967422e-02 -8.45568404e-02 -6.29469827e-02 9.19751301e-02
      -4.76419665e-02 2.54857689e-01 -4.00883742e-02 2.07668290e-01</_>
    <_>
      9.19230953e-02 1.06223471e-01 -8.79990831e-02 5.26073091e-02
      -7.07643479e-02 1.06262147e-01 -1.39135361e-01 -1.25345990e-01
      -1.72777623e-02 -1.29073467e-02 -1.62270553e-02 -1.23938657e-02
      6.59130067e-02 -9.45657864e-02 -3.10227033e-02 5.25431260e-02
      1.32918358e-01 1.26078678e-02 1.29617512e-01 -1.91205721e-02
      -1.69518158e-01 8.09076130e-02 6.63998649e-02 -1.34729505e-01
      2.06380337e-02 5.27390651e-02 3.84474955e-02 -1.86160624e-01
      -1.89210698e-02 -1.39207646e-01 -1.61507264e-01 9.19711292e-02
      -8.50771647e-03 2.76611924e-01 -1.10958390e-01 1.67897612e-01</_>
    <_>
      -7.15699643e-02 3.23868804e-02 -1.57156482e-01 2.77055576e-02
      2.55765356e-02 1.84132636e-01 -1.12052187e-01 8.84243771e-02
      -2.60538250e-01 -7.36990646e-02 6.75154626e-02 3.56913880e-02
      -5.44936843e-02 1.55797198e-01 -2.47330554e-02 -9.22608972e-02
      1.23137839e-01 1.01347402e-01 1.18948288e-01 -4.89867711e-03
      3.93071473e-02 2.97373235e-02 2.18882039e-02 -7.89429098e-02
      -2.20371932e-02 1.06516734e-01 7.12666959e-02 -1.31739452e-01
      -2.79468279e-02 -1.02102451e-01 -9.72964764e-02 -2.41834745e-02
      2.50844024e-02 2.00881839e-01 -8.96188170e-02 1.91997141e-01</_>
    <_>
      -9.59276706e-02 3.02974164e-01 -1.56326801e-01 2.63234563e-02
      1.07247055e-01 1.46428064e-01 -1.61735564e-01 -7.22418074e-03
      -5.19564487e-02 6.26915842e-02 -1.25927910e-01 2.01873644e-03
      5.26667088e-02 3.88063043e-02 5.14105521e-02 -5.46095520e-02
      1.36775985e-01 2.50648335e-02 1.93872869e-01 -3.03042331e-03
      -8.36185217e-02 -2.18736511e-02 4.09431383e-02 -2.40521394e-02
      9.16216001e-02 7.72575587e-02 1.22789787e-02 -1.85941994e-01
      -1.11337136e-02 -9.78159383e-02 -1.15032934e-01 -3.06485910e-02
      -7.26178363e-02 1.03470981e-01 -6.41703382e-02 2.42282882e-01</_>
    <_>
      -4.31430899e-03 9.46761891e-02 8.95715430e-02 5.69158942e-02
      -1.77310165e-02 4.53589112e-02 6.28858991e-03 -6.93108439e-02
      1.48859680e-01 1.38748996e-02 1.98399443e-02 -5.88825978e-02
      3.52597237e-02 3.93328108e-02 4.08619493e-02 -1.85374752e-01
      -6.49298206e-02 -4.24239188e-02 1.63758770e-01 -3.77084799e-02
      -9.34383646e-02 1.20954365e-01 1.63752094e-01 -5.93522936e-02
      8.93144459e-02 6.31592795e-02 1.37866870e-01 -2.87704915e-01
      -6.84830770e-02 -2.25366160e-01 -1.07366152e-01 7.16642886e-02
      -2.24577766e-02 1.21714562e-01 -5.55634350e-02 1.16354838e-01</_>
    <_>
      -2.88041346e-02 1.02681361e-01 -6.65901303e-02 1.01508684e-01
      6.84587285e-02 7.88563490e-02 -3.08671091e-02 -2.75439676e-03
      -1.39557526e-01 -1.10753998e-01 6.07211851e-02 6.59063607e-02
      4.30905307e-03 1.66864634e-01 -1.80483043e-01 -4.77095954e-02
      -3.12597826e-02 6.87853470e-02 6.43509924e-02 -1.66566055e-02
      -8.19201246e-02 4.00970504e-02 1.21609494e-01 -6.29881546e-02
      1.14925526e-01 1.47447046e-02 -1.19797150e-02 -1.24023035e-01
      -8.83329287e-02 -1.47748500e-01 -1.12531455e-02 3.18898894e-02
      -2.33200323e-02 1.19611405e-01 -5.15837781e-02 1.57319993e-01</_>
    <_>
      1.54319897e-01 -3.07610452e-01 4.38070558e-02 4.06295732e-02
      5.46616539e-02 3.60846072e-02 -4.72186841e-02 5.42271696e-02
      -6.01649508e-02 1.41911479e-02 -1.41145950e-02 4.21255454e-03
      -2.11962890e-02 9.25030187e-02 -1.09858155e-01 3.45958956e-02
      5.38342930e-02 1.73649918e-02 1.30091712e-01 -1.69052221e-02
      2.75040958e-02 -5.53992437e-03 1.27670079e-01 -9.79894400e-02
      7.42414594e-02 5.76834343e-02 2.45299377e-02 -1.87274352e-01
      -4.16967422e-02 -8.45568404e-02 -6.29469827e-02 9.19751301e-02
      -4.76419665e-02 2.54857689e-01 -4.00883742e-02 2.07668290e-01</_>
    <_>
      1.75354075e+00 -6.30951598e-02 -5.57914197e-01 1.63739040e-01
      2.51539826e-01 3.77129287e-01 8.41167629e-01 2.61807919e-01
      -7.03140274e-02 2.28192016e-01 -1.17661469e-01 -5.77043742e-02
      6.01901561e-02 8.40302855e-02 -6.63609877e-02 -1.57882005e-01
      8.72772932e-02 1.89713180e-01 4.98041958e-02 2.81548370e-02
      -3.46914418e-02 1.66284785e-01 1.03849769e-01 -4.62402366e-02
      6.38788417e-02 1.54781297e-01 -4.93187271e-02 -1.95911780e-01
      -6.14930168e-02 -1.62349090e-01 -8.80225450e-02 1.05401941e-01
      -4.46460284e-02 1.80806905e-01 -8.94199386e-02 1.30481169e-01</_>
    <_>
      -6.04314823e-03 1.00433335e-01 5.78704253e-02 -6.67052809e-04
      -5.96690811e-02 1.27801120e-01 7.24802446e-03 -4.31962684e-02
      -2.45310608e-02 -7.42289051e-02 -1.30455960e-02 -5.03961593e-02
      -4.40621413e-02 -3.90986428e-02 8.49278495e-02 -3.04790959e-02
      1.10717826e-01 7.12747723e-02 7.75480941e-02 1.30311558e-02
      -2.00759590e-01 1.22970827e-01 1.54224470e-01 -2.73838942e-03
      7.82269537e-02 1.05580330e-01 9.64159966e-02 -2.48026609e-01
      -2.53504757e-02 -5.58698177e-02 -1.70960203e-01 9.15897861e-02
      4.04358702e-03 1.87227055e-01 -5.19875735e-02 1.65089965e-01</_>
    <_>
      -8.52361545e-02 1.36864886e-01 -3.57983746e-02 2.52845455e-02
      -2.20215395e-02 1.53256536e-01 -7.51098543e-02 2.89715547e-02
      -4.12000418e-02 -5.50750159e-02 -4.59891818e-02 1.34722413e-02
      1.77162755e-02 6.70241117e-02 6.87214136e-02 -9.60746184e-02
      7.59761482e-02 -1.25733584e-01 1.85279861e-01 -1.10092647e-01
      -4.86943318e-05 6.45838976e-02 1.57670770e-02 -2.98196785e-02
      7.34521681e-03 -2.25542411e-02 7.03418441e-03 -1.43179312e-01
      -4.45962232e-03 6.48344262e-03 -7.87976682e-02 7.67575726e-02
      -2.53891349e-02 2.77137399e-01 -1.13401920e-01 1.24687888e-01</_>
    <_>
      4.97408919e-02 2.02078708e-02 5.89780658e-02 8.51306990e-02
      2.70781387e-03 -8.89757182e-03 -3.54035050e-02 -2.45638322e-02
      1.28385812e-01 1.58112690e-01 4.04640436e-02 -1.76872835e-02
      -1.11769885e-02 1.66949809e-01 -4.53124978e-02 -1.25464322e-02
      9.90765989e-02 -2.45412868e-02 1.56350806e-01 -4.34337668e-02
      -5.98460622e-02 3.28054801e-02 1.32973850e-01 -1.15648426e-01
      5.09119779e-03 1.91638172e-02 1.15749806e-01 -8.05370435e-02
      -1.02681413e-01 -1.25018163e-02 -8.94354358e-02 1.26191422e-01
      -1.14651904e-01 1.08690701e-01 -4.80453297e-02 1.24500148e-01</_>
    <_>
      7.81528473e-01 -1.26376569e-01 -8.43251765e-01 -2.14038298e-01
      6.83861494e-01 -3.81334275e-01 -3.36493671e-01 5.39408982e-01
      2.86928505e-01 -2.40897387e-01 1.67975649e-01 -1.56384900e-01
      2.40243338e-02 -8.70911852e-02 -1.46988416e-02 -1.16488844e-01
      2.88065113e-02 5.67251109e-02 3.43378305e-01 1.07290529e-01
      7.17142671e-02 -6.91298693e-02 5.71369454e-02 -1.43518433e-01
      1.52212113e-01 -8.77272561e-02 1.60792693e-01 -2.90916055e-01
      -7.77419889e-03 -7.48339519e-02 -2.17355236e-01 1.49431244e-01
      -1.26907557e-01 1.85241058e-01 4.23967242e-02 1.85024187e-01</_>
    <_>
      1.48411795e-01 -2.84138471e-01 3.92277837e-02 2.58054528e-02
      5.21062799e-02 1.42699815e-02 -3.34767662e-02 6.25945553e-02
      -5.50440103e-02 1.95972845e-02 -2.01206636e-02 -3.26676643e-03
      -1.61376074e-02 9.79212448e-02 -1.41749397e-01 1.92823857e-02
      6.56836033e-02 7.38672819e-03 1.25898167e-01 -3.06207240e-02
      3.80538939e-03 1.04199396e-02 1.52949616e-01 -8.77756625e-02
      7.30059296e-02 6.16497658e-02 5.68522606e-03 -1.94880396e-01
      -5.73578440e-02 -8.13578069e-02 -4.93996143e-02 9.06582326e-02
      -3.50499935e-02 2.70720541e-01 -5.55725396e-02 2.05035806e-01</_>
    <_>
      2.24178171e+00 3.73828381e-01 1.57788262e-01 9.81570482e-02
      -9.12846029e-02 -7.43117690e-01 -3.63790572e-01 8.03734064e-02
      -3.42901111e-01 1.83817953e-01 -9.37506557e-02 2.19515145e-01
      -2.71300059e-02 2.44542152e-01 5.75252213e-02 -1.09838091e-01
      1.06490351e-01 1.07625082e-01 -2.40596324e-01 2.89877653e-02
      -2.40733149e-03 3.76671441e-02 2.10151002e-01 -1.38686746e-01
      2.90188957e-02 1.23132218e-03 -6.08190857e-02 -1.17583700e-01
      1.52268946e-01 -7.03260750e-02 -1.68344423e-01 -1.17622726e-01
      -8.61613303e-02 3.11662167e-01 -9.89356730e-03 1.03166990e-01</_>
    <_>
      -1.38831615e-01 1.80473968e-01 -7.29805380e-02 6.57320619e-02
      2.19181195e-01 1.16306603e-01 -1.04828082e-01 4.52339575e-02
      -6.56759888e-02 1.00671098e-01 1.19207962e-03 1.07182395e-02
      2.84835082e-02 9.99711454e-02 4.50726673e-02 8.92456546e-02
      -4.35447432e-02 -5.17008454e-03 1.37953386e-01 1.29696839e-02
      1.13341488e-01 -1.47391194e-02 1.54180765e-01 -1.00491397e-01
      1.23856045e-01 2.33642787e-01 -4.08097766e-02 -8.77631977e-02
      1.00323498e-01 -8.07298440e-03 -1.61388010e-01 5.54630123e-02
      -7.13422969e-02 1.82388082e-01 -1.79723166e-02 1.76864401e-01</_>
    <_>
      1.82425916e-01 -1.92780033e-01 1.11826040e-01 4.38429713e-02
      1.80610572e-03 1.96086857e-02 -2.01211460e-02 -1.53682269e-02
      7.80220726e-04 3.51594836e-02 -1.90004148e-02 -3.38479653e-02
      -1.34506566e-03 1.00978062e-01 -1.25696808e-01 -5.61140887e-02
      8.29348788e-02 3.35884318e-02 6.16946891e-02 -5.61580248e-02
      -6.32463843e-02 4.41630334e-02 8.85034949e-02 -2.54894956e-04
      5.93092516e-02 7.45206401e-02 -2.62017548e-03 -2.00008422e-01
      -5.64843602e-02 -8.04238617e-02 -1.08403265e-01 1.00933030e-01
      -4.98912334e-02 2.56204575e-01 -8.40211883e-02 1.74584702e-01</_>
    <_>
      -7.99739435e-02 3.28068018e-01 -1.10325426e-01 1.47181317e-01
      2.44385123e-01 1.61833256e-01 -1.30862683e-01 -7.35828280e-02
      -1.31418064e-01 4.75151427e-02 4.29930836e-02 -6.64679483e-02
      3.89735699e-02 1.22040465e-01 -1.22437678e-01 2.74772127e-03
      1.09197654e-01 4.30905893e-02 1.14398129e-01 -4.86238040e-02
      1.14648407e-02 5.07030636e-02 3.07684541e-01 -1.25667498e-01
      7.57994205e-02 -3.27320420e-03 5.37047386e-02 -1.77370861e-01
      -6.76238239e-02 4.22005206e-02 -1.18774146e-01 9.85698104e-02
      5.88821694e-02 2.26277471e-01 -4.98502254e-02 1.63517237e-01</_>
    <_>
      8.97044092e-02 -9.07002836e-02 -4.33960790e-03 2.56999079e-02
      6.55543208e-02 -2.57686637e-02 -9.95615944e-02 1.49780065e-01
      -1.50547102e-01 2.03697652e-01 -1.06893227e-01 4.09491844e-02
      9.04000923e-02 1.78495198e-01 -1.71861112e-01 -2.45638844e-02
      8.93212929e-02 2.47668587e-02 1.71997011e-01 -4.99175861e-03
      -6.26327693e-02 2.01050043e-02 9.40708145e-02 -1.90403908e-01
      1.34849131e-01 6.61380142e-02 9.08239372e-03 -7.83246830e-02
      -7.15974793e-02 -7.08575472e-02 -1.63404629e-01 3.60600166e-02
      -7.99076483e-02 2.09058642e-01 -6.90269396e-02 2.66833365e-01</_>
    <_>
      3.35416853e-01 1.36918679e-01 6.47602305e-02 1.26468062e-01
      -1.27420008e-01 8.37451145e-02 -1.77427307e-01 1.51535019e-01
      1.45357877e-01 -1.69029403e-02 -1.71325579e-01 -2.24149898e-02
      -1.25711575e-01 1.00385621e-01 -1.08339414e-01 -9.11300629e-02
      2.43654884e-02 -7.22098723e-02 8.12611207e-02 1.88273937e-01
      8.19646418e-02 1.04229353e-01 5.48010245e-02 -7.88252279e-02
      9.11505893e-02 1.19438969e-01 -7.35489428e-02 -2.12854773e-01
      -1.63503617e-01 -1.08411513e-01 -8.27955604e-02 1.12807220e-02
      -5.13821244e-02 2.47789502e-01 -8.85359049e-02 1.52405798e-01</_>
    <_>
      8.87042098e-03 -1.11266166e-01 -4.49074097e-02 2.18735412e-02
      1.05596878e-01 1.03705652e-01 -1.06785424e-01 7.58916065e-02
      -1.53890342e-01 8.72481540e-02 8.04259926e-02 6.02850616e-02
      -8.72672163e-03 9.91723761e-02 -5.05501628e-02 1.87387224e-02
      6.39069453e-02 5.26279509e-02 1.64428577e-01 8.60782620e-03
      9.17291939e-02 5.15383072e-02 1.11399591e-01 -2.72155404e-02
      9.39198658e-02 1.10659614e-01 -2.97657419e-02 -1.20392449e-01
      1.17422165e-02 -9.17436779e-02 -1.67601019e-01 2.46384311e-02
      -4.47722673e-02 1.20534167e-01 -4.81917523e-02 1.59841448e-01</_>
    <_>
      2.05901057e-01 -2.59520769e-01 -7.65050820e-04 1.12062609e-02
      9.29188952e-02 -1.48432571e-02 -4.78143841e-02 2.58672852e-02
      6.64080754e-02 5.65579422e-02 5.10481745e-02 4.34932187e-02
      3.80802751e-02 6.90321147e-04 -8.34280998e-02 -5.77685162e-02
      9.44490433e-02 6.21105172e-02 8.28818902e-02 -3.58019629e-03
      -3.42841707e-02 -4.90122549e-02 1.02636501e-01 -6.36850521e-02
      9.24129486e-02 1.34263515e-01 -2.11559553e-02 -2.44775802e-01
      -1.01521567e-01 -1.41505957e-01 -1.08942725e-01 1.13934539e-01
      -7.05217272e-02 2.75372833e-01 8.43525282e-04 1.89348683e-01</_>
    <_>
      -1.62654985e-02 3.75150710e-01 -1.52401611e-01 1.71758279e-01
      1.10467538e-01 1.16083130e-01 -6.05690964e-02 1.94632381e-01
      -1.28128320e-01 6.41592965e-02 -1.30374491e-01 2.18344368e-02
      3.83699089e-02 5.13273962e-02 -2.32674465e-01 -3.96170691e-02
      2.98454217e-03 4.66222130e-02 -7.94463381e-02 -6.69742823e-02
      7.67553672e-02 3.07699647e-02 1.19900726e-01 -6.69007823e-02
      1.22030646e-01 1.78966269e-01 1.58385694e-01 -1.86746642e-01
      -1.96501434e-01 4.39675376e-02 -1.17022604e-01 2.12855190e-02
      -7.91533887e-02 1.83057159e-01 -7.45327920e-02 2.14788675e-01</_>
    <_>
      1.01372916e-02 7.01732785e-02 5.53895310e-02 3.89823467e-02
      9.43676531e-02 -9.00989696e-02 4.64269258e-02 -4.65279482e-02
      6.95465058e-02 6.50925711e-02 -5.75167611e-02 8.33742768e-02
      6.47437423e-02 3.71783040e-02 -5.30836284e-02 -6.18062913e-02
      9.26735848e-02 2.86186598e-02 8.93683136e-02 3.91430594e-02
      -5.88516109e-02 1.05498604e-01 4.63240743e-02 -5.50963692e-02
      3.33283171e-02 1.16454206e-01 -5.86921209e-03 -1.38436303e-01
      -9.31243822e-02 -1.30407736e-01 -3.61915156e-02 1.12760879e-01
      -1.00157112e-01 2.34509632e-01 -5.42687513e-02 2.21749097e-01</_>
    <_>
      1.49951145e-01 -2.93177575e-01 4.38236333e-02 2.48986278e-02
      6.45055026e-02 3.62198874e-02 -2.63386182e-02 5.76207153e-02
      -6.86950982e-02 1.05606811e-02 -2.83475015e-02 -4.26199799e-03
      -1.13854716e-02 1.01252452e-01 -1.22279055e-01 2.12022010e-02
      7.82503262e-02 2.38559060e-02 1.33753672e-01 -2.20942330e-02
      3.15485783e-02 2.88597913e-03 1.41819879e-01 -7.83343166e-02
      7.99548626e-02 6.57088831e-02 9.53129929e-05 -1.82288855e-01
      -4.49247323e-02 -6.72850236e-02 -5.67420907e-02 8.38910937e-02
      -5.93993776e-02 2.64023632e-01 -6.03851452e-02 2.01687902e-01</_>
    <_>
      6.39475763e-01 2.98532873e-01 2.24065915e-01 1.93848461e-01
      2.85336673e-01 -5.18986642e-01 3.50928004e-03 -1.38736323e-01
      -3.74955714e-01 1.24016531e-01 -3.25289249e-01 -2.69913197e-01
      -1.07487002e-02 9.14619714e-02 1.93790361e-01 2.75490910e-01
      8.40639323e-03 4.38086390e-02 7.29489774e-02 -1.81416452e-01
      1.94228664e-02 -2.43743826e-02 1.31179458e-02 5.19730058e-03
      9.84411314e-02 1.56218395e-01 9.71892998e-02 -3.26253533e-01
      -1.37281954e-01 -1.27898678e-01 1.07546235e-02 5.36055937e-02
      -9.36100408e-02 1.33316144e-01 5.01827300e-02 2.63794661e-01</_>
    <_>
      2.90434450e-01 1.23244834e+00 6.13164417e-02 4.62157816e-01
      1.98313922e-01 -1.59493253e-01 3.51238847e-01 -5.29153869e-02
      7.28433430e-02 -5.25560319e-01 -2.55191624e-01 -2.09166147e-02
      -2.53163278e-01 -2.06968412e-01 -4.57398474e-01 1.55732542e-01
      -3.42411399e-01 -1.53237407e-03 -1.63207337e-01 -1.33004203e-01
      1.30027637e-01 -2.00382054e-01 2.13083997e-01 -3.99952680e-02
      -2.64388382e-01 2.09579527e-01 1.15282029e-01 1.83569744e-01
      5.26678981e-04 -2.75476485e-01 -9.60910618e-02 2.07991689e-01
      -2.71513425e-02 1.51461780e-01 -6.54988214e-02 3.06411147e-01</_>
    <_>
      -2.08189692e-02 1.17925717e-03 9.25751776e-03 2.48340350e-02
      1.70756713e-01 9.16880963e-04 -3.41086611e-02 -1.38437729e-02
      1.93666182e-02 1.71136633e-01 -8.78694467e-03 6.26970688e-03
      -8.35748482e-03 1.02241255e-01 -8.35710764e-02 4.44558486e-02
      9.18027610e-02 8.94768089e-02 7.43842348e-02 -1.28983241e-02
      4.66716588e-02 3.61548439e-02 1.13173582e-01 -3.95741425e-02
      2.99120583e-02 2.03182828e-02 5.20156734e-02 -1.66280687e-01
      -8.24069306e-02 -5.90742007e-02 -1.27325565e-01 1.07886538e-01
      -1.21511087e-01 1.89808577e-01 -8.26706588e-02 2.22436935e-01</_>
    <_>
      1.54136613e-01 -2.33597197e-02 -1.14788525e-02 1.03633694e-01
      -3.12209446e-02 9.84720066e-02 -1.32720619e-01 3.98570001e-02
      -1.18137814e-01 -9.72127616e-02 -4.58584093e-02 -1.84907708e-02
      -5.23827448e-02 2.11184248e-02 -3.05224899e-02 -1.41489819e-01
      7.77493045e-02 -1.33792940e-03 9.51748788e-02 -2.99596917e-02
      -1.21690989e-01 1.19533397e-01 9.41521600e-02 -9.23759863e-02
      7.86874518e-02 1.43169120e-01 8.87101367e-02 -1.96919799e-01
      -7.50465468e-02 -9.62143317e-02 -1.47650167e-01 4.56246883e-02
      -7.01943859e-02 2.23644301e-01 -8.85341242e-02 2.66239196e-01</_>
    <_>
      -1.92699641e-01 6.94088817e-01 -1.83922440e-01 1.95744649e-01
      2.47989252e-01 -1.38374180e-01 -1.15027595e-02 -9.29982513e-02
      7.10482895e-02 3.02713305e-01 -2.94883281e-01 1.01185702e-01
      2.25566059e-01 2.53875524e-01 -3.81396204e-01 -1.50292635e-01
      -1.39261723e-01 1.42989829e-01 5.16293058e-03 -3.53617892e-02
      -1.62711680e-01 -2.49773115e-02 1.10101029e-01 -2.85330378e-02
      1.49037793e-01 2.19163492e-01 4.08247262e-02 -3.59587193e-01
      -2.08796248e-01 -1.86765850e-01 -1.44931555e-01 -4.25815657e-02
      -2.05406994e-01 1.09637566e-01 -6.36835247e-02 5.61265759e-02</_>
    <_>
      5.42162843e-02 5.98737001e-01 -5.47832735e-02 1.34711102e-01
      -3.09674069e-02 2.69620921e-02 1.34632409e-01 2.56328881e-01
      -1.57821346e-02 2.29368120e-01 -1.64380684e-01 1.74947128e-01
      -5.11334240e-02 -8.59514847e-02 -2.58785605e-01 -1.73042655e-01
      2.21860409e-02 1.65001899e-01 2.20876217e-01 -2.39842802e-01
      -2.81204097e-02 6.83393469e-03 -2.03930624e-02 -7.38203749e-02
      8.34677815e-02 -4.18847725e-02 4.00669761e-02 -2.54007697e-01
      -1.07020237e-01 -2.88349185e-02 -4.83234599e-02 6.61951527e-02
      -4.39141579e-02 6.97516054e-02 -5.36665097e-02 1.64886117e-01</_>
    <_>
      1.85464114e-01 -1.79845750e-01 1.17118962e-01 2.27929708e-02
      -2.24103034e-02 -9.28347744e-03 -7.94043485e-03 -6.56141667e-03
      -1.95058677e-02 2.77960859e-02 -4.33350317e-02 -3.92638408e-02
      -1.18478909e-02 1.02268875e-01 -8.33019689e-02 -8.75279307e-02
      3.94463763e-02 3.63170728e-02 6.55243844e-02 -3.70032974e-02
      -5.81868142e-02 5.60175255e-02 9.95815024e-02 9.11039673e-03
      5.09111360e-02 9.04050469e-02 -1.38864554e-02 -2.00696260e-01
      -7.62472302e-02 -7.43417144e-02 -1.46633223e-01 1.01008080e-01
      -6.01940937e-02 2.61356652e-01 -8.41607749e-02 2.00744942e-01</_>
    <_>
      1.59177389e-02 1.69164222e-02 4.95968126e-02 6.94928318e-02
      1.20547906e-01 -1.38094630e-02 2.20673271e-02 3.82414274e-02
      5.93223423e-02 1.24073960e-01 1.20750833e-02 9.39218849e-02
      4.68410663e-02 1.01518281e-01 -1.66377589e-01 2.76325475e-02
      1.91926137e-02 5.75339757e-02 7.79178143e-02 -4.83273901e-02
      -9.22808610e-03 1.18295494e-02 3.01796123e-02 -1.32586420e-01
      3.11713549e-03 6.69603869e-02 9.13975164e-02 -2.47196138e-01
      -4.17399257e-02 -8.07517320e-02 -3.05769555e-02 1.36167586e-01
      -5.01065515e-03 1.59818798e-01 -3.76998410e-02 1.21653318e-01</_>
    <_>
      -7.99739435e-02 3.28068018e-01 -1.10325426e-01 1.47181317e-01
      2.44385123e-01 1.61833256e-01 -1.30862683e-01 -7.35828280e-02
      -1.31418064e-01 4.75151427e-02 4.29930836e-02 -6.64679483e-02
      3.89735699e-02 1.22040465e-01 -1.22437678e-01 2.74772127e-03
      1.09197654e-01 4.30905893e-02 1.14398129e-01 -4.86238040e-02
      1.14648407e-02 5.07030636e-02 3.07684541e-01 -1.25667498e-01
      7.57994205e-02 -3.27320420e-03 5.37047386e-02 -1.77370861e-01
      -6.76238239e-02 4.22005206e-02 -1.18774146e-01 9.85698104e-02
      5.88821694e-02 2.26277471e-01 -4.98502254e-02 1.63517237e-01</_>
    <_>
      -5.48122935e-02 3.41094166e-01 -8.63312185e-02 4.89984155e-02
      8.83030668e-02 -1.53515469e-02 -4.00453769e-02 3.80186550e-02
      1.29682809e-01 4.99874949e-02 -7.26128817e-02 1.45119682e-01
      1.42407954e-01 2.68503308e-01 -9.66613367e-02 -3.72895338e-02
      4.43701409e-02 5.62401749e-02 2.14159504e-01 -4.70427088e-02
      1.43544581e-02 7.25293308e-02 -1.52162286e-02 -2.84047276e-01
      1.13279641e-01 5.20507954e-02 -4.15628999e-02 -1.20534167e-01
      9.16983187e-02 -6.77903891e-02 -1.13753214e-01 1.37225583e-01
      9.28756520e-02 2.42413774e-01 -5.25693372e-02 2.17964485e-01</_>
    <_>
      -1.20247304e-01 3.82295012e-01 -2.91306704e-01 1.15514301e-01
      2.13059142e-01 3.40494141e-02 -1.36756346e-01 4.19039056e-02
      -9.59149674e-02 1.71977237e-01 2.96604875e-02 1.86819941e-01
      5.18313982e-02 1.69005081e-01 -1.42256737e-01 -2.74704471e-02
      1.96624920e-01 1.58116505e-01 9.32424515e-02 -8.91423002e-02
      -1.39764221e-02 2.53232181e-01 1.08945124e-01 4.81505208e-02
      8.09989944e-02 -5.06551936e-03 1.20111354e-01 -1.65390044e-01
      -1.43334508e-01 -1.88497961e-01 8.46703872e-02 3.43505740e-02
      -1.78211212e-01 7.95655698e-02 -1.23025149e-01 1.87349588e-01</_>
    <_>
      2.54970461e-01 -2.80893922e-01 1.51216283e-01 1.78473517e-02
      1.04696080e-02 -7.28287846e-02 7.00270906e-02 -6.32016361e-03
      6.44172430e-02 4.37380886e-03 -6.32791147e-02 8.13976377e-02
      -2.15810705e-02 4.09917273e-02 -9.53905210e-02 6.26876857e-03
      1.48074508e-01 7.64278322e-02 8.26809257e-02 -2.50243652e-03
      4.51540155e-03 4.24689353e-02 1.03895880e-01 1.22278603e-02
      6.16027154e-02 8.37323666e-02 7.89483637e-02 -1.97044387e-01
      -3.60146351e-02 -6.21001236e-02 -1.01527885e-01 9.44603905e-02
      4.09426689e-02 1.73340708e-01 -9.37378779e-02 1.57188296e-01</_>
    <_>
      3.22470181e-02 1.15670748e-02 1.71452090e-01 3.11768502e-02
      -2.02132631e-02 -8.09189826e-02 1.07477885e-02 -9.14839581e-02
      1.85183987e-01 6.29167259e-02 -7.61697292e-02 7.57018030e-02
      1.36876851e-01 7.87087381e-02 -8.89859274e-02 -1.66782737e-02
      6.10143431e-02 4.81541194e-02 1.47477612e-01 4.56763944e-03
      -7.95610622e-02 9.77149010e-02 3.05768922e-02 -1.67769223e-01
      1.71417780e-02 4.98047061e-02 -1.82265863e-02 -1.55418992e-01
      -2.95035467e-02 -9.65802744e-02 -1.05734423e-01 1.58357978e-01
      -7.65562803e-02 1.83782399e-01 -1.93727668e-02 2.04010218e-01</_>
    <_>
      8.88449233e-03 -6.77786693e-02 2.40902100e-02 -1.10012470e-02
      7.92338848e-02 2.86799320e-03 -3.65072712e-02 3.14074606e-02
      5.23099266e-02 7.72055238e-02 -1.61185414e-02 1.76624991e-02
      2.22528633e-02 -1.63993277e-02 -1.26649261e-01 3.08130421e-02
      1.82665456e-02 8.40016007e-02 1.30798012e-01 6.58163195e-03
      9.76024047e-02 6.90726489e-02 9.33500752e-02 -1.05396127e-02
      5.72806969e-02 8.56051147e-02 5.69650717e-02 -1.65944159e-01
      -1.00747362e-01 -9.47008803e-02 -9.48744565e-02 6.34890497e-02
      -7.61186630e-02 2.21933901e-01 -1.22409113e-01 1.68057948e-01</_>
    <_>
      4.41145152e-02 -1.39511615e-01 -1.70377791e-01 5.87913319e-02
      -8.52607097e-03 1.29971027e-01 -7.39156455e-02 -5.90220578e-02
      -1.01415962e-01 6.53603896e-02 1.13009438e-01 -1.09161451e-01
      -5.57403229e-02 1.43229246e-01 -5.28215840e-02 -3.72924358e-02
      4.74220999e-02 -7.16362968e-02 1.50547236e-01 -1.90608148e-02
      -2.77250819e-02 -2.40610316e-02 2.26481795e-01 -7.20304102e-02
      8.12510103e-02 1.33452371e-01 -4.07759100e-02 -1.45510778e-01
      4.40773591e-02 -2.45388877e-02 -2.98762042e-02 7.43656652e-03
      -9.54416469e-02 2.44000331e-01 -5.90865165e-02 2.15975702e-01</_>
    <_>
      8.10004398e-02 -2.56267339e-01 -3.35006155e-02 3.09543796e-02
      9.08908769e-02 4.68006097e-02 -6.79652765e-02 -1.71250273e-02
      -6.85675517e-02 1.02635957e-01 2.54101083e-02 -1.59216169e-02
      9.85528007e-02 1.03705384e-01 -1.27165228e-01 -5.36186993e-02
      1.38061613e-01 1.10951683e-03 1.75126955e-01 4.18020114e-02
      -1.63771398e-02 -7.52863139e-02 2.10452855e-01 -6.28032833e-02
      -3.87768038e-02 2.05998361e-01 1.52665423e-02 -1.56037658e-01
      -8.42681453e-02 -9.20727402e-02 1.98958144e-02 6.38734102e-02
      -7.37051219e-02 2.40763888e-01 -3.93630303e-02 1.83805212e-01</_>
    <_>
      5.34708858e-01 -1.35727637e-02 -7.26566464e-02 5.59737533e-03
      1.82410076e-01 -3.35290074e-01 1.37157276e-01 -1.47482399e-02
      -2.11521238e-01 -9.56899822e-02 2.32039467e-01 -1.26541695e-02
      2.83604264e-01 1.01434954e-01 -1.68107092e-01 -6.44259080e-02
      -9.58779082e-02 -2.38183606e-02 2.28782773e-01 2.01942131e-01
      2.51004517e-01 1.04544200e-01 1.08385086e-01 -9.45986435e-03
      -5.69617376e-02 -1.17998719e-01 8.88671279e-02 -1.86068565e-01
      2.14071125e-01 -5.48693053e-02 -1.82766274e-01 1.44117340e-01
      -2.85656482e-01 2.37206697e-01 -5.56024723e-02 1.78750381e-01</_>
    <_>
      1.11875422e-01 -1.55137673e-01 -2.65802834e-02 7.66071379e-02
      1.19317137e-01 8.58124048e-02 -8.17561746e-02 5.97748309e-02
      -5.18403724e-02 7.07732812e-02 2.10653003e-02 7.72530213e-02
      -4.25565476e-03 9.73271206e-02 -4.96052280e-02 -3.83147299e-02
      6.71440437e-02 1.65628627e-01 7.43150385e-03 1.60814077e-02
      1.65918854e-03 6.00814037e-02 8.49017352e-02 -4.17598896e-02
      1.38769120e-01 1.19044840e-01 4.80327196e-03 -1.29997760e-01
      -3.82296704e-02 -1.16133139e-01 -1.44648641e-01 5.30921221e-02
      -8.09873864e-02 1.36916056e-01 -8.92168730e-02 1.54628262e-01</_>
    <_>
      -2.32601285e-01 3.07974488e-01 -2.71968424e-01 5.94008230e-02
      2.67352581e-01 2.35408291e-01 -1.85356379e-01 1.26380101e-01
      -3.33078563e-01 8.16312060e-02 2.37123758e-01 2.16677576e-01
      5.54339262e-03 1.92790292e-02 7.06786588e-02 1.57026462e-02
      1.24117516e-01 2.37266004e-01 3.67442444e-02 1.88857522e-02
      1.46679297e-01 -5.50681353e-02 -5.55155287e-03 -1.17168009e-01
      4.28063609e-02 3.83072495e-02 1.71378508e-01 -1.83128506e-01
      -4.64465618e-02 -5.56925237e-02 -3.33415493e-02 1.41757041e-01
      9.84520465e-03 1.29400343e-01 -1.75823942e-01 6.73952624e-02</_>
    <_>
      2.05901057e-01 -2.59520769e-01 -7.65050820e-04 1.12062609e-02
      9.29188952e-02 -1.48432571e-02 -4.78143841e-02 2.58672852e-02
      6.64080754e-02 5.65579422e-02 5.10481745e-02 4.34932187e-02
      3.80802751e-02 6.90321147e-04 -8.34280998e-02 -5.77685162e-02
      9.44490433e-02 6.21105172e-02 8.28818902e-02 -3.58019629e-03
      -3.42841707e-02 -4.90122549e-02 1.02636501e-01 -6.36850521e-02
      9.24129486e-02 1.34263515e-01 -2.11559553e-02 -2.44775802e-01
      -1.01521567e-01 -1.41505957e-01 -1.08942725e-01 1.13934539e-01
      -7.05217272e-02 2.75372833e-01 8.43525282e-04 1.89348683e-01</_>
    <_>
      -2.35670228e-02 -4.84707542e-02 -5.05235568e-02 7.56007433e-02
      1.11343727e-01 1.86197571e-02 -8.21981803e-02 5.83146438e-02
      -3.77267115e-02 1.11095220e-01 -1.10792242e-01 8.21519643e-02
      1.07914016e-01 2.17969604e-02 -8.42384100e-02 -4.41628471e-02
      1.72289349e-02 1.19249947e-01 4.63771969e-02 1.13972798e-02
      3.86340520e-03 1.68583095e-02 4.49526682e-02 -1.39207914e-01
      9.92826521e-02 5.75166456e-02 -3.18668038e-02 -1.81150287e-01
      -7.70323575e-02 -6.02620430e-02 -1.12277828e-01 1.08035766e-01
      -3.83066311e-02 1.87895983e-01 -5.98493181e-02 1.99756801e-01</_>
    <_>
      5.47602586e-02 4.08352733e-01 -1.28730640e-01 1.58766359e-01
      6.96778595e-02 1.32403970e-01 -2.37499271e-02 2.53385574e-01
      -1.30833670e-01 6.39135614e-02 -1.22346133e-01 5.03551401e-02
      4.66219941e-03 2.46191565e-02 -2.21376389e-01 -7.93733001e-02
      4.68568876e-03 5.80569394e-02 -4.75781821e-02 -5.70665374e-02
      7.11411014e-02 5.70313260e-02 1.09978557e-01 -7.25272819e-02
      1.20723061e-01 1.72073454e-01 1.32991076e-01 -1.53190568e-01
      -1.77468807e-01 1.93799138e-02 -1.11841455e-01 3.08476742e-02
      -4.48013283e-02 1.77539364e-01 -7.50343055e-02 2.42334187e-01</_>
    <_>
      -3.18339281e-02 2.41338849e-01 9.36852070e-04 2.20992446e-01
      2.31722251e-01 1.03206113e-01 -1.04910478e-01 7.71063641e-02
      -3.81118059e-02 -5.28305173e-02 -7.28888437e-02 4.96913120e-03
      -5.92886508e-02 -9.01205987e-02 -5.47789894e-02 1.81371540e-01
      3.04729026e-02 1.85729582e-02 -4.48960476e-02 -2.40352452e-02
      1.10404126e-01 5.49482740e-03 2.14957699e-01 2.88379304e-02
      -1.27592599e-02 -3.13758291e-02 -4.01789993e-02 -1.94679111e-01
      -1.07916921e-01 -1.17925648e-02 -2.64896289e-03 9.92982388e-02
      -4.49243411e-02 2.36253276e-01 -6.88111931e-02 7.17097893e-02</_>
    <_>
      1.08415917e-01 1.23013541e-01 -8.60420763e-02 4.58518192e-02
      -6.51879832e-02 9.92374718e-02 -1.72876865e-01 -1.34216681e-01
      -2.07049269e-02 3.69964691e-05 -2.31561493e-02 -4.85583767e-03
      5.28059341e-02 -6.50149062e-02 -4.09012660e-02 5.78275919e-02
      1.36376277e-01 3.96648832e-02 1.32219374e-01 -9.58468579e-03
      -1.75759986e-01 7.90149495e-02 6.29432797e-02 -1.28652096e-01
      -6.03905227e-03 4.19919752e-02 3.69781069e-02 -2.00694576e-01
      -4.06677611e-02 -1.37366816e-01 -1.46331742e-01 8.16930309e-02
      7.30794901e-03 2.81855762e-01 -1.02142192e-01 1.82911962e-01</_>
    <_>
      1.48411795e-01 -2.84138471e-01 3.92277837e-02 2.58054528e-02
      5.21062799e-02 1.42699815e-02 -3.34767662e-02 6.25945553e-02
      -5.50440103e-02 1.95972845e-02 -2.01206636e-02 -3.26676643e-03
      -1.61376074e-02 9.79212448e-02 -1.41749397e-01 1.92823857e-02
      6.56836033e-02 7.38672819e-03 1.25898167e-01 -3.06207240e-02
      3.80538939e-03 1.04199396e-02 1.52949616e-01 -8.77756625e-02
      7.30059296e-02 6.16497658e-02 5.68522606e-03 -1.94880396e-01
      -5.73578440e-02 -8.13578069e-02 -4.93996143e-02 9.06582326e-02
      -3.50499935e-02 2.70720541e-01 -5.55725396e-02 2.05035806e-01</_>
    <_>
      -3.18339281e-02 2.41338849e-01 9.36852070e-04 2.20992446e-01
      2.31722251e-01 1.03206113e-01 -1.04910478e-01 7.71063641e-02
      -3.81118059e-02 -5.28305173e-02 -7.28888437e-02 4.96913120e-03
      -5.92886508e-02 -9.01205987e-02 -5.47789894e-02 1.81371540e-01
      3.04729026e-02 1.85729582e-02 -4.48960476e-02 -2.40352452e-02
      1.10404126e-01 5.49482740e-03 2.14957699e-01 2.88379304e-02
      -1.27592599e-02 -3.13758291e-02 -4.01789993e-02 -1.94679111e-01
      -1.07916921e-01 -1.17925648e-02 -2.64896289e-03 9.92982388e-02
      -4.49243411e-02 2.36253276e-01 -6.88111931e-02 7.17097893e-02</_>
    <_>
      -3.04146588e-01 5.01847088e-01 -4.33263958e-01 2.74505466e-02
      3.35101694e-01 1.95924819e-01 -3.61162901e-01 1.44065961e-01
      -4.12988096e-01 3.69748354e-01 -1.77780628e-01 -1.65943310e-01
      2.94728786e-01 2.06391796e-01 -5.34449555e-02 -3.22767854e-01
      2.66778916e-01 6.19440451e-02 7.71246105e-02 1.66805893e-01
      8.68685171e-02 -2.83194840e-01 9.65262577e-02 -7.88000133e-03
      -6.95694312e-02 4.11191806e-02 -1.37259990e-01 -1.51698843e-01
      -1.62049204e-01 -1.84273511e-01 -8.90920346e-04 1.87381506e-01
      2.05078837e-03 1.45208180e-01 -8.77119526e-02 1.51615262e-01</_>
    <_>
      -1.08744860e-01 2.77590882e-02 -6.05074055e-02 1.43208101e-01
      2.14110687e-01 9.81412530e-02 -1.24742314e-01 7.74938464e-02
      -1.99015781e-01 6.27291575e-02 9.65883583e-02 1.37854472e-01
      4.31571193e-02 1.26454830e-01 -9.49470475e-02 6.57257289e-02
      8.12705904e-02 1.89862281e-01 1.11225843e-01 -2.31037885e-02
      -2.50442438e-02 6.39002174e-02 2.12817252e-01 -1.68276727e-02
      8.90002325e-02 -2.46807351e-04 -4.11051400e-02 -1.66343123e-01
      -9.67105553e-02 -2.51603097e-01 -3.48670408e-02 6.21453859e-02
      -8.17962363e-02 1.32020190e-01 -3.81238274e-02 1.52187705e-01</_>
    <_>
      5.09103276e-02 2.73847990e-02 5.22691682e-02 5.92637174e-02
      2.23239455e-02 -8.59186202e-02 6.66607823e-03 -4.37580720e-02
      9.44374353e-02 6.47380650e-02 3.39730550e-03 -3.04909702e-02
      1.19372699e-02 1.20997936e-01 -7.23449280e-03 -1.58443287e-01
      -4.04284708e-02 5.09290248e-02 1.32388696e-01 -7.88352080e-03
      -1.21929832e-02 3.80920283e-02 6.77644163e-02 -1.26440242e-01
      5.43855950e-02 1.84131011e-01 6.42360970e-02 -1.22292005e-01
      -1.06555387e-01 -2.60647386e-02 -9.00830552e-02 7.44752437e-02
      -5.85952736e-02 1.75757632e-01 -2.45355628e-02 1.61622301e-01</_>
    <_>
      5.72208427e-02 -2.44876929e-02 1.07429758e-01 2.84152534e-02
      2.06563845e-02 -2.53484715e-02 -4.99533548e-04 3.40738595e-02
      1.39617264e-01 -2.54694130e-02 -3.77469547e-02 4.38088812e-02
      -4.85589579e-02 6.79971650e-02 -1.03355788e-01 -3.85994278e-03
      6.89640045e-02 8.17485899e-02 1.33101746e-01 -3.43184583e-02
      7.49200657e-02 2.96011567e-02 4.66704629e-02 -6.62533706e-03
      1.63373709e-01 6.27169088e-02 7.78675452e-02 -1.49334699e-01
      4.73301187e-02 -5.50148636e-02 -1.28601030e-01 9.96411294e-02
      -1.01655051e-01 2.64079988e-01 -9.50015038e-02 1.38246894e-01</_>
    <_>
      -2.15805039e-01 4.80750382e-01 -1.72762811e-01 7.36046806e-02
      1.94333076e-01 1.24490678e-01 -1.15871906e-01 5.07086180e-02
      -1.28564954e-01 9.92559828e-03 5.43273501e-02 2.96314776e-01
      -4.31425124e-02 1.27121478e-01 1.20903060e-01 -5.91854230e-02
      1.18433997e-01 2.14547366e-01 2.63275392e-02 9.26296338e-02
      5.38487360e-02 -7.65808821e-02 -1.00173615e-01 -4.48558703e-02
      4.02512103e-02 1.99009955e-01 6.14096411e-02 -1.93540141e-01
      -4.06317823e-02 7.91735016e-03 -8.88891593e-02 1.44308925e-01
      -9.99246836e-02 1.98442638e-01 -6.81229383e-02 1.90479562e-01</_>
    <_>
      -7.71431327e-02 4.54883762e-02 -5.01473919e-02 9.39873233e-02
      2.15887904e-01 1.30984724e-01 -1.12633154e-01 7.15703741e-02
      -1.29853755e-01 6.14483058e-02 1.06227122e-01 8.49062651e-02
      5.92631511e-02 8.00378546e-02 -7.24042207e-02 2.23105811e-02
      7.33032003e-02 1.34238198e-01 1.33298889e-01 2.24432200e-02
      2.08644290e-02 1.66176446e-02 2.45687112e-01 -1.80545934e-02
      5.74121736e-02 1.03584290e-01 -1.37607381e-02 -1.64432511e-01
      -6.95172995e-02 -2.08713919e-01 -5.14306091e-02 7.28460103e-02
      -4.65906523e-02 1.28772601e-01 -6.32860661e-02 1.34217799e-01</_>
    <_>
      -7.24640414e-02 -2.74438113e-02 -3.18354778e-02 9.01099443e-02
      1.50533959e-01 9.81433541e-02 -5.61459810e-02 1.19475052e-01
      -2.06514850e-01 1.03563061e-02 7.44615421e-02 4.46069054e-02
      -1.90921128e-02 1.17375560e-01 -4.45324779e-02 -1.78383999e-02
      2.13147849e-02 1.18090093e-01 1.42771840e-01 -9.19984281e-03
      5.74547723e-02 7.48999091e-03 1.28803357e-01 -9.30776745e-02
      8.48714039e-02 6.84707910e-02 1.17542259e-01 -1.29412219e-01
      9.92633961e-03 -6.52054176e-02 -1.10639729e-01 -1.60802400e-03
      6.19776286e-02 2.51600444e-01 -8.11073333e-02 1.36051446e-01</_>
    <_>
      1.18059024e-01 -1.12533487e-01 1.37042508e-01 1.14600420e-01
      1.41683787e-01 -1.90800335e-02 -5.66992499e-02 4.73784953e-02
      9.76887867e-02 3.98988836e-02 -2.95636673e-02 6.12033978e-02
      5.21046035e-02 7.93407410e-02 -8.20560306e-02 1.20895030e-02
      -1.69024561e-02 3.80857587e-02 8.67915750e-02 5.40814968e-03
      4.20924351e-02 1.07871979e-01 3.47583741e-02 -1.25270382e-01
      5.87697886e-02 1.53357565e-01 2.49967407e-02 -1.39300764e-01
      -2.61397660e-02 -7.94750229e-02 -4.75785471e-02 9.51684490e-02
      -2.07825191e-02 1.84400246e-01 -3.41851674e-02 1.16026647e-01</_>
    <_>
      1.42474830e-01 -1.86065629e-01 3.74442674e-02 2.21449509e-02
      -1.24069471e-02 2.39243824e-02 -4.03778777e-02 4.03184146e-02
      -2.28422098e-02 3.85747477e-02 -4.45043966e-02 -2.57926318e-03
      -1.00021781e-02 7.90423080e-02 -1.20542154e-01 -2.04817876e-02
      7.40190744e-02 2.49454174e-02 1.11034773e-01 -1.25980563e-02
      -1.03094913e-02 1.09314673e-01 1.00489184e-01 -5.30571751e-02
      3.30243516e-03 4.34934311e-02 3.70259322e-02 -1.49401233e-01
      -5.78609034e-02 -8.62709954e-02 -7.91319609e-02 4.10416014e-02
      -5.92685156e-02 2.18964472e-01 -1.07323684e-01 1.91792831e-01</_>
    <_>
      -3.03902738e-02 2.41558254e-02 2.49993950e-02 1.23074107e-01
      1.24643937e-01 -7.58695677e-02 -5.72035424e-02 7.40052536e-02
      7.07946196e-02 8.77514780e-02 -8.80447254e-02 2.80049555e-02
      5.89759126e-02 2.08173528e-01 -1.87893257e-01 1.73484962e-02
      4.30594869e-02 5.24429977e-02 1.82542726e-01 -2.80058049e-02
      4.60619554e-02 1.03980467e-01 8.31523091e-02 -4.82215248e-02
      1.70931686e-02 1.40941143e-01 -2.36515775e-02 -1.04328856e-01
      -2.11167824e-03 -6.86871260e-02 -1.41832680e-01 7.03535527e-02
      -5.85006922e-02 1.48370385e-01 -5.03764860e-03 1.85975537e-01</_>
    <_>
      -1.62244663e-01 3.78223091e-01 -1.20190538e-01 6.69369381e-03
      1.10165015e-01 1.82088271e-01 -7.71015510e-02 2.81865653e-02
      -6.65020123e-02 -1.95707437e-02 7.90367872e-02 1.14376977e-01
      -9.27394032e-02 5.81676587e-02 4.42817844e-02 -2.39857789e-02
      -9.25961789e-03 1.25880376e-01 1.90152779e-01 3.27252820e-02
      -9.66016576e-03 3.66065465e-02 7.98710063e-02 -1.43740952e-01
      5.65622002e-02 3.55395898e-02 -1.09368917e-02 -1.81019515e-01
      3.25911604e-02 -4.67939042e-02 -1.17930405e-01 1.67691018e-02
      1.76776182e-02 1.51039436e-01 -8.85814503e-02 1.52639389e-01</_>
    <_>
      8.23463127e-02 -4.89707664e-02 1.61740080e-01 3.42537016e-02
      1.67148653e-02 -6.37429431e-02 2.43984964e-02 -7.56554753e-02
      1.30620778e-01 1.41018033e-01 -1.22175477e-01 -7.21987039e-02
      5.01280800e-02 -1.28139490e-02 -4.77220602e-02 -6.19001426e-02
      1.25448599e-01 1.20872714e-01 -3.39812934e-02 8.22953433e-02
      -9.87057686e-02 -1.74416862e-02 7.00082108e-02 3.19892094e-02
      5.04645891e-02 1.41514186e-02 5.66775650e-02 -1.03573941e-01
      1.56794973e-02 -5.46565279e-02 -6.85376078e-02 1.03670821e-01
      -1.46285985e-02 2.23205060e-01 -8.27219114e-02 2.53642023e-01</_>
    <_>
      5.39696217e-02 8.38788375e-02 4.86693978e-02 1.01677410e-01
      2.45347396e-02 -8.76500905e-02 4.94302660e-02 -5.07019497e-02
      1.22177519e-01 1.02679312e-01 -3.99785750e-02 -2.30951738e-02
      -2.17227414e-02 9.84585881e-02 -4.84423898e-02 -5.91619052e-02
      -1.94197558e-02 4.90118600e-02 9.92306694e-02 -7.91086070e-03
      -4.55706753e-02 3.30512263e-02 2.03736443e-02 -5.35324551e-02
      8.94086435e-02 1.15905643e-01 3.27783935e-02 -1.81714714e-01
      -7.66578093e-02 -3.92481685e-02 -7.52616301e-02 1.01828426e-01
      -9.44530815e-02 1.84226438e-01 -8.76416862e-02 1.27450287e-01</_>
    <_>
      1.33325486e-02 1.39898911e-01 -2.54196860e-02 5.94614744e-02
      6.52706102e-02 3.64266187e-02 1.80008300e-02 8.26816831e-04
      1.73153579e-02 6.39676154e-02 -6.28539249e-02 2.92418990e-02
      -1.05135247e-01 1.77647203e-01 -4.37238440e-02 -1.22734956e-01
      1.97211727e-02 2.87384186e-02 1.12735607e-01 -2.27937385e-01
      -1.97424870e-02 -7.41529167e-02 1.62631705e-01 -8.41217116e-02
      1.26681179e-01 5.71055561e-02 3.40226702e-02 -2.37257555e-01
      -8.98453072e-02 -9.43407118e-02 -2.72492170e-01 8.63637924e-02
      -1.32150605e-01 2.21612379e-01 -8.42498839e-02 1.82288826e-01</_>
    <_>
      4.67167273e-02 9.27153304e-02 4.80130035e-03 1.17607385e-01
      9.69432741e-02 -1.19579665e-01 6.43832833e-02 -8.49549621e-02
      7.31943175e-02 2.04901189e-01 -1.26238152e-01 9.44456458e-02
      -7.20569044e-02 2.35666797e-01 -2.29500204e-01 -1.06369890e-01
      9.78061035e-02 9.33661088e-02 8.83817524e-02 -3.79759707e-02
      -9.71452743e-02 2.86646225e-02 2.25598905e-02 -2.63673961e-02
      1.54799625e-01 -6.94928169e-02 5.01789227e-02 -1.04903840e-01
      -1.62919878e-03 -4.48340215e-02 -1.47972867e-01 1.25137433e-01
      -4.65772301e-02 1.57717183e-01 -6.67343587e-02 1.46059781e-01</_>
    <_>
      -4.20869648e-01 -7.17045069e-01 6.87210798e-01 2.70350122e+00
      9.28194761e-01 1.09371722e-01 -3.74531806e-01 6.65219426e-02
      -5.52477827e-03 1.56881884e-01 -4.35439609e-02 2.25501265e-02
      2.06369553e-02 5.37460446e-02 7.98105821e-02 -1.46985456e-01
      5.20648435e-02 1.21832415e-01 1.74393967e-01 -2.38139331e-02
      -8.40148926e-02 9.52155367e-02 7.08303303e-02 -1.04206167e-01
      5.98550551e-02 4.37755398e-02 1.13453269e-01 -1.76881164e-01
      -3.22043002e-02 -1.46766335e-01 -1.28369525e-01 8.25008899e-02
      -6.56065717e-02 2.14161381e-01 -9.88753214e-02 1.76262498e-01</_>
    <_>
      1.00175351e-01 -3.56440172e-02 -1.18138064e-02 -3.00226733e-02
      -1.28154662e-02 5.25182150e-02 -6.86830804e-02 6.28323480e-02
      -7.38871889e-03 -9.25723172e-04 -3.98637122e-03 -3.14692548e-03
      6.11208044e-02 5.58770970e-02 -1.65130481e-01 -6.82079494e-02
      5.76930456e-02 1.06750324e-01 7.24230111e-02 4.37599756e-02
      2.23837122e-02 1.22886628e-01 8.13736841e-02 -9.32970494e-02
      1.24158658e-01 2.82566547e-02 1.18046790e-01 -1.58085391e-01
      -6.77517802e-02 -3.64624932e-02 -1.23199970e-01 1.16006523e-01
      -4.51380089e-02 2.15540975e-01 -6.45424202e-02 1.69017151e-01</_>
    <_>
      1.32396370e-01 9.39906314e-02 2.34216228e-02 1.17575243e-01
      -1.03985116e-01 1.67649109e-02 -1.94937676e-01 1.70350485e-02
      -1.75428819e-02 7.56629333e-02 -1.59681439e-01 -9.17621553e-02
      3.18077430e-02 1.68255851e-01 -1.52648687e-01 9.76396631e-03
      1.67385235e-01 -6.75520524e-02 1.04331240e-01 1.00424714e-01
      -1.01321645e-01 3.20358761e-02 1.66513383e-01 2.67868806e-02
      1.30056739e-01 -1.26278726e-02 7.01695457e-02 -2.26876423e-01
      -2.86675766e-02 -1.61472157e-01 -1.03818523e-02 -1.45555092e-02
      -1.19375415e-01 2.13990882e-01 -3.64336558e-02 1.45805940e-01</_>
    <_>
      -1.42930344e-01 3.92710447e-01 -2.10231453e-01 1.41643509e-01
      1.08669341e-01 1.10767879e-01 -1.17553689e-01 2.15105116e-02
      -3.11101466e-01 2.27865875e-02 -2.59272546e-01 -1.25296030e-03
      1.33465961e-01 -3.93089652e-02 -3.68179739e-01 2.78384015e-02
      -6.89614192e-02 8.23039412e-02 -4.28011455e-02 3.45873907e-02
      -1.53827056e-01 -8.60566944e-02 1.60022348e-01 -1.78224519e-01
      5.83795160e-02 3.26368846e-02 1.59998521e-01 -3.19187939e-01
      -1.61686867e-01 -8.38267803e-02 -1.54575631e-01 1.90304797e-02
      -2.52505159e-03 1.28664240e-01 -1.01948887e-01 1.36841655e-01</_>
    <_>
      -6.72167540e-02 -3.10746999e-03 -2.96227243e-02 1.16730370e-01
      1.39038071e-01 1.16893247e-01 -9.57730338e-02 7.70966709e-02
      -1.09511480e-01 -8.49086232e-03 9.20053571e-02 8.75298232e-02
      -7.37087987e-03 1.67408556e-01 -3.09928842e-02 8.86905193e-03
      6.46471679e-02 1.30461156e-01 1.25469700e-01 -7.06917197e-02
      8.48217681e-03 8.56271908e-02 2.05783993e-01 -1.52364755e-02
      1.35569513e-01 -2.73361821e-02 -9.80981737e-02 -1.37839273e-01
      -5.31723574e-02 -2.05350161e-01 -1.22558162e-01 3.74484584e-02
      -2.40474362e-02 1.17193811e-01 -6.02934472e-02 1.31454483e-01</_>
    <_>
      3.19604650e-02 2.43019626e-01 -7.69274086e-02 9.85139757e-02
      1.14050373e-01 -3.01613566e-03 -9.11455415e-03 -8.49857926e-03
      1.48997501e-01 -1.14735290e-02 -8.15737061e-04 -4.48461063e-03
      2.88227573e-02 1.83402970e-01 -6.43331259e-02 -4.30615619e-02
      6.88684881e-02 1.86906651e-01 1.26617432e-01 1.19184516e-01
      7.11559728e-02 9.48942453e-02 9.34855789e-02 2.39575990e-02
      -1.56314559e-02 1.61225110e-01 1.23090610e-01 -1.62838623e-01
      -3.70969698e-02 -7.82379135e-02 -7.93800130e-02 -1.08707668e-02
      7.14882761e-02 1.95788264e-01 -6.45625815e-02 1.46656215e-01</_>
    <_>
      1.47564948e-01 4.55168456e-01 -8.63278881e-02 2.96128243e-01
      3.97257740e-03 1.55858219e-01 -1.29652768e-01 1.66680336e-01
      -7.87036866e-02 -3.83742489e-02 -8.15202445e-02 -4.21643883e-01
      -1.39046963e-02 1.21450990e-01 -4.44655307e-02 1.94146961e-01
      4.93132845e-02 1.29546197e-02 -1.10367171e-01 8.78418237e-02
      2.60993224e-02 1.16064921e-01 5.53577878e-02 3.73455347e-04
      3.14448699e-02 1.33763984e-01 6.14858158e-02 -1.66236758e-01
      -4.81843799e-02 -7.66418129e-02 -7.75594115e-02 2.56888062e-01
      1.33823276e-01 2.05708876e-01 -5.49984574e-02 8.21219981e-02</_>
    <_>
      -4.80101928e-02 1.06148243e-01 6.14681877e-02 8.95063058e-02
      2.28098288e-01 3.05325612e-02 -2.71434169e-02 -8.53888970e-03
      1.14309214e-01 1.06390014e-01 -8.19688886e-02 1.31713226e-01
      7.65106454e-02 6.55545760e-03 6.43688738e-02 5.26060574e-02
      -1.05581582e-01 3.01670786e-02 1.69081837e-01 7.80504048e-02
      1.69294760e-01 -1.27764910e-01 1.98933799e-02 -1.76656712e-02
      1.08531028e-01 2.66102076e-01 -1.02512948e-01 -1.91129535e-01
      3.44329439e-02 -1.48587942e-01 -2.94817984e-01 -3.00407428e-02
      -2.40900703e-02 1.47652358e-01 -7.93273300e-02 3.70536596e-02</_>
    <_>
      1.04823329e-01 4.39191870e-02 1.39660969e-01 6.62462264e-02
      3.82251479e-02 -8.67903978e-02 4.02762629e-02 -1.75685864e-02
      1.92875266e-01 4.04978134e-02 -1.30320281e-01 8.04436579e-03
      4.91958782e-02 6.35457924e-03 -1.16316013e-01 -1.22835286e-01
      -2.07437528e-03 1.89226747e-01 1.95861459e-02 4.76389453e-02
      2.37046741e-02 7.97637701e-02 6.26254901e-02 1.26741491e-02
      1.18205532e-01 1.19732777e-02 1.52892862e-02 -1.30756617e-01
      -4.48528677e-02 -8.71730298e-02 -8.70620757e-02 7.30441883e-02
      -1.23493545e-01 2.01713607e-01 -7.78099820e-02 2.38194838e-01</_>
    <_>
      -1.54019326e-01 8.82086396e-01 -2.19688654e-01 4.63550016e-02
      1.44268572e-01 2.73662359e-01 -2.76147909e-02 -1.77347586e-01
      -2.53306646e-02 6.55212114e-03 -2.54196435e-01 -4.57488261e-02
      -1.78693477e-02 3.71681787e-02 1.56286031e-01 -1.15206480e-01
      -1.00314535e-01 4.08732533e-01 1.46188974e-01 3.39367926e-01
      -2.73462504e-01 -9.32539925e-02 3.31832826e-01 1.43445700e-01
      4.15708244e-01 1.48980441e-02 1.68842867e-01 -1.34002388e-01
      9.04326364e-02 3.13629620e-02 -2.92430758e-01 -6.61653057e-02
      -9.56560522e-02 1.76841229e-01 2.28165649e-02 2.12642446e-01</_>
    <_>
      2.66532898e-01 2.08389759e-01 -5.70146218e-02 2.07695588e-01
      -1.23275742e-01 -2.07943693e-02 2.47555971e-02 1.78864282e-02
      4.52226913e-03 -1.47197276e-01 -8.84848386e-02 -1.50098652e-01
      -1.02236465e-01 1.38719022e-01 -1.34351209e-01 4.32602130e-02
      1.20545790e-01 -4.47244756e-02 1.70894101e-01 -1.28413171e-01
      4.19109464e-02 2.71480363e-02 2.63124369e-02 6.85508326e-02
      1.31764218e-01 1.05652601e-01 5.00641949e-02 -3.42319757e-01
      -1.47610006e-03 -5.31270206e-02 -8.85489136e-02 6.79115504e-02
      -2.28348225e-01 2.07781568e-01 -6.21375665e-02 6.80604652e-02</_>
    <_>
      -8.79225284e-02 4.30196434e-01 1.69462133e-02 1.67748287e-01
      2.50741869e-01 -4.34801839e-02 1.82580855e-02 5.72893731e-02
      3.11832309e-01 -6.85069859e-02 -1.20213814e-01 1.40904471e-01
      3.60447429e-02 7.51063079e-02 -1.05693102e-01 2.48057544e-01
      -6.37626350e-02 1.50565058e-01 7.77649581e-02 9.60003957e-03
      1.72807753e-01 1.33411335e-02 1.53050618e-02 -3.76310349e-02
      6.84175268e-02 5.57271354e-02 1.17933854e-01 1.17806895e-02
      -6.95635602e-02 -1.34711877e-01 -1.23789452e-01 1.58999145e-01
      1.15862861e-02 2.79241562e-01 1.95341352e-02 1.88421663e-02</_>
    <_>
      -3.46332580e-01 8.45369101e-01 -1.96738884e-01 1.17709808e-01
      3.27739745e-01 3.47124785e-01 -2.44387746e-01 6.43093213e-02
      -7.69694522e-02 -5.02333753e-02 -1.10960454e-01 -2.60788620e-01
      3.03742260e-01 -1.41443521e-01 1.74669877e-01 8.02245438e-02
      1.43643200e-01 9.60278884e-02 -8.03926140e-02 1.59380436e-02
      8.41556713e-02 3.58415558e-03 2.11871088e-01 -3.35107632e-02
      3.00359130e-02 1.61823053e-02 3.23417857e-02 -1.69536605e-01
      -8.96066278e-02 -1.26152426e-01 -2.41897013e-02 3.90387252e-02
      -3.28169465e-02 2.13833496e-01 -2.35200096e-02 2.79816777e-01</_>
    <_>
      4.99663323e-01 -7.86531121e-02 6.03159657e-03 1.50323376e-01
      1.43203765e-01 -2.18851998e-01 -9.40793976e-02 -1.31958038e-01
      -1.12573609e-01 -1.68784976e-01 -1.84077714e-02 -1.15236290e-01
      1.05463073e-01 2.61479206e-02 -4.85229231e-02 4.85538729e-02
      8.22359025e-02 6.76604547e-03 1.68447793e-01 2.58201808e-02
      2.25307986e-01 -2.60937749e-03 1.49347544e-01 6.45016693e-03
      1.78955808e-01 1.07514113e-01 5.50643280e-02 -1.95110410e-01
      1.88191347e-02 -2.51238439e-02 -8.17216933e-02 1.20609239e-01
      -2.16643646e-01 1.62484273e-01 -1.72422007e-01 1.17293954e-01</_>
    <_>
      -6.69459105e-02 3.16536903e-01 -1.30271688e-01 1.54900819e-01
      1.59866184e-01 7.02611953e-02 -8.13074932e-02 5.01634814e-02
      -1.38662234e-01 1.98395010e-02 -5.38158976e-02 -6.23542070e-02
      9.56882164e-02 7.53876055e-03 -1.85825378e-01 -6.19783029e-02
      4.42875549e-02 8.79477039e-02 7.86484107e-02 2.14980263e-02
      -4.54921164e-02 8.70881602e-02 1.75983772e-01 2.22495815e-04
      1.50601655e-01 7.03188777e-02 -4.42290902e-02 -1.61234394e-01
      -1.50204197e-01 -1.09286129e-01 -1.02849312e-01 6.01888597e-02
      -1.02488197e-01 1.86928779e-01 -9.09544826e-02 1.89377874e-01</_>
    <_>
      6.77300572e-01 2.88374901e-01 9.64942053e-02 1.29952922e-01
      2.68111795e-01 -3.54985952e-01 2.76056051e-01 -6.19845316e-02
      -2.39621118e-01 -2.46619731e-02 3.22952062e-01 -6.99549392e-02
      3.95990163e-01 4.82387990e-02 -2.16297045e-01 -2.33221576e-01
      -3.00473094e-01 1.39174266e-02 2.96555728e-01 1.21829480e-01
      1.06306449e-01 -1.01103755e-02 2.64893413e-01 -2.64020681e-01
      -1.91268772e-02 -2.18350962e-02 8.52032378e-02 -3.21809739e-01
      1.00034036e-01 -1.75014157e-02 -1.22641608e-01 1.23364270e-01
      -9.29048583e-02 5.96135557e-02 -1.07545547e-01 1.72034472e-01</_>
    <_>
      -2.77777374e-01 8.64773452e-01 -2.52501607e-01 8.74026641e-02
      2.08821833e-01 6.76833764e-02 -8.09591413e-02 -5.99854216e-02
      1.43444212e-02 9.18109268e-02 -1.02235034e-01 1.42192496e-02
      1.13646559e-01 2.69262791e-01 -4.08201590e-02 -1.22932255e-01
      5.53065352e-02 7.15687796e-02 2.30088666e-01 -1.57554135e-01
      -1.51654497e-01 -1.94779504e-02 1.98861361e-01 -1.56448245e-01
      1.40010029e-01 1.15913600e-01 7.67838433e-02 -1.60669863e-01
      -3.15852053e-02 9.19561386e-02 -1.38900176e-01 3.75222676e-02
      -1.37769729e-01 1.57662660e-01 -7.27812573e-02 3.03644329e-01</_>
    <_>
      1.35027289e+00 -5.55988669e-01 -1.51909268e+00 2.22408012e-01
      6.03176653e-01 2.73548245e-01 1.52020916e-01 1.34896696e-01
      2.46364102e-01 -1.78289086e-01 -4.72468257e-01 1.17490612e-01
      -1.20125644e-01 1.75088458e-02 -1.06584623e-01 1.30820544e-02
      9.98308137e-02 1.22217581e-01 1.78302929e-01 -1.32575899e-01
      -2.79596835e-01 9.48306173e-02 3.01636886e-02 -6.32227957e-02
      -1.38696626e-01 1.84187755e-01 -1.09542251e-01 -2.42346600e-01
      -6.73544779e-02 1.12533987e-01 1.34646688e-02 1.34811148e-01
      -4.83025871e-02 4.17581834e-02 -1.19277529e-01 1.38450280e-01</_>
    <_>
      -5.73201627e-02 3.55683677e-02 -9.86122042e-02 1.01732962e-01
      9.44581553e-02 5.95096610e-02 -1.12814054e-01 3.85594927e-02
      -1.48126185e-01 6.81569427e-02 4.66021746e-02 1.38335833e-02
      2.31824461e-02 1.72796801e-01 -2.13278696e-01 5.65315597e-02
      5.67490682e-02 -1.76430168e-03 7.64911771e-02 -9.80395079e-03
      4.28290851e-03 7.78922737e-02 2.12976530e-01 -1.71344429e-01
      4.61331867e-02 3.10697220e-02 1.24515809e-01 -1.67196497e-01
      -2.79772673e-02 -6.65626675e-02 -2.07381155e-02 1.42110288e-01
      4.45586658e-04 1.95759937e-01 -2.02801507e-02 1.64200142e-01</_>
    <_>
      1.86548948e-01 -1.89766109e-01 -5.24290884e-03 2.14093979e-02
      7.08014965e-02 -1.38523178e-02 -1.14663104e-02 -2.13329699e-02
      -8.06011334e-02 8.09450224e-02 2.81649479e-03 1.38028100e-01
      1.66296605e-02 1.42634690e-01 -1.29294828e-01 -8.02499354e-02
      8.48085284e-02 9.29272547e-02 1.56983331e-01 -1.37692073e-03
      -8.41747597e-03 -3.93302068e-02 1.51904255e-01 -5.88716418e-02
      5.95601760e-02 1.37784123e-01 -4.43011709e-02 -2.12197497e-01
      -3.48168984e-02 -1.28308669e-01 -2.72464957e-02 1.17166981e-01
      -5.87457903e-02 2.90897340e-01 -8.78931582e-02 2.10719645e-01</_>
    <_>
      -8.70861299e-03 8.04477895e-04 6.30591065e-02 -3.42863835e-02
      9.20175388e-02 9.82569233e-02 1.32951848e-02 5.17210551e-02
      7.91429281e-02 1.80903822e-02 2.15906184e-02 5.13929278e-02
      9.40241218e-02 -1.89190768e-02 1.10735409e-02 5.18852137e-02
      8.47885907e-02 1.40720800e-01 1.07686765e-01 1.21395076e-02
      7.12388530e-02 -2.84160767e-02 3.27242129e-02 4.02534120e-02
      1.51992291e-01 1.88655593e-02 7.12639093e-02 -1.28569305e-01
      -7.99594000e-02 -1.34155266e-02 -5.92206605e-02 7.61974230e-02
      -5.65266013e-02 1.68372035e-01 -8.38107243e-02 2.31544167e-01</_>
    <_>
      -2.58810788e-01 4.99771357e-01 -2.65603065e-01 6.32628575e-02
      2.26382017e-01 7.08959326e-02 -2.08481580e-01 -2.19682744e-03
      -1.54331878e-01 2.51375526e-01 1.90559996e-03 -4.39533452e-03
      -3.68977413e-02 1.25020489e-01 -4.59948517e-02 -2.40831137e-01
      7.00712800e-02 -6.99945688e-02 2.43910477e-01 1.30264476e-01
      2.64346916e-02 -2.50492282e-02 6.58599213e-02 2.16182359e-02
      6.12578578e-02 6.98060691e-02 -1.25007600e-01 -1.00394011e-01
      1.25743877e-02 -2.04749748e-01 -1.41572192e-01 8.36320594e-02
      -8.17606077e-02 7.79111832e-02 -2.72457302e-02 1.56111374e-01</_>
    <_>
      1.92615008e+00 1.64289400e-02 1.74161873e-03 -4.50423688e-01
      2.00286078e+00 -1.52780995e-01 -9.28109065e-02 2.87950963e-01
      3.18559498e-01 -1.39743015e-01 1.52020648e-01 -2.70145059e-01
      1.63485378e-01 4.69106808e-02 -5.28311551e-01 -6.07131561e-03
      1.41001925e-01 2.27900714e-01 -1.47403136e-01 -1.10684810e-02
      -1.31210789e-01 5.33050559e-02 7.97828063e-02 -1.93279222e-01
      -9.24388766e-02 2.77244728e-02 -1.52882054e-01 -2.42707059e-01
      7.77764842e-02 7.40736350e-02 -2.47239135e-02 5.56799807e-02
      -2.77222246e-01 2.33716175e-01 2.51656342e-02 1.77022114e-01</_>
    <_>
      -8.26452896e-02 2.18382746e-01 -3.27044092e-02 9.77729037e-02
      9.83687639e-02 8.58316850e-03 -1.74697768e-02 -2.88240425e-02
      5.79558127e-02 6.73195859e-03 7.30746090e-02 1.67468950e-01
      -3.45987491e-02 1.10496305e-01 -3.99635658e-02 -5.18786982e-02
      -7.92587269e-03 1.29556447e-01 1.24638975e-01 -8.80138576e-02
      -2.05741487e-02 1.97117310e-02 -1.21261245e-02 -1.23455167e-01
      3.56010310e-02 1.10815629e-01 1.28247067e-01 -2.54050940e-01
      -8.53096396e-02 -7.68398643e-02 -7.78382197e-02 1.26785725e-01
      -6.62690327e-02 1.44598871e-01 -9.37676355e-02 1.03827752e-01</_>
    <_>
      9.22267884e-02 -5.15381945e-03 1.29845574e-01 7.79601261e-02
      1.20168254e-01 -6.16048090e-02 7.95495361e-02 -7.20829368e-02
      1.37430221e-01 8.95665661e-02 4.56035845e-02 1.13894679e-01
      -6.91456348e-03 1.07400581e-01 1.28871929e-02 -7.66104162e-02
      -2.23273854e-03 1.16673276e-01 3.35752331e-02 -7.67142177e-02
      -2.67533325e-02 -1.76136196e-02 4.97331843e-02 -1.24343634e-01
      1.48244813e-01 1.17549047e-01 5.04316278e-02 -6.75237328e-02
      -2.07978711e-02 -5.04598692e-02 -1.39608949e-01 1.82889163e-01
      -8.38726461e-02 1.06301807e-01 -7.77190477e-02 2.15466917e-01</_>
    <_>
      -2.04066157e-01 5.59374213e-01 -2.06248328e-01 9.60439742e-02
      1.35267809e-01 1.31277367e-01 -9.23317373e-02 7.77506176e-03
      -1.63028419e-01 -5.19685932e-02 6.70401379e-02 2.41164476e-01
      -6.44935966e-02 1.72527581e-01 3.55360955e-02 -1.77962277e-02
      1.04136646e-01 1.70850828e-01 4.43893485e-02 7.96945989e-02
      -8.56873766e-02 1.15729406e-01 -2.78554484e-02 -3.35798562e-02
      6.05915785e-02 2.89206535e-01 1.93875775e-01 -2.00139433e-01
      -8.48820359e-02 -3.94563116e-02 -3.71321850e-02 1.64866939e-01
      -1.72366887e-01 2.09491789e-01 2.27034418e-03 2.07764968e-01</_>
    <_>
      1.84456751e-01 1.04631014e-01 9.02788155e-03 1.21176265e-01
      6.37419373e-02 5.04257306e-02 -8.20192788e-03 1.14869475e-01
      -1.54670430e-02 -6.83244392e-02 1.08337356e-02 2.37166099e-02
      -1.86917540e-02 4.82371897e-02 -1.31818280e-01 -5.94458319e-02
      -7.28593692e-02 8.67942944e-02 7.83705711e-02 -1.75183509e-02
      -1.53160999e-02 2.50288695e-01 4.48491126e-02 -9.23354998e-02
      2.28173360e-02 9.71832052e-02 -8.70742127e-02 -5.65929376e-02
      -5.46020158e-02 -5.70068210e-02 -6.94686472e-02 4.08804752e-02
      -2.87598055e-02 2.16211975e-01 3.00864317e-02 2.10274413e-01</_>
    <_>
      -1.45924538e-02 3.40669081e-02 1.42130477e-03 4.99107242e-02
      8.37453008e-02 2.81709731e-02 -7.77345821e-02 5.52047566e-02
      -6.54307827e-02 8.38992000e-02 -7.83366710e-02 4.03633825e-02
      4.92758118e-03 2.11331192e-02 -6.37050122e-02 -7.36915544e-02
      4.95356657e-02 -1.76557098e-02 1.44563645e-01 -5.24592549e-02
      8.95873178e-03 2.16355547e-02 5.46056964e-02 -2.82059927e-02
      6.18847497e-02 4.48907912e-02 3.82150873e-03 -2.37568155e-01
      -4.69581597e-02 -1.26833066e-01 -1.65659085e-01 4.79639024e-02
      -7.63952434e-02 1.81805596e-01 -3.69802490e-02 1.68234900e-01</_>
    <_>
      3.25861955e+00 -1.93228349e-01 -1.32242024e-01 -5.16612828e-01
      1.46161807e+00 2.93195844e-01 -3.31726879e-01 -4.54828218e-02
      3.10618915e-02 1.94227137e-02 -3.90687943e-01 9.47273150e-02
      -2.47126132e-01 -4.02221689e-03 -6.51386902e-02 -2.48893484e-01
      -1.37128815e-01 2.34347150e-01 -5.64068509e-03 1.40604023e-02
      -2.50954032e-02 1.40506804e-01 1.27323151e-01 -1.46560043e-01
      1.07408166e-01 1.56711265e-01 -1.18651941e-01 -1.56583160e-01
      1.13602780e-01 3.46653573e-02 1.97092947e-02 7.15949237e-02
      -3.04880589e-02 2.14401439e-01 -5.54670282e-02 1.42530948e-01</_>
    <_>
      -5.89218326e-02 7.60284858e-03 2.09466424e-02 4.24468145e-02
      -6.30913228e-02 -5.31792231e-02 -8.98096412e-02 -1.21960454e-02
      3.50984447e-02 8.80317669e-03 -9.08098593e-02 -1.37029700e-02
      5.12925982e-02 1.60147741e-01 -7.83044025e-02 -7.14457184e-02
      9.54054445e-02 -2.51215566e-02 1.92294583e-01 8.26526508e-02
      -6.61785975e-02 1.83157161e-01 4.09697667e-02 -3.93468849e-02
      6.24675825e-02 1.38539746e-01 4.96333353e-02 -5.83397038e-02
      1.47833396e-02 -1.03320777e-01 -1.39825702e-01 4.83392999e-02
      9.29661281e-03 1.86435327e-01 -5.95822893e-02 1.54899985e-01</_>
    <_>
      7.51942992e-02 2.55074631e-02 9.28855166e-02 3.24274562e-02
      -2.11444367e-02 5.72254770e-02 -1.94592364e-02 4.72707152e-02
      -1.64334029e-01 -9.86384153e-02 -8.76895413e-02 1.63785499e-02
      3.53848152e-02 -1.04300037e-01 -7.56326094e-02 -2.19722316e-02
      3.65677872e-03 -3.75996977e-02 5.92465028e-02 -1.59778949e-02
      5.52327260e-02 3.28150764e-02 8.51712823e-02 -8.44625011e-02
      -2.96644736e-02 1.00745976e-01 1.06078982e-02 -1.22030653e-01
      -7.38583654e-02 -9.65241343e-02 -9.74796042e-02 -6.54527023e-02
      -1.12547800e-01 2.86711037e-01 -7.12712035e-02 1.95640698e-01</_>
    <_>
      -5.86040132e-02 1.13161713e-01 -1.86026301e-02 8.05513635e-02
      1.44569129e-01 -3.76179144e-02 -1.46113545e-01 2.34510843e-02
      9.07063186e-02 1.10319711e-01 -2.40791305e-05 3.45721468e-02
      3.24511752e-02 1.05187044e-01 -8.05348903e-02 2.87287426e-03
      8.23015124e-02 -1.87689234e-02 1.44314483e-01 -5.09266136e-03
      1.79580078e-02 1.06399067e-01 1.31769642e-01 -9.49763283e-02
      2.26933490e-02 8.33771750e-02 -5.97971072e-03 -1.56285793e-01
      -4.92261611e-02 -1.14022732e-01 -7.63579011e-02 1.33997366e-01
      -1.08827226e-01 1.87246442e-01 -1.17197327e-01 1.99981704e-01</_>
    <_>
      9.48414356e-02 -9.77077037e-02 5.07183298e-02 1.89552316e-03
      1.09973282e-01 2.96575530e-03 8.96309465e-02 -1.01205586e-02
      2.47903597e-02 1.29248574e-01 -1.05216891e-01 1.01120718e-01
      -6.20600395e-02 3.53960618e-02 -8.74383077e-02 4.84249406e-02
      1.00788847e-01 1.32404596e-01 1.77645326e-01 1.52675286e-02
      -1.16421375e-02 4.88800695e-03 1.74134299e-01 -3.19615528e-02
      1.88258559e-01 7.42533356e-02 9.17249173e-03 -2.19765902e-01
      2.15692278e-02 -8.29794109e-02 -1.60333842e-01 6.83951527e-02
      -1.09167933e-01 2.57490724e-01 -1.33583412e-01 1.29307389e-01</_>
    <_>
      4.61169749e-01 2.23007835e-02 -5.21157682e-01 3.47950131e-01
      -2.54332572e-01 2.51683891e-01 -1.52880967e-01 -3.12227339e-01
      4.95462120e-02 -2.06870928e-01 5.10604009e-02 -1.11081399e-01
      6.01385422e-02 -1.29138023e-01 -1.16581276e-01 -1.69471633e-02
      2.20435321e-01 2.15100572e-01 3.04852240e-02 -2.11023241e-01
      -4.79491465e-02 -1.31433666e-01 -1.08312182e-02 -1.85316250e-01
      1.30689263e-01 -1.04761884e-01 -1.31427078e-02 1.96448937e-02
      -1.74534827e-01 7.47191161e-02 -2.01520056e-01 1.23208510e-02
      1.73208356e-01 2.37742156e-01 -4.28229868e-02 2.28657633e-01</_>
    <_>
      2.33580396e-01 -2.66348291e-02 9.37672034e-02 1.38049036e-01
      1.64049700e-01 2.23264545e-01 -4.91086543e-02 1.39483541e-01
      -2.65662253e-01 -1.34459168e-01 5.13324849e-02 1.48277462e-01
      -5.37109226e-02 9.85576659e-02 -1.78662434e-01 -9.20615047e-02
      8.78766328e-02 -2.19321344e-02 4.48686443e-02 -1.52816428e-02
      5.51242381e-03 1.87754370e-02 1.56032696e-01 -9.81310196e-03
      7.33507276e-02 7.57949799e-02 -8.68873075e-02 -1.94793701e-01
      -1.46971494e-01 -9.07774642e-02 -1.01503417e-01 4.27669100e-02
      -8.85806009e-02 1.83715269e-01 -2.17798520e-02 2.44159743e-01</_>
    <_>
      1.21692568e-01 -2.31137071e-02 -3.92215289e-02 1.91010013e-01
      3.11962396e-01 8.46906975e-02 -1.14084519e-01 -4.36122231e-02
      2.24440098e-02 1.11255787e-01 -9.70963985e-02 7.34043792e-02
      -3.05910818e-02 9.52373201e-04 -2.88787603e-01 4.83472124e-02
      2.19340213e-02 3.29785980e-02 9.27009657e-02 7.30678365e-02
      4.02719416e-02 -4.78308722e-02 1.14389539e-01 -8.94027650e-02
      1.01394884e-01 2.22567588e-01 -1.46564052e-01 -1.20024145e-01
      -5.96461631e-02 2.26462130e-02 -3.21812741e-02 1.49786085e-01
      -1.38833910e-01 1.56271920e-01 -1.45934850e-01 2.41398662e-01</_>
    <_>
      1.23351999e-01 -2.48251736e-01 -2.44864151e-02 -3.43033522e-02
      1.06579319e-01 3.21205817e-02 -1.21514253e-01 2.17300747e-02
      -1.45178493e-02 1.01755351e-01 -2.10604593e-02 -9.00141001e-02
      4.65100557e-02 2.05200370e-02 1.28470603e-02 -5.88370226e-02
      1.94865674e-01 -9.75808501e-03 1.95048302e-01 -3.28838825e-02
      3.81389968e-02 -3.49730030e-02 1.84171781e-01 -6.83584660e-02
      -2.81948894e-02 1.37927160e-01 -5.79888448e-02 -1.50023639e-01
      -4.85072564e-03 -7.46936351e-02 -5.85328937e-02 2.93220188e-02
      -6.10623956e-02 2.82360047e-01 -1.05289578e-01 1.95884764e-01</_>
    <_>
      -1.14030115e-01 1.38344795e-01 -1.03583053e-01 5.04748262e-02
      1.19953163e-01 1.00869805e-01 -1.40717596e-01 6.94248602e-02
      -1.82877705e-01 7.17020407e-02 7.91016966e-02 6.73609748e-02
      -4.18952964e-02 1.13880828e-01 -2.32371427e-02 -3.57873365e-02
      3.40293497e-02 1.01379469e-01 1.47228464e-01 -4.97742668e-02
      5.93900168e-03 1.49476156e-02 9.42215994e-02 -4.75993082e-02
      2.47428175e-02 1.00139529e-01 -3.16527151e-02 -1.01104468e-01
      -4.43216674e-02 -2.92529128e-02 -1.06783025e-01 7.51995370e-02
      -5.02321124e-02 8.34797025e-02 -7.77264908e-02 2.01551095e-01</_>
    <_>
      9.94842052e-02 -5.17550297e-03 1.21356525e-01 5.28595634e-02
      5.03922533e-03 -4.61469553e-02 7.09216052e-04 -7.95669705e-02
      1.35546982e-01 1.56606704e-01 -5.16626388e-02 -9.73606855e-02
      1.95467807e-02 5.05983196e-02 -9.09027010e-02 -7.25856870e-02
      9.27790031e-02 1.02166787e-01 7.75273237e-03 7.38631040e-02
      -1.06603447e-02 6.93433434e-02 1.00912228e-01 -4.84527051e-02
      1.56272091e-02 9.57936570e-02 6.51550665e-02 -1.76862806e-01
      -1.01154884e-02 -5.24690971e-02 -7.53681287e-02 1.60869285e-01
      7.12216925e-03 1.58118695e-01 1.59550793e-02 1.33685201e-01</_>
    <_>
      -2.64614999e-01 7.42767036e-01 -1.63834363e-01 7.17242137e-02
      2.21814945e-01 1.34929270e-01 -9.14467201e-02 -7.33704865e-02
      -1.90100621e-03 -5.02141863e-02 -6.38480932e-02 5.30728102e-02
      7.16088787e-02 -7.30504468e-02 -2.08687335e-02 5.09635843e-02
      -4.24918868e-02 -6.35568127e-02 2.15086676e-02 1.34832799e-01
      -1.44680753e-01 2.28351764e-02 1.31779954e-01 -8.51612017e-02
      1.10449135e-01 1.19907871e-01 -5.10588177e-02 -2.25230023e-01
      -5.98833375e-02 -2.66172171e-01 -1.60828717e-02 1.86805204e-01
      -6.48675710e-02 2.06614509e-01 -2.53077745e-02 2.12700576e-01</_>
    <_>
      -1.06160000e-01 7.20774233e-02 -9.60467160e-02 5.90934455e-02
      1.51080698e-01 9.73063111e-02 -7.70880505e-02 1.02605142e-01
