<?xml version="1.0"?>
<opencv_storage>
<opencv_ml_svm>
  <format>3</format>
  <svmType>C_SVC</svmType>
  <kernel>
    <type>RBF</type>
    <gamma>5.0625000000000009e-01</gamma></kernel>
  <C>1.0000000000000001e-01</C>
  <term_criteria><iterations>100</iterations></term_criteria>
  <var_count>36</var_count>
  <class_count>2</class_count>
  <class_labels type_id="opencv-matrix">
    <rows>2</rows>
    <cols>1</cols>
    <dt>i</dt>
    <data>
      0 1</data></class_labels>
  <sv_total>200</sv_total>
  <support_vectors>
    <_>
      -6.65680245e-02 1.74836829e-01 1.56400315e-02 -3.59357148e-02
      7.45503651e-03 1.13063827e-01 1.47241265e-01 -2.48357933e-02
      -1.41266808e-01 6.97599724e-02 -6.50823908e-03 8.87218565e-02
      6.22039661e-03 -8.25177599e-03 -2.33365521e-02 4.90634553e-02
      1.67257357e-02 -6.92382222e-03 2.18699016e-02 -2.78959237e-02
      -3.94087099e-02 -1.04627870e-02 -4.27240593e-04 6.78558508e-03
      8.64678249e-03 -5.70975011e-03 -8.28852970e-03 1.50743974e-02
      -1.04096150e-02 -4.98214096e-04 1.20573714e-02 2.17192229e-02
      1.95847135e-02 9.09332652e-03 7.17760762e-03 1.66479215e-01</_>
    <_>
      3.40109825e-01 2.31377259e-02 6.64385632e-02 -4.09339331e-02
      -5.57253603e-03 1.11567713e-01 1.25484049e-01 -2.89886389e-02
      -1.31464735e-01 7.25558028e-02 4.16122237e-03 9.48488936e-02
      8.60478356e-03 -1.06832748e-02 -2.28519645e-02 5.27074598e-02
      1.82556529e-02 -6.21531811e-03 2.30677985e-02 -3.09442133e-02
      -3.90393883e-02 -1.48109905e-02 2.45246897e-03 6.19488675e-03
      9.24423523e-03 -5.85755007e-03 -5.40444301e-03 1.49672721e-02
      -9.95110068e-03 -1.10740459e-03 1.14043690e-02 2.15479322e-02
      1.96333230e-02 8.95560998e-03 6.39075367e-03 1.66757464e-01</_>
    <_>
      -2.43155216e-03 -3.44565982e-04 -5.72016044e-03 -1.19645465e-02
      1.63014811e-02 1.07602954e-01 1.39222860e-01 -1.97759382e-02
      -1.36255473e-01 7.16178939e-02 -7.66326999e-03 9.30748731e-02
      1.07484739e-02 -6.49556471e-03 -2.27613598e-02 5.10948189e-02
      2.00729668e-02 -4.45668073e-03 2.04241630e-02 -2.85306033e-02
      -3.84521745e-02 -1.24465115e-02 1.40378589e-03 6.78620441e-03
      9.40819737e-03 -7.80240074e-03 -8.08765739e-03 1.69583615e-02
      -1.03225959e-02 -1.24558737e-03 1.18790744e-02 2.12396346e-02
      1.84411108e-02 9.19217523e-03 7.15990691e-03 1.66633353e-01</_>
    <_>
      4.70966101e-02 2.47475263e-02 7.42242932e-02 6.02634282e-05
      -4.20566043e-03 1.18473478e-01 1.12067468e-01 -3.21763307e-02
      -1.28100395e-01 6.86442330e-02 -1.32945292e-02 8.81738290e-02
      8.18562135e-03 -4.41432511e-03 -2.33692806e-02 5.11483811e-02
      1.82907488e-02 -9.74579342e-03 2.10161489e-02 -2.77050231e-02
      -3.79492529e-02 -1.51435640e-02 -3.47867026e-04 6.44502370e-03
      8.86902399e-03 -5.66985458e-03 -6.12329971e-03 1.57679543e-02
      -9.15339030e-03 -8.89385527e-04 1.15005877e-02 2.23684460e-02
      2.03726087e-02 8.97918735e-03 7.35481130e-03 1.66506633e-01</_>
    <_>
      3.31628788e-03 2.15837471e-02 8.35048966e-03 -7.17594568e-03
      2.64583118e-02 1.07943602e-01 1.41950861e-01 -1.81598552e-02
      -1.32255286e-01 6.84721470e-02 -5.27988002e-03 8.66678804e-02
      1.00598242e-02 -4.23320476e-03 -1.94992218e-02 5.10469005e-02
      1.55982142e-02 -5.80130098e-03 2.39247978e-02 -2.88636200e-02
      -3.70938927e-02 -1.35023855e-02 5.51289340e-05 6.76943175e-03
      8.61261413e-03 -6.37580641e-03 -6.59965491e-03 1.54104372e-02
      -1.01292208e-02 -1.82324473e-03 1.07193626e-02 2.13463679e-02
      2.00963560e-02 8.29287153e-03 7.17097754e-03 1.66755825e-01</_>
    <_>
      6.48385333e-03 7.54887834e-02 5.98164648e-02 -1.49258301e-02
      -7.56738428e-03 1.15709007e-01 1.41250387e-01 -2.02586539e-02
      -1.32696718e-01 6.43669590e-02 -7.56998779e-03 8.92431438e-02
      7.22655933e-03 -6.33381400e-03 -1.95321869e-02 5.24360277e-02
      1.99395716e-02 -8.98798089e-03 2.19930783e-02 -2.80173495e-02
      -3.86023931e-02 -1.70647707e-02 4.14063361e-05 6.78788964e-03
      1.01911426e-02 -7.64366565e-03 -8.28459300e-03 1.62980855e-02
      -1.02574592e-02 -3.23419285e-04 1.21074589e-02 2.20292322e-02
      2.03811936e-02 9.15252604e-03 7.48327421e-03 1.66468561e-01</_>
    <_>
      -2.43467558e-02 3.96384820e-02 1.48474704e-02 -1.50474366e-02
      5.99646661e-03 1.09508850e-01 1.37533978e-01 -2.29084622e-02
      -1.41428918e-01 6.57502785e-02 -1.15074432e-02 8.80268812e-02
      4.80743591e-03 -1.00887325e-02 -2.17973292e-02 5.26386127e-02
      2.33294740e-02 -5.55489445e-03 2.21595597e-02 -2.60936413e-02
      -4.01238203e-02 -1.44489668e-02 1.48486186e-04 6.74447184e-03
      9.90729220e-03 -7.08311750e-03 -6.73216162e-03 1.46677699e-02
      -9.00666602e-03 -7.34425441e-04 1.21940197e-02 2.14580353e-02
      1.99283212e-02 8.41124821e-03 6.67213509e-03 1.66769698e-01</_>
    <_>
      3.79570499e-02 -5.16732484e-02 -3.59795318e-04 -9.96136572e-03
      1.08747752e-02 1.29325986e-01 1.37917161e-01 -1.89832114e-02
      -1.37733221e-01 6.87209219e-02 -5.08846901e-03 8.96143094e-02
      5.55300992e-03 -5.78110013e-03 -2.06717234e-02 5.11653721e-02
      2.07804199e-02 -5.06833429e-03 2.18244251e-02 -2.94167884e-02
      -3.65505405e-02 -1.45734102e-02 1.54314644e-03 6.74969098e-03
      9.05185193e-03 -6.29122835e-03 -6.33162726e-03 1.56513192e-02
      -1.08867614e-02 4.65635647e-04 1.17629301e-02 2.09322162e-02
      1.94691457e-02 9.40609258e-03 6.78919349e-03 1.66846842e-01</_>
    <_>
      -7.61197880e-03 6.64480403e-02 2.00723670e-02 -2.83707213e-02
      1.92243624e-02 1.24436997e-01 1.38977617e-01 -2.27307212e-02
      -1.30069256e-01 6.57300428e-02 -5.66484220e-03 8.78707618e-02
      6.97979517e-03 -5.44623891e-03 -2.19520535e-02 5.23449779e-02
      1.78503674e-02 -8.60857591e-03 2.50825752e-02 -3.00467052e-02
      -3.56833152e-02 -1.44421160e-02 1.34775543e-03 6.36621192e-03
      1.05314692e-02 -5.38565079e-03 -6.90631242e-03 1.52876331e-02
      -8.33111629e-03 -1.01098348e-03 1.21616330e-02 2.09809355e-02
      1.95008237e-02 8.34121462e-03 7.39978720e-03 1.66721344e-01</_>
    <_>
      6.03467450e-02 -4.48998883e-02 -9.03101638e-03 -1.92831568e-02
      9.92216449e-03 1.23638779e-01 1.42542019e-01 -2.08452810e-02
      -1.38003454e-01 6.85990304e-02 -4.52714832e-03 9.00459737e-02
      6.81778137e-03 -5.90520585e-03 -2.23338213e-02 5.02674617e-02
      1.93219539e-02 -4.02533635e-03 2.08439361e-02 -2.96204742e-02
      -3.81576754e-02 -1.14747584e-02 -1.69674028e-03 5.50321070e-03
      1.03313234e-02 -8.28659441e-03 -7.95549899e-03 1.67368613e-02
      -9.24259331e-03 -9.84391780e-04 1.28876483e-02 2.13444326e-02
      2.05309354e-02 8.52659065e-03 6.78187562e-03 1.66290924e-01</_>
    <_>
      1.32348001e-01 5.52433357e-02 1.14122123e-01 -8.50501750e-03
      1.80808306e-02 1.29711315e-01 1.21004298e-01 -3.97486873e-02
      -1.42986432e-01 6.51021376e-02 -2.52825237e-04 8.68155584e-02
      9.16974712e-03 -1.23117650e-02 -1.66545641e-02 4.93032113e-02
      1.73654556e-02 -6.09221496e-03 2.12476086e-02 -2.76626963e-02
      -3.79739515e-02 -1.32478029e-02 -1.29397807e-03 6.72137178e-03
      1.52350254e-02 -6.87958999e-03 -6.41771127e-03 1.26095321e-02
      -1.02164131e-02 1.58171082e-04 1.21305697e-02 2.17766892e-02
      1.93562936e-02 8.77965149e-03 6.49147155e-03 1.66623935e-01</_>
    <_>
      -1.71816014e-02 3.37700583e-02 1.45235118e-02 -9.47709661e-03
      2.16284543e-02 1.10439405e-01 1.37423918e-01 -2.33359300e-02
      -1.36589840e-01 6.54409975e-02 -7.12275924e-03 8.48335475e-02
      7.82791432e-03 -6.46036537e-03 -2.28681155e-02 5.25049381e-02
      1.68765932e-02 -4.93861828e-03 2.00022180e-02 -2.87330020e-02
      -3.71703207e-02 -1.51507184e-02 2.62752478e-03 7.55205983e-03
      9.06127039e-03 -6.27774466e-03 -4.78707021e-03 1.49296029e-02
      -9.40690748e-03 -8.98171100e-04 1.29636200e-02 2.16581766e-02
      1.93097480e-02 9.11750644e-03 7.25859916e-03 1.66292772e-01</_>
    <_>
      1.77764222e-02 -4.92500812e-02 3.12144577e-04 -1.23513369e-02
      1.99464075e-02 1.10058300e-01 1.45969361e-01 -2.30228789e-02
      -1.34250000e-01 6.82832152e-02 -2.32562050e-03 8.70738924e-02
      9.24623106e-03 -4.74542985e-03 -2.26318911e-02 5.18211313e-02
      1.77367441e-02 -3.66991945e-03 1.95192080e-02 -2.62477566e-02
      -4.02353816e-02 -1.24926465e-02 5.80723339e-04 7.64718978e-03
      7.90944695e-03 -7.65193580e-03 -7.50567671e-03 1.54975196e-02
      -1.08651957e-02 -1.09363487e-03 1.31665878e-02 2.15825103e-02
      1.97911579e-02 8.81154276e-03 6.74559223e-03 1.66214481e-01</_>
    <_>
      4.24312949e-02 1.98228769e-02 3.48615497e-02 2.94658029e-03
      -8.96348804e-03 1.32566199e-01 1.26925528e-01 -3.12425885e-02
      -1.42925948e-01 6.90404996e-02 -7.62098236e-03 9.40659270e-02
      8.16543307e-03 -3.50304786e-03 -1.86440758e-02 5.30146770e-02
      1.97206773e-02 -6.66069891e-03 2.27417555e-02 -2.80632395e-02
      -3.57583985e-02 -1.40560111e-02 3.31918563e-04 7.22219190e-03
      9.97566525e-03 -6.68414263e-03 -6.71016099e-03 1.56007577e-02
      -1.13758296e-02 -2.94952246e-04 1.12484740e-02 2.13368293e-02
      2.01001000e-02 1.03441318e-02 7.13052833e-03 1.66551992e-01</_>
    <_>
      4.15506005e-01 -5.88994939e-03 6.81549087e-02 -3.39848474e-02
      3.64347063e-02 9.96034965e-02 1.37132660e-01 -1.73198506e-02
      -1.37326226e-01 6.84946626e-02 -3.71782505e-03 9.11196023e-02
      7.37052597e-03 -9.52497404e-03 -2.30966546e-02 5.29833436e-02
      1.82862207e-02 -4.88471100e-03 2.34444160e-02 -2.70300452e-02
      -3.74529995e-02 -1.44305825e-02 -7.36800546e-04 6.34389417e-03
      7.84366205e-03 -6.33570459e-03 -6.72879070e-03 1.71817355e-02
      -9.48026776e-03 -1.04562216e-03 1.16958404e-02 2.13660039e-02
      1.97699424e-02 8.97959340e-03 6.93855248e-03 1.66770235e-01</_>
    <_>
      5.18092662e-02 -4.78111096e-02 -7.59876193e-03 -1.80877671e-02
      9.78249963e-03 1.23564422e-01 1.44780114e-01 -2.44218055e-02
      -1.37874499e-01 6.45859912e-02 -4.49924730e-03 8.70608613e-02
      5.82846254e-03 -3.05904238e-03 -2.22928561e-02 4.96424660e-02
      1.80126559e-02 -4.54102084e-03 2.01411620e-02 -2.88387500e-02
      -3.88546661e-02 -1.18483212e-02 -6.74291456e-04 5.78270387e-03
      9.82953049e-03 -7.14933639e-03 -6.88212272e-03 1.59138720e-02
      -8.14030785e-03 -1.46608998e-03 1.10571887e-02 2.18153801e-02
      2.06243768e-02 9.76424851e-03 6.96598412e-03 1.66444272e-01</_>
    <_>
      2.62994692e-02 -3.42482552e-02 9.53062903e-04 -2.10444666e-02
      1.77491382e-02 1.13783702e-01 1.36100426e-01 -1.64491907e-02
      -1.38037488e-01 6.52218908e-02 -6.21260190e-03 8.48722681e-02
      8.03993922e-03 -6.60319300e-03 -2.50078458e-02 5.22694141e-02
      1.56080257e-02 -5.07810013e-03 2.13488825e-02 -2.71365158e-02
      -3.67306471e-02 -1.39838504e-02 1.76522508e-03 5.40552288e-03
      9.37956572e-03 -4.83360002e-03 -7.57983746e-03 1.53662562e-02
      -1.05236182e-02 -2.20529689e-03 9.93799232e-03 2.26459503e-02
      2.03482341e-02 1.04473401e-02 6.75309403e-03 1.66631982e-01</_>
    <_>
      -3.35145630e-02 8.60848725e-02 1.31213823e-02 -2.74751280e-02
      3.18501703e-02 1.05041586e-01 1.38745844e-01 -1.85367670e-02
      -1.33880332e-01 7.05492944e-02 -2.68960348e-03 9.40773934e-02
      8.80051311e-03 -7.13511975e-03 -1.92917809e-02 4.95674312e-02
      1.91534124e-02 -5.40725421e-03 1.88885406e-02 -2.67280638e-02
      -3.70281525e-02 -1.68195702e-02 1.66624540e-03 4.44234861e-03
      8.07950459e-03 -6.37215329e-03 -7.15898257e-03 1.67609807e-02
      -1.11095039e-02 -1.09432696e-03 1.15976678e-02 2.19432469e-02
      1.96425151e-02 9.60087031e-03 7.14301644e-03 1.66796803e-01</_>
    <_>
      2.72589117e-01 6.16559051e-02 6.18681982e-02 -7.57888518e-03
      -4.06611338e-02 9.01050866e-02 1.46855816e-01 -2.93644983e-02
      -1.22760266e-01 6.27261624e-02 -8.51926394e-03 9.56680626e-02
      8.86177644e-03 -9.79166664e-03 -1.75454672e-02 5.13124913e-02
      1.89222004e-02 -4.55623260e-03 2.06598360e-02 -2.96944268e-02
      -3.85866389e-02 -1.35252140e-02 2.18622340e-03 6.85944222e-03
      8.74700118e-03 -5.41424286e-03 -7.97702558e-03 1.49431154e-02
      -9.31528024e-03 -6.86671294e-04 1.26870116e-02 2.12939493e-02
      1.95303429e-02 8.93491041e-03 6.73625106e-03 1.66609973e-01</_>
    <_>
      -6.14246819e-03 6.07360490e-02 2.11517159e-02 -1.59631576e-02
      -3.35311168e-04 1.10754162e-01 1.44356787e-01 -2.34217439e-02
      -1.34496227e-01 6.83003813e-02 -5.24369907e-03 8.79056081e-02
      6.78531593e-03 -5.09163598e-03 -2.47581378e-02 5.11862375e-02
      1.93753783e-02 -5.89641370e-03 2.29149573e-02 -2.89234575e-02
      -3.61179411e-02 -1.44050820e-02 1.01192377e-03 8.40194244e-03
      9.35867429e-03 -6.66890945e-03 -6.95210090e-03 1.59970801e-02
      -7.68212648e-03 -1.32006680e-04 1.10286493e-02 2.21379809e-02
      1.96403731e-02 8.86565633e-03 7.08830543e-03 1.66684642e-01</_>
    <_>
      3.66974659e-02 -6.04204573e-02 -2.02191318e-03 -1.37896184e-02
      6.42898632e-03 1.27795726e-01 1.35890052e-01 -2.04373579e-02
      -1.33692145e-01 6.91193864e-02 -5.73316077e-03 8.78588408e-02
      5.37685677e-03 -5.30353701e-03 -2.15900876e-02 4.94911633e-02
      1.76148918e-02 -2.68564443e-03 2.21989267e-02 -2.81463098e-02
      -3.88755314e-02 -1.43189058e-02 3.91251262e-04 8.23982805e-03
      7.72212446e-03 -4.72321315e-03 -7.50799989e-03 1.48538072e-02
      -9.40189045e-03 -1.61901722e-03 1.20215164e-02 2.21841410e-02
      1.99787617e-02 1.03982966e-02 7.09219510e-03 1.66261792e-01</_>
    <_>
      4.86884832e-01 3.27572972e-02 6.87818974e-03 -3.26896347e-02
      1.68132558e-02 1.07948177e-01 1.45165592e-01 -1.91168897e-02
      -1.37895346e-01 6.43464997e-02 -8.19560513e-03 8.70050937e-02
      6.83710584e-03 -5.30207017e-03 -2.15933099e-02 4.95343208e-02
      1.89081375e-02 -6.42231479e-03 1.99892558e-02 -2.89517343e-02
      -3.55975665e-02 -1.33883525e-02 -3.39808117e-04 7.99989514e-03
      9.59450752e-03 -7.19829090e-03 -6.82326825e-03 1.54445535e-02
      -1.01713343e-02 -1.35132030e-03 1.18333399e-02 2.19735336e-02
      2.03384645e-02 9.09100473e-03 7.54109165e-03 1.66364610e-01</_>
    <_>
      6.23762965e-01 4.99844924e-02 4.81904112e-02 -3.22872065e-02
      -1.21041909e-02 1.00269549e-01 1.31482884e-01 -3.03487126e-02
      -1.19015425e-01 6.58525974e-02 -2.61146063e-03 1.01419292e-01
      1.00484081e-02 -7.92077091e-03 -1.73435193e-02 5.22875190e-02
      2.01926753e-02 -2.00348045e-03 2.20034961e-02 -2.99303792e-02
      -3.70397270e-02 -1.35038877e-02 2.86970823e-03 7.78703345e-03
      9.64372698e-03 -5.46433451e-03 -7.82704540e-03 1.37471650e-02
      -9.44854133e-03 -1.01015042e-03 1.23452563e-02 2.18350943e-02
      2.00595725e-02 8.90651159e-03 7.69711845e-03 1.66196868e-01</_>
    <_>
      -3.88851948e-02 9.50348675e-02 7.85226654e-03 -3.14778537e-02
      2.34478172e-02 1.07652202e-01 1.40451148e-01 -1.28789786e-02
      -1.41896173e-01 6.66018054e-02 -8.25811084e-03 9.28145051e-02
      1.18743414e-02 -9.53363534e-03 -2.00425610e-02 5.10538779e-02
      1.85209084e-02 -2.17250874e-03 2.21402161e-02 -2.74682194e-02
      -3.69366780e-02 -1.55187529e-02 -9.23457963e-04 5.65980747e-03
      1.02108698e-02 -6.24187943e-03 -5.96236298e-03 1.58850681e-02
      -9.33120400e-03 -6.99282042e-04 1.14415633e-02 2.13591363e-02
      1.95672587e-02 9.01314430e-03 7.31867412e-03 1.66849673e-01</_>
    <_>
      3.56530808e-02 -5.14788441e-02 4.01959382e-03 -1.23201860e-02
      1.24353077e-02 1.25660941e-01 1.38076171e-01 -1.69324428e-02
      -1.39179111e-01 6.87540099e-02 -7.02004926e-03 8.97319093e-02
      5.42811910e-03 -7.11726630e-03 -2.12909002e-02 5.19477092e-02
      1.94735788e-02 -4.66451189e-03 1.96989141e-02 -2.90997252e-02
      -3.55958901e-02 -1.43087870e-02 7.58364040e-04 5.56266122e-03
      8.91571399e-03 -5.04651759e-03 -5.97529998e-03 1.57315340e-02
      -1.17192753e-02 -3.35831573e-04 1.21886143e-02 2.26701703e-02
      1.86963025e-02 9.02326312e-03 6.97003957e-03 1.66676939e-01</_>
    <_>
      -4.90302173e-03 6.23438805e-02 1.87185537e-02 -2.58101355e-02
      2.20893789e-02 1.25805706e-01 1.37242392e-01 -1.62267666e-02
      -1.32096156e-01 7.14937225e-02 -3.50204459e-03 8.72731209e-02
      8.59751645e-03 -6.63957698e-03 -2.12322865e-02 5.17787561e-02
      1.75970811e-02 -9.64718312e-03 2.25953404e-02 -2.72265207e-02
      -3.91897559e-02 -1.39860502e-02 1.43640485e-04 6.33232063e-03
      9.95307043e-03 -6.85289269e-03 -6.41090516e-03 1.37575772e-02
      -9.64256097e-03 -6.19919971e-04 1.25316596e-02 2.08804272e-02
      1.91820394e-02 8.63398891e-03 7.31347594e-03 1.66797832e-01</_>
    <_>
      6.26702374e-03 5.59116201e-03 1.06922793e-03 -2.27413550e-02
      2.04727557e-02 1.11042909e-01 1.37433603e-01 -1.42225856e-02
      -1.40691966e-01 6.57109544e-02 -6.21665083e-03 8.76455158e-02
      7.96434190e-03 -5.10683609e-03 -1.76759306e-02 4.95130792e-02
      1.99574009e-02 -4.96405642e-03 2.10714061e-02 -2.61785239e-02
      -3.72774825e-02 -1.21249342e-02 7.91459635e-04 6.25154376e-03
      9.90836043e-03 -7.84272142e-03 -5.73986443e-03 1.50666917e-02
      -1.02407476e-02 -1.58929161e-05 1.15441326e-02 2.27480903e-02
      2.06844788e-02 8.61099456e-03 6.80149114e-03 1.66271716e-01</_>
    <_>
      -3.66110653e-02 8.34880397e-02 1.76415406e-02 -2.88205296e-02
      2.79544462e-02 1.00782104e-01 1.40034452e-01 -1.81088168e-02
      -1.39380917e-01 6.53383732e-02 -8.48888699e-03 9.12269950e-02
      8.37130472e-03 -1.22911930e-02 -1.84988789e-02 5.11120781e-02
      2.01727338e-02 -4.92103118e-03 1.96540318e-02 -2.62883101e-02
      -3.92789133e-02 -1.25213480e-02 3.51592957e-04 7.93582760e-03
      9.83402319e-03 -6.70219213e-03 -5.85530419e-03 1.65285207e-02
      -9.50083323e-03 -5.19678055e-04 1.17829069e-02 2.11853646e-02
      1.96460281e-02 8.75531323e-03 7.00531946e-03 1.66590154e-01</_>
    <_>
      4.15506005e-01 -5.88994939e-03 6.81549087e-02 -3.39848474e-02
      3.64347063e-02 9.96034965e-02 1.37132660e-01 -1.73198506e-02
      -1.37326226e-01 6.84946626e-02 -3.71782505e-03 9.11196023e-02
      7.37052597e-03 -9.52497404e-03 -2.30966546e-02 5.29833436e-02
      1.82862207e-02 -4.88471100e-03 2.34444160e-02 -2.70300452e-02
      -3.74529995e-02 -1.44305825e-02 -7.36800546e-04 6.34389417e-03
      7.84366205e-03 -6.33570459e-03 -6.72879070e-03 1.71817355e-02
      -9.48026776e-03 -1.04562216e-03 1.16958404e-02 2.13660039e-02
      1.97699424e-02 8.97959340e-03 6.93855248e-03 1.66770235e-01</_>
    <_>
      -2.54463255e-02 8.64833295e-02 2.25438792e-02 -2.79714391e-02
      1.42610250e-02 1.02005675e-01 1.37867719e-01 -3.00897844e-02
      -1.40552536e-01 6.37348667e-02 -7.88541790e-03 8.52780193e-02
      7.49675184e-03 -4.85132495e-03 -1.82494950e-02 5.15305959e-02
      1.91470683e-02 -5.84725011e-03 2.00150069e-02 -2.96711177e-02
      -3.68696377e-02 -1.41911255e-02 3.09976819e-03 9.12096258e-03
      7.09243817e-03 -4.11487697e-03 -5.99444099e-03 1.47187030e-02
      -1.02299582e-02 -7.32820306e-04 1.11524416e-02 2.19283197e-02
      1.99846197e-02 9.55228135e-03 6.91003166e-03 1.66538388e-01</_>
    <_>
      4.92463797e-01 4.68645282e-02 4.49718302e-03 -2.73257606e-02
      2.42831632e-02 1.07558064e-01 1.42361224e-01 -1.72527544e-02
      -1.39411137e-01 6.86189830e-02 -8.96677561e-03 8.71930718e-02
      8.03180132e-03 -5.90140838e-03 -2.07060184e-02 5.05118966e-02
      1.82453990e-02 -6.54372806e-03 2.20030043e-02 -2.78239772e-02
      -3.59133594e-02 -1.41321188e-02 -7.65795819e-04 7.71460263e-03
      9.99172591e-03 -6.67794142e-03 -8.10920168e-03 1.50978584e-02
      -9.87897906e-03 4.67293758e-05 1.15287825e-02 2.11927332e-02
      1.98070891e-02 8.62833485e-03 7.28924526e-03 1.66852236e-01</_>
    <_>
      4.97368211e-03 4.33809706e-04 3.94919747e-03 -2.17876602e-02
      1.73677318e-02 1.11824997e-01 1.42511219e-01 -2.41647642e-02
      -1.27807915e-01 6.44228905e-02 -5.60382567e-03 9.04957727e-02
      5.60630066e-03 -8.40092450e-03 -2.16775201e-02 4.99622822e-02
      1.91507656e-02 -3.58963036e-03 2.11680252e-02 -2.86091659e-02
      -3.86959873e-02 -1.22093605e-02 -1.00923923e-03 7.04517914e-03
      8.82834941e-03 -7.84271304e-03 -7.85304140e-03 1.77569315e-02
      -9.33594909e-03 -2.60471570e-04 1.31721795e-02 2.08010487e-02
      1.99814904e-02 8.66345409e-03 7.15304026e-03 1.66318819e-01</_>
    <_>
      -6.71438919e-03 -7.85487425e-03 2.87403399e-03 -1.49424849e-02
      1.86612792e-02 1.03539951e-01 1.30711079e-01 -1.81353595e-02
      -1.48735285e-01 6.27219006e-02 -6.34626532e-03 8.94678384e-02
      9.99632105e-03 -7.40455743e-03 -2.33383011e-02 5.24579175e-02
      2.05851644e-02 -5.41767757e-03 2.09128689e-02 -2.75031831e-02
      -3.88148502e-02 -1.26932366e-02 4.64505312e-04 7.88170937e-03
      8.97446927e-03 -5.08786412e-03 -7.00408919e-03 1.45434160e-02
      -8.74670409e-03 -9.87063395e-04 1.23163098e-02 2.18695998e-02
      1.99766513e-02 8.51829257e-03 6.89684879e-03 1.66505620e-01</_>
    <_>
      6.03467450e-02 -4.48998883e-02 -9.03101638e-03 -1.92831568e-02
      9.92216449e-03 1.23638779e-01 1.42542019e-01 -2.08452810e-02
      -1.38003454e-01 6.85990304e-02 -4.52714832e-03 9.00459737e-02
      6.81778137e-03 -5.90520585e-03 -2.23338213e-02 5.02674617e-02
      1.93219539e-02 -4.02533635e-03 2.08439361e-02 -2.96204742e-02
      -3.81576754e-02 -1.14747584e-02 -1.69674028e-03 5.50321070e-03
      1.03313234e-02 -8.28659441e-03 -7.95549899e-03 1.67368613e-02
      -9.24259331e-03 -9.84391780e-04 1.28876483e-02 2.13444326e-02
      2.05309354e-02 8.52659065e-03 6.78187562e-03 1.66290924e-01</_>
    <_>
      1.63760353e-02 -1.79092567e-02 -7.38172559e-03 -1.63141266e-02
      3.24117057e-02 1.15094483e-01 1.46376148e-01 -2.40461770e-02
      -1.33049160e-01 6.91344589e-02 -3.53353424e-03 8.84882212e-02
      1.27331335e-02 -5.90162864e-03 -2.10380461e-02 5.36008477e-02
      1.90985799e-02 -4.44595329e-03 2.24531516e-02 -2.99897119e-02
      -3.71733047e-02 -1.58371534e-02 -1.11891932e-04 7.71962199e-03
      8.82390048e-03 -7.87407160e-03 -7.22842058e-03 1.54522378e-02
      -8.31207540e-03 8.71281736e-05 1.20759783e-02 2.20690984e-02
      2.06738114e-02 9.21240635e-03 7.57485908e-03 1.66260093e-01</_>
    <_>
      -3.81252728e-03 6.44459948e-02 2.25741211e-02 -1.76161062e-02
      -3.51315411e-03 1.06252469e-01 1.50591671e-01 -1.89661141e-02
      -1.33741498e-01 6.71126693e-02 -4.37346566e-03 8.72334689e-02
      7.05647469e-03 -6.25737337e-03 -2.41139326e-02 5.02610356e-02
      1.72042586e-02 -2.96592945e-03 2.18899194e-02 -2.80172210e-02
      -3.72661315e-02 -1.25883305e-02 9.88647575e-04 7.32672540e-03
      1.11065349e-02 -7.14024203e-03 -6.08008821e-03 1.58286113e-02
      -9.27343126e-03 -8.17464490e-04 1.06824748e-02 2.17273552e-02
      1.94103718e-02 8.59496929e-03 6.81062695e-03 1.66704431e-01</_>
    <_>
      1.08092241e-01 2.50800215e-02 8.91587585e-02 -5.18597430e-03
      -3.01218368e-02 1.18925296e-01 1.16996057e-01 -3.78590226e-02
      -1.31991699e-01 6.85297027e-02 1.06478883e-02 9.49627385e-02
      8.58436432e-03 -1.63651910e-02 -2.75509506e-02 5.31575419e-02
      1.76757704e-02 -6.51842076e-03 2.29300354e-02 -2.89527010e-02
      -3.89487445e-02 -1.47412745e-02 2.67269614e-04 6.02202024e-03
      1.33399414e-02 -7.26856850e-03 -4.47175046e-03 1.39217516e-02
      -9.08583216e-03 -1.00476993e-03 1.20832995e-02 2.22861934e-02
      2.07492281e-02 9.11337789e-03 6.81055617e-03 1.66232303e-01</_>
    <_>
      -1.48094418e-02 6.95253983e-02 6.35514595e-03 -3.38215455e-02
      2.66154110e-02 1.01757891e-01 1.46444350e-01 -1.94877051e-02
      -1.39693141e-01 6.40236735e-02 -2.15396332e-03 9.32117626e-02
      5.54542895e-03 -5.07662073e-03 -2.25177687e-02 5.23942746e-02
      1.67504214e-02 -6.07358431e-03 2.25159284e-02 -2.88309194e-02
      -3.71439941e-02 -1.48793124e-02 3.05678393e-03 8.24886281e-03
      1.04792444e-02 -7.44986581e-03 -5.76764159e-03 1.58798359e-02
      -8.68684985e-03 -5.43454837e-04 1.08504230e-02 2.18928382e-02
      1.91891436e-02 8.86436366e-03 7.36902747e-03 1.66641042e-01</_>
    <_>
      -4.56770370e-03 2.74082995e-03 2.65996344e-03 -1.24610933e-02
      3.42574865e-02 1.02658175e-01 1.46587446e-01 -2.80261785e-02
      -1.33987665e-01 6.50890321e-02 -5.39817475e-03 9.05627906e-02
      4.98672575e-03 -6.55591348e-03 -2.27708276e-02 5.34712039e-02
      1.77134015e-02 -6.27813861e-03 2.47144122e-02 -2.82735135e-02
      -3.60620506e-02 -1.05362469e-02 -3.66170338e-04 5.89529704e-03
      1.08856056e-02 -5.53113082e-03 -6.21107034e-03 1.65872276e-02
      -9.29181464e-03 -6.76964119e-04 1.10073742e-02 2.10570078e-02
      2.02279538e-02 8.93430319e-03 7.64465332e-03 1.66514784e-01</_>
    <_>
      1.13943834e-02 -9.03697044e-04 -1.03227131e-03 -2.02796459e-02
      2.14291625e-02 1.04374267e-01 1.41699165e-01 -2.25916989e-02
      -1.34681851e-01 6.63842633e-02 -8.58884491e-03 8.50972235e-02
      8.73274356e-03 -3.88625497e-03 -1.86047722e-02 5.24900891e-02
      1.69070549e-02 -5.86249446e-03 2.36809663e-02 -2.67499983e-02
      -3.76565643e-02 -1.49148526e-02 1.53062877e-03 6.89156121e-03
      9.06046946e-03 -7.48463254e-03 -5.96931390e-03 1.61619354e-02
      -1.01306727e-02 -6.17609592e-04 1.08125750e-02 2.16507651e-02
      1.88486185e-02 8.95157922e-03 7.80557655e-03 1.66681811e-01</_>
    <_>
      3.77369337e-02 -6.28123954e-02 -1.37213897e-03 -1.47086186e-02
      5.24836127e-03 1.23951584e-01 1.36914745e-01 -2.01304723e-02
      -1.37019619e-01 6.51591495e-02 -8.87122471e-03 8.93565640e-02
      4.30849567e-03 -4.49480209e-03 -2.31149327e-02 4.79875915e-02
      1.88314524e-02 -4.48773196e-03 2.13829596e-02 -2.87408363e-02
      -3.67558002e-02 -1.44919818e-02 7.96964974e-04 5.19492198e-03
      8.58394708e-03 -4.59928904e-03 -6.22056657e-03 1.35883866e-02
      -1.02432165e-02 -1.29751058e-03 1.19272256e-02 2.27104574e-02
      2.11355817e-02 9.54817701e-03 7.13289855e-03 1.66337758e-01</_>
    <_>
      -3.79390921e-03 8.59975722e-03 1.07422716e-03 -1.15141533e-02
      1.93000268e-02 1.16278991e-01 1.43840045e-01 -1.95036288e-02
      -1.34343326e-01 6.73610866e-02 -5.49299829e-03 8.92157480e-02
      6.70346245e-03 -5.71977161e-03 -2.20331512e-02 5.12399189e-02
      1.92454569e-02 -3.86824948e-03 2.12592613e-02 -2.88879890e-02
      -3.78037654e-02 -1.22529678e-02 -1.66202558e-03 5.93900494e-03
      9.49537009e-03 -4.43887291e-03 -7.13674445e-03 1.56031987e-02
      -7.05505628e-03 -7.80315779e-04 1.31311566e-02 2.28687450e-02
      1.93292182e-02 8.48896336e-03 7.48985168e-03 1.66252598e-01</_>
    <_>
      3.77369337e-02 -6.28123954e-02 -1.37213897e-03 -1.47086186e-02
      5.24836127e-03 1.23951584e-01 1.36914745e-01 -2.01304723e-02
      -1.37019619e-01 6.51591495e-02 -8.87122471e-03 8.93565640e-02
      4.30849567e-03 -4.49480209e-03 -2.31149327e-02 4.79875915e-02
      1.88314524e-02 -4.48773196e-03 2.13829596e-02 -2.87408363e-02
      -3.67558002e-02 -1.44919818e-02 7.96964974e-04 5.19492198e-03
      8.58394708e-03 -4.59928904e-03 -6.22056657e-03 1.35883866e-02
      -1.02432165e-02 -1.29751058e-03 1.19272256e-02 2.27104574e-02
      2.11355817e-02 9.54817701e-03 7.13289855e-03 1.66337758e-01</_>
    <_>
      3.82320844e-02 -7.76272714e-02 -1.01055307e-02 -2.47609615e-02
      6.64158724e-03 1.23492405e-01 1.42202988e-01 -1.94593295e-02
      -1.32766038e-01 6.73223734e-02 -5.74130751e-03 8.92857388e-02
      6.61750929e-03 -7.03639584e-03 -1.99090056e-02 4.64669280e-02
      1.92400794e-02 -4.30928869e-03 2.13552359e-02 -2.58657746e-02
      -3.63301001e-02 -1.35075878e-02 1.07757165e-03 8.57179705e-03
      8.02390464e-03 -7.64500489e-03 -7.13483756e-03 1.51231280e-02
      -9.43481363e-03 -2.40513895e-04 1.07697779e-02 2.21676063e-02
      2.10360680e-02 9.23550222e-03 7.01030809e-03 1.66490108e-01</_>
    <_>
      4.76620674e-01 3.01909279e-02 6.18356233e-03 -2.58734897e-02
      2.02662367e-02 1.11397579e-01 1.41528264e-01 -2.04010978e-02
      -1.39837489e-01 6.29787594e-02 -5.76466089e-03 8.79312456e-02
      4.41151205e-03 -5.03261527e-03 -2.11150236e-02 4.96932417e-02
      1.77110024e-02 -6.56500878e-03 2.09535025e-02 -2.87087318e-02
      -3.73640880e-02 -1.24747008e-02 -5.00486465e-04 7.82805216e-03
      9.49743297e-03 -7.33826123e-03 -6.71361480e-03 1.58217400e-02
      -1.06597943e-02 -4.70668776e-04 1.16803292e-02 2.23635826e-02
      2.01387424e-02 8.94572679e-03 7.45894387e-03 1.66292265e-01</_>
    <_>
      7.29183946e-03 -1.00305220e-02 -5.03085461e-03 -7.18201220e-04
      2.99898796e-02 9.47873145e-02 1.48665637e-01 -2.25608535e-02
      -1.33814901e-01 7.59140998e-02 -4.58080741e-03 9.07789990e-02
      6.82929205e-03 -4.20011394e-03 -1.87949985e-02 5.54951280e-02
      1.97387096e-02 -1.01153823e-02 2.45835707e-02 -2.69595999e-02
      -3.88496704e-02 -1.31008765e-02 -1.96323241e-03 6.69545121e-03
      1.06612686e-02 -5.87360840e-03 -7.61054177e-03 1.44565282e-02
      -8.71234573e-03 -4.67928417e-04 1.10749025e-02 2.22621690e-02
      2.04178486e-02 9.52678919e-03 7.17065064e-03 1.66620672e-01</_>
    <_>
      3.66974659e-02 -6.04204573e-02 -2.02191318e-03 -1.37896184e-02
      6.42898632e-03 1.27795726e-01 1.35890052e-01 -2.04373579e-02
      -1.33692145e-01 6.91193864e-02 -5.73316077e-03 8.78588408e-02
      5.37685677e-03 -5.30353701e-03 -2.15900876e-02 4.94911633e-02
      1.76148918e-02 -2.68564443e-03 2.21989267e-02 -2.81463098e-02
      -3.88755314e-02 -1.43189058e-02 3.91251262e-04 8.23982805e-03
      7.72212446e-03 -4.72321315e-03 -7.50799989e-03 1.48538072e-02
      -9.40189045e-03 -1.61901722e-03 1.20215164e-02 2.21841410e-02
      1.99787617e-02 1.03982966e-02 7.09219510e-03 1.66261792e-01</_>
    <_>
      -1.00696292e-02 4.57103848e-02 1.46730589e-02 -9.74462740e-03
      1.52442986e-02 1.16661675e-01 1.42627612e-01 -2.75774766e-02
      -1.40810445e-01 5.98532259e-02 -3.87566164e-03 8.88340399e-02
      8.47857445e-03 -6.22010976e-03 -2.46117748e-02 5.28818965e-02
      1.93985365e-02 -6.86730165e-03 1.84160415e-02 -2.89843082e-02
      -3.60982567e-02 -1.25100622e-02 1.04870449e-03 7.06652505e-03
      9.68447514e-03 -5.27103990e-03 -7.41107529e-03 1.69474538e-02
      -8.59393552e-03 -9.97285242e-04 1.10334679e-02 2.23187711e-02
      2.06198599e-02 9.49231721e-03 7.68954353e-03 1.66305199e-01</_>
    <_>
      -4.36623394e-03 -1.11159002e-02 -4.39970614e-03 -1.89574286e-02
      2.35126484e-02 9.39581841e-02 1.37507841e-01 -1.36198364e-02
      -1.31721437e-01 7.31139705e-02 -9.84690432e-03 8.81523415e-02
      6.95184711e-03 -6.76978100e-03 -2.25856211e-02 5.26305512e-02
      2.25974694e-02 -7.63025600e-03 2.62139048e-02 -3.02463397e-02
      -3.75221148e-02 -1.35959284e-02 5.55286009e-04 7.63009582e-03
      8.94520432e-03 -7.24342698e-03 -5.96774137e-03 1.37002645e-02
      -1.09270392e-02 -8.61430453e-05 1.16871474e-02 2.11576149e-02
      2.07461957e-02 9.16195568e-03 7.13540753e-03 1.66551813e-01</_>
    <_>
      4.02509905e-02 -5.08675240e-02 4.12059017e-03 -1.45141678e-02
      1.06133344e-02 1.24596469e-01 1.40072018e-01 -1.88114662e-02
      -1.31826311e-01 6.85059652e-02 -4.57178103e-03 8.82312655e-02
      5.66053204e-03 -5.62336342e-03 -2.14916486e-02 5.21694757e-02
      2.01133639e-02 -3.88510758e-03 2.09672526e-02 -2.88934428e-02
      -3.67962010e-02 -1.29652582e-02 2.08076602e-03 7.05961790e-03
      8.66227318e-03 -7.27079064e-03 -7.19425874e-03 1.58999451e-02
      -9.04377084e-03 7.66998419e-05 1.19863776e-02 2.12492198e-02
      1.96389463e-02 9.11268685e-03 7.00319791e-03 1.66561633e-01</_>
    <_>
      -1.12450738e-02 6.69696927e-02 2.60494407e-02 -2.10713409e-02
      1.70812979e-02 1.23028114e-01 1.39271662e-01 -2.09606122e-02
      -1.36202216e-01 6.48475662e-02 -6.89176936e-03 8.66680518e-02
      8.70179478e-03 -7.26536149e-03 -2.17445176e-02 5.14060408e-02
      1.68685373e-02 -7.93417823e-03 2.54441015e-02 -2.77723428e-02
      -3.68918814e-02 -1.30826049e-02 4.59269213e-04 7.24413106e-03
      1.07203107e-02 -4.60451236e-03 -6.81265537e-03 1.53920278e-02
      -9.56286117e-03 -1.22551539e-03 1.25357164e-02 2.12727096e-02
      1.90436207e-02 8.75802711e-03 7.30745820e-03 1.66507736e-01</_>
    <_>
      1.73253998e-01 3.22003895e-03 6.53841868e-02 -2.93083955e-02
      6.76115463e-03 1.16365880e-01 1.33047521e-01 -3.95951606e-02
      -1.34848490e-01 7.23355636e-02 7.63060059e-03 1.00283466e-01
      1.02867093e-02 -1.03868796e-02 -2.56271828e-02 5.46848215e-02
      1.83497053e-02 -5.58342924e-03 2.08904985e-02 -2.98153181e-02
      -3.98431718e-02 -1.64163336e-02 3.50393733e-04 6.61520520e-03
      1.28454631e-02 -8.15082435e-03 -6.24056347e-03 1.33498767e-02
      -7.94988405e-03 -6.21173065e-04 1.17435716e-02 2.19082162e-02
      2.01659389e-02 9.03136935e-03 6.45059487e-03 1.66715324e-01</_>
    <_>
      4.95219141e-01 3.42018194e-02 4.97276150e-03 -3.07233837e-02
      2.16516145e-02 1.11604206e-01 1.44701406e-01 -2.26131845e-02
      -1.38107285e-01 6.52520806e-02 -6.22041430e-03 8.60283449e-02
      6.51049661e-03 -6.24753302e-03 -2.19861194e-02 5.08197807e-02
      1.87283643e-02 -4.81307926e-03 1.96386240e-02 -2.89701167e-02
      -3.62855121e-02 -1.23464325e-02 -2.51477963e-04 8.55287444e-03
      9.25187953e-03 -6.68261433e-03 -6.23796647e-03 1.62057877e-02
      -9.36187245e-03 -1.26358657e-03 1.11592617e-02 2.17336025e-02
      2.03754827e-02 9.61221941e-03 7.22417049e-03 1.66390911e-01</_>
    <_>
      2.15396695e-02 1.59337849e-03 2.11048685e-03 -7.53471535e-03
      2.34296490e-02 1.15140066e-01 1.48471475e-01 -3.38390172e-02
      -1.37619957e-01 6.66748434e-02 -5.85318077e-03 8.91718715e-02
      9.66780353e-03 -6.19387161e-03 -2.21612491e-02 5.32455556e-02
      1.98453385e-02 -7.34707247e-03 2.17918456e-02 -2.86810864e-02
      -3.46131958e-02 -9.98404995e-03 9.75494797e-04 8.33980273e-03
      1.09396800e-02 -6.81594899e-03 -6.40462525e-03 1.51379500e-02
      -8.92539788e-03 -1.34737452e-03 1.13989925e-02 2.24502478e-02
      1.97373442e-02 9.46752355e-03 7.02763489e-03 1.66241363e-01</_>
    <_>
      1.84639990e-01 7.63460249e-02 5.31280003e-02 -2.34356374e-02
      -1.56818070e-02 1.04938909e-01 1.42799199e-01 -2.51222439e-02
      -1.25502855e-01 7.23499656e-02 9.25680064e-03 9.52583104e-02
      7.34547758e-03 -1.08839069e-02 -2.35914122e-02 5.21585084e-02
      1.82347875e-02 -7.39483908e-03 2.39656232e-02 -2.71359812e-02
      -3.81722711e-02 -1.36733437e-02 1.26325316e-03 6.29431661e-03
      7.96043500e-03 -4.81419871e-03 -5.68801071e-03 1.59543809e-02
      -8.30531493e-03 -2.43713817e-04 1.06524089e-02 2.19235178e-02
      1.99685171e-02 8.98781419e-03 6.68300921e-03 1.66907445e-01</_>
    <_>
      1.26533434e-01 3.70246470e-02 4.64921221e-02 -3.62224914e-02
      1.18769729e-03 1.08129881e-01 1.39904097e-01 -2.52668280e-02
      -1.31239429e-01 6.62866905e-02 -2.50293058e-03 9.06279162e-02
      1.06151011e-02 -6.81627076e-04 -1.55705931e-02 5.39622493e-02
      2.07379088e-02 -5.42989280e-03 1.87910348e-02 -2.90569160e-02
      -3.64918746e-02 -1.26226181e-02 3.17719605e-05 5.74462954e-03
      9.06022638e-03 -6.15072483e-03 -6.46874215e-03 1.62016172e-02
      -7.48264929e-03 -7.72776257e-04 1.11154737e-02 2.21349765e-02
      1.96840372e-02 8.62250291e-03 7.11463904e-03 1.66715086e-01</_>
    <_>
      4.15506005e-01 -5.88994939e-03 6.81549087e-02 -3.39848474e-02
      3.64347063e-02 9.96034965e-02 1.37132660e-01 -1.73198506e-02
      -1.37326226e-01 6.84946626e-02 -3.71782505e-03 9.11196023e-02
      7.37052597e-03 -9.52497404e-03 -2.30966546e-02 5.29833436e-02
      1.82862207e-02 -4.88471100e-03 2.34444160e-02 -2.70300452e-02
      -3.74529995e-02 -1.44305825e-02 -7.36800546e-04 6.34389417e-03
      7.84366205e-03 -6.33570459e-03 -6.72879070e-03 1.71817355e-02
      -9.48026776e-03 -1.04562216e-03 1.16958404e-02 2.13660039e-02
      1.97699424e-02 8.97959340e-03 6.93855248e-03 1.66770235e-01</_>
    <_>
      2.52262875e-03 1.57720278e-04 -9.66029800e-03 -6.36348175e-03
      1.74208917e-02 1.14906766e-01 1.45667806e-01 -1.34691531e-02
      -1.30369619e-01 7.45351240e-02 -2.88170530e-03 9.25849900e-02
      1.03848176e-02 -4.69679665e-03 -1.94036346e-02 5.16607873e-02
      1.90126058e-02 -5.72901079e-03 2.26830132e-02 -2.89685968e-02
      -3.74419503e-02 -1.40144937e-02 1.41096755e-03 4.14988305e-03
      1.01389661e-02 -5.47354762e-03 -7.03242607e-03 1.53140146e-02
      -1.05236741e-02 -1.55728590e-03 1.14023965e-02 2.19964255e-02
      1.92518365e-02 8.74434225e-03 7.27122510e-03 1.66716769e-01</_>
    <_>
      5.18092662e-02 -4.78111096e-02 -7.59876193e-03 -1.80877671e-02
      9.78249963e-03 1.23564422e-01 1.44780114e-01 -2.44218055e-02
      -1.37874499e-01 6.45859912e-02 -4.49924730e-03 8.70608613e-02
      5.82846254e-03 -3.05904238e-03 -2.22928561e-02 4.96424660e-02
      1.80126559e-02 -4.54102084e-03 2.01411620e-02 -2.88387500e-02
      -3.88546661e-02 -1.18483212e-02 -6.74291456e-04 5.78270387e-03
      9.82953049e-03 -7.14933639e-03 -6.88212272e-03 1.59138720e-02
      -8.14030785e-03 -1.46608998e-03 1.10571887e-02 2.18153801e-02
      2.06243768e-02 9.76424851e-03 6.96598412e-03 1.66444272e-01</_>
    <_>
      3.40434276e-02 -1.59032382e-02 2.07155868e-02 -9.02624521e-03
      1.32441279e-02 1.21174060e-01 1.29219621e-01 -3.30555998e-02
      -1.32878467e-01 6.56139031e-02 -9.05244704e-03 8.77117962e-02
      7.88180716e-03 -2.43053026e-03 -2.20620185e-02 5.38594648e-02
      1.52977556e-02 -9.65246744e-03 1.90620180e-02 -2.84215435e-02
      -3.77926081e-02 -1.49798552e-02 -8.80809268e-04 7.72891659e-03
      9.04681068e-03 -4.79022507e-03 -7.03281071e-03 1.67075638e-02
      -1.15156714e-02 5.23768482e-04 1.13008544e-02 2.22235639e-02
      1.99542176e-02 8.59627780e-03 7.64970761e-03 1.66569918e-01</_>
    <_>
      -1.69158299e-02 5.28132841e-02 4.48746420e-03 -2.56148558e-02
      2.03476530e-02 1.18347168e-01 1.43993109e-01 -2.15266272e-02
      -1.37808219e-01 6.70365840e-02 -4.27911803e-03 8.99128318e-02
      6.28082734e-03 -5.07043069e-03 -2.10405365e-02 5.20498082e-02
      1.99534725e-02 -4.33401344e-03 2.10778918e-02 -2.77799703e-02
      -3.70718092e-02 -1.34761566e-02 1.33457675e-03 6.65894430e-03
      9.51904245e-03 -4.41664457e-03 -6.52591651e-03 1.55346664e-02
      -9.06990282e-03 -1.48550223e-03 1.11573115e-02 2.12939717e-02
      1.98000781e-02 9.23703238e-03 7.34869577e-03 1.66701823e-01</_>
    <_>
      2.62280237e-02 2.27108672e-02 3.88188586e-02 -1.18067618e-02
      1.94584411e-02 1.12774774e-01 1.24859788e-01 -1.06170354e-02
      -1.29727542e-01 6.57601729e-02 -6.73149386e-03 9.16888714e-02
      4.66902135e-03 -7.12154480e-03 -2.28071399e-02 5.26995882e-02
      2.18687169e-02 -1.04077160e-02 1.88168548e-02 -2.90357657e-02
      -3.85200121e-02 -1.24640120e-02 -1.58029015e-03 7.08507933e-03
      8.32291506e-03 -6.37105573e-03 -5.74583933e-03 1.58887822e-02
      -1.07072918e-02 -6.66275795e-04 1.05108824e-02 2.17309296e-02
      1.93266440e-02 8.59224889e-03 7.58541608e-03 1.67098701e-01</_>
    <_>
      5.61217451e-03 -7.41467532e-03 -4.91612172e-03 -9.84392874e-03
      1.93202291e-02 1.09853886e-01 1.35995686e-01 -2.39492711e-02
      -1.27282932e-01 6.67448938e-02 -1.13994479e-02 8.13776255e-02
      1.26485517e-02 -4.85638529e-03 -2.09400952e-02 5.30639477e-02
      1.73679292e-02 -5.10799373e-03 2.26408336e-02 -2.60027014e-02
      -3.67134809e-02 -1.46869747e-02 -5.04308322e-04 5.65226795e-03
      8.73350166e-03 -7.07608648e-03 -5.87212062e-03 1.63633097e-02
      -8.53300281e-03 -9.91347595e-04 1.13365352e-02 2.15873513e-02
      1.95448790e-02 8.36896058e-03 7.44402269e-03 1.66732073e-01</_>
    <_>
      -2.89643696e-03 5.80880195e-02 2.72866804e-02 -1.76276434e-02
      -2.35849898e-03 1.12781927e-01 1.46000311e-01 -1.90401450e-02
      -1.33782193e-01 6.99495524e-02 -4.48931195e-03 8.72541368e-02
      5.98671334e-03 -5.78337489e-03 -2.32060347e-02 5.18914685e-02
      1.86997075e-02 -4.08131722e-03 2.27258615e-02 -2.91169956e-02
      -3.55645679e-02 -1.49345687e-02 2.26482586e-03 7.81489164e-03
      9.68635455e-03 -6.65607071e-03 -7.52151664e-03 1.61723178e-02
      -8.49938206e-03 -1.02872634e-03 1.17851580e-02 2.20877938e-02
      1.95741486e-02 9.08347964e-03 7.10438099e-03 1.66428104e-01</_>
    <_>
      -1.22991130e-02 6.28079399e-02 1.04208921e-04 -3.36156040e-02
      4.21531945e-02 1.17994696e-01 1.45463809e-01 -2.17408314e-02
      -1.27809986e-01 6.85329512e-02 -3.24850809e-03 8.80205184e-02
      1.72077920e-02 -7.47914845e-03 -2.17130855e-02 5.08616082e-02
      1.74434222e-02 -6.84862258e-03 2.20944639e-02 -3.05249691e-02
      -3.84058133e-02 -1.50297880e-02 -6.89931854e-04 6.13504741e-03
      9.71478596e-03 -7.18668429e-03 -9.21860896e-03 1.61930118e-02
      -9.10271518e-03 -4.90579347e-04 1.14191277e-02 2.09942125e-02
      2.00996771e-02 9.80312284e-03 7.44795939e-03 1.66681170e-01</_>
    <_>
      -1.33712487e-02 7.30811134e-02 5.54763386e-03 -3.01001929e-02
      4.71407846e-02 9.64772627e-02 1.50289297e-01 -3.97692025e-02
      -1.35913536e-01 6.47474229e-02 -3.88563052e-03 9.24436823e-02
      7.08889309e-03 -5.54550765e-03 -2.15505417e-02 5.29085323e-02
      1.80380363e-02 -5.29082771e-03 2.06624065e-02 -2.73340624e-02
      -3.84997837e-02 -1.23577435e-02 -9.83760838e-05 5.68667939e-03
      8.65469128e-03 -7.98011944e-03 -9.21218749e-03 1.65246837e-02
      -1.03036845e-02 2.04482625e-04 1.25197927e-02 2.22745556e-02
      2.01124046e-02 1.03449235e-02 7.47629115e-03 1.66097954e-01</_>
    <_>
      -8.68431702e-02 2.87162483e-01 5.75536937e-02 -1.52293175e-01
      2.91995704e-03 1.30870670e-01 1.48620933e-01 -1.00383116e-02
      -1.32639974e-01 8.19200054e-02 1.27170840e-03 8.97461921e-02
      7.24504841e-03 -4.11164202e-03 -1.84383783e-02 4.43436839e-02
      1.96825005e-02 -3.13748932e-03 2.01978758e-02 -2.77345199e-02
      -3.55317816e-02 -1.41135547e-02 1.05445238e-03 7.63062621e-03
      7.25607015e-03 -6.10972010e-03 -8.63029715e-03 1.50856553e-02
      -1.03630591e-02 -1.00281811e-03 1.08037945e-02 2.24027708e-02
      1.99989676e-02 9.06243082e-03 6.92786509e-03 1.66718990e-01</_>
    <_>
      5.30081838e-02 -6.70221671e-02 -6.42597908e-03 -1.70769859e-02
      1.54228946e-02 1.20389543e-01 1.50162235e-01 -2.00433061e-02
      -1.32355303e-01 7.08367527e-02 -5.80839301e-03 8.79037008e-02
      7.43996631e-03 -9.47562698e-03 -2.15092767e-02 4.87922728e-02
      1.75275989e-02 -6.07996155e-03 2.21893061e-02 -2.87824627e-02
      -3.75949368e-02 -1.11414688e-02 -1.50785607e-03 9.06319451e-03
      8.89759418e-03 -4.63369768e-03 -8.23157281e-03 1.54963806e-02
      -9.67035722e-03 -2.09751469e-03 1.31678879e-02 2.21664459e-02
      1.94926336e-02 8.83896369e-03 6.74992986e-03 1.66228190e-01</_>
    <_>
      2.68339529e-03 -1.71912219e-02 -8.10230337e-03 -1.61369313e-02
      2.99546067e-02 1.15756363e-01 1.45615250e-01 -2.65048519e-02
      -1.28786996e-01 6.97101653e-02 -5.39880665e-03 8.74819160e-02
      9.61799547e-03 -4.34720237e-03 -2.11016703e-02 5.11358380e-02
      1.50500480e-02 -6.04749843e-03 2.03941781e-02 -2.78772730e-02
      -3.36021371e-02 -1.34967025e-02 -1.58418354e-03 5.38363168e-03
      1.05647659e-02 -9.21614747e-03 -7.01912772e-03 1.60766393e-02
      -7.76661094e-03 -6.66473934e-04 1.04634678e-02 2.11440697e-02
      1.94748845e-02 9.62963421e-03 7.17526162e-03 1.67076036e-01</_>
    <_>
      3.68927456e-02 -6.12076707e-02 -3.02963483e-04 -1.77604202e-02
      5.79144852e-03 1.26800045e-01 1.39847085e-01 -2.05890145e-02
      -1.33911565e-01 6.84701204e-02 -7.22027943e-03 8.79135281e-02
      4.58913762e-03 -4.84368484e-03 -2.41373722e-02 4.86713946e-02
      1.80869736e-02 -4.89534251e-03 2.20291670e-02 -2.87441313e-02
      -3.64812911e-02 -1.42475292e-02 6.31714473e-04 6.66517392e-03
      7.85041228e-03 -3.85848363e-03 -7.56886462e-03 1.57834571e-02
      -8.66074301e-03 -2.10428820e-03 1.16696637e-02 2.28476133e-02
      2.06813477e-02 9.04225186e-03 6.97175600e-03 1.66360453e-01</_>
    <_>
      6.97545242e-03 -1.62317120e-02 -8.04050360e-03 -8.75043776e-03
      1.05337426e-02 1.20058432e-01 1.48787022e-01 -2.25933641e-02
      -1.41032115e-01 6.94464073e-02 -7.17610819e-03 9.17829573e-02
      1.22414539e-02 -5.74882794e-03 -2.11192314e-02 5.13694659e-02
      2.00570263e-02 -4.74676862e-03 2.34477930e-02 -3.05876024e-02
      -3.76068056e-02 -1.20212827e-02 1.99909392e-03 5.97430347e-03
      9.56473220e-03 -8.01228639e-03 -9.61833168e-03 1.54396826e-02
      -1.02101369e-02 -2.89631367e-04 1.14344181e-02 2.12394428e-02
      1.84264779e-02 9.13308281e-03 6.88705873e-03 1.66862890e-01</_>
    <_>
      4.88856375e-01 3.15622911e-02 7.32172420e-03 -2.97835674e-02
      2.09996197e-02 1.10150248e-01 1.43561393e-01 -2.06946116e-02
      -1.38710693e-01 6.55702353e-02 -7.37209618e-03 8.70054737e-02
      6.21067453e-03 -5.16328728e-03 -2.15915609e-02 5.08824363e-02
      1.84096862e-02 -6.49269205e-03 1.98225640e-02 -2.89670471e-02
      -3.61223482e-02 -1.32758208e-02 -1.46363716e-04 9.27253347e-03
      9.00627021e-03 -7.26680132e-03 -7.20120873e-03 1.56427883e-02
      -9.79685131e-03 -2.79946893e-04 1.16273016e-02 2.16234736e-02
      2.03445181e-02 8.96263402e-03 7.35210814e-03 1.66471586e-01</_>
    <_>
      1.88548826e-02 -2.25433409e-02 1.51881704e-03 -3.97782447e-03
      5.28343860e-03 1.18923523e-01 1.43035397e-01 -2.14317925e-02
      -1.44350767e-01 7.51267970e-02 -5.26109105e-03 9.01699886e-02
      4.96995170e-03 -9.06207133e-03 -2.15511620e-02 5.49186803e-02
      1.67627893e-02 -7.11521739e-03 2.23954376e-02 -2.98226085e-02
      -3.91391516e-02 -1.51736755e-02 -4.96194290e-04 7.64929596e-03
      9.68206953e-03 -6.66180160e-03 -7.44634867e-03 1.75627172e-02
      -9.93338414e-03 -9.42337792e-04 1.13264229e-02 2.17686072e-02
      2.02895943e-02 8.00758600e-03 6.40024059e-03 1.66683972e-01</_>
    <_>
      -3.20479535e-02 7.34469593e-02 1.58435926e-02 -2.43522022e-02
      2.58645881e-02 1.02330133e-01 1.38248324e-01 -1.64271481e-02
      -1.37207836e-01 6.76841885e-02 -9.83766932e-03 9.36682150e-02
      6.55809231e-03 -7.08177080e-03 -1.84291583e-02 5.04941717e-02
      1.84984151e-02 -7.05563137e-03 2.17313860e-02 -2.55497284e-02
      -3.86979245e-02 -1.24502936e-02 -1.58153445e-04 5.95675921e-03
      1.11353984e-02 -4.81163105e-03 -6.67145103e-03 1.67764444e-02
      -8.71175714e-03 7.52985652e-04 1.20141758e-02 2.16545500e-02
      1.98204108e-02 9.05381329e-03 7.77363311e-03 1.66397586e-01</_>
    <_>
      -2.48421691e-02 3.08828764e-02 2.04788949e-02 -2.20705885e-02
      2.67701261e-02 9.33675170e-02 1.36250824e-01 -7.93513097e-03
      -1.37280256e-01 7.11321458e-02 -8.60082451e-03 9.22212824e-02
      7.74690602e-03 -7.72346416e-03 -1.94593351e-02 5.28638065e-02
      1.57963242e-02 -7.26737780e-03 2.05077715e-02 -2.94554010e-02
      -3.60611007e-02 -1.36339143e-02 -8.71602620e-04 6.37539150e-03
      1.19461669e-02 -5.81341656e-03 -7.16988929e-03 1.71577930e-02
      -1.01782382e-02 -7.63133168e-04 1.13270339e-02 2.17614044e-02
      1.91471763e-02 8.92234035e-03 7.05688819e-03 1.66758969e-01</_>
    <_>
      -3.55590619e-02 7.39744604e-02 2.53596948e-03 -2.97307391e-02
      4.31097709e-02 9.91486013e-02 1.54628918e-01 -3.01588401e-02
      -1.37460306e-01 7.12067485e-02 -6.29248144e-03 9.25596282e-02
      8.88470188e-03 -8.41450691e-03 -2.47642770e-02 5.15412688e-02
      2.01902129e-02 -8.82980973e-03 2.02725902e-02 -2.80233324e-02
      -3.92411686e-02 -1.25326999e-02 -1.07397430e-03 6.43173931e-03
      8.91335774e-03 -6.16558315e-03 -6.44185813e-03 1.61621384e-02
      -1.06851999e-02 -6.32610638e-04 1.18498849e-02 2.19997019e-02
      2.06526518e-02 9.92553122e-03 6.76127058e-03 1.66445032e-01</_>
    <_>
      1.02787744e-02 1.85942929e-02 6.27964269e-03 -2.22260114e-02
      4.34437692e-02 1.13678157e-01 1.40618622e-01 -1.88133717e-02
      -1.35754079e-01 6.53732195e-02 -3.58377956e-03 8.96095112e-02
      1.29081188e-02 -4.31769993e-03 -1.92584675e-02 5.15981242e-02
      1.61567703e-02 -3.21498304e-03 2.20235400e-02 -2.85445787e-02
      -3.54001112e-02 -1.35780517e-02 3.87064210e-05 6.89258287e-03
      9.75116342e-03 -7.43445521e-03 -6.84738159e-03 1.67852808e-02
      -9.91596468e-03 -7.28871441e-04 1.09554334e-02 2.04777569e-02
      1.99042000e-02 8.72538146e-03 7.53450021e-03 1.66731507e-01</_>
    <_>
      3.96753438e-02 -5.00915870e-02 2.67255795e-03 -1.32752070e-02
      7.42301485e-03 1.24431819e-01 1.44347921e-01 -1.79508515e-02
      -1.36124283e-01 6.91704825e-02 -6.24609739e-03 8.78603309e-02
      5.70879364e-03 -4.23637684e-03 -2.03060657e-02 5.11154868e-02
      1.94461197e-02 -5.17191878e-03 2.08662972e-02 -2.75418535e-02
      -3.72085720e-02 -1.32047422e-02 2.26570875e-03 5.55188674e-03
      9.14058369e-03 -4.75684227e-03 -6.37709489e-03 1.66044105e-02
      -1.15150381e-02 -1.37903646e-03 1.03595750e-02 2.31243148e-02
      1.87252276e-02 9.46579874e-03 6.94703031e-03 1.66664869e-01</_>
    <_>
      -1.12450738e-02 6.69696927e-02 2.60494407e-02 -2.10713409e-02
      1.70812979e-02 1.23028114e-01 1.39271662e-01 -2.09606122e-02
      -1.36202216e-01 6.48475662e-02 -6.89176936e-03 8.66680518e-02
      8.70179478e-03 -7.26536149e-03 -2.17445176e-02 5.14060408e-02
      1.68685373e-02 -7.93417823e-03 2.54441015e-02 -2.77723428e-02
      -3.68918814e-02 -1.30826049e-02 4.59269213e-04 7.24413106e-03
      1.07203107e-02 -4.60451236e-03 -6.81265537e-03 1.53920278e-02
      -9.56286117e-03 -1.22551539e-03 1.25357164e-02 2.12727096e-02
      1.90436207e-02 8.75802711e-03 7.30745820e-03 1.66507736e-01</_>
    <_>
      -1.44141470e-03 3.27581801e-02 -4.08001710e-03 -2.73620076e-02
      2.97768600e-02 1.05198786e-01 1.52336940e-01 -2.19718982e-02
      -1.28011331e-01 6.74856901e-02 -5.19840047e-03 9.07891691e-02
      8.20694771e-03 -7.28500774e-03 -2.06563231e-02 5.21415472e-02
      1.79157145e-02 -5.37667004e-03 2.32842397e-02 -2.89062876e-02
      -3.62981670e-02 -1.30648622e-02 1.78045034e-03 7.48161180e-03
      1.00238295e-02 -5.90054085e-03 -7.18382886e-03 1.52988536e-02
      -9.57321003e-03 -1.74958579e-04 1.08540431e-02 2.18326114e-02
      1.99608039e-02 8.47447664e-03 7.05513125e-03 1.66673511e-01</_>
    <_>
      1.73253998e-01 3.22003895e-03 6.53841868e-02 -2.93083955e-02
      6.76115463e-03 1.16365880e-01 1.33047521e-01 -3.95951606e-02
      -1.34848490e-01 7.23355636e-02 7.63060059e-03 1.00283466e-01
      1.02867093e-02 -1.03868796e-02 -2.56271828e-02 5.46848215e-02
      1.83497053e-02 -5.58342924e-03 2.08904985e-02 -2.98153181e-02
      -3.98431718e-02 -1.64163336e-02 3.50393733e-04 6.61520520e-03
      1.28454631e-02 -8.15082435e-03 -6.24056347e-03 1.33498767e-02
      -7.94988405e-03 -6.21173065e-04 1.17435716e-02 2.19082162e-02
      2.01659389e-02 9.03136935e-03 6.45059487e-03 1.66715324e-01</_>
    <_>
      1.84639990e-01 7.63460249e-02 5.31280003e-02 -2.34356374e-02
      -1.56818070e-02 1.04938909e-01 1.42799199e-01 -2.51222439e-02
      -1.25502855e-01 7.23499656e-02 9.25680064e-03 9.52583104e-02
      7.34547758e-03 -1.08839069e-02 -2.35914122e-02 5.21585084e-02
      1.82347875e-02 -7.39483908e-03 2.39656232e-02 -2.71359812e-02
      -3.81722711e-02 -1.36733437e-02 1.26325316e-03 6.29431661e-03
      7.96043500e-03 -4.81419871e-03 -5.68801071e-03 1.59543809e-02
      -8.30531493e-03 -2.43713817e-04 1.06524089e-02 2.19235178e-02
      1.99685171e-02 8.98781419e-03 6.68300921e-03 1.66907445e-01</_>
    <_>
      1.93458740e-02 9.60061699e-02 6.24112375e-02 3.89539031e-03
      -2.08573006e-02 1.06246337e-01 1.32412702e-01 -3.05609703e-02
      -1.38014227e-01 6.08718172e-02 -1.33089032e-02 9.07942355e-02
      7.28325080e-03 -1.21362424e-02 -1.93933863e-02 5.21398298e-02
      2.06553917e-02 -4.76248143e-03 2.02666428e-02 -3.02019678e-02
      -3.70755158e-02 -1.00927511e-02 1.97110814e-03 9.20209941e-03
      7.95910973e-03 -5.49916504e-03 -6.86350558e-03 1.59247853e-02
      -9.03589744e-03 -3.86137748e-04 1.17730843e-02 2.12806985e-02
      2.02711932e-02 9.58199706e-03 6.92586089e-03 1.66291147e-01</_>
    <_>
      1.81245059e-02 -4.64326218e-02 -8.82507395e-03 -1.32999616e-02
      2.03710850e-02 1.06977828e-01 1.44050151e-01 -1.12633202e-02
      -1.36748895e-01 7.03642219e-02 -2.04255944e-03 8.64009038e-02
      7.54962722e-03 -1.99832069e-03 -1.37920966e-02 4.89568226e-02
      2.01563872e-02 -4.93551511e-03 2.23471932e-02 -2.77633891e-02
      -3.84613052e-02 -1.52050862e-02 9.40008846e-04 7.49039277e-03
      7.67822703e-03 -7.94195477e-03 -6.17612712e-03 1.47837996e-02
      -9.17482655e-03 6.37947989e-04 1.15583818e-02 2.15249304e-02
      1.94128342e-02 8.59940331e-03 7.13847345e-03 1.66815192e-01</_>
    <_>
      2.66653784e-02 -2.14119144e-02 -3.21136508e-03 -1.04429461e-02
      1.43719735e-02 1.30119145e-01 1.34876713e-01 -1.63379591e-02
      -1.38958797e-01 6.43884987e-02 -7.08213681e-03 9.15306434e-02
      1.07703293e-02 -4.29591350e-03 -2.09056959e-02 4.99175712e-02
      1.59230325e-02 -4.40481259e-03 2.07680389e-02 -2.92047970e-02
      -3.82959209e-02 -1.39934625e-02 -2.21198949e-04 5.65503398e-03
      9.26321745e-03 -5.03786420e-03 -6.27106056e-03 1.57635845e-02
      -8.88639409e-03 -9.91338748e-04 1.32646747e-02 2.03820281e-02
      1.94056742e-02 8.58614407e-03 7.45768566e-03 1.66592345e-01</_>
    <_>
      5.18092662e-02 -4.78111096e-02 -7.59876193e-03 -1.80877671e-02
      9.78249963e-03 1.23564422e-01 1.44780114e-01 -2.44218055e-02
      -1.37874499e-01 6.45859912e-02 -4.49924730e-03 8.70608613e-02
      5.82846254e-03 -3.05904238e-03 -2.22928561e-02 4.96424660e-02
      1.80126559e-02 -4.54102084e-03 2.01411620e-02 -2.88387500e-02
      -3.88546661e-02 -1.18483212e-02 -6.74291456e-04 5.78270387e-03
      9.82953049e-03 -7.14933639e-03 -6.88212272e-03 1.59138720e-02
      -8.14030785e-03 -1.46608998e-03 1.10571887e-02 2.18153801e-02
      2.06243768e-02 9.76424851e-03 6.96598412e-03 1.66444272e-01</_>
    <_>
      7.54828518e-03 6.03222214e-02 2.17502452e-02 -1.19508952e-02
      1.04416150e-03 1.10824697e-01 1.43303201e-01 -1.77419856e-02
      -1.37345985e-01 6.74620569e-02 -5.42480545e-03 8.85310471e-02
      8.39198940e-03 -6.77391654e-03 -2.22109724e-02 5.10932691e-02
      1.67419892e-02 -3.07425507e-03 2.34910455e-02 -2.72272043e-02
      -3.75869460e-02 -1.37200421e-02 -7.01566460e-05 7.22713303e-03
      1.01752598e-02 -6.58534793e-03 -7.67506426e-03 1.57237537e-02
      -9.00654867e-03 -9.06018366e-04 1.09732440e-02 2.12587770e-02
      2.00238824e-02 9.16113611e-03 7.11452775e-03 1.66674063e-01</_>
    <_>
      1.14444792e-02 -2.00932994e-02 9.97565221e-04 -1.24608846e-02
      1.55824870e-02 1.25393778e-01 1.36811495e-01 -1.44487238e-02
      -1.41365737e-01 6.19135350e-02 -6.07016450e-03 9.13414508e-02
      5.36978710e-03 -1.03204288e-02 -1.99169070e-02 5.23400493e-02
      1.94071289e-02 -6.27890835e-03 2.18987893e-02 -2.85228305e-02
      -3.92168574e-02 -1.32279657e-02 3.30675684e-04 8.93800799e-03
      9.47765633e-03 -7.98037741e-03 -7.62764644e-03 1.47889294e-02
      -1.05049647e-02 -4.23297781e-04 1.16660604e-02 2.17623357e-02
      2.00454239e-02 9.20957699e-03 7.16069015e-03 1.66487053e-01</_>
    <_>
      8.29951316e-02 -2.75717955e-02 1.94149707e-02 -2.83825658e-02
      1.05728563e-02 1.11189067e-01 1.35771036e-01 -2.54812967e-02
      -1.25945464e-01 6.93639591e-02 -6.84875762e-03 8.66311044e-02
      7.00824149e-03 -3.84805584e-03 -2.17638649e-02 4.90563624e-02
      1.65823866e-02 -5.39139844e-03 2.43821237e-02 -2.81929057e-02
      -3.54453474e-02 -1.36097707e-02 -5.87587187e-04 8.16853065e-03
      8.08523130e-03 -7.06146611e-03 -6.09998591e-03 1.47051392e-02
      -8.86999629e-03 8.53151607e-04 1.14453044e-02 2.24559233e-02
      2.04232410e-02 8.95703118e-03 8.40667356e-03 1.66202232e-01</_>
    <_>
      3.66974659e-02 -6.04204573e-02 -2.02191318e-03 -1.37896184e-02
      6.42898632e-03 1.27795726e-01 1.35890052e-01 -2.04373579e-02
      -1.33692145e-01 6.91193864e-02 -5.73316077e-03 8.78588408e-02
      5.37685677e-03 -5.30353701e-03 -2.15900876e-02 4.94911633e-02
      1.76148918e-02 -2.68564443e-03 2.21989267e-02 -2.81463098e-02
      -3.88755314e-02 -1.43189058e-02 3.91251262e-04 8.23982805e-03
      7.72212446e-03 -4.72321315e-03 -7.50799989e-03 1.48538072e-02
      -9.40189045e-03 -1.61901722e-03 1.20215164e-02 2.21841410e-02
      1.99787617e-02 1.03982966e-02 7.09219510e-03 1.66261792e-01</_>
    <_>
      -1.54755721e-02 6.43628538e-02 4.24323091e-03 -4.16507795e-02
      4.28110287e-02 1.08134553e-01 1.38678372e-01 -2.18964126e-02
      -1.34391561e-01 6.21191747e-02 -1.14562670e-02 8.71709734e-02
      1.60419736e-02 -9.21164360e-03 -2.09516361e-02 5.09874821e-02
      1.87160913e-02 -8.11870769e-03 2.05067266e-02 -2.95055676e-02
      -3.29570808e-02 -1.32271303e-02 6.05636800e-04 6.51908945e-03
      1.10497624e-02 -5.48237935e-03 -8.27185716e-03 1.64560825e-02
      -8.86613317e-03 -1.46250799e-03 1.24290995e-02 2.03386433e-02
      2.05965806e-02 9.81695298e-03 7.44962972e-03 1.66458189e-01</_>
    <_>
      2.75653712e-02 -2.89261229e-02 1.49591984e-02 -1.55381532e-02
      1.71133205e-02 1.15757436e-01 1.33966312e-01 -2.30556745e-02
      -1.38377786e-01 6.83300197e-02 -8.23908113e-03 9.15548876e-02
      4.92844591e-03 -7.05267070e-03 -2.90913470e-02 5.37713319e-02
      2.07418781e-02 -9.88876726e-03 1.84427556e-02 -2.83414423e-02
      -3.70987654e-02 -1.71372537e-02 1.17451383e-03 8.21318198e-03
      1.03592258e-02 -6.29944773e-03 -6.99162576e-03 1.75617691e-02
      -9.90396924e-03 -3.27592541e-04 1.16141802e-02 2.15405244e-02
      1.92823410e-02 8.86030216e-03 7.41164014e-03 1.66866288e-01</_>
    <_>
      1.04454786e-01 -1.11052655e-01 -3.16402223e-03 -4.45522107e-02
      5.84675651e-03 1.25311956e-01 1.58464894e-01 -2.72496622e-02
      -1.44908354e-01 7.02759251e-02 -5.22932736e-03 9.22183990e-02
      8.66143405e-03 -1.15154637e-02 -2.04869434e-02 4.52613682e-02
      1.68346986e-02 -6.73977565e-03 2.14490052e-02 -2.69414056e-02
      -3.69207077e-02 -1.37448581e-02 -2.12727720e-03 7.83810019e-03
      8.61745048e-03 -6.13105623e-03 -6.56110700e-03 1.66723076e-02
      -1.06033944e-02 9.39724850e-04 1.13944253e-02 2.11880319e-02
      2.08583903e-02 9.17738955e-03 7.01946020e-03 1.66725844e-01</_>
    <_>
      4.88856375e-01 3.15622911e-02 7.32172420e-03 -2.97835674e-02
      2.09996197e-02 1.10150248e-01 1.43561393e-01 -2.06946116e-02
      -1.38710693e-01 6.55702353e-02 -7.37209618e-03 8.70054737e-02
      6.21067453e-03 -5.16328728e-03 -2.15915609e-02 5.08824363e-02
      1.84096862e-02 -6.49269205e-03 1.98225640e-02 -2.89670471e-02
      -3.61223482e-02 -1.32758208e-02 -1.46363716e-04 9.27253347e-03
      9.00627021e-03 -7.26680132e-03 -7.20120873e-03 1.56427883e-02
      -9.79685131e-03 -2.79946893e-04 1.16273016e-02 2.16234736e-02
      2.03445181e-02 8.96263402e-03 7.35210814e-03 1.66471586e-01</_>
    <_>
      -3.51171009e-02 8.86420757e-02 9.86692589e-03 -2.60729995e-02
      4.50377315e-02 1.08103529e-01 1.43249050e-01 -2.65496951e-02
      -1.35434031e-01 6.86793104e-02 -7.79468217e-04 9.32313129e-02
      7.88579509e-03 -7.04737846e-03 -2.00419873e-02 5.04634231e-02
      1.99640431e-02 -3.95417074e-03 2.06983481e-02 -2.69023702e-02
      -3.83305140e-02 -1.42789269e-02 1.44574698e-03 5.25647542e-03
      9.73950047e-03 -7.01549929e-03 -7.39778718e-03 1.63490102e-02
      -1.04961256e-02 -1.12513639e-03 1.13881519e-02 2.18794439e-02
      2.00701635e-02 8.95692036e-03 7.43536279e-03 1.66487068e-01</_>
    <_>
      -1.26178721e-02 3.43514979e-03 1.71910375e-02 -4.04241048e-02
      2.06233114e-02 1.02353923e-01 1.40598163e-01 -1.42756132e-02
      -1.46536797e-01 5.68215065e-02 -9.64480350e-05 9.39960256e-02
      7.69086415e-03 -8.04037135e-03 -2.00636927e-02 5.02799973e-02
      2.09552441e-02 -6.58915564e-03 1.96813680e-02 -2.60593425e-02
      -4.06628288e-02 -1.36438068e-02 1.39609992e-03 5.12069277e-03
      1.06101111e-02 -5.55923348e-03 -8.05272907e-03 1.61293987e-02
      -1.15650957e-02 -3.64860665e-04 1.21601904e-02 2.31587291e-02
      1.94828752e-02 9.61213093e-03 7.06613529e-03 1.66327640e-01</_>
    <_>
      4.89375740e-02 -3.79601717e-02 -5.63290063e-03 -2.25226898e-02
      1.78591199e-02 1.13663651e-01 1.53735444e-01 -2.90909521e-02
      -1.34373516e-01 6.89974204e-02 -4.90468973e-03 8.50296915e-02
      1.20720025e-02 -5.76115027e-03 -2.07890738e-02 5.05467914e-02
      1.86628401e-02 -3.85202863e-03 2.18269266e-02 -2.48339754e-02
      -3.90563533e-02 -1.45509588e-02 1.24690298e-03 6.18367270e-03
      1.03832055e-02 -4.88945981e-03 -8.02088343e-03 1.54975401e-02
      -1.00706546e-02 7.27326958e-04 1.02748014e-02 2.17367038e-02
      1.94395613e-02 7.72282900e-03 7.43057160e-03 1.66967392e-01</_>
    <_>
      -3.86894681e-02 1.01638682e-01 7.09629990e-03 -3.47895967e-03
      2.33560205e-02 1.06215268e-01 1.53121382e-01 -2.70836614e-02
      -1.35182470e-01 6.81356862e-02 -4.95057646e-03 8.73872414e-02
      6.49579102e-03 -7.36105163e-03 -1.98415704e-02 5.20627797e-02
      1.67977661e-02 -6.19613891e-03 2.08403338e-02 -2.99295429e-02
      -3.80011164e-02 -1.24123888e-02 -3.48214468e-04 6.09381916e-03
      8.54215398e-03 -4.35132207e-03 -7.15941237e-03 1.66704450e-02
      -1.00835646e-02 -1.08214107e-03 1.24219740e-02 2.15326156e-02
      1.93468202e-02 9.16657504e-03 7.27309659e-03 1.66476145e-01</_>
    <_>
      3.98156606e-03 1.29950466e-02 4.09136945e-03 -1.89313348e-02
      1.07320240e-02 1.27087742e-01 1.44338831e-01 -1.62395872e-02
      -1.38371438e-01 7.30191842e-02 -2.27747089e-03 8.93120617e-02
      7.54307257e-03 -3.30338650e-03 -2.24284977e-02 5.03687374e-02
      1.96909327e-02 -4.53673722e-03 2.30061747e-02 -2.94858292e-02
      -3.67697254e-02 -1.19558079e-02 1.25401316e-03 7.05608586e-03
      9.27336793e-03 -6.47763675e-03 -6.70942618e-03 1.53234182e-02
      -9.10318643e-03 -1.64638995e-03 1.30213434e-02 2.15428527e-02
      1.98677462e-02 8.46867356e-03 7.15160603e-03 1.66169375e-01</_>
    <_>
      2.30321325e-02 -2.03272663e-02 7.15621235e-03 -1.51434354e-02
      2.26277094e-02 1.10127568e-01 1.41018227e-01 -2.38296874e-02
      -1.29707262e-01 6.37192875e-02 -8.64189211e-03 9.00516063e-02
      5.93595859e-03 -9.98542272e-03 -1.89593751e-02 4.87480015e-02
      1.81190427e-02 -6.47754502e-03 2.17451956e-02 -2.86924522e-02
      -3.49586345e-02 -1.24992905e-02 3.34109151e-04 6.30277162e-03
      7.97828287e-03 -5.54168597e-03 -7.99419917e-03 1.54315764e-02
      -9.59612150e-03 -2.33488856e-04 1.18554961e-02 2.19347607e-02
      1.99862961e-02 8.35650042e-03 7.80372694e-03 1.66598976e-01</_>
    <_>
      4.99639800e-03 1.36560062e-02 2.16709101e-03 -1.94975622e-02
      1.44991269e-02 1.17962532e-01 1.36964992e-01 -2.20665131e-02
      -1.30226105e-01 6.61830828e-02 -6.86397357e-03 8.81603509e-02
      2.79653538e-03 -1.01754554e-02 -2.21637040e-02 4.98743877e-02
      1.87827088e-02 -5.04624052e-03 2.20468976e-02 -2.68369410e-02
      -3.81685682e-02 -1.41411787e-02 -3.46059736e-04 6.59750775e-03
      1.04107363e-02 -4.37442632e-03 -5.73615124e-03 1.64741185e-02
      -1.00051593e-02 -3.56826815e-04 1.17575265e-02 2.14624070e-02
      2.02775877e-02 8.51309951e-03 6.83573307e-03 1.66648760e-01</_>
    <_>
      -3.91409248e-02 9.48464274e-02 1.73960645e-02 -4.08532247e-02
      2.96277143e-02 1.07055739e-01 1.36554480e-01 -2.05479469e-02
      -1.41493678e-01 6.47012517e-02 -9.08846967e-03 9.31761339e-02
      7.21961493e-03 -7.39203813e-03 -1.89576857e-02 5.05717881e-02
      1.86225660e-02 -6.19537802e-03 2.16256026e-02 -2.61498541e-02
      -3.85908633e-02 -1.34595698e-02 1.41841522e-03 8.41463823e-03
      1.00490525e-02 -6.25503249e-03 -7.02203158e-03 1.67482086e-02
      -9.28038545e-03 -1.32914109e-04 1.18120071e-02 2.11494286e-02
      1.94243845e-02 8.71143769e-03 7.45259086e-03 1.66529924e-01</_>
    <_>
      -8.11657216e-03 1.11720478e-02 7.99709372e-03 -3.71142589e-02
      1.68183073e-02 1.06706828e-01 1.41228363e-01 -9.96112451e-03
      -1.43807903e-01 6.05530441e-02 -3.30233853e-03 9.01213735e-02
      9.21151415e-03 -5.60812559e-03 -1.95606034e-02 5.08236513e-02
      1.82372946e-02 -5.78270806e-03 1.97778884e-02 -2.74869762e-02
      -3.89293171e-02 -1.41044762e-02 9.31565592e-04 7.73144141e-03
      9.97531507e-03 -7.57439015e-03 -6.83412189e-03 1.74694248e-02
      -1.11230761e-02 -8.03937903e-04 1.03524178e-02 2.22963803e-02
      1.90287940e-02 9.85851884e-03 7.06247799e-03 1.66664734e-01</_>
    <_>
      3.08319312e-02 -6.70609325e-02 3.08002997e-03 -1.65330544e-02
      7.19957985e-03 1.22376144e-01 1.46473870e-01 -1.37258396e-02
      -1.46454856e-01 5.24091609e-02 1.13102770e-03 9.18921903e-02
      4.93877940e-03 -7.06050824e-03 -1.95302181e-02 4.61626798e-02
      1.75112542e-02 -5.32756187e-03 2.06930730e-02 -3.29513885e-02
      -4.00934219e-02 -1.35356374e-02 3.93320015e-03 1.06973043e-02
      8.27585440e-03 -9.15071636e-04 -6.22278824e-03 1.59168430e-02
      -7.96848349e-03 -1.11656683e-03 1.01786107e-02 2.06321217e-02
      1.88452192e-02 7.45431241e-03 6.81823818e-03 1.67238817e-01</_>
    <_>
      -7.94473570e-03 -5.48027596e-03 5.79510536e-03 -2.95531973e-02
      1.55430585e-02 1.12345524e-01 1.35323599e-01 -6.97216159e-03
      -1.46619961e-01 6.25333786e-02 -7.45366234e-03 8.88484567e-02
      9.42935050e-03 -6.34301547e-03 -2.09090915e-02 5.02198935e-02
      1.58452857e-02 -6.09712722e-03 1.98115595e-02 -2.89717279e-02
      -3.94462198e-02 -1.45360138e-02 6.47543638e-04 8.38654675e-03
      8.37062951e-03 -6.55667903e-03 -8.02857243e-03 1.51695842e-02
      -9.48609505e-03 1.21753237e-05 1.06864972e-02 2.14244910e-02
      1.97710227e-02 8.51047691e-03 7.48918997e-03 1.66898027e-01</_>
    <_>
      3.20578702e-02 -4.43697944e-02 -7.45992921e-03 -9.34548769e-03
      1.02731893e-02 1.26173794e-01 1.36566296e-01 -1.24972565e-02
      -1.33826241e-01 6.61994740e-02 -6.62939250e-03 8.63303989e-02
      7.63953524e-03 -3.77376657e-03 -2.25937366e-02 5.01785018e-02
      1.62995979e-02 -2.40727025e-03 2.30686385e-02 -2.98063252e-02
      -3.88109460e-02 -1.28364535e-02 2.39189388e-03 6.18849602e-03
      8.17495864e-03 -7.53380498e-03 -6.55838381e-03 1.44472253e-02
      -9.56926774e-03 -2.35010069e-04 1.27828829e-02 2.15681829e-02
      1.88508984e-02 8.32316186e-03 7.14835851e-03 1.66427642e-01</_>
    <_>
      -2.64744908e-02 5.43065518e-02 1.29975760e-02 -2.43593063e-02
      2.17309408e-02 1.12866253e-01 1.36911541e-01 -1.77961066e-02
      -1.37451380e-01 7.45290816e-02 -3.46454373e-03 9.00236443e-02
      4.72670048e-03 -5.91683760e-03 -2.21673232e-02 5.09937033e-02
      2.09436566e-02 -6.74198056e-03 2.14079265e-02 -2.83386614e-02
      -4.00304906e-02 -1.27562881e-02 8.84702778e-04 5.86974714e-03
      8.18242785e-03 -5.53722819e-03 -8.46510567e-03 1.45239178e-02
      -9.14512947e-03 -1.04577444e-03 1.10229598e-02 2.09769886e-02
      1.93840656e-02 8.43401346e-03 7.04969279e-03 1.67127743e-01</_>
    <_>
      5.08141192e-03 3.13612702e-03 3.34553653e-03 -1.21566495e-02
      2.45404616e-02 1.07297175e-01 1.40736461e-01 -3.03929709e-02
      -1.26794651e-01 6.78742379e-02 -5.78984898e-03 8.94652829e-02
      8.52232799e-03 -7.38379732e-03 -2.23075897e-02 5.28445095e-02
      1.98173933e-02 -5.36197843e-03 2.13410649e-02 -2.61699818e-02
      -3.66325937e-02 -1.56529415e-02 5.27096738e-04 7.84172211e-03
      9.28034261e-03 -5.92595385e-03 -7.45763816e-03 1.63200088e-02
      -9.42033716e-03 1.84528227e-03 1.12658320e-02 2.16130242e-02
      2.00129524e-02 9.40761715e-03 7.67063024e-03 1.66674301e-01</_>
    <_>
      -6.52581570e-04 -3.81026883e-03 6.76035834e-03 -2.67368648e-02
      7.98383821e-03 1.09878547e-01 1.38187915e-01 -9.55145620e-03
      -1.45935431e-01 6.30963072e-02 -4.02607257e-03 9.25248861e-02
      6.95791561e-03 -7.44623924e-03 -2.42157988e-02 5.22165969e-02
      1.92058831e-02 -4.75027412e-03 2.05243081e-02 -2.67856084e-02
      -3.92001867e-02 -1.65703092e-02 2.94862082e-03 8.03472009e-03
      8.07201583e-03 -7.60405371e-03 -6.29491871e-03 1.67333372e-02
      -1.03818383e-02 -3.38810878e-06 1.23611847e-02 2.14275438e-02
      1.95188951e-02 9.39822849e-03 6.98103243e-03 1.66544557e-01</_>
    <_>
      -3.63264866e-02 1.80612534e-01 1.80849340e-02 -8.37801322e-02
      4.02387157e-02 1.21542916e-01 1.34453729e-01 -2.08811741e-02
      -1.46581545e-01 6.40707985e-02 -8.66987184e-03 9.12260786e-02
      3.03163659e-03 -9.58040077e-03 -2.07608230e-02 4.81382050e-02
      1.57770589e-02 -4.57410188e-03 2.45556794e-02 -2.93405540e-02
      -3.54672782e-02 -1.03394240e-02 1.10777537e-03 7.40118232e-03
      1.08713927e-02 -7.61990342e-03 -8.44665617e-03 1.53975310e-02
      -1.04094809e-02 -2.14260899e-06 1.15655214e-02 2.15781145e-02
      1.95704065e-02 8.72239470e-03 7.25864479e-03 1.66411757e-01</_>
    <_>
      1.08072329e-02 6.18414860e-03 2.29087216e-03 -2.10870299e-02
      2.14146022e-02 1.12269811e-01 1.39892966e-01 -2.17147097e-02
      -1.25067979e-01 7.10249543e-02 -4.92102653e-03 8.80327597e-02
      1.21034728e-02 -7.04783946e-03 -1.98374726e-02 5.43476194e-02
      2.03679465e-02 -4.04918846e-03 1.80660654e-02 -2.49841418e-02
      -3.77246626e-02 -1.37601783e-02 -1.74896372e-03 3.05154361e-03
      9.55936406e-03 -3.43390671e-03 -8.21444858e-03 1.73648037e-02
      -8.94200150e-03 -3.95217416e-04 1.23725589e-02 2.21107583e-02
      1.98670346e-02 8.94050673e-03 7.37682870e-03 1.66595519e-01</_>
    <_>
      1.71032548e-02 -1.74424853e-02 -1.99351096e-04 -1.95023250e-02
      1.89114828e-02 1.13864608e-01 1.37784764e-01 -1.91925131e-02
      -1.30756035e-01 6.35803342e-02 -6.07980229e-03 8.81246626e-02
      7.55862845e-03 -7.25283381e-03 -2.17988975e-02 4.85921539e-02
      2.10981853e-02 -4.88398783e-03 2.08176132e-02 -2.61416733e-02
      -3.87171842e-02 -1.27610313e-02 1.05720258e-03 8.23054742e-03
      1.04071172e-02 -4.71677957e-03 -7.11765978e-03 1.47622433e-02
      -1.15828440e-02 -9.61593323e-05 1.13551356e-02 2.12046672e-02
      1.98542830e-02 9.89421178e-03 7.29425112e-03 1.66562587e-01</_>
    <_>
      1.07318573e-01 -9.84238833e-02 5.58842393e-03 -4.18688729e-02
      5.90306753e-03 1.12342492e-01 1.46921366e-01 -2.62250826e-02
      -1.45978212e-01 7.05566481e-02 -6.17771363e-03 8.43526870e-02
      1.15672089e-02 -1.23113915e-02 -2.18785871e-02 4.25900258e-02
      1.53375035e-02 -5.19921677e-03 1.89822484e-02 -2.71122046e-02
      -3.65535431e-02 -1.32487509e-02 1.96711416e-03 4.93086874e-03
      1.27408812e-02 -6.85816398e-03 -6.35257736e-03 1.59333106e-02
      -9.74076428e-03 8.22867034e-04 1.16448384e-02 2.25464962e-02
      2.04042718e-02 8.10999051e-03 7.55514624e-03 1.66170865e-01</_>
    <_>
      1.67206582e-02 -3.44635919e-02 5.57327992e-04 -1.81242656e-02
      2.34744698e-02 1.04980722e-01 1.37872517e-01 -1.44618805e-02
      -1.30600229e-01 6.28085360e-02 -9.99567471e-03 9.38446000e-02
      1.08094336e-02 -8.82090256e-03 -1.87504422e-02 5.10889776e-02
      1.73006132e-02 -6.76069641e-03 2.38248482e-02 -2.98294090e-02
      -3.70226540e-02 -1.38917509e-02 -4.88296559e-04 4.91115358e-03
      9.10522696e-03 -5.63717168e-03 -7.06546381e-03 1.52472295e-02
      -9.44132917e-03 -1.09737797e-04 1.25846025e-02 2.16875039e-02
      1.99989807e-02 9.46541224e-03 6.76175533e-03 1.66640550e-01</_>
    <_>
      1.02298759e-01 -2.10420433e-02 3.89735736e-02 -2.60697193e-02
      -5.38708176e-03 1.27472237e-01 1.41980767e-01 -2.28959657e-02
      -1.40716478e-01 6.71914145e-02 -6.02044212e-03 9.34788436e-02
      1.13097457e-02 -4.59016208e-03 -2.19295491e-02 5.05510271e-02
      1.97891258e-02 -5.86636970e-03 2.07971949e-02 -2.77128518e-02
      -3.73303480e-02 -1.43665094e-02 1.78044444e-04 8.75565689e-03
      8.68613832e-03 -7.00134691e-03 -6.89585041e-03 1.54824704e-02
      -1.00925472e-02 2.28999343e-04 1.29658040e-02 2.23840699e-02
      1.90962516e-02 8.07440188e-03 6.93811337e-03 1.66480526e-01</_>
    <_>
      -9.51174088e-03 5.34521081e-02 2.69294698e-02 -2.64986884e-02
      9.85281728e-03 1.23984881e-01 1.26406491e-01 -8.83146096e-03
      -1.38199240e-01 6.88789412e-02 -3.74884228e-03 8.75880867e-02
      6.61529182e-03 -2.79310462e-03 -1.96890309e-02 5.03800511e-02
      1.85724068e-02 -2.53324956e-03 2.05810964e-02 -2.82443166e-02
      -3.69156264e-02 -1.50872692e-02 -8.46773619e-04 6.83864625e-03
      8.63132346e-03 -7.14637712e-03 -1.01885004e-02 1.58064682e-02
      -1.02097262e-02 -4.94260399e-04 1.10771330e-02 2.11877786e-02
      1.91921797e-02 8.04579537e-03 7.69972475e-03 1.67047381e-01</_>
    <_>
      1.20492160e-01 2.45865248e-02 1.07933655e-02 -2.34554801e-02
      2.91071497e-02 1.09134741e-01 1.43552318e-01 -1.96434874e-02
      -1.37232959e-01 6.43820241e-02 -5.86831663e-03 8.69094580e-02
      9.76307131e-03 -8.99342354e-03 -2.14368179e-02 5.04899882e-02
      1.98936108e-02 -6.16252655e-03 2.22466793e-02 -3.01833469e-02
      -3.66711430e-02 -1.35157192e-02 1.29644293e-03 5.16865589e-03
      9.72638745e-03 -6.96135266e-03 -7.15781888e-03 1.53161678e-02
      -8.91891960e-03 -1.56773289e-03 1.16115473e-02 2.09765565e-02
      2.03357991e-02 8.20114836e-03 7.23842159e-03 1.66735739e-01</_>
    <_>
      9.17699784e-02 -9.40487310e-02 2.99754236e-02 -2.63219345e-02
      1.57738570e-02 1.20032258e-01 1.36859432e-01 -2.57721115e-02
      -1.37024328e-01 6.90181404e-02 -6.69804728e-03 8.94258097e-02
      1.03528276e-02 -1.22728348e-02 -1.86143853e-02 4.81327809e-02
      1.58223975e-02 -2.25496129e-03 2.34567840e-02 -2.62965877e-02
      -3.58352624e-02 -1.25620402e-02 3.28010204e-03 7.04946695e-03
      7.69503880e-03 -5.86385513e-03 -6.13601971e-03 1.28040668e-02
      -7.42129050e-03 4.04353632e-04 1.18149063e-02 2.09312998e-02
      1.91947091e-02 9.50222928e-03 6.69367332e-03 1.66835174e-01</_>
    <_>
      2.22867802e-02 -3.36251073e-02 -8.18134286e-03 -2.51705069e-02
      2.43987311e-02 1.19201392e-01 1.48153335e-01 -2.37232707e-02
      -1.37124419e-01 6.67399615e-02 -6.18540868e-03 9.11944136e-02
      4.60620737e-03 -4.73464420e-03 -2.33412571e-02 5.17808087e-02
      1.64968483e-02 -5.77378785e-03 1.98746026e-02 -2.92027649e-02
      -3.96024324e-02 -1.41430236e-02 6.56375603e-04 6.18392741e-03
      8.40365514e-03 -6.17213920e-03 -5.94265386e-03 1.54249761e-02
      -7.05316663e-03 -9.61527403e-05 1.19389035e-02 2.15530582e-02
      2.05603167e-02 9.15805530e-03 7.11677782e-03 1.66551352e-01</_>
    <_>
      -5.62418625e-02 1.61045432e-01 1.33102974e-02 -5.01925796e-02
      3.44605111e-02 1.23487353e-01 1.40695393e-01 -2.63427924e-02
      -1.40712366e-01 6.55496046e-02 -2.73543084e-03 8.54105353e-02
      4.84345527e-03 -1.06998459e-02 -1.96235143e-02 4.83919717e-02
      1.76072363e-02 -4.44028992e-03 2.12885533e-02 -2.83821113e-02
      -3.78976911e-02 -1.39019703e-02 1.46398891e-03 5.88192139e-03
      8.86368006e-03 -6.17705425e-03 -6.56755781e-03 1.59202516e-02
      -1.02335038e-02 -1.01011654e-03 1.05349608e-02 2.24167444e-02
      1.94106586e-02 8.92527588e-03 6.96808286e-03 1.66750178e-01</_>
    <_>
      -3.47687751e-02 8.36229250e-02 1.25628561e-02 -3.31248865e-02
      2.29765493e-02 1.10779956e-01 1.34202018e-01 -2.12133881e-02
      -1.42890751e-01 6.15432151e-02 -1.14543987e-02 9.16654617e-02
      6.82284124e-03 -5.66401845e-03 -1.64803248e-02 5.10639437e-02
      1.80094484e-02 -5.38057182e-03 2.03748457e-02 -2.76736021e-02
      -3.78848240e-02 -1.27334818e-02 -1.76228920e-03 8.64037685e-03
      9.70297400e-03 -5.33141475e-03 -4.71733417e-03 1.59155410e-02
      -1.06456764e-02 1.43098914e-05 1.10442564e-02 2.20919326e-02
      1.92943290e-02 8.64248909e-03 7.27664307e-03 1.66687876e-01</_>
    <_>
      3.23886007e-01 1.71225946e-02 6.03224523e-02 -2.44934820e-02
      2.95684999e-03 1.13808043e-01 1.28008410e-01 -2.45729089e-02
      -1.32262006e-01 6.85957968e-02 -8.96116253e-03 8.80596116e-02
      1.05656432e-02 -7.66251562e-03 -1.74842812e-02 5.07548079e-02
      1.89749338e-02 -5.74012846e-03 2.12229826e-02 -2.86601782e-02
      -3.57446074e-02 -1.27152633e-02 9.11360257e-04 6.71885023e-03
      8.28983262e-03 -6.33790437e-03 -6.00302313e-03 1.56441536e-02
      -1.04014566e-02 -1.14804541e-03 1.10577643e-02 2.15650890e-02
      2.00479012e-02 9.72519629e-03 7.12398160e-03 1.66548103e-01</_>
    <_>
      -7.20816711e-03 -3.64559260e-03 1.39556462e-02 -3.48148011e-02
      2.24103928e-02 1.01996765e-01 1.34089455e-01 -4.38605109e-03
      -1.45731047e-01 6.16371296e-02 -6.66348357e-03 9.13594142e-02
      8.20904039e-03 -6.38975063e-03 -2.00058874e-02 5.04425578e-02
      2.02879943e-02 -5.47567476e-03 1.74268149e-02 -2.82252822e-02
      -3.83387655e-02 -1.50392223e-02 -9.45367676e-04 5.51064312e-03
      8.87425058e-03 -5.75983385e-03 -7.58186681e-03 1.64643824e-02
      -1.06085651e-02 -1.34302158e-04 1.12140384e-02 2.10436638e-02
      1.94734316e-02 1.06874555e-02 7.99146667e-03 1.66910380e-01</_>
    <_>
      2.02350039e-02 -8.30820762e-03 1.07327197e-02 -2.59923972e-02
      1.31424293e-02 1.17823243e-01 1.41300455e-01 -2.47287527e-02
      -1.26041606e-01 6.46989495e-02 -5.54830348e-03 8.44504237e-02
      3.64464335e-03 -1.02266446e-02 -1.90248881e-02 5.16550913e-02
      1.87338181e-02 -2.82757753e-03 2.00235620e-02 -3.04093938e-02
      -3.89505774e-02 -1.23721045e-02 1.69468892e-03 5.62063884e-03
      8.42882227e-03 -4.42303810e-03 -6.21836493e-03 1.59815475e-02
      -9.29309800e-03 -7.45203055e-04 1.04782209e-02 2.22546160e-02
      2.04839800e-02 8.93158000e-03 7.00718118e-03 1.66523054e-01</_>
    <_>
      4.38696086e-01 8.29177424e-02 7.24670887e-02 -3.90491858e-02
      -1.56911016e-02 1.11733489e-01 1.39488786e-01 -1.56153738e-02
      -1.28766745e-01 6.93718866e-02 -7.11088534e-03 9.01894793e-02
      9.68636293e-03 -5.52575430e-03 -1.65989008e-02 5.24786524e-02
      2.03927346e-02 -3.01263691e-03 2.01303419e-02 -2.75603663e-02
      -3.56550142e-02 -1.27018187e-02 1.53654793e-04 6.85636746e-03
      8.88939295e-03 -6.24989392e-03 -6.32659160e-03 1.64089277e-02
      -9.49531142e-03 -7.34880450e-04 1.15778213e-02 2.16367561e-02
      2.01235618e-02 9.17628407e-03 7.49088405e-03 1.66409135e-01</_>
    <_>
      1.56887807e-02 -6.38449285e-03 3.03248200e-03 -1.91568434e-02
      2.37384103e-02 1.15334705e-01 1.38175428e-01 -2.62292866e-02
      -1.25271961e-01 6.69714436e-02 -6.33737259e-03 8.52234364e-02
      4.35923832e-03 -9.15334374e-03 -2.11667567e-02 5.02589047e-02
      2.22664513e-02 -5.41238440e-03 2.14385465e-02 -2.88355369e-02
      -3.77217121e-02 -1.34493401e-02 3.09951161e-03 7.68579170e-03
      9.29944403e-03 -7.21466029e-03 -7.08630402e-03 1.63573958e-02
      -7.38122081e-03 -9.06919886e-04 1.09485891e-02 2.20651627e-02
      1.89655013e-02 8.12480692e-03 6.78040972e-03 1.66788831e-01</_>
    <_>
      -2.84748841e-02 7.75304139e-02 9.80763976e-03 -1.90040059e-02
      3.28281708e-02 1.05478950e-01 1.40436321e-01 -2.50749886e-02
      -1.35646299e-01 6.69714734e-02 -7.64491362e-03 9.26585644e-02
      8.18053819e-03 -6.42804988e-03 -1.76217277e-02 5.03856055e-02
      1.79143753e-02 -4.81584389e-03 2.03067847e-02 -2.69184578e-02
      -3.77616324e-02 -1.53112421e-02 2.05097860e-03 6.69916719e-03
      1.04811052e-02 -7.28220167e-03 -5.98944444e-03 1.54222911e-02
      -9.98392701e-03 -6.27573445e-06 1.25256013e-02 2.20704582e-02
      1.98191460e-02 9.63667687e-03 7.07085710e-03 1.66258216e-01</_>
    <_>
      -1.45592587e-02 2.95239855e-02 7.57453823e-03 -1.50772352e-02
      3.20495442e-02 1.01918697e-01 1.39992177e-01 -2.88634840e-02
      -1.36544883e-01 6.41076118e-02 -3.80490022e-03 8.94972309e-02
      9.96393152e-03 -3.08778998e-03 -1.81995444e-02 5.04786074e-02
      1.84733327e-02 -4.93763341e-03 1.97600406e-02 -3.12913805e-02
      -3.68987247e-02 -1.40590919e-02 3.03410646e-03 6.26524910e-03
      8.70356895e-03 -5.46347443e-03 -6.67386083e-03 1.66707691e-02
      -1.03687514e-02 -1.28560665e-03 1.05549181e-02 2.11108699e-02
      1.99579988e-02 8.23883247e-03 7.12194480e-03 1.66789681e-01</_>
    <_>
      -2.30191946e-02 7.26941973e-02 -9.32676252e-04 -3.77816893e-02
      4.06220965e-02 1.14680961e-01 1.41259015e-01 -2.41998304e-02
      -1.37347430e-01 6.84137642e-02 -6.69439510e-03 8.82088691e-02
      6.65457454e-03 -7.58230221e-03 -2.02921052e-02 4.82703671e-02
      1.98146366e-02 -5.57424640e-03 2.20528673e-02 -3.01846582e-02
      -3.52215506e-02 -1.36713460e-02 -7.61343254e-05 8.75903107e-03
      8.41213856e-03 -5.65644214e-03 -5.47098927e-03 1.51330149e-02
      -8.72016791e-03 -7.54705397e-04 1.16329435e-02 2.13840380e-02
      1.93704888e-02 8.90737120e-03 6.78293360e-03 1.66854113e-01</_>
    <_>
      3.73953730e-02 5.07394085e-03 2.57969126e-02 -7.13619520e-04
      4.07766132e-03 1.11933820e-01 1.30593359e-01 -2.35996675e-02
      -1.30582854e-01 6.31472096e-02 -1.00610731e-02 8.47974271e-02
      1.16867237e-02 -6.05509896e-03 -2.15197206e-02 4.93090451e-02
      1.95368938e-02 -2.68294802e-03 2.04689298e-02 -2.61596218e-02
      -3.65196876e-02 -1.31875230e-02 9.41501174e-04 7.55751086e-03
      8.55190028e-03 -7.70626543e-03 -8.56376905e-03 1.71869472e-02
      -7.15060905e-03 -1.10421260e-03 1.26747452e-02 2.13904288e-02
      2.09136438e-02 9.11653508e-03 7.31387222e-03 1.66039273e-01</_>
    <_>
      1.90435152e-03 2.11216509e-03 4.24145535e-03 -9.01686307e-03
      1.60904117e-02 1.06773876e-01 1.42569467e-01 -2.31728200e-02
      -1.41062513e-01 7.02215806e-02 -8.70423391e-03 9.28884298e-02
      7.97053147e-03 -2.82448134e-03 -2.24749725e-02 5.47510087e-02
      1.78641025e-02 -7.41389021e-03 2.40033250e-02 -2.92783678e-02
      -3.70124951e-02 -1.41989151e-02 -1.17737125e-03 4.90527693e-03
      8.36553797e-03 -5.49440971e-03 -8.66600219e-03 1.59009453e-02
      -9.62427445e-03 6.32176700e-04 1.16389934e-02 2.15012766e-02
      1.94010884e-02 8.63060448e-03 7.14287581e-03 1.67047247e-01</_>
    <_>
      6.95061445e-01 6.47700280e-02 4.16146331e-02 -3.40158939e-02
      -2.78676138e-03 1.06074415e-01 1.41123116e-01 -1.85354352e-02
      -1.31948143e-01 6.48026913e-02 -7.80749321e-03 8.83190483e-02
      1.01196291e-02 -6.78016804e-03 -1.83188654e-02 5.05711399e-02
      1.90157630e-02 -4.06004768e-03 2.12208983e-02 -2.73052324e-02
      -3.65974568e-02 -1.26714529e-02 9.70632362e-04 6.83909934e-03
      9.32844914e-03 -5.64767374e-03 -6.27279701e-03 1.58779323e-02
      -9.40795336e-03 -9.38649406e-04 1.16846235e-02 2.17277687e-02
      1.97945833e-02 8.84237140e-03 7.33472407e-03 1.66450992e-01</_>
    <_>
      -8.44684243e-03 1.35767739e-02 3.84336500e-03 -2.45363917e-02
      2.07797699e-02 1.07496589e-01 1.41062364e-01 -1.61404014e-02
      -1.45271897e-01 6.93271682e-02 -7.41146097e-04 8.73162448e-02
      8.56855605e-03 -6.84059318e-03 -2.00115796e-02 5.12783341e-02
      2.00966001e-02 -4.05988377e-03 2.17630602e-02 -2.79336367e-02
      -3.77504528e-02 -1.44943558e-02 1.79088104e-03 6.93665957e-03
      8.77223443e-03 -6.08741352e-03 -6.59285532e-03 1.65321473e-02
      -7.81664532e-03 -6.13129057e-04 1.20140584e-02 2.23052129e-02
      2.06701122e-02 8.66618659e-03 6.90392544e-03 1.66238680e-01</_>
    <_>
      6.60652621e-03 7.31488643e-03 -7.04337936e-03 -2.34951433e-02
      3.17047201e-02 1.00504100e-01 1.41422004e-01 -1.86316222e-02
      -1.36651948e-01 7.01175183e-02 -6.87309960e-03 9.31328759e-02
      9.89457313e-03 -7.63566699e-03 -2.14125272e-02 5.30757830e-02
      1.96930263e-02 -6.28428441e-03 2.56574824e-02 -2.47930028e-02
      -3.79857942e-02 -1.48514807e-02 1.01346662e-03 7.18029588e-03
      1.17125623e-02 -7.07792770e-03 -6.69798208e-03 1.55959493e-02
      -8.24434590e-03 -4.12382273e-04 1.12709170e-02 2.14480665e-02
      1.95606966e-02 9.75145679e-03 7.41727417e-03 1.66592941e-01</_>
    <_>
      1.15107233e-02 -9.33285523e-03 1.86935272e-02 1.68139406e-04
      -1.84227247e-02 1.10112987e-01 1.26759648e-01 -1.42787034e-02
      -1.41287968e-01 6.87046573e-02 -1.60183932e-03 8.40053186e-02
      9.92673729e-03 -6.94022793e-03 -2.22112089e-02 5.11636473e-02
      1.96794458e-02 -1.05136326e-02 2.03411654e-02 -2.98284777e-02
      -3.51424031e-02 -1.42690316e-02 -1.53004483e-03 6.99662138e-03
      9.61521268e-03 -6.64503360e-03 -6.63989224e-03 1.59873795e-02
      -1.03309136e-02 -1.29411416e-03 1.14414599e-02 2.15283278e-02
      1.97959188e-02 1.02525000e-02 7.06901634e-03 1.66769609e-01</_>
    <_>
      2.38530673e-02 -2.31021736e-02 -1.33076431e-02 -1.95678975e-02
      2.13553123e-02 1.31655335e-01 1.42599359e-01 -2.09767204e-02
      -1.30698919e-01 6.31272793e-02 -5.56558557e-03 8.57465938e-02
      8.70824512e-03 -1.14053162e-02 -2.26467885e-02 5.53692728e-02
      1.55423526e-02 -5.25712501e-03 2.78962422e-02 -2.81076692e-02
      -3.48086096e-02 -1.13060158e-02 1.43873715e-03 3.88461538e-03
      1.05967047e-02 -8.05286318e-03 -6.18665572e-03 1.56941656e-02
      -9.59064160e-03 -6.18168153e-04 1.19986469e-02 2.13620570e-02
      1.88125353e-02 9.33342800e-03 7.08222436e-03 1.66552722e-01</_>
    <_>
      9.61275399e-02 3.01230233e-02 4.12283018e-02 -2.69017089e-02
      -1.21384338e-02 1.12053439e-01 1.43134877e-01 -3.03859487e-02
      -1.34296522e-01 6.75517395e-02 -8.09476618e-03 8.75652954e-02
      7.23264925e-03 -2.01203185e-03 -1.98240634e-02 4.97186296e-02
      1.91633552e-02 -7.66709866e-03 2.09092069e-02 -2.67708879e-02
      -3.82515825e-02 -1.27387429e-02 1.53544231e-03 7.79944798e-03
      9.45969950e-03 -6.02385728e-03 -7.27899605e-03 1.67493355e-02
      -9.61816870e-03 -5.33520593e-04 1.20260147e-02 2.19254494e-02
      1.90210417e-02 9.20720678e-03 7.54466699e-03 1.66316986e-01</_>
    <_>
      -5.11389133e-03 -8.04751544e-05 4.97621670e-03 -2.05268580e-02
      1.58748012e-02 1.07111149e-01 1.28271684e-01 -1.19854789e-02
      -1.44320905e-01 6.28112704e-02 -7.22200517e-03 8.98998231e-02
      6.48385519e-03 -6.36169035e-03 -2.34740544e-02 4.87111211e-02
      1.75137129e-02 -6.07844302e-03 2.64151506e-02 -2.78261472e-02
      -3.57110426e-02 -1.24070756e-02 3.82538070e-04 3.63336201e-03
      9.98424366e-03 -6.68682810e-03 -7.14127999e-03 1.54307270e-02
      -8.60204548e-03 -2.39973282e-03 1.14037711e-02 2.14030165e-02
      1.93542223e-02 9.18536261e-03 7.24331569e-03 1.66807607e-01</_>
    <_>
      -4.38530222e-02 1.02052465e-01 2.05227709e-03 -2.57345312e-03
      1.79853365e-02 1.17517002e-01 1.46714106e-01 -2.59632636e-02
      -1.41472757e-01 6.67615011e-02 -4.84053604e-03 8.93152133e-02
      6.22863229e-03 -8.45640153e-03 -2.00536456e-02 5.24733588e-02
      2.05591787e-02 -4.33746027e-03 2.22555790e-02 -2.75430921e-02
      -3.61049138e-02 -1.31459758e-02 -7.85402837e-04 7.09249731e-03
      1.10787470e-02 -5.09294216e-03 -6.59377081e-03 1.56722646e-02
      -9.33663640e-03 -1.51645014e-04 1.21192904e-02 2.15580482e-02
      2.00689472e-02 8.92230496e-03 7.63165997e-03 1.66414723e-01</_>
    <_>
      -3.38701345e-02 8.75609815e-02 1.04970867e-02 -2.99368408e-02
      4.21322957e-02 1.02617003e-01 1.40138760e-01 -2.28107627e-02
      -1.36551201e-01 6.57848567e-02 -5.54063963e-03 9.53295082e-02
      8.40646029e-03 -5.65891014e-03 -1.76836867e-02 4.82248887e-02
      1.69366468e-02 -6.41797110e-03 2.09702495e-02 -2.73512769e-02
      -3.77504565e-02 -1.49954474e-02 -6.59323647e-04 8.60969257e-03
      9.14811715e-03 -5.02930023e-03 -7.32921250e-03 1.63220242e-02
      -9.24732629e-03 -5.59275853e-04 1.11265462e-02 2.17620116e-02
      2.01916806e-02 9.00742225e-03 7.48206489e-03 1.66650012e-01</_>
    <_>
      -8.12735036e-02 1.96434021e-01 1.62899792e-02 -6.50668442e-02
      3.59676816e-02 1.18629865e-01 1.43177107e-01 -2.41148472e-02
      -1.46741942e-01 7.27476701e-02 -1.32016069e-03 9.03465003e-02
      8.21551681e-03 -1.11744162e-02 -2.29628235e-02 4.80737090e-02
      1.70586165e-02 -5.99091360e-03 2.18706168e-02 -2.85953246e-02
      -3.65751982e-02 -1.37267038e-02 -1.34072243e-03 7.27578904e-03
      7.00002210e-03 -6.62001409e-03 -7.35970354e-03 1.50429821e-02
      -9.38424841e-03 -2.40253736e-04 1.14644123e-02 2.21859291e-02
      1.97710805e-02 8.94746371e-03 7.01378984e-03 1.66824371e-01</_>
    <_>
      1.51796034e-02 -2.03097728e-03 6.48720888e-03 -2.58861594e-02
      2.58797091e-02 1.18557572e-01 1.39721796e-01 -2.91997101e-02
      -1.26134023e-01 6.89847767e-02 -2.91143870e-03 8.74840394e-02
      4.15138481e-03 -7.72372633e-03 -1.85585432e-02 5.36362007e-02
      2.15065964e-02 -5.07338298e-03 2.18848456e-02 -2.92369537e-02
      -3.72441895e-02 -1.33863613e-02 8.95157864e-04 7.32553843e-03
      1.02985781e-02 -6.04584115e-03 -7.43794348e-03 1.53326364e-02
      -1.11836605e-02 4.96006163e-04 1.16904788e-02 2.28417832e-02
      2.01021191e-02 9.67309438e-03 6.91823009e-03 1.66238874e-01</_>
    <_>
      -4.35287915e-02 1.08070910e-01 9.61876847e-03 -1.61425341e-02
      3.62180360e-02 9.80603173e-02 1.48156524e-01 -2.94280536e-02
      -1.31713316e-01 6.59124628e-02 -1.69772003e-03 8.77104253e-02
      5.99247729e-03 -7.89678004e-03 -1.81405488e-02 5.37355430e-02
      1.91078391e-02 -5.50877769e-03 1.96399353e-02 -3.07085346e-02
      -3.65372337e-02 -1.27001069e-02 -1.12254312e-03 9.02949087e-03
      8.74703936e-03 -5.73705789e-03 -6.84818393e-03 1.62139498e-02
      -8.39714147e-03 1.21714824e-04 1.15490276e-02 2.20668148e-02
      2.00092308e-02 9.65546351e-03 7.38931913e-03 1.66410819e-01</_>
    <_>
      1.15947891e-02 -7.30614783e-03 1.40077155e-03 -2.09517386e-02
      1.93925407e-02 1.14167444e-01 1.37242734e-01 -2.30118521e-02
      -1.29908308e-01 6.55585453e-02 -5.80177503e-03 8.83444846e-02
      6.91071386e-03 -8.06366093e-03 -2.18647178e-02 5.06813116e-02
      2.06115283e-02 -5.07490896e-03 2.11913809e-02 -2.63796877e-02
      -3.80683802e-02 -1.34002902e-02 1.21917843e-03 6.33527245e-03
      1.02380887e-02 -8.04632157e-03 -7.17678061e-03 1.57085322e-02
      -9.41806659e-03 -4.34732734e-04 1.12910522e-02 2.19118670e-02
      1.98212080e-02 9.04671103e-03 7.78118568e-03 1.66461810e-01</_>
    <_>
      -3.81765068e-02 9.77357030e-02 1.89099852e-02 -3.25951949e-02
      3.66679467e-02 1.02549292e-01 1.42341584e-01 -2.87324991e-02
      -1.36453971e-01 6.45950660e-02 -5.08513814e-03 9.13437232e-02
      6.88902475e-03 -8.11287109e-03 -1.93819422e-02 5.08423522e-02
      1.94977149e-02 -7.62146246e-03 1.80550721e-02 -2.52791122e-02
      -3.80629450e-02 -1.33878868e-02 -7.11991102e-04 6.30621659e-03
      8.90617818e-03 -3.87430144e-03 -5.90289757e-03 1.74861327e-02
      -9.70017817e-03 -1.39719585e-03 1.12809539e-02 2.14835014e-02
      1.90044250e-02 8.41864944e-03 7.12653995e-03 1.67026624e-01</_>
    <_>
      -2.60557458e-02 7.16844499e-02 1.75479967e-02 -3.18555720e-02
      5.78044495e-03 1.07842013e-01 1.32854089e-01 -1.18353171e-02
      -1.45595983e-01 6.61577955e-02 -7.24763330e-03 9.19837505e-02
      5.45576122e-03 -9.53313801e-03 -2.30734050e-02 5.29929325e-02
      1.85254142e-02 -5.93593437e-03 2.22475491e-02 -2.51745209e-02
      -3.77654023e-02 -1.66219715e-02 2.77281995e-03 5.30935777e-03
      1.08284866e-02 -6.43561408e-03 -6.02487335e-03 1.66257732e-02
      -8.67343415e-03 -3.97510012e-04 1.25027057e-02 2.21060161e-02
      2.00633872e-02 1.00446139e-02 7.54594710e-03 1.66206986e-01</_>
    <_>
      3.56391110e-02 -3.30291130e-02 -5.30452188e-03 -1.27788289e-02
      9.19804536e-03 1.34516001e-01 1.44482791e-01 -1.94619056e-02
      -1.44497290e-01 6.72562420e-02 -8.11795145e-03 9.38961878e-02
      9.74885467e-03 -6.25423901e-03 -2.08469983e-02 5.24964668e-02
      1.75800808e-02 -3.68112396e-03 2.21632663e-02 -2.62786355e-02
      -3.83453444e-02 -1.26887262e-02 -7.48214545e-04 8.18771776e-03
      9.54665616e-03 -5.74954925e-03 -4.66434006e-03 1.44015215e-02
      -9.72606335e-03 -9.71888541e-04 1.23444879e-02 2.10241973e-02
      1.86924413e-02 8.45406950e-03 7.19857542e-03 1.66738689e-01</_>
    <_>
      2.90410537e-02 6.35722131e-02 7.83472136e-03 -6.28393367e-02
      3.62063609e-02 1.04344688e-01 1.30570307e-01 -1.89458560e-02
      -1.41087428e-01 6.54120520e-02 5.40980743e-03 8.97523984e-02
      7.99879991e-03 -1.52710837e-03 -2.61579938e-02 5.27729318e-02
      1.92189682e-02 -6.33169198e-03 2.08531227e-02 -2.77509373e-02
      -3.43785062e-02 -1.48170907e-02 1.37329695e-03 5.32089267e-03
      9.03603155e-03 -5.48026105e-03 -7.10066967e-03 1.81377158e-02
      -1.04719102e-02 -1.05849525e-03 1.22958208e-02 2.14794148e-02
      2.01888010e-02 9.29184537e-03 7.40515534e-03 1.66401133e-01</_>
    <_>
      -3.29071730e-02 8.21297169e-02 8.28933250e-03 -2.08382178e-02
      2.82113589e-02 1.00766256e-01 1.37299016e-01 -2.37733927e-02
      -1.39757842e-01 6.49281070e-02 -6.62761321e-03 9.66439694e-02
      6.56525139e-03 -9.64812003e-03 -1.67179685e-02 5.15192039e-02
      1.86080877e-02 -4.42671543e-03 2.02582367e-02 -2.86533404e-02
      -3.69665101e-02 -1.57951079e-02 1.71679759e-03 6.69438438e-03
      9.88426525e-03 -5.97450789e-03 -6.52554445e-03 1.54947508e-02
      -1.01854308e-02 -3.09871102e-04 1.08765895e-02 2.22633928e-02
      1.94943864e-02 9.02820844e-03 7.34656630e-03 1.66777477e-01</_>
    <_>
      -1.64371431e-02 2.54911147e-02 1.16826426e-02 -1.69212632e-02
      2.42982432e-02 1.04732662e-01 1.43077388e-01 -1.98778808e-02
      -1.44282058e-01 6.55992627e-02 -6.12410111e-03 9.14351344e-02
      8.03093612e-03 -4.73143579e-03 -2.28086505e-02 5.01499064e-02
      2.06053834e-02 -5.56039764e-03 2.03591138e-02 -2.79636234e-02
      -3.91878784e-02 -1.11642629e-02 -8.92569427e-04 6.12360938e-03
      8.91685020e-03 -5.09581296e-03 -6.42544962e-03 1.48478588e-02
      -9.70371440e-03 -9.60380072e-04 1.21324621e-02 2.21245326e-02
      1.94899570e-02 9.76312999e-03 7.24361604e-03 1.66462690e-01</_>
    <_>
      8.88008345e-03 -3.14522884e-03 1.02302467e-03 -4.67241975e-03
      2.77026501e-02 1.09802417e-01 1.44979954e-01 -2.35743131e-02
      -1.28945917e-01 6.92029595e-02 -6.61619147e-03 8.71551037e-02
      9.20197461e-03 -6.59114867e-03 -2.01668274e-02 5.20071574e-02
      2.15700045e-02 -5.54764178e-03 2.08587181e-02 -2.72988528e-02
      -3.57070081e-02 -1.42449811e-02 4.90063860e-04 6.82085007e-03
      9.67876520e-03 -6.86631165e-03 -5.77367609e-03 1.55469812e-02
      -6.81933155e-03 -7.18920433e-04 1.19787054e-02 2.19729524e-02
      2.02942435e-02 8.85327067e-03 6.77905651e-03 1.66567147e-01</_>
    <_>
      6.46710098e-02 -6.86659887e-02 -7.59825902e-03 -2.89949793e-02
      1.58179104e-02 1.26868978e-01 1.50340006e-01 -2.22798642e-02
      -1.48694441e-01 6.71517476e-02 -7.74088269e-03 9.54943448e-02
      8.14788043e-03 -7.47959036e-03 -2.11716685e-02 5.21502569e-02
      1.47874756e-02 -2.84322142e-03 2.29359865e-02 -2.86866110e-02
      -3.68734375e-02 -1.54684111e-02 7.95231375e-04 4.91495384e-03
      8.86247493e-03 -5.47781913e-03 -6.82784338e-03 1.50537975e-02
      -1.03685008e-02 -4.15875053e-04 1.38711790e-02 2.28724871e-02
      1.96680222e-02 9.08457674e-03 7.03116180e-03 1.66116819e-01</_>
    <_>
      -5.45114651e-02 1.46417335e-01 1.96452159e-02 -1.58036277e-02
      -8.03630892e-03 1.20435037e-01 1.41821086e-01 -2.00775396e-02
      -1.42748117e-01 6.59755915e-02 -9.20934137e-03 8.79201740e-02
      4.93492605e-03 -9.53257456e-03 -1.98813546e-02 5.02064005e-02
      1.70485638e-02 -5.52337384e-03 2.17423514e-02 -2.61571314e-02
      -3.68888937e-02 -1.44311050e-02 6.86624087e-04 5.66854654e-03
      1.06930938e-02 -6.85718330e-03 -9.46336333e-03 1.58332661e-02
      -1.05952816e-02 8.74920952e-05 1.20447492e-02 2.22876705e-02
      1.97042637e-02 9.03982576e-03 7.41577102e-03 1.66474506e-01</_>
    <_>
      -1.44503182e-02 1.31433252e-02 5.06284740e-03 -2.44470742e-02
      1.81241427e-02 1.17424391e-01 1.33727685e-01 -1.15616312e-02
      -1.50364920e-01 7.10634291e-02 -2.54270242e-04 9.05744657e-02
      7.45352963e-03 -6.61403732e-03 -2.19359752e-02 4.99384813e-02
      1.81305930e-02 -5.48394490e-03 2.24069022e-02 -2.83992607e-02
      -3.69797871e-02 -1.44536020e-02 7.14937225e-04 6.26991969e-03
      1.19480984e-02 -8.00455827e-03 -5.64516615e-03 1.49349542e-02
      -1.06886039e-02 -8.54878162e-04 1.08048106e-02 2.09330395e-02
      1.98039301e-02 9.00592096e-03 7.69453729e-03 1.66732967e-01</_>
    <_>
      7.09645171e-03 -6.63153175e-03 -3.86825326e-04 -1.68233700e-02
      1.69698671e-02 1.15129955e-01 1.36866480e-01 -2.29640510e-02
      -1.29413709e-01 6.85434937e-02 -8.30679480e-03 8.94099474e-02
      7.26233376e-03 -1.07477717e-02 -2.34965980e-02 4.85557914e-02
      2.08320171e-02 -6.40752539e-03 1.97786596e-02 -2.89323367e-02
      -3.84395160e-02 -1.44677022e-02 1.22494402e-03 7.51222437e-03
      9.00502317e-03 -3.55049106e-03 -9.18691978e-03 1.51215075e-02
      -9.52574611e-03 -8.58918182e-04 1.10499514e-02 2.29070950e-02
      2.01960560e-02 8.37657880e-03 7.09675904e-03 1.66668236e-01</_>
    <_>
      4.08429541e-02 -1.35974884e-01 1.03931101e-02 -6.14147037e-02
      2.29233922e-03 8.01948011e-02 1.42416060e-01 -3.41564454e-02
      -1.74598679e-01 9.63632837e-02 1.62263517e-03 5.67708910e-02
      1.19011989e-02 -2.00460367e-02 -1.55779123e-02 5.99098727e-02
      1.90539677e-02 -1.05254278e-02 1.57537051e-02 -3.63914110e-02
      -4.06750292e-02 -1.43699208e-02 4.51471517e-03 7.47042103e-03
      7.67404633e-03 -4.57545277e-03 -5.81386546e-03 1.62788201e-02
      -7.78827583e-03 -1.37346028e-03 1.22842779e-02 1.97120812e-02
      1.91179644e-02 6.44103717e-03 8.91368557e-03 1.66316628e-01</_>
    <_>
      -8.82227719e-03 1.33501207e-02 9.88599472e-03 -2.64113173e-02
      1.89958047e-02 1.14689544e-01 1.32880539e-01 -1.78471599e-02
      -1.45931855e-01 6.69469833e-02 -1.34666352e-05 8.77780840e-02
      6.14894414e-03 -7.23373285e-03 -2.43676249e-02 5.17564043e-02
      1.86802987e-02 -5.84095763e-03 2.08377410e-02 -2.71498282e-02
      -3.77559923e-02 -1.26017025e-02 2.24001263e-03 4.03630594e-03
      1.00126965e-02 -7.66875036e-03 -6.43006153e-03 1.62851494e-02
      -8.82752147e-03 -1.70198677e-03 1.29260188e-02 2.12213155e-02
      2.00587641e-02 9.38285515e-03 7.44233187e-03 1.66179493e-01</_>
    <_>
      6.58902572e-03 1.68670472e-02 1.05456272e-02 -1.38093084e-02
      2.84896921e-02 1.09412402e-01 1.44183531e-01 -2.84464415e-02
      -1.35439456e-01 6.03411235e-02 -4.64297691e-03 8.43005329e-02
      8.98349192e-03 -2.30295165e-03 -2.17872933e-02 4.82264087e-02
